layer1node1,layer1node2,layer2node1
-0.048965417,0.012245527,-0.471222
-0.017816529,-0.055572234,-0.3811158
-0.025223978,0.004832998,
-0.04153171,-0.0006152995,
-0.02749059,-0.026897907,
-0.052342914,-0.011293241,
0.0034776793,0.046248157,
-0.03818355,0.029660229,
-0.020202657,0.014332067,
0.08757307,-0.040265977,
-0.0666685,0.042987775,
-0.035680786,-0.01923658,
0.01774747,0.015230788,
-0.004269987,0.030950196,
-0.0050860364,0.095235676,
0.057395224,-0.003387697,
0.040041033,-0.023535343,
0.030279892,0.01263464,
0.041518748,-0.08948724,
0.068034425,-0.0008471954,
0.01996991,0.0081338,
0.06636695,0.030618653,
0.000950387,0.003745156,
-0.035951275,-0.06575875,
-0.07115681,0.015292681,
-0.105536625,-0.013203443,
0.013320532,-0.03437253,
0.019306663,-0.05147404,
-0.0727383,0.026432823,
0.12241112,0.092487834,
0.020750035,-0.008142062,
-0.054619744,0.003054393,
0.10490939,0.06850805,
-0.014331452,0.013836247,
-0.04856792,0.008886278,
-0.072300375,-0.0021303736,
-0.043568995,-0.118386604,
0.04594709,0.017304461,
0.038589936,0.0125741875,
-0.024422176,0.028760478,
0.05414824,-0.006740039,
0.0031790757,-0.0066848025,
-0.041486,-0.020652412,
-0.00976709,-0.04522331,
-0.06985981,0.028805422,
-0.067753986,-0.022710755,
-0.02598572,-0.07039618,
-0.017615624,-0.12407868,
-0.007275495,-0.00017800942,
-0.0472424,-0.011008293,
0.009454294,-0.015624488,
-0.006417521,0.014023322,
0.027803453,-0.038267877,
-0.03551723,0.052383896,
0.008687655,-0.05395205,
-0.12195211,-0.0445758,
-0.007707236,-0.0028084342,
-0.09376055,0.03507575,
-0.0566794,-0.015783712,
-0.028043943,-0.021119803,
-0.051516525,-0.015709313,
-0.052733433,0.071397886,
0.0019207867,0.023742406,
-0.008796505,0.01428714,
0.060921904,-0.0203803,
-0.043011468,0.028057,
0.02579871,-0.0804659,
0.0041254302,-0.072390564,
0.07676962,0.003988394,
0.0657842,-0.0048891427,
-0.05936304,-0.017820587,
0.049919695,0.009752737,
0.04631707,-0.005280202,
0.01432184,0.033444427,
-0.037442017,0.038931213,
0.05406572,0.016381154,
0.07688548,0.0049250005,
-0.12770861,-0.00066950585,
0.07361612,-0.009825949,
-0.028880363,0.019697972,
0.07780284,0.053220708,
-0.0038684292,0.0028334623,
-0.029109163,0.0851149,
-0.090987585,0.12237213,
-0.016577817,-0.070250735,
-0.053354166,-0.05445441,
-0.021427076,0.0038239642,
0.04436542,-0.03607313,
-0.08603691,-0.01772592,
-0.04584308,0.0419621,
0.0013027673,0.027965957,
-0.0043614632,0.05360057,
0.016590305,-0.08720043,
-0.07612575,0.045033496,
0.027370492,-0.07686163,
-0.007034388,0.06352851,
0.0108943805,-0.006399028,
0.028390184,0.062029358,
-0.044658802,0.017131748,
0.055200744,0.022989566,
-0.03619852,0.04650583,
-0.035056483,-0.02836837,
-0.026549445,0.048207853,
-0.0014120033,0.021419872,
0.018909875,-0.03695933,
-0.04602782,0.012059473,
-0.08373349,0.0071054157,
-0.0075887814,0.10119683,
0.020734351,0.008667329,
0.00855196,0.034480542,
0.02774786,-0.03423731,
0.04157682,0.033461228,
0.028122967,-0.01846341,
-0.020013768,-0.051724896,
0.03403393,-0.025568018,
0.040004868,0.034964144,
-0.020340778,-0.06697119,
0.008161381,0.072901756,
-0.03417362,0.0015356714,
0.03037269,0.10871591,
0.036090795,0.07549714,
0.03339513,0.03716712,
-0.05310497,-0.018699111,
-0.09671963,-0.065177955,
0.0055295136,0.04888251,
-0.04416859,0.0014539688,
-0.024289057,-0.08821704,
0.047756173,0.075067736,
0.08240548,-0.051093493,
0.13355519,-0.021253455,
0.00933711,-0.04087213,
-0.011188101,-0.03006088,
-0.01371663,-0.047847085,
-0.08744818,0.045590185,
0.0498544,-0.075175084,
0.025461629,-0.03104441,
-0.001775992,0.0035114496,
0.018658124,0.0071588145,
0.040880814,-0.050278362,
0.09420734,0.029950978,
0.085469894,-0.04631307,
0.04564951,-0.03201259,
-0.027148712,0.026195819,
0.037828136,-0.07163983,
0.049565963,-0.020137146,
0.022338718,-0.021198876,
-0.086102314,0.038013477,
0.02222669,-0.0018344261,
0.013589843,0.012338712,
0.03400916,-0.050741993,
-0.011212942,0.003004609,
-0.006584495,-0.018788407,
0.03694014,0.05077131,
-0.10097013,0.0075211762,
0.050425034,0.08264166,
0.01717982,-0.03174903,
-0.025204625,0.0017765576,
-0.021296673,-0.008984765,
0.05261363,0.021955622,
0.09382451,0.009716074,
0.0152133275,-0.14313388,
-0.027274497,-0.032680094,
-0.010330671,0.04004387,
-0.0047240932,-0.090513185,
-0.008150656,0.021110158,
-0.04274603,0.018402046,
-0.06368761,-0.039391376,
0.020927634,-0.032058433,
0.011129783,0.036156595,
0.10566769,0.061879646,
0.009309741,0.024921449,
0.0501775,0.032669257,
0.072177745,-0.062392823,
0.057681978,-0.029669803,
0.014755766,-0.06322807,
-0.09387221,0.010707409,
0.033999283,0.029605169,
-0.005138019,0.070104755,
-0.01377468,-0.07493516,
0.09128046,0.038970485,
0.02085299,-0.0060775797,
-0.034339722,-0.05235283,
-0.0963313,0.032659926,
0.03690246,-0.045594446,
-0.07711513,0.0035596702,
-0.027525822,-0.00072839623,
-0.011099931,0.069701694,
0.06831089,0.01300724,
0.038961906,0.03080695,
0.043062642,-0.020860026,
0.008549974,-0.047712617,
-0.049309507,-0.014569696,
0.0028506217,0.03263578,
-0.04210346,-0.03194766,
-0.07719645,0.05046499,
-0.032772478,0.011728805,
0.060339987,0.0066290493,
-0.063057095,0.033879567,
0.008407227,-0.04524692,
-0.011287893,0.011324291,
-0.029922428,0.034401722,
0.059612527,-0.05750162,
-0.046742726,0.03890907,
-0.0763632,0.053178363,
0.052573815,-0.083578594,
0.13049251,0.02727785,
0.015400206,0.04034268,
-0.035188198,-0.04062533,
0.026721308,0.040855493,
-0.0039387783,0.024157645,
-0.018730959,-0.010553626,
-0.042808317,0.013317741,
0.005384944,0.0049878787,
0.0576828,0.00042983866,
0.014383168,0.041475095,
-0.05934702,-0.044612505,
-0.055054665,-0.0061307023,
-0.0149391135,-0.035394803,
0.03632274,0.1579529,
0.089679375,-0.046084493,
-0.022264067,0.05775188,
0.04921816,-0.031641368,
0.025641704,-0.013396916,
-0.07885855,-0.014639016,
-0.0456916,-0.022746976,
-0.021620397,0.03190675,
-0.03774805,-0.06763025,
0.059694417,-0.047454562,
0.044669975,-0.058629163,
-0.07573953,-0.13471131,
-0.0590608,0.057849232,
-0.055871084,-0.035104394,
-0.018131582,0.051711943,
-0.028535897,-0.10018682,
0.030735325,-0.049638998,
0.032318596,-0.034604065,
0.04386741,-0.009587908,
0.007306707,-0.011219439,
0.0374378,0.008454978,
0.01911203,-0.033997674,
-0.041249406,0.04972354,
-0.10416494,0.045248117,
0.0026335556,0.008702844,
-0.07777258,-0.00076128833,
0.019928657,-0.011807621,
0.09980946,-0.016206052,
0.008777493,-0.0523705,
-0.08336441,0.0062603145,
0.024588812,-0.010966944,
0.08895773,-0.004347674,
-0.0140686035,-0.018119272,
-0.011969644,0.0094585745,
-0.011855832,0.02901884,
-0.0134031195,0.06391078,
0.021431925,0.014904674,
0.03898076,0.05648115,
-0.03247461,0.034054283,
-0.019891549,0.03674097,
-0.0057303146,-0.046233904,
-0.034216486,0.0986596,
-0.0061299335,-0.020482844,
-0.0614201,-0.014286577,
0.09200386,-0.070111975,
0.06595948,-0.017962918,
-0.08130515,0.1032841,
0.0066648293,0.10836611,
-0.022920022,-0.012431301,
-0.03223087,-0.03096258,
0.055924367,-0.016814621,
0.057764474,-0.105979435,
0.029703353,-0.06326295,
0.039310142,0.06849438,
0.04056125,0.0009920081,
0.017307684,0.0838111,
-0.026026221,-0.031734165,
-0.057326626,-0.06358748,
0.06029667,-0.06378025,
0.04245867,-0.0034121,
-0.052590273,0.07521779,
0.033077683,-0.006456557,
0.018401995,0.016128223,
-0.09188085,-0.017725592,
-0.046947826,-0.0076839635,
0.011451254,0.0023855797,
0.034786418,-0.009430485,
0.021947691,0.04034594,
0.00022414453,0.02306315,
-0.056395505,0.08534211,
-0.015995463,-0.021005096,
-0.004614228,0.03565313,
0.08514631,-0.034343723,
0.016214358,0.006576552,
0.050182365,0.05872524,
0.013552916,0.01723871,
-0.055333264,0.010920781,
-0.02751372,-0.08281979,
0.0037729319,-0.015500887,
0.03708759,0.034777716,
0.04292407,-0.06392335,
-0.08371462,0.042645197,
-0.04952955,0.053499594,
-0.053528864,0.04929263,
0.07186702,0.06672331,
0.0062010493,0.018854175,
0.10212767,0.0066505703,
-0.02798551,-0.050480533,
0.080998585,0.016544243,
0.00743638,0.026990028,
0.017119499,0.012710354,
-0.061293527,0.0045408783,
0.024247061,-4.270367e-05,
0.05747554,0.09236128,
0.0041243634,0.023263516,
-0.0063265446,0.047274265,
-0.019895291,0.050783094,
0.007878437,-0.003129767,
0.051192135,0.021275807,
0.031429127,-0.09986873,
0.014787089,-0.0005818894,
0.029410321,-0.06352279,
-0.039151605,-0.04669136,
-0.03893918,0.0666474,
0.06638073,-0.010393162,
0.008630963,-0.011547054,
0.04269522,-0.038965043,
0.088448346,0.0003424681,
0.09654707,-0.046151936,
0.056799702,0.025158716,
0.05081074,-0.012833841,
0.0121603655,-0.039680958,
-0.0707563,0.08877291,
0.04079517,0.0071886764,
0.06339966,-0.005065156,
0.078634255,0.051084667,
0.039816406,0.013026185,
0.020460911,0.030206505,
0.043436274,0.07023765,
0.022472505,0.0066042063,
-0.00013053893,0.06602962,
0.054301303,0.0127602555,
0.019183887,0.04689403,
0.054999392,0.07277914,
0.05916319,-0.014055206,
-0.0055243867,0.08733964,
0.07003296,-0.054866154,
0.05295506,-0.0030389044,
-0.00764454,0.010474017,
0.020837694,0.050401896,
-0.02482091,-0.067962036,
-0.007687532,0.04182921,
0.00037268543,-0.0147251515,
0.0032683746,-0.005262338,
0.1010295,0.0494352,
0.051817246,-0.027694512,
0.0684409,0.022766346,
-0.002162677,-0.008975067,
0.023282994,-0.022766136,
-0.009261689,-0.011903971,
0.009834018,-0.031218298,
0.026450813,0.093762405,
-0.042580556,-0.0979412,
0.018169362,0.07762242,
0.055805188,0.033816017,
0.0796942,-0.011169333,
-0.040050466,-0.0006033305,
0.017332638,-0.054390818,
0.04276913,-0.025125481,
-0.018271968,-0.048468705,
0.054650195,0.0031238785,
-0.0406709,-0.02015904,
-0.0075505637,0.07706372,
-0.110693134,0.059577364,
-0.012421396,-0.049257882,
-0.030963479,-0.01972049,
0.023415146,0.0017209142,
0.056633,0.020267004,
0.041890718,0.067386776,
-0.046402287,0.023182884,
0.051649906,0.053935084,
0.058121182,-0.04025248,
-0.16348125,-0.015797134,
-0.018503346,-0.015883561,
-0.058286887,-0.118714035,
0.094821915,-0.025491174,
0.009916889,0.009494787,
0.0020541695,0.034565646,
-0.05647245,-0.02340294,
-0.005408856,-0.044716336,
0.0017308104,0.048052855,
-0.009767324,0.030995091,
-0.024597226,0.10724013,
0.045422833,-0.054318234,
-0.038961824,0.065513834,
0.064649336,-0.045193303,
-0.01620831,0.0023296396,
0.11040419,0.023615122,
-0.019356076,-0.0026242381,
-0.043901786,-0.02412427,
0.05959083,0.009820085,
0.03605182,-0.017257113,
0.04324771,0.03858851,
-0.0679656,0.0066517205,
0.027069695,-0.0025969225,
0.013511825,-0.057587177,
0.04817593,0.035869084,
0.01334887,0.038497824,
-0.075890474,-0.009253704,
0.00045990298,-0.059344765,
-0.08683801,-0.11737529,
0.032928694,0.028997552,
0.12206482,0.04648839,
0.06537484,-0.11557238,
0.03516064,-0.0033375015,
-0.081792474,0.005168796,
0.010579643,0.089930885,
0.027932722,0.11057615,
-0.061482668,0.057633437,
-0.020184522,-0.003860218,
0.032300383,-0.07294208,
0.07644107,-0.027116433,
-0.057630677,-0.0022804742,
-0.006452269,0.07087186,
-0.0019152638,-0.041292906,
-0.072622105,0.0089561185,
-0.024171999,-0.0548608,
-0.022824394,-0.03843471,
-0.06389994,-0.058934744,
0.059438102,0.022140529,
-0.039335348,0.03966803,
0.06014479,0.010320442,
-0.0068266243,0.0075051864,
0.012303553,0.0023705075,
0.008123142,0.028414438,
-0.0020014758,-0.039883956,
0.051390033,-0.042036694,
-0.06052773,-0.05824978,
-0.00026202863,0.010850506,
0.061759926,0.024336753,
0.024617152,0.0031086819,
0.006808431,0.05545797,
0.077799305,0.093566075,
0.018327978,-0.008576707,
0.0051476615,0.00849551,
0.061187167,0.07114515,
-0.0392349,0.014395335,
0.027986135,-0.027858732,
-0.049743567,-0.0053247036,
0.08907733,-0.004939627,
-0.0671307,0.0855341,
-0.10324324,0.04804696,
0.032129884,-0.032063507,
-0.05173695,-0.013776196,
0.029242784,-0.0045821024,
0.007033292,0.07203351,
-0.053420678,-0.07150642,
-0.016335398,-0.0021600353,
0.08046238,0.043443553,
0.042467117,0.057021685,
-0.039839476,0.033621855,
-0.005678166,-0.085177496,
-0.0076523144,0.078929506,
0.040080406,-0.092652135,
-0.06741394,-0.08718707,
-0.0500882,0.09207668,
0.051326655,-0.0096020205,
0.02610199,-0.053662837,
0.07740576,-0.038419258,
0.07701821,-0.015262248,
0.049263906,-0.07610402,
0.09680474,0.020922992,
-0.01980354,-0.032993384,
0.027339615,0.06762772,
0.01959698,0.1267057,
0.07058538,0.008074988,
0.037886675,0.07531285,
-0.037502732,-0.06911993,
0.016897628,0.12907705,
-0.1253711,0.05578856,
0.102063015,0.05753455,
0.0069751544,0.042614117,
0.07793589,0.0548874,
0.07001837,0.08356808,
0.0009910592,0.08270997,
-0.015172626,0.036818694,
0.023316272,0.045707192,
0.094458945,0.009375703,
-0.025320865,0.07478509,
0.071516596,0.068139404,
-0.010126143,-0.022142254,
0.025330646,0.015115232,
-0.076680414,0.013081083,
-0.009466328,-0.021465749,
0.04724331,-0.045620117,
0.012314423,-0.031093813,
-0.042273827,0.068971425,
0.0004363819,0.058199506,
-0.045295432,0.026814245,
-0.045365658,0.013870883,
0.027359484,-0.03400874,
-0.018899554,0.056718286,
-0.062337607,-0.028234655,
-0.04279823,0.016299218,
0.013452251,0.04624238,
-0.052839093,0.061948664,
0.047039315,0.0142206075,
0.05292865,0.04687322,
-0.013209661,0.053341474,
-0.018335605,0.006870411,
-0.08006665,0.11804147,
-0.034351394,-0.07477319,
0.053586837,0.12446651,
0.11809998,0.048593823,
0.05810256,0.094910756,
-0.042774767,-0.087384276,
0.027922194,-0.014842705,
-0.01485199,0.030394753,
-0.0062225703,-0.10369851,
-0.0429828,-0.007993255,
-0.010565661,0.04504863,
0.019705744,0.0147289615,
-0.018038906,0.013829873,
-0.0140623255,0.032266576,
0.010643481,-0.006879152,
0.04903544,0.026506934,
-0.027291564,-0.033888504,
-0.09686391,0.0038189718,
-0.05299655,0.017126577,
0.007244041,-0.02780392,
-0.029686777,0.0069190627,
-0.045422718,-0.07042082,
-0.04675027,-0.0105291465,
-0.04747032,-0.0071338597,
-0.06608062,0.119321406,
-0.11024285,-0.014923648,
-0.021514809,-0.002456945,
-0.003118543,0.019675476,
-0.011525482,0.022372035,
0.061872967,-0.07912701,
-0.066893876,-0.04862195,
-0.0032942796,0.036435932,
0.07166575,0.00530688,
-0.043369148,-0.00010436608,
-0.10119828,-0.023764553,
0.072912976,-0.087587476,
0.022944193,-0.007280113,
-0.06995333,0.020055737,
-0.077952504,-0.109993815,
-0.024688175,-0.046102863,
-0.0017347484,-0.105184086,
0.027453294,0.011666646,
0.00076971867,-0.039954092,
0.09012688,-9.610377e-05,
-0.021253973,-0.03677364,
0.016385155,-0.018452348,
-0.041557763,0.0123879565,
0.084074825,0.036776796,
0.051608697,-0.008310542,
-0.009088627,0.06406298,
-0.04772296,0.0023340427,
-0.00059824827,0.032317616,
0.06874531,-0.030120336,
0.025978686,0.06261542,
-0.14139721,-0.03741415,
-0.02921722,0.0097811315,
-0.033883832,0.027926369,
-0.023810996,0.007954434,
0.048188906,-0.0054451246,
0.100449465,0.034760118,
0.03386859,0.029327465,
-0.08332082,-0.028125526,
-0.07798102,0.05091455,
0.03498517,-0.0029272654,
-0.017243745,0.037699744,
0.074417494,-0.042542852,
0.035725396,0.020487845,
-0.03510225,-0.059326697,
-0.032675777,-0.06751055,
-0.01476498,-0.0033955814,
-0.14599487,-0.0063282666,
0.04817527,0.0407218,
-0.012025357,0.04570106,
-0.0008915839,-0.0061473255,
-0.020098649,-0.016209211,
-0.059429582,0.02458628,
0.0039632884,-0.0075991293,
-0.010902836,0.024418801,
-0.034765907,0.01824472,
-0.009346744,-0.0074579604,
-0.074853346,0.016890807,
-0.025390115,-0.005547005,
0.031067686,-0.003442954,
0.057242416,0.02774662,
-0.050069686,0.021187592,
-0.09465149,0.10640186,
0.0336505,0.06538975,
-0.08648814,0.091867045,
-0.017612537,0.024936264,
-0.105512,-0.020310394,
0.02746525,0.04139382,
-0.008866469,0.03431159,
-0.0059367525,-0.000702543,
0.03311602,-0.0021958838,
0.07999353,-0.009768819,
-0.07245152,0.01679647,
-0.010464868,0.00385732,
0.073247775,0.044001117,
-0.021122618,0.056443132,
-0.114807434,-0.017842315,
-0.01469564,0.023722583,
-0.026825832,0.05442901,
-0.0371856,-0.036504168,
0.0043918365,0.007127116,
0.023215938,0.08625154,
-0.089052595,-0.010891935,
0.05321255,0.06720357,
0.050976746,-0.016125046,
0.008338338,-0.0052117123,
0.09951765,-0.038382143,
-0.03841675,0.0031107385,
0.054775964,-0.04895417,
-0.037201982,0.05871169,
0.00066875224,-0.04192242,
-0.004896018,-0.033412967,
-0.032758296,-0.03389149,
-0.028207174,-0.004079455,
-0.028627675,-0.04062061,
0.067192465,-0.002745458,
0.039138716,-0.031032389,
0.023635123,-0.057218704,
0.05743066,-0.008292826,
0.06746363,-0.049545374,
0.02233626,0.015681515,
-0.0150378635,0.06702932,
-0.051074855,-0.025928207,
-0.020822609,0.038516,
0.03424909,0.08654472,
0.035707787,0.07973021,
-0.048312083,-0.010437947,
-0.04338063,0.04932761,
0.055125948,-0.020981297,
0.027409052,0.050496176,
-0.011534808,-0.031599596,
-0.007808718,0.015684586,
-0.0104557285,-0.06515859,
-0.06987079,0.009570228,
0.0047805887,0.017292418,
-0.007870637,0.106574535,
-0.01118536,-0.07191497,
-0.0739789,-0.05359981,
0.06509434,-0.08661159,
-0.028055353,-0.012979258,
-0.016188217,0.021805396,
-0.057535365,0.03374874,
0.069297,-0.054920293,
0.048412267,0.004865439,
0.03731701,-0.02739093,
-0.083826564,0.01930297,
-0.010061381,0.10552234,
0.042798214,-0.025258657,
-0.025637297,0.054241795,
0.016199855,0.0349712,
-0.077469215,-0.032973282,
0.020896662,0.050535336,
0.088252775,0.016395485,
0.0043852674,0.067481235,
0.09254122,-0.059093,
-0.055971324,-0.06989082,
0.021063246,-0.005270868,
-0.013745569,0.014583544,
-0.010157424,0.040448073,
-0.011839185,0.009398732,
-0.0016099531,-0.0633318,
-0.00014187081,0.009280198,
0.095591605,-0.04702773,
0.018388119,-0.053642057,
-0.0109568555,0.0056516067,
0.06250471,-0.040617105,
0.038272575,-0.009651559,
-0.031870604,0.028873425,
0.041567884,0.068943806,
0.0021827042,-0.039603908,
0.07490533,0.03796893,
-0.036422625,0.013259128,
0.014982955,-0.047829658,
0.046084467,-0.02563765,
0.07889737,-0.022680415,
0.006042957,-0.025677975,
-0.024449293,-0.02415814,
0.0801104,0.035423584,
-0.011520917,0.034220397,
0.0069814986,-0.016422588,
0.014371995,0.0030615462,
-0.08294853,-0.030338349,
0.026416305,-0.05594163,
0.0025248087,-0.013678555,
0.048806075,-0.10957956,
0.050400056,0.11071604,
0.0344405,0.1118548,
-0.07184007,-0.029645663,
-0.04865452,0.012864411,
0.005108693,0.094626434,
-0.08287349,-0.062991574,
0.0504799,-0.017550873,
-0.021646298,0.005768517,
0.031535294,0.100505434,
0.03627884,-0.030981028,
0.07253275,-0.026955826,
0.020452023,-0.032619283,
0.005968056,0.06003469,
-0.035245713,0.023098461,
-0.02718476,-0.0043143374,
0.083536476,-0.014269115,
0.011888636,0.030260827,
-0.03888215,-0.037218332,
0.014794628,-0.008272514,
-0.06746189,-0.014194367,
0.02563534,0.03281186,
-0.00047905353,-0.007629677,
0.061790492,0.024914343,
-0.058608003,0.00041049696,
-0.043727227,0.016421353,
-0.07719042,-0.08058414,
0.027471095,-0.030566044,
0.06179964,0.06505313,
-0.011668292,-0.02537016,
-8.469734e-05,0.06556063,
0.036519665,-0.023427937,
-0.026146555,-0.0025417896,
-0.106696025,-0.028672993,
0.09226505,0.073950544,
-0.05015975,0.024790006,
-0.025384737,0.06375861,
0.061893184,0.011806276,
0.017232642,0.031960227,
0.009428198,0.056029156,
0.06515167,0.046602778,
-0.004499059,-0.027260339,
-0.042329416,0.004202521,
0.009240162,-0.03548574,
-0.015490045,-0.008308407,
-0.06842786,-0.022890424,
0.023253357,-0.021956358,
-0.060392026,-0.017516866,
0.013532202,-0.051067036,
0.0431561,-0.0851019,
-0.05235579,0.051572356,
0.054223612,-0.0031331477,
-0.06687365,0.036855564,
-0.019948594,-0.06008692,
0.03102937,0.02642278,
-0.005285211,-0.072289184,
-0.065474056,0.0568488,
-0.08552144,-0.06492548,
-0.07973614,-0.03463517,
-0.03918352,-0.016480071,
-0.033187523,0.091159046,
-0.03735848,0.033087876,
-0.016046764,-0.0032753192,
-0.047502823,-0.052375592,
-0.07363715,-0.11040377,
0.04896458,-0.027739845,
-0.014537719,-0.0012569843,
-0.055685326,-0.06156943,
0.06472801,0.038524024,
-0.10220909,-0.02215887,
-2.9503062e-05,-0.034062415,
-0.05043713,0.0894823,
-0.0058981986,-0.019289952,
-0.033434074,-0.006271631,
-0.06403194,-0.108975396,
-0.078998975,0.110315256,
-0.0105303675,0.04235132,
-0.01792698,-0.007150349,
-0.05073783,-0.019454105,
0.056849383,-0.048636768,
-0.016887441,0.04489004,
-0.013635826,-0.014112713,
0.013979859,-0.047169045,
0.0065242057,-0.03940649,
0.10134244,-0.029325292,
-0.06101011,-0.03439612,
-0.032535754,0.040587403,
0.017962908,-0.016717298,
-0.049042583,-0.110917464,
0.05457651,0.024963697,
0.017807202,0.032449834,
0.044213135,-0.04570683,
-0.022735719,-0.008061476,
-0.06308341,0.07900823,
-0.02061281,0.017645562,
0.08425398,0.061505076,
0.012492237,-0.05138074,
-0.039498307,-0.0005260184,
-0.03566894,-0.03534869,
-0.02490381,-0.007527715,
-0.012863599,-0.07709496,
-0.111503445,-0.0527309,
0.01335373,0.022537969,
-0.009491246,-0.018371398,
0.012978035,0.048157513,
-0.03566918,0.034458093,
0.03531866,0.007039662,
0.10136222,-0.035357755,
-0.009883396,-0.0042918725,
-0.003417264,-0.0020039794,
0.06591177,-0.026978888,
0.018513437,-0.08340303,
0.02009171,-0.039398022,
-0.0796799,0.0464464,
-0.06465202,-0.022940079,
-0.055143103,0.0058569354,
0.04920522,0.02923602,
0.05579383,-0.050848756,
-0.046215896,-0.0036115043,
0.0063679097,-0.045949113,
-0.00052334554,0.021150196,
-0.037413698,-0.023613164,
-0.008917265,0.030962437,
0.053852625,0.0179225,
-0.020160606,0.05461374,
-0.021300698,-0.035274927,
-0.035483077,-0.048765037,
-0.017517349,-0.025477862,
0.052395757,-0.0009515608,
0.006085561,0.0075736083,
0.011230999,-0.07253071,
-0.04328049,0.042628974,
0.0022683442,-0.018333722,
-0.025958113,-0.03190023,
-0.08139309,0.0044250847,
-0.022579037,0.018388746,
-0.012715545,0.0035263053,
-0.06470645,-0.011830479,
-0.068948895,0.11113349,
0.039169934,0.013818295,
0.05362766,0.011700381,
-0.028455721,0.042020142,
-0.009086229,0.041133463,
-0.005885174,-0.07394011,
-0.024075354,0.021680627,
0.041072063,-0.06547136,
0.009954368,0.03314633,
0.059343603,-0.092911676,
-0.025889657,-0.019879725,
-0.10743776,-0.04623389,
0.02588241,-0.050732512,
-0.029740375,-0.042994708,
-0.05496776,-0.07946493,
-0.048839524,-0.04097985,
-0.0050983992,0.08073053,
-0.060272973,-0.0072282446,
-0.058173493,0.037630577,
0.04071585,-0.05463868,
0.034767188,0.04561406,
0.015319614,-0.024507228,
-0.016595036,0.039785482,
0.0035250036,-0.045999747,
-0.0062154634,0.010327869,
-0.05813151,0.0233948,
0.06187369,-0.028462533,
-0.03706628,-0.08655169,
0.10909092,0.053121362,
0.049882315,-0.054996274,
0.0020398432,0.0909811,
-0.014484349,0.012467776,
-0.009489261,0.056249585,
-0.024375146,0.0052048624,
-0.049848143,0.08227956,
-0.13067167,0.05954423,
-0.059427127,-0.026536176,
0.0016507102,0.070654064,
0.012911818,-0.06689069,
-0.049843382,0.02197859,
0.03359659,0.081608765,
0.043630015,-0.00071483944,
-0.015576307,-0.043412797,
0.109463245,-0.01292197,
0.019122193,-0.016262425,
-0.080850765,0.1192187,
0.09287307,-0.041509222,
-0.055155136,-0.03836321,
-0.089733176,-0.09151979,
-0.01697841,-0.08455166,
-0.016896283,-0.038186207,
-0.062586196,0.017177325,
0.010364533,-0.038950067,
0.002452508,-0.047616802,
-0.020415287,0.018960016,
-0.04138789,-0.03347949,
0.037201285,-0.08851175,
0.015599852,-0.04123243,
0.03306225,-0.009111201,
0.080487125,0.0629589,
-0.053972,0.033621732,
-0.048809648,0.053633597,
0.0629076,0.046878435,
-0.0038038546,-0.008694385,
0.043398898,0.04617565,
0.0046876096,-0.005920749,
-0.048457295,-0.029835436,
-0.015922891,-0.057645407,
-0.000772576,0.037476636,
0.0033976422,-0.025967289,
-0.004028122,-0.04578034,
-0.005894265,-0.043901987,
0.103674136,0.040852495,
-0.010406727,-0.052198336,
-0.04009927,-0.012043309,
0.09134414,0.052751437,
0.07872109,-0.008764268,
0.059831757,-0.009292397,
-0.036373794,-0.03852496,
-0.0076091117,0.0120327845,
0.008838764,-0.05254873,
-0.05201816,0.06790522,
0.021067798,-0.064122766,
-0.013682538,0.048993755,
-0.0015099581,-0.031143643,
0.026195738,0.08066042,
0.027175102,-0.020057926,
-0.010582575,-0.01551587,
0.057566676,0.031801112,
0.0010843162,-0.04797633,
-0.03375898,-0.13310634,
0.014845989,0.017120752,
-0.025946176,0.035036277,
0.053887658,-0.0228353,
0.0043591573,0.03269787,
0.028348003,0.010631493,
0.0031225616,0.015581692,
0.069527194,-0.01560913,
0.03423508,-0.068161026,
-0.01989067,0.05108645,
0.06125985,-0.006397307,
0.00020946446,-0.08329392,
-0.08573016,0.021293929,
0.03618298,-0.07255489,
-0.05346785,0.0043516406,
0.027768824,-0.06471562,
0.0018946427,0.0050829574,
0.0898759,-0.07554787,
0.028902043,0.033526313,
-0.07077564,0.006552954,
0.09624158,-0.04911467,
0.006791715,0.056417603,
-0.05617342,-0.086238034,
0.07616372,0.011329721,
0.0015017574,-0.00047506177,
0.051393565,0.0004962797,
-0.016462825,0.015245673,
0.021449784,-0.035499495,
-0.07169651,0.13432978,
0.0781714,0.055090968,
0.018930161,-0.016671175,
-0.07238265,0.008100183,
-0.05288192,-0.012776092,
0.0037750835,0.01579366,
-0.0020301952,-0.10066379,
-0.08908662,0.10050259,
-0.026557675,-0.0024478815,
-0.023248171,-0.07978943,
-0.091460094,0.0015406992,
-0.024905898,0.017422514,
-0.004957397,-0.06265224,
-0.015117373,-0.002921889,
-0.006530805,-0.00416887,
-0.00911065,-0.015577995,
0.04792066,0.020750595,
0.07562043,0.05724084,
-0.023413403,-0.017205609,
0.008355376,-0.071869396,
0.016931718,0.06475516,
-0.0058432086,-0.035496887,
0.030357903,-0.036245238,
-0.044655904,0.053232957,
-0.03664693,-0.05570634,
-0.026247106,0.032613087,
-0.036465205,-0.04908099,
-0.06705718,0.011964729,
-0.10781131,-0.03013085,
-0.08075025,0.087460324,
-0.08226952,-0.014624856,
0.008642493,-0.0030984962,
0.041751,-0.001986266,
0.084018216,-0.021340106,
0.004236167,-0.004013247,
-0.08294122,0.012974561,
0.010228992,-0.05256033,
-0.036776707,-0.0034263558,
0.056864005,-0.021767367,
0.086847104,-0.014295424,
-0.025733974,-0.008703938,
-0.023894446,-0.01585564,
-0.05000793,0.04727024,
0.033950016,0.11035225,
0.0107234875,-0.05332521,
0.029263498,0.029273001,
0.06820647,-0.0026018461,
-0.05070761,-0.032896217,
-0.048032276,-0.08082868,
0.011035527,0.012085893,
0.04647674,-0.038399205,
-0.08774212,-0.0014805868,
-0.06712238,-0.025206175,
-0.027687414,-0.056242928,
-0.04284362,0.018515727,
-0.047171753,0.05357468,
0.032696318,0.015578732,
-0.009883081,-0.016727937,
0.023915155,-0.022015635,
0.01021071,0.024851453,
0.019384196,0.1246582,
-0.035588957,0.015903262,
0.0106402915,-0.009583287,
-0.06612267,0.09971138,
-0.051582925,-0.029750664,
0.09549716,-0.015270784,
-0.024416927,-0.048295986,
0.020481009,-0.008587508,
-0.01633231,-0.010588731,
-0.011757331,0.05961159,
-0.06625674,-0.00603121,
-0.048481375,-0.039503913,
0.01588925,-0.0023778384,
0.0075235385,-0.06455984,
-0.07421402,0.051207505,
0.0399383,-0.11305057,
0.0738108,-0.032632187,
-0.0014557629,-0.029998995,
0.00040205847,-0.04751071,
-0.042086065,0.0019389017,
-0.04574546,0.0632283,
0.017161736,0.008352892,
0.08238973,-0.031946357,
0.0018466325,0.05050584,
0.013828274,0.052833267,
-0.011289913,-0.016472002,
0.034391858,-0.015812213,
-0.05162851,0.07878665,
-0.012765883,0.031734876,
-0.036691196,0.008045913,
-0.010557597,-0.032783385,
-0.016311616,0.058830906,
0.073744364,0.057153102,
0.034431048,0.034686282,
-0.0072242487,-0.024773655,
0.030337691,0.037177503,
-0.0021559123,-0.01568141,
0.07715411,0.0006508215,
-0.012289165,-0.08982806,
-0.003914077,-0.009438714,
-0.05891433,-0.027025001,
0.0019048596,0.13685098,
0.021473616,-0.041888442,
0.008863987,0.05120151,
-0.00048173268,-0.056093484,
-0.093076065,-0.05204316,
-0.0065634223,0.046146393,
0.06334881,-0.006735289,
0.0057592853,-0.022561561,
0.026764542,-0.042482354,
-0.0024138023,0.12955672,
0.050365146,-0.06850367,
-0.039451167,-0.04626559,
-0.029003726,-0.107972115,
0.04708482,0.06103142,
-0.044933688,-0.06141834,
-0.025217114,-0.050158817,
-0.02522226,0.048522916,
0.017116195,-0.06222399,
-0.016187094,0.008260561,
0.014470609,-0.011473745,
0.011486423,-0.048570953,
-0.063896745,0.01860959,
-0.014496598,0.03379805,
0.052655697,-0.026988523,
0.06706312,-0.0093323365,
0.013394106,-0.047061622,
-0.013038122,0.033689763,
-0.008574169,-0.030481353,
0.033814646,-0.04737665,
0.018254327,-0.037149664,
0.005601525,0.09806833,
0.043137714,0.008525473,
0.027971676,-0.08275685,
0.022952646,-0.012832403,
0.011421265,0.016366806,
-0.027514515,-0.041421287,
0.07698365,0.033423748,
0.016240528,0.043529466,
-0.03970777,0.035257068,
0.015847927,0.029135883,
-0.040803112,0.03367009,
-0.07104052,0.05873312,
-0.05673405,0.044532973,
0.04741654,0.03813872,
0.047947448,-0.06675159,
-0.060975958,0.08976093,
-0.0942834,0.058008168,
0.051134113,0.017513426,
0.04559918,-0.0184764,
0.06816672,-0.022164663,
-0.04258312,-0.033970855,
-0.06213073,-0.05744763,
-0.07344291,0.0150181865,
0.0028037133,-0.0110890195,
0.009894453,0.007054547,
-0.015917536,0.08141825,
-0.05858315,-0.033130217,
0.009820898,-0.045443904,
0.08308876,-0.013217541,
0.0825512,-0.006541231,
-0.07347188,-0.010043379,
0.039528318,-0.033359133,
0.014730992,0.013699234,
0.13519561,-0.03657567,
0.08561355,0.016245954,
-0.06073636,-0.016772732,
0.005318026,0.034738056,
-0.04515416,-0.035498247,
-0.077948116,-0.041044097,
-0.08130227,0.0670636,
0.021421326,-0.016306674,
-0.049335424,0.010475032,
-0.0093813855,-0.1129545,
-0.06838094,-0.041903738,
-0.039028987,-0.024227286,
-0.001389394,0.014580585,
-0.0015241789,-0.059604123,
-0.029844562,0.009895277,
-0.06870932,0.019271145,
-0.02767738,0.07955005,
-0.028183931,0.044415288,
0.051294062,-0.0638338,
-0.010114799,0.060543798,
-0.03296338,0.1272177,
0.016823253,-0.002796223,
-0.07462764,0.012984317,
0.03805632,0.042483255,
0.1576698,-0.03683237,
-0.0477222,-0.032742307,
-0.015024511,0.043603968,
0.049445022,-0.052557897,
0.07351475,0.0550858,
0.04231214,-0.079707585,
0.08439152,-0.0062722936,
-0.02699915,0.007551854,
0.03742937,0.05120164,
-0.02466693,0.049554754,
0.03305376,0.031323034,
-0.020449374,-0.08519696,
-0.019089557,0.040400755,
-0.016729778,0.054264553,
0.07617554,0.018578509,
0.013087831,0.03870196,
-0.048041057,-0.039001297,
-0.029222189,0.091353096,
-0.040098894,0.019379186,
-0.061436415,0.026068943,
-0.051987126,-0.016224932,
0.07125821,0.0020239453,
0.006715682,-0.021473426,
0.004606668,0.041666802,
-0.0456425,0.028757898,
-0.0017604989,-0.054683484,
0.07734813,0.12355215,
-0.0831722,0.122011416,
-0.047080286,-0.023707109,
-0.030875862,0.0066770446,
0.019496845,-0.027777083,
-0.013290357,0.038365815,
0.041680638,-0.052996013,
0.059937935,0.09327133,
0.06088919,0.036672868,
0.06963355,0.068648204,
0.012279562,0.024796672,
0.0031307274,0.07237561,
-0.009338371,-0.0041205487,
-0.034675345,-0.025036333,
0.010054002,0.10199426,
0.04942506,-0.058305625,
-0.036724586,-0.099693395,
-0.050277248,-0.00019900975,
-0.004122346,0.05235018,
0.05195051,-0.016011763,
-0.033984873,-0.050778076,
-0.06478943,-0.00904512,
0.12472362,0.057661384,
-0.02050464,0.05629284,
0.015525275,0.026801713,
0.026802149,0.04211289,
0.07551162,0.044913955,
0.027461298,0.061170284,
-0.07587793,0.042656735,
-0.0151516115,0.029162863,
0.08810826,-0.011730561,
0.016839327,0.04072472,
0.094611146,0.03635544,
0.04844711,-0.053171143,
-0.0009165981,-0.083596736,
-0.023890652,-0.023353565,
0.0037326936,-0.027280798,
-0.029508498,0.03638872,
-0.053426493,-0.0665306,
-0.0057056127,0.039791893,
0.0021561512,0.077919394,
0.018743178,-0.033541244,
-0.045892663,0.10906314,
0.00689072,0.032358177,
-0.061794013,0.019380994,
-0.0070669726,0.062395737,
-0.049380995,0.03878735,
0.022368155,0.011016954,
-0.0043337923,-0.092794724,
-0.01829916,-0.00090480194,
0.039277207,-0.022088528,
0.01949502,0.00999002,
-0.016023196,0.006798209,
-0.031795662,-0.02119012,
0.0070584537,0.044444233,
0.0029906689,0.10457466,
-0.04094618,-0.017192628,
0.0064938148,-0.020176422,
-0.020789554,-0.007605019,
-0.0204256,-0.01131033,
0.0671006,-0.030239003,
-0.057531755,-0.012630273,
0.03252839,-0.03226336,
0.0314638,-0.023358604,
-0.028792506,0.09068988,
-0.008858254,0.089041345,
0.08481938,-0.046646647,
0.055142336,0.054867387,
-0.010512778,0.004197541,
-0.04515228,0.04313798,
-0.122988835,0.062420357,
-0.04188563,0.06636847,
0.07047087,0.034223747,
0.054254808,-0.109789275,
-0.03200875,0.009822226,
-0.10547235,-0.08432764,
-0.03634093,0.04241156,
0.111457445,-0.020101968,
0.06061391,-0.047523625,
-0.025979377,0.02799509,
-0.011413686,-0.0061813574,
0.0034785895,0.038748067,
0.014363879,-0.006760155,
0.005579932,-0.020290859,
-0.041632302,-0.057688005,
0.06022865,0.0022614733,
0.028549707,-0.075590834,
0.032043703,0.04203181,
-0.0054349937,-0.05959775,
0.015203536,0.016845413,
0.0425623,-0.09928112,
0.098326966,-0.05257224,
-0.04309621,0.042488385,
-0.08955092,-0.04041964,
-0.036594696,0.02016925,
-0.06595613,0.06750794,
-0.066123836,0.060322553,
-0.08088193,0.03940904,
-0.077754706,0.03101218,
0.021068286,0.07271992,
-0.0055245105,0.10644829,
-0.022946395,0.044343676,
0.056452896,-0.006567634,
-0.037404366,-0.0043256525,
0.0041003376,0.014894444,
-0.006127012,0.01781534,
-0.03301793,-0.05290917,
-0.088720456,-0.009667348,
0.040776122,0.026144657,
-0.008219286,0.033209298,
-0.050169628,0.027265852,
0.025676569,-0.05619064,
-0.01094372,-0.032261822,
-0.0129001895,-0.021487093,
-0.0083171595,0.022987045,
0.017042574,0.068078674,
-0.0071860985,-0.05632516,
0.115876704,0.07580731,
0.03055904,-0.05333962,
0.036272485,0.02880775,
-0.023383284,0.11585597,
0.052973118,-0.049616985,
0.067055404,0.064285845,
0.027522,-0.0061187944,
0.11562521,0.042964417,
-0.021547467,0.053524405,
0.042978104,0.00761711,
0.05793823,-0.04207395,
0.04794352,-0.011435242,
0.019166855,-0.044140734,
-0.054650124,-0.037861947,
0.03413398,-0.027800307,
-0.035016563,0.0063469475,
0.065461375,0.03287382,
-0.0286721,0.028383939,
0.012506056,-0.04020278,
-0.03792983,-0.07460019,
-0.0046299114,-0.004048561,
0.07728327,-0.0049337787,
0.046939407,0.0005878149,
0.030571636,0.011298044,
0.027355827,0.050506126,
-0.052030306,-0.046584338,
0.020289397,0.0013285086,
0.088705875,-0.039804187,
0.09368716,-0.07468164,
0.049603023,0.00534314,
-0.0012913757,0.06877342,
-0.03135445,0.10383348,
0.14165948,-0.043257043,
0.03357478,0.04647232,
0.050913703,-0.018298728,
-0.096703835,0.0018672328,
-0.05212548,0.002732449,
-0.03174416,-0.0102196615,
0.011750295,0.012005172,
0.061459333,0.06025614,
0.017250462,-0.07281503,
0.054669812,0.034403,
-0.03024071,0.08773657,
0.009344335,-0.012355697,
0.005714937,0.04492823,
-0.00034531756,0.022840306,
0.06535551,0.007893926,
0.08550862,-0.018161407,
-0.05868648,0.045014493,
0.019930435,0.015753172,
-0.037837915,-0.01142204,
-0.024066968,-0.007344207,
0.017079644,0.016925793,
0.03649935,-0.08245488,
0.017448703,-0.10530462,
-0.031781238,-0.059023265,
0.02109313,-0.08682681,
-0.033850778,0.0054574423,
0.051876526,0.008968242,
-0.01766567,-0.0053328183,
0.09102048,0.07691436,
-0.087707825,-0.008679283,
0.01641247,-0.09061989,
0.03573804,-0.03765598,
0.08550509,0.027576705,
0.050715327,-0.012638638,
-0.003213471,0.02030594,
-0.008592712,-0.0467366,
0.04912155,-0.0009530129,
-0.050738376,-0.027185721,
-0.028647631,0.05640559,
0.015718339,-0.06147272,
0.04260461,-0.047195606,
-0.10316683,-0.08396545,
-0.013239197,0.038578555,
-0.052993633,0.038654145,
-0.039075416,-0.0634292,
0.047601517,0.03954168,
0.017650438,0.000341994,
0.131064,0.017561613,
0.037343558,0.06311084,
-0.0065009077,-0.03440623,
0.06941226,-0.0051574144,
-0.060689706,-0.12363868,
-0.031578265,-0.018597808,
-0.022704504,0.08643206,
0.046342004,0.008747653,
0.11760405,0.013016127,
0.045624506,-0.024791298,
-0.047451798,-0.009473175,
-0.032065697,-0.02218863,
-0.07801396,-0.020066733,
0.09682796,0.05050044,
0.047246378,0.042672455,
0.021979999,0.031631015,
-0.034993317,0.010688206,
-0.038294725,0.04234169,
0.052584846,0.0150239505,
-0.04552349,0.013080049,
-0.06656359,-0.023482189,
0.14654434,0.017409252,
0.016128363,-0.0063613406,
-0.023586389,0.02746907,
0.015433088,0.025843555,
-0.0428284,-0.04000264,
-0.087166294,0.05761037,
0.083772115,0.03955765,
0.02236378,-0.07134578,
0.0395529,0.0021407185,
0.019996801,-0.023954429,
0.036074765,-0.057818666,
0.034533504,0.010408467,
-0.0024883202,-0.013138197,
0.0036581904,0.026839685,
0.071110584,0.016329251,
0.09961741,0.057120763,
-0.008208747,-0.026293617,
0.049284156,-0.053424034,
0.0010316789,0.0050614327,
-0.010180236,-0.021676697,
0.012640577,0.014696648,
0.025215391,0.010363966,
0.034046635,0.05704843,
0.030059887,-0.04349977,
-0.040580556,-0.025259575,
0.040511463,-0.043304116,
0.026678422,-0.07386047,
0.022559766,0.052878056,
-0.09639051,0.0031802573,
-0.061101627,-0.078482375,
0.03796773,0.042210896,
0.042081703,-0.027481906,
0.004580437,-0.047948416,
0.035352457,-0.008601426,
0.032300398,-0.028714105,
0.0020313547,-0.017474655,
0.011128512,-0.046374977,
0.057022136,0.017768938,
-0.050817247,0.038610067,
-0.054085553,-0.0880727,
0.020484725,0.0036928453,
0.013011035,-0.03569791,
0.033666197,0.01744663,
-0.032262117,-0.06686565,
-0.044904888,0.04677454,
0.02638609,-0.003469256,
-0.034036025,-0.10466024,
-0.048174392,0.012908637,
-0.11800479,0.009186796,
0.05319349,-0.03745928,
0.05328565,0.06007964,
-0.028071458,-0.05392442,
0.042652413,0.027392011,
-0.048024427,-0.038568806,
0.006637356,-0.038544863,
-0.04020821,-0.033767402,
-0.01112924,0.02115968,
0.017059043,0.06443685,
-0.10671318,-0.09570192,
-0.053662613,-0.017958092,
0.024945965,0.0156738,
0.03286626,0.0056256154,
-0.038906354,0.039149567,
-0.0002099901,0.003705974,
0.07202293,-0.0032259952,
-0.016985442,-0.017380556,
0.0073828427,0.021721203,
0.098744966,0.04805086,
-0.040098008,-0.06748076,
0.037015807,-0.049112912,
0.017326003,0.040987823,
-0.036133274,-0.043739144,
0.06611952,0.031040201,
0.017363396,-0.012824561,
0.06471103,-0.038709115,
0.029560916,0.05736986,
0.05479303,0.023196,
0.012028626,0.019465609,
-0.010840738,0.07787487,
-0.029227281,0.060595114,
0.0022734306,-0.027038312,
-0.018733973,-0.057935447,
0.013468513,0.010311022,
-0.080399774,0.060565505,
0.023802426,-0.082222946,
0.11560668,0.011631416,
-0.028329419,-0.021104593,
0.0027735382,-0.0068175867,
0.03581984,-0.013743009,
-0.030744616,0.024402834,
0.0145083545,0.0062009073,
-0.049570758,0.038186144,
-0.042909853,-0.010108051,
0.059870344,-0.030856723,
0.050361406,-0.009684793,
0.015134059,-0.05536606,
0.14720859,0.049813244,
0.012082391,-0.056955647,
0.0069099553,-0.05454479,
-0.14379913,0.040956978,
0.08128518,-0.016035566,
-0.0022278347,-0.04839688,
0.016472565,-0.068688236,
-0.010804533,-0.030569596,
-0.07129799,-0.0018813226,
-0.04187586,0.031158093,
0.0054373248,0.017829696,
0.013056726,0.022036714,
0.0092827,0.0027771338,
-0.0127741555,0.02613485,
0.022500133,0.01725125,
0.023216099,-0.051261358,
0.0743744,-0.013446896,
-0.03482418,0.014458361,
-0.023418674,-0.01004684,
-0.0008659381,0.008718686,
-0.05930756,-0.01807943,
-0.046511523,0.016623875,
0.025506167,0.0523502,
-0.08234111,0.0111300405,
0.037581418,0.053042598,
0.04078283,0.058547758,
-0.09492054,0.009050877,
-0.013967404,0.0227373,
-0.06408306,-0.11808331,
0.042484913,0.04980749,
0.03907196,-0.027096052,
-0.056226864,-0.02332412,
-0.0053084306,0.0173756,
0.05854756,-0.012899982,
0.0650008,0.091268905,
0.008190375,0.006077794,
0.0129125165,0.113905534,
0.010454535,0.0029206637,
-0.0008213161,0.026107775,
-0.057065774,-0.009529974,
0.04147314,-0.011606097,
-0.022952057,0.021315984,
-0.006635783,-0.04544387,
-0.015245873,-0.009090478,
-0.027959393,0.016691817,
0.02289289,0.041375995,
0.05289432,-0.09784123,
0.016053958,-0.09713359,
0.069617994,-0.069296256,
0.03652963,0.039613523,
0.07869606,-0.04849804,
0.026035488,-0.02747513,
0.045144524,0.017512538,
-0.039980274,-0.11469782,
0.007930102,0.07842777,
0.080867864,0.02151572,
-0.064313166,-0.005146725,
0.06879513,-0.10215937,
-0.04958634,-0.007517736,
-0.021558233,-0.02474092,
-0.0043895743,-0.10970052,
-0.02295882,-0.080597624,
0.018753935,-0.023975324,
-0.087306075,-0.053060163,
-0.030376993,-0.07157593,
-0.09374132,-0.035293862,
0.00840621,-0.047437638,
-0.104632065,0.08021421,
-0.026772296,0.061985146,
-0.051112097,0.12156663,
0.021809692,0.06273469,
-0.05266953,0.079626694,
0.015676454,0.021356989,
-0.08585378,0.035274766,
0.05173992,0.011258899,
0.037754484,0.07876731,
0.047034655,0.056633186,
-0.00024790686,-0.019875959,
0.0032079243,0.0047764084,
0.010077417,-0.061836418,
-0.041020636,-0.053352844,
0.09602495,0.062047962,
0.053143747,0.067347445,
0.010934047,-0.075904205,
-0.006199807,-0.041452978,
0.06387646,0.04005336,
0.0053022173,-0.0059457556,
0.010973253,0.042908836,
0.016699467,0.0050516455,
0.02231784,0.13544689,
-0.054000143,0.027740182,
-0.008192972,-0.021640949,
-0.0031837567,0.001814103,
-0.06679275,-0.060756303,
-0.08578324,-0.032666527,
0.10972551,-0.10147827,
-0.04372082,0.055080283,
0.01007979,0.06467819,
0.113118686,0.0053876545,
0.04841817,-0.014735287,
-0.027642293,-0.052663796,
-0.043943383,0.061339036,
0.06424821,-0.012268785,
0.06113516,0.034792315,
-0.002373378,-0.010339186,
0.02605548,-0.02747195,
-0.021225948,-0.013932191,
-0.07570951,0.004200285,
0.10342742,-0.03144268,
0.03377505,-0.035382085,
0.061759003,0.04756199,
-0.011279686,0.012886097,
0.00422213,0.055866297,
0.06975702,0.02175599,
-0.024425548,-0.02783552,
-0.11513533,-0.055433244,
-0.06468818,-0.045669146,
-0.013299908,-0.039805476,
-0.038731433,0.08716649,
0.0033002743,-0.106874995,
-0.068757296,0.004605227,
-0.08388191,0.006041456,
0.06960957,0.007932056,
-0.06846308,0.03186847,
0.058479484,0.058038983,
0.013738876,0.005237218,
-0.052347127,-0.0901343,
-0.036906406,0.0020382432,
0.037275665,0.020344842,
0.0692816,0.08337189,
-0.0335882,0.062314514,
-0.014671859,-0.014514154,
0.047892436,0.05780326,
-0.0135974875,-0.015236096,
0.010037228,0.026388936,
-0.022075081,0.024064321,
0.029326089,0.011319052,
0.08974111,-0.071084544,
-0.03422936,0.05730872,
0.000768626,-0.012815838,
-0.05382005,-0.031105047,
0.0400659,-0.014345577,
-0.027066855,-0.06868633,
-0.030357877,-0.064517595,
-0.12181206,0.0042338828,
0.03502615,-0.099463165,
0.0026547273,0.04385587,
-0.030107804,0.06089102,
0.029856658,0.02819034,
-0.0094817495,-0.13360812,
-0.066012956,0.03985867,
0.005764353,0.022530794,
-0.07879745,0.026085477,
-0.012202925,0.035581976,
0.03783272,-0.028507374,
-0.0016213462,0.011487938,
0.030851947,0.010044308,
0.023036981,0.07092659,
0.08647949,-0.0029444096,
-0.07230696,0.014938559,
0.06620039,-0.05463463,
-0.037533756,-0.048092946,
-0.0014963266,0.019660305,
0.100384526,0.042903062,
-0.026154455,0.009186163,
0.024923543,0.012180164,
-0.012649236,0.010385972,
0.037015967,-0.04262594,
0.017195977,-0.013173737,
0.15227416,-0.03940606,
-0.012784593,-0.05664056,
0.05268818,-0.063389026,
-0.054919925,0.056225203,
-0.010191567,0.02731122,
-0.029298615,-0.045669805,
-0.084432706,-0.107150465,
-0.04323773,-0.09594956,
-0.043409396,-0.041000143,
-0.049985476,0.023427783,
-0.06870623,-0.010695273,
-0.06933568,-0.046713628,
-0.025482807,0.011707782,
-0.018839378,-0.039776642,
0.025243923,0.0044774325,
0.028761426,0.015590275,
0.0057189493,0.068584085,
0.022244468,-0.023175927,
-0.019588899,-0.0064075864,
-0.081535496,-0.02374486,
0.002380267,0.026463427,
0.004134602,0.08142629,
-0.078777604,-0.0201389,
-0.046865627,-0.1140047,
0.06831563,-0.0053460347,
0.052961368,-0.05591924,
-0.0022226176,-0.0483826,
-0.048501752,0.099086806,
0.04489072,0.006828659,
-0.0071986327,0.029109472,
0.046571787,0.023681732,
0.045844395,8.100295e-05,
-0.004914801,0.053644344,
0.012172943,-0.014239188,
0.016756618,-0.020579202,
-0.0006475799,-0.00057557493,
-0.08994916,-0.04502215,
0.056082413,-0.062419582,
-0.034644045,0.0063978056,
-0.011717287,-0.18009512,
-0.012993851,-0.03435923,
0.027875885,0.0346345,
0.03216121,0.028602969,
0.07616642,0.025431924,
0.057631444,0.005249896,
0.08073084,0.034516327,
-0.052677583,0.1141813,
-0.010207527,0.023513908,
-0.02823198,-0.047367692,
-0.013382735,-0.10695871,
-0.013874703,-0.024397368,
0.09185909,-0.0832066,
0.14273107,-0.025652679,
-0.026984267,-0.0070261727,
0.045468338,0.077842556,
-0.004369406,-0.08561075,
0.063603126,0.023838766,
0.0065038623,-0.053940885,
0.035264637,0.013355371,
-0.03280508,-0.054178268,
-0.00937545,0.09698832,
-0.11961616,-0.08675516,
-0.084278844,-0.022034897,
-0.008893385,-0.10657677,
0.0036479847,-0.030233214,
0.03172823,0.05901352,
-0.063733496,-0.04731318,
-0.09743024,0.04002778,
-0.015851796,-0.017974291,
0.0351231,0.042407244,
-0.04301632,0.010077924,
-0.0062693404,0.03056549,
-0.064403795,0.049062397,
0.02476527,-0.019703323,
0.008083477,0.035575822,
0.019135302,0.07075354,
-0.008434663,-0.08190522,
-0.036597606,0.01666605,
-0.047055736,-0.019571904,
0.041381955,-0.042391837,
-0.028850652,-0.038769078,
0.008698639,-0.022342402,
-0.047356654,-0.048710294,
0.05611281,0.0013479466,
0.03861271,-0.03133693,
-0.06918681,0.07692567,
0.008169658,-0.063752405,
-0.03211438,0.056697033,
0.039249223,-0.036264487,
0.051999267,-0.06419598,
-0.10478428,0.07406966,
0.119227104,-0.01017595,
-0.0492672,0.0023184076,
0.027364867,-0.04312966,
0.0030643053,0.038701754,
0.023036018,0.01626137,
-0.04971578,-0.010862499,
-0.015055272,0.04167632,
-0.023472624,-0.0007393512,
-0.038604103,-0.022295304,
0.035573535,-0.042481195,
-0.105458744,-0.013698642,
-0.09385429,0.06782472,
0.011537563,0.066027805,
0.007960768,0.0029557988,
0.08736869,-0.056914583,
0.009158782,0.037788995,
-0.0092109945,-0.026241345,
0.04106954,0.008268933,
0.014043819,-0.043056324,
-0.027039008,-0.010346817,
-0.006889533,0.025067382,
0.0601403,-0.04466538,
0.066425905,0.010434875,
0.122310005,0.0134634115,
-0.045410905,0.055589695,
-0.008292434,-0.093958005,
-0.036777914,-0.04282157,
-0.010081007,0.08666788,
-0.0024273694,-0.019059956,
-0.117408596,-0.035847753,
0.03983589,0.03582767,
0.043613534,-0.05964915,
-0.002150816,-0.055552263,
0.086121485,-0.0653325,
0.017081026,0.0059490195,
-0.03818503,-0.055489708,
-0.0014987687,0.013130159,
0.014129591,0.027833156,
0.04555783,0.005585762,
0.05540482,0.100477755,
-0.010606402,-0.023108175,
-0.0034171669,-0.012501938,
-0.0009880612,0.0068765455,
0.050560683,-0.055623326,
-0.057697833,0.023675604,
0.040177077,0.002057651,
0.00050537474,-0.015120404,
-0.074557304,0.008945498,
-0.06191143,-0.006593926,
-0.01837412,0.0065254653,
-0.013201903,0.014792606,
0.010905567,-0.0064685848,
-0.00316017,-0.018119777,
0.00044461762,0.031564917,
-0.03289487,0.045334503,
0.015958391,0.064740136,
0.0027394933,0.082255185,
0.011600242,0.053018417,
-0.03555074,0.061574955,
0.01423382,-0.04454695,
0.060423065,0.053071797,
0.021689264,0.06287571,
0.028877467,-0.024913361,
0.015761564,-0.00466045,
-0.008829143,0.10958027,
-0.036936574,-0.028205236,
0.056364078,0.02098672,
0.028094685,0.057912417,
0.081993066,0.04364211,
0.062721,0.014760783,
0.045895845,-0.01813362,
-0.027698848,-0.03496359,
-0.1155983,0.028417958,
0.15426451,-0.08005597,
0.019717328,0.082876846,
0.04362141,-0.08579071,
0.055505443,0.042638388,
0.053096883,-0.031944532,
-0.014159389,-0.0011583222,
0.03653117,0.055455804,
0.024398927,-0.021472357,
0.013069646,-0.012527551,
-0.05457136,0.0025544849,
-0.010986439,-0.052658368,
-0.121921346,-0.06752626,
0.044578686,-0.023242174,
-0.027013447,0.029435325,
0.06615516,-0.0010070403,
-0.022785388,0.023529831,
-0.04751592,0.058854464,
0.15207466,0.021398759,
0.09788845,-0.040313073,
-0.07808479,0.011783146,
0.019517835,-0.012303469,
-0.039812002,0.015299649,
0.061744228,0.036943626,
0.053260718,-0.00866106,
-0.025499824,-0.024007434,
0.045331325,-0.071334995,
-0.035780612,0.044148814,
0.023541212,0.00036680533,
-0.0398024,-0.058602173,
-0.044543914,-0.0008139693,
0.03496212,-0.076114215,
-0.062473115,0.025211053,
0.0062597175,0.068204455,
0.0035517532,0.024256822,
0.04773638,0.079390384,
-0.022665022,-0.03049596,
0.025289943,-0.015201314,
0.04607742,0.024766324,
0.044256456,0.08807364,
-0.005876829,0.08336101,
0.034607153,-0.016640672,
0.08220286,0.033470422,
-0.055273294,0.020454273,
-0.053187784,-0.016118996,
0.004805018,-0.014412707,
0.012843749,-0.01912263,
-0.027306145,-0.046360135,
0.019952545,-0.06011109,
-0.17410812,0.10915184,
0.004255177,-0.02892815,
0.05329427,0.033148937,
0.04731483,-0.038048126,
0.0082748765,0.04190722,
-0.002821644,0.044063322,
-0.055086285,0.034516167,
-0.026461879,-0.051955033,
-0.049374413,-0.03113153,
-0.008728147,-0.058747124,
0.022792742,0.025227595,
0.05547621,-0.008538892,
0.0015588532,0.003274638,
0.058831718,-0.049919497,
0.04070382,0.018653175,
-0.01968288,0.0065061497,
-0.006661115,-0.006512787,
-0.008898627,0.002176436,
-0.025771935,-0.03101709,
0.017892601,0.019306988,
-0.017666655,0.03327189,
0.030784348,0.048359778,
0.02466492,-0.0041315653,
-0.05494943,0.065623984,
-0.03251455,-0.029584415,
-0.067015216,-0.062769935,
0.10967675,-0.0013627874,
0.019320132,-0.0023977915,
0.017570816,0.08933168,
0.0049792966,0.023196777,
-0.04508753,-0.014541672,
-0.051594295,0.014050248,
-0.08059135,0.11581636,
-0.078971684,-0.076592125,
-0.051541638,0.010460532,
0.01531048,0.0015371555,
-0.03494177,-0.02886174,
-0.06899329,0.074953236,
-0.08204055,0.051026475,
-0.08106529,-0.008578522,
-0.060478073,-0.0056325416,
0.03835037,-0.0075370437,
0.038300674,-0.069370165,
0.0314244,-0.0059236814,
0.05556825,0.0082154,
0.039790753,0.05980815,
-0.014423533,0.008969432,
0.017740306,0.02872452,
-0.0526206,0.089833856,
0.05322196,-0.048494052,
0.028376754,0.017784432,
-0.059237905,-0.06028064,
0.026023002,0.015218574,
-0.013004306,0.028060064,
-0.035176493,-0.049079556,
0.020384988,-0.048199553,
0.029613266,0.05358848,
-0.015046184,0.0063796123,
-0.064583085,0.05201974,
0.019459747,-0.043279607,
0.020007886,0.04589098,
-0.015056049,-0.040119916,
-0.0022649043,-0.049439907,
-0.012666888,-0.037924107,
-0.024718082,0.06011389,
0.002307389,0.07955041,
0.019231075,-0.024937043,
-0.017307898,-0.0416201,
-0.009497694,-0.05987937,
-0.009602575,-0.020310294,
-0.029520437,0.0020695045,
-0.028568963,-0.08039799,
-0.013859713,-0.07404767,
0.019783396,0.0033694035,
0.041511755,0.090716876,
-0.07654353,-0.034103885,
0.023787452,0.013204376,
0.022553135,-0.069073066,
0.029715722,0.02272587,
0.011150506,-0.033710234,
0.075826526,0.015013432,
0.035497386,-0.041546885,
0.01305556,-0.03470864,
0.028507486,0.010086915,
0.015510579,0.049564417,
-0.06762654,0.030531483,
-0.024662957,-0.0099605685,
-0.014437721,-0.08689164,
0.012102841,-0.029674103,
-0.08914804,-0.050931275,
0.06960405,0.039266244,
-0.044554528,0.03822955,
0.037954297,-0.031381924,
0.068624854,0.051638905,
0.021104522,-0.043869868,
0.021832127,-0.018545397,
0.014087945,-0.00032805974,
0.02499647,-0.059564915,
0.039226633,-0.008290251,
-0.09558062,-0.08179705,
-0.005598548,0.00030905884,
-0.04408436,0.086825274,
0.010495963,0.02762096,
-0.06413801,0.06189781,
-0.032737624,0.0013478493,
-0.04650164,-0.04017573,
-0.065475754,0.035556424,
-0.010441022,0.064296365,
-0.014766704,-0.0028255596,
0.14206973,0.0019477933,
0.017812625,-0.0561977,
0.01571533,-0.046371482,
-0.04179079,0.017714439,
-0.047057185,0.029773729,
-0.017866513,0.013343997,
-0.007422726,-0.025402144,
-0.04251139,0.06516744,
0.01840331,-0.039508425,
0.054611854,-0.00874341,
-0.016216572,-0.069946356,
0.02659847,0.07066131,
0.09258702,0.04717903,
-0.022138817,0.01421367,
0.0024988307,0.07385035,
-0.024053402,-0.042758197,
-0.032899316,0.09173964,
-0.02451624,0.08683326,
-0.034064975,0.04406867,
0.030315677,-0.023767648,
0.047152027,-0.036304265,
-0.093270026,0.026701394,
0.0744052,-0.0030642948,
0.039249904,0.003173024,
0.068332836,-0.04485464,
-0.033306453,0.08248919,
0.048921444,-0.018380834,
-0.007534107,-0.041845206,
0.031390864,-0.021818064,
0.092430234,-0.018743735,
0.024023825,-0.08460587,
-0.040399503,0.037434056,
-0.0025156373,0.021018263,
-0.024032436,0.022270871,
-0.044235464,-0.0133605935,
0.05446042,-0.020219704,
0.10461647,-0.010479415,
-0.0689414,-0.024223598,
-0.010306936,0.07639868,
-0.04267471,-0.012994154,
-0.033919998,0.052477524,
-0.013540783,-0.10090362,
-0.08074574,0.05305884,
0.015491269,-0.020503284,
0.053011645,-0.04544537,
0.030048342,-0.027486198,
0.04691239,0.024980629,
0.008680697,0.09628687,
0.00022617633,0.08768739,
-0.09695568,0.03260053,
-0.07557066,0.0009419465,
-0.063221805,-0.08723371,
-0.03340496,0.105869114,
0.003411048,0.017741688,
0.022512298,-0.02143018,
-0.015360179,-0.043102503,
-0.0809895,0.031359885,
0.042770475,-0.019037254,
0.02636143,-0.026465997,
-0.058358014,0.05471167,
-0.012625225,0.0022341139,
0.020456472,-0.015876297,
0.1005208,-0.049599025,
-0.015459468,0.0937068,
0.057709657,0.08160575,
-0.056315478,-0.08872932,
0.03673639,-0.027876403,
0.0015669268,-0.027017567,
-0.06009076,0.07197069,
-0.09902608,-0.0018232792,
0.03993525,0.06060577,
0.015431534,-0.022350904,
-0.0058311513,0.054232795,
-0.064063706,0.018322503,
-0.03577442,0.078683965,
0.018823283,0.020860607,
-0.055538524,-0.054859415,
-0.014678754,-0.028709678,
-0.0009149795,-0.014313748,
0.07049641,-0.047263544,
-0.07122727,0.07431618,
0.030414136,0.041200984,
0.02017481,-0.033312544,
-0.077716984,0.006763003,
0.06356974,-0.033212453,
0.024818297,-0.011190224,
0.007164847,-0.11910011,
-0.019692307,-0.021328703,
0.07912486,0.06344428,
0.016044533,0.027801502,
-0.056076333,0.1011032,
0.05718637,-0.008938309,
-0.029000865,-0.020949014,
-0.097720735,-0.010922437,
-0.028410606,-0.12442769,
0.014830372,0.00025973268,
0.07152967,0.01396924,
-0.009593722,0.009387517,
0.102767654,-0.0040205033,
-0.061699994,0.017072206,
0.03371491,0.012384726,
0.003473239,0.055320583,
-0.024000864,0.092877254,
-0.048635535,-0.033441816,
-0.06712026,0.019487854,
-0.0020011808,0.0066340175,
0.033943746,0.0410967,
0.02068156,0.009989985,
0.012903835,0.019613495,
-0.057628963,0.028409487,
0.007825312,-0.054915342,
-0.00941456,-0.044873327,
0.017862553,0.012575225,
0.037301157,0.03715062,
-0.07585157,0.023496304,
-0.020321693,0.03285704,
0.035613928,0.031344205,
0.04380095,0.023616744,
-0.047561083,0.059843015,
-0.058371995,0.07644834,
0.029397363,-0.058948852,
-0.0031382875,0.010901772,
0.06412168,0.0013710378,
-0.103683606,0.06349802,
0.047887776,-0.030802943,
0.010509148,0.01667501,
-0.026977055,0.10371555,
-0.0035297743,-0.019748714,
-0.015377731,0.024725482,
-0.022101946,0.049802657,
-0.022780403,-0.09173351,
0.026917867,0.04923661,
0.044862907,0.06613793,
0.0058325473,0.011854062,
-0.047854055,0.023574762,
0.039377835,0.009990521,
-0.040084258,0.030910369,
0.09289915,-0.016295135,
-0.014667222,-0.06420388,
0.03502414,0.05007318,
-0.009928175,0.0124943685,
0.124452524,-0.051458575,
0.106002696,0.003667206,
-0.002539928,0.062294163,
0.031661596,-0.0028448026,
-0.011641082,-0.064713985,
-0.00846136,0.058264863,
-0.04836583,0.043091025,
0.033524953,-0.03642196,
-0.044109825,0.021693466,
-0.03492575,-0.05066276,
0.025797335,0.04165592,
0.028543033,-0.03240003,
0.02627417,0.04205128,
-0.040419687,0.037158836,
0.043459594,0.055067353,
0.076142274,-0.025535664,
0.070082255,0.03860286,
0.023502901,0.06955158,
0.015972795,-0.00015667235,
0.113247186,-0.025478577,
0.05185873,-0.043487232,
-0.039400265,-0.014958081,
-0.034459267,-0.06318339,
-0.041239873,0.010133883,
-0.010738623,-0.002642043,
0.0716252,0.0024124945,
-0.028636705,0.012368603,
-0.07194109,0.055027578,
0.04322866,0.037071675,
0.027119156,0.08441632,
0.017543834,0.08455422,
0.007338979,0.03486151,
0.028750066,0.03416098,
-0.0860866,-0.037374195,
0.0048409193,-0.033124287,
-0.06599695,0.032617755,
-0.04570051,0.097526595,
0.028387021,0.09567978,
-0.09819583,-0.093130514,
0.016254496,-0.038512234,
0.03892014,0.020692177,
-0.026214292,0.0029095341,
0.06103458,-0.004815865,
-0.001404161,-0.014664281,
-0.019670876,-0.0092780795,
-0.031367283,0.027851984,
0.016363682,-0.0020968898,
-0.049849674,0.035820246,
-0.01364953,0.0717987,
0.009668914,0.011538224,
0.028577762,0.06301707,
-0.0053792954,-0.013854422,
0.037403855,-0.018775309,
0.07075528,-0.015897987,
0.007634505,-0.0070922687,
-0.08023099,-0.049965404,
-0.003658438,-0.0014369116,
-0.022267517,-0.041349694,
-0.05719721,-0.022643788,
-0.057314236,-0.025860647,
-0.02131322,0.019510392,
0.03708569,-0.15037616,
0.10268721,-0.049951077,
0.11209202,0.03575865,
0.05928079,0.011061512,
-0.02769061,0.09204434,
-0.027821224,-0.0684746,
0.05668814,-0.042923667,
0.14491054,0.028253924,
0.009810658,0.08221914,
0.0018184838,0.042971008,
0.017726857,0.06250523,
0.006339205,-0.004991316,
-0.0006213705,0.010111999,
0.025011992,0.018500496,
-0.060906656,0.05161486,
0.003566145,-0.016926901,
-0.018139627,-0.04780242,
-0.022021782,0.061071303,
0.04682394,0.009232461,
-0.042454526,-0.0013337733,
-0.081321776,0.1081518,
0.09383869,0.05426213,
0.01116258,-0.026994739,
0.048497166,0.036748774,
-0.021901274,0.04462762,
0.0070170583,0.013216162,
0.023773944,0.018358301,
-0.01459164,0.018159857,
0.024721945,-0.09273228,
-0.020720143,0.040137168,
-0.024258116,-0.064292796,
-0.019467426,-0.0025186746,
-0.056944072,0.12357619,
0.032900766,-0.0047657485,
0.004662371,0.032326873,
-0.012167453,0.052231677,
0.01660356,0.0054302705,
-0.000982792,-0.027173819,
0.006783934,0.011467242,
-0.03949724,0.06626068,
-0.091624565,0.07857449,
0.032344647,0.097893044,
0.0053391717,-0.004588505,
-0.0060066045,-0.048253417,
0.075300716,0.09618185,
0.007945517,-0.060300313,
-0.011577489,0.030566936,
0.07134797,-0.054377783,
-0.06884914,-0.023054693,
-0.03506835,-0.009610283,
0.029861886,0.082571596,
-0.04266478,0.023635989,
0.083345644,0.10697737,
0.005270859,0.05163201,
-0.023658002,-0.008192356,
0.034423172,-0.04158812,
0.0018589471,0.015791545,
-0.054715637,0.021105684,
-0.039282985,-0.016822219,
-0.021178097,0.016716171,
-0.08145783,0.02878545,
-0.06973148,-0.060769904,
0.0289984,-0.046309095,
-0.057160318,0.07489697,
0.03007944,0.0066602067,
-0.012977949,0.05938053,
-0.059242718,0.021720672,
-0.057330444,0.05618176,
0.013905857,0.074846275,
-0.024707189,-0.02055206,
-0.078242525,-0.08666606,
0.006506662,-0.029996267,
-0.047198553,0.005614371,
-0.011492279,-0.047942333,
0.0019283154,-0.04023324,
-0.0019846838,0.031453025,
-0.13887767,-0.025921408,
0.0138258245,-0.013814823,
-0.032051567,-0.023071595,
-0.015843498,-0.019956341,
-0.08290848,-0.04683001,
-0.02828221,-0.057149366,
0.025667861,0.011476574,
0.026778396,-0.035235044,
-0.047163256,0.008339955,
-0.013789339,0.04751281,
-0.03435076,0.085072696,
-0.040172894,0.05838142,
-0.0105184065,0.009466884,
0.0630763,0.064235575,
-0.0074824668,-0.021390611,
0.016059566,0.033242576,
-0.05669398,-0.00823518,
0.026467506,0.0021208334,
-0.048351012,-0.021560177,
-0.061375752,0.015398525,
-0.09174949,-0.08683859,
-0.046436127,0.040152974,
0.0033214875,0.038603075,
-0.049519524,0.0027772058,
-0.05083911,-0.02783784,
0.13539957,0.06177673,
-0.008883794,0.083243735,
-0.0056111324,0.018367661,
0.06578099,0.052445058,
-0.010114556,-0.031858947,
0.066414036,-0.04119381,
-0.054705042,0.0227344,
-0.05120717,0.0077808853,
-0.03881596,-0.051973198,
0.012829975,-0.027082477,
0.0034062008,0.0385041,
0.016864397,0.018821506,
-0.01143597,-0.013905902,
-0.0072055603,-0.08203224,
0.027496513,0.012425314,
-0.057776734,0.030593947,
0.032465212,-0.122535676,
0.039284825,0.015627967,
-0.056791168,-0.11537456,
-0.012327468,0.032639287,
-0.06040361,0.024629544,
-0.045041744,0.00285796,
-0.04011893,-0.03462845,
-0.024317546,0.10957601,
0.042248614,0.0052781715,
-0.028693002,0.0127230985,
-9.075602e-05,0.013942446,
-0.06823719,0.007205988,
-0.043516688,0.123252936,
0.021348258,0.086260125,
-0.04197005,0.008615724,
0.07333333,-0.08567206,
-0.03301397,-0.036943343,
0.07970404,0.040594336,
-0.05169064,-0.018728996,
-0.004267648,-0.06173549,
-0.07558106,-0.08027605,
-0.06640025,-0.10336226,
-0.02565305,0.11940701,
-0.034012426,-0.02433931,
0.06719905,-0.003679874,
0.008835495,0.033367667,
-0.13135578,-0.05728503,
0.0374943,-0.041990638,
-0.012270251,-0.014804473,
0.031080239,-0.0135031575,
0.024903152,0.043698147,
-0.083876655,-0.077686325,
0.04546716,0.0076763704,
-0.051450666,0.037529744,
-0.025515698,-0.015198877,
-0.043677635,0.026164286,
-0.05822834,-0.025870193,
0.017056331,0.031125445,
0.056371342,-0.042569734,
0.0017600467,-0.04737216,
0.008154144,0.021528035,
0.057431314,0.027905144,
-0.03051552,0.045236573,
-0.022392796,-0.0361085,
0.044771116,-0.02534819,
-0.04936115,0.052722592,
-0.030745951,0.006106363,
-0.038907636,-0.0110244015,
0.04678881,0.023211855,
0.045320943,-0.018728284,
0.023277586,0.023211585,
-0.109683156,0.0059240093,
-0.028025089,0.04070795,
0.017058197,-0.07296405,
0.019247985,-0.039742492,
-0.06784038,-0.101962104,
-0.009064549,-0.014451545,
-0.001833231,0.055820033,
0.036008462,-0.0036368514,
-0.12733543,0.0006354681,
0.020504823,-0.034682967,
-0.057586588,-0.09980058,
-0.076851025,-0.07616403,
-0.008425762,-0.01852225,
0.0065768957,0.08141226,
0.02549066,0.019700568,
0.08938434,0.00055917405,
-0.01125025,-0.011923318,
-0.052747484,-0.01837466,
0.049376063,-0.03211106,
0.021817558,0.028015673,
-0.01448733,-0.069931045,
0.04717976,-0.060700968,
-0.030256445,0.044177964,
0.0006796855,0.010034387,
0.09506773,0.017525755,
-0.0028314993,-0.08087743,
-0.008220031,0.055025514,
-0.048458435,-0.034524214,
0.015016857,0.0087654665,
-0.041817877,0.025485398,
-0.005284748,0.05340923,
-0.03322824,-0.0012349081,
0.086066596,0.012674495,
-0.024931254,0.0257507,
0.0027956823,0.0335772,
0.035934422,-0.026253933,
-0.0020337608,-0.0015186877,
-0.037705563,0.054365903,
-0.04341827,-0.02267035,
-0.036695015,0.03397643,
-0.0004032654,-0.09191975,
0.021906387,-0.051058162,
-0.058251306,-0.06254368,
-0.024853408,-0.02010675,
0.03850575,-0.09211259,
0.050347857,0.0058810166,
0.0015139244,0.0037717638,
0.08590801,-0.016421,
0.054772872,-0.01806454,
0.01733393,-0.023926342,
0.028216327,-0.0064357566,
-0.04605597,0.038797647,
-0.070716664,0.0027111634,
0.026874682,0.013731299,
-0.034550887,0.025841823,
0.0504364,0.0062571755,
-0.02490917,-0.016552327,
-0.054812096,-0.11860672,
0.03255166,-0.07177806,
0.034248967,-0.038232196,
0.052748308,0.058279976,
-0.05712132,0.06970489,
-0.00057427,0.013293251,
-0.04453394,0.029718842,
-0.06455169,0.037830524,
-0.042020712,0.06866629,
-0.020119704,0.07473934,
0.096600726,0.038462512,
-0.055618625,-0.012163793,
0.05167497,0.04938946,
-0.058453005,-0.02177678,
0.03481441,0.018377611,
0.009933612,-0.007923856,
0.030297184,0.076778404,
0.009349226,0.041720655,
-0.03387673,0.047476992,
0.040990755,-0.05746049,
-0.023834195,-0.10367686,
0.02500015,0.04151448,
-0.0754422,0.01512017,
-0.023216411,-0.008882244,
-0.040901326,0.024323385,
-0.012783192,-0.06259795,
0.011738774,0.05132126,
-0.06978901,0.0653514,
-0.023673074,-0.052249577,
-0.044391166,-0.059537858,
-0.0043296646,-0.019113872,
-0.12822829,0.09150021,
0.033195283,0.063574664,
0.0023651319,0.09105014,
-0.02515591,0.041347086,
-0.03542164,0.02800625,
-0.031457353,0.041681122,
-0.066501416,0.0019809157,
0.08846364,-0.0897003,
-0.070040815,0.08970207,
0.10245702,0.06615127,
-0.022782432,-0.023225935,
-0.052827656,0.0030755352,
-0.06713345,0.0052012294,
-0.015471226,0.021392075,
-0.037162878,0.013870555,
-0.0062766504,-0.030087523,
-0.097437575,0.027948909,
0.047006015,0.026277581,
-0.058216438,-0.111976594,
0.027756447,0.091245,
-0.0025656836,-0.010412566,
-0.05165455,0.066365615,
-0.012438885,-0.034090593,
0.08090229,-0.009524086,
0.0029115935,0.036096,
-0.07355987,0.0015408733,
-0.0074462676,0.0067319074,
0.12594564,-0.058259808,
0.041207507,-0.042472553,
0.036262006,0.043768186,
-0.039343797,-0.06655514,
0.0031437764,0.03768294,
-0.0156162325,-0.0025903012,
-0.0035467804,0.00959091,
0.057289097,0.04019068,
0.00053692696,0.08042166,
0.007020998,0.040171523,
0.12965357,0.025483284,
0.049032684,-0.020161409,
0.029620938,-0.03739502,
-0.03982581,0.12613466,
0.0008483453,-0.016548935,
-0.07719697,0.02733301,
0.030063253,0.06505697,
0.034983788,0.05114968,
0.020914307,0.046312027,
0.011916075,-0.0019057939,
0.08498702,-0.0302986,
0.018600708,-0.06429808,
-0.005336112,-0.02396096,
0.06029325,0.0052946024,
0.04377272,-0.046203215,
0.06371624,-0.010999529,
-0.00428055,-0.009990966,
0.05814076,-0.038993016,
-0.025871297,-0.03407651,
0.027245564,0.068390585,
-0.014454163,-0.0042959508,
0.04734859,0.0077498294,
0.008366826,0.024415597,
-0.021438072,0.030923028,
-0.013411281,0.05951161,
-0.020237947,-0.04304641,
0.07691042,0.019791672,
0.015919987,0.07309951,
-0.036121346,-0.046087526,
0.10702793,-0.06502472,
0.017752632,-0.0110474415,
-0.051025756,-0.08475834,
0.032131787,0.050368726,
-0.024513569,0.036264714,
-0.04582264,0.012349503,
0.0034125263,-0.048759535,
-0.07696213,0.035697456,
-0.04994792,-0.05221246,
0.0028383718,0.0036732971,
0.0065144068,-0.03170151,
-0.059954368,-0.006203806,
0.03375885,0.054332137,
-0.009990401,-0.039512087,
-0.012602185,-0.07205073,
0.0063938377,0.043503877,
-0.06500889,0.0042563244,
0.11876763,0.0015553717,
0.06762262,0.016096046,
0.07875932,0.037128184,
-0.010151962,0.031428594,
-0.063987814,0.039626475,
-0.048104912,0.03478787,
-0.06841832,-0.04830583,
-0.038428307,-0.013816104,
-0.03534383,0.056702223,
0.03621474,0.030317828,
0.04360978,-0.05193589,
0.063651495,-0.035814587,
-0.025088817,-0.023420274,
0.13326882,0.018894704,
0.007218359,-0.018726824,
-0.053105116,0.045908824,
0.011231558,-0.032390375,
-0.077057056,-0.00033374658,
-0.08737452,0.015670594,
-0.023707872,-0.038229585,
-0.084369116,0.026241187,
-0.042508774,0.036239166,
0.042009294,-0.06183403,
0.02667581,-0.06531823,
-0.05984681,0.026386356,
0.045087647,0.016250119,
-0.040298913,0.039743997,
-0.046354268,0.08617256,
0.078885965,-0.10135424,
0.030028772,0.0072032465,
-0.011897655,0.029349016,
0.08622859,-0.051151097,
0.03044032,0.07167148,
-0.07699287,-0.12686296,
0.009325315,0.03397195,
0.0015084618,0.006261743,
0.04652651,-0.021285908,
-0.048378345,0.030358685,
-0.0027240796,0.06380332,
-0.09824794,-0.0045529255,
-0.009868703,-0.00015468143,
-0.033879384,0.020198245,
-0.053257134,-0.030566253,
-0.04792088,0.07721294,
-0.043762445,-0.052308805,
0.048704598,0.016454924,
0.0816807,-0.058331683,
0.032499563,0.027537499,
0.057984814,-0.051802296,
0.039900977,-0.012219389,
0.006242076,-0.085614875,
-0.014351861,0.017505607,
-0.059042532,-0.020184381,
-0.057382945,-0.05101274,
-0.08114478,-0.015706982,
0.02788444,0.012612708,
0.024390157,0.017289046,
-0.018842064,-0.005708146,
0.041020043,-0.0014228277,
0.030770877,0.03986012,
-0.058865346,0.019922327,
-0.057260156,0.006604976,
-0.0064259465,0.015015776,
-0.028477566,-0.028738031,
0.015126463,0.006642611,
0.044195883,-0.04893511,
0.07914843,0.08993006,
-0.0009830534,0.028170515,
-0.0013923257,0.044597358,
0.018483173,-0.04991255,
-0.044628073,0.04774486,
8.165447e-05,0.015520068,
0.023937292,0.03120989,
-0.011832554,-0.0057091718,
-0.0006779824,0.08281312,
0.12050642,0.015157393,
0.028509606,0.017456178,
-0.039765734,0.0052288077,
-0.014513872,-0.09620647,
-0.113079555,0.03207282,
-0.021354476,0.016253244,
0.004618118,0.02887595,
-0.009038557,-0.004465186,
0.07602697,0.053879194,
0.044092398,-0.032056093,
0.017938506,-0.00902238,
-0.038493194,0.034194987,
0.10115473,-0.03678478,
-0.07998175,-0.015656156,
-0.015047478,0.026286962,
-0.033509284,-0.016844183,
0.032893874,-0.008146667,
-0.08781187,-0.083651155,
-0.042915806,0.09341467,
-0.036990784,-0.08912859,
0.09623756,-0.016799249,
-0.040645145,0.013802211,
-0.027068907,0.020374471,
0.130736,0.037710946,
0.11165885,0.05658269,
-0.012830497,-0.015161248,
-0.022992818,0.12339859,
-0.05197264,-0.013569188,
0.041999117,0.14299573,
0.017559277,-0.09566244,
0.013822377,0.008172322,
-0.10129893,-0.007942535,
-0.022228528,0.022103028,
-0.121427625,-0.048008613,
0.07481253,0.047657624,
-0.009019831,-0.006749895,
-0.034410834,-0.017031845,
-0.01901712,-0.017112026,
-0.008075608,0.04635833,
0.021170678,-0.00625239,
-0.0077174385,-0.008899777,
0.037838813,-0.0016333456,
-0.042450722,-0.0028993166,
-0.009818433,-0.077172615,
-0.0331823,0.07011335,
-0.0062849754,-0.062167194,
0.00028952365,0.030306445,
0.031131154,-0.021897404,
0.008574241,-0.028663877,
-0.06546052,0.06886423,
-0.056974664,-0.003595224,
0.05854424,0.052838303,
-0.09154164,-0.031812176,
-0.014526414,-0.03804656,
0.017264815,-0.07134673,
0.06520075,0.032095578,
-0.11590927,-0.0430096,
0.10904263,-0.039283756,
-0.0025830974,-0.018986152,
-0.00068187865,-0.0049310965,
-0.019133903,-0.04174501,
0.04867405,-0.07101838,
-0.027806517,-0.040308338,
0.07177607,0.043590866,
-0.018439636,-0.076266035,
-0.04828952,0.0055194777,
-0.07707726,-0.06959471,
-0.051898997,-0.021279512,
-0.029445486,0.04904826,
0.014670245,-0.005560775,
0.09819681,-0.017406879,
0.0024750584,0.008857806,
0.022275286,-0.078551106,
0.065388374,-0.0042212033,
0.05089971,-0.0062373197,
-0.02069752,-0.038286004,
0.059896793,0.02036797,
-0.053458296,-0.03744196,
-0.014152044,-0.013489917,
-0.08411879,-0.01862293,
0.09327369,0.07863919,
0.026859947,0.039058417,
0.03530556,0.052390147,
0.026103228,0.0925557,
0.012741472,0.03891955,
-0.01813737,0.049373623,
0.008271031,-0.048446417,
-0.059633806,-0.060917486,
-0.033100136,-0.025750836,
-0.036184914,0.019121202,
0.033874124,-0.007368153,
0.01607687,0.042584162,
0.03192621,-0.03850721,
0.03389695,0.07021183,
0.0152877215,-0.025169535,
-0.07557534,-0.030153254,
0.041490797,-0.009912678,
-0.054792788,0.0028137332,
0.015672332,0.034691613,
0.0060793203,0.0014944247,
0.0413605,-0.0015937999,
-0.04241399,-0.01783069,
-0.023665788,0.010358121,
0.0791499,-0.0005277076,
-0.032889955,-0.02581293,
-0.03118264,0.023647875,
0.03475597,0.028492467,
0.045011744,-0.05052931,
-0.002240953,-0.056050804,
0.010849113,0.057620596,
0.08239082,-0.0062366086,
-0.0037339956,-0.036080644,
-0.0006323007,-0.0045574713,
0.034758784,0.02621445,
-0.05194075,-0.021630848,
0.031948972,-0.04167108,
-0.044135086,0.11602365,
-0.06536151,-0.081441656,
-0.033975437,-0.06775467,
-0.007942955,0.02089088,
0.0045264605,0.010708614,
0.03746546,0.07738444,
-0.07055567,0.032466285,
-0.015039979,0.07127366,
-0.015650837,-0.024762154,
-0.042170405,-0.022078108,
-0.00856261,-0.02748308,
0.0076992675,0.0055681705,
-0.06423432,-0.0012822074,
-0.056789782,0.0034162218,
-0.032433987,0.070529036,
0.12978463,-0.06015102,
0.019288206,-0.066362366,
0.12365368,0.040783763,
-0.0150634,0.02278097,
0.002282473,0.03242713,
0.030853571,-0.01860776,
-0.051504437,-0.019733265,
-0.046082728,0.027278181,
0.07392919,0.008814353,
-0.013289069,0.0013896887,
-0.015743816,-0.033786964,
-0.019105762,0.014632318,
0.0013104277,-0.013473515,
-0.025655659,0.079349734,
0.002993975,-0.07792296,
0.0064898175,-0.06791111,
-0.05484508,0.03616597,
-0.00034377543,-0.017607044,
-0.043554503,0.012605374,
0.0037578293,-0.010867932,
-0.037369866,-0.056192372,
0.12926766,0.0105257705,
0.054047026,0.00410079,
0.048241105,0.054260332,
-0.006517065,-0.092545986,
-0.025115782,-0.023109732,
-0.0050138514,-0.052652095,
0.05045073,-0.05330296,
-0.027670385,0.037686292,
-0.041626114,0.110282145,
0.067717716,-0.11186655,
0.08993736,-0.06338595,
0.030067682,-0.06965219,
-0.019341677,-0.06434011,
0.0071937875,0.04384468,
-0.012536309,0.048838004,
0.055262905,0.0033507682,
0.023363614,-0.047464315,
-0.018838948,0.04053071,
0.10287,0.008779768,
-0.016981818,-0.022940906,
0.00086025696,0.020167042,
0.050948206,0.01582819,
0.0824712,-0.013043411,
-0.030281166,-0.009255086,
-0.10474761,0.013749559,
-0.027355365,0.017844228,
-0.026617514,0.04015723,
0.018088955,0.044158418,
-0.06267742,0.05930196,
-0.015842684,-0.0075786193,
-0.029387519,-0.018501434,
-0.06525787,-0.016075391,
-0.0055141826,0.040675934,
-0.016355924,0.07445271,
0.048387706,0.022304852,
-0.027852906,0.021243973,
-0.06517251,0.09558894,
0.008230449,0.04045462,
-0.01914175,0.004204309,
0.006743899,0.08240257,
-0.08742831,0.040125184,
0.017386068,0.047334496,
-0.07946189,0.043501105,
-0.08419359,0.01968634,
-0.020584425,-0.032378945,
0.007393329,-0.023917528,
0.006489729,0.075380154,
0.017547993,0.050092533,
0.023159185,-0.010784732,
-0.016815193,-0.0072435387,
0.09876254,0.010952133,
0.021917509,-0.022189433,
-0.032090902,0.10827402,
-0.0836709,-0.023430685,
0.012223258,0.012972282,
-0.0048536607,0.04854739,
-0.025613429,-0.008337844,
-0.002902669,0.08805105,
0.007156831,0.0036695024,
-0.0034901525,-0.02135447,
0.05413982,-0.007969304,
0.0017573129,-0.021766482,
-0.052836195,-0.0030413985,
0.057549875,0.120554745,
0.09231902,-0.08164039,
0.009147289,0.08098448,
-0.086966425,0.006278341,
-0.00075499015,-0.03029556,
0.029769005,-0.06474478,
0.015859166,-0.070307285,
-0.04082579,-0.03238339,
-0.032488912,-0.0051938607,
-0.023073196,-0.068873614,
0.09116367,-0.012692473,
-0.0080622565,-0.030598613,
-0.026343297,0.040708043,
-0.044659723,-0.04049807,
0.026781272,-0.01857211,
0.024261452,-0.0023255458,
0.004071918,-0.023046298,
0.050159317,-0.050943613,
0.017868832,0.013284213,
-0.015613561,-0.020416586,
-0.012253595,0.07731955,
0.054161623,-0.002133183,
0.093303084,0.016575377,
0.0026924144,-0.051437903,
0.051211715,0.05280976,
4.934487e-05,-0.06396713,
-0.06513867,-0.0688672,
0.0013738448,-0.028845243,
0.00854454,0.03464317,
-0.067834385,-0.005863439,
0.038664144,-0.015316375,
0.027198179,-0.016964372,
0.061524052,-0.007940844,
0.04377772,-0.03323722,
0.045915842,0.032484878,
0.033128794,-0.047328517,
-0.05701685,0.008488637,
-0.077009656,-0.0066053253,
-0.012114832,-0.006036914,
0.054494802,-0.01645461,
0.018087387,0.013865962,
0.0020481476,-0.007564579,
0.046859123,0.011474014,
-0.026202321,-0.011855421,
0.044620138,0.02318685,
0.06298307,0.052047905,
-0.032607913,0.06323583,
-0.01549016,0.0625193,
0.008136154,0.038844187,
-0.03238725,0.06433186,
-0.037653264,-0.037647553,
0.0054949527,-0.06295972,
-0.03744398,0.0049530524,
0.02597788,-0.03610804,
0.057348046,0.049513604,
-0.009335949,0.05378044,
0.004242715,0.051773474,
0.025773123,-0.008795289,
0.02598818,-0.022553409,
-0.008287751,-0.026818126,
-0.04849945,-0.06902224,
0.03411206,-0.0012724629,
-0.070251666,-0.015109434,
0.018499471,-0.0036334922,
0.03394107,0.069206715,
0.06115143,0.12663493,
-0.011525139,0.028810648,
0.015875246,0.05918977,
-0.03998546,0.0780925,
0.0243926,0.0054359823,
-0.013913091,0.01941388,
-0.075606786,-0.029771822,
0.051600438,0.021593615,
-0.01891075,-0.011759895,
0.06711522,-0.0061633443,
0.011069598,0.06347991,
-0.06475804,0.009725262,
0.0030323775,-0.009141084,
0.03632447,0.011301957,
0.0777291,-0.0055455496,
0.072670825,-0.025073629,
0.038839694,-0.052563533,
-0.0047942363,-0.011402565,
-0.018214542,0.043228447,
-0.053375877,0.04903136,
0.037081487,-0.016139101,
0.01536328,0.0336211,
-0.059048623,0.09255271,
0.054257113,-0.0004965472,
-0.041389335,-0.03368693,
0.10940543,0.0011917987,
0.0075282236,-0.047854718,
-0.03771869,-0.02038105,
-0.04606764,0.04646979,
0.03929479,-0.10422058,
-0.0068917787,0.034787238,
-0.003994549,-0.061095823,
0.040887855,0.09005855,
0.02249355,0.026990762,
-0.06792563,0.07599489,
0.018063653,0.03366815,
0.035043567,0.017540753,
-0.04280942,-0.060084485,
-0.035615414,-0.06645,
-0.054537047,-0.13795859,
-0.016118417,0.0548709,
0.08017214,-0.0008174736,
-0.018545665,-0.016428629,
0.028080445,-0.006560883,
-0.06294116,0.06673807,
0.022923596,0.060861792,
-0.033135273,0.014980941,
-0.010818795,0.01192368,
0.033820484,0.018501503,
0.045816142,-0.030925987,
-0.00944868,-0.036455538,
0.016688677,-0.020109074,
0.07787348,-0.008889193,
-0.12826678,-0.013718252,
0.027867477,0.041089516,
-0.0055156313,-0.08310189,
0.027885342,-0.006542245,
0.06427291,-0.016472893,
0.08505659,-0.053643093,
0.06284825,-0.0038315214,
-0.005182894,-0.0021630416,
0.0038042418,-0.019797979,
0.04202775,0.093723945,
0.026922472,0.05877908,
0.02378329,-0.036538452,
0.08567067,0.012361502,
-0.06169355,-0.1064561,
0.020899316,-0.03029816,
0.038250048,0.056858055,
-0.0013841547,-0.0018814725,
-0.0009006311,-0.032278128,
0.010909848,-0.010884695,
-0.050562046,-0.064607635,
-0.0038227558,-0.050857216,
-0.006538623,0.04215077,
-0.020827586,0.08028829,
0.03558171,0.053921167,
0.08931182,0.007714233,
0.00018947356,-0.043307703,
0.03561188,0.07537865,
-0.04841328,-0.019710582,
-0.0016775491,-0.017518338,
-0.011839205,-0.063903585,
-0.048676707,-0.03006644,
-0.030313527,-0.08056634,
-0.026231823,-0.03208516,
-0.06546852,-0.04690197,
0.0030018175,-0.03822781,
0.08189869,0.10555204,
-0.016202817,-0.04922286,
-0.009068295,0.05361125,
-0.0007009601,-0.002280355,
0.02951882,-0.068269104,
-0.055322062,0.011688924,
-0.08251407,0.04126632,
-0.008071122,0.044354316,
-0.004822924,0.049187154,
0.10434582,-0.037442923,
0.0030927672,0.009237333,
0.1002917,-0.030964097,
0.03307335,-0.06574973,
0.096402176,0.02917646,
0.00339728,0.023126999,
-0.023861738,0.078583345,
-0.025920363,0.098133326,
0.019666426,0.06691319,
0.004569221,-0.06487423,
0.020224046,-0.03378814,
-0.014547437,-0.043608677,
-0.029205838,-0.04792654,
-0.037372936,0.027512498,
-0.055131383,0.028736975,
-0.015218534,-0.0037818402,
0.004333829,0.030115943,
0.0060303765,-0.06778451,
-0.087724075,0.006029771,
0.03977821,0.036690284,
0.028790591,-0.009377801,
0.041128833,0.05916713,
-0.036590133,0.0825516,
0.017353375,0.089495935,
0.008983603,-0.009304701,
0.021598972,-0.06023612,
-0.0161116,0.037687812,
-0.028257241,-0.037099514,
0.022575455,-0.010238222,
-0.098097965,0.028297417,
-0.07029215,0.017525746,
0.06894022,-0.08580613,
-0.012374583,-0.046274647,
-0.028238486,0.015264526,
0.059345063,0.015678555,
-0.05704356,-0.0025450576,
0.046653617,-0.06912642,
0.00933359,0.02381825,
0.05634878,-0.00412648,
-0.022359049,0.033609815,
0.04124954,-0.060196027,
-0.12765962,-0.022787416,
0.027001588,-0.008890774,
0.089883015,0.006730835,
0.031756494,-0.04774929,
0.027550092,-0.014764047,
-0.01257275,0.020645466,
0.026578093,0.013291922,
-0.06992686,0.020103555,
-0.050824348,-0.07619893,
0.009111921,0.030775396,
-0.018326435,-0.047630537,
0.061995804,-0.02491336,
0.06906549,0.03732066,
0.078255646,0.037256334,
-0.016098656,0.00927378,
0.11219733,0.017259503,
0.059380777,0.06600094,
-0.04473413,0.006427247,
0.016859708,0.07071537,
0.090972416,0.052069753,
0.0012289142,0.06854429,
-0.01338075,0.05097789,
0.044734914,0.028279351,
-0.043641347,-0.023553656,
-0.03921374,0.09038472,
0.017914364,-0.04064253,
0.07485176,0.077962495,
0.030882902,0.08175872,
0.011063204,0.021577531,
0.041840326,-0.014625994,
0.025646837,-0.0041320752,
-0.02767009,-0.024092209,
-0.015591956,0.009131072,
-0.046498895,-0.0011937935,
0.026608722,-0.026692126,
-0.026092993,-0.04357416,
-0.04493682,0.022439262,
0.1010027,0.04544402,
0.07754583,0.016821848,
0.025340496,-0.025859172,
0.08648292,0.0061425627,
-0.030243823,-0.042534225,
0.03469484,0.055346183,
0.024624111,-0.09768528,
0.050503492,0.03432748,
0.08026168,-0.023679685,
0.074117556,-0.010581778,
-0.07757903,-0.024826294,
-0.05884996,0.038176827,
0.08286277,-0.006858814,
0.015370962,-0.03873524,
0.024020825,0.076330155,
0.05118269,-0.0020542697,
-0.080548264,-0.034420483,
-0.05852993,-0.062331293,
0.009496862,0.032422055,
-0.05051469,-0.0007867191,
0.034977846,-0.08293412,
0.055200886,-0.026104018,
0.032921694,0.045132376,
-0.00011750437,0.024583384,
-0.1335531,0.022783047,
-0.053543184,0.021530401,
0.048407935,0.032220803,
-0.11287409,0.0005276039,
-0.05058131,0.02251454,
-0.042714205,0.006907258,
0.081295,-0.10476857,
-0.058359914,-0.00555102,
0.0919681,0.052782815,
0.022016099,-0.010918841,
0.04771993,-0.025035897,
0.0013386778,-0.0628226,
0.0038412916,-0.05690639,
0.0842757,0.014450319,
0.009001464,0.010722169,
0.023144253,-0.086379096,
0.040790882,0.029182702,
-0.00665708,-0.032489218,
-0.058767397,0.008768093,
-0.057386577,0.03242245,
0.019430999,0.037316255,
-0.08376013,0.0037047619,
-0.096475825,-0.04071455,
0.05195356,-0.07911772,
0.06616307,0.028984064,
-0.051469315,0.022653239,
0.02725093,-0.01716415,
-0.017790755,0.08937723,
-0.032032833,-0.0129658235,
0.06605817,-0.00980146,
0.010841849,0.05841174,
-0.0409162,0.07997808,
-0.08393156,0.08211908,
-0.067030184,-0.04566874,
-0.03037481,-0.055128004,
0.103910625,0.027776109,
-0.009446513,0.0010371234,
-0.0033248228,-0.02295142,
0.082887575,0.0047577037,
0.076663144,0.025742417,
0.039076485,0.027578715,
-0.0078079365,0.055917677,
-0.083887875,0.028527435,
0.062311605,-0.19807191,
0.01474878,-0.05322789,
1.21105695e-05,0.005342577,
-0.040631495,-0.056700557,
-0.074266136,0.03502409,
-0.019129444,0.12357155,
-0.103468314,-0.037707604,
0.030884081,0.008410442,
-0.036282048,0.024959596,
-0.0073066955,0.09280142,
-0.038212754,0.004475526,
-0.09132204,-0.0020938127,
-0.028287593,0.00010558544,
0.09826777,0.053777643,
0.034785207,-0.019903548,
-0.0071034473,0.013535687,
-0.019283023,0.059035845,
0.0114916,-0.027043562,
-0.024846518,-0.028666766,
-0.05011139,0.06499871,
-0.037963394,-0.022852141,
0.032322202,0.028035024,
-0.001965915,0.06847482,
0.019824719,-0.027981047,
0.022493346,-0.02953339,
0.022855649,-0.0034722874,
0.009166563,0.046985794,
0.03413197,0.0585143,
0.061167363,0.014545331,
-0.03564088,0.064569294,
