layer1node1,layer1node2,layer2node1
-0.0338116,0.06474868,-0.22567114
0.0,0.070276804,-0.24441023
0.0,0.031613097,
0.071854606,-0.08244749,
0.07132854,0.025778199,
-0.15045732,-0.07040769,
0.019630639,0.14381537,
0.0,0.07348052,
-0.04408738,0.0,
-0.012877096,0.010227489,
-0.077079624,0.02747229,
-0.029189847,-0.020709848,
-0.015743239,-0.038107358,
0.071370326,0.021980274,
0.028205633,0.0,
0.0,0.0,
0.018559355,0.0,
0.045872185,0.029062679,
-0.025723644,0.025445247,
-0.035804316,-0.019819934,
0.014509981,0.012057306,
0.073767506,0.01774784,
0.026664449,-0.07783623,
0.0621731,0.0,
0.02704814,0.02087466,
0.0,0.0,
0.044506945,-0.030180087,
-0.05688797,0.07697829,
-0.07833297,-0.07706333,
-0.026920192,0.042618338,
0.0,0.084803455,
-0.016758658,-0.04029269,
-0.020579342,-0.011985892,
0.031346075,-0.031260062,
-0.018762423,-0.024819862,
0.022124482,0.07421943,
-0.08078076,0.037411973,
-0.07302165,0.0,
0.019673869,-0.044405848,
0.0,-0.048465557,
-0.04591605,-0.024939133,
0.06220987,0.060094856,
-0.051806826,0.0,
0.05913062,0.037722312,
0.057546668,-0.058256526,
0.0,0.071948625,
0.03344317,-0.04477632,
-0.024243712,0.05715297,
0.0,-0.018671669,
-0.072997995,-0.012747226,
-0.04445494,0.03254469,
-0.07146834,-0.085634194,
-0.046567265,0.01668071,
0.0,-0.032718692,
0.011388124,0.0,
0.0,0.052156996,
-0.06813766,0.022628421,
-0.023989549,-0.026786262,
-0.048775587,0.084141545,
-0.024868483,0.059536263,
0.0,-0.036628697,
0.05116183,-0.020223783,
0.053510655,0.0183631,
0.10081612,0.08553951,
0.06951397,-0.010393607,
-0.0130062075,-0.028436312,
-0.034703135,0.0,
-0.036592804,0.0,
-0.066867314,0.04743274,
0.0,-0.033386126,
0.048828863,0.031225394,
0.05016309,0.075247474,
0.012234905,-0.02720808,
0.0,-0.03692813,
0.03242173,0.06252213,
0.04396124,-0.040780574,
0.010705597,0.107403316,
-0.032210715,0.07981112,
-0.013003752,0.0,
-0.028279962,0.022633381,
-0.025813676,-0.017163599,
0.03663062,-0.047760062,
-0.017337676,0.053502485,
-0.018785426,0.08980594,
0.038960572,-0.024454925,
0.05225688,0.04373877,
0.062529035,0.06570452,
0.03850641,0.0,
-0.05377549,0.0,
0.022674974,0.013548834,
0.040449653,0.022940565,
0.082750015,-0.047126252,
0.09408753,0.08709705,
-0.014916277,-0.04683625,
-0.047061466,0.016244292,
0.0,-0.029434271,
-0.011940541,0.07758615,
-0.033032887,0.0,
0.028240005,-0.046330776,
-0.013399198,-0.063043796,
-0.03270569,0.03401985,
-0.038915187,-0.07438851,
-0.05533975,-0.037050057,
0.0,0.0,
-0.058750458,0.0,
0.0,-0.022229796,
-0.056367777,0.0,
-0.011335335,-0.017954102,
-0.072723456,0.03140947,
-0.011692221,0.09868683,
0.04305108,-0.05338302,
0.017059784,0.040262736,
0.0,0.025507636,
-0.012576966,-0.03015844,
0.03910881,0.018814724,
0.056814436,-0.028736716,
-0.05926014,0.0,
0.03931134,0.0,
0.071891755,-0.011941695,
0.0,0.018335285,
0.08258231,-0.018981284,
-0.019704068,0.0,
-0.011009076,0.07447762,
0.10057416,-0.083603926,
0.0,0.019360173,
0.049632058,-0.063084275,
0.030911816,0.025542958,
0.09357546,0.0,
-0.07815243,-0.020639056,
0.032335337,0.0,
-0.06663832,0.023430265,
-0.02972399,0.02033567,
0.05887212,0.07386317,
-0.026740767,0.014485191,
-0.021146087,-0.032505848,
0.04975903,0.027180398,
0.026080305,0.036219884,
-0.010067487,0.015519859,
0.035985164,-0.07650878,
0.0,0.03522303,
-0.04283262,0.016988302,
0.104715854,-0.032877002,
-0.041030552,-0.06664182,
-0.014348391,0.051535856,
0.013861833,0.022923112,
0.0,-0.093335815,
0.09919887,0.017305547,
0.021874867,0.0,
-0.06940208,0.062356643,
0.0294597,0.0636258,
-0.060212784,0.10339299,
-0.03302609,0.0,
0.010367178,-0.046559747,
0.09620928,0.0,
-0.068495415,0.0335887,
0.015207945,-0.07086902,
0.0,-0.059276145,
-0.010844133,-0.058655992,
-0.052312978,0.05782733,
0.033678792,-0.05748374,
0.042196523,0.0,
0.044098902,-0.019337395,
-0.079630665,-0.039926108,
0.015199937,-0.041578464,
-0.07930801,-0.013238048,
-0.051376153,-0.010384736,
0.023324681,-0.04353121,
0.056410924,0.036365036,
-0.07134773,0.0,
0.022631133,-0.09159673,
-0.016133111,0.041628145,
-0.038582813,-0.044224806,
0.010220891,0.041379523,
-0.078433104,0.0,
0.058876578,-0.014606608,
0.0,-0.015346363,
-0.053257637,0.08886057,
-0.058766253,0.014106435,
0.059429105,0.0,
-0.025547097,-0.045489945,
0.079606876,0.0,
-0.013764428,0.09865601,
-0.041416716,0.012790066,
-0.044776097,0.03292882,
-0.13002232,0.039891068,
0.036793742,-0.03259592,
-0.01210984,-0.08029268,
0.014100073,0.0,
0.08275436,-0.060161572,
0.017303329,0.013857982,
0.0631448,0.04550375,
-0.023131788,0.0,
0.0751294,0.0,
0.06406203,0.04772415,
-0.0207312,0.03382425,
-0.045451563,0.019809889,
-0.032014057,-0.07806897,
0.04954626,0.0,
-0.020144293,0.05945763,
0.0,0.0387181,
0.047588613,0.0,
-0.074705556,-0.05941329,
-0.03611361,-0.040966816,
0.0,-0.09494769,
0.08274287,-0.06963185,
0.03256833,0.05613334,
0.0,0.0,
0.0,0.09987058,
0.10892349,0.064449355,
0.014789373,-0.026210386,
0.014565371,-0.06851914,
-0.054915242,-0.06573062,
-0.027047588,-0.022724532,
-0.07648673,0.026444523,
0.029715108,0.0,
-0.02903436,-0.076195806,
0.0,0.026433524,
0.0,0.043928064,
-0.06865408,0.042088542,
-0.011868598,0.0,
0.04220415,0.0,
0.03275954,-0.046553425,
0.0575719,0.0,
0.0114197675,0.04722932,
0.037823003,0.052967675,
0.010278189,-0.028863832,
0.04354587,0.02250744,
0.040378585,-0.05339926,
-0.059737474,0.038364388,
-0.09189114,-0.03429795,
-0.0781935,0.0,
-0.09749238,0.014564112,
0.0,0.037914656,
0.04180654,0.0,
-0.022725543,-0.042063165,
-0.09582989,-0.045061953,
0.013988527,-0.10188988,
0.010313748,0.0,
0.06533821,-0.08488472,
0.09136976,0.057678625,
0.039328173,0.0851553,
0.0,-0.04810213,
-0.030699313,-0.038665116,
-0.011423436,0.0,
0.053938683,0.026212925,
-0.069720246,0.01834275,
-0.010854694,0.025665555,
0.0,-0.013257756,
0.035135552,-0.037500065,
-0.06616165,0.079263695,
0.10380034,0.0,
0.0,0.016832154,
0.027699182,0.015240653,
0.049963664,0.02245136,
-0.013956297,0.023801073,
0.037811086,0.027240606,
-0.01193328,0.09822603,
-0.027490048,-0.040164318,
0.012267474,-0.055675298,
0.030253332,-0.036375456,
-0.019688087,-0.037767638,
-0.057650592,0.014038108,
0.043952487,0.066022016,
0.08834377,-0.01470352,
0.0,0.075257994,
0.030354334,0.05438948,
0.052728225,0.033705298,
0.06323632,0.061917983,
-0.010518998,-0.025939526,
-0.047769036,-0.023822851,
0.08157273,-0.043804083,
0.050896354,0.0,
0.11337962,0.0,
0.0,0.11649458,
0.02733204,0.0,
0.047271486,-0.06940353,
0.023247197,0.0,
-0.014150697,-0.062428333,
-0.07851526,0.09318625,
0.023649834,0.06577216,
0.10369731,0.062747926,
-0.056366127,0.0,
-0.018600387,-0.121883616,
0.0,-0.046864998,
0.023990514,-0.12270762,
-0.057714783,0.046216372,
0.01759862,0.098551005,
-0.06994629,0.057913896,
-0.033283986,0.044064354,
0.0,0.05926525,
-0.06942336,0.0,
0.0,0.04037629,
-0.06714099,-0.027571961,
-0.12540035,0.0,
0.03132535,-0.03320026,
-0.029879643,0.06535136,
-0.07257954,0.05516131,
-0.021600386,0.061609883,
0.028823406,-0.062281802,
0.0,-0.057544734,
-0.103255205,0.0443009,
-0.07315717,0.0,
0.015798347,-0.013446036,
0.027450511,-0.014543388,
0.06978969,-0.023885608,
0.119556,-0.038043886,
-0.061964847,0.03959191,
0.073856466,-0.0229708,
0.0,0.0,
0.07673643,0.047024976,
0.0,0.046436675,
0.0,-0.0143496,
0.0461027,-0.040086616,
0.024726368,-0.082628146,
0.07198027,-0.04601927,
0.01537449,-0.031580143,
0.0,-0.09473271,
-0.062184382,-0.03033062,
-0.010131588,-0.014259356,
0.0277328,0.020716807,
0.0,-0.014876569,
0.044309832,-0.038478997,
-0.03819598,-0.03902858,
-0.06764661,-0.060335144,
0.04603792,0.0,
0.0,-0.032805964,
-0.039039824,0.033719912,
0.03694504,0.0,
0.0,-0.034568295,
0.018707,-0.024590831,
0.052677296,-0.06167831,
0.04075939,0.099773355,
-0.036252525,-0.047818217,
0.0,-0.026906712,
-0.036920603,0.01241794,
0.10145493,-0.028022263,
-0.031828914,0.104899354,
0.06204378,-0.059812628,
0.0,0.054774895,
0.024259435,0.0,
0.077491246,-0.07908726,
-0.018780531,-0.07082054,
0.012379767,-0.031915545,
-0.016534256,0.04263111,
0.04235983,0.057986196,
0.0,0.015881173,
0.0,-0.046698246,
-0.04459022,0.021852491,
-0.03344114,0.025989663,
0.09265859,-0.03144959,
0.12186894,-0.0420108,
-0.08349505,0.0,
0.012023592,-0.026734218,
-0.052290343,0.061688464,
0.0,-0.02086117,
-0.085163005,0.04700983,
-0.015417682,0.013694728,
0.0,0.0,
0.05148095,0.064988285,
-0.06403152,-0.038615186,
-0.08594254,0.029486684,
-0.021517655,0.013640671,
0.036723804,0.010919656,
0.060209613,-0.06750594,
-0.028368233,0.0,
0.04378548,0.0,
0.06928688,0.042588703,
0.0,-0.030955,
-0.018998187,0.05021443,
-0.02210804,0.035352454,
0.08120632,0.0,
-0.020434668,0.035334885,
0.024817443,0.0,
0.05774379,0.061457124,
-0.057784613,0.015461366,
-0.10747127,0.062370308,
-0.018219858,0.077577084,
0.038253862,0.06164079,
-0.04547334,0.050499626,
0.0232977,-0.034381364,
-0.027513627,0.061464567,
0.0,-0.016247235,
0.010655016,0.038855754,
-0.06564509,0.025630338,
0.04811899,0.058292266,
0.045044392,-0.037285253,
0.015025721,0.023021564,
-0.036079913,0.06514191,
-0.013672967,-0.055756986,
0.06594237,0.039615933,
0.09218513,0.059932306,
0.0,0.035387225,
0.06091175,-0.037492964,
-0.020343779,-0.07818911,
-0.027318818,0.018639728,
-0.011507447,-0.04472382,
0.0,0.0,
0.03924806,0.09424483,
0.07618468,-0.028802749,
0.032646146,-0.07121604,
0.0,0.021259772,
0.0,0.025535516,
-0.03962685,0.069312565,
-0.021103833,0.0,
-0.06337005,-0.094923034,
-0.06153383,0.036608696,
0.037681468,0.01644117,
-0.10841933,-0.08998406,
-0.02707831,0.029737083,
0.049364064,0.0,
-0.073784746,-0.07050546,
0.0,0.030199055,
0.013411954,-0.09157582,
0.0,-0.028270725,
0.010857356,0.0,
-0.058482774,-0.011213821,
0.099426314,0.050146352,
0.0,0.0671053,
0.01567273,0.0,
-0.031178333,0.0,
-0.02596756,0.038483746,
-0.05386877,-0.07806711,
0.062787324,0.05919808,
0.07205582,0.0,
-0.026743941,0.05388989,
0.022225264,-0.06631056,
0.026030593,-0.0150678465,
-0.0546543,-0.08808442,
0.0,-0.04781729,
-0.06357509,0.0,
-0.031547446,-0.015969336,
0.079836436,-0.047403585,
0.07020146,-0.012591039,
-0.0357572,0.032167293,
0.014781724,-0.048388075,
0.11128399,0.06781553,
-0.034442607,0.020084644,
-0.08539396,0.02305687,
-0.08726849,-0.08109817,
0.06903938,0.043599702,
0.02285529,0.016094407,
0.01884224,0.0,
-0.025442306,0.0,
-0.037690733,0.04051075,
0.023887638,0.10312437,
0.018219553,0.03058987,
-0.1024442,-0.045155454,
-0.012540882,-0.05917075,
-0.04708177,-0.041182242,
0.0,0.043971837,
0.051805593,-0.07090719,
-0.04645939,0.0,
0.026844699,-0.027935948,
-0.0151810665,-0.019954478,
0.019688403,-0.036625803,
0.01344193,0.043030646,
-0.029344045,-0.05064487,
0.05677089,0.022021018,
0.037545726,-0.08246996,
-0.034359857,-0.11013756,
-0.10872101,0.0,
-0.026606845,0.0,
0.044945054,0.0,
-0.08236511,0.016511155,
0.06632368,0.04591956,
0.035750814,0.042598207,
0.10631837,-0.021138519,
0.0,0.059261613,
-0.036091477,-0.027839819,
0.072491914,0.017599266,
0.022613706,-0.07585775,
0.025375256,0.0,
0.069392644,0.073385604,
-0.048923504,-0.15938985,
-0.056489617,0.04098878,
0.056710932,-0.02421199,
0.024814105,0.061690472,
0.052695706,-0.027830625,
-0.04567138,0.0,
-0.037425075,-0.064289026,
0.0,0.0,
0.010912858,0.09138067,
0.02591569,-0.03459094,
-0.031929526,-0.06772211,
-0.011819002,0.031155033,
0.14724584,0.07524001,
0.0,-0.030527525,
-0.026966793,0.045529567,
-0.025548324,0.0,
0.0,0.0,
0.046582095,-0.045395285,
-0.073891625,-0.01431821,
-0.031611368,-0.021399248,
0.032121032,0.010969048,
-0.015234444,0.09914576,
-0.03440918,0.0,
-0.03615059,-0.026392095,
0.0,-0.05858947,
0.064346455,0.13596682,
0.024170496,-0.048898987,
-0.02352235,0.054602,
0.021875178,-0.021327028,
0.05186625,-0.06846883,
0.10999465,0.064977586,
-0.016430091,0.01928375,
-0.031117857,0.0,
-0.045480758,0.0115744425,
0.06563095,0.052136958,
-0.023017693,0.044587817,
-0.035192147,0.036433797,
0.050090294,0.0,
0.018338341,-0.03277977,
-0.06670944,-0.01728368,
-0.046960693,0.051128957,
-0.07756885,0.08241299,
0.0,-0.03018425,
0.05349834,-0.013318507,
-0.03097362,-0.010498232,
0.05009707,0.038540464,
-0.08909927,-0.13347423,
0.0,0.08271792,
0.022762293,0.0,
0.0,0.074337125,
-0.07074944,0.01067114,
0.0,0.0,
0.018685333,0.0,
0.060973525,-0.020771816,
-0.013800744,0.0,
-0.08954773,-0.028003305,
-0.079014204,-0.017954482,
0.0,-0.060021378,
-0.052751172,-0.044329066,
0.10875423,0.0185712,
0.047415555,-0.05330043,
0.034023505,0.04587792,
-0.07776354,-0.026323467,
0.11592431,0.06491259,
-0.020754013,-0.025138283,
0.054810118,-0.05618545,
-0.020679738,0.015428257,
0.036832247,0.01997703,
0.020480106,-0.052493498,
0.0,0.057846855,
0.036882464,0.011203611,
0.026406528,-0.023582209,
-0.03829389,-0.11006737,
0.040861968,-0.0616082,
0.043868992,-0.025954565,
-0.111941494,0.06497498,
0.0,0.02764055,
-0.030286117,0.03833629,
-0.045050774,0.114216045,
0.077287726,-0.027635923,
0.0949583,-0.04997275,
0.0,-0.033886384,
-0.03413621,0.04211049,
0.095342755,0.045364365,
-0.040423926,0.06793095,
0.05301359,-0.050014947,
0.059741147,0.0,
-0.023374178,0.097481474,
0.14758134,0.0,
0.0,-0.028871065,
-0.019147072,-0.09359541,
0.02053028,-0.024389578,
0.0,0.09615126,
0.0,-0.035695873,
-0.045406137,-0.033324625,
-0.07261965,0.08191226,
-0.037019666,0.011850081,
-0.058574907,0.026335565,
0.025051037,0.029599974,
-0.046658773,0.0,
0.11048018,-0.03415778,
-0.054838844,-0.018357668,
0.0,0.0328514,
-0.027393274,0.05666862,
0.0,0.021790618,
0.06328325,-0.017352758,
-0.021031024,-0.038052093,
-0.033927795,0.0,
-0.03954062,-0.049313568,
-0.040370125,0.033505008,
-0.07606307,-0.025379445,
-0.07292477,0.03389128,
-0.030185886,-0.030247264,
0.010720434,-0.02770583,
0.021319957,-0.035820775,
0.010463133,0.022625603,
-0.07143584,0.053991415,
0.097654745,-0.046590585,
0.027036758,0.027956558,
0.117814474,-0.010001561,
-0.030852564,0.0,
0.078440435,-0.030423393,
-0.10823489,0.0,
-0.027614957,0.022474747,
-0.0501595,-0.035597418,
0.046645276,-0.04559428,
0.0,0.09291055,
-0.02295055,0.11014934,
-0.04534707,-0.025506973,
0.0,0.010822377,
0.07893141,0.12169224,
0.0,-0.011572637,
0.0,0.0,
-0.019083777,0.043746304,
-0.0403553,0.038174637,
0.02475712,0.111180566,
0.013584128,0.06474759,
-0.028302949,0.11408622,
0.02277766,-0.041980643,
-0.034320295,0.046592437,
0.030468257,0.0,
-0.012615771,0.029150164,
-0.035792887,-0.043024663,
-0.072944194,0.023476884,
0.050453875,0.04271096,
-0.031619214,0.113342,
0.0,-0.024354951,
-0.0752975,0.0,
0.06451102,0.08085811,
0.04329768,0.02825156,
-0.011001936,-0.07588224,
0.0,0.0610598,
0.07314473,-0.08976399,
0.080652274,0.013471236,
-0.011633736,0.11582283,
0.035577536,0.021570109,
0.050710265,0.08273316,
0.063325204,-0.07665946,
-0.020007808,-0.06252203,
0.0,0.10053346,
0.0,-0.05867941,
-0.0177312,-0.01572932,
-0.05901926,-0.025808787,
0.06919377,-0.06020728,
0.020625854,0.014276928,
0.0,-0.0382133,
-0.03582561,0.09470287,
0.0,0.0757045,
0.03042604,-0.071053475,
0.103936546,-0.037868008,
-0.08018733,0.041348174,
0.03976904,0.07921894,
0.031260747,-0.062729485,
0.0,0.0,
0.0,-0.046164114,
0.0,-0.01846791,
0.021280032,0.019925203,
-0.04183051,0.04096093,
0.026777923,0.0275361,
-0.044111446,0.01989985,
0.037961517,0.031943917,
0.0,0.054959863,
-0.08720777,-0.10091056,
0.03935399,-0.075554326,
0.039906714,0.030254154,
-0.028395595,-0.057088524,
-0.096402906,0.0707917,
0.03696008,0.07588976,
0.046057392,-0.042129297,
0.038367502,0.042511404,
0.10685976,-0.066959,
0.03347351,0.02358212,
0.09514024,-0.028559363,
0.052931715,0.0,
0.07353472,-0.056126177,
-0.05305231,0.012601839,
0.0,-0.013212645,
0.039687704,-0.014749556,
-0.051612146,-0.014732891,
-0.025316996,0.013470457,
0.07948006,0.0,
0.022392252,-0.057723816,
-0.06592226,-0.034986332,
-0.05543081,-0.05240982,
-0.018526416,-0.02535023,
-0.019032218,-0.011281593,
0.031240933,0.014851343,
0.06627336,-0.029685743,
0.025216848,0.07511217,
-0.04231184,0.08659001,
-0.0133626405,-0.035094235,
0.0,-0.010355004,
-0.02765976,0.08666905,
0.05452876,0.045797653,
0.0161349,-0.024687653,
-0.035876222,0.07502965,
-0.06585109,-0.09572915,
0.0,-0.012160055,
-0.15056902,-0.0253978,
-0.011888498,-0.012532843,
0.0,0.0,
-0.06510859,-0.013350342,
0.017752009,-0.06220329,
-0.05285861,-0.09523283,
0.0,-0.030789856,
0.011557967,0.027580459,
0.014787057,0.0,
-0.012136786,-0.019281507,
-0.04523236,-0.10050766,
0.0977432,0.084362395,
0.06992836,0.0,
0.11100401,0.12559299,
0.07240446,0.039084714,
0.07096564,0.056768253,
-0.08114584,-0.025421517,
-0.049146574,-0.045963094,
0.010258506,0.04214914,
0.0,0.0,
-0.059392817,-0.07305177,
-0.062656045,-0.04023157,
0.040377382,0.0,
0.057747364,0.0101266345,
0.0,-0.038334467,
0.13480774,-0.032539528,
0.08744059,0.03369636,
0.046559907,-0.055464678,
-0.04790684,0.0,
-0.09581736,-0.038263638,
0.06503534,0.0,
0.0,-0.01682137,
-0.019859873,-0.011898227,
-0.03757902,0.0,
0.0,0.03087001,
0.026536522,0.06788457,
0.0412508,-0.0438717,
-0.034757994,-0.044025235,
-0.06758661,-0.06818278,
0.029965106,0.058321737,
0.018931087,0.02621999,
0.029189147,-0.06706777,
0.033506595,-0.052981194,
0.0,0.028082024,
0.0,-0.017608687,
0.12222295,0.039462063,
0.0,0.06444987,
-0.028019365,0.022095004,
-0.013714959,-0.034187444,
0.025983013,0.0,
0.023912873,0.039336503,
-0.03207113,-0.018259136,
0.0,0.0,
-0.03303957,0.06150084,
0.0,-0.031164082,
-0.036635138,0.021479908,
0.026715968,0.091898575,
0.0,0.0,
0.041739598,0.0,
0.01631274,-0.10340605,
0.024826234,-0.015013322,
-0.057575557,-0.018299019,
0.026268454,0.048704434,
-0.039287545,-0.05193234,
-0.010103321,0.031692978,
-0.030702258,-0.037207227,
-0.047764376,-0.034443356,
0.0,-0.06982109,
0.0,-0.03933686,
-0.056472197,-0.026177628,
-0.063588545,-0.032949194,
-0.022914438,-0.01793701,
-0.05109035,0.055853397,
0.08990076,-0.0627595,
0.0,-0.026573181,
-0.07768126,-0.011913192,
0.015020452,0.08056071,
-0.103048764,0.01099175,
0.0101564685,0.036562085,
0.021030493,-0.014408709,
0.015957098,0.0,
-0.089588255,-0.05051697,
0.0,0.040875852,
0.09207903,0.0,
0.023701863,-0.032134924,
-0.05678262,-0.015512278,
-0.04170254,0.018239906,
-0.031790543,0.053378,
0.0,-0.018401131,
-0.06381128,-0.038154505,
0.08286844,-0.02485468,
0.053649418,-0.02617032,
0.06117085,-0.13023551,
-0.015074924,0.04810841,
0.027449615,0.07598076,
0.0,-0.016290775,
0.057229143,0.026045077,
0.06572209,-0.032356836,
0.0,0.0539502,
-0.066641726,0.038977075,
0.024427826,0.01043575,
0.011555754,0.018607356,
0.01925933,0.026316125,
-0.04511895,0.017044753,
-0.014776836,0.016150352,
-0.042031858,-0.052425146,
0.023613505,0.04438676,
-0.016850244,-0.053606983,
0.03904743,-0.022184648,
0.040175986,-0.010277026,
0.08963955,-0.06674219,
0.021918634,0.053461082,
-0.03983886,0.03405697,
0.020470673,0.0,
-0.070088305,0.0,
-0.036574535,0.046321105,
0.028867219,-0.071065836,
-0.0478607,0.038566373,
-0.0215521,-0.010792743,
0.01604839,0.051873893,
0.0,-0.034913547,
-0.021962566,0.0,
0.0,0.033937357,
0.01943605,0.04081924,
0.0134421615,0.093806095,
0.045187782,-0.022521079,
-0.07289142,-0.030523548,
0.019211948,-0.034682065,
0.0,-0.05765591,
-0.022097398,0.05863764,
-0.033061143,0.021590516,
-0.056659702,-0.03245067,
-0.048501197,-0.031749394,
0.04820512,-0.21800713,
0.024412042,-0.038595267,
0.020985352,-0.044830397,
0.06332717,0.021761307,
0.026480788,0.012388954,
-0.06155697,-0.033843342,
0.013424674,0.0,
0.0,-0.076264836,
-0.14877436,0.030711371,
0.0,0.024453292,
0.032360848,0.04034275,
-0.041110262,-0.019067196,
0.0,0.0,
0.10839455,-0.037392855,
-0.080486104,0.051211767,
0.015652757,0.025287533,
0.035374265,0.0,
0.0131608555,0.030841183,
-0.048234735,0.0,
0.0,-0.121015616,
-0.030239722,0.07208187,
-0.08577307,-0.03188791,
0.0,-0.077439636,
-0.01836194,-0.04296085,
-0.04511044,0.08129937,
0.0,-0.018703328,
0.026087293,0.019695142,
-0.036425464,-0.06350795,
0.036298774,-0.055465028,
0.05650487,0.10117886,
-0.018930811,0.036414675,
0.119434275,0.08134571,
0.08337131,-0.05630978,
-0.0733772,0.091220066,
-0.09671941,-0.082701854,
0.0806113,0.0,
0.0,-0.041410424,
0.041299097,-0.06604445,
-0.04129044,0.118058674,
0.03725142,0.011889268,
0.012437445,-0.04681948,
0.029849235,-0.06664053,
0.014456292,-0.04579399,
0.019964805,0.037611008,
0.020426305,0.031316422,
0.07546303,0.057349864,
0.0,-0.03392152,
0.034771983,-0.024835799,
0.0,0.019009203,
-0.01177898,-0.011970354,
0.034591284,0.019661903,
-0.043563552,0.0,
-0.016870486,0.016243832,
0.08123765,0.059866413,
-0.040372077,-0.03922755,
-0.08334633,-0.05062137,
-0.029050933,-0.061557837,
-0.032373216,-0.012388184,
-0.011724479,-0.018504998,
-0.06122391,-0.023539579,
0.0,-0.035255805,
0.068073094,-0.03842344,
-0.024250537,0.02887083,
0.07643672,0.0,
0.017249277,0.0,
0.042472135,-0.086326666,
0.059479866,0.0,
0.02378812,-0.042698577,
0.0,0.09160788,
-0.074139394,-0.033880636,
0.063759066,0.10512429,
-0.034784585,0.033827852,
0.045225706,-0.03327038,
0.106218375,-0.016033778,
0.029372208,0.11924661,
0.0,0.0,
0.028059218,0.010595127,
0.063620016,-0.06813365,
0.08139122,0.01868026,
0.0,-0.08185091,
-0.01928127,0.098885626,
0.052529845,0.0,
0.04141198,-0.061808344,
0.03748717,-0.06483964,
0.0,0.014770322,
-0.063313745,-0.073757924,
0.048294287,0.014443772,
0.058169566,0.046163004,
-0.07454161,0.018752823,
-0.036572732,0.0,
0.06525854,0.060101792,
-0.01956698,0.022592722,
-0.06140511,-0.059398722,
-0.018409722,0.0,
0.0,-0.021240696,
0.0,0.031145789,
-0.047748584,-0.05546176,
0.013439814,-0.021488836,
0.0,-0.044568546,
-0.028277727,0.036244333,
-0.053995717,-0.05882778,
0.014454766,0.0,
-0.011540336,0.0,
-0.057510205,0.028654534,
-0.050811637,0.025825277,
0.017707469,-0.027867012,
0.0,0.0,
-0.043496504,-0.02385218,
0.061913162,0.057882033,
0.10312862,-0.079394706,
-0.060481455,0.01972408,
0.10320541,0.0934706,
0.010921538,-0.036468077,
0.06556566,-0.036582757,
-0.06973959,0.04414945,
-0.12705313,-0.06335587,
-0.022896634,-0.068127826,
-0.04504111,0.08504696,
0.02252283,-0.012412914,
0.0,0.024185738,
0.0,-0.094944015,
-0.11839811,0.046654835,
-0.011041441,-0.011195481,
0.02445048,0.04070532,
0.03368491,-0.010661382,
0.0,0.015012223,
-0.029935585,0.11070614,
-0.05970328,0.09836918,
-0.010825339,-0.061526626,
0.010582491,0.06999227,
-0.08651396,0.031094965,
0.014215405,0.035501156,
-0.011270073,0.03918761,
0.0,-0.024523139,
0.0,0.0,
0.04862811,-0.02220252,
0.044454683,0.03619838,
-0.10884717,-0.06474302,
0.02993913,0.063864,
0.050845396,0.044111036,
-0.09284113,0.02202178,
0.037606046,0.12917204,
0.0,-0.047786623,
0.0,-0.17047109,
0.068139054,0.05453327,
-0.06055791,0.041405257,
0.018492507,0.025729097,
-0.055604365,-0.02767539,
0.01151822,0.026782582,
0.01687318,-0.052999917,
0.028815132,0.1066955,
0.032461595,-0.096580595,
-0.015152468,0.083086185,
0.01071445,0.050078753,
-0.013675234,-0.021813732,
-0.03631823,-0.028215133,
0.016421597,0.06792194,
0.0,0.047795538,
-0.07179665,0.021831898,
-0.057368893,-0.01503443,
-0.10958003,-0.054000057,
0.0,-0.01738285,
0.0,0.057103697,
-0.0798368,-0.028914467,
0.011321288,-0.028527457,
0.0,0.046582308,
-0.028310126,0.074478164,
-0.024009135,0.07257699,
-0.04151876,-0.051651217,
-0.06271384,0.03776549,
0.05544783,-0.05782609,
-0.0138698835,0.0,
0.041502353,0.0,
-0.011564078,0.018387185,
0.051355503,0.02664688,
0.0,0.0,
-0.016566006,-0.0896315,
0.018115785,-0.0906657,
0.019941306,0.0,
-0.06296195,0.08662916,
0.07336295,0.0,
0.0,0.018075895,
0.03738837,-0.015774788,
-0.068595655,0.0,
0.051462542,-0.020927655,
0.058953542,0.023433266,
-0.06461833,-0.029545419,
-0.07706301,0.011480915,
0.09178277,-0.09605013,
-0.08266639,-0.025830682,
0.03760005,0.024069572,
0.03595258,0.027314622,
0.03647432,0.04831865,
-0.092368454,0.0,
0.0,-0.04847927,
-0.021045377,0.0,
-0.03260347,-0.044999123,
0.023153914,0.06816567,
0.021226611,0.046341408,
0.106379665,-0.040949974,
0.09642508,0.045967888,
-0.036215328,0.021721052,
-0.03956965,0.034678414,
-0.039684765,-0.060426395,
0.036297742,-0.06772418,
0.11162648,0.011279028,
0.075452566,-0.087108925,
-0.026114414,0.010904796,
0.051579617,-0.11322448,
0.0,0.058896024,
0.0,0.021724945,
0.106935464,-0.020441275,
-0.07473757,0.0,
0.015322071,0.04869001,
-0.010668796,0.0,
-0.03443392,-0.011146155,
0.0,0.054519106,
-0.029785873,0.031639464,
-0.09448459,-0.02137049,
-0.058955565,-0.11922566,
0.10277698,0.044914115,
0.0,0.010785121,
-0.059754957,0.02579471,
0.0,-0.020689169,
-0.012363467,-0.039860774,
0.0,0.0,
0.0,0.015990544,
0.016729308,-0.010104909,
-0.033982024,0.0129773095,
-0.038238868,0.0,
-0.015744684,0.056817744,
0.058375783,0.02903862,
0.017578986,0.010211221,
0.023161182,0.021116076,
-0.039822917,-0.036985327,
-0.025971524,-0.034296438,
0.058795355,0.08746361,
0.017520715,0.088804714,
0.01647611,-0.048473563,
0.02434201,0.04728913,
-0.020523366,0.03072953,
-0.038182598,0.093768135,
-0.0974611,0.033378806,
-0.019621834,0.02782765,
-0.07647175,-0.028688107,
-0.11385523,0.02213269,
0.06548624,0.06478645,
-0.045977883,-0.04268794,
-0.084309906,0.033374116,
-0.032849897,-0.023258083,
0.13532417,0.013577468,
-0.043528598,0.0,
0.0,-0.053417865,
0.084605955,0.049048584,
-0.06148159,-0.029704101,
0.0,0.0,
0.0,0.06496035,
0.0,0.014922688,
0.024025979,-0.049650475,
-0.04378061,0.047134463,
-0.010639344,0.0,
0.040263757,-0.013726884,
0.051915437,0.04742533,
0.021084774,0.02336206,
0.038858857,0.04780777,
0.040284347,0.010849065,
0.06460252,-0.0921971,
0.017971009,-0.027997961,
-0.038254354,-0.06436054,
0.09730813,0.0,
0.0,0.02247727,
0.098433405,0.011582196,
0.016237084,0.06686098,
-0.020635532,-0.08324989,
-0.087805085,-0.063896194,
0.015097277,-0.01412724,
0.101076715,-0.025460731,
0.0,-0.014320206,
-0.017251804,-0.026747795,
-0.068383165,-0.015486064,
-0.065677494,0.0,
0.0,0.027920986,
0.03862253,0.0,
0.0,0.07201645,
0.0,-0.061178893,
0.0,0.026161162,
-0.027053662,0.0,
-0.014224913,0.097644486,
0.12665202,0.0,
-0.028684435,-0.014244177,
-0.017259296,0.0936992,
0.03274231,0.0,
0.016530966,-0.024940701,
0.0,0.04614997,
0.058755532,0.040789515,
-0.019546872,0.060963802,
0.0,0.0,
0.0,0.049593594,
0.0,-0.05975415,
0.045244113,-0.08674082,
0.024720203,-0.055541657,
-0.04569026,-0.09939681,
-0.062659815,0.0,
0.0,0.0,
0.0,0.0,
0.044065226,-0.033780936,
-0.012390457,-0.018977087,
-0.05201036,-0.05950462,
-0.05123543,0.0,
-0.053744346,0.027491223,
0.033662625,0.035922185,
0.024475712,0.08789597,
0.042825397,0.016223738,
-0.03740712,-0.017053846,
0.018887118,0.10360712,
0.020874728,-0.029436227,
-0.022731535,0.06496353,
-0.023658114,0.050086793,
0.016154714,0.0,
-0.030757932,-0.046897557,
0.0,-0.020790612,
0.057736963,0.09317181,
0.12226337,-0.027973497,
-0.043629162,0.0,
0.010701962,-0.045712683,
0.0,0.0,
0.023978665,0.024053242,
-0.11394915,0.027247261,
-0.15496853,-0.022505052,
0.0142201325,-0.027005676,
0.0,-0.047536206,
-0.056745853,0.070187174,
0.028498136,-0.031308886,
-0.056692295,-0.019404076,
0.044652134,0.02467514,
0.0,0.09830489,
0.0,0.053397965,
0.03711369,-0.023339756,
-0.04221193,0.07100825,
0.017492881,0.0324089,
-0.023624953,0.06350013,
0.0,0.10517807,
0.029261163,0.0,
0.0,0.051868215,
-0.017003665,0.0,
-0.045030765,0.08389403,
0.0,-0.042336103,
0.06439852,-0.012473586,
0.0,-0.08331975,
-0.03801462,0.084909715,
0.01671223,-0.07202237,
-0.011497909,-0.01584954,
0.0,-0.014083773,
0.02317618,-0.11224336,
-0.031486515,-0.015477556,
0.053682625,0.035532154,
-0.104000755,-0.046143297,
0.024986763,0.030993182,
0.07363649,-0.06530447,
-0.08095933,-0.025459804,
0.0,-0.11324453,
0.0675569,0.0,
-0.06817425,-0.069763005,
0.018786954,0.0,
0.0,0.05386449,
0.066661015,0.0,
0.0,0.08387428,
-0.037150793,-0.0130635565,
0.0,0.0,
-0.046973065,-0.020248136,
0.01579096,0.113323554,
-0.022597276,-0.031155825,
0.034524854,-0.038346447,
0.02320566,0.02505902,
0.023076717,0.06786509,
0.044278514,0.017277798,
0.0,0.1148211,
-0.011988185,0.07859197,
0.014157309,-0.049056295,
0.0,0.04650134,
0.0,0.056992833,
-0.046793554,0.03354099,
-0.020223023,-0.06760273,
-0.01899983,0.0531685,
0.0,0.024228718,
0.018335449,0.033577703,
-0.018046573,-0.029116917,
0.0,0.101834856,
0.02959635,0.04588906,
-0.050703745,0.05499921,
0.026498977,0.037838876,
0.074070305,0.041079566,
0.042644035,0.0,
-0.10814879,0.051239915,
0.048711758,-0.046183363,
0.0,0.06816066,
-0.043527666,-0.07076361,
0.0,0.056507528,
-0.0132451225,0.07366605,
0.0,0.031560168,
0.0,0.0,
0.0,-0.02135803,
-0.040292885,0.045469794,
0.010520011,-0.0490816,
0.037461594,-0.01620868,
-0.06066385,-0.08229855,
0.0,0.0,
-0.04700205,-0.026368925,
-0.065490544,0.029278163,
0.03607713,0.0,
0.0,-0.020034464,
0.012597875,0.055827867,
-0.10242683,0.0,
0.027235763,-0.043608285,
0.03310337,-0.07289984,
0.06960063,0.017108986,
-0.111339904,0.0,
0.0,0.0,
-0.02959354,-0.057821974,
0.050018698,0.0,
-0.028779766,-0.04482022,
-0.0826626,0.012254922,
-0.07387286,-0.016276516,
0.010130598,0.0,
0.11306998,-0.03891589,
0.0,0.0,
-0.09722754,0.0,
0.0,-0.06048113,
-0.016583696,0.07441408,
0.02731535,-0.04875436,
0.06799769,-0.05501709,
-0.02100518,-0.06360839,
-0.085138455,0.02190681,
0.027092705,0.033114064,
-0.017181607,0.07830896,
-0.0126722045,0.053585526,
0.0,-0.03609353,
0.044803273,0.0,
0.043915387,-0.017849777,
-0.012412528,0.020996353,
-0.046629623,-0.042158667,
0.063226074,0.030337963,
0.049023222,0.055235732,
-0.11748709,0.05987413,
0.0,0.0,
0.07216436,-0.046091083,
0.079339676,0.015798757,
-0.023857055,-0.04284756,
-0.044728734,0.022891514,
-0.046974692,0.050511632,
0.0,0.0,
-0.040852133,0.029953184,
-0.046518818,0.01147266,
0.028086131,0.053172283,
-0.07054409,-0.028641354,
-0.013157003,-0.08256358,
-0.013397788,0.02152955,
0.0,0.03504386,
0.058015898,0.03878393,
-0.010863306,0.06525894,
-0.0687617,-0.06273931,
-0.08098651,0.10584651,
-0.033136442,-0.05705111,
-0.021397175,-0.056522258,
0.07272465,0.06033431,
0.041803572,0.04902379,
-0.01773074,-0.025238952,
0.06487573,0.111330435,
0.0,-0.05430158,
0.021816932,-0.07005313,
0.03480329,0.09308027,
0.0,0.017247371,
0.0,0.0,
-0.027313976,0.04175994,
-0.038915217,-0.034381885,
0.0,0.0126095535,
0.0,0.04819012,
0.057592716,-0.024935724,
0.02751848,-0.010291341,
0.012164613,0.059491046,
0.018060897,-0.030036101,
0.06158379,-0.039786186,
-0.020246545,-0.07248556,
0.15237063,0.02186847,
-0.015523615,-0.031912353,
-0.025818346,-0.043623455,
0.019866064,0.013496447,
0.015445447,0.023784507,
0.020282034,0.0,
0.06632598,0.0,
0.015890788,-0.054828044,
0.08271366,-0.039792355,
0.03355632,0.09118321,
-0.10114555,0.0,
0.05731312,-0.080719806,
-0.038861204,0.038394403,
0.03616712,-0.01948235,
0.038446106,-0.06910855,
0.026893102,-0.025213892,
0.0,0.04797978,
-0.034219597,0.0,
0.052216407,0.03760791,
-0.031758845,-0.056443777,
-0.027029788,0.0,
-0.042808708,-0.03714213,
0.0,-0.12967093,
0.039744467,-0.06632769,
-0.02144549,0.034571446,
-0.07707816,0.0,
-0.059016824,0.06660876,
0.1124149,-0.06892807,
0.021168973,-0.026362278,
-0.041303653,-0.07074113,
-0.04575953,-0.02388847,
-0.016395217,-0.07916075,
0.03929828,-0.01713334,
-0.05281771,-0.045529585,
0.031136883,0.014089358,
0.0,-0.020338703,
0.0,0.0,
0.028570587,-0.022564244,
0.036234867,0.026367886,
0.041579265,-0.034938343,
-0.01980888,0.02376039,
0.08086623,0.0,
0.017708639,-0.024976064,
-0.0117063625,0.07617838,
-0.10697714,-0.040258624,
-0.02415118,0.024301136,
0.027230453,0.032152116,
-0.010885523,0.02671357,
0.018333703,-0.046156,
0.0,0.033753205,
-0.057201304,-0.06740047,
0.049969003,0.05437255,
-0.015568232,0.0,
0.0,0.0,
-0.02885931,0.0,
-0.086549364,-0.017921971,
0.06977257,0.0,
-0.114646904,0.014032664,
0.08812907,0.016656797,
0.07207561,-0.023211433,
0.07553886,0.06367359,
-0.044136938,0.0,
0.062499885,0.04845286,
-0.037166834,0.0,
-0.015285243,0.017510973,
0.0,0.021977028,
0.05375633,-0.10072961,
-0.042285718,0.056455255,
0.0,0.06615255,
0.0,-0.026827333,
-0.051562827,0.0,
0.0,0.030865716,
0.049577292,-0.022147898,
-0.02291871,0.024774456,
-0.022966733,0.08809198,
0.057042666,-0.039856616,
0.03099614,-0.013236897,
-0.054018844,0.0,
-0.10329165,-0.012734983,
0.0,0.01641434,
0.03893772,0.09988878,
-0.04338934,0.0,
-0.06166375,-0.0338966,
-0.02994175,-0.052636515,
-0.03028539,0.029352572,
-0.040043842,-0.059926577,
-0.053199705,-0.020877605,
0.044955134,0.1312622,
0.058481775,0.05415918,
0.0,0.06254112,
0.033662602,0.0784291,
-0.053573452,0.031958267,
0.0,-0.01565114,
0.0,0.051725615,
0.031600755,0.023600763,
0.17937149,0.0,
-0.031198477,-0.103181936,
0.0,0.0,
0.0,0.086464144,
0.0,0.0,
-0.052346215,-0.026164802,
0.010432692,0.017163927,
0.022878787,0.0,
-0.01297628,0.06604207,
0.0,-0.044147577,
0.0,-0.034752935,
0.035922732,-0.043801364,
-0.057667024,-0.033587474,
-0.08124641,-0.01398236,
0.024456076,-0.032977927,
0.022091853,0.033225283,
-0.021097533,-0.027217545,
-0.032412447,0.030115431,
-0.018389627,-0.029243717,
0.07829776,0.060044397,
0.0,0.012177642,
0.08407429,-0.024384305,
0.05990298,0.028047696,
0.0,0.02343838,
0.024351075,-0.022767877,
-0.18972225,0.0,
0.0,0.0,
-0.09610889,-0.013641553,
-0.03279128,0.06255136,
0.082875594,0.0,
-0.039426,0.06310249,
-0.042562578,0.08884798,
0.0,0.043258287,
-0.050361395,0.0,
-0.036418498,-0.053612374,
-0.06336967,-0.01878659,
-0.039072126,0.052630186,
-0.07221491,-0.0767956,
-0.033402152,-0.05394155,
0.051753793,0.0,
0.13039647,-0.09275517,
0.05460994,-0.09332349,
0.091206074,0.018365318,
0.031096274,0.02976666,
-0.029958608,0.0,
0.086122595,-0.05653193,
0.05300288,0.057012364,
-0.04020709,0.021128973,
0.028798878,0.067929044,
0.0,-0.038861215,
0.06439733,0.01993238,
0.012977046,0.0,
0.07250837,0.024373388,
0.015260084,0.048712354,
0.08706009,0.09708005,
-0.026329266,0.029777696,
0.02146709,0.0,
-0.072822526,0.0,
0.02491064,0.0,
0.046679657,-0.043918453,
0.0,-0.08809139,
-0.020688627,-0.059577655,
-0.054831564,-0.06937662,
0.04404655,-0.07555873,
-0.06969387,0.058043823,
0.014517832,0.0,
0.08266248,0.048409022,
-0.11105985,0.0,
0.0,0.030712454,
0.1171645,0.0,
0.049327515,-0.0767327,
0.0,-0.08174008,
-0.088752694,0.011315892,
0.011342728,0.0,
-0.042352706,0.028793633,
0.047016047,-0.013063259,
0.014650311,0.0,
-0.039420635,0.0,
0.0,-0.01760433,
-0.06364425,0.0,
0.047710367,0.022652963,
0.036888383,0.030214673,
0.0,-0.0873869,
0.014830124,-0.0902329,
0.013930005,-0.09766945,
0.117953636,-0.038440857,
0.033674885,0.056783855,
-0.06376115,0.07978589,
-0.027511153,0.0,
0.0,-0.0583648,
0.09120861,-0.013432634,
0.065002605,0.0,
0.04407544,-0.014749531,
-0.0943894,0.09033951,
0.012014226,-0.027067736,
0.071735725,-0.034496155,
-0.11978173,-0.12110375,
-0.10665164,-0.016060384,
0.037160777,-0.029582543,
0.020288594,-0.04542555,
0.014949838,0.1502136,
0.06846101,-0.05314434,
-0.01142879,0.0,
-0.16028653,0.023221163,
0.07535019,0.0,
0.042067654,0.0,
0.0,-0.07270686,
0.016235625,-0.022063965,
0.0,0.019927017,
-0.11084137,0.061046045,
0.0,-0.015683921,
0.04984024,0.0,
-0.073353164,-0.0151037285,
-0.08240716,0.039973192,
0.05221724,-0.010490106,
0.051490717,0.053078458,
-0.09559294,0.07558354,
-0.061219223,0.0,
0.0,0.010341368,
-0.012430549,0.0,
0.0,0.042620778,
0.0,0.0,
-0.012009533,0.030373204,
0.0,0.027236488,
-0.044892445,0.0,
0.08116795,0.022748616,
0.14683655,-0.027174316,
0.034064963,-0.06710984,
0.029919678,-0.034231078,
-0.04308081,0.03431818,
0.13664906,0.0,
0.010884917,0.0,
0.0,0.014316617,
-0.016773405,0.02708869,
-0.031753816,-0.020682663,
0.060109243,0.02195676,
-0.013806614,-0.0100483475,
-0.014495012,-0.010309822,
0.03265157,-0.036642767,
-0.06404226,-0.050207056,
0.04727158,0.014225502,
0.075285025,0.07464639,
0.0,0.055917624,
-0.08178078,0.0,
0.0,0.041321456,
-0.025131918,-0.02779697,
-0.014686089,0.047482796,
0.060639836,-0.014378699,
0.06682008,0.042949643,
0.06304078,0.0,
0.1005155,-0.10875062,
-0.02581012,0.038730063,
-0.040958043,-0.035210006,
0.032415766,0.018673087,
0.062224373,0.043688565,
-0.014737581,0.06340048,
0.04044755,0.044058077,
0.0,0.0,
0.010706676,-0.012577629,
-0.053467114,0.015557166,
-0.035503644,0.079638,
-0.013845961,0.0,
-0.01917791,-0.09735202,
0.03916254,0.057645798,
-0.01484296,-0.03711742,
-0.023203773,0.0508468,
-0.03231628,-0.04430542,
0.08200573,-0.030088905,
0.064882554,0.0,
0.04762752,-0.013990101,
-0.035092097,0.0,
0.014673441,0.0,
-0.022891982,0.0,
0.04971865,0.04637252,
-0.0145359915,-0.020654077,
0.04016983,0.057104886,
0.08655277,0.0,
0.0,0.021714728,
0.0,0.03455433,
-0.049754035,0.0,
0.021674436,-0.03487499,
0.05068559,-0.06611339,
-0.020520408,0.0,
0.042133965,-0.0134783,
-0.025857894,0.0,
-0.018150061,-0.048600353,
-0.050995115,-0.045697037,
0.08756649,-0.06932665,
0.016107094,-0.07519965,
-0.036019225,0.0,
-0.090264395,-0.054442756,
0.0653708,0.0,
0.013534952,-0.020454489,
0.0,0.05488404,
0.020307424,-0.050430324,
0.036766227,-0.04561409,
-0.09429462,-0.10690464,
0.054584417,-0.020622607,
-0.06712596,-0.13845392,
-0.02497328,0.0,
0.0,-0.023636296,
0.08699718,0.013072718,
0.0,0.0,
0.022399506,-0.0448813,
-0.04342339,-0.028191576,
0.025954563,0.034287307,
-0.057741415,0.043510772,
0.042557817,0.13139553,
0.065992706,-0.025449287,
0.057259988,-0.054241844,
0.0,0.015674619,
-0.13061841,-0.03673451,
0.0,-0.110357024,
0.029286472,0.0,
0.0,-0.020796916,
0.0,0.03215474,
-0.11244739,-0.052676216,
-0.026675144,0.016047923,
0.0,0.0,
0.07064604,-0.045012604,
0.0,0.04426992,
0.05588122,0.0,
0.0,0.0749939,
0.0,0.046921805,
0.0,0.0,
-0.030142792,-0.0233704,
0.0,0.083512,
-0.04730824,-0.12317567,
0.057122666,0.050181765,
-0.024470745,0.0,
-0.115553215,0.027049094,
0.0,0.0486015,
0.0,0.032279234,
-0.010363674,0.09671137,
-0.030235982,0.044526454,
0.0,0.0,
0.03983347,0.026040545,
-0.061216455,0.03913918,
-0.029806552,0.020865211,
0.011891476,-0.046063136,
-0.03913555,0.0,
-0.04469055,0.03680887,
0.0,-0.07972415,
-0.032452155,0.05278987,
-0.02266544,0.023142114,
0.0384492,0.012478483,
-0.051929697,-0.043780707,
0.013948075,0.0,
0.0,0.024397766,
0.02245067,-0.025904877,
0.0,0.0,
0.05563346,0.028824747,
0.01297241,0.0,
-0.010975112,0.0,
-0.01817534,-0.08655344,
0.0,0.051755436,
0.026746951,0.014650359,
0.01847715,-0.08293932,
-0.07317965,0.013858145,
0.0,-0.060419895,
-0.03922346,0.043197516,
-0.0832949,-0.021960365,
0.02734791,-0.030238451,
0.019845504,0.0,
0.0,0.08370346,
0.0,-0.03440731,
-0.06568699,0.024496725,
-0.033073127,-0.048805237,
0.033503655,0.03588587,
-0.024440972,0.017391514,
-0.024032671,-0.10418167,
0.034735855,0.0,
0.021578498,0.0,
0.060317345,0.047203053,
0.079886794,0.0435332,
-0.048263837,0.013991767,
0.0,0.0,
0.047021065,-0.014524549,
0.0,0.0,
0.012344525,-0.052277576,
-0.04833454,0.0,
0.064801134,-0.065894686,
0.0,0.0,
0.0,-0.03091866,
-0.05345058,0.02186461,
0.0,-0.03058387,
0.08864152,0.0,
0.0,-0.12975702,
-0.06995759,-0.0436803,
0.08070927,-0.0849362,
-0.010186864,0.05356254,
-0.044725712,0.07645572,
0.0,0.010235735,
-0.011972731,0.040050447,
0.04645274,0.061114766,
0.0,0.0,
0.06201857,-0.02416363,
-0.046629738,0.033171356,
-0.068757474,0.038023315,
0.014689866,0.0,
0.0,-0.047791407,
0.0,-0.027958822,
0.03434198,0.018254744,
-0.028829258,-0.016526477,
0.05487125,-0.028372405,
-0.04743702,0.0,
0.041643444,0.044984307,
-0.022472937,-0.024890965,
-0.1015239,-0.07357566,
-0.04482927,-0.096310884,
-0.08752184,0.06577566,
-0.037515257,-0.017785352,
-0.053760264,0.07512111,
-0.11101863,-0.073099546,
-0.013191642,-0.04264944,
-0.015972314,-0.034054786,
0.06837576,-0.124848515,
-0.06280707,0.0,
0.018124359,0.0,
0.07997493,0.010152271,
0.058895152,-0.03382389,
0.0,0.05701676,
0.011098848,-0.059011295,
-0.055112075,-0.04335006,
0.0,0.054291125,
-0.06170684,0.0,
-0.0699079,0.036978915,
-0.0126728695,-0.018707719,
-0.10390449,0.05240132,
0.05387825,-0.042151213,
-0.07316381,0.0,
0.0,-0.05938344,
0.08624453,0.014590504,
-0.031960953,-0.07757924,
-0.0135564795,-0.09292695,
-0.05890841,0.031813633,
0.028292203,-0.041050438,
0.0,0.029480599,
0.07544422,0.03745927,
-0.03425328,0.05548371,
-0.10786618,0.02272038,
-0.0947938,0.04299903,
0.0,0.0,
0.045844,0.0,
-0.04713515,0.031742264,
-0.010674926,0.09736453,
0.011624005,-0.019696152,
0.01228555,0.026453827,
-0.090746164,-0.023304693,
-0.035745483,-0.020769736,
-0.03537153,0.0,
0.0,-0.054002553,
0.06527394,-0.030194262,
-0.011457054,0.015743477,
0.06991577,-0.04625441,
0.014377947,-0.08601535,
0.057036586,-0.0470211,
0.054040607,-0.11377136,
0.07148916,-0.070814274,
-0.036401782,0.03564227,
0.0,-0.051383827,
0.06915404,-0.054052237,
-0.012169384,0.031056179,
-0.052052755,-0.14189236,
-0.027078282,-0.097753055,
0.05812074,0.0104044555,
-0.06496769,-0.033968512,
-0.045618236,0.01828741,
0.036835838,0.043316074,
0.026326638,0.039270658,
-0.036111146,0.031503282,
0.047400624,0.031445384,
0.020708287,-0.020454776,
-0.06336641,-0.014909311,
0.043615386,-0.037272803,
0.08589734,0.036575824,
-0.017806342,0.022775806,
0.030219762,0.0,
0.07268276,0.0342225,
-0.02347344,0.038329747,
-0.03450206,0.08773553,
0.019141138,0.01566709,
0.021700531,0.0,
-0.05820235,-0.037500758,
-0.072894946,0.02406026,
0.037310053,-0.014834161,
0.0,0.0,
0.08530826,-0.015766256,
0.0,0.05013682,
0.12780839,0.025146095,
0.09306846,-0.05121139,
0.0,0.03363042,
-0.15028097,-0.070425086,
0.010018395,0.023455214,
-0.0920967,-0.012137312,
0.019979818,-0.043534,
-0.056497656,-0.011441375,
-0.03244157,-0.036542814,
0.0,-0.038220022,
0.054613683,0.04833219,
0.039380886,-0.049474306,
0.108057894,0.035679284,
-0.08422355,-0.052747954,
0.0486917,0.064808905,
0.056008574,-0.05077401,
0.069353215,0.024446363,
-0.034004733,-0.021501059,
0.021976115,0.0553233,
-0.021741591,-0.011841987,
-0.0699593,0.05099319,
-0.016792575,0.03814992,
0.015696127,0.034668088,
0.0,0.0,
-0.01087855,0.0,
0.0,-0.018521933,
-0.041676216,-0.09329276,
0.01499934,-0.03032736,
-0.026864693,-0.04010794,
-0.0658583,-0.13778715,
-0.045183096,0.03602939,
-0.03873007,0.027862577,
0.04962367,-0.04800204,
-0.011189894,0.058468733,
-0.060111362,-0.02529506,
0.09977167,-0.043967187,
0.0,0.0,
0.044185966,0.024119223,
-0.03326583,0.09877951,
0.023624215,0.065068886,
0.061181653,-0.030166926,
-0.011215514,-0.038359508,
0.12216531,-0.06281659,
-0.027847132,0.032186314,
0.036684085,0.0,
0.040188465,-0.04172231,
0.0,-0.031938877,
0.0,0.0,
0.047413353,-0.06140141,
0.10155945,-0.030051593,
0.0,0.04940073,
-0.03445965,-0.04841667,
-0.029844452,0.0,
-0.024109786,-0.02905873,
-0.051628042,0.09572337,
0.033879116,-0.050047804,
-0.012405727,0.023447737,
0.0,0.0,
0.030271066,-0.0617654,
-0.045030225,0.032335307,
0.0,0.01852598,
0.06309909,0.012469497,
-0.01561017,0.08563651,
0.065524295,-0.048260752,
0.039515674,-0.03124431,
-0.10190895,0.096563466,
-0.051370516,0.0,
-0.13226962,-0.01858546,
-0.024837969,0.036047038,
0.16243729,-0.017189065,
0.11066637,0.011797294,
0.108008765,0.04044845,
0.04697207,-0.06994936,
-0.045676194,-0.012108854,
0.0,0.034242116,
0.06290962,-0.043478325,
0.0,0.089289434,
0.03720987,-0.054230265,
0.016718155,0.0,
0.032258086,-0.021188064,
0.0287882,0.030453708,
-0.06036432,-0.012806155,
0.0,-0.023095215,
0.040419664,0.060233075,
0.0,0.026113495,
-0.057899993,-0.02545998,
0.0,0.07542698,
-0.026528139,0.04086866,
0.059250433,0.040602777,
0.07707917,-0.04660795,
-0.01900343,0.063138716,
0.0,0.014502279,
0.018899703,0.0,
-0.07984675,-0.031206392,
0.036610063,0.02728647,
0.019019704,0.0,
0.06620366,0.05146163,
0.021159556,0.03686747,
0.0,0.131521,
0.018159766,0.0,
0.0,0.0,
-0.06572958,-0.043134067,
0.047146868,0.023026036,
-0.06504309,0.026255528,
-0.017664425,0.042676546,
-0.046307664,-0.09521826,
0.0149931535,0.0,
0.0,-0.018859614,
-0.01246651,0.0,
-0.102014236,0.0,
-0.022499057,0.09834102,
0.0,-0.046799846,
-0.027412154,0.03897206,
0.0,0.0,
-0.021618938,-0.049533587,
-0.030915072,-0.02922614,
-0.06091917,0.055915873,
0.043813247,-0.09320477,
0.0,-0.02776684,
-0.010054819,0.06628933,
-0.061193567,0.079929814,
-0.058661822,-0.031560414,
-0.012262509,-0.010301244,
-0.025263855,-0.08017341,
-0.033530377,0.019438319,
0.047143485,-0.015530326,
0.033619314,-0.043585725,
0.020147061,0.059580773,
0.0,0.030575007,
-0.04225193,-0.051718414,
-0.017407509,-0.019781444,
0.013101096,0.022560699,
0.04861937,-0.036847502,
0.0,-0.022946522,
0.07108532,-0.05377588,
0.0,0.042222153,
0.0,-0.058313496,
-0.010135325,0.010142095,
0.05365199,-0.11167984,
0.05243137,-0.027913874,
0.06307372,0.03462781,
0.054702234,0.06678477,
-0.021950258,0.023689814,
0.04002533,0.03306903,
-0.036371723,0.0,
-0.027352627,0.050995436,
0.014363001,-0.02199505,
0.08949441,0.0,
-0.020552404,-0.023900557,
0.07647121,0.050512627,
0.0,-0.033967063,
-0.07969389,0.0,
0.035337586,-0.0140753705,
0.0,0.0,
0.0,0.03126454,
0.019847004,0.0,
0.039420184,0.0794841,
0.028128367,0.0,
-0.045856874,0.030543199,
-0.12995443,0.04464589,
0.060093906,0.065176666,
-0.061203904,0.081356764,
-0.027467526,-0.043201465,
0.082307056,0.07745223,
0.043941632,0.03805657,
0.021320444,0.0,
0.067879446,0.055779334,
0.0,0.015008189,
0.089840755,0.07978307,
-0.019362006,0.06139657,
-0.04429922,-0.046468843,
-0.048909396,0.018237432,
0.07726652,0.04596428,
0.12128992,0.0,
-0.057959367,-0.025818659,
0.0417591,0.031471673,
0.0,0.0,
-0.043904364,-0.057546068,
0.031406295,-0.015108812,
0.05610703,0.077942125,
-0.072743535,0.021250967,
-0.011684852,0.0,
-0.027624592,-0.02705987,
-0.025851063,0.024753809,
0.07336012,0.049700536,
0.0,-0.05782094,
-0.046897028,0.060634192,
0.047736112,0.029912025,
0.0,-0.099529944,
-0.062500715,-0.016467921,
0.025852453,-0.02426125,
0.17403221,0.0,
0.030002736,0.11142812,
0.0,0.0,
-0.058194116,0.0,
-0.012336755,0.09090188,
-0.03720957,-0.022490824,
-0.016256174,-0.054151647,
0.038570948,0.040669322,
0.034197222,-0.016023211,
0.0,0.0,
-0.042185128,0.01389885,
0.0,0.048724566,
0.07244026,0.028511724,
-0.056554697,0.050014757,
0.0,0.0,
-0.0289581,0.0,
0.0,-0.039488267,
-0.08406848,0.07299416,
0.04984473,0.0400698,
0.0,-0.073928595,
-0.15421768,-0.016760215,
-0.033392653,-0.0333263,
0.0,0.038460724,
0.0,0.022675524,
-0.07470936,0.013162652,
0.0,0.0,
-0.029086411,-0.098089136,
0.01564466,0.0,
-0.03455224,0.058227707,
0.014105953,0.0,
0.0,-0.028735133,
0.12311869,0.0,
-0.02776478,0.018586012,
0.0,0.03157594,
-0.03852155,0.0,
-0.056721237,-0.05584249,
0.08289334,0.0,
0.0,0.0,
0.060909376,0.02489943,
0.0,0.028093725,
0.11766514,-0.060617235,
-0.023790974,0.016061768,
-0.09595008,-0.012460152,
0.08318297,0.06303697,
0.044455044,-0.028836722,
-0.078183964,0.08141508,
-0.01987932,0.06768722,
-0.06291615,0.061911676,
0.095695145,0.097326085,
0.04880025,0.0,
-0.0125084,-0.051984787,
-0.03378359,0.011073079,
-0.013149169,-0.06400163,
-0.07864053,-0.036852095,
0.01438879,0.034551132,
-0.018422619,0.019737126,
-0.09077826,-0.02290172,
0.045999233,-0.025263688,
0.03085191,0.0,
-0.033077665,0.019914387,
0.04820515,0.06337811,
0.010529729,0.0,
0.0355752,-0.045686956,
-0.030781582,-0.08187765,
0.025790323,-0.05232606,
-0.028619098,-0.106437616,
0.0108805485,-0.075765885,
0.026669301,-0.023513593,
-0.044139255,0.090282135,
-0.049330406,0.05684138,
-0.055182192,0.013339535,
0.08703862,0.04199357,
0.045092136,0.0,
-0.04589463,0.046060067,
0.0,0.016192554,
0.02537962,0.0,
-0.058660384,-0.07893406,
-0.049731668,0.022686832,
0.053132217,-0.023471916,
-0.019275669,0.046353284,
0.030602934,-0.04651544,
0.0,-0.023183478,
-0.048006266,0.028371574,
0.026015483,0.01880741,
-0.017356018,-0.11849211,
-0.05644638,0.066905126,
0.04432661,0.06933228,
-0.046928123,0.019859465,
0.0,-0.09688357,
-0.041858,0.025912864,
-0.027087964,-0.028023548,
0.03065923,-0.030631777,
-0.036301233,-0.022699103,
0.042200524,-0.06193676,
-0.030376831,0.14248537,
0.019139137,0.07426037,
-0.056464463,-0.028637726,
0.045539185,0.12249263,
-0.05523398,0.11666699,
0.035371497,0.0,
-0.069900766,-0.05371604,
0.087983534,-0.062066287,
0.0,0.038242966,
0.045023166,-0.08600617,
0.0,0.03311025,
0.0,0.049285606,
0.09149571,-0.026414901,
0.019433893,-0.022069458,
-0.019531433,0.019469507,
-0.06954196,0.0,
-0.12298428,0.029758306,
0.054232504,0.055678852,
0.03138031,-0.05159112,
0.13182709,-0.08892293,
0.03873831,0.10256698,
0.039462592,0.012832632,
0.0,0.03797733,
0.029311186,0.017476106,
0.017734738,0.040634982,
0.09804332,0.039565805,
0.02388232,-0.020556392,
0.045802508,-0.05394098,
-0.028404515,0.040983178,
-0.011512371,-0.041999158,
0.0,-0.073111214,
-0.042281754,0.05540574,
0.059062626,-0.03983632,
0.0,0.081926204,
0.01590394,0.012090726,
-0.04196979,0.056388978,
-0.01794226,0.0,
0.041852094,0.052845664,
-0.012641673,-0.031276595,
0.0,0.0,
-0.015180169,-0.035395194,
0.03880253,0.0,
0.018431397,-0.05202676,
-0.07794391,0.0,
-0.02683821,0.059339207,
0.09183256,-0.06819048,
0.021352997,-0.016331054,
0.04217311,-0.08022428,
-0.028649136,0.037946176,
-0.024552763,0.0,
-0.036418404,0.13415344,
-0.01996623,0.04552821,
-0.0114116995,-0.063732825,
0.038945418,0.045464158,
0.06615654,0.015388138,
0.045560393,0.0,
-0.0152832065,0.024830494,
-0.018559415,0.0,
0.03913267,0.041311543,
0.09401941,-0.04318558,
-0.04902282,0.034967,
-0.027673109,-0.05406223,
0.023322457,-0.07687377,
-0.05215798,0.055514432,
-0.024992527,0.011346032,
0.045800336,0.02644051,
-0.012941074,0.05608355,
0.064076535,-0.01976035,
0.09884645,-0.04585389,
-0.07607261,0.046010703,
-0.024844421,-0.015640723,
0.03627619,-0.11670265,
0.05886678,0.07690436,
0.079809785,-0.014052968,
0.09274173,-0.048407316,
0.04873235,-0.09130717,
0.050209567,-0.0143540315,
-0.052706443,0.06624433,
-0.052860726,0.010418938,
0.0,-0.02786096,
-0.0345441,-0.0468911,
0.016252954,-0.08132246,
-0.051295575,-0.041332133,
0.02930858,-0.07671087,
0.0,0.0,
0.12103389,0.0,
0.015006383,-0.048963316,
-0.0102010425,-0.01511859,
0.03017742,-0.020617811,
0.022207282,0.07379443,
0.049301717,0.04826355,
-0.040771727,0.03025784,
0.0,0.11550256,
-0.023961125,0.0,
0.06804857,0.011162461,
0.022152929,0.04087834,
-0.05532125,-0.032822665,
-0.01569541,-0.05082658,
-0.045232095,0.052182417,
-0.05980465,-0.0511378,
0.02582025,-0.05143422,
-0.06171428,-0.0660775,
0.04840225,0.054577995,
0.0,0.055402875,
-0.051489267,-0.01269965,
-0.035097104,0.023485791,
0.0,-0.11290356,
0.03512744,-0.029739762,
0.032720897,-0.04150929,
0.041110743,-0.045328565,
0.0,-0.0780593,
0.08815007,-0.021458572,
0.020759264,0.03713363,
0.062009998,-0.081125125,
0.04616724,-0.052563533,
-0.074224696,0.016686568,
-0.04521191,-0.04354518,
0.06064894,0.022816505,
0.11201436,0.047470678,
-0.011479843,-0.018336622,
0.013902419,0.030136261,
0.051215608,0.07222505,
0.106639884,-0.095134065,
-0.05719902,0.07895032,
0.15934685,-0.059225984,
0.076444626,0.042662125,
0.084903255,-0.024480313,
0.07054335,0.03549883,
0.08484571,0.0,
0.0,0.044620547,
-0.011494827,-0.04922533,
0.05768548,0.018496396,
0.0185951,0.10917032,
-0.09110808,0.022714093,
0.0,-0.017965438,
-0.020855917,0.03033691,
0.0,-0.014615975,
0.045362398,-0.034213718,
0.022828776,0.025736516,
0.05595956,0.03754977,
0.025883647,-0.039201103,
0.0,0.06329488,
0.063971475,0.11328582,
-0.049654868,-0.04716838,
0.016490737,-0.052522223,
-0.044207428,0.034714025,
0.0,-0.054226875,
-0.045863967,-0.13604105,
0.0,-0.039913833,
0.05566563,0.07173385,
0.0,0.0,
0.0,-0.018264562,
0.035512384,0.0,
0.0,-0.045791928,
-0.027134374,0.08956012,
0.0,0.013666725,
0.10546282,0.0,
-0.03470458,-0.027389437,
0.014710648,0.012288613,
-0.06555453,0.03461912,
-0.04818856,-0.021248657,
0.032562323,-0.020796401,
0.06467213,0.04596178,
-0.020556161,0.025497843,
0.039951965,0.066254444,
0.021291617,-0.07603627,
0.04976715,-0.028455975,
-0.021053089,0.098323405,
-0.032606907,0.03085517,
-0.046040736,-0.052481767,
0.088685475,0.055842444,
0.04246055,-0.06818373,
-0.120202914,0.08258649,
0.012344993,0.065209165,
-0.08733591,0.0,
-0.0371168,0.06515146,
-0.0335054,-0.013361397,
0.0545225,-0.016650563,
0.036348082,0.0,
0.014400192,0.069192104,
0.053579018,0.03924266,
-0.015387021,0.0,
-0.10890636,-0.04415818,
-0.010094517,-0.053885825,
0.042526342,0.018551566,
-0.027975062,-0.013551114,
-0.053344116,0.0328811,
0.0,0.017741667,
-0.040949266,-0.033704408,
-0.017507859,0.0,
0.049674343,0.03774412,
-0.031686537,0.018271316,
-0.019740503,0.10688297,
0.022796048,-0.022047143,
-0.060362164,-0.01037423,
-0.028112097,-0.049334846,
0.014257011,-0.017911797,
-0.12662558,0.04265006,
-0.011248804,-0.043504175,
-0.0862303,0.0,
0.054551825,0.055426605,
0.012939567,-0.0190559,
0.102294244,-0.030008504,
0.058837358,-0.03772289,
-0.030128585,0.02390269,
0.027321955,-0.096523024,
0.05754176,-0.05702099,
0.0,0.046603892,
0.10289051,0.017883992,
-0.0433219,-0.053727705,
-0.06347728,-0.06185659,
0.0,0.06607615,
-0.03156552,0.0,
0.07291985,-0.06603879,
-0.061490163,0.0,
-0.029805634,0.04750112,
0.017538393,0.073215514,
0.01720288,0.01939994,
0.0,0.037210975,
-0.012781383,0.098777376,
-0.036833096,0.06526257,
-0.013658549,0.028391017,
-0.11207234,-0.037543897,
-0.05609176,0.0,
0.0,0.05713684,
-0.025778772,-0.04417814,
0.0,-0.018873448,
-0.061999384,-0.02634476,
0.047913417,0.01328678,
-0.051595856,0.026800858,
0.0,-0.06716547,
0.0,0.050802067,
0.02472093,-0.012896887,
0.024950787,0.02266361,
-0.05691404,0.05632066,
-0.047240276,-0.01470581,
-0.07600581,-0.06543565,
-0.02495284,-0.059046056,
0.046741527,-0.053229947,
0.09972384,0.0,
-0.04356423,-0.016635599,
-0.021275898,-0.050775792,
-0.045302186,0.0,
-0.03091283,0.03636778,
0.077813245,0.011565589,
0.0,-0.054719187,
-0.0268109,0.038415816,
0.035665825,0.046616584,
-0.04222589,0.0,
0.06630492,0.104036026,
-0.017473564,0.03958488,
0.0,0.044259544,
0.021103866,-0.025085978,
0.0,0.048827007,
-0.078940295,-0.02580195,
-0.07304224,-0.0461756,
0.038992673,0.10592376,
0.034756508,-0.034755725,
0.0,-0.046495125,
-0.012769508,0.057371866,
-0.010978797,0.015909877,
-0.036809623,-0.022861782,
-0.039933138,-0.014237907,
-0.04758905,-0.011759935,
0.068911105,-0.08944188,
-0.013820022,-0.09538715,
-0.011604426,-0.028056644,
-0.07876791,-0.022711258,
-0.014491698,-0.06259282,
-0.018012114,0.016171044,
0.046218008,-0.03355465,
-0.04546778,0.07948794,
-0.052990302,-0.013176876,
0.047235627,-0.03465167,
0.018484684,0.013250269,
-0.041536737,-0.05718103,
-0.07658418,0.023584435,
0.030574696,-0.045873173,
-0.03251069,0.022453273,
0.012365684,0.0,
0.057046972,-0.011062408,
-0.020947484,-0.025282161,
-0.031008447,-0.023088243,
0.08884203,-0.062005654,
0.016744275,-0.08044223,
-0.013138262,0.051742133,
0.0118274335,0.06347204,
0.0,0.07427019,
-0.022762153,0.029875055,
0.044547457,0.06571733,
-0.023894107,-0.01926434,
0.0,0.03368073,
0.061137814,-0.01946657,
-0.055490185,-0.077274516,
0.010955884,-0.040917255,
-0.0167521,0.0230033,
0.021734491,-0.029292157,
0.035484593,0.0,
0.0,-0.026438529,
0.0,0.10571359,
-0.06014286,0.0,
-0.074835956,0.05402563,
-0.06325886,-0.023627384,
-0.05299168,0.07102599,
0.031023547,-0.07558962,
0.0,-0.017356513,
0.0,0.0,
0.0954294,-0.020518987,
-0.061174404,-0.028984617,
0.0,-0.0144128455,
0.057016768,0.010794611,
-0.019416105,0.036510736,
0.0,0.0,
0.0,0.04198843,
0.01847868,0.04406396,
-0.04231535,-0.022783143,
0.050119963,-0.018597819,
-0.029385928,0.0,
-0.017388912,0.04765688,
-0.066476814,-0.05210615,
-0.011392636,-0.019097175,
0.019291492,0.0,
0.022529682,0.011707246,
-0.058289886,0.0,
0.035371512,-0.056932516,
0.086461246,-0.017406931,
0.022924982,0.08820472,
0.0,0.11178524,
0.018264657,0.0,
0.015669918,0.024744643,
0.0,0.020395823,
-0.066844024,0.014639109,
0.017010173,0.06418674,
0.101257734,0.08189735,
-0.03499248,0.0,
0.02962435,-0.024380852,
0.06249053,-0.02202886,
0.0,-0.032378633,
-0.04738136,0.020136766,
0.038457893,0.038256545,
0.051748335,0.048429325,
-0.035258025,-0.052973583,
-0.025611026,-0.05508684,
-0.08134542,-0.1135063,
-0.054553013,0.0,
-0.03436289,-0.08454202,
-0.05560632,0.0,
-0.015328696,-0.09890158,
0.0,-0.09218881,
-0.053058013,0.064000174,
0.023404833,0.040174168,
0.0,0.029824097,
-0.043601036,0.05708377,
-0.100556746,-0.013806607,
0.1203993,0.05800568,
-0.05671614,0.029212426,
-0.030639425,0.0121265855,
0.035412498,0.026352786,
-0.05135832,0.04023095,
-0.045106612,-0.07462977,
0.016301235,-0.032650877,
0.030738028,-0.049281254,
0.0656243,-0.08578527,
0.0,0.07875604,
0.025855513,0.010097126,
0.0,0.022644747,
-0.015964674,-0.038546134,
-0.08316232,-0.022346776,
0.02620751,0.014884358,
0.026701933,-0.032076113,
-0.023699496,-0.0687195,
0.01939379,-0.013310796,
-0.020033574,0.0,
0.09050579,0.0,
-0.051680423,-0.014313276,
-0.09430445,-0.07053842,
-0.014487359,0.036073647,
-0.022958847,0.0,
0.11469133,-0.012634237,
-0.018782932,0.0,
0.040998515,0.0499185,
0.12982868,0.07413078,
0.063857205,0.0,
-0.019699967,0.0,
-0.051538713,0.053838022,
0.053710915,-0.021139288,
0.0,0.0,
0.0,0.0,
0.03406295,-0.07743143,
0.062133793,0.018431054,
-0.030053848,-0.023014238,
-0.050642516,-0.08656007,
-0.022384865,0.027037933,
0.017324964,0.06497029,
0.099053994,0.049711306,
-0.022400757,-0.04278981,
0.010278576,-0.01702785,
-0.098929286,-0.029023146,
0.0,0.04043623,
-0.010548318,0.011003909,
0.0,0.02941703,
0.0,0.040761318,
0.081201755,-0.052222963,
0.027021898,-0.020915225,
-0.018245356,0.022593034,
0.01309461,-0.034624893,
0.0,0.041558642,
0.027283648,0.0,
-0.016861843,-0.10787352,
0.0,-0.013679095,
-0.030050205,0.0,
0.05719041,-0.054366082,
-0.06980883,0.014370103,
0.06514965,0.0,
0.03621398,0.04682284,
0.043674964,0.07081859,
-0.042116225,0.03427121,
0.0,-0.019415183,
0.0,0.0,
0.037108473,0.07895565,
0.054183353,-0.011695711,
-0.0322939,0.05222303,
0.050618965,0.0,
-0.028635714,0.06601901,
0.016152784,-0.023819441,
0.06585624,0.050928265,
-0.014263985,0.021041553,
0.0,-0.0138847325,
0.12043977,-0.05239339,
-0.09910877,-0.018066764,
0.015188819,-0.039275452,
-0.085801676,0.0,
0.0,-0.055069387,
-0.07661391,-0.03052595,
-0.027162874,-0.07826411,
0.03650951,-0.07234738,
0.022431038,-0.017470483,
-0.07432659,-0.06813213,
-0.033759214,0.0430382,
-0.037967853,0.07416964,
-0.09148275,-0.08081738,
0.0117184,0.020184036,
-0.043818943,-0.015182727,
0.040487707,0.02189958,
-0.022377126,-0.13500345,
0.017967848,-0.086972654,
-0.011059871,0.0,
0.021398917,-0.09494723,
0.034463897,-0.029212784,
-0.013800214,0.017468771,
0.035705425,-0.06664593,
-0.12143004,0.03341802,
-0.055895522,0.0,
-0.016605834,-0.056508165,
-0.05767157,0.029803053,
0.0,0.021320611,
0.08796348,-0.07058885,
0.028468939,0.0,
0.045703884,0.022700444,
0.059106473,-0.08068731,
0.09182269,0.0,
0.014310381,-0.03112054,
-0.05699032,0.0,
-0.019028725,0.0,
-0.013682159,0.07427876,
-0.038958535,0.026872506,
0.0,-0.040618982,
0.017881835,-0.057473466,
-0.030120688,0.0,
-0.030211344,0.022448875,
-0.025470689,-0.10365768,
-0.028521955,-0.023896385,
-0.03939241,-0.06953776,
-0.03625692,-0.058675326,
-0.066462785,0.07605792,
-0.049118966,0.013317254,
0.057159502,0.022137877,
0.038782023,-0.07763442,
0.04677746,-0.046435438,
-0.018391494,0.030446617,
-0.12015444,-0.06470505,
0.045256753,0.026915455,
0.04306015,0.0,
0.017703952,0.038563583,
0.0,-0.0125517,
-0.06654153,-0.024643624,
-0.038987573,0.010898065,
0.046310727,-0.022380408,
0.0811459,-0.028742384,
-0.043103654,0.04801235,
0.013848771,0.07497082,
0.0,-0.021134725,
0.053046465,-0.027076675,
0.039620142,-0.052246794,
0.1071122,0.03021651,
0.039030086,0.022273926,
0.03304479,0.0582802,
-0.04975128,0.0,
-0.023859173,-0.026391324,
-0.047837324,-0.046327274,
0.020574074,-0.029287279,
0.0149328085,0.0,
-0.0726082,-0.050424445,
-0.10313871,0.0,
-0.023110298,0.0,
-0.042415664,0.09153014,
-0.01050641,0.0,
0.0,-0.09080267,
-0.025714364,-0.060982995,
0.023532437,-0.0103692915,
0.016084105,-0.06500138,
-0.06293174,0.036894247,
0.026316319,-0.04328562,
-0.074505605,0.0,
-0.057378303,0.028220212,
-0.0141114965,0.037091453,
-0.029450439,0.036501426,
0.022517666,0.0658092,
0.032295823,-0.06729603,
0.058734987,-0.014576944,
0.0,0.0,
0.0,0.09541117,
0.1123499,-0.013984997,
0.022839138,-0.06990671,
0.0,-0.054485768,
-0.055559523,0.016185466,
-0.050482355,-0.058361262,
0.017150158,0.035326388,
-0.015830433,0.011386317,
0.0,-0.039356664,
-0.05457257,-0.02138158,
0.07645491,-0.04246252,
-0.04966807,0.0,
0.03258418,0.0,
-0.086629465,-0.053683326,
-0.0686401,0.0,
0.076351546,0.019567667,
0.10422265,-0.042791292,
0.05745954,0.015155255,
0.0,0.015475747,
-0.03260202,0.098372385,
-0.039851934,-0.059335865,
0.051634073,-0.032896116,
-0.05889851,-0.027052252,
0.058608983,-0.1357926,
0.055950228,-0.17158225,
-0.021401104,0.040796652,
0.01784796,0.024354484,
0.027603904,0.0,
0.025234884,0.0,
-0.03443779,-0.052157152,
-0.0132721495,0.0,
0.0,-0.013023543,
0.046962038,-0.013118483,
-0.013865547,-0.029825026,
0.042679302,0.0,
-0.022398315,0.0,
0.06841119,-0.06827263,
0.015172559,0.039908927,
-0.010497073,0.010821389,
0.09809156,-0.02693321,
0.0,-0.0869626,
0.081762955,-0.054096576,
-0.06788274,-0.045195468,
0.0,-0.03792626,
-0.049481984,-0.035636015,
0.04900854,0.07479255,
0.03473184,0.031669874,
0.017597008,0.014579779,
0.013646062,0.0,
0.06070276,-0.035905696,
0.04926356,-0.04343749,
0.0,-0.087079674,
0.065820634,-0.066655815,
0.06340621,0.04029692,
0.0,0.035693895,
-0.05269588,0.053632308,
0.018558238,-0.031333093,
-0.06033454,-0.052602857,
-0.016022107,0.059276026,
-0.03677645,0.049985584,
0.04878995,0.0421812,
0.0102263065,-0.0241802,
-0.010838713,0.034977466,
-0.052771747,-0.032783113,
0.023067294,0.018010782,
0.0,-0.02653447,
0.011173731,0.061493937,
0.013474251,0.047835898,
0.0,-0.015922753,
0.0409781,0.047733158,
0.023108024,0.044629794,
0.079148665,-0.046587072,
0.0,0.0,
-0.06931512,0.0,
0.0,0.015788952,
0.06510919,-0.04638604,
0.043088138,0.018149635,
0.019153267,-0.03141303,
0.017187199,0.0191934,
0.0,0.048666492,
0.044918437,0.0,
-0.041662537,-0.09033294,
0.021251496,-0.02271591,
-0.045825876,0.1042569,
-0.086841315,0.0,
0.036140457,0.0,
0.0,0.014401207,
0.07928873,0.07170509,
0.02669741,0.01828769,
0.046043858,-0.062460084,
-0.029394032,-0.042800054,
0.0,0.09139539,
-0.018568357,-0.07647515,
-0.08359157,0.0,
0.030496953,0.031152554,
0.10503455,0.0,
0.05922281,-0.06544202,
0.022372818,-0.033708405,
0.0949773,-0.049136482,
0.039574917,-0.024702033,
-0.032192495,0.03166413,
0.024476672,-0.060373787,
-0.042300653,-0.07202865,
0.067255445,0.034466602,
0.021222904,-0.07562292,
0.09685863,0.015760005,
0.04860647,0.08164775,
-0.09777465,0.0,
0.02845287,0.07817494,
0.08385394,0.06344281,
0.06856832,0.08931534,
0.03631327,-0.061077103,
0.0,0.03086878,
0.0,-0.012861949,
0.0,0.055960774,
-0.046829548,0.0,
0.022918196,0.07025359,
-0.043532487,0.06961458,
0.052366722,-0.0622464,
-0.066466995,0.056085177,
-0.012441241,0.0,
0.034814715,0.049441904,
-0.024940424,-0.031962264,
0.06825281,0.03584974,
0.0,0.10065124,
-0.042664185,0.047457516,
0.05607891,-0.015371745,
0.012559083,-0.111734,
0.04549961,0.054499213,
-0.011747594,0.0,
-0.050026044,-0.08060598,
0.046807867,-0.06980815,
-0.042964566,-0.04214102,
0.011645766,-0.055179235,
0.049076773,0.045929182,
0.047876358,-0.056505382,
0.10486114,0.062048703,
0.03691655,0.07441277,
-0.05111159,0.02676118,
-0.027502475,0.0,
0.035761006,0.016708184,
0.010353311,0.02753746,
0.04160662,0.0,
-0.03083817,0.011490969,
-0.047837164,0.05090682,
0.0,0.036677416,
0.08836594,0.030382838,
-0.07684681,0.011256289,
0.0,-0.03257117,
0.052870262,-0.022553796,
-0.020692522,0.07336638,
0.012283266,-0.011687565,
0.012896215,-0.046693686,
0.034479562,-0.13101375,
0.013020273,0.065095134,
-0.05511843,0.044942655,
0.013081477,0.0,
-0.079117276,-0.0752405,
-0.10701552,0.0,
0.025325565,-0.048086423,
0.07363507,-0.03973017,
0.066899255,0.04638945,
0.046671197,0.055658348,
0.011104378,-0.05770553,
0.0,0.019777277,
0.061761584,0.016623626,
-0.018952206,-0.019026415,
-0.01534819,-0.05736493,
0.05901211,-0.024320079,
0.045931533,0.030479997,
0.017417988,-0.04285319,
0.0,0.0,
-0.0327268,-0.016443104,
-0.08773145,0.018534793,
0.0,-0.04717425,
-0.027124157,0.09025846,
0.05455059,0.018080764,
-0.018011324,-0.012825132,
0.051998638,-0.010006132,
-0.034202278,0.0,
0.018086746,0.06946267,
-0.05288678,0.02858765,
0.047612287,-0.0606205,
0.06770447,-0.017616997,
0.03516973,-0.16418551,
0.0,0.026936509,
0.0,-0.0290464,
-0.10807003,-0.07765486,
0.014720515,0.027726278,
0.043433525,0.045786757,
0.0,0.024504159,
0.027945308,0.010981735,
-0.08083641,0.10568952,
-0.025730196,0.016905384,
0.02900203,-0.059477847,
0.07618601,0.06986787,
-0.03820484,0.0,
0.018296937,0.02347789,
-0.014385404,-0.02630203,
0.010342875,-0.019057615,
-0.01938431,0.0,
-0.026680926,0.0,
0.08168769,-0.06478182,
-0.053435955,0.07663748,
0.06715783,-0.019490018,
0.0,0.040751904,
-0.020548608,0.024165886,
-0.019396145,0.039940026,
-0.10441464,-0.018050209,
0.07204227,0.111342594,
0.08664086,0.01938901,
0.029334364,0.0780834,
0.10231275,-0.02044686,
0.0,0.0,
0.020470586,0.025922386,
0.023944193,-0.057897046,
0.07561982,0.015272301,
-0.05934899,0.045492835,
-0.06864317,0.044643033,
-0.010370391,-0.015590145,
0.0,0.07575222,
0.019530566,-0.022440584,
-0.07487822,0.0,
0.04604658,0.013601648,
0.020595621,-0.034660548,
0.06940512,0.0,
0.07146786,0.017648663,
0.0662883,0.0,
-0.0131243,-0.03668692,
-0.027878743,0.0,
0.014756262,0.0,
0.048747916,0.020697828,
0.0,0.0,
-0.031081937,0.069349974,
0.0,-0.06792252,
0.0,0.016083816,
-0.030207036,-0.03804839,
0.08045041,-0.054583553,
0.035368655,0.10764393,
0.011347395,-0.058057506,
0.017882315,0.014752269,
-0.032704316,0.05944938,
0.059544936,-0.092734866,
-0.038806867,-0.07989863,
-0.04783461,-0.018510902,
-0.021703344,0.11866193,
0.07788893,-0.05208153,
0.02493467,0.03603403,
0.049575698,0.13479514,
0.08249,-0.07492506,
0.0,0.114641696,
0.03324452,-0.010221994,
0.058511883,-0.1085624,
0.048382238,0.0,
0.09151829,0.08303142,
-0.087569386,-0.11091832,
-0.028269267,0.018695317,
-0.1260094,-0.0644328,
0.0,-0.031347826,
-0.051354483,-0.09172669,
0.048379064,0.0,
0.0,-0.052966807,
0.06190452,-0.038621686,
0.0,-0.054415602,
-0.069554366,-0.0472136,
0.034188632,0.0,
0.049093403,0.036205698,
0.0,-0.052373216,
0.0,0.0,
0.021448962,-0.13664071,
0.016815955,-0.01885339,
-0.056803465,-0.049060408,
-0.045470387,0.010657983,
0.05385284,0.0,
-0.053260013,0.0,
-0.041386575,-0.04191573,
-0.04617393,-0.09895395,
0.010793303,0.03644637,
0.0,0.0,
0.11663696,-0.04917773,
0.0,0.02802273,
-0.020503927,0.0,
0.0,0.0,
-0.05864874,0.061366376,
0.0,0.0,
-0.08663262,0.025381729,
0.033021316,-0.027570156,
0.0,-0.010775398,
-0.013186485,-0.010820967,
0.010418213,-0.031908963,
0.021702265,0.0,
0.09381794,0.04367016,
-0.07255337,-0.10889403,
-0.015429474,0.0,
-0.039606057,0.0,
0.031960115,0.062429674,
-0.02388118,-0.100479245,
-0.04834492,0.037917327,
-0.035232503,0.0,
0.027094275,-0.015765533,
-0.09739311,0.03133285,
-0.07531834,-0.041456312,
0.042822327,-0.015398311,
-0.032641258,0.05638621,
0.05622948,-0.045454133,
0.0,0.0,
-0.027884329,-0.04206724,
0.0,0.10998661,
0.12638946,0.068385735,
0.03378048,-0.07634565,
0.12168674,-0.033150025,
0.0,-0.049247023,
-0.072845355,0.0,
0.0,-0.030050697,
0.013697537,0.032150995,
-0.03654748,0.10095234,
-0.014690896,0.08365518,
0.0,-0.018643625,
-0.03258333,0.092508435,
-0.074063905,-0.034536712,
-0.07153734,-0.05549405,
0.11429816,0.0,
-0.08463359,0.07541926,
-0.01767995,-0.033162966,
0.0,-0.028873771,
0.02691102,-0.05552101,
0.037073087,0.019229522,
0.060787063,-0.01440811,
0.01558671,0.063845165,
0.031987384,0.059260435,
0.03143556,0.0584355,
0.0,-0.044832274,
-0.015131432,0.0,
0.087811545,-0.036538094,
0.0,-0.13385858,
-0.012434302,0.03629498,
0.0,0.0,
-0.090288095,-0.029274158,
0.0,0.03614033,
0.040792797,0.044319425,
0.0,-0.0766453,
0.020900216,-0.014209512,
-0.048889704,0.022330225,
0.022094866,0.03691954,
-0.038978986,0.06277584,
0.05439477,-0.020491222,
0.05391948,0.052602306,
0.036397636,0.061756942,
0.0,0.073613785,
-0.045768093,0.0,
-0.0155468965,0.04136903,
0.07429871,-0.01195173,
-0.052197084,-0.049337395,
0.0,0.0357631,
0.011552398,0.07733319,
-0.03749109,0.081798755,
-0.025225928,-0.0983172,
-0.05808613,0.0,
0.0,0.010639463,
0.12196683,-0.03629936,
0.027843492,0.0,
0.09862818,0.0,
0.030641772,0.045211032,
0.04849018,-0.04622999,
0.0,0.05645282,
-0.029877538,-0.026406802,
0.051443875,0.033646256,
0.021458855,0.0,
0.0779721,-0.058545493,
0.010766803,-0.04335755,
0.01856008,0.06799419,
0.036863346,0.0,
0.022432601,0.08826619,
0.0,0.0,
-0.070216484,0.021319289,
0.023902103,0.05831869,
-0.057745352,0.06145966,
-0.058731813,0.018141076,
0.07168374,0.022772824,
-0.021937033,0.030975718,
-0.022503424,-0.07078506,
-0.080962,0.0,
-0.058386795,-0.101247296,
0.06357605,-0.037973173,
-0.018088104,-0.06739301,
-0.052389503,-0.03673993,
0.026134443,0.06504933,
0.022662532,0.0,
0.06593322,0.0,
0.03930288,0.0,
0.02056633,-0.034138285,
0.0,-0.034551647,
-0.13459201,0.018604418,
0.08376423,0.012788755,
-0.058079123,-0.011353738,
0.0,0.020798191,
0.07069744,0.041162804,
0.03797754,-0.066559516,
0.0,0.051158216,
0.0,-0.05768958,
-0.017129434,0.061853494,
0.032458093,0.0,
-0.034781225,-0.017100869,
0.03169974,-0.038864356,
0.011489744,0.0,
0.0,0.030178338,
-0.053858012,0.0,
0.05518439,0.011898511,
0.0,-0.10315945,
-0.025246287,0.0,
0.060603827,0.09512369,
0.084192276,-0.018866375,
0.04503038,0.0,
0.040402744,-0.02283934,
0.12748416,0.011648621,
-0.05649597,0.0,
0.0,-0.019417707,
0.06494171,0.01606897,
0.05219762,0.022160176,
0.0,-0.041479114,
0.12577675,-0.04549502,
0.0,0.057368293,
0.06613552,-0.024873022,
-0.010210958,0.042280205,
-0.0587734,0.045337398,
0.023806594,0.025703304,
0.08645919,-0.05832519,
0.07391502,0.0,
-0.07501777,-0.08816844,
-0.05023578,-0.060479727,
-0.055935644,0.03668536,
0.0,0.09946451,
0.018705163,-0.031436145,
0.0,0.029133005,
-0.073097505,0.033457007,
0.034353547,-0.04730104,
0.05273357,-0.021748088,
-0.046114054,-0.059424277,
0.05548687,0.027497329,
0.0,0.05082999,
-0.04562003,0.025938304,
0.05054752,0.06170679,
-0.031966433,0.0,
0.10537879,-0.1113574,
0.019794827,0.07735698,
-0.09107624,0.07849525,
-0.04657778,0.07266846,
-0.058748376,0.038667355,
0.06959108,-0.06861914,
-0.010282524,0.0,
0.036187477,0.06304786,
0.054381113,-0.019227766,
-0.04452811,0.028177442,
-0.010391116,-0.012718382,
-0.024582662,-0.010428856,
-0.022519223,-0.04823424,
-0.098437466,0.13754137,
0.07625425,-0.011515538,
0.07136359,0.013888215,
0.0,0.0,
-0.036802597,-0.06788548,
0.051571097,0.020909978,
0.0,0.047793288,
-0.018761652,-0.07712022,
0.08539511,0.06913967,
-0.014255514,0.01732712,
0.025407588,0.059339594,
0.06729831,-0.049098846,
0.05481008,0.0,
0.13967638,0.0,
-0.06462889,0.010491755,
0.05847541,0.0,
0.064361624,0.0,
0.0,-0.044904098,
-0.014053921,-0.0111716725,
-0.028286923,0.03822234,
-0.07025213,0.077070795,
0.04016379,0.049144775,
-0.013405257,0.05719913,
0.022232125,0.03006569,
-0.028813098,0.0222137,
0.02825845,0.06611821,
0.024776345,-0.063921094,
0.055118658,0.026175428,
-0.06791278,-0.026437828,
-0.023709217,-0.011045377,
-0.012707368,-0.041066766,
-0.022006186,0.016337024,
0.015565397,0.067166805,
0.07659972,0.030355059,
0.029725239,0.10648094,
0.0660016,-0.04942919,
-0.043182433,-0.051186573,
0.0,0.0,
0.06979003,0.0,
-0.057433195,-0.060099386,
0.043946743,0.0,
-0.010022746,-0.019687418,
0.042244967,-0.07246045,
0.056553923,0.017124426,
0.0,0.0,
0.062112566,0.042814657,
-0.102772124,-0.050775293,
0.045783687,0.014919432,
0.0,-0.11340765,
0.024093848,0.047219932,
0.023373932,-0.016533341,
0.046401963,-0.023916887,
-0.029717535,-0.012137994,
0.026474936,0.043487716,
0.0,-0.026189422,
0.04794927,0.03160798,
0.08737275,0.0,
0.057285916,-0.043360457,
0.0,0.016654456,
0.10815262,-0.041042205,
-0.036553755,0.04563211,
-0.022849683,0.05650434,
-0.051968664,0.0,
-0.047396366,-0.026866358,
-0.01132604,0.07293072,
-0.09159722,-0.02565817,
0.0,0.02483424,
0.026487216,-0.04615509,
0.042104192,0.0,
0.041743897,-0.010820488,
0.0,-0.027609652,
0.015643679,0.0,
0.05244334,0.056887936,
0.04528168,0.04076768,
-0.041165568,0.027126525,
0.0,0.037840776,
0.052545633,0.055148367,
0.0,0.0,
-0.029238448,0.0,
-0.058658533,-0.053013615,
0.0,-0.02280114,
0.042232532,0.049387507,
0.01352118,0.05648518,
