layer1node1,layer1node2,layer2node1
0.085180975,-0.001154399,-0.17915027
0.059539545,-0.013188336,0.20094621
-0.047852226,-0.044002347,
0.020722207,0.08531088,
0.026264593,0.0033635453,
0.013772697,0.020307466,
-0.0052845646,-0.10735427,
0.08187773,0.036577247,
0.08056844,-0.00026507973,
0.060439445,-0.041153636,
0.0131339375,-0.01398045,
0.011065757,0.021145578,
-0.04088198,-0.009438809,
-0.094879344,-0.07234897,
-0.07855249,-0.033450548,
0.013810213,-0.039574485,
0.0041378816,-0.060388885,
0.03210623,-0.011151086,
0.020286988,0.025229275,
0.013036635,0.009414823,
0.021124098,0.028961642,
0.04888116,0.0106373625,
0.0007527617,-0.004027149,
0.014287457,0.010844482,
0.08218106,0.027655417,
-0.08313592,-0.05884735,
0.031098822,-0.022235883,
-0.03550799,0.040153574,
0.01393091,0.004239123,
-0.0121061485,-0.047412217,
-0.01975913,-0.065817885,
-0.03738202,-0.06571523,
-0.009544309,-0.050455745,
0.110030584,0.040966053,
0.04718653,-0.049408514,
-0.028445473,-0.015494226,
-0.06609909,-0.11827064,
0.06463215,-0.035896685,
-0.017093651,0.07091145,
-0.09398116,-0.0067243143,
-0.028869838,-0.053764272,
0.034374956,-0.040824857,
0.022579031,-0.027961303,
0.013306362,0.04378642,
-0.061813496,0.005480276,
-0.023355925,0.032154024,
-0.027154367,0.025000477,
0.046542175,-0.044012237,
0.11672216,0.11070651,
-0.04468475,-0.024318228,
0.04588795,0.017906884,
0.07632315,0.03799013,
-0.0045502232,-0.016136995,
-0.01680123,-0.014285695,
-0.061825197,-0.013690399,
0.04626464,0.06541378,
-0.04653095,-0.06376242,
0.028405905,0.02783839,
0.042279303,0.04145575,
-0.020812115,-0.021186637,
-0.005253505,0.023401612,
-0.022297466,-0.012245986,
-0.023803368,-0.03605592,
-0.0002276702,0.029835124,
0.01799118,-0.069740154,
0.022599438,-0.022560785,
-0.024532605,-0.016157493,
0.012640701,0.07885721,
-0.0005129478,0.07689451,
-0.011212449,-0.014783414,
-0.01817427,-0.036276445,
0.02275706,-0.07840331,
-0.05593059,0.009778176,
-0.041191332,0.012912397,
0.013334118,-0.08005826,
-0.038116917,0.075509086,
0.0342664,-0.018804597,
-0.113639906,0.0007338425,
0.10719262,-0.072067775,
0.0055709407,-0.05280782,
0.13153633,0.028507471,
-0.06702316,-0.01723547,
-0.05548503,-0.017072598,
0.039718352,-0.094114974,
0.03784233,-0.03678649,
0.07942924,0.01193879,
0.044286992,-0.04618465,
0.033587594,-0.03649344,
0.006836124,0.027977332,
0.07932213,0.015180479,
-0.04903875,-0.014524684,
0.021050446,-0.020181634,
-0.054052997,0.029738646,
0.010056627,0.039624974,
0.03584217,0.052109994,
-0.08000915,-0.09439077,
0.007187082,0.15022811,
0.049020503,-0.037375506,
-0.044127584,-0.022833517,
0.027740588,-0.011887251,
-0.04871105,-0.017998016,
0.029742634,0.027329845,
0.01714135,0.041391846,
-0.015390199,-0.054829866,
0.0016331122,-0.014943035,
0.007700144,-0.00048356544,
0.009370878,-0.049211644,
-0.014734444,-0.051497824,
0.03717848,-0.014728158,
-0.0033424012,-0.020194964,
-0.047338597,0.025545487,
0.042531073,0.028185269,
0.03225266,-0.038580548,
0.07034842,0.019019045,
-0.050635718,-0.031650208,
-0.029757937,-0.028206807,
0.012596408,-0.0022897958,
0.06276151,0.080703214,
0.028329158,-0.01596134,
-0.022349747,-0.05218678,
0.05788849,-0.028608581,
-0.033512283,-0.06790203,
-0.0017784744,0.053573493,
-0.020403188,0.045143787,
-0.012277678,0.001464714,
-0.0025471423,0.032042667,
0.050524686,-0.052676503,
-0.004377971,-0.12623732,
0.0033972748,0.059995245,
-0.026176933,-0.07556516,
-0.042872034,0.06395511,
-0.024127845,0.033085335,
-0.057454757,0.068148844,
-0.0072925123,0.027512088,
-0.0036917732,-0.12119876,
0.012506836,-0.068886414,
0.017547399,0.04121271,
0.05485843,0.0031935934,
0.08209799,0.078767724,
-0.04483485,0.058320947,
-0.057797287,0.03005116,
0.0032776054,-0.03304678,
0.017551804,0.08036048,
0.12130461,0.063601546,
-0.014643823,0.030804535,
0.0251105,-0.02788151,
-0.0035112666,-0.041300654,
-0.016675705,0.007748362,
0.0005086353,-0.041836068,
0.059697654,-0.0018918099,
0.05300458,-0.03310603,
-0.030365592,0.0062128115,
0.06859933,0.027102806,
-0.0029983374,-0.018788084,
-0.035871048,0.05386372,
-0.079752296,-0.029890882,
-0.019226898,0.0025051262,
0.0292407,-0.124633774,
-0.0120450845,-0.027134154,
-0.08506085,0.072247796,
-0.066634715,-0.06999892,
0.0005684327,0.08881833,
-0.0147876125,0.0106725395,
-0.02947174,-0.026734546,
0.03623988,0.043712597,
-0.07498379,-0.031209419,
0.13172185,0.048042502,
-0.011223236,0.019464131,
0.04757309,-0.0041134465,
-0.052680794,0.06701817,
0.015874505,-0.00049357675,
0.056855313,0.0002474423,
0.09480237,0.058635186,
0.026246248,-0.04699907,
-0.0031348502,0.048154138,
-0.053789333,-0.060578547,
-0.029117715,0.038984064,
-0.018373705,-0.026913827,
-0.015710585,0.039377708,
0.021096867,0.029877909,
-0.09521854,-0.020001566,
-0.006491417,0.10258659,
0.09741743,0.040690828,
-0.088846624,-0.08105927,
-0.01563335,0.034842685,
0.023788396,-0.015003749,
0.079285,-0.050499532,
-0.034938473,-0.028837916,
0.06619684,0.045825876,
0.008753053,-0.00065738865,
-0.0020466053,-0.06470032,
0.040634695,-0.042070337,
-0.06422936,-0.039667357,
-0.03523105,0.034790702,
-0.017784968,-0.0297858,
-0.0486925,-0.052551195,
-0.07478507,-0.027444351,
-0.06474943,-0.034074165,
0.048002236,-0.08577631,
-0.047616046,0.07066284,
0.106103584,-0.016705472,
-0.027550718,-0.0012686166,
0.032169916,0.054293815,
0.002318981,0.026743194,
0.05176189,0.027439862,
-0.042502914,-0.00826105,
-0.0012539485,0.019363731,
0.05727513,0.020222604,
-0.13217829,0.014212741,
0.058285497,-0.0044233254,
-0.09939781,-0.054581042,
0.0068772137,-0.022595666,
0.063703835,0.06376166,
-0.05449611,-0.03333358,
-0.106747724,-0.026376955,
0.05757284,0.008602386,
-0.021668993,-0.012712284,
0.06910989,0.007438026,
0.050066497,-0.08174838,
-0.04411361,0.04776136,
-0.030151466,0.0017393844,
-0.048336163,-0.05121822,
-0.047182273,-0.022191886,
0.0132468,-0.05752631,
0.062995926,-0.027548509,
0.044202108,-0.06815008,
0.015401963,-0.007004946,
-0.032049168,-0.0017862999,
0.008369173,0.009919072,
0.04134114,-0.050882123,
0.054845314,0.03204258,
0.010034427,-0.085958846,
0.00058837695,0.06924178,
0.02999572,-0.0139649,
-0.06649832,-0.047299013,
0.003587872,-0.03223804,
-0.009514594,-0.0049805865,
-0.019384734,0.04574384,
0.06892031,0.056695558,
0.09108026,0.05810601,
0.10921061,-0.026952384,
0.09014248,-0.0053654993,
-0.005842733,0.014066362,
-0.016738977,-0.065396346,
0.052837867,-0.025439423,
-0.0610858,-0.050181717,
0.17573173,-0.038615003,
-0.023131568,-0.0066924957,
-0.119773544,0.04105433,
0.09664196,-0.03319008,
-0.03330006,-0.12048313,
-0.021897625,-0.09011827,
0.012759796,0.11462997,
0.0063554505,-0.02393596,
0.058636148,0.03752404,
0.006502909,-0.03072509,
0.011730467,0.00666693,
0.015407767,-0.064559855,
0.011747785,0.026398888,
0.033295605,-0.026343165,
0.019181442,-0.065976106,
0.0724048,-0.034955084,
0.08626326,-0.06320926,
0.0076289712,-0.090349704,
0.047478784,-0.011400252,
0.021453436,-0.015194127,
-0.023498353,-0.031011721,
0.04255298,0.013019952,
-0.024451626,0.010590999,
-0.060290165,0.09904589,
-0.051854666,0.014058008,
0.0061094626,-0.020429155,
-0.012454909,-0.023259263,
0.07555778,-0.041362546,
-0.013435533,0.03881603,
-0.043580014,-0.032153178,
0.056899954,0.0015606121,
0.029340098,0.015544176,
0.05396358,0.012523151,
0.021769786,-0.009644469,
0.026602037,0.08518478,
-0.053476322,0.023531046,
-0.00045308116,0.029305529,
0.0023665046,-0.105005555,
-0.022287754,0.0054172496,
-0.13328227,-0.008013216,
0.040636167,-0.0023958755,
0.0014746648,-0.00027919371,
0.016787216,0.097460575,
-0.0018199463,0.018715816,
0.028998628,0.046117585,
-0.0022220155,0.05754748,
0.12548627,-0.035897948,
0.059163075,-0.018843886,
0.037805665,0.004518036,
-0.04004423,-0.007895728,
-0.03835998,0.00087626703,
-0.03543996,0.021525554,
0.010111818,-0.053176664,
-0.0325491,-0.007048339,
-0.06941724,-0.0066610696,
0.017979046,0.0065922053,
-0.0055134585,-0.05081842,
0.02439468,-0.05150828,
-0.06666815,0.0038359151,
-0.036165457,-0.02736337,
-0.02782129,-0.045102395,
0.022738377,0.042658772,
-0.10434581,-0.025731951,
0.014898384,0.025084078,
-0.00301994,0.0004840864,
-0.0028475644,-0.019515049,
-0.04256506,-0.019860948,
-0.052109946,-0.04376776,
-0.0077033225,-0.0119543765,
-0.015294313,-0.006086767,
-0.04498817,0.07777213,
-0.0376674,-0.026385909,
-0.0075954935,-0.035485413,
-0.0070590395,0.04528638,
0.038333826,0.076993026,
0.059122067,0.01812281,
0.019324373,-0.04161973,
0.025301887,0.09080418,
-0.07108936,0.026465753,
-0.0051818173,0.012401953,
-0.053386144,0.0008668959,
-0.07439226,0.01977009,
0.016845992,-0.0054713334,
0.05901927,-0.020570926,
-0.006063897,-0.01197202,
-0.011026356,-0.087854646,
0.032448668,0.058880433,
0.043569647,0.04081535,
0.027848233,0.0083823465,
0.07875199,0.044656873,
-0.02745407,0.009437847,
-0.02089616,0.027063385,
0.024099253,0.006289776,
0.06923363,0.016624717,
-0.08179974,0.020958247,
-0.0027304026,0.021369906,
0.070285,0.016493164,
-0.059649512,-0.058667112,
-0.054690193,0.030797059,
0.070460565,-0.03456617,
0.10907331,-0.06131748,
0.033680886,0.023560533,
-0.09017137,0.0021714931,
0.028105985,0.01532247,
-0.025040777,-0.030114077,
0.09131883,0.015807224,
0.021150537,0.035363633,
-0.00028029951,-0.0066103446,
0.0267618,-0.028706703,
0.024634989,0.006531864,
0.06491145,-0.01307001,
0.00076221704,-0.004876031,
0.016033499,-0.0053145727,
-0.008781327,0.07146796,
0.023593212,0.048503164,
0.02167491,-0.018589757,
-0.036768258,0.0012706632,
0.003518022,-0.019976046,
0.064611934,-0.019476905,
0.04127242,0.023968108,
-0.0016079033,-0.005567349,
0.023554891,-0.03154659,
-0.033543214,0.055240255,
-0.059587084,0.0147678,
-0.011371781,0.12785263,
0.010086412,0.064530134,
-0.02952066,0.054774605,
-0.02888006,-0.010389029,
0.00012525194,0.00038000487,
-0.007902898,0.007956058,
0.042795792,0.058729764,
-0.058875576,0.032982413,
-0.017387757,0.10035482,
-0.014506229,-0.10135483,
-0.0055615297,-0.013735404,
0.03275279,0.06424959,
-0.01956845,-0.0109580485,
0.03848422,-0.029506147,
-0.0399999,0.018510515,
-0.04635018,0.045104675,
0.108186275,0.0034419706,
-0.04754657,-0.020964332,
0.020560058,-0.023986412,
-0.0085369665,0.07605674,
0.060083747,-0.065387495,
0.037775986,-0.044222247,
0.097767636,-0.07603583,
-0.0059966627,-0.002585989,
0.019899813,0.063284546,
0.0040489165,0.019934611,
-0.020023817,-0.11997225,
-0.027387414,0.07096601,
-0.0035726982,0.071615785,
-0.047323067,0.050103858,
0.03443833,-0.009939009,
-0.07066793,-0.017730236,
-0.021042336,0.07576999,
0.026499288,-0.028161187,
-0.045875665,0.085119754,
0.0077349683,-0.022989651,
-0.028151495,-0.00793107,
-0.040850915,-0.05809533,
-0.04149239,0.0026112362,
-0.0141110085,-0.06240487,
0.054617975,0.022763489,
0.027656864,-0.038885366,
-0.034533914,-0.030253978,
-0.07209957,0.027894579,
0.047363836,0.10795856,
0.007626943,-0.0434557,
-0.07935592,-0.09126697,
-0.0781345,-0.0956162,
-0.023559174,0.06285201,
0.0280931,-0.061246283,
0.0824523,-0.033850305,
0.020853868,0.05251671,
0.01316643,-0.0025130957,
0.015662951,-0.037863757,
0.06831429,0.02401616,
-0.028039468,0.036172006,
0.010082049,-0.03964558,
-0.03547581,0.029607099,
-0.056350052,0.06545573,
0.0363992,0.010672339,
0.024256414,0.025020715,
0.059465658,0.06822224,
0.0072146994,0.049878515,
-0.016610319,0.07668852,
-0.086298846,0.03843397,
-0.019472271,0.016013104,
-0.09008384,-0.012917309,
-0.01668262,0.007218326,
0.068581104,-0.08499961,
0.08861598,-0.022484463,
0.095912665,0.00048328418,
0.029957538,-0.045677338,
-0.04615077,0.02607942,
-0.034011684,0.04589222,
-0.09582532,-0.10195724,
0.04733959,-0.036210768,
-0.07106794,0.024963025,
-0.0019060025,0.043283526,
0.027266582,-0.09098981,
-0.0060523977,-0.022364598,
-0.10804472,-0.026139868,
-0.023431338,0.013959667,
0.009633888,-0.052067526,
0.06999951,0.00912235,
-0.0018872202,-0.031722646,
-0.029243845,0.1348479,
0.0071498016,-0.062477876,
-0.054392133,-0.06547759,
-0.005187953,0.047104787,
-0.07117428,-0.029320875,
-0.006461912,-0.0020786428,
0.024716007,0.0142866615,
-0.06445806,0.099068224,
0.034742128,-0.11225347,
-0.06462998,0.075362965,
0.03208689,-0.06433736,
0.012871559,-0.031200744,
-0.030100772,0.008033858,
-0.105393946,-0.00078233844,
-0.033068042,-0.021875504,
0.04367552,-0.036686935,
-0.01820058,-0.023845065,
-0.036161825,-0.051177785,
-0.03335911,0.013236297,
-0.04989264,-0.04837689,
-0.032880634,-0.050592564,
0.0047095027,-0.036439497,
0.015185975,-0.030955773,
0.031359296,-0.029504485,
0.05189678,0.04376634,
0.014071294,-0.04791787,
-0.039428182,-0.045292675,
0.038935937,0.06887496,
-0.031213608,0.04193214,
0.020220455,-0.052379582,
0.058213294,-0.029730387,
-0.024943383,0.05998532,
0.077640094,0.03126129,
0.082984366,0.07565622,
0.027347596,0.0015881292,
0.042737532,-0.056112967,
-0.0034492107,0.0022542733,
-0.02872378,-0.044064987,
0.01317539,0.019412253,
-0.03649828,-0.047519784,
-0.042185113,0.07074304,
0.028873155,-0.047793083,
-0.028957067,0.00950255,
-0.030765232,0.04543351,
0.025498338,-0.038176756,
-0.09502001,0.006846968,
0.038287677,0.03282306,
0.07294984,0.111802556,
-0.019643923,-0.06251559,
0.07932911,0.012489711,
-0.050848182,-0.025567975,
-0.022618651,-0.10704747,
0.029931823,-0.049616847,
-0.022184484,-0.042226084,
0.004345394,-0.07903891,
0.117919736,-0.10708576,
-0.034553654,0.044715185,
-0.024521228,0.038788427,
0.024301726,-0.07474145,
-0.050998162,0.05173348,
-0.021478098,-0.098605454,
0.09319923,0.06028049,
-0.06825474,-0.030509176,
0.004034513,0.0058206473,
0.03988975,-0.05858577,
0.037647773,0.01833489,
0.027419664,-0.038568497,
0.018757565,-0.026963215,
0.019825554,-0.02831919,
0.07818866,0.037256047,
-0.058423493,-0.0021019494,
-0.048135832,0.079160705,
-0.064310215,0.061249815,
0.091575235,0.052613955,
0.05152766,0.002103506,
0.046251226,0.07135763,
-0.072958305,0.04768306,
-0.026921473,0.06809368,
-0.017905762,0.037657898,
0.020794004,0.026550177,
-0.029859679,-0.024421895,
-0.057024024,-0.13249993,
0.037826326,-0.05912653,
0.03853455,-0.031437382,
-0.076728284,0.081929594,
-0.0067006396,-0.07125803,
-0.060071222,-0.019566903,
0.022604847,-0.021524595,
-0.04355685,0.035162114,
0.06234135,0.074426256,
0.06650586,-0.014340597,
0.020077238,-0.06337472,
0.013446593,-0.0048516933,
-0.037172247,-0.13593802,
-0.058350112,-0.04500146,
-0.051889457,0.017213909,
-0.07601173,0.04804367,
0.014230978,-0.0022880428,
0.0133639155,0.008543745,
0.014116032,-0.026205866,
0.03286094,-0.03873635,
-0.08843858,-0.008998408,
-0.03757206,0.02889173,
0.063825555,-0.057037134,
0.021730144,0.002059013,
0.07542574,0.043149684,
-0.003043068,-0.01626248,
0.03777989,0.012429735,
0.09399962,-0.014742091,
0.020413458,0.04438299,
0.03674018,0.0017257149,
0.004725819,-0.04423852,
0.08525298,0.095261015,
-0.10472243,0.042116992,
-0.0074425074,-0.020407919,
0.0058908276,-0.014759404,
0.059858896,-0.026690235,
0.051771507,0.0053826077,
-0.036516417,0.02300295,
0.037231814,0.0725883,
-0.0022376648,0.035210438,
-0.0641026,-0.0075056492,
-0.019235864,-0.09036907,
-0.024836304,-0.048634138,
-0.02799276,0.031166164,
-0.03228981,-0.040581927,
-0.011887466,-0.08156538,
-0.015969254,-0.015167431,
-0.045920525,-0.07921759,
0.013526826,0.016125156,
0.050583318,0.048545476,
-0.044870697,0.010980649,
0.025603812,0.047510788,
0.023588348,-0.028507162,
-0.07944316,-0.047925916,
0.018788511,-0.0052973917,
0.033196338,-0.008683357,
0.12200274,-0.017781395,
-0.015091638,-0.01242369,
-0.07888214,0.00011362083,
0.072502315,-0.06450394,
-0.0053246305,0.04933366,
0.0482736,-0.011760793,
-0.020045653,0.032140635,
2.0883408e-05,0.03557561,
0.00057999144,0.0017206272,
0.002382703,-0.047659703,
0.093966305,0.02492892,
0.0076623093,0.039754793,
-0.03631068,-0.02605562,
0.02227931,-0.0055071344,
0.073558934,-0.01212699,
0.04609836,-0.00054529606,
0.055512805,0.003993011,
-0.031007212,-0.0323997,
-0.04017064,0.04713164,
-0.042677946,-0.025452457,
-0.02871294,0.039058745,
0.0027571598,0.032324515,
-0.017360581,0.026362937,
0.01963235,0.05736625,
0.04047204,0.03953079,
0.1001197,0.07929883,
-0.0063332967,-0.02811393,
0.04856086,-0.03385977,
0.026854068,-0.019486852,
-0.0007252296,-0.035823848,
-0.013063367,-0.0077968864,
-0.018200133,-0.00021219159,
-0.06895287,-0.0639457,
0.027768442,-0.12055007,
-0.04182543,0.026364228,
-0.08176204,0.0657084,
-0.041943185,-0.034350596,
0.028891878,-0.07497416,
0.05529522,0.040999822,
0.051026773,0.06447831,
0.073222205,-0.031937405,
0.067780286,-0.022636117,
0.007931774,-0.108369306,
0.035020333,-0.023163998,
0.069809526,-0.008517276,
-0.0046745404,-0.00093442557,
-0.11100821,-0.096177325,
0.016666824,-0.03766274,
-0.014743396,-0.021451226,
0.061877992,-0.009320996,
0.02567485,0.024503438,
-0.05651821,-0.004581597,
-0.023465779,-0.04305194,
0.10932246,0.05800824,
0.025342716,-0.0408432,
0.036666702,0.027179826,
0.01640048,0.027076816,
-0.008162507,-0.0060158777,
0.011880296,0.030614473,
0.05279089,-0.025075201,
-0.04225112,0.019817365,
-0.02578991,0.0581388,
0.086593054,-0.05938232,
0.07997128,0.10359461,
0.029477712,-0.082931675,
0.043276075,0.07918423,
0.015069819,0.03526392,
-0.06009574,0.07054882,
-0.03380612,-0.019719018,
-0.017314626,-0.03710177,
0.028471628,0.007655568,
0.039516725,0.027356725,
0.05492845,-0.04265526,
-0.004231051,-0.030777346,
-0.004363107,0.11244931,
0.0155937,0.04546609,
-0.055387646,-0.013495579,
-0.007208727,-0.027407682,
-0.047248904,-0.014246,
-0.06908708,0.04201856,
0.016763536,-0.023612233,
0.053651813,0.050367247,
0.015350084,0.0783546,
-0.0010121554,-0.059016462,
0.033650618,0.007244355,
0.04555398,0.022088256,
0.083028026,0.044408888,
-0.088979244,0.023869496,
0.0053133043,-0.04975816,
-0.034145612,-0.048529197,
0.085955046,0.01220615,
0.06612938,-0.028083216,
0.09103152,0.08730124,
-0.027275885,0.04768492,
0.085164845,-0.041443545,
0.043806627,-0.04873513,
-0.03417143,0.044119366,
-0.08920231,-0.016432285,
0.022909286,-0.0036744892,
-0.05593481,0.030579302,
0.03224623,0.011412566,
0.009929596,-0.002084104,
0.021737153,-0.12842298,
-0.006559544,0.010848257,
-0.030377775,-0.032102797,
-0.05516352,-0.033471752,
-0.05676966,0.014484208,
-0.054562155,-0.033946738,
-0.052013233,0.010543423,
-0.032193538,0.096462995,
0.0148607185,0.020458857,
0.003703458,0.032396328,
-0.0010850406,-0.012759419,
0.03491507,-0.027462522,
-0.023659475,0.12173843,
-0.03627998,0.03426869,
0.084812865,-0.010589942,
0.030253695,0.032246307,
-0.01894496,-0.0010560264,
0.08847756,0.0076982854,
-0.036033064,-0.016926793,
-0.05367302,-0.04244616,
0.07760462,0.005120368,
0.10738188,0.019461334,
-0.026196014,0.009532156,
0.050379712,0.033109087,
-0.013702842,-0.014341038,
0.01746248,-0.06329374,
0.006107315,-0.003828379,
0.009204257,0.024451904,
-0.033366587,-0.039619938,
0.030674271,-0.06166613,
-0.012608706,0.025388066,
0.05557608,0.03827565,
-0.036902506,-0.06111327,
0.070044026,-0.019549288,
-0.027819013,0.031509466,
0.02057563,-0.0064600003,
0.010078702,-0.03200992,
0.001349883,0.01391102,
0.0016571237,-0.018512573,
-0.040815264,-0.07599593,
0.027061567,0.04188951,
0.0048920843,-0.013872479,
0.0033118469,-0.014439955,
-0.044823565,-0.00022468506,
-0.0062052123,-0.047889836,
-0.030392773,0.052304626,
-0.06618284,-0.010532296,
-0.0092396205,-0.071454085,
0.049571104,-0.04061028,
0.0342374,-0.02975622,
-0.018424379,-0.06973524,
0.014868605,0.06606065,
-0.032034468,0.03187389,
0.04448695,0.013329258,
0.026257144,-0.013845128,
0.061908934,-0.01812586,
-0.09697493,-0.034002498,
0.04094965,-0.027561028,
0.028658176,0.031331223,
-0.004115566,0.0132716475,
-0.002767681,-0.06460345,
-0.12730342,0.03814005,
0.00114004,-0.014784892,
-0.014192028,-0.018379662,
-0.050780196,-0.036028985,
0.0153457895,-0.015642755,
0.027750546,0.050943438,
0.12973139,-0.025771676,
-0.022413356,0.022099232,
0.08364254,-0.011032843,
0.06186062,-0.046232518,
0.017888749,-0.0244092,
-0.008513398,0.03458833,
-0.028293787,0.030103441,
-0.031174308,-0.017244129,
0.039585892,-0.054537375,
-0.00797537,0.07064125,
0.051060595,0.0479535,
-0.06882143,0.053896364,
0.0125410175,0.06989189,
0.02901616,-0.064690724,
0.04494134,0.036887497,
-0.09666606,-0.025948208,
0.09773878,-0.03617266,
-0.046918612,-0.1210834,
-0.02858186,-0.098151214,
0.017571852,0.033386823,
-0.008131004,-0.07907534,
-0.0541111,-0.010927927,
0.0070486744,-0.07583222,
-0.033257447,0.014820482,
-0.0062536495,-0.04380992,
0.10065997,-0.11792199,
-0.00032867125,-0.0040697455,
0.040788148,0.003672729,
0.032211505,0.0071804714,
0.02777416,0.04659022,
0.046326347,-0.056877133,
0.05374002,-0.06779404,
-0.09619336,0.05412148,
-0.06633125,0.063992575,
0.027310418,0.084513105,
0.013054332,0.08081572,
0.05167556,-0.06393579,
-0.038633626,-0.11110183,
-0.022522982,-0.0198426,
-0.028525678,-0.04863862,
0.014097536,-0.007361991,
-0.054488044,-0.07715386,
-0.07233328,-0.005212099,
-0.11622833,0.04114936,
-0.04065115,0.0027177655,
0.08904022,-0.089162625,
0.06989304,0.004253315,
-0.034091577,0.011470863,
0.052217815,-0.0018747408,
0.09049061,0.06463808,
-0.05646669,-0.036228675,
-0.04512958,-0.06921668,
-0.007224708,0.010164985,
-0.05559519,0.017765014,
-0.009318542,-0.0020243693,
-0.055055544,-0.0783925,
0.049737465,0.058081105,
0.03602617,-0.015232185,
-0.0026763908,0.030947112,
0.07287338,0.0210494,
0.016666396,-0.0589398,
0.061738674,-0.0060399184,
0.01690092,0.030254336,
0.008926399,-0.03172635,
-0.041569933,0.021064665,
-0.009406559,0.033220235,
0.09583975,0.049765732,
-0.007894064,0.0071840147,
0.03852179,-0.013067098,
0.058653507,-0.07888869,
0.0457981,-0.00106791,
0.06588115,-0.037527103,
0.031921495,0.049542535,
-0.005903718,-0.08201272,
-0.039473116,-0.025331017,
0.033811465,0.02528204,
0.03016067,0.03944994,
0.075617425,0.060250916,
-0.036678407,0.021122824,
-0.04807291,-0.016233403,
0.06940746,-0.03665663,
0.013082619,0.020483173,
0.030339062,-0.08616754,
-0.035429295,0.018665953,
-0.0393775,0.012914107,
-0.0002897399,-0.04246697,
0.07970388,0.06582646,
0.009732907,-0.019197706,
-0.11292598,0.16212481,
-0.042389646,-0.08628934,
0.004026145,0.034288432,
-0.014921486,-0.06323462,
-0.015222042,-0.024703976,
0.001395262,0.040079203,
-0.019276882,-0.026238864,
-0.08223012,0.032812085,
-0.04570738,-0.033546902,
-0.053929403,0.04869371,
-0.033380415,0.040316116,
0.09394051,-0.020310733,
-0.04992689,0.06068202,
0.055747937,-0.063381925,
-0.0068397024,-0.019880405,
-0.01568366,-0.017141866,
0.033127856,0.10055458,
-0.063801296,0.026187167,
-0.024400985,-0.0030113424,
0.010418745,0.045365684,
-0.0101187,-0.028441263,
0.037515957,0.01945311,
0.0188709,0.0070289876,
0.057837054,-0.030500146,
0.05938918,0.08143211,
0.04948053,0.009061419,
0.022993622,-0.03672518,
0.050968893,-0.06883493,
-0.058572736,-0.04857032,
0.013502389,0.033325594,
0.030027522,-0.032566965,
0.0040322896,-0.038972978,
-0.028767914,0.022366341,
-0.11102394,0.025522575,
0.007092932,-0.08032199,
-0.047550537,0.014596028,
0.009145567,0.04113188,
-0.007878046,-0.09236542,
0.044513367,0.025318822,
-0.03531102,-0.10513751,
-0.0048860703,-0.11695389,
-0.005548718,0.0667244,
-0.08198871,-0.00034786455,
-0.03034819,-0.05272426,
-0.060850743,-0.044802867,
-0.03229268,0.09939756,
0.02076406,-0.05583545,
0.04210298,0.022365762,
-0.10896552,0.059682548,
0.08179403,-0.03853988,
-0.018986762,0.065131605,
-0.0015442969,0.0286015,
-0.034569558,0.0006693994,
-0.017106067,0.06152869,
-0.013212486,0.07790781,
-0.039500546,0.019271323,
0.029530035,-0.024889683,
0.06246472,0.055683672,
0.015376709,-0.0022011008,
-0.040672265,-0.029649805,
-0.08661512,0.10443715,
0.019271823,0.04446161,
-0.0058312323,-0.019316427,
0.073060155,0.029192884,
-0.076866046,-0.02994877,
-0.08164942,0.01992719,
-0.11267532,0.03152713,
-0.01739697,-0.030472113,
0.034438267,0.041772887,
-0.057877958,0.052000485,
0.08768689,0.08825248,
-0.056137007,0.05250747,
-0.075233206,0.026049051,
-0.00706995,-0.01850674,
0.055470962,-0.03454778,
0.0048509394,0.01986132,
0.052989528,0.07794025,
-0.019832693,-0.06847951,
0.023741616,0.008499448,
0.057933744,-0.017802937,
-0.081181385,0.06738017,
0.024308614,-0.0110776685,
8.8562956e-05,-0.026935974,
0.008157661,-0.007808653,
0.017500127,0.05590749,
0.08708734,-0.037678443,
0.012480208,0.025366524,
-0.016414551,-0.017121997,
-0.094919436,0.019236133,
-0.029939763,-0.025473384,
0.035183836,-0.010051791,
0.011585357,-0.134661,
-0.047282234,-0.0045782896,
-0.090986684,-0.032185312,
0.026415577,0.09092386,
-0.0017000979,-0.0008369103,
-0.028250314,0.12512308,
-0.04140255,-0.09380412,
0.030079452,0.030237302,
-0.07796561,-0.036532074,
0.013981678,-0.026560072,
-0.049596366,0.047048647,
-0.03456997,0.0033618743,
0.019443428,-0.039780762,
-0.018154504,0.045591567,
-0.03154394,0.03463622,
-0.0037486234,0.0037077274,
0.0043156166,0.054757927,
0.06202875,-0.02745901,
-0.08835148,0.09539156,
-0.04553414,-0.041522052,
-0.037946682,-0.048716813,
0.10602211,0.058065955,
0.004615872,0.043077458,
-0.044560343,0.040797718,
0.014813321,-0.0136934845,
0.04875153,0.0046462747,
0.024699012,-0.05755093,
-0.0016994138,-0.04242759,
0.0133077,-0.026232677,
0.040565737,0.08326741,
0.06490058,-0.06725061,
-0.009094455,0.118399784,
0.047375184,-0.01980473,
-0.04528134,0.06098388,
-0.07267218,0.07783505,
0.034594152,2.5475045e-05,
0.14127797,0.00815142,
-0.046862744,0.05134515,
0.0018485097,-0.006219524,
0.09076295,0.044909213,
0.04284797,0.028137645,
-0.05299708,-0.062216226,
0.006833984,0.0088456655,
-0.00647938,0.03246674,
-0.0117339725,0.06702996,
0.09624555,-0.06328833,
0.013444163,-0.00070148334,
0.07506252,0.019798722,
0.025647543,-0.03862099,
-0.04346732,0.036877424,
-0.04610004,0.0070168427,
0.050247837,0.102365576,
0.06452133,0.03298289,
-0.08180756,0.01464084,
0.02121672,-0.01177558,
-0.14561899,0.052712295,
0.04478868,0.02329674,
-0.08696892,0.016770702,
0.029784365,-0.08451205,
-0.04515372,-0.017037518,
-0.049108993,0.014752366,
-0.016438337,0.028691841,
0.034060378,-0.046424337,
0.011306202,0.031020507,
-0.05128934,0.12778969,
0.06083876,-0.05628456,
0.09734526,0.028176304,
-0.014459879,-0.0018605344,
0.004018971,0.117874004,
-0.02453653,0.007637325,
-0.034767184,0.013776524,
-0.05211018,-0.032647256,
-0.032564845,0.00067467126,
0.02805738,-0.045691475,
0.06022063,0.077367075,
-0.023909489,-0.057897244,
0.047265682,0.0045539457,
-0.05659883,-0.030507993,
0.035376582,-0.05495259,
0.007846448,0.0034660867,
-0.034594264,-0.0033368494,
0.09348227,-0.012474241,
0.04214476,0.07089551,
-0.00873061,-0.056285888,
-0.042250786,-0.032383006,
-0.109198645,-0.07533451,
-0.1295486,0.06608724,
-0.047964603,0.06374488,
-0.015736217,-0.021566646,
0.024023823,-0.001549599,
0.045454644,-0.022549875,
0.09447976,0.0070234793,
0.0051371898,0.03402164,
0.11392325,0.060214918,
-0.023168918,0.025588386,
0.019798478,-0.07737068,
-0.02142685,-0.07228999,
-0.049820233,0.028329961,
-0.004742551,0.016999451,
-0.013338398,-0.0100837955,
-0.029613303,-0.017709663,
-0.02766898,-0.01567605,
-0.026442958,0.056491863,
0.021901522,-0.0956986,
-0.034298062,-0.0069576404,
-0.031036628,-0.028714297,
0.010137358,0.081247665,
-0.0045465413,-0.07399319,
-0.08321792,0.021454213,
-0.015384031,-0.07383123,
-0.021701932,-0.009168654,
0.011175093,0.03951549,
0.025416084,0.0197196,
0.060766533,-0.003448112,
-0.019642517,-0.09375875,
-0.08850466,-0.013174575,
0.088946655,0.062182013,
-0.007895068,-0.10422688,
0.05876269,-0.0048782127,
0.014626011,-0.011986446,
-0.029460017,0.0555486,
0.018750181,0.019947607,
0.038450237,0.009731417,
0.01283911,-0.019593844,
0.027822895,-0.03493971,
0.027890388,-0.030514754,
0.009965324,-0.051162284,
-0.025523765,-0.05078872,
0.05476759,0.09022816,
-0.010036973,-0.07218083,
-0.00956939,0.044665795,
0.029812442,0.04667901,
-0.09664482,-0.063957155,
0.042816125,-0.020066949,
-0.099702455,-0.074907,
-0.00836,0.032461435,
0.014890025,-0.034082823,
0.07313781,0.016805789,
-0.03881138,-0.014044031,
-0.023750706,0.008326314,
0.036039285,0.0345488,
0.08902962,-0.02492974,
-0.10101322,0.045457937,
-0.057379175,0.01176603,
0.081842765,-0.015345861,
0.039478306,0.026600812,
-0.079150245,-0.013346847,
0.039024502,0.0261953,
0.03018653,-0.0070883175,
0.04872567,-0.12783894,
0.011626838,0.053382367,
-0.06885266,0.023672322,
-0.003908974,-0.041135333,
-0.085249074,0.0354993,
0.038069714,-0.028328132,
0.013862732,-0.026043974,
0.03657428,-0.026512802,
0.058743782,0.012402189,
0.02247379,0.027248261,
-0.039812747,0.07101409,
0.046930965,-0.088534415,
0.031690903,0.07349954,
-0.036403555,-0.07830438,
-0.016372718,0.002984895,
0.013619667,0.040383257,
0.010670934,-0.060010146,
0.03474682,-0.030239286,
-0.0039902832,-0.0747052,
-0.078898385,-0.050912965,
0.047431704,0.03476822,
-0.062225614,-0.0702351,
-0.0190877,-0.08332805,
-0.14387868,-0.049959127,
0.030489637,-0.026160475,
-0.04438883,0.01003418,
0.07841367,0.030280435,
-0.049818214,-0.049284637,
0.017242337,0.014032969,
-0.03594456,0.026849123,
-0.005570217,0.0053569367,
-0.046039857,-0.024395311,
0.044821575,-0.05569392,
-0.0005656268,0.08540332,
-0.0074282116,-0.055499256,
0.026470551,0.01085153,
0.08091988,-0.092210084,
0.0019128843,0.032033302,
-0.036253825,0.05046327,
0.029720293,0.017150065,
0.001880932,-0.020520698,
0.14898403,0.029516296,
0.055132754,0.0039529027,
-0.010719348,0.053320345,
0.0045582764,0.021100678,
-0.0075162807,-0.042323116,
0.040247634,-0.10664355,
-0.006302224,0.06644897,
-0.01996685,0.008262881,
-0.043932676,0.011807771,
-0.05996286,-0.039907616,
-0.044282984,0.023640461,
0.037127323,-0.09199059,
-0.07333371,-0.0696544,
0.037457567,-0.027921567,
0.039329782,-0.12883095,
-0.05311283,0.055297583,
-0.031065391,0.0042126137,
-0.049273416,0.019216698,
-0.0202728,-0.021661783,
0.0156645,-0.037345123,
-0.07743917,0.041846395,
0.012304795,-0.027860506,
0.067074634,-0.052237958,
0.032490786,-0.04199314,
0.0042216782,0.04482325,
-0.07770784,0.0024962157,
0.008978672,-0.094155446,
0.022562547,-0.018540146,
0.084614515,0.0297427,
0.052797973,-0.012422863,
0.031400003,0.052594632,
-0.018375037,0.029492212,
-0.0083618825,-0.13739584,
-0.00026947755,-0.07989696,
-0.066371284,-0.041198872,
-0.07639952,-0.051813774,
0.0108925635,0.008533135,
-0.07401568,-0.0062290174,
0.009720543,0.061735995,
0.022460055,0.018229635,
0.025227154,-0.002898787,
0.051860936,0.03446138,
0.11101711,-0.002817411,
-0.0050555384,-0.07982482,
-0.005978377,-0.030676894,
-0.02196267,-0.00972344,
-0.040024336,-0.010853331,
0.029325508,-0.030325493,
0.019104969,0.08187791,
0.054512527,0.0896262,
0.017693812,-0.010651384,
0.0859222,-0.038553167,
0.07508531,0.012787629,
-0.05861092,-0.0077746506,
0.0017234763,0.0012154577,
0.02291698,0.001154351,
0.0031312013,0.114920996,
-0.100978136,-0.038288247,
-0.013937693,0.03833536,
-0.04712861,0.043043092,
-0.09181769,-0.011181605,
-0.027399573,0.058512986,
-0.0007872655,0.046391904,
-0.11346973,-0.006485576,
-0.0005508738,-0.027638523,
-0.023163695,-0.05181894,
0.056731075,0.073427275,
0.053300336,0.0040502273,
-0.041372277,-0.04884566,
-0.01086255,-0.0318411,
0.02741069,-0.04817672,
0.060404416,0.018816361,
0.038048144,0.011689555,
0.059604116,-0.027768696,
0.05038154,-0.07117756,
-0.025746364,0.012115513,
0.008342097,-0.071651444,
0.0378367,-0.025367131,
-0.09665284,0.03654453,
-0.046114173,-0.07179016,
-0.024889352,0.00868888,
0.037598804,0.0050993427,
-0.029806795,-0.0546442,
-0.00788445,-0.0034784307,
-0.020937672,0.14655465,
0.007079498,-0.048890684,
-0.024613347,0.029864246,
0.0033430357,0.15379316,
-0.004042446,-0.030658942,
0.0023353696,-0.07919331,
-0.061675727,-0.025162654,
0.00543322,-0.017411178,
0.09859018,0.056865297,
0.00987947,-0.059790988,
-0.056951456,0.03765561,
-0.07199651,-0.016308248,
-0.02272248,-0.0222805,
-0.06345127,0.014939317,
0.009881292,0.052246626,
0.011625747,0.05417224,
0.02158755,-0.059801005,
-0.01931064,-0.055430643,
0.07813212,-0.07504249,
-0.0053135357,-0.012829357,
0.06669029,-0.040100202,
-0.06559182,-0.074207574,
-0.04014327,0.005138715,
-0.050920084,0.017058892,
-0.07361633,0.004659162,
-0.0025001583,-0.028529488,
-0.102626175,0.0007181288,
-0.052363615,-0.043564253,
0.011500994,0.008497458,
0.08806737,0.0021916123,
-0.08797353,0.022706363,
0.017068611,0.016514048,
-0.11993973,-0.028413188,
0.025384955,0.040749647,
-0.10238165,-0.022199491,
0.06785092,0.022519711,
0.010433058,-0.04196775,
-0.042634413,-0.041546665,
0.011504773,0.06913645,
0.031074015,-0.023888338,
0.027184138,0.046492968,
0.010847914,-0.04107218,
0.0012169782,-0.077051245,
0.02521508,0.060373545,
0.020594459,0.06809158,
0.00096048927,-0.059623633,
0.01810757,0.047093414,
-0.016054245,0.02056707,
-0.10567684,-0.03013666,
0.08102175,0.02863503,
-0.062392544,0.01463301,
0.05801045,0.0074868603,
-0.0053373813,-0.09688965,
0.0078028184,-0.049871523,
0.039531335,0.004671259,
0.14342038,-0.13149352,
-0.08230768,-0.03213312,
0.06465398,-0.04357381,
-0.067440145,-0.004563219,
0.028713208,0.02836322,
-0.03147105,0.029606564,
0.009026584,0.009885044,
0.04675342,-0.012659564,
-0.029605635,-0.07287522,
-0.048442114,-0.032590866,
-0.0040309266,-0.013092354,
-0.04420684,0.0896891,
-0.061240498,0.018395687,
0.018443229,0.052568402,
-0.021677488,0.015807742,
-0.07614608,-0.013410902,
0.01330077,-0.017722093,
0.058624838,0.0040330235,
-0.042082224,0.036434576,
0.06675275,0.028742593,
0.03877146,-0.023356253,
0.0630218,0.015034632,
-0.025931815,0.01648912,
0.053332575,-0.011795607,
0.04105214,0.030572938,
-0.047867153,-0.0008061375,
-0.07080755,-0.080322884,
-0.04542497,-0.006760405,
-0.02517007,-0.0018071689,
-0.060118172,-0.023022631,
-0.0595283,-0.095537096,
-0.052904934,0.0036631739,
-0.0008694886,-0.027769098,
-0.06781423,0.018924817,
0.013790678,0.016471952,
0.1081964,-0.048901748,
0.019126073,0.00044949498,
-0.050789915,-0.02681368,
0.002923587,-0.038825262,
-0.03714251,0.003679633,
0.047537357,-0.016722377,
-0.011300974,-0.010849155,
-0.049801167,-0.0488601,
-0.07065147,0.024895322,
0.057194807,-0.012321773,
0.073139325,0.004135543,
0.038862016,0.013192003,
0.0736976,0.038799856,
0.039731577,0.033617187,
-0.016284166,-0.024023693,
-0.020278348,-0.008129979,
-0.011956636,0.018293632,
-0.018746234,0.005430845,
-0.1264395,0.04912141,
-0.051510457,0.0046563162,
-0.046042267,-0.002496822,
0.0071592326,0.06613665,
0.022262778,-0.032807704,
-0.0073289853,-0.07588138,
-0.0031539155,-0.089879826,
-0.04581862,-0.026096582,
0.012906482,0.12994705,
0.08129629,0.052601166,
0.07409272,-0.02667214,
-0.052868176,-0.03646131,
0.0218646,0.11062923,
0.025932062,0.10568598,
-0.012721824,0.032912876,
0.034311216,-0.0748907,
-0.09913175,0.020594636,
0.01106195,-0.023508403,
0.016558586,-0.00694383,
-0.012524621,0.0023479064,
-0.026231833,-0.06221572,
-0.026258823,-0.050801337,
-0.037356663,0.07388344,
0.06310686,0.05754592,
-0.02056201,-0.031607326,
-0.08527063,0.01496501,
-0.04728422,-0.07084926,
-0.06107933,-0.075849615,
0.05792618,0.05708879,
0.044771414,-0.070878305,
-0.015137425,-0.036948606,
0.031663973,0.027541049,
0.011387866,-0.029079525,
0.027210379,0.08755932,
-0.004254581,0.0135992905,
0.08022252,-0.009583441,
0.021565989,0.05621508,
0.028318709,0.05774111,
-0.011908563,-0.03075138,
-0.03132624,-0.052832358,
-0.0084943455,-0.058896184,
0.077814125,0.03280976,
0.10678045,0.027706454,
0.028642986,0.10429518,
0.06314093,0.044860393,
-0.010943104,-0.06523169,
-0.057276003,-0.08284002,
-0.057220552,0.015501241,
0.03525798,0.014721293,
0.01414213,-0.010018078,
-0.014346216,-0.02158871,
0.07281166,0.015051335,
0.019080661,-0.011026561,
0.067821994,0.053630207,
0.07604041,-0.09188253,
0.002314856,0.048463937,
0.029848274,-0.06154018,
-0.012850889,0.12693353,
-0.07573187,0.014162484,
0.058980804,0.1075633,
-0.031960826,-0.011885389,
-0.05148001,-0.017381402,
-0.045610465,0.019013705,
0.07665052,-0.042507015,
-0.019624436,-0.03606107,
-0.047439307,-0.018983703,
0.030893438,-0.011704973,
-0.012595645,0.03019203,
-0.07439306,-0.022500027,
0.06495866,-0.0051827873,
0.0017159856,-0.08714511,
0.06252362,0.019633254,
-0.019138293,0.01755012,
0.045404103,0.10053237,
-0.003101256,-0.053983446,
0.06501435,0.077178866,
0.010477561,-0.0062693735,
0.011249525,0.0039205533,
0.07590084,0.03358176,
0.06364674,0.011293541,
-0.041388977,-0.063224904,
0.02851795,0.006603343,
-0.004820053,-0.01874805,
-0.026828917,-0.07115778,
0.054824177,0.010794518,
-0.008294059,-0.0062313955,
-0.0652063,0.063974045,
-0.01792937,0.017770177,
-0.051674347,-0.031039726,
0.0013360971,-0.050886665,
-0.08361739,0.0049964003,
-0.1161849,0.09127187,
0.024500329,0.0050494894,
-0.011173095,0.020073561,
0.026367186,0.009040998,
0.0068318103,0.02224389,
0.043923825,0.057854336,
0.064126514,-0.037379242,
-0.0010237726,0.11307856,
-0.022380335,-0.010436181,
0.026230296,0.023037402,
-0.07236475,0.056639615,
0.07867626,0.039703444,
-0.011760386,0.003761035,
0.08917873,-0.037734307,
0.067140795,0.013307424,
-0.07536701,-0.009529444,
0.07080732,0.011550399,
0.0063111493,0.06046192,
0.037612226,0.033383653,
0.11985439,-0.036669478,
0.04292054,0.14010462,
-0.03165971,0.03283966,
-0.005654217,0.010104544,
-0.022932785,0.0027007891,
-0.02665557,0.031429972,
0.05140383,-0.072025865,
0.031222409,0.015926559,
0.06813621,0.012245566,
0.09299909,-0.056572434,
-0.056631718,-0.06724423,
0.04582886,0.008178291,
-0.009306349,-0.0034931572,
0.016935207,-0.05111553,
0.025393028,0.07416527,
0.02700061,0.010718411,
-0.020584835,-0.07988778,
0.0024124125,-0.042187862,
0.029197007,-0.052798666,
0.036545105,-0.013408303,
-0.052988105,-0.036899555,
0.021776218,-0.02341555,
0.057561282,0.028253382,
-0.06475297,-0.03570168,
0.09039054,-0.06619063,
0.049889587,0.04757745,
-0.044744145,-0.013760084,
-0.08530152,0.048203614,
-0.06736758,0.015471342,
0.012423412,0.074058965,
0.027771197,-0.017429747,
-0.001716052,0.002458876,
0.06921809,0.0065629925,
-0.00643018,0.04084153,
-0.043108284,-0.050621923,
-0.0898221,-0.045534633,
-0.031371735,-0.017037624,
0.04722403,-0.021848518,
0.018311806,-0.007544081,
-0.016740756,-0.010558072,
0.029644858,0.13470915,
0.07002347,0.019645004,
0.110597946,0.03001128,
-0.078284726,0.011787311,
-0.13738956,-0.04305066,
0.02666139,-0.09693077,
0.018013654,0.073212974,
-0.0019809557,0.009332461,
0.011488571,0.09026107,
0.00012615405,0.01099727,
-0.022927312,-0.008178743,
-0.01876658,0.07985464,
-0.032431837,0.036588613,
-0.07496962,-0.030291611,
-0.028606595,0.005405416,
-0.032009266,0.047938693,
-0.040648855,-0.021903627,
-0.033808675,0.069060944,
-0.0019062782,-0.03879419,
-0.051592633,-0.049464703,
-0.017123738,-0.110447146,
-0.010701013,0.011199515,
0.043036938,0.030442184,
-0.0061185854,0.12582754,
-0.017055951,-0.07486343,
0.033810344,0.005688978,
-0.0022269222,0.0046695336,
0.03224549,-0.0018209933,
0.046021957,0.031919446,
0.027336607,-0.086607456,
0.02807651,0.00024205656,
-0.059712198,0.047255356,
0.12014059,0.03903796,
-0.038378663,0.027162349,
-0.049049724,-0.018735135,
-0.01193296,-0.039852146,
0.035583265,-0.068393834,
-0.007180428,-0.009808882,
0.09181393,-0.09426064,
-0.037589893,-0.08036992,
-0.041440584,0.029654166,
0.0130612105,0.007718946,
-0.09305383,-0.043173682,
0.01867125,-0.019921662,
0.032573037,-0.074491166,
0.010998317,0.014099977,
0.009761264,0.026907098,
-0.08768854,-0.101516694,
0.0017591177,-0.023942089,
0.010887906,0.14549685,
-0.0011542749,-0.05294953,
-0.041290566,0.07313084,
0.010894294,-0.0809192,
0.028497616,-0.052906845,
-0.13689813,-0.002747753,
-0.06883128,0.01745083,
0.043507837,-0.0152955,
-0.017572174,-0.09805045,
0.008261464,-0.034425847,
0.024736833,-0.075971544,
0.03745671,-0.017401423,
-0.019369077,0.07002495,
0.007525139,-0.061530374,
0.003685227,-0.026364315,
-0.0019379564,0.027039817,
0.04249729,0.07465103,
0.011316297,0.015069736,
0.041092094,0.038388364,
-0.06632763,0.04310591,
-0.07908712,-0.03761463,
-0.025135424,0.011739667,
0.05376331,0.035747066,
0.008436077,0.015005061,
-0.0038547127,0.012997897,
0.0066360324,-0.021520449,
0.05489362,-0.049741015,
-0.046869293,0.022431064,
-0.029894533,0.011665568,
-0.08007428,0.0035883177,
-0.015862828,0.06928379,
0.14389189,-0.09282081,
0.07313391,0.015187562,
0.056714885,-0.009897934,
0.043974668,-0.029132605,
0.020595448,-0.057300955,
-0.01876864,-0.056222644,
-0.021650467,0.066236064,
-0.002644838,0.011167903,
-0.008388186,-0.033928543,
0.10944389,0.05103406,
-0.026722012,-0.04193085,
0.029506862,0.0681393,
-0.0140957525,-0.025929896,
0.028855618,0.017699072,
-0.04101297,-0.024875801,
-0.01940145,0.02162287,
-0.051513042,0.026672868,
-0.011606849,0.12028314,
-0.009407903,0.0311643,
-0.0028229286,-0.011886233,
-0.022146039,-0.068516,
0.10505418,-0.020942831,
0.0034362932,-0.07768547,
0.031623468,0.023185553,
-0.07419114,0.02180296,
-0.06730591,-0.0019500275,
0.12697507,-0.08595011,
0.027372498,0.055058744,
-0.035490964,0.023277411,
-0.0002959068,-0.013981136,
-0.006220491,0.07690266,
0.054213215,-0.013983312,
-0.043528516,0.06753983,
-0.031074263,-0.02189585,
-0.11925218,0.083901845,
0.024329502,0.032586005,
-0.049836006,-0.039672397,
-0.07862178,-0.008234119,
0.08478876,-0.070744485,
0.014599119,0.043398656,
0.06482945,-0.015467288,
-0.018195158,0.043691367,
-0.04038778,-0.024457641,
-0.0056613064,-0.045933202,
0.06979786,0.03914462,
0.043420322,0.027963677,
0.033497818,0.062764384,
-0.08585947,-0.05536813,
0.015478354,0.0661675,
0.020679386,0.04659671,
-0.04424297,0.08232746,
0.112010546,-0.04107634,
-0.053246487,0.03401156,
0.016080484,-0.057846215,
0.035765417,-0.07158677,
-0.002352821,-0.032198735,
-0.010639153,0.0017029835,
0.06852351,0.061064463,
0.03028756,0.047692005,
-0.0034161513,0.046241716,
0.01941493,-0.0033394827,
-0.026088968,0.039069,
-0.041457225,-0.042014964,
0.020102954,-0.012618609,
0.057937667,0.0208303,
0.050993122,0.008565775,
0.05135209,0.016778342,
-0.072000585,-0.029048221,
0.060535956,-0.013207776,
0.09173808,0.01991715,
0.016833197,-0.02337362,
-0.0040765973,0.059188798,
0.006649653,-0.024993869,
-0.06656786,0.045635656,
0.0042442526,-0.012927634,
-0.000916276,-0.053851813,
-0.062117208,0.011270336,
0.06856602,0.024199644,
-0.05825595,0.018474972,
0.07135368,-0.05716137,
-0.07898651,-0.021857314,
-0.096316144,0.027536107,
0.011807379,-0.025074467,
-0.031689804,-0.021632368,
0.010990753,-0.080481276,
0.07683738,0.023740336,
0.053670324,0.037283383,
0.029073998,0.08204388,
-0.00043831466,-0.072861254,
0.02665864,0.085875414,
-0.0038203741,-0.013333105,
-0.05505837,0.012025259,
-0.0052623837,-0.0083523635,
-0.01885865,-0.053269774,
0.049466982,0.12442953,
-0.0065655,-0.092648774,
-0.080490224,-0.10077796,
-0.005477722,-0.043889206,
0.025812533,-0.038056333,
0.053616967,0.06780234,
-0.1024842,-0.025442816,
0.048055552,0.020915408,
-0.053791247,0.009246124,
-0.06892863,0.05421717,
0.011301769,-0.017214417,
0.03372232,0.019695738,
0.017126875,0.040810272,
-0.07745869,-0.08557306,
-0.09000372,-0.015378806,
0.05396162,-0.06862809,
0.11720491,0.0319974,
-0.029448807,-0.0038592895,
-0.11201892,-0.060370047,
0.02996146,-0.102955565,
0.07287722,0.041512642,
-0.0014446242,-0.0115247695,
-0.0099645015,-0.032676183,
0.013168972,-0.027046159,
-0.027301986,0.026784228,
0.0044428343,-0.0028036896,
0.050311103,-0.051045515,
0.002098479,-0.10314838,
0.038253546,0.10293171,
-0.0134247085,0.025721341,
0.0076414985,0.0012540378,
-0.040767375,-0.016916672,
0.026696233,0.046224806,
-0.010489432,-0.09260268,
-0.0069338353,-0.04092412,
-0.056860145,0.05163586,
0.029725239,-0.048032578,
-0.039243918,-0.04483384,
0.0161032,0.011187231,
0.0016217609,-0.03008854,
-0.050392102,0.10189324,
0.10350283,-0.013915023,
0.049173824,0.08142085,
0.04708879,-0.075943865,
-0.082851775,0.011092148,
-0.0341824,-0.075218685,
-0.054218497,-0.03789667,
-0.0865277,-0.1297791,
-0.03335037,-0.0070680473,
0.03519634,-0.06629041,
-0.016323118,-0.10232394,
0.0747492,0.050516844,
0.051804487,-0.019371869,
0.028287642,0.032975562,
0.013291178,0.025579825,
0.0030573276,0.0043568388,
0.02774337,0.02235028,
0.002700068,-0.112683386,
-0.027664125,0.06657097,
0.072954044,0.054917894,
0.018723227,0.030533481,
-0.022967381,-0.048766885,
0.009189392,0.024484286,
0.037758,0.008217347,
0.05227229,-0.071149126,
0.065038376,0.13661952,
-0.028687527,0.017920978,
-0.016907621,0.007916271,
0.044374216,0.020890648,
-0.046738006,-0.007302115,
0.07614934,0.016846793,
0.060761895,0.0032419253,
0.011067394,-0.009686522,
0.12239351,-0.048585657,
-0.02198295,0.04955406,
-0.03812137,-0.01121357,
0.077924155,-0.032925457,
-0.074653305,-0.030709002,
0.037690017,-0.07161688,
-0.047781937,0.11520646,
0.046663173,0.017418656,
-0.024239602,-0.05985916,
0.05496856,0.0655007,
0.01779125,0.0476038,
-0.04447226,-0.041671213,
0.030365791,-0.051416833,
-0.060484074,0.065057166,
-0.006966167,-0.006505978,
0.009988038,-0.023401424,
0.05335581,0.062004637,
-0.031601343,-0.05867911,
-0.0032551335,-0.0933998,
0.04138588,0.0128548,
-0.043330777,0.050939992,
-0.033447497,-0.02516968,
-0.011025845,0.009702576,
0.020992367,0.050545357,
-0.014717922,0.06711341,
0.05383183,0.009209085,
0.055432666,-0.034639016,
0.061068732,-0.025831463,
0.08032529,-0.012324733,
0.060098223,0.017562838,
0.018581346,-0.025609862,
0.0048164665,-0.05280923,
-0.026255205,-0.053511094,
0.100460574,0.02437166,
-0.080827154,0.04203862,
0.072360165,0.06917678,
-0.07715153,0.028427085,
0.03209992,0.011043423,
-0.02329764,0.0027539055,
0.09634904,-0.042054404,
0.020155357,-0.051245406,
0.014617442,0.04865126,
0.02022922,-0.06507989,
-0.020687355,0.11774631,
0.028718892,0.05116245,
-0.036841094,-0.031390212,
-0.046378233,0.002505548,
-0.06934264,-0.044567462,
0.0125486255,-0.019862803,
0.0304218,-0.016467333,
-0.08237844,-0.07187443,
0.012820942,0.018761035,
0.06555965,0.048221253,
-0.06523064,-0.05802644,
0.053898204,-0.024109377,
0.033472937,-0.009602691,
0.009061959,-0.0741824,
0.005137719,0.014555333,
0.034669157,0.07695902,
0.04805045,-0.039422624,
0.017519977,-0.08014322,
0.00951127,0.042708796,
-0.023731973,0.049441665,
0.02028422,-0.0055763717,
-0.021163896,0.021463623,
0.09551169,-0.017931268,
0.05097169,0.026483905,
0.10484089,-0.056462865,
-0.02029969,0.10659031,
-0.074488185,-0.025227858,
0.056951836,-0.019450687,
0.029017659,-0.020766683,
0.06005104,-0.072686724,
0.058596395,0.036350943,
-0.026281007,-0.053461365,
0.044684615,0.06381855,
-0.0004416459,0.013018629,
0.0419705,0.042880487,
-0.040560983,0.08597094,
0.018786447,-0.057217788,
0.113175586,0.03160459,
-0.07096098,-0.054862186,
-0.080895424,-0.0204062,
0.04050031,0.032190945,
-0.044154085,0.048358776,
0.07851685,0.0016140166,
-0.07848809,-0.04903279,
0.098145135,0.08468753,
0.021620579,-0.11670937,
0.016087245,-0.021239975,
0.052910015,0.06403982,
0.01787705,-0.028021345,
0.060656708,0.022161381,
0.006227895,0.03358271,
0.044389024,0.022150675,
0.03677132,0.016153116,
0.12491369,-0.049842898,
-0.043797657,-0.043885864,
-0.11133154,0.028909342,
-0.031179633,0.08894765,
0.042935256,0.008028066,
0.039430127,-0.0027630148,
-0.057000987,0.031502932,
-0.09209847,0.04976811,
-0.04391778,0.023916665,
-0.019842178,0.06316297,
-0.017556747,0.009208471,
-0.035260946,0.078606494,
0.0009007725,-0.016227072,
0.003771118,-0.032063864,
0.0064524645,0.0049943933,
-0.02246424,0.009545768,
0.0006837366,0.04889217,
-0.07254296,-0.051103257,
0.031037463,0.04028225,
0.017800258,0.05235096,
0.08452677,-0.01626259,
-0.023755329,-0.014871833,
0.028874569,0.102293,
-0.0033489168,-0.048618376,
-0.06237039,0.002164227,
0.016811928,-0.03789114,
0.04341537,-0.05998421,
-0.013315663,-0.08678437,
0.09387213,-0.083712235,
0.07094611,-0.05968177,
-0.043669637,-0.07040049,
0.044122905,-0.0008249899,
-0.061791074,-0.019377591,
0.014430881,0.026195182,
0.08841709,0.027596869,
-0.005694034,0.048239868,
0.026232507,-0.005925799,
0.020612977,0.052697387,
0.005582072,0.07096588,
0.046985224,-0.04777535,
0.02782266,-0.006608959,
0.061107058,-0.0057652383,
-0.034275122,0.04043226,
-0.024143092,0.05872751,
0.021861892,-0.099236965,
0.09205198,-0.03823072,
-0.11567468,-0.01506239,
0.13593134,-0.020046571,
-0.06461608,0.020566598,
0.0058635385,-0.037256505,
-0.11986663,-0.011008878,
0.016173936,0.06166751,
-0.007900235,0.013022382,
-0.034795143,0.085994,
0.06750048,-0.024985382,
0.079886705,-0.06003079,
0.036920246,-0.05799706,
-0.06228455,0.1206374,
0.039049868,-0.05978299,
-0.0629858,0.05096704,
0.010891289,0.013591634,
-0.011642659,0.0043244837,
-0.039177462,0.0806073,
-0.031023761,0.030704863,
-0.05032282,0.041316196,
0.05478348,-0.10560318,
-0.022516252,-0.05897815,
0.007672973,0.03748904,
-0.050842073,-0.037122395,
-0.013474043,0.026132088,
0.06782237,-0.0040550237,
-0.019155994,0.042117376,
0.021168519,1.8351482e-05,
-0.055148236,-0.026501032,
0.024946518,-0.018700043,
0.030926874,0.042777974,
0.08975579,-0.014330167,
0.13540056,-0.011644985,
-0.009587906,0.07486004,
-0.013221917,0.00415105,
0.027549954,-0.0046911784,
-0.04771415,-0.060907736,
-0.063270815,0.042824183,
0.0007982943,0.031249437,
0.059003595,0.017542232,
-0.0044651367,0.02775179,
0.112979114,-0.13188523,
0.017893828,0.02030435,
0.09573967,-0.05620942,
0.04055574,0.07144461,
-0.054235257,-0.024858331,
-0.009700391,0.015176155,
0.012499686,-0.08285883,
8.52348e-05,0.09643879,
0.018352473,-0.0014818712,
0.051539857,0.013680202,
0.004139373,0.08075836,
0.032205492,-0.08770987,
-0.013359564,0.016258338,
-0.0047424478,-0.030918645,
-0.052830677,-0.07584154,
-0.055457268,0.03977644,
0.0009897047,0.0016532469,
0.001564358,-0.054743387,
-0.03550815,-0.042451464,
-0.039351422,-0.024733972,
-0.015044108,-0.09591791,
-0.009887241,0.04076445,
0.07219209,-0.031750515,
0.0118777575,0.015897335,
0.0053739417,-0.02411677,
-0.030051712,0.058425054,
-0.021060577,-0.049265537,
-0.0027346727,-0.07518089,
-0.044094358,0.008262611,
-0.044657942,0.017284809,
-0.0031023193,-0.023892155,
0.037514072,-0.04743476,
-0.061372,-0.0073573836,
-0.046400238,-0.012879576,
-0.020604348,0.033866275,
-0.008439192,0.08745311,
-0.013827923,-0.0011446514,
0.02443629,0.030839367,
0.013297324,-0.03943789,
0.014078901,-0.021982804,
-0.025223054,-0.00839388,
0.12142677,-0.04608837,
-0.032762524,0.005037231,
0.0643551,-0.061167464,
0.039290696,-0.08014492,
-0.0635324,0.04794581,
0.028926887,-0.008688172,
0.0561836,-0.048634,
0.012116192,0.05263187,
0.0022131556,-0.039140835,
-0.017309302,-0.060710374,
0.003641035,-0.10716319,
0.021375421,-0.031113226,
-0.05652212,0.016815692,
-0.011715623,0.03840416,
-0.031596314,0.027528647,
-0.062000856,-0.025997438,
0.072363816,0.1032403,
0.086605445,0.08432967,
-0.031024091,0.020920165,
0.066162445,-0.010854251,
0.03579208,0.077367045,
-0.019057412,-0.06530261,
-0.00817929,0.025900474,
-0.07460698,0.022444127,
-0.0042078816,-0.075683974,
-0.040241495,0.036361676,
0.01268321,0.019479327,
0.0115043055,-0.0053598857,
0.037407957,-0.081277005,
-0.077660464,-0.009989947,
0.04275299,0.027876196,
0.023562923,0.039617386,
0.009480106,-0.0025060175,
0.022083018,0.013236366,
0.03495742,-0.025963822,
-0.063346975,-0.011122144,
0.070197836,0.018874327,
-0.06693008,-0.01754829,
0.021547321,0.0030371835,
-0.08606602,0.03776746,
-0.048325438,-0.051722027,
0.03259478,-0.021732628,
0.032131493,0.008782201,
-0.06403316,0.033845976,
-0.000101381636,0.049757823,
0.101297885,0.10164561,
0.035527438,0.043938413,
0.15428238,0.10323263,
-0.05898384,0.0033895518,
0.047895204,-0.067793235,
-0.008347436,0.023999657,
0.03232351,-0.062391188,
0.02618153,0.0011209219,
-0.07448704,0.020485656,
0.009969941,-0.057545558,
0.035629112,0.013753612,
-0.027710317,-0.032742593,
0.0027276776,0.10763757,
-0.017737389,-0.0637487,
-0.057569895,0.0057330607,
0.031869497,0.089249045,
0.027080711,-0.0027444481,
0.0517801,0.021308498,
0.061216492,-0.01214322,
0.011610255,-0.10431801,
-0.03591102,0.0032391828,
0.089361265,0.008330066,
-0.066885,-0.04041988,
-0.015308606,0.071165405,
0.021940682,-0.036365516,
-0.08210882,0.080139324,
0.046919465,-0.067642964,
0.03525415,0.069939084,
0.031071167,0.024804901,
0.041724455,-0.03643494,
0.076638594,0.004536816,
0.10918601,-0.05129439,
0.016487846,-0.00683102,
0.036123503,-0.03495566,
-0.010838469,0.019913433,
0.07335904,-0.003961799,
0.05113289,0.0412767,
0.02672255,0.056631602,
0.024905544,0.0016133463,
-0.019381618,-0.100566134,
0.026903829,-0.04985322,
0.050150402,0.023794994,
-0.00035732397,-0.004940579,
0.077247605,0.024041306,
0.005672758,0.017552821,
-0.015864627,-0.018669965,
-0.0024821658,-0.007340974,
0.045790374,-0.04062854,
0.045881353,0.0065815295,
-0.031176878,-0.010188498,
-0.05650063,0.038493246,
0.036564887,0.011464027,
-0.033376683,-0.056955554,
0.005818361,0.016514748,
0.0036826613,0.011131965,
0.08730642,0.047429036,
0.06680669,-0.0015187418,
-0.020608252,-0.05636864,
-0.014593262,-0.10870408,
0.03165604,0.004464756,
0.048871495,0.06626208,
0.037306402,0.04318369,
0.0038109655,0.045777626,
0.055634063,0.002209813,
-0.06658125,-0.055816796,
-0.06475188,0.072893284,
0.02755987,0.033755023,
-0.03136459,0.023999507,
0.060606714,0.026103774,
0.069427006,-0.061119635,
-0.07223751,0.02776754,
-0.0304301,-0.078532994,
-0.005841051,-0.017418481,
-0.005282379,0.040151637,
0.005417975,0.0267761,
-0.013528939,-0.00012255552,
0.0022480895,-0.00035496673,
0.009851685,-0.022469526,
0.02141692,-0.04459585,
-0.017793052,-0.026043259,
0.011189838,-0.008856357,
-0.055835187,-0.015050658,
-0.008633913,0.0101887435,
0.077245995,-0.05269284,
-0.030130537,-0.013174738,
0.045835443,-0.020629136,
0.04542497,0.03106842,
-0.021326298,-0.033716086,
0.029568903,0.030987652,
0.05151542,-0.060693122,
0.008952478,-0.027178353,
0.030755242,-0.029932301,
0.09540369,0.026168626,
-0.01979749,0.107978806,
-0.006524604,0.083137885,
-0.008343026,0.018106012,
0.005890497,-0.012031057,
-0.020961858,0.0323519,
-0.027918348,0.043176964,
0.053101894,0.045181982,
-0.005225427,0.07237117,
-0.02125669,0.072046265,
-0.022150293,0.043426383,
0.061587065,0.004831168,
0.053929247,-0.012390334,
-0.07346897,0.021229057,
-0.008581007,-0.09566476,
-0.013243846,0.047838006,
-0.12666035,-0.003220187,
0.08534793,-0.042176627,
-0.012283119,0.060050722,
0.004794765,-0.07451449,
0.012448791,-0.03896307,
0.009499668,-0.03088424,
-0.0039756466,-0.052009787,
-0.007969986,-0.06108429,
-0.008957733,0.044693384,
-0.030897731,0.072672285,
-0.061400913,0.031287316,
-0.08953514,-0.0075921416,
-0.009696525,-0.020152248,
-0.027223902,-0.034151413,
0.022557525,-0.050948806,
-0.052230243,5.706365e-05,
-0.08095243,-0.12359778,
0.020946957,-0.02704224,
0.0362422,-0.039214876,
0.05960902,0.18341498,
0.012361716,-0.009620265,
-0.024195218,0.017630117,
0.014794993,0.023583362,
-0.01050162,0.019835662,
0.017030122,0.06304706,
-0.060817983,-0.028092774,
-0.011433514,0.01364989,
-0.003994014,-0.045417868,
-0.016692828,0.014952045,
0.053723007,0.073536396,
0.086333975,0.065737195,
0.118588805,-0.05568935,
-0.033646174,-0.088431865,
0.09347612,-0.0525027,
-0.034603868,-0.017481389,
-0.05826702,-0.025442433,
0.055117443,0.00031676926,
-0.009402849,0.03889417,
-0.02884053,-0.026207136,
-0.0009403453,0.027315473,
0.020876642,-0.05667643,
0.011967119,0.050957464,
-0.014024834,0.0012046618,
0.022721486,0.058927514,
0.082786255,0.011813008,
0.12343305,0.07223545,
0.03149081,0.038684934,
-0.033250034,0.06910011,
-0.063669875,-0.08297575,
-0.023658972,0.0022696962,
0.019999692,0.027210362,
0.12836415,0.021226935,
0.03818621,0.06152129,
-0.014034033,-0.07482803,
0.023956044,0.06205474,
0.008088472,0.08594102,
-0.008611984,0.012056715,
-0.03247533,0.022425216,
-0.002590352,0.037904456,
-0.05482531,-0.04576282,
-0.04402342,0.025035085,
-0.09798645,0.0066697025,
0.025924925,-0.068448365,
0.024518648,-0.023136413,
0.045321543,0.047773376,
0.1034478,-0.07254307,
-0.015661318,0.043016773,
-0.037797313,-0.042694263,
-0.013679162,0.0150832785,
-0.05879012,-0.03180949,
0.034602363,-0.019903865,
0.10650725,-0.086561345,
0.050294712,-0.052980974,
0.08627071,0.027299682,
-0.037844773,-0.042753156,
-0.03952109,-0.013532175,
-0.028318845,-0.029613785,
0.0268878,0.060512364,
-0.07450437,-0.03437065,
-0.054057762,0.021857852,
0.02509914,-0.02925876,
0.11297132,-0.028896505,
-0.040480822,0.05424483,
0.061260153,0.06856245,
-0.00047290855,-0.084747314,
-0.011473272,-0.04825669,
-0.06338814,-0.06206724,
0.008120909,-0.06193151,
0.03466099,0.005127131,
0.019415317,0.04370393,
0.014110893,-0.0003707845,
0.023641793,-0.0054760617,
-0.008582025,-0.053147748,
-0.022022758,0.00911884,
-0.03809518,-0.0051089763,
-0.03181669,0.015316509,
-0.04858826,0.030040486,
-0.065443754,0.14306335,
0.03636004,0.057826277,
-0.08260341,0.073899075,
-0.058518663,-0.054866742,
0.1353875,0.030042358,
0.052709505,-0.037839405,
0.039820507,-0.0059750765,
0.06600411,0.09760729,
-0.010397019,0.0054718023,
0.020298863,-0.086293586,
-0.13638918,0.020489482,
-0.013455271,-0.0028668288,
0.041556105,0.111951865,
-0.009715331,-0.01239123,
0.05592115,-0.02366048,
0.012183361,-0.011012221,
-0.020026596,0.022918532,
-0.030734858,0.08367904,
0.004899504,-0.0145696765,
0.0029399134,0.043901935,
-0.112942934,-0.101236306,
0.054240253,0.0018676246,
0.03575103,-0.04600888,
0.04051079,-0.025079863,
-0.0024138778,-0.0031001435,
0.0149549,0.016818458,
-0.10733451,0.050200935,
-0.009158187,-0.019950107,
-0.039594814,0.034990307,
0.049792506,0.0048500886,
-0.015219177,-0.043452047,
-0.072518066,-0.04020235,
-0.012705987,-0.05000649,
-0.04687876,-0.0066052405,
-0.037898075,-0.029209059,
-0.049982253,-0.029438559,
-0.06851613,0.069696754,
-0.009715059,0.008364897,
-0.04216928,-0.009736938,
0.04869197,-0.021582147,
0.008492896,0.003155629,
0.096615516,-0.0068239034,
0.072089426,-0.0029797573,
-0.012476237,0.009904814,
0.052046936,-0.08376584,
0.08621966,-0.049603716,
0.044163898,0.040253192,
-0.021490535,0.020656524,
-0.07357326,0.018152563,
0.07212539,0.052694228,
-0.009882033,-0.0009878967,
0.03367501,-0.015423183,
0.06716084,0.08116652,
0.008111262,0.007589926,
0.03772011,-0.059776206,
0.009724703,0.01400839,
-0.013341225,-0.016060874,
0.066384844,-0.036558144,
0.15446728,0.013216714,
-0.009722124,-0.039711934,
0.0036236916,0.070484206,
-0.0063120117,0.061405834,
-0.03146634,-0.042498507,
0.054876324,0.053049393,
0.026875885,0.048647217,
-0.004405863,0.0050449334,
-0.008400801,-0.038193855,
-0.001482451,0.018084828,
0.043367784,-0.063991725,
0.033750355,0.08583903,
-0.043732986,-0.014032224,
0.05943118,0.065978125,
0.01893798,0.110869884,
-0.030707002,0.061673928,
0.01852392,-0.020925337,
-0.046644814,0.076618835,
-0.017435495,-0.015209629,
0.028321708,0.010853425,
-0.09632241,-0.019806974,
0.027787881,0.055911038,
0.032908704,-0.040571243,
-0.053279236,-0.060501453,
0.032291777,-0.037405044,
-0.000627961,-0.020452224,
-0.028706249,-0.024273826,
-0.026542686,0.11841759,
-0.08903567,-0.076217294,
0.004663768,-0.06829527,
-0.027503565,0.015502238,
0.059820164,0.10539247,
-0.042272884,-0.034951087,
-0.03199403,0.055671863,
-0.05992348,-0.08652667,
-0.083381094,-0.014548672,
0.021971278,-0.044048812,
0.08794158,-0.028212972,
-0.0017359495,0.024461243,
0.0020482722,0.0067774286,
0.04369776,-0.054882914,
0.010803609,0.11494656,
0.020669619,0.035772875,
-0.0048315995,0.0127373375,
0.09177316,0.00617806,
-0.011899128,0.051746216,
-0.026658496,0.060757555,
-0.043458164,0.06364263,
-0.012480862,0.043510996,
-0.0020915312,-0.105890214,
0.015903188,-0.081166685,
0.07431943,-0.0012893591,
-0.061909284,0.019249974,
-0.002239658,-0.020797875,
0.040772643,-0.028387433,
0.005713136,0.03011488,
0.06246606,-0.045437258,
0.0626002,-0.013861762,
-0.028995555,0.05356933,
-0.029256748,-0.11402283,
0.07626228,0.05423374,
-0.009971882,-0.02355218,
-0.030295592,-0.0043720054,
0.028906303,0.10290548,
-0.033384994,0.0014687513,
0.0200697,-0.05812174,
0.043181047,-0.07475798,
0.10056284,-0.025798688,
0.0011548301,-0.003894233,
-0.020662237,0.010921091,
-0.08286837,0.03587037,
0.051328633,-0.02414059,
0.033221763,-0.076404996,
-0.012340595,-0.037565686,
0.028094197,0.01823324,
0.035029747,-0.03967881,
-0.044630416,-0.008825695,
0.073617056,-0.0413221,
0.11260734,-0.014293788,
-0.0073989187,-0.06554682,
0.028959071,-0.051053546,
-0.08014809,0.0027031787,
0.07318251,0.06478721,
0.003562474,-0.0006403091,
-0.05547117,0.054221977,
0.053351153,-0.0746546,
0.009413541,-0.022049872,
-0.080306955,0.030796008,
0.0029032924,-0.05082609,
-0.0070659164,0.030733828,
-0.032572396,0.010642738,
-0.050405607,-0.061012413,
-0.012533342,-0.061609652,
-0.01738344,0.0022044957,
-0.02876149,0.010037401,
-0.05276109,-0.07150288,
0.06423978,-0.076284625,
0.046931952,-0.020808885,
0.019073542,0.046418488,
0.008725593,0.008688648,
0.05365575,-0.11810344,
0.062308565,-0.00089730474,
-0.064130284,0.10704662,
-0.06802294,-0.060558654,
-0.025801806,-0.019585818,
0.050257098,0.058592957,
-0.031770304,0.016834438,
0.01985819,-0.007224173,
-0.015930595,-0.005374093,
0.022171907,-0.05019484,
-0.118178815,0.06414814,
0.0373816,0.047596205,
0.017845174,-0.09288455,
0.011530387,0.007822186,
-0.06558318,-0.10619694,
-0.039238665,-0.04097977,
0.06477909,-0.0785394,
0.02095972,-0.10480001,
0.019646788,0.032575283,
0.041850317,0.0035654765,
-0.038237553,-0.04699319,
0.024069602,0.012987156,
0.032787807,-0.065861546,
-0.013088921,0.057540804,
-0.012645113,-0.075899206,
-0.018464288,0.042560145,
0.09122491,-0.04098481,
0.0014317041,-0.05086064,
-0.016167622,-0.043530785,
-0.0023069144,-0.02622544,
-0.008971092,-0.03777874,
0.05972986,-0.0727364,
-0.030063886,-0.08473048,
-0.033725142,-0.017000442,
-0.015843825,-0.064357944,
-0.036701698,0.034440625,
0.004737848,-0.030861942,
-0.020292323,0.059169363,
-0.058081426,-0.0016946224,
-0.050393425,0.0372809,
0.011450168,-0.04976523,
0.092331596,0.088365816,
0.07157107,-0.042026382,
0.025020154,0.09182562,
0.029092086,-0.00837545,
-0.040110685,-0.044443615,
0.05586997,-0.035810653,
-0.0012613506,0.0034179462,
0.048708435,-0.03708285,
-0.048804272,-0.056834817,
0.13117371,-0.016032115,
-0.108497985,-0.028661843,
-0.060191274,0.004097163,
-0.032630846,-0.0067669563,
0.031664927,0.04875934,
0.037914813,-0.097217664,
-0.010201716,0.011661991,
0.037417315,-0.023607349,
-0.014260857,-0.0347572,
0.010949074,0.038793817,
0.041538015,0.044353366,
-0.013239176,-0.0215731,
0.014337791,-0.021677878,
0.012913677,-0.06834526,
0.037474953,-0.003935191,
-0.039347704,-0.036207605,
-0.023892427,-0.06280521,
-0.033671327,-0.030070849,
-0.0015614674,-0.03905695,
0.0037993642,-0.06617444,
0.0077814884,0.09366842,
0.08570625,0.028966773,
0.021332398,-0.042901684,
-0.020777693,-0.059057254,
0.06438665,0.021730766,
-0.06550195,0.012608231,
-0.011937232,0.010778178,
4.613123e-05,-0.034252033,
-0.007192013,-0.072419025,
0.078236684,0.023637127,
-0.008027187,0.008611868,
-0.047429617,0.018420365,
-0.006617281,-0.0017106055,
0.004827406,-0.12698029,
0.12510844,-0.04264757,
-0.037344176,-0.06987408,
-0.052746594,0.00831956,
0.0035395124,-0.026071323,
0.022991132,-0.03957459,
-0.065500334,0.0064765057,
0.010348427,-0.011204715,
0.025825385,0.028601581,
0.032572977,-0.060580887,
0.036179557,-0.05321332,
-0.022569684,-0.028786942,
-0.034969497,0.0077085914,
-0.011046988,0.061262716,
0.016508777,-0.063985154,
0.03072957,-0.035334747,
0.062080227,-0.020507604,
-0.043967757,0.04077711,
0.071967006,-0.052713953,
0.13726147,-0.013089644,
-0.031562403,-0.08401097,
-0.00918192,0.17417537,
-0.015905486,0.0021301932,
0.0439525,-0.03246049,
0.01893718,0.04186785,
0.049264118,0.021524366,
0.02263366,0.05707035,
-0.011839444,-0.055971827,
-0.0026287872,-0.043467283,
-0.01395664,-0.08476989,
0.079871766,-0.021201175,
-0.08097444,0.026377862,
-0.030203551,-0.03487169,
0.067897595,-0.03726936,
0.082734056,-0.019057889,
-0.05019846,-0.07359218,
-0.035250645,0.01915083,
-0.10027435,-0.002654857,
-0.04931885,-0.0019735494,
-0.031231835,-0.1173063,
0.049184985,-0.036492314,
-0.007089043,0.03991265,
-0.02407911,0.00541016,
0.053146943,0.056224138,
0.012009759,-0.028821314,
0.010136649,0.02670441,
0.014532145,-0.08656861,
-0.049360108,-0.040668346,
0.11300485,0.023080977,
-0.044185445,0.06753742,
-0.015052377,0.0078974785,
-0.020769512,-0.042017806,
-0.07135912,-0.09673464,
0.041458253,0.0060637486,
0.06790148,-0.006189139,
-0.0058672423,-0.09309918,
-0.022776827,-0.004780269,
0.016350152,-0.00045308925,
0.0572266,-0.034595024,
-0.0069920374,-0.032747533,
0.050588373,0.060790367,
0.00453237,0.00082844816,
0.019733883,-0.07247202,
0.011563772,-0.02841818,
0.043400794,-0.053697553,
-0.023390539,0.017761836,
0.004738548,0.04020338,
-0.026506089,-0.07941366,
0.15964021,0.038505107,
0.022904536,-0.09342713,
-0.007969265,-0.011868144,
-0.058922686,-0.060370144,
-0.0042277584,0.016739063,
0.011400764,0.005801953,
-0.02872337,0.04708868,
0.01387795,-0.025215663,
0.0026396222,-0.08441496,
-0.044609062,0.048181918,
-0.045659382,-0.03879935,
-0.0035773609,-0.08624386,
0.035266347,0.081105575,
0.062764235,-0.021376355,
0.0340162,0.049381614,
0.15018155,0.058937427,
-0.015708856,-3.085402e-05,
-0.018473277,0.013432225,
-0.032986455,-0.046126176,
0.017016169,-0.047555793,
0.0155026475,-0.09357658,
-0.013435999,0.050952565,
-0.030222496,-0.0008685321,
-0.013116669,-0.04612558,
0.0002356712,0.09393267,
0.003656908,0.02502176,
0.06106536,-0.033252172,
-0.013218967,-0.03276782,
0.065474294,-0.11192009,
0.013849255,-0.023705421,
-0.11433538,0.07493697,
0.027281253,-0.05844703,
-0.064011015,0.06684592,
-0.018523123,0.014837021,
-0.0856962,0.010526198,
-0.035157196,0.058026396,
-0.1020021,0.061337244,
-0.09936618,0.07233705,
0.015217527,-0.05692006,
0.04424162,-0.009241397,
-0.032571323,-0.05804378,
0.0041036103,-0.037510138,
0.02610364,-0.052795634,
0.016370416,0.06947634,
-0.03384513,-0.044278987,
0.03449266,0.02060048,
0.001858762,0.07306928,
0.0627317,-0.097959585,
-0.05683784,-0.021678302,
-0.0041405223,-0.01341632,
-0.03907016,-0.050368946,
0.009944675,-0.14439693,
0.051373668,0.028210236,
0.08690008,0.050903488,
-0.06547272,-0.026360596,
-0.035468277,-0.03280335,
0.060728632,0.0046917833,
-0.019942116,-0.036931746,
-0.0007264649,0.015983878,
-0.06840484,0.07211874,
0.018701144,-0.049475934,
0.01737426,0.0068104262,
0.03305481,-0.054555092,
-0.02452922,0.019321762,
0.008183186,0.02945796,
-0.056741614,0.0018305631,
-0.04622347,0.001338363,
0.028377116,0.010860487,
0.050244488,0.0025889827,
0.0047169942,-0.0077629383,
0.038071297,-0.028981974,
-0.018322833,-0.071472615,
-0.0687085,-0.0063558067,
0.019581046,-0.014732955,
0.058135256,-0.009345237,
-0.0035890955,0.086651474,
0.014468139,0.07150788,
-0.0708963,0.03809867,
0.045964643,-0.0115165785,
-0.05026314,-0.039954644,
0.03179453,-0.09664327,
0.027829804,-0.040392287,
0.06314139,-0.08064386,
-0.033952072,0.010318391,
0.047205884,-0.006327772,
0.050419103,-0.021552848,
-0.01813791,0.033905473,
-0.031481337,-0.051445354,
0.074080065,0.0159658,
0.04557394,0.027003013,
0.017762434,0.0020657831,
-0.040279865,-0.09093927,
-0.04524914,-0.05143602,
0.06396378,0.074675456,
0.0040708142,0.040103856,
-0.074617416,0.059035838,
0.03287006,-0.012058282,
0.03160812,-0.069749705,
0.06557766,-0.015438991,
-0.018771412,-0.020337656,
-0.033019595,-0.03771053,
-0.08036368,0.045045238,
0.010578855,0.060047213,
-0.12405763,0.008363446,
-0.0010112461,-0.0022844307,
0.08925938,0.036435068,
-0.08195518,-0.023342704,
0.06334148,0.008004227,
-0.019091941,-0.021682119,
-0.07868907,0.048564494,
-0.06602644,-0.049782008,
0.001535475,-0.052431516,
-0.017326154,-0.04496609,
-0.058381386,-0.0024688959,
0.09197194,0.0030267362,
-0.0041007134,0.034109414,
0.09361446,0.0041542114,
0.02088015,0.03137925,
-0.032148503,0.007302056,
0.013128291,0.0006085575,
-0.004608572,0.06825298,
0.021231122,-0.039018426,
0.09957387,-0.012053305,
0.057846356,-0.024675036,
-0.04443177,-0.020145485,
0.0298697,0.010301694,
0.0065544867,-0.08303848,
0.034610633,-0.019283492,
-0.08787327,0.01759551,
-0.023494545,-0.03773317,
0.05040543,0.07267612,
0.065962724,0.001788866,
-0.052961044,0.06495792,
-0.042484503,-0.028862191,
-0.018695377,-0.07787174,
-0.08713259,0.06399844,
-0.035816368,-0.038944684,
-0.040341634,-0.07553672,
-0.06359478,0.012879842,
0.049739193,-0.058007292,
-0.047780797,-0.0052592955,
0.025541298,-0.004367976,
-0.020125594,-0.020105578,
-0.040355448,0.056181945,
0.05176673,0.054941565,
0.06178219,0.020127047,
-0.03772684,-0.036871534,
-0.028205382,0.07881705,
0.0557151,-0.054649666,
0.010706675,0.07799199,
-0.061398756,-0.08737855,
0.015629986,-0.021768244,
-0.05951174,0.066912904,
-0.047376055,-0.0027567544,
0.0039003633,0.0055925054,
0.042965453,0.032477938,
-0.025508592,0.007937872,
-0.012359964,-0.061087955,
-0.018703857,0.058762845,
0.076214015,0.018213507,
0.0090490505,-0.026298374,
-0.039073896,-0.014082865,
-0.029392408,0.0636273,
-0.0300103,-0.03464358,
0.038719628,-0.031178266,
-0.020109074,0.006831507,
-0.05868897,-0.03373835,
0.014587036,-0.020864708,
0.041794054,0.01205773,
0.023304926,0.087920785,
-0.070362695,-0.051816892,
0.12600023,0.005793272,
0.05798866,0.029168332,
0.086657085,-0.10981986,
0.005939692,0.030060668,
0.007065804,-0.090174645,
-0.028160999,0.03262619,
0.043246392,0.02846141,
-0.019687818,-0.0041256496,
0.046012342,0.016958801,
0.0115245525,0.040564727,
0.0470317,-0.028111998,
0.009675092,0.04260015,
-0.0036254104,-0.009993839,
0.0009894121,-0.0195009,
0.041954942,0.01582169,
-0.029877888,0.06815847,
-0.008141992,-0.10008095,
0.049431756,0.031155633,
-0.035807263,0.038191516,
0.01367805,0.10405541,
-0.068620704,0.0035726281,
-0.06756257,-0.0007526612,
-0.031812124,0.03358164,
0.039021548,0.076632515,
-0.035110243,-0.019402782,
0.0069263363,0.01645231,
-0.011879421,0.05391363,
0.05352048,-0.004975991,
-0.0008345322,-0.11002131,
-0.0028005778,0.08323749,
0.031675197,-0.0034087806,
-0.006777951,0.042348694,
-0.06638728,-0.009863492,
0.018265335,0.010829041,
0.017129466,0.02997857,
0.030637283,-0.058500525,
0.009218685,0.086866625,
0.02377423,0.012169612,
0.08623187,0.026382107,
-0.06179202,-0.040016685,
0.05650503,-0.0574558,
0.049492955,-0.028991675,
-0.041296445,-0.0059758485,
0.10360955,-0.033518095,
0.043615486,-0.08329325,
0.062338065,-0.034289088,
0.058599886,0.029796269,
-0.056554504,-0.013469921,
0.040311716,-0.028915985,
0.031764604,-0.068136066,
-0.009977732,-0.064767845,
-0.0120940255,-0.029846296,
0.01719583,-0.12456001,
-0.040403165,0.022743383,
0.028593684,-0.053615168,
-0.018858407,0.06715109,
0.0037489233,0.0066950396,
-0.0028353583,0.040776156,
-0.011489527,0.04204504,
-0.0046643037,0.013709192,
-0.08199537,-0.009987523,
0.011123507,0.05051447,
-0.043627214,0.014504222,
-0.0072273216,-0.027801419,
0.062347148,-0.07292826,
0.08937986,-0.044612024,
0.009687076,-0.021507055,
0.01027088,-0.028434623,
0.09900973,-0.016461909,
-0.025127513,0.002171829,
-0.008731702,0.017119141,
0.023066083,-0.04994352,
-0.0054384065,-0.0133767715,
0.009815463,0.026179021,
-0.0893012,-0.04688699,
-0.04717944,0.041588742,
0.08916728,0.044486146,
-0.09745643,0.13524817,
0.12893735,0.025911234,
0.011581686,0.034963112,
-0.033541486,-0.052207835,
0.03712999,0.044552065,
-0.046965227,-0.107236624,
-0.032272752,-0.008140204,
0.0124807535,0.037732165,
-0.029655173,0.003922958,
-0.004033395,-0.011068165,
-0.008204709,0.09312121,
0.06946402,-0.0067917793,
0.00887097,0.004663816,
-0.011756716,-0.00598667,
-0.066131905,0.070630886,
0.062580094,-0.023896862,
0.0483643,0.020229349,
-0.021421827,0.08983698,
0.05397539,-0.03921406,
-0.040931653,0.00051797763,
-0.0085450355,0.06985662,
-0.020886062,0.057346746,
0.03862125,0.09174944,
0.041701514,-0.013737651,
0.018770786,0.037726775,
-0.04588865,-0.0835066,
-0.08716106,0.021461591,
0.07570078,-0.0147668645,
0.013539437,0.024470199,
0.066219606,0.03686163,
0.045032144,-0.044848338,
-0.08151216,-0.09333541,
-0.03544284,-0.124215126,
0.003913455,-0.030095072,
-0.03032736,-0.014743531,
-0.016040215,-0.03498517,
-0.053057045,-0.051885497,
-0.01727791,-0.06797145,
-0.031953946,-0.085603364,
-0.10614466,0.0013759022,
-0.08654509,0.024728272,
-0.024507279,0.01668685,
0.012440725,-0.03600495,
-0.039708767,0.108942084,
0.07201238,-0.051952276,
0.066986226,0.030063739,
0.020529186,0.007423715,
-0.0040353895,-0.011665303,
0.050654497,0.029934533,
0.09080205,0.0072953138,
0.014850863,0.008972614,
0.033396095,0.04289643,
0.050138917,0.048334554,
0.031023746,-0.077138186,
0.056902036,0.001080619,
0.08000823,0.0500087,
0.0015438,-0.08819571,
-0.008073734,0.072674364,
-0.025136467,-0.023274044,
0.010712974,0.014638374,
-0.019464614,0.04103163,
0.02870929,-0.009700868,
-0.007758474,-0.10719383,
-0.073922954,-0.011466218,
0.03490915,0.07967747,
-0.0055216346,-0.018768486,
-0.06416559,0.020319052,
-0.056105737,0.013296383,
-0.06895761,-0.000121990066,
0.054202836,-0.056655068,
0.044663735,0.017565891,
-0.055861242,0.0095976675,
0.00057494076,0.03555718,
-0.0332263,0.14355706,
0.07054045,-0.027697112,
-0.07509519,0.005445323,
-0.00095355953,-0.031241588,
-0.036003135,-0.08439003,
0.06064218,0.016834402,
0.06426873,-0.017914588,
-0.07448016,-0.0878266,
0.0027795488,0.023252832,
0.07729114,0.010990904,
0.08861489,0.072353326,
0.030136747,-0.02918254,
0.11840417,-0.03391664,
-0.012893013,0.019313337,
-0.033173174,0.014396872,
0.049098365,0.030814657,
-0.0025240916,0.040497154,
0.08154441,0.012199607,
0.014327555,-0.005147113,
0.07692068,0.028159972,
-0.013037042,-0.06504096,
0.091246516,-0.033874486,
0.03679924,0.07251152,
0.040075526,-0.059533056,
0.058023255,0.0017572853,
-0.1261325,0.05668859,
0.05026417,-0.023612613,
0.007032976,0.01498185,
0.09111364,-0.057488777,
0.022992387,0.014323681,
-0.034161717,0.03543703,
-0.020731289,-0.089963496,
-0.028781861,-0.05585639,
-0.091000706,-0.04319496,
-0.0022284295,0.038827784,
0.09550203,-0.06635795,
-0.051541585,0.0092589585,
-0.0030684406,0.0040481375,
-0.0859719,0.09315376,
-0.07479567,0.031676363,
0.009290323,0.0038577418,
-0.032920197,-0.03271881,
-0.010913696,0.031281196,
-0.024352916,0.026633985,
0.032920483,-0.08056763,
-0.031501655,0.008086067,
-0.0027360036,0.013154839,
-0.11899365,0.018395977,
-0.033719823,0.090102136,
-0.008218912,0.029736951,
0.0013315685,0.04636191,
-0.010056929,0.04587331,
-0.027367026,0.015835935,
0.094438046,0.05270628,
0.0070027113,0.056133643,
-0.010371041,0.055415753,
0.04638315,-0.020566985,
0.019753262,-0.013595352,
0.04941048,-0.043796614,
0.012191509,0.034369368,
0.041788913,-0.02803173,
0.03505211,0.06758754,
0.09517722,-0.017028145,
0.019012364,-0.0371458,
-0.017083403,-0.0030951023,
-0.0021182096,-0.005573488,
-0.0052563883,0.06126571,
0.020577546,-0.09370235,
-0.013233921,0.011204878,
-0.10391053,-0.05225545,
0.009236512,0.031886283,
0.0073386305,-0.007641084,
0.0447969,0.041144986,
0.042572975,-0.03717913,
-0.04652996,0.0019007006,
-0.0016901764,-0.016407738,
-0.03182559,0.0561451,
-0.02606484,-0.023174874,
-0.038925517,-0.03801019,
0.06816096,0.047566857,
0.08266359,0.005385916,
-0.07261206,-0.016044958,
-0.026135538,-0.017480366,
-0.012800628,0.046826903,
-0.039252378,-0.066803075,
0.018871566,-0.028069422,
-0.017018607,-0.03922438,
-0.065073594,-0.025311375,
0.0308944,0.031119293,
0.05295715,0.025748804,
0.07060302,0.065281495,
-0.018220956,0.043236613,
0.10871403,0.106716074,
0.013369547,0.04354129,
-0.00046338318,0.022280918,
0.016053237,-0.0028612963,
-0.037408575,-0.11126939,
0.029031523,0.045056336,
-0.029257238,0.060680486,
-0.039310593,0.05910002,
0.05318114,0.10324775,
-0.01463634,0.07831059,
0.04336069,0.035273485,
-0.04822303,0.06814795,
0.0067553893,-0.048884407,
0.0010838135,0.017279135,
0.044574603,-0.07339948,
-0.048556138,0.07594516,
0.027000045,0.0116528785,
0.06403876,0.006586021,
-0.011389841,-0.105465375,
0.035465807,0.011979675,
0.049354993,0.018346831,
0.09725933,0.008956078,
0.018729525,-0.02860969,
0.00088638207,-0.011897237,
0.100665085,0.03597143,
0.026347544,0.03909371,
0.098832935,0.0073671145,
0.008331559,-0.0575481,
-0.08135063,-0.04435375,
-0.005207545,0.036988538,
-0.03219737,0.021998169,
-0.0333833,0.05051983,
-0.04890756,0.08601808,
-0.04699334,-0.06966462,
0.04755894,-0.011357368,
0.05946708,-0.056593068,
0.087718755,0.02296716,
-0.120667756,0.013414024,
-0.12424273,-0.01668975,
0.017398585,-0.017987756,
0.038220577,0.016683845,
-0.005298809,-0.06098354,
0.03717952,-0.057250436,
-0.04605218,-0.046769753,
-0.031794533,-0.058735527,
-0.01662631,0.018460026,
-0.0073725823,-0.064591706,
-0.008581472,0.027658587,
0.001664661,-0.011167854,
0.08098688,-0.036497734,
-0.012553217,0.03967856,
-0.06439936,0.031324275,
0.03699356,0.013356876,
-0.027822353,-0.03347805,
0.0027064453,0.09158084,
-0.004641448,-0.0765492,
-0.03363277,0.046471283,
0.053400278,0.010960245,
0.015971636,-0.020614306,
0.037591685,-0.1086419,
0.008743709,0.037006438,
-0.006152003,-0.018184334,
-0.027094303,-0.1354652,
0.01924594,0.00782678,
0.034302734,-0.019293353,
0.06398372,0.03426624,
-0.007317243,0.07102004,
0.0008043707,0.026064845,
-0.028789336,-0.0058338097,
-0.01979799,-0.0067476565,
-0.035454508,0.035140425,
-0.042649828,-0.0060593793,
0.017349565,-0.040167738,
0.063299075,-0.062559366,
0.030196952,0.054422587,
-0.0232478,-0.020331273,
0.051044133,-0.039945565,
0.048545543,0.03577067,
0.07381373,0.05616552,
0.08732994,-0.017820578,
-0.04757545,-0.070365086,
-0.033059657,0.01975697,
0.10021467,-0.061306942,
-0.01178221,0.021618335,
0.1090903,-0.033328187,
0.056351952,-0.0355195,
-0.032946806,-0.06286076,
0.014325589,0.0688413,
-0.030998906,0.0017141593,
0.0542869,0.06251499,
0.015100402,-0.001906191,
-0.00043073832,-0.06521792,
0.007327395,0.051057056,
0.045693554,0.08618184,
-0.008757072,-0.047123145,
0.019805271,-0.0241526,
-0.061547603,-0.07848291,
-0.024333978,0.058905486,
-0.010339047,-0.026675913,
0.0955503,-0.08903842,
-0.031113913,0.03418843,
-0.012827557,0.043522485,
0.05853811,0.020477233,
-0.0014872431,-0.07273499,
-0.036930427,-0.016449919,
-0.017217338,-0.051813636,
0.009702853,0.012225246,
-0.035367023,0.00713003,
0.034770012,-0.08810165,
0.036032338,-0.0194863,
-0.06574954,0.0065230974,
-0.019952562,-0.047696434,
-0.022014955,0.04741921,
-0.013846902,-0.009184089,
0.0032582995,0.0011463878,
0.06176878,0.02836881,
0.029544631,-0.012732284,
-0.08620899,0.015055619,
-0.058637332,-0.07181649,
0.023442628,0.036253408,
0.03572011,-0.05627541,
-0.03204833,-0.009155224,
0.05901655,-0.025899375,
-0.043372698,0.039470468,
-0.118324414,0.007930551,
-0.021958174,0.04954297,
-0.047029782,-0.047290843,
0.0375189,-0.017533507,
0.09668287,0.03337057,
-0.010355545,0.086710796,
0.06364021,0.016035428,
0.034639567,-0.003679575,
-0.055060875,0.05223452,
-0.03644357,0.021132898,
0.059908256,-0.0636614,
0.005407945,-0.01907677,
0.05811504,-0.01816881,
-0.07647644,-0.041967276,
0.04089811,-0.046648346,
0.024225822,-0.08101767,
-0.007808383,0.049353506,
0.09846839,-0.063194536,
0.016713005,0.0018270862,
-0.028723553,-0.031338163,
-0.0994597,0.014034447,
0.021558963,-0.0114522055,
0.16136232,-0.046290807,
-0.034331564,0.0008753687,
0.043480095,0.01810151,
0.0062166094,-0.12032607,
-0.022205885,-0.05171782,
0.022309544,-0.028932633,
-0.019838547,0.009242106,
0.007357017,-0.034035373,
0.07495949,-0.06800899,
0.07193606,-0.04618079,
-0.028118614,-0.040780596,
-0.030862879,-0.046576977,
-0.007128269,-0.023848947,
-0.0766639,-0.019590147,
-0.044802207,0.088931814,
0.05420905,-0.022447122,
0.017469035,0.02620945,
-0.03295062,0.033421926,
-0.057136647,0.018446669,
-0.07597273,-0.044757612,
0.016632302,0.054508038,
0.013485094,-0.009337138,
0.051157482,0.05611449,
-0.014223109,0.00031121302,
-0.01521495,0.008922397,
-0.05506944,-0.040026844,
0.06051849,-0.10438789,
0.036835622,-0.008653916,
-0.014692974,-0.042847496,
-0.06716361,0.00989016,
-0.015868938,-0.08874628,
-0.012801558,-0.049222022,
0.044253957,-0.030786397,
-0.03270745,0.07611014,
0.0025897874,-0.11061188,
0.040024232,-0.055464827,
-0.0076300525,0.029641593,
0.05486899,0.056339707,
0.012580426,-0.073144995,
0.008029466,0.092111014,
-0.058073837,0.029178962,
-0.0024724377,-0.036307946,
-0.04722861,0.038927075,
-0.0020961408,0.04397388,
0.057709914,-0.01085987,
0.05753107,-0.0067233862,
0.022356119,-0.06333756,
-0.076674305,0.074970454,
-0.08258804,0.013752928,
-0.029481707,-0.022701455,
0.0019272658,-0.06353352,
0.022637425,-0.06155532,
0.019567536,0.092859834,
-0.032821767,0.06678808,
0.031846795,-0.0015691541,
0.110129274,-0.010673681,
0.031619765,-0.01796732,
-0.020681052,-0.06915736,
0.032562483,0.034499653,
0.07489825,0.073252946,
0.0011292167,0.04613021,
0.08868274,0.02457647,
0.020630829,-0.03596256,
-0.023799535,-0.08619563,
-0.05282157,0.041082937,
0.058337674,0.065518305,
0.04262204,-0.010715702,
-0.05323939,0.035480544,
-0.02761606,-0.024294142,
-0.0892868,-0.009935613,
0.0456567,-0.07832733,
-0.01684053,-0.027370539,
0.090267114,0.00020268056,
-0.029044814,0.074972235,
0.035492614,0.028839495,
0.04143222,-0.07696743,
