layer1node1,layer1node2,layer1node3,layer1node4,layer2node1,layer3node1
-0.012715932,0.006365313,0.0047612377,-0.0054741385,-0.39868742,-1.0382235
0.05526102,0.016732734,-0.043180645,0.005284676,0.6576719,
-0.022677917,-0.044803422,0.030044729,0.016195806,-0.4139684,
0.053764973,-0.015090842,0.0072742347,-0.0076499335,0.4794117,
0.09637886,-0.060636498,-0.03498998,0.0031553265,,
0.008253262,0.034548003,-0.06481058,-0.082052656,,
-0.040721986,0.043260887,0.07546176,0.023884337,,
-0.018234216,-0.0555241,-0.03810436,0.002147444,,
-0.06003244,0.0029149952,-0.019936565,-0.045562208,,
0.070269436,-0.06907527,-0.041170564,0.037148926,,
-0.034212243,-0.053917408,0.094652735,0.049408462,,
-0.06457519,-0.040827446,-0.06705804,0.02407863,,
0.0030128572,0.006798944,0.061064743,0.029537551,,
0.009657128,0.044348624,-0.073879845,-0.048277613,,
-0.05588379,0.04784078,-0.035934474,0.0017631877,,
0.046329178,0.0032117902,-0.008840787,0.042126782,,
-0.05474819,0.007561732,0.025409682,0.077510476,,
0.017748656,0.007053799,-0.0417285,-0.02615892,,
-0.077258095,0.0150957145,-0.035578415,-0.05147277,,
-0.04365414,-0.025727829,0.037702862,-0.026951058,,
0.04368814,-0.015642706,0.056508154,0.029552758,,
-0.04103865,0.0011914171,-0.0089157885,-0.093581095,,
-0.07324224,0.063461825,-0.015577266,-0.05530911,,
-0.011091527,0.01918865,-0.042542107,-0.013456063,,
-0.021762539,0.029352192,0.028511025,0.05914219,,
-0.03791753,-0.057187207,-0.04313175,0.0688648,,
0.018580401,0.009177018,-0.06573031,-0.052349582,,
-0.10806421,-0.026786327,-0.00030073163,-0.024791641,,
0.013460039,0.076782905,-0.004464933,-0.012530403,,
0.059236843,0.060438436,0.037998155,0.06689751,,
0.029333802,-0.014484462,-0.04748734,0.033968456,,
0.04447407,0.03078697,-0.027805319,0.0057709166,,
0.037017755,-0.011938228,0.032218188,-0.051819276,,
0.0218145,0.03682159,-0.022596238,-0.10622763,,
-0.03418888,0.03449875,-0.013406058,0.0011818613,,
-0.017990192,0.033306375,-0.03906806,0.032001086,,
0.03532423,-0.0742837,-0.030957622,-0.048218347,,
-0.05039157,-0.055516433,-0.030525336,-0.041564956,,
-0.013726616,-0.00850984,-0.058958028,-0.002884581,,
0.027359081,-0.04178056,0.022014411,0.040641733,,
0.06463249,0.0043063313,-0.021404505,-0.04110977,,
0.017883413,0.0414813,0.062660545,0.0027278678,,
-0.037611064,0.075852424,-0.0076636067,-0.010690429,,
0.00047985028,-0.0031704141,-0.065637566,-0.06463905,,
-0.062480308,0.077829905,-0.0121493675,0.033697132,,
0.024803614,-0.011865542,0.08574275,0.029760597,,
0.012431486,-0.044183657,-0.012461261,-0.0036135844,,
-0.012694015,0.073074445,-0.039731756,-0.06394681,,
-0.1042414,-0.005933622,0.01891363,-0.08296018,,
-0.013984961,-0.026363272,-0.0363501,-0.024181863,,
-0.040175468,0.054597244,-0.030955726,0.0045996825,,
0.056458604,0.03560616,-0.0026941386,0.025256801,,
0.04631646,0.028418615,0.092893295,-0.049763456,,
0.008401479,0.005759667,0.031424195,-0.038711306,,
-0.03750093,-0.031563435,-0.0036349038,0.023542609,,
0.024147358,0.067819566,-0.027958471,0.01120196,,
-0.027353177,-0.049935494,-0.008602287,0.055493526,,
0.038757358,0.045196712,0.0020871386,-0.015791818,,
0.08172263,-0.00688455,-0.007933541,-0.009069841,,
0.029053912,0.048333347,-0.0034819262,0.009888411,,
0.05876374,-0.043898407,-0.06388969,-0.0048259087,,
-0.037079554,0.032330953,-0.044138797,-0.07653959,,
-0.0020503576,-0.031146845,-0.033164173,0.005863049,,
0.019071553,0.026488336,-0.029609691,-0.043233406,,
0.031042254,-0.012255234,-0.07323449,-0.0138303675,,
-0.0037093358,-0.054857407,0.018851824,0.028151056,,
-0.027465146,-0.04357424,-0.020778783,-0.06492122,,
0.019652942,0.039630804,0.021978691,0.028372929,,
-0.054228183,0.0030055013,0.0109413415,-0.023248974,,
0.010017722,0.014100383,0.042734537,-0.019717703,,
-0.052531745,-0.06375399,0.045946047,0.059854936,,
0.0003407231,0.038543615,-0.09918795,0.0138691915,,
-0.06293392,0.0823136,0.041859753,-0.025330113,,
-0.020780956,0.06506198,-0.10293531,-0.011271535,,
0.068245135,0.019096252,-0.028330652,-0.021691103,,
-0.044550303,1.9350548e-05,-0.007961502,0.052181672,,
-0.008829203,0.028017724,-0.05349071,-0.025905292,,
0.04264417,-0.058358792,-0.067809455,-0.032733493,,
-0.072810896,0.006912374,0.015270131,0.023983655,,
-0.0005211361,-0.0042599556,0.0924046,0.05181238,,
0.11305929,-0.016047675,0.027435279,0.007116458,,
-0.035943847,0.0012508719,0.011311144,0.0101353675,,
0.04141838,-0.057138916,0.029149562,0.038621478,,
-0.052317604,-0.0126874605,0.08258765,-0.031497557,,
0.012753795,0.12221344,-0.0469815,-0.021062514,,
0.08359626,0.043838266,0.01674883,-0.03704727,,
-0.03921237,-0.0267191,0.09396553,-0.01332232,,
-0.037906192,0.06842597,0.059400335,0.068384595,,
-0.06128731,0.05671453,0.0029323413,-0.054018058,,
-0.0009935305,0.038944907,0.0064705256,0.035747074,,
-0.055371344,-0.0022114203,-0.03692317,-0.02984478,,
-0.0044193477,-0.043474123,0.016961295,0.021696826,,
-0.03471521,0.11358589,-4.267287e-05,-0.023855379,,
-0.046797417,0.06520476,0.007109284,0.015723528,,
-0.0064311293,0.074898146,-0.024676612,-0.07647472,,
-0.008794765,0.046725396,-0.035306204,0.006268175,,
0.0021432089,0.03254127,-0.07051811,-0.037145298,,
0.016149405,0.088267066,-0.0039582937,-0.036187373,,
-0.04858191,0.10618027,-0.07474503,-0.026305124,,
-0.042041253,0.019680893,-0.027466143,-0.07855747,,
-0.025563573,-0.035308048,-0.024828965,0.041058227,,
0.0009557805,0.021211347,0.029206472,-0.0059506744,,
0.014402282,-0.0042524636,0.022199364,0.01890311,,
0.0016831163,-0.042623688,0.018559476,-0.013957148,,
-0.0007700235,-0.017780695,0.016220681,0.079051144,,
0.013407091,0.01584103,0.054668784,0.021559794,,
-0.043696806,-0.08568714,-0.040325787,-0.01470613,,
0.044382706,-0.0037761463,0.100086465,0.020410538,,
0.0068755145,0.017373003,0.017805561,0.023122247,,
0.040156398,-0.038182586,0.0039756666,0.068651065,,
-0.008921657,-0.0018455586,0.038244944,-0.004853756,,
-0.066428594,0.06672664,0.053278938,-0.019390142,,
0.007461374,0.013121482,-0.043584194,-0.02364961,,
0.06046295,0.03223772,0.022952013,0.034076337,,
-0.019103238,-0.09466774,-0.04764439,-0.016584916,,
-0.028961608,-0.025466366,-0.0009129808,0.05134115,,
0.026548741,-0.09163531,-0.016101684,-0.012471007,,
0.023181794,0.03926288,0.00933728,-0.055554666,,
0.010282005,-0.049180433,-0.06693939,0.023416204,,
0.034228787,-0.015008434,0.011163041,-0.06564563,,
0.018005542,0.028314576,-0.023499763,0.003263408,,
0.06580964,0.019422784,-0.0041489294,0.02861747,,
-0.0042206277,0.016061911,0.06301395,0.0033558053,,
0.035136696,-0.010225363,-0.08980108,0.038185377,,
-0.020301666,-0.009660034,0.016837267,0.034916863,,
0.00486691,-0.02235159,-0.04980689,-0.020987144,,
-0.11880115,0.005482963,-0.02604521,0.0025883492,,
-0.0302029,0.032854874,-0.005583092,0.021558663,,
-0.020248145,0.081198186,0.0066515203,0.084973216,,
-0.015610566,0.03428688,0.030458156,0.022485387,,
0.030253053,-0.004059192,-0.008708475,-0.04133535,,
-0.07583476,-0.046223614,-0.035175513,0.0054091467,,
0.023035266,-0.003506947,0.02893507,-0.03060721,,
-0.044774182,0.025669588,-0.12595767,0.0038358457,,
-0.011203683,0.0959205,0.014222343,0.096631385,,
-0.08984204,0.0397246,0.0064952946,-0.016677046,,
0.043190252,-0.010404026,0.023906749,-0.025850866,,
-0.061929557,0.034758385,0.050006762,0.017065492,,
0.0077599706,-0.039678432,0.0022922354,0.05268454,,
0.014979694,0.078938626,0.016142597,-0.05734897,,
-0.040491298,0.07927972,-0.0068286294,0.020966478,,
-0.0064433734,0.007180288,-0.008360846,-0.08856771,,
-0.0025082617,-0.027771546,0.012304803,0.0021663823,,
0.04868328,0.02122417,-0.010723367,0.05643859,,
0.12590332,-0.06407551,0.020901468,-0.020414583,,
0.020800462,0.018908115,-0.037133638,-0.007328264,,
-0.0015663077,-0.00227681,-0.008610067,-0.031255726,,
0.004301189,0.0429572,-0.018454302,0.011533159,,
-0.0471356,-0.08625545,0.054868415,-0.087316945,,
-0.0077102664,0.023268275,0.101560585,-0.017036784,,
0.05991794,0.061438154,-0.054781925,0.07454734,,
0.07380112,-0.016745728,-0.03154335,0.015872132,,
-0.082663484,-0.021679172,0.021674309,-0.067088224,,
-0.019217389,0.05616535,-0.050164547,-0.035786923,,
-0.029760726,0.064676225,-0.0060136444,0.030830514,,
-0.037782647,-0.00035966208,-0.050987612,-0.023446213,,
-0.029773148,0.02035003,0.04171431,-0.09418949,,
-0.04803438,-0.035854798,-0.003106166,0.042424534,,
-0.027198981,-0.010730836,0.04019396,-0.021461075,,
0.011382274,0.024592584,0.042275425,0.024955641,,
-0.06470306,0.016811183,0.016045293,0.04214224,,
0.002453742,0.01560048,0.05560252,0.018810173,,
-0.042839658,0.03262889,0.009132718,-0.03777499,,
-0.020726021,-0.004862532,-0.08920707,0.090039924,,
0.020448823,-0.016654259,0.0012141668,-0.12474889,,
-0.038558297,0.08914602,-0.085628815,-0.069885634,,
0.0567456,0.041474972,-0.024734467,-0.106792726,,
0.028090533,0.0590293,0.0112405885,0.029067459,,
-0.03873316,-0.028746115,0.012894281,-0.034671426,,
-0.014333785,-0.0089000845,-0.05711238,0.039033655,,
0.0523469,-0.0070830663,-0.037159827,-0.041710913,,
-0.024662435,-0.008697032,-0.020640418,0.07892417,,
-0.033728,1.5289115e-06,0.028903281,0.02504048,,
0.011053885,0.02543915,0.033145588,-0.0061055203,,
0.048407484,0.0313895,0.030638881,-0.0099034235,,
-0.019948874,0.05554088,-0.05273115,0.033009365,,
0.01232745,-0.0054884786,0.018686969,0.036849864,,
-0.020060582,0.010746184,0.011796995,-0.014483732,,
0.06373575,0.026383175,-0.0285999,-0.010281814,,
0.052141786,0.022090185,0.04094295,0.055809688,,
-0.12993857,0.044239476,0.020499663,-0.000905529,,
0.05822289,0.009808112,-0.067108564,-0.045688946,,
-0.011084538,0.020855237,-0.045106377,0.035112936,,
0.051148906,0.01276776,-0.0045844098,0.018164083,,
0.02320778,-0.021117091,-0.03649859,-0.053133108,,
0.05214364,0.028481362,-0.0035534457,0.033660017,,
-0.0072437986,-0.032961484,0.03472061,-0.04084207,,
0.02158412,0.09652961,-0.0311824,-0.0063606496,,
0.039179243,0.06269458,0.025224611,-0.03050343,,
0.0059333625,0.0035889805,-0.040145934,0.0009476347,,
-0.030454151,0.02965807,0.007343632,-0.003019359,,
-0.022696175,0.03541482,0.0019168141,0.016363282,,
0.0277108,0.015653932,0.0030322638,0.042827845,,
0.02439932,0.07812147,0.008447608,0.0037855809,,
-0.07415536,0.014735431,0.0016796081,0.049160127,,
0.02020667,0.0010006346,-0.041108303,-0.026087373,,
0.019883007,0.005524179,0.06047831,0.08117406,,
-0.023494564,0.08956965,0.016506951,-0.020367697,,
0.018309778,-0.008082239,-0.014236475,0.04147399,,
0.056015223,0.015199406,-0.056994114,0.023302572,,
-0.03777025,-0.02539453,-0.055646863,-0.10095972,,
0.009482179,-0.062213365,0.06611654,0.0004902134,,
-0.04336884,0.06089813,-0.04598819,-0.038217153,,
-0.0023750446,-0.05175666,-0.07165013,0.045189094,,
-0.0014355914,0.0044043455,0.00385046,-0.029919747,,
-0.054231945,-0.016654829,-0.0411449,-0.029976573,,
0.07787321,0.028766526,0.03055681,0.053803027,,
0.07197464,0.12123848,-0.027813936,-0.015873214,,
-0.060145535,0.078490585,-0.0727239,-0.034937926,,
0.001466635,0.08514882,-0.05061482,-0.011874405,,
0.048908904,0.041143958,-0.0034572193,-0.058352455,,
0.031231955,0.047007203,0.023955083,0.018231552,,
-0.0652384,0.040137704,0.041709624,-0.0031230473,,
0.024879063,0.06336466,-0.011176661,0.067508675,,
-0.049517926,0.06627658,0.083742134,0.022684416,,
0.03603274,-0.06656734,0.0035760824,-0.06285076,,
0.051233295,-0.04140148,0.01474203,-0.047267593,,
0.06345584,0.03970613,-0.00454781,-0.015219632,,
-0.012101545,-0.015865296,-0.042819142,-0.0013504464,,
-0.0551596,0.09474704,-0.062412474,0.0072498345,,
0.03826617,0.08255241,0.015361266,-0.0021126163,,
0.048416268,-0.10127888,0.02789778,-0.033850092,,
-0.025547845,-0.0046885493,0.0016365305,0.033814654,,
-0.026943756,0.03590146,0.0069905883,-0.016547501,,
0.034011688,-0.040853176,0.0630782,0.03172884,,
-0.0042484007,0.05039557,-0.06278666,-0.08607902,,
-0.04389205,-0.030688321,-0.0018166094,-0.049811173,,
0.025508145,-0.03708465,-0.07642484,-0.0716658,,
0.06731226,0.08218768,-0.02699077,-0.025647769,,
0.056937303,-0.003912859,-0.030611746,-0.080075845,,
0.0213533,-0.06422766,-0.057781167,0.012435394,,
-0.0058236676,0.047439393,-0.013541462,0.05293626,,
0.06388485,-0.034501676,0.05111006,-0.04124395,,
-0.05954861,-0.060165185,-0.01512839,-0.04245135,,
0.0731387,-0.010936544,-0.03191787,0.06407555,,
0.005752677,-0.027375076,-0.043850392,0.043508627,,
0.041530453,0.04785087,-0.0058378866,-0.03989058,,
0.035446256,-0.017098242,0.0088902535,-0.009583413,,
0.00929627,-0.072760865,0.0005772406,0.048442457,,
-0.0031853435,-0.03958874,0.014266162,-0.0074316366,,
-0.046342436,-0.0018008923,0.098700285,-0.008774738,,
-0.053211592,0.030458286,0.05541305,0.0201208,,
0.04078001,-0.017340723,0.00840612,0.03185928,,
0.051817358,-0.03169407,0.04029411,0.02502473,,
-0.06029424,0.064564586,-0.09113766,-0.028774776,,
0.056414295,-0.027188404,0.012850369,-0.028444752,,
-0.010878301,-0.01900516,-0.12843145,0.011089278,,
-0.015672384,0.07032529,-0.007798967,-0.010522348,,
0.02470962,0.02814869,-0.05281577,0.010506232,,
-0.055259854,-0.033288952,0.06589868,0.051298894,,
-0.035136327,0.04606832,-0.059992123,0.0064726216,,
0.042686738,0.01715936,-0.08108886,-0.04080292,,
0.044445664,0.018854454,0.08925241,0.0056468346,,
0.014102784,-0.013434291,0.051437896,0.008492073,,
-0.04021988,0.026383273,0.029339451,-0.05832997,,
0.027090266,0.016843714,-0.03983129,-0.004437576,,
0.019889295,0.0024588148,0.051502533,-0.08403365,,
0.03407707,-0.03394383,-0.058489956,-0.08630963,,
-0.032587565,0.009982739,-0.05415188,-0.035352696,,
-0.003301357,-0.0030461065,0.051815573,-0.02846785,,
0.0028355673,0.046363458,-0.05719234,0.029875001,,
0.01614648,0.12149576,0.022525152,0.015855655,,
0.021107266,0.020389048,-0.08385307,-0.047775492,,
-0.053298548,0.039238453,0.006535181,-0.010005652,,
-0.0076553,-0.008898781,-0.008364897,0.0032378342,,
0.0068322476,0.0045248875,-0.029501026,-0.083860174,,
0.019399066,0.06627469,-0.00013372317,-0.010553163,,
0.0058404966,0.017216777,-0.006091223,0.018884158,,
0.008707569,-0.0007625556,0.035944562,-0.0048115053,,
-0.011005537,0.026646059,0.023500478,-0.060824458,,
-0.045419082,-0.03705654,-0.011921976,0.032411646,,
0.050437864,-0.045497634,-0.02655529,-0.023053965,,
0.032972347,-0.015761312,-0.029774522,0.010801754,,
0.010778161,-0.133889,-0.037803065,-0.006009072,,
-0.07559641,-0.030315539,0.044087633,-0.005007549,,
0.050196398,0.01600581,0.024479937,0.066886134,,
0.02077732,0.041508734,0.061836228,-0.0031548413,,
0.048909064,-0.013100378,-0.02317435,-0.044341676,,
0.066624895,0.038446814,0.005601863,-0.056442603,,
0.033725724,0.012003953,0.04795573,0.016922412,,
0.059872568,0.008363033,0.034861036,-0.0047156927,,
-0.055597086,-0.026848884,-0.08125478,-0.10537522,,
-0.0009581313,-0.052132446,-0.0172975,0.049753524,,
-0.03333992,0.018064754,0.0070086014,-0.03289035,,
0.11003578,-0.08092522,-0.0728542,0.07975393,,
0.06533446,0.012251287,-0.054303505,0.004480992,,
0.020601697,0.041704822,-0.0076341396,-0.037599865,,
0.055045802,0.005599383,0.0055523664,0.015872657,,
0.011677045,-0.04273554,-0.00711829,0.0023264328,,
0.010449242,-0.027955962,-0.012056583,0.1049921,,
-0.0051022996,-0.023635834,0.07242274,0.058666665,,
-0.006279782,-0.03405694,-0.06380372,-0.0072170347,,
0.051148154,-0.025202569,-0.021477392,0.02827263,,
-0.06122831,-0.046963044,-0.012891651,0.07044296,,
-0.04081877,0.020057453,0.021883633,-0.010693578,,
-0.011958838,-0.010747293,-0.030692685,0.031852387,,
-0.027727569,0.021530004,-0.07077212,0.09917452,,
0.01000901,0.14262296,0.018024087,0.06399782,,
0.005317908,0.041674428,-0.04421123,0.0063279415,,
0.037575897,0.057924602,0.073827244,-0.010038791,,
0.0074202437,0.07735118,0.030206416,-0.055090014,,
0.085518874,-0.015821634,0.041664585,-0.047883764,,
-0.022631926,0.06451563,-0.004444476,0.005035346,,
-0.09358751,-0.026773749,-0.050902233,0.019611426,,
-0.007489817,-0.047632314,0.052196495,0.033183325,,
-0.0039438223,-0.0011862321,-0.0025736066,-0.0030593832,,
0.067008786,0.03524972,0.055514682,-0.012845303,,
-0.038347267,0.04717474,-0.113769524,-0.023712078,,
0.0001921459,0.010721624,0.06595566,0.056215312,,
0.012691232,0.05945009,0.016113147,0.042536303,,
-0.019970182,-0.026690023,-0.049236305,0.014719684,,
0.0058790995,-0.063811354,0.037049223,0.0004295226,,
0.008897496,-0.03696446,0.06253452,-0.032039393,,
0.05751738,-0.004151936,0.06610841,-0.037071317,,
0.045639843,-0.04401974,-0.034265473,-0.02813542,,
-0.020496637,0.0039058411,-0.015931163,0.051663954,,
0.012849405,-0.002324694,0.03748382,0.024283761,,
0.055150926,-0.014162927,-0.016719086,-0.055164367,,
-0.013500363,0.10586607,0.004454587,0.023082277,,
0.013252466,-0.029274944,-0.07472321,-0.041634694,,
-0.025310298,0.0059255203,-0.097539626,0.01248195,,
0.018336313,-0.03613531,-0.026266264,-0.0314811,,
0.013878503,0.035020098,0.040186092,-0.021969806,,
-0.0053259945,0.0019140168,-0.028728997,-0.03696697,,
0.046377108,0.03705872,0.040133044,-0.02254362,,
0.032147247,-0.06029244,-0.07760438,0.02348242,,
0.015353365,-0.018359369,-0.042299937,-0.023221713,,
0.06839204,0.039174087,0.0004007468,-0.06975462,,
0.02971439,-0.010643799,0.02455419,0.0645458,,
0.055229086,-0.00229713,0.06770244,0.016021777,,
0.022996916,0.06178791,-0.020530805,0.050642166,,
0.08011338,-0.003740459,-0.002119208,-0.032112397,,
0.035213448,0.10688987,-0.0014134895,-0.013364889,,
0.030818855,0.0037126015,-0.0075958427,0.06051609,,
0.14158718,0.041735835,-0.004858929,0.0059867473,,
-0.007594261,0.07581356,-0.043330617,-0.013620828,,
0.0048444318,0.046516836,-0.052451015,0.0062473062,,
0.032725688,-0.0230051,-0.053797588,-0.028298033,,
0.012575428,0.017362596,0.07849955,-0.07660355,,
-0.02206661,-0.009291774,-0.07896298,0.032902706,,
0.0747371,0.013845615,0.019345492,0.036534607,,
-0.10074369,0.007899958,0.07431589,-0.052109055,,
0.039771087,-0.10268678,0.024713295,0.0065880795,,
-0.04181062,0.0036414359,0.03023679,0.0077169673,,
0.06269511,-0.06594545,0.07238923,0.042753283,,
0.012222865,-0.07246996,7.4277756e-05,0.013822028,,
0.013562704,-0.0846979,0.059878387,0.051514972,,
-0.0009855839,0.035023477,0.028414354,0.0075046485,,
-0.0079551535,-0.03389613,0.006306882,0.04630997,,
0.00013037641,0.06793976,-0.0015615581,-0.09418809,,
0.011812926,-0.034201846,-0.022501118,-0.020689216,,
0.0045316233,-0.05613497,0.020842744,-0.065088205,,
-0.03305409,-0.030519504,0.08627716,-0.038720142,,
0.023223288,0.008666348,-0.07431165,-0.035554994,,
-0.034770045,-0.008029414,-0.035001393,0.0018638757,,
0.03810235,0.033333853,0.08120019,0.007789214,,
-0.00673698,-0.038774375,-0.03377278,0.04049525,,
0.019682383,-0.000105108025,0.0077438285,-0.0014440913,,
0.056635544,0.057575203,-0.039471243,-0.037053224,,
-0.032469925,-0.0015547131,0.004381067,-0.00061205705,,
-0.04979323,0.014926477,-0.03622689,0.05060292,,
0.06678631,0.064404465,0.025052061,0.05300716,,
-0.087456435,0.039152697,0.039484236,0.060705874,,
-0.03034256,-0.033403244,-0.05224629,-0.022130935,,
0.009545069,0.13984361,-0.08503053,-0.056052003,,
-0.03790282,0.026621526,-0.038538244,-0.07921432,,
-0.05996993,0.058738876,0.0015784741,0.007473503,,
0.025288975,-0.048860576,-0.016956525,-0.07743528,,
0.02821297,-0.034143172,0.012615291,-0.09367376,,
0.0369618,-0.043177187,-0.04805277,-0.044432696,,
-0.028556146,0.022180691,-0.046910565,0.028260952,,
-0.03522555,-0.07191011,-0.074099496,-0.006208697,,
0.0163803,-0.009375377,-0.011576275,0.07031605,,
0.044840064,-0.0423307,-0.101099655,0.052670524,,
0.017420944,-0.04600287,-0.057423566,-0.009207707,,
-0.048481468,0.024913376,0.06339554,-0.012925464,,
-0.01921226,0.08117502,0.10068085,0.009830099,,
0.010740422,0.075318195,-0.040739287,0.046943832,,
0.08029119,0.032349445,-0.068282455,-0.10941926,,
0.010363604,0.05181231,0.04201243,-0.019439986,,
-0.03477938,0.052890617,-0.055020764,0.010699641,,
0.0066561173,0.013005433,0.1064477,-0.0033117144,,
-0.024438329,-0.001329726,-0.035369217,0.0023797418,,
-0.06570945,-0.0008744728,0.059297822,0.0019137457,,
0.035628732,-0.049583267,-0.020447033,0.038696364,,
-0.012916608,0.004192678,-0.008664507,-0.025676712,,
-0.0018080403,-0.064821206,-0.034395665,0.03294872,,
0.0049592634,0.02671467,0.024485921,-0.010310717,,
-0.0327963,-0.023737276,0.02655149,0.0130409,,
-0.015866738,0.025388671,-0.014432887,-0.018240876,,
0.054027174,-0.029418543,-0.028952364,-0.018793851,,
-0.061234895,-0.052749194,0.13021554,0.07291532,,
0.06809483,0.044504277,0.029581757,0.07044745,,
-0.021455226,0.041474856,-0.006137059,-0.03693119,,
0.04432893,0.057350833,0.05920595,-0.013006843,,
-0.03850814,0.05174765,0.06381277,-0.012430394,,
0.045389127,-0.07441454,0.020509172,-0.05012246,,
0.063129775,-0.021459205,0.014967803,0.056938406,,
-0.02349499,-0.07716937,-0.0020058313,-0.081394725,,
0.0047222194,0.03916942,-0.015596106,-0.0584574,,
-0.08502552,-0.022022069,0.009946174,0.12389006,,
0.12667051,0.04990335,0.011145625,0.044998016,,
-0.0152667295,-0.00065919396,0.028288202,0.07922279,,
-0.054580998,-0.015361028,0.06928719,-0.010871982,,
0.04246484,-0.06786581,0.011429627,-0.097650185,,
-0.041521717,-0.038090516,-0.00787405,-0.043107584,,
-0.08306148,-0.0799929,-0.024621667,0.02267466,,
-0.074773274,-0.037927926,0.053180676,0.004350112,,
-0.034662366,-0.025164837,-0.09670645,0.031119164,,
0.025266394,-0.02443532,-0.07195012,0.024165532,,
-0.017761437,-0.012872292,0.03151839,0.046695262,,
-0.023307173,-0.005576793,0.048357215,-0.007794939,,
0.039038017,-0.0087538995,0.016639452,-0.028656786,,
-0.040334098,0.12447363,0.00046969912,0.0784101,,
-0.033013407,0.060564823,0.004307864,-0.030666267,,
0.054225795,0.10470692,0.010956221,-0.056760468,,
-0.0061035627,0.008312651,0.013862164,-0.042626813,,
0.010279421,0.025222696,0.009180372,-0.00072023686,,
-0.026491873,-0.043364067,-0.00015170506,-0.022095062,,
0.016575504,-0.03906791,-0.028403766,-0.07000482,,
0.019962829,0.026955204,0.0407199,-0.02053214,,
-0.040847186,0.017846698,0.15569524,0.0011709924,,
0.019703802,0.0067925598,0.035963185,-0.02120664,,
-0.006217106,-0.085334584,-0.07567327,-0.016225724,,
-0.08178044,-0.038611297,0.004041342,-0.0753033,,
-0.00367385,0.042226642,0.009966912,0.017360266,,
0.035894047,0.057010528,-0.031094896,0.078716405,,
-0.07584337,0.013781807,-0.052763786,0.009248026,,
-0.026193501,0.02915316,-0.04269267,0.014199017,,
0.05236734,0.070537314,0.035903297,-0.0040270407,,
0.040200505,0.10148308,0.0018960058,-0.06010185,,
0.009292923,0.033004884,-0.058489703,-0.026520234,,
-0.03007323,-0.046838406,-0.105467804,-0.0093750255,,
-0.04477941,-0.031203665,0.026778456,-0.036805183,,
0.002358287,0.06485408,0.09612799,-0.0052377125,,
0.039870907,0.01098658,0.050508156,-0.09039364,,
0.05875903,-0.015989814,0.054482836,-0.009864801,,
-0.009485199,0.079608895,-0.035562932,-0.038164258,,
-0.0003781286,0.009294199,-0.009713126,-0.06815697,,
-0.06283102,-0.00012236048,-0.031566437,-0.0767999,,
-0.07483864,0.045296602,0.037644166,-0.011241821,,
0.01190812,-0.080205135,0.11773562,0.08467944,,
0.04475997,-0.068432555,-0.03123427,-0.055676833,,
0.042815883,-0.030460414,0.024926426,0.008713336,,
0.053372297,0.06526813,-0.02881723,-0.04056497,,
0.06739957,-0.04396202,0.03337391,-0.037277646,,
0.011255906,0.03999779,-0.04218826,0.0588207,,
0.0185071,-0.018529702,0.005309619,0.057686258,,
0.030894492,0.022188935,0.056722302,0.048743177,,
0.07672843,0.06912219,0.06566448,0.0051752175,,
-0.005749365,-0.054836195,-0.0753825,0.020575918,,
0.021023387,0.049183212,-0.025443746,-0.02082499,,
-0.0031708216,-0.047937576,0.06313195,0.07590967,,
-0.048225,0.00073017913,0.007644924,-0.017271843,,
-0.03253456,-0.015437653,0.08299493,-0.03938393,,
-0.04211394,0.028144173,-0.07243763,0.030690035,,
0.001213827,-0.017791975,-0.047273938,0.071019575,,
-0.020725163,-0.010112473,0.056543447,0.08227718,,
0.05372718,-0.027181875,-0.06927671,-0.002438902,,
0.052147523,0.014345662,0.05686978,-0.06436382,,
0.0225269,-0.012035554,-0.0074628256,0.034041367,,
0.054469466,0.005824924,-0.09049177,0.066749685,,
-0.020364812,-0.0009970677,-0.10840394,-0.037690785,,
-0.004573428,-0.039709244,0.048601147,-0.031927772,,
0.08132107,-0.04952851,0.034949914,-0.031171888,,
-0.024118014,-0.0729805,-0.07440161,0.010581769,,
0.010315803,-0.06114766,0.011806016,-0.010641532,,
-0.015364388,-0.023249965,0.019883784,0.01813242,,
-0.017516734,0.020113163,-0.08301904,0.017152263,,
-0.017712548,0.023192879,0.045238264,0.049020182,,
-0.05505576,-0.030611968,-0.009463432,-0.05335681,,
-0.017578408,0.042823225,-0.06838501,-0.04773348,,
-0.011666008,0.036360346,-0.0349423,0.04864917,,
-0.00025551263,-0.0029608004,0.037704624,-0.025774216,,
0.03458042,-0.01075564,-0.017565798,-0.054077394,,
-0.03053763,0.03589136,0.027326168,-0.0020899433,,
-0.05340169,-0.030169304,0.031443175,-0.0044283667,,
0.010251575,0.005640494,0.008366375,0.027577166,,
-0.07750087,0.023143936,-0.0027356555,-0.009660375,,
-0.0006014537,-0.018466057,-0.026576467,0.0156117305,,
0.06314482,0.061775703,0.051893532,-0.023601586,,
0.01999541,-0.08913239,-0.048328303,-0.04012611,,
-0.02989382,-0.015252595,-0.08260774,-0.072981924,,
-0.015322913,0.056052852,-0.05545644,-0.0069119614,,
0.027327187,0.008784977,0.069953546,0.06277815,,
-0.022168692,0.03887285,0.0047611175,0.0026582251,,
-0.11205969,0.02013481,-0.029739587,-0.044508424,,
0.0175237,0.021147072,-0.0032623368,-0.00061524234,,
-0.020595526,0.009383675,-0.035153672,0.019028433,,
-0.005986008,-0.024495138,0.047084454,0.02522573,,
0.006989417,0.0574362,0.016532334,-0.027874773,,
-0.023466405,0.004686108,-0.031061955,-0.014910261,,
0.045532327,-0.00037788888,0.033362046,0.0117561715,,
0.044106644,0.013125394,-0.064270295,-0.053452544,,
0.03613104,-0.038010914,-0.03179762,0.05305027,,
-0.021112025,0.026405245,-0.012584149,-0.055292435,,
0.013238827,-0.023288885,0.006825062,0.026852235,,
-0.021605963,0.031207986,0.011433719,-0.027739685,,
0.03203353,-0.08830665,-0.034688897,0.005165074,,
0.041955218,0.057323385,0.1115998,-0.026384575,,
0.029756295,0.033188455,-0.054965116,0.04336743,,
0.019823119,0.012659762,-0.0076221735,-0.010970767,,
0.1357985,-0.07179145,-0.015777975,-0.050304323,,
0.049855333,0.058347877,0.0156712,0.020324016,,
-0.015983485,-0.031361956,-0.08991582,-0.05387318,,
0.032536354,0.059173014,-0.098637775,0.0052493466,,
0.03302111,-0.029182091,0.026007341,-0.021098293,,
-0.025855523,-0.027344484,0.074334584,0.010603928,,
-0.024097297,0.058718644,-0.010367775,-0.007820744,,
0.056158848,0.05169515,-0.019627219,0.060382087,,
0.017042732,0.047737498,0.039232455,-0.026888588,,
0.04631624,0.007942108,-0.02011714,-0.01593634,,
0.13261303,0.005875073,0.02805662,0.040825672,,
0.031059617,0.045687184,-0.040713467,-0.031891976,,
-0.014167538,-0.048481632,-0.020514445,0.023026472,,
0.035799358,-0.0054231375,0.019539507,0.028933745,,
0.04355192,-0.038123615,-0.015091691,0.09454131,,
-0.04741102,-0.07579521,0.022247653,-0.03647666,,
-0.021665545,0.04188501,-0.00870476,0.047827013,,
0.056432396,-0.005131518,-0.02091656,0.060271952,,
-0.000502329,-0.054899037,-0.05896043,0.03554358,,
-0.031624004,-0.01887818,-0.020365262,-0.006750835,,
-0.022773882,0.01032633,-0.01566622,0.010957861,,
-0.022565786,-0.016947698,-0.026971681,-0.042463627,,
0.04909678,-0.052266393,0.023648066,0.024788402,,
-0.020686254,-0.004585187,-0.05089553,-0.029817903,,
-0.00836933,0.052042767,0.024145152,-0.022752216,,
-0.0036577869,-0.009132747,0.013942701,-0.012802031,,
0.033151153,-0.024960589,0.032907438,0.05618906,,
0.006033122,-0.06369435,-0.021748068,-0.0506996,,
-0.008258441,-0.04799249,0.04580257,0.022671321,,
-0.084590405,0.01781931,0.042129423,0.0296607,,
-0.011746481,-0.005895721,-0.013974358,-0.009327963,,
-0.03847207,-0.0111033125,-0.023032965,0.035499867,,
-0.033513267,0.03174668,-0.06376896,0.000406781,,
-0.0057440493,-0.00885219,-0.011716044,0.026911264,,
0.0013021929,0.025935244,-0.07505582,0.020278549,,
-0.0015932651,0.03526939,0.046644486,-0.021410849,,
-0.03390733,0.047906965,0.017581826,0.030619051,,
-0.029986331,0.011716451,0.06484794,0.07385673,,
-0.027433755,0.048913,-0.07500184,0.034109067,,
-0.01962982,-0.0058457134,-0.018675104,0.039791383,,
-0.074091226,0.054312557,-0.026802793,-0.047398277,,
0.021586524,-0.032862637,0.043216266,-0.06547401,,
-0.009173918,-0.03371813,0.030979611,0.014858106,,
0.066449836,0.004071461,0.04779178,0.03538631,,
0.027482728,0.050618213,0.037846286,-0.013368945,,
-0.018943284,-0.03644412,0.0032419232,0.09419357,,
0.035020094,-0.064140804,-0.0119030485,0.008386862,,
0.0064511225,-0.08037249,-0.064391285,-0.051759496,,
0.05612239,0.008247706,-0.014882245,-0.0032593342,,
0.05116907,0.018517507,-0.033960763,-0.07310421,,
-0.045092423,-0.09500661,-0.012694794,0.032427657,,
-0.07585174,-0.03314007,-0.009274165,0.031843506,,
0.07273022,-0.020386761,-0.016103595,0.023442086,,
0.030906286,0.03850409,0.040488083,-0.06327405,,
0.09931518,0.045966875,0.01126105,-0.0038363584,,
-0.008903962,0.028242154,0.041393623,0.017073825,,
0.0183924,-0.021358952,0.087754935,-0.037876543,,
0.022671066,-0.012775109,0.04800799,-0.009052669,,
-0.012027082,-0.095900744,-0.042395018,-0.032998294,,
0.003653649,0.041191332,-0.049868282,-0.036465578,,
-0.01076264,-0.06423803,-0.06665449,0.015485783,,
0.055303365,-0.016028764,0.043621093,0.015447032,,
0.006242824,0.0007047328,0.060550243,-0.054149706,,
0.052579552,-0.045683984,-0.023815231,-0.040261503,,
0.03362006,0.086260654,0.013082269,-0.07518736,,
0.06776779,0.017752307,-0.036275797,-0.04516049,,
0.03471757,0.1112283,-0.010129875,-0.0017261654,,
0.05121968,0.020497542,0.021549232,-0.038331535,,
0.053294726,0.079720415,-0.011230139,-0.10822865,,
-0.10288399,0.02803948,0.04058619,0.09159189,,
0.10286888,0.055350766,0.0040946915,-0.0709235,,
0.024821404,-0.003978077,0.0461773,0.012860094,,
-0.017279845,-0.042157397,0.0490595,0.030146979,,
0.02643516,0.018065747,0.036627304,0.0020368565,,
-0.02316575,-0.010141589,-0.032368414,0.08585716,,
0.010460121,0.024700612,0.038379613,-0.087469555,,
0.005223073,-0.03478507,0.05987799,-0.057173014,,
0.04747863,0.040549666,0.017369445,0.010758306,,
0.054273218,-0.044549976,0.031355996,0.008953078,,
0.04917421,-0.0078084944,0.041205138,0.0352935,,
-0.075226225,-0.028327437,-0.035008438,-0.056481592,,
-0.048230343,-0.030764446,-0.0042311163,-0.045960005,,
0.0430525,-0.05662038,0.07678125,-0.017096326,,
0.032149706,-0.028646607,0.08591407,0.0081809405,,
-0.040540807,-0.015651772,0.0016603834,-0.011756186,,
-0.019304913,-0.0023803893,-0.04420363,-0.030626163,,
-0.06568232,-0.081982814,-0.038430568,-0.0024130824,,
-0.031509623,-0.027384654,0.027691156,-0.07010366,,
0.020328028,-0.0659534,-0.025030307,0.0034477806,,
0.025860297,-0.029346034,-0.061466485,0.0012300783,,
0.026363086,-0.064015344,0.058495298,0.046831105,,
0.05097906,0.029587395,0.08810302,-0.08605711,,
-0.06974713,0.030170433,-0.093086645,-0.06217855,,
0.036835965,0.13721515,0.05147905,0.058229998,,
0.057103604,0.06785683,-0.051209055,-0.039832834,,
-0.050589994,-0.059416108,-0.026884353,-0.040211488,,
-0.06993251,0.11281671,-0.06711814,0.0034568876,,
0.040518545,-0.035390023,0.019234182,-0.06625277,,
-0.018101359,-0.0219842,-0.011817483,0.051361263,,
-0.015385958,0.07210537,-0.028776098,-0.00023470545,,
-0.05637518,-0.031582598,0.021805057,-0.016909387,,
-0.03424514,0.025546204,0.041886114,0.032836806,,
-0.005624022,0.029983774,-0.032736093,-0.032762144,,
0.02311445,-0.048544858,0.019629372,0.022692451,,
0.07874967,0.036866475,-0.021712372,-0.007221221,,
0.0017060611,-0.0148469545,0.027892468,-0.022837985,,
0.03291503,0.02164183,0.005642475,-0.0023544803,,
0.026191663,-0.012889434,-0.022714611,0.0030094015,,
0.027608635,0.0201476,-0.10392027,-0.053562373,,
-0.019846033,-0.06754837,-0.039661016,0.04778473,,
-0.027832255,0.00066383166,-0.009323118,-0.00968923,,
0.010875209,0.0027228359,-0.0006138197,-0.011155885,,
0.062519945,0.08521815,0.028221723,-0.026823191,,
0.038116515,0.01266321,-0.012514274,0.05713436,,
0.024208905,-0.010134843,-0.004160479,-0.0075955554,,
0.025149466,0.056431647,-0.03611197,0.019320006,,
-0.00031313152,-0.055635963,0.012676224,-0.03826268,,
-0.023374813,0.0062524206,-0.03108557,0.028810577,,
0.04795822,-0.020678256,-0.0065321964,0.016240966,,
-0.011610188,0.020354627,-0.010745598,-0.02161943,,
0.07016122,0.014131389,0.0074054385,0.014481895,,
-0.043687303,-0.028939705,0.061411645,-0.0002550034,,
-0.0031319156,0.029808864,-0.05028667,-0.037559066,,
0.043604825,0.09097407,-0.019170823,0.029024221,,
0.026367007,0.04450825,0.03177164,0.0007804284,,
0.05846963,0.098502174,-0.009143096,-0.052990757,,
0.034039,0.028005915,0.114476025,0.0017490989,,
-0.00750048,-0.043530308,0.030366732,0.0051717674,,
-0.0028609782,0.016262326,0.04352934,0.09255906,,
0.068371825,0.06089263,-0.027135093,0.021191789,,
0.017764352,0.05682678,-0.0800553,0.07710625,,
-0.021708999,-0.023214836,-0.00964258,-0.03382771,,
-0.027244987,-0.0075878412,0.070441544,0.06723186,,
-0.022929128,-0.055949852,0.07083566,-0.055765748,,
0.031064145,0.058440845,0.0043150196,-0.0024619182,,
0.025025114,0.017305827,-0.023469811,0.0064309295,,
0.011051465,0.005549559,0.022022298,0.06647757,,
0.024565132,-0.088146806,-0.0072567007,0.04365538,,
-0.0017717191,0.024359643,-0.05109751,-0.014322441,,
0.038226396,-0.050426,-0.03231318,-0.008803919,,
-0.030531842,-0.07151189,0.036343735,-0.018082105,,
0.0836136,-0.075533085,0.004262655,-0.03377682,,
-0.06883788,0.00738659,0.031130858,-0.020988716,,
-0.034971025,-0.010874078,0.017756239,0.009631642,,
0.021384211,-0.024443425,0.017697982,-0.007748785,,
0.012680191,-0.01947561,0.026242949,0.037155595,,
0.030563,0.027949434,-0.008451316,0.003822289,,
0.04064001,0.017474588,-0.030555421,-0.007025393,,
0.0724566,0.027322209,-0.039522056,-0.0123066,,
-0.012075127,0.01454984,-0.030989585,-0.027215688,,
-0.048670497,-0.034126688,-0.104479544,-0.034817625,,
0.060947303,-0.05902057,-0.09735802,0.008600326,,
0.029611168,0.029593967,0.055507418,0.04429711,,
0.0769099,-0.005157447,-0.023774315,0.04339692,,
-0.007968545,-0.049128056,0.023258395,-0.028096667,,
-0.028797878,0.0149448,-0.058770016,0.06905427,,
-0.08041741,0.019862419,0.06972659,-0.023829965,,
0.020529939,-0.007905091,0.006659771,-0.05592562,,
-0.030899033,-0.06237883,-0.022365343,0.06944198,,
0.04302198,0.013781642,-0.08310382,0.036829107,,
0.041875284,-0.03300584,-0.029792761,0.03435848,,
0.085350476,0.032033376,0.003017043,-0.021165486,,
0.0033955562,-0.002874153,0.056274276,-0.038292293,,
-0.059755195,0.016756935,-0.07973883,0.02244213,,
0.036521304,-0.03339179,-0.0011606399,0.024983443,,
0.04024573,-0.04472381,-0.05063312,-0.0620933,,
-0.044111185,0.029909866,-0.07470739,-0.045065947,,
-0.034535453,0.019227628,-0.050532624,0.048635256,,
0.0391993,-0.016556408,-0.036037207,0.017925177,,
-0.020571318,-0.03063374,0.017332263,0.098340586,,
0.05306305,0.046693593,-0.0288165,0.06291089,,
-0.014736393,0.030780464,0.058987778,-0.06356559,,
-0.02486376,0.024093166,0.013222989,0.019005798,,
0.015875727,-0.037514877,-0.047603883,0.017831903,,
0.081632785,0.026400495,0.0035220904,-0.08682444,,
0.04360078,-0.019745324,0.0053044823,0.0037049635,,
0.08337948,-0.04495541,-0.0072001456,0.027675482,,
-0.013794551,-0.038208064,0.027975528,-0.04404464,,
0.009618732,0.025134249,0.047332983,-0.05081963,,
-0.016402,-0.05113599,-0.051686767,0.03291327,,
0.026253857,0.030189626,0.064061925,0.016051099,,
-0.01685538,0.07052306,0.044223998,0.023666589,,
0.017970068,0.0028823623,-0.054913804,-0.028774152,,
0.0094154505,0.038371313,-0.038028974,-0.067828976,,
-0.030197818,0.03678261,0.03755896,0.024788423,,
-0.01926508,-0.0015434232,-0.032183968,0.015890397,,
0.024119465,-0.089043,-0.0031723378,0.09572216,,
-0.039890435,-0.011481062,0.009948024,-0.052538916,,
0.04555387,0.022743085,-0.04664915,-0.043317173,,
-0.07843445,0.013846241,-0.013904162,-0.048631992,,
-0.05653963,-0.040001985,0.013037194,-0.05622111,,
0.021668397,0.029384876,-0.056094453,-0.04930794,,
-0.066587545,0.022020696,0.009428364,0.06484873,,
-0.06946914,0.005574434,-0.009657433,0.002581528,,
0.041953854,0.01557752,0.03731152,-0.09681673,,
-0.0067400774,-0.017527213,-0.053537555,-0.016358543,,
0.0071716076,-0.1213219,-0.0133048715,-0.072710134,,
0.013020922,-0.017711619,-0.028822744,-0.035464816,,
0.0129581755,-0.06810148,-0.00804187,0.055816527,,
-0.01536031,0.046716496,0.014623226,-0.04232153,,
-0.110311024,0.000699399,0.0005166909,-0.011404347,,
-0.028620152,0.03488204,0.006726373,-0.04965821,,
-0.043394804,-0.043543644,0.026984857,0.020460568,,
-0.02871534,-0.017702673,0.013193668,0.013827387,,
-0.035725728,0.08005775,-0.05956257,-0.055780377,,
0.037120156,0.017116675,0.04719091,-0.0075790384,,
0.07605286,0.036480527,0.05553443,0.038696546,,
0.042433448,0.028064203,-0.0139325615,-0.09443503,,
-0.01329081,0.013626213,-0.0005206626,0.0695978,,
0.013947923,-0.015486152,-0.046648048,-0.00962232,,
-0.08120642,0.044324394,-0.009586517,-0.027917614,,
0.053379875,-0.03497064,0.020606179,-0.085383974,,
-0.015550423,-0.040680986,-0.020097857,-0.010170452,,
-0.016389308,0.0024086488,0.039069507,0.04764203,,
0.011729622,0.040490516,-0.060064953,0.005311256,,
0.029621467,-0.11379378,-0.011642298,0.012114659,,
-0.013292404,0.021603683,0.030125072,0.019723704,,
0.053281065,0.052019928,-0.03649194,0.07035939,,
-0.018695515,-0.017333152,-0.06507871,0.036895104,,
-0.073569864,0.0599037,-0.004931205,0.04602673,,
-0.01541131,0.014143094,0.04842049,0.027467586,,
0.062066715,0.039081223,0.01753798,-0.042051196,,
0.020869453,-0.119256355,-0.010695283,-0.035300903,,
0.07811723,-0.09804744,-0.07812761,-0.052592896,,
0.013218399,-0.08011786,-0.011837568,0.024874266,,
0.088192806,0.023372933,0.0019912405,0.05689328,,
-0.049187653,-0.021591723,-0.018174276,-0.013576026,,
0.029362537,0.0011691531,-0.019309726,-0.03426731,,
0.013670848,0.0056602475,-0.10026285,-0.023008049,,
-0.0014797921,0.030287132,-0.011514359,0.0043322546,,
-0.05376061,-0.035322037,0.04941314,-0.046094567,,
0.053534936,0.0295362,-0.032475643,0.041119028,,
0.049106106,-0.029229866,-0.029168896,-0.072155096,,
0.01890689,-0.012806498,-0.024115767,-0.030240495,,
-0.016483529,0.0073680365,-0.057891,-0.015440223,,
0.06646347,0.050197124,-0.028176086,0.003611348,,
-0.016122272,0.037828818,-0.038358632,-0.018575018,,
0.014188581,0.034144968,-0.0015620348,-0.05045517,,
0.040701304,-0.020749787,0.0105552515,-0.019458227,,
0.025207797,-0.035554446,-0.049940847,-0.02344348,,
0.06406989,0.060847398,-0.043473527,-2.9335253e-05,,
0.010535926,0.053677265,0.08632869,0.030190116,,
-0.06836095,-0.023469808,-0.0523128,-0.029840289,,
0.06811192,-0.0027182188,0.03970095,0.009556124,,
-0.027596924,0.023571793,0.0045987554,0.019422976,,
0.04521258,0.032488782,-0.044091776,0.055359833,,
-0.024234688,-0.018607894,-0.034645904,-0.05837402,,
0.029472042,-0.023545045,-0.0067238184,0.033221822,,
-0.0231166,-0.0395598,-0.031007165,-0.05713634,,
0.005041599,-0.024868693,0.0063381456,-0.0078025116,,
0.044550493,0.02516481,0.009139799,-0.005730441,,
-0.011726657,-0.03558572,0.10072562,0.05905179,,
0.043418225,-0.07136526,-0.018859865,-0.029046364,,
0.006483969,0.0141146025,-0.00014250813,-0.018936744,,
0.08816791,-0.1008037,0.056762077,-0.10134956,,
-0.055442523,-0.015598095,-0.01451515,0.010316471,,
0.063648656,-0.027260046,-0.013606059,0.011772937,,
-0.02854493,0.0136573715,0.0011759325,0.006499836,,
-0.0054538758,-0.02007304,0.012133649,-0.10088905,,
0.08374273,0.08450486,0.02697125,0.07240266,,
-0.07132862,-0.03392052,-0.03439891,0.019664746,,
-0.024049524,0.03710963,-0.10445405,0.057918675,,
-0.0048243687,-0.0061601363,0.019867815,-0.008177606,,
-0.025320956,-0.027244333,0.02172383,-0.018805144,,
-0.01176214,-0.045136087,-0.015074563,-0.011027947,,
-0.043325666,0.010018931,-0.0058520935,0.054175787,,
0.0564713,0.018184125,0.017763048,0.040403895,,
0.0028008379,0.02020212,-0.025269257,0.07764501,,
0.041504525,0.031691995,-0.029780366,0.05566992,,
0.01665864,0.035848815,-0.042475812,-0.06055843,,
0.014891573,0.03787114,-0.040337045,0.03960572,,
-0.025705196,-0.030809423,-0.073700674,-0.0024494487,,
0.02722134,0.0066749123,-0.016574897,-0.000115075665,,
0.011483536,0.057602182,-0.023424176,0.0021618868,,
0.031832483,-0.037456363,-0.013472627,0.04873621,,
0.06259118,-0.048321202,-0.007893502,0.037851624,,
0.02463779,-0.02037217,0.028385028,-0.033307664,,
0.062171727,-0.0072198887,-0.0871245,0.13365285,,
0.04550109,-0.018376509,-0.057994954,-0.020977,,
-0.029392216,0.004452829,-0.0819418,-0.0074591837,,
0.0775902,-0.0035079403,-0.055822656,0.012366654,,
-0.01307044,0.040812038,-0.01370083,0.0021930716,,
0.010695133,0.014340778,-0.03578179,-0.053524025,,
-0.0028313454,0.0186299,0.04264004,0.012116086,,
0.041035227,0.03735468,-0.023901803,-0.013515435,,
-0.052207895,0.065568216,0.052358635,-0.051818818,,
0.045740057,0.02242113,0.04334854,-0.048809826,,
0.03763583,-0.06661834,0.0873221,0.1434038,,
-0.03997583,0.05710034,0.053414874,0.026606884,,
0.0010972603,-0.008873271,-0.00069996493,-0.008626316,,
-0.055624705,0.07384034,-0.09394916,-0.01873174,,
0.030821629,0.031786792,0.04711585,-0.02173963,,
-0.08205238,0.047271084,-0.0009915843,0.0076467986,,
-0.041082263,0.100603424,0.024610281,0.028757509,,
-0.016622728,-0.00661844,-0.018380348,0.018974315,,
0.008901436,0.0068680905,-0.05094656,0.015773753,,
0.08270812,-0.00739602,0.033473626,0.033843074,,
0.009085672,0.018028008,0.00066420407,0.044937953,,
-0.04490863,0.00422253,-0.022285124,-0.051247213,,
-0.03952371,-0.0037693314,-0.059865694,-0.03671593,,
0.029157,0.07776194,0.036721267,-0.021950774,,
0.0032447327,-0.06448666,-0.041126385,0.06368089,,
0.021280317,0.024393074,0.038320184,0.028374758,,
-0.010843299,-0.11657269,-0.016793497,-0.010645784,,
0.022392778,-0.035572525,-0.021224765,0.032237582,,
0.04592527,0.060678445,0.008412414,-0.003340127,,
0.090657674,0.047076564,-0.0731958,0.07009198,,
-0.05422425,0.030405298,-0.013438273,-0.027198136,,
0.0323812,0.0771742,0.071959905,-0.056460127,,
-0.08379526,-0.07869532,-0.012130125,-0.038044263,,
-0.06951864,-0.014904266,0.0015694018,-0.0568669,,
0.01299684,-0.018712398,-0.023986703,0.05025904,,
-0.0022181887,0.023227245,0.020309603,-0.003494949,,
-0.03134738,-0.05560289,-0.02920163,0.10345323,,
-0.07079476,-0.037380233,0.034706876,0.0006675329,,
0.0075688525,-0.019072875,0.07792777,-0.03909133,,
-0.0078031057,-0.005055927,-0.009715648,-0.0024473162,,
-0.018483967,0.0689913,-0.043512627,0.017395768,,
0.037607826,0.052780192,-0.0056163035,0.018284855,,
-0.014521655,0.027722163,0.01568988,0.0043306416,,
-0.0039622732,0.02416601,0.021724738,-0.09531767,,
-0.02749856,-0.032301005,0.03347325,-0.009903813,,
0.094549485,0.012745638,0.045045216,0.018811276,,
0.015692366,0.038389187,-0.10376967,-0.041730702,,
0.13210122,0.01738268,-0.032619487,0.012247058,,
-0.017427225,-0.057588156,0.0461278,0.032680772,,
0.018648395,-0.010606792,-0.1360066,-0.11391835,,
-0.009849884,0.012867519,-0.04824202,0.0051763677,,
0.044940703,-0.013248193,-0.006182813,0.005162395,,
-0.026420422,0.0059230314,-0.012274749,0.017520094,,
0.07789747,0.028830107,0.06484055,-0.07473068,,
0.041212767,-0.040673718,-0.06540555,-0.004084487,,
0.08493075,-0.048059057,0.012665299,0.07149613,,
-0.026932089,-0.05569289,-0.06031801,0.08057939,,
0.0604798,-0.046713423,0.011054393,-0.03302667,,
1.2112254e-05,-0.08080743,0.009433946,0.060656253,,
-0.03257305,0.075218484,-0.034865987,0.073998675,,
0.00995358,-0.07494607,-0.00522045,0.077101514,,
-0.0076161064,0.010754624,-0.091297105,0.08498357,,
-0.08810728,0.12427723,-0.0042254375,0.07471699,,
0.019688852,0.048420195,0.0014650561,-0.0046958406,,
0.012138216,-0.05459196,0.02024836,-0.031932615,,
-0.005104958,-0.011729665,-0.053704057,-0.012043931,,
0.038673226,-0.054703318,0.023258643,-0.021306979,,
-0.012642844,-0.06632371,-0.02828069,0.0146461325,,
-0.0067611123,0.044500716,0.06638197,0.057033736,,
-0.0074441046,-0.042002674,-0.024251109,0.0015503997,,
-0.11020518,0.05268174,-0.04695584,-0.009805462,,
-0.030663818,-0.020159509,0.010378215,0.0002696554,,
0.030992355,0.039215107,0.010281797,-0.0066891243,,
0.0041909874,0.014619599,0.009886266,0.045602348,,
0.025006501,0.08344373,-0.06752187,0.15862611,,
-0.034871053,-0.01737355,-0.075462356,-0.025386807,,
0.0675322,0.12949342,0.014084905,-0.017607914,,
0.025720427,0.12471777,0.080647916,0.01806541,,
0.04207032,-0.019832596,0.010191176,-0.054918703,,
0.05112636,0.0033276489,0.012098576,-0.0066223433,,
0.07104533,-0.03655052,-0.021522833,-0.032391876,,
-0.02411231,0.05368736,0.1038014,-0.016175007,,
0.0017173182,-0.04380899,0.01730539,0.0004858712,,
0.050874654,0.0043994263,0.01848851,0.00739995,,
0.0062419414,0.0024264527,0.0400662,0.09015341,,
-0.036280364,0.03885363,-0.009611969,0.017304232,,
-0.011133391,0.04988106,-0.035087172,-0.09279146,,
0.026320517,-0.09833278,0.09150087,0.075892285,,
0.035818152,-0.052384127,0.002860999,-0.06957415,,
-0.104054,-0.0138957035,-0.056123517,0.05865741,,
-0.038919438,0.01387309,-0.047571056,-0.04587747,,
-0.023729837,-0.087119184,-0.009534343,-0.013197044,,
-0.09942927,-0.025533438,-0.028433863,0.029906182,,
0.07512439,-0.0076386905,-0.03285323,0.027699051,,
-0.031052869,0.026391013,-0.03451584,0.031683225,,
0.0043310677,-0.007396131,-0.030581163,0.0021384875,,
0.03702887,0.05949594,-0.045912117,-0.013015964,,
0.037100416,-0.035035092,0.0007263331,-0.01931234,,
0.020714836,0.072168455,-0.01944828,-0.05505748,,
0.055756997,-0.014621068,-0.018443726,-0.06412722,,
0.089271426,0.024145162,-0.0030860337,0.012775407,,
-0.030330144,-0.015775148,0.027572269,-0.027611306,,
0.014660445,-0.09732882,-0.013780017,0.025187267,,
0.02013466,-0.053809017,-0.024794891,0.010804347,,
0.057794105,0.04666486,0.046201635,0.027837764,,
0.04894296,-0.0075086723,-0.0038350667,-0.011919979,,
-0.0013035845,-0.031415362,0.047595795,-0.021190984,,
-0.03864412,-0.01685446,-0.026863933,-0.0337205,,
-0.03198231,-0.011655376,0.052729495,0.043485083,,
0.07193845,0.076986335,-0.05782464,0.08729372,,
0.04241163,0.057972796,-0.07141619,0.113794364,,
-0.02084986,-0.07787795,0.07952165,0.02212806,,
-0.0019462781,-0.029209789,0.057185806,-0.015145417,,
0.030155413,-0.012562366,-0.044891257,-0.04436961,,
0.026764814,0.041856058,0.01118303,0.040840827,,
-0.03027482,-0.013427533,-0.020722367,0.006524702,,
0.029793808,-0.12095354,0.0008434108,0.08516822,,
0.008834118,0.010712683,0.07832512,0.05767005,,
-0.086917475,-0.054354914,-0.004961465,-0.057736717,,
-0.022179823,0.020777272,-0.038228042,0.06113099,,
0.056470517,0.049467724,-0.0067420057,-0.019795937,,
-0.03163588,0.047503393,-0.035066586,0.048795857,,
0.0157349,-0.045539774,-0.016975235,0.017353306,,
0.08715772,0.055248413,-0.011429111,0.05736151,,
0.07703719,0.009541621,-0.031365044,0.015138864,,
0.007999209,-0.0012240298,-0.068424895,0.07775233,,
0.05074633,0.015776198,-0.020265901,-0.012751723,,
-0.014848538,0.11339647,0.06157625,0.06601209,,
0.013196139,0.004093608,-0.002914591,-0.024590049,,
0.019995525,0.037586182,-0.030568892,-0.036052868,,
-0.037893016,0.021067,-0.03149374,-0.07561502,,
0.018125735,-0.057799224,-0.009928447,0.0032595731,,
-0.0050299214,-0.028789505,-0.046714753,0.040348474,,
-0.05734723,-0.0011639071,-0.011139514,0.020300131,,
0.01098374,-0.04555143,-0.029235128,0.029696727,,
-0.021705592,0.0016979026,0.008762582,0.033988282,,
0.0026978306,0.0033510192,0.040229123,-0.022024175,,
-0.012480853,0.059433337,0.011625458,0.06233151,,
-0.006364081,-0.0010868631,0.07587167,-0.04323873,,
0.021157425,-0.03997858,0.086513534,-0.06470464,,
-0.014515996,-0.01584875,0.079417355,0.011111358,,
0.022375902,0.04678927,-0.051668555,-0.03214176,,
-0.005826589,-0.06415489,-0.015536086,0.08473903,,
0.035860285,0.063933015,-0.010698693,0.011416713,,
-0.026952777,-0.063112676,0.016546587,0.023423834,,
0.039827175,-0.014350377,-0.054105904,0.06455692,,
-0.06542767,-0.051053267,-0.021901162,-0.015010069,,
-0.016509062,0.026678106,-0.08368128,0.025186447,,
0.037452336,0.0069372575,0.012359832,-0.037081264,,
-0.018199604,0.035671864,0.02680145,-0.042281233,,
0.030590797,-0.019380007,0.049668957,0.085421994,,
0.033453338,-0.036078017,-0.02242989,0.08669459,,
0.026988119,-0.0008967555,0.07821233,-0.06438961,,
-0.046514038,-0.0040471745,-0.0034183857,-0.02013277,,
-0.030638378,0.013286418,0.039387025,-0.040063966,,
-0.009521112,-0.0072510634,0.052980978,0.013294917,,
-0.006298959,-0.047366437,0.06712851,0.042063944,,
-0.024122583,0.07340406,-0.019231174,-0.027424587,,
-0.009561012,-0.007267114,0.054502483,0.078927904,,
-0.00416985,-0.02490636,0.017473835,0.036808785,,
-0.010392055,0.0029706457,-0.013136377,0.048866153,,
0.02907791,0.015240405,-0.023873826,-0.022458198,,
-0.028995058,-0.008590785,-0.050645914,0.007046295,,
0.0066464962,-0.0049398174,-0.030684829,0.03936999,,
-0.05310799,0.020061865,0.0052780337,0.08961916,,
-0.06633215,-0.025458867,-0.048210505,-0.005829725,,
0.010666278,-0.03813678,-0.042622834,0.0010493499,,
0.035029814,0.001594307,0.011036098,0.042985104,,
-0.038200997,-0.042200148,-0.108199686,0.015055729,,
-0.061187673,-0.033352315,-0.022850823,-0.019393643,,
0.009412758,-0.030242177,-0.022234706,0.028609216,,
-0.0032637657,0.026334826,-0.018115407,0.03201139,,
-0.00164807,0.014497989,-0.013221469,-0.017009912,,
-0.018540863,0.04696345,0.013082004,-0.028897844,,
0.009719235,0.059111446,0.023772852,-0.029804973,,
0.0015325913,-0.007252276,0.010126381,0.057456527,,
-0.00019397712,0.050470214,0.026549738,0.0011317844,,
-0.12281786,0.077535786,-0.038120545,-0.089215085,,
-0.016935596,-0.010065223,0.016430106,-0.001897194,,
-0.008788975,-0.015050225,0.0050831973,0.064427845,,
0.023827571,0.092664264,0.0029793226,-0.010435178,,
0.013838157,0.04571303,-0.059437606,0.020925917,,
0.040993966,0.057782102,-0.02659597,0.010080164,,
0.015827622,-0.0123558715,-0.015593576,-0.0053310157,,
-0.03478024,0.051957894,-0.051960636,0.048490446,,
-0.101405784,0.03923945,-0.06641179,0.0056109754,,
0.028089162,0.0350437,0.044952735,-0.07788626,,
0.08165513,0.028818091,-0.01616948,0.047130827,,
-0.033331502,-0.007112385,-0.02713208,-0.010956687,,
0.041658662,-0.01845332,-0.094998576,0.028106501,,
-0.010677035,0.009467223,-0.014766484,-0.029912865,,
-0.01042786,0.14856873,0.029696733,0.06915294,,
-0.046982292,-0.04773981,0.015884522,-0.029277261,,
0.0035684237,-0.01869849,0.06383907,-0.09849869,,
-0.025118634,-0.045143977,-0.0032912234,-0.09655927,,
0.089176096,0.0019660254,0.00081090024,-0.007893805,,
0.0006356775,-0.026391335,-0.008242584,-0.048434522,,
-0.001961365,0.04085937,0.054464974,-0.065135084,,
-0.010856674,0.051223736,0.048004646,-0.045475096,,
-0.052738495,0.051845953,0.0075757424,-0.015200481,,
-0.02880021,-0.10496231,0.03891676,-0.0024793486,,
0.007517977,-0.036647707,-0.018613612,0.01835856,,
0.067181766,-0.004449047,0.093455106,0.008898583,,
-0.07675267,0.020244509,-0.08752061,-0.03295056,,
0.03612386,0.010489444,0.046985157,0.012942516,,
-0.034653615,0.02373956,0.06077591,-0.0146121085,,
-0.008145024,-0.021617835,0.0093259895,0.0779479,,
0.0065055997,-0.012440565,0.04290906,0.036437966,,
0.017084736,-0.095859945,0.050361756,0.046156533,,
-0.045688573,-0.02665439,0.004983212,0.020256832,,
-0.0026629034,-0.06940613,-0.066503234,0.007573242,,
-0.032481458,0.0066024074,0.0031409517,0.06290524,,
-0.04149548,-0.007072116,-0.0049693016,0.008958341,,
0.040338308,-0.04473107,-0.08646458,0.039587893,,
-0.09724421,0.007923082,0.016463576,0.11534932,,
0.11225711,0.032651562,0.030726988,-0.010879937,,
0.0691889,0.0016896036,-0.03470408,0.020518836,,
-0.024308085,-0.0033705563,-0.018937862,0.060135063,,
0.0172801,-0.035456896,0.0034449943,0.059588645,,
-0.017969867,-0.0042266184,-0.036259916,-0.065891705,,
-0.041763324,0.06533254,-0.0177319,-0.04570791,,
-0.021674523,0.00614059,-0.010450587,-0.028416675,,
-0.03516313,-0.0668538,-0.0135121485,0.041675862,,
0.040235247,0.03677961,-0.018265238,-0.002414564,,
0.02610988,-0.07937524,0.02356857,-0.013636572,,
0.005316365,-0.023239603,0.011581077,-0.030334724,,
0.042032104,-0.027873032,-0.0034464716,0.04080397,,
-0.033126228,-0.002060278,-0.011248175,0.0238893,,
-0.011000367,-0.011622141,-0.026159229,0.038642015,,
-0.04068221,0.012746376,0.034131803,0.013704188,,
0.080864415,-0.011270594,0.054586135,-0.02473265,,
0.052075393,0.1250839,-0.008118801,0.038131,,
-0.056380566,0.033045854,-0.029877646,-0.014363895,,
0.07698908,0.061721154,0.023566864,0.06466365,,
-0.0036330016,-0.004066525,-0.09378828,-0.031959075,,
0.00691573,-0.002999491,-0.02392476,-0.0122934235,,
-0.0082683945,0.029340211,-0.001971374,0.008045807,,
-0.031291507,-0.030416217,-0.024852727,-0.017853497,,
0.029726753,0.0134637,-0.013526322,-0.10540489,,
0.0265627,0.011163916,-0.05617903,0.024843361,,
0.047324684,0.029328827,-0.018549947,-0.039682962,,
-0.020481916,-0.0063648033,0.011669505,-0.014067414,,
-0.040014725,0.009609376,0.03764026,-0.036452476,,
-0.021846563,-0.011756948,-0.010711678,-0.08958152,,
-0.054013584,-0.0575104,-0.050120298,0.007952499,,
0.036330372,-0.079224564,-0.012608023,-0.050960097,,
0.011959418,0.020119416,0.02149422,-0.03450815,,
0.050738443,0.047244657,0.013166185,-0.016968064,,
-0.07661145,-0.004490373,0.07611438,0.06727575,,
-0.03719071,-0.034561608,-0.03215405,0.01491301,,
0.015453881,0.034011185,-0.03727567,0.007165947,,
0.0017851864,0.055643924,-0.036642548,0.045895994,,
-0.024093285,0.008551747,-0.07215235,0.019522363,,
-0.062458236,0.017367324,-0.07929195,0.03378679,,
-0.046274826,-0.06330275,-0.04693665,-0.0008416784,,
0.030026522,-0.034506142,-0.065444835,-0.008352306,,
0.04550421,-0.022228388,-0.039436672,-0.032660805,,
-0.013061754,-0.031339392,-0.02462491,-0.025810195,,
-0.016374528,-0.10755749,0.0038284864,-0.017487852,,
-0.019915069,-0.0015568611,0.0034503546,-0.032225225,,
-0.06241591,0.026458012,0.0748933,-0.0153834745,,
0.03710022,0.004932883,0.011139537,-0.06406204,,
-0.044832774,-0.0011818057,0.0018201853,0.12045853,,
0.0652518,0.05272767,0.018541543,-0.04239294,,
0.039123464,-0.026106594,0.00064368924,0.0709445,,
-0.09942656,0.00040234532,0.013668861,-0.07159073,,
-0.057551425,-0.011971313,0.06720397,0.05997579,,
-0.021881647,-0.05567122,0.017646544,0.007445046,,
0.028118853,-0.03631764,-0.053773545,-0.07365423,,
-0.0047018025,-0.045388024,0.06709113,-0.010990247,,
-0.083695896,0.046724275,0.010415536,0.030560926,,
0.03928937,-0.048993632,-0.04148263,-0.05958621,,
0.062449124,0.017667005,-0.112898946,-0.072738096,,
0.08830932,-8.4096275e-05,0.010408123,-0.03694281,,
-0.007217463,-0.027173035,0.014734635,-0.07421713,,
-0.027564308,-0.021575687,-0.0357774,0.014864295,,
0.040180553,-0.023194911,0.07120125,0.020561928,,
0.097035445,-0.0903777,0.0015325375,-0.057284415,,
0.05685683,-0.0392002,-0.039558653,0.018155769,,
0.020637948,0.0023289234,-0.03433146,-0.041822407,,
-0.014473938,-0.013050014,-0.09685376,-0.015521935,,
-0.0056382404,0.008907823,-0.014295044,0.061763436,,
-0.005537898,-0.006628677,-0.026049692,-0.026784802,,
0.0053627165,-0.019206854,-0.031490676,0.037595488,,
0.040493716,0.012155767,0.011970916,-0.08914712,,
0.05765468,-0.014251913,0.010499602,-0.07986212,,
0.0040382612,0.06671819,0.005495365,0.06243159,,
-0.054387894,0.023440326,0.048714753,-0.063147984,,
0.093642786,0.008343522,-0.0057662274,-0.07450254,,
0.025285872,0.02086232,-0.013548443,0.033405434,,
-0.018243501,0.03855621,-0.06785764,0.009785897,,
-0.0041513834,-0.0430973,0.056689635,0.061182596,,
0.002224464,-0.07312487,-0.06832396,-0.013955364,,
0.019770524,-0.007217078,-0.019859815,-0.05053634,,
0.028946431,0.020543082,0.0030367584,-0.03111612,,
0.009320513,0.01834368,0.031602994,-0.033202328,,
-0.029489158,0.038858317,-0.028582487,-0.057775155,,
0.0061469064,0.047613975,-0.008494351,-0.041327994,,
-0.015625998,0.06970549,-0.0228297,0.060774177,,
-0.07194071,-0.07394497,-0.027610166,0.07683089,,
-0.03943974,-0.020392345,-0.00629041,-0.017083796,,
0.0063386057,-0.049339645,-0.031550214,-0.04795782,,
0.057159375,-0.014484711,0.0016614143,0.0490954,,
0.034320246,-0.032317128,-0.033190317,0.13334846,,
-9.613459e-05,-0.004883615,-0.038060244,0.03692369,,
-0.032840885,0.04801387,-0.025802094,-0.010977191,,
-0.009614319,-0.003982796,0.032372028,0.014684082,,
0.027878534,0.0017679766,0.087699756,0.02165403,,
-0.01036317,-0.05157154,-0.020057917,-0.12057628,,
-0.08115344,-0.02014068,0.032860447,-0.0071363333,,
-0.090694174,-0.040077172,0.014649671,-0.0017886667,,
-0.047542293,-0.06932662,0.014996794,-0.073158495,,
0.0031324055,0.026991684,-0.010251725,-0.005528472,,
-0.08406705,-0.058171496,0.031330053,0.0048077777,,
-0.052265536,-0.060542624,-0.0053379135,-0.02898022,,
0.03838399,0.021670492,-0.021512737,0.021181993,,
-0.044280134,-0.02732199,-0.0060330145,0.063263975,,
-0.084726304,0.03086377,-0.012474281,0.055311028,,
-0.05891925,0.03723171,0.072613016,-0.04486541,,
0.025255641,-0.059245408,-0.021068985,-0.059425298,,
-0.013092441,0.019341012,0.07222054,0.021840282,,
0.05342698,0.059822053,0.00048270696,0.044287365,,
-0.0019281289,-0.066524155,-0.056653183,0.020419192,,
-0.013669706,-0.012100533,0.039498396,0.04702464,,
-0.005487996,-0.074729115,-0.043137252,0.01173653,,
-0.08690065,0.032190695,0.022995465,0.08639511,,
-0.033533625,-0.0129203545,-0.047556076,0.03190407,,
-0.009374723,0.033848573,0.0057059363,0.053581994,,
-0.016651388,-0.032310266,-0.022160616,0.04635093,,
0.008086729,0.0057632416,0.0424634,0.032439567,,
0.05907135,0.032425184,0.082163006,-0.02828627,,
0.06294943,-0.114892736,-0.046477865,0.092881046,,
-0.07446406,-0.024793826,-0.047826257,0.012995372,,
-0.06047542,0.05024624,-0.04112691,0.038036834,,
0.027129047,-0.026813751,0.032771815,-0.0017499928,,
0.009184004,-0.060034007,0.010682321,0.03398126,,
0.044555906,0.09482444,-0.048881803,-0.0421285,,
-0.03241489,0.011646994,0.11823281,-0.0023181294,,
-0.008970838,0.054891035,0.025804942,-0.026484229,,
0.0049553104,0.05488723,0.025831476,0.00034869247,,
0.02558115,0.018273383,0.023121722,-0.04828445,,
0.016357841,-0.037138537,-0.031275887,-0.009387412,,
-0.04449539,0.10437156,0.05640121,0.022824468,,
0.03360453,0.08158448,0.09567169,0.050125267,,
0.061849315,0.019019324,0.03189658,0.051433157,,
-0.027380724,-0.003522651,-0.058837872,0.024587158,,
0.07453839,-0.025523227,0.014826275,0.03270993,,
-0.016268272,0.00574522,0.0309139,0.03990997,,
-0.004661651,0.05780614,0.018641887,-0.010886039,,
-0.014025057,0.0861249,0.02353573,0.0047844513,,
-0.045654118,0.05773266,-0.0076589934,-0.027074223,,
0.03717775,-0.011517873,0.024473522,-0.02617607,,
0.0035255624,-0.072725214,-0.028169414,0.030000893,,
-0.008097135,0.07260438,-0.000167946,0.044221185,,
0.007971406,0.0015619103,0.037466913,0.0005167317,,
-0.0034481138,0.030030154,0.037205968,-0.09635347,,
0.08151574,0.0004183121,-0.05820422,-0.02395949,,
0.040115148,-0.01504511,-0.035043605,-0.018467596,,
0.0027984243,-0.0612907,0.015621812,-0.027043743,,
0.050993863,-0.015884476,0.026612181,0.0039969003,,
0.078103,0.04940583,-0.03005279,0.04547212,,
-0.05455865,0.023817418,0.0435573,-0.061919615,,
0.00083976233,0.009788931,0.07546793,-0.005919274,,
0.0256212,0.005881055,-0.029449968,-0.032654442,,
0.05210923,0.0076395827,0.02491704,0.05350763,,
0.015831463,-0.016624976,-0.0708778,-0.011252688,,
0.0048107165,-0.051006764,-0.02032483,5.886322e-05,,
-0.060989544,-0.020559873,0.021082236,0.049051363,,
0.039772626,-0.09890844,0.030838467,-0.05838589,,
-0.024551624,-0.023572626,0.029553184,-0.028789202,,
0.047713146,-0.0015824155,0.0022507485,0.022771053,,
0.02797509,0.014747261,0.057460885,0.012501112,,
-0.03768736,0.04883238,0.05892255,0.03269215,,
-0.034818754,-0.03864296,-0.007216225,0.019247046,,
-0.052272372,-0.001585353,-0.08319215,-0.03218773,,
0.009168021,0.06514119,-0.022406813,0.11901335,,
-0.046740532,0.030050123,-0.0033058007,-0.04645133,,
0.047041852,0.0018122853,0.0075281807,0.017889498,,
-0.02528452,-0.08344681,0.01673297,-0.04964782,,
-0.02297778,-0.07202457,0.004750771,-0.058520075,,
0.009280625,0.03563543,0.044807866,-0.0011668331,,
-0.03009731,0.033223595,-0.09178671,0.09048173,,
-0.068534814,0.0075063044,-0.035752263,-0.019951118,,
-0.025594993,-0.0266069,-0.08038426,0.0057391985,,
-0.06224558,0.015517983,-0.0143313045,-0.05954036,,
-0.030881751,0.028978135,-0.022132259,-0.032763723,,
-0.018439727,-0.05120199,-0.04485481,0.05013787,,
0.0015490003,-0.059847258,0.053415086,-0.02339461,,
0.030116804,0.03066404,0.004259107,0.02869409,,
0.015528249,0.0483677,-0.030319424,-0.051413935,,
0.0073929746,0.02589018,0.014904436,0.12694727,,
-0.009993243,-0.030242193,0.013068836,0.01233628,,
-9.586714e-05,-0.05576141,0.010643642,0.08612913,,
0.038885865,-0.020901851,-0.02389546,-0.07118916,,
0.027736707,0.01712491,-0.0034339342,0.03632793,,
0.05293473,0.0058198515,-0.033259343,0.03947422,,
0.07314378,-0.057375874,-0.010659577,0.032363106,,
0.014363315,-0.021492397,-0.016067153,-0.023693115,,
0.016564121,0.06153979,-0.029757805,-0.021745969,,
-0.042639542,0.03188778,0.01483666,0.0022209894,,
0.004659281,0.023854077,-0.060738258,0.004717684,,
0.049920987,-0.030037742,0.012988564,-0.022125825,,
0.011495319,-0.050872523,0.011112107,-0.036148172,,
0.08693424,0.032766297,-0.06755037,0.0027494926,,
0.0050337277,0.005073953,-0.009404573,0.014647469,,
-0.025299016,0.018632034,-0.027579,0.055501208,,
-0.047706276,0.020230241,-0.017068258,0.0012918696,,
0.024709143,-0.024254384,-0.07530545,0.03977067,,
0.0005496877,0.089510925,-0.034210365,-0.13893013,,
-0.038351405,-0.021663828,-0.043898486,-0.028901145,,
-0.009025198,0.013051523,-0.03293091,0.033164665,,
0.024884567,0.05154644,-0.07926359,0.013137195,,
0.03824082,0.029635701,-0.025881765,0.003629135,,
0.006520796,0.010064957,-0.09044437,-0.017565886,,
-0.032704387,-0.019580599,0.009546671,-0.040965237,,
0.04657503,0.07330982,0.062694125,0.01993376,,
-0.03992705,-0.04474479,0.021291865,0.05492363,,
0.013548515,-0.08222622,0.054176554,-0.036049064,,
-0.043978177,-0.055018485,-0.048351854,0.01679462,,
-0.040621147,-0.0889416,-0.020416973,-0.058968555,,
-0.025553618,0.037201498,0.022960966,-0.06671291,,
-0.02738088,0.0035399923,-0.016556205,-0.0091310395,,
0.047416072,-0.0015474374,-0.02236551,-0.07114047,,
0.04128145,0.059656747,0.040290415,-0.023900023,,
0.044018716,-0.009908706,-0.03313573,0.018660475,,
0.021675756,-0.048560005,0.03262291,-0.009517741,,
0.0011075645,-0.025283564,0.0063572438,0.02529491,,
-0.07276418,0.056097902,0.03223,-0.062970184,,
0.015950345,-0.007815803,0.042146564,0.06514357,,
-0.008185933,-0.0019374351,0.036731932,0.04194117,,
-0.06026873,0.03521079,-0.016723331,-0.005756391,,
-0.069499165,-0.012249771,0.09712067,0.0905228,,
0.06461975,0.066915005,0.014107089,-0.05417385,,
-0.0042041237,0.053257667,0.03317728,-0.033057198,,
0.022719648,-0.0047223107,-0.036366053,0.009446284,,
0.12076281,-0.06066372,-0.03953836,-0.006976045,,
-0.09700996,-0.00333443,-0.012428538,0.04169515,,
-0.04466108,-0.035489626,-0.08188326,-0.017631581,,
0.086301714,-0.0825999,0.02605376,0.00043179927,,
0.079187185,0.014259459,-0.031422965,0.022133939,,
-0.002394707,-0.005711176,-0.013379273,-0.013894846,,
-0.028594673,0.02429003,-0.009993905,0.05199532,,
-0.049025062,-0.0068900767,0.014183787,0.04776717,,
0.03049707,0.0073191775,-0.055019863,-0.049580522,,
0.063439086,-0.07118088,0.011541289,-0.008808109,,
0.010641429,-0.03788007,-0.020409387,-0.045532078,,
0.06742638,0.01695981,0.024661869,0.013416778,,
-0.039419435,-0.06321222,-0.0059974752,-0.019061938,,
-0.08416127,0.09547311,0.032983087,0.022119116,,
0.061787788,0.035484504,0.031190092,0.012155739,,
0.034058467,0.07696667,0.0079056565,0.07206453,,
0.00029503755,-0.00039174053,0.023552947,-0.049376603,,
-0.032384798,-0.04051902,0.01401871,0.011905082,,
0.024788206,-0.032563653,-0.03433857,-0.015457208,,
-0.013543811,-0.011470081,-0.057837736,-0.069999084,,
-0.02116406,-0.038887653,0.058593053,-0.018797541,,
-0.09923144,0.0035089327,0.018533416,0.052819073,,
0.02097841,0.040455036,0.050807383,0.027742317,,
0.017140545,-0.057095863,0.004945848,0.10083165,,
0.020357555,-0.023848595,0.018818712,-0.006744931,,
-0.012628836,-0.10407519,-0.023489047,0.042178832,,
-0.04888557,0.075607665,-0.04169813,0.04370743,,
0.04727787,-0.03097225,-0.011370103,0.06730105,,
-0.10014247,-0.013242153,0.0613477,0.018882362,,
0.06310695,0.103257895,0.03351603,-0.045152556,,
0.014830349,-0.041118007,0.04282625,-0.06350148,,
-0.061277114,-0.036470357,0.022134677,-0.035911232,,
0.01599423,0.05762664,-0.02546751,-0.0025037343,,
0.057599638,-0.10047443,0.010169259,-0.03456329,,
0.032356825,0.012034904,-0.009200231,0.041773442,,
0.09520637,0.00012302437,-0.035229392,-0.007604393,,
0.0023206861,0.024669284,-0.05387456,-0.01853686,,
0.06510005,0.048613198,0.024769085,0.011387693,,
0.02128924,-0.0052455487,0.043930653,-0.066841885,,
0.0126016475,-0.04040157,0.009600828,0.02822545,,
-0.003858145,-0.021897772,0.03786924,0.025360197,,
-0.04052763,0.038451724,-0.036104895,-0.009162226,,
-0.04269858,0.067293674,0.07611021,-0.083724834,,
-0.02749358,0.024199117,-0.0014544543,-0.033365805,,
-0.0016698788,-0.03381605,0.078565255,0.0037578503,,
-0.01105609,-0.010086099,-0.028948095,-0.0014704078,,
0.028003553,0.08196477,0.015156428,0.02346068,,
0.00717558,0.049850862,-0.047922242,0.025333416,,
-0.0041232356,-0.026916375,0.0031455846,0.10580117,,
-0.064568624,0.04463239,0.0037222018,0.07523392,,
0.014731301,-0.0020152982,-0.07458274,-0.0099371085,,
-0.046282515,0.046193168,0.10631856,-0.05044403,,
-0.0541021,0.07749176,-0.00863845,-0.044411246,,
0.03458781,-0.12247942,-0.0096112825,-0.032999896,,
-0.034204792,-0.020162469,0.066911094,-0.0025978482,,
-0.028458731,0.01946308,-0.026737472,0.044356428,,
-0.060167383,-2.2860317e-05,-0.009092956,-0.06327488,,
-0.007170392,-0.0050264066,-0.024498928,0.09572549,,
0.1129486,0.047991283,-0.05521317,0.05279224,,
-0.027629998,0.024456767,0.0129138585,0.018292494,,
-0.012478093,-0.004732215,-0.008152287,-0.008240973,,
-0.0048946897,0.006543255,-0.0046861353,-0.00020400647,,
0.06851529,-0.032026708,0.04164388,0.09009618,,
0.011436614,0.029670047,-0.026605329,-0.010135282,,
0.03368766,-0.033492405,0.03100085,-0.0019396939,,
-0.086666636,-0.012179254,0.03309095,-0.029980889,,
-0.03766257,-0.013941594,0.0036247862,0.089356214,,
-0.007920041,0.0009643443,0.023928385,0.043637898,,
-0.024311498,-0.047454484,0.030674227,0.08217874,,
0.0007845318,0.02194349,-0.055241253,0.011287456,,
-0.046936505,0.07052774,-0.0025793102,0.02326105,,
-0.0479066,-0.088565044,-0.046827678,0.05564616,,
0.026720183,0.005806331,0.008529406,0.05594164,,
-0.025948634,0.04037853,-0.019370554,0.05081021,,
-0.038708244,-0.0072810403,-0.055831596,-0.006254441,,
-0.012869515,0.006660218,0.019803891,0.017396362,,
-0.03275201,0.025804618,0.05074584,0.07770925,,
0.10034949,-0.007677879,0.039258387,0.032019947,,
-0.03860237,0.013154219,0.04886748,0.07310981,,
0.100099094,-0.050045762,0.045852065,-0.038842045,,
0.034484424,-0.050990082,0.0033305092,0.016581539,,
0.030259678,-0.05921357,0.014041766,0.03429099,,
-0.048579473,-0.031848166,-0.0020852557,-0.016475677,,
0.0022388475,0.006353781,-0.003659089,0.029137,,
-0.051156275,0.04636179,-0.030431837,0.04932259,,
-0.0610387,0.04031644,0.004985521,0.018653952,,
0.039380938,0.01737441,-0.051635053,0.028980643,,
0.07439922,0.0016833538,-0.0032880274,0.03339153,,
0.04142311,0.00047138377,0.0054794597,0.046842474,,
-0.031470332,-0.0031760812,-0.053593863,-0.019464789,,
0.044127524,0.043449435,0.09432514,0.045258716,,
0.105061285,0.049923588,-0.057571925,-0.03992158,,
-0.00043467167,0.05790088,-0.00969624,-0.041535012,,
-0.017268028,-0.037867993,0.042730328,-0.05123089,,
0.07117113,0.08001435,0.043158844,0.008654336,,
0.013963731,-0.035323307,0.032816455,0.007590654,,
-0.02894867,0.036021847,-0.0015280761,-0.08887732,,
0.06500074,-0.086769156,-0.06469386,-0.043483302,,
-0.03331466,0.06254722,0.016244406,0.010874205,,
-0.037183102,-0.057735346,-0.06690319,0.0166319,,
0.043825623,0.015265911,0.07395344,0.007262089,,
-0.08319196,0.0100126285,-0.043357946,0.01728709,,
0.034973137,-0.03231892,-0.014709742,0.028815353,,
0.023246417,0.049333267,0.025589354,0.089726016,,
-0.14452557,0.02884747,0.018893134,-0.09367398,,
-0.025557954,0.008344192,0.033089343,0.09778246,,
0.024584401,0.042664487,-0.05488649,-0.027771017,,
-0.034023844,-0.032261465,0.032457616,-0.033978745,,
-0.024486467,-0.011910228,0.02595964,-0.004687465,,
0.029584259,-0.05414919,0.058901433,-0.08592417,,
0.06324136,-0.008772904,0.0044404934,-0.04125755,,
-0.012150052,-0.009324105,0.019978415,0.055640135,,
-0.0447698,-0.04490739,0.050062347,-0.0050138216,,
0.050679684,-0.07530107,0.012188085,0.039297607,,
0.0046498426,-0.06737792,0.049428772,0.035707388,,
0.028873056,-0.03626622,0.0674687,0.054200508,,
-0.038334098,0.0019341435,0.033676054,-0.00043766154,,
-0.015457909,-0.08569777,8.126921e-05,-0.03192974,,
-0.06934942,0.04427374,-0.024886785,-0.017328383,,
-0.0013215375,0.042694185,0.022902682,-0.00027645825,,
-0.016162533,0.052507974,0.005277351,0.02660272,,
0.04031741,0.050141614,-0.01074657,-0.019127084,,
0.061675448,0.024883477,-0.032285035,0.03456286,,
0.07223438,0.07660914,0.049193665,0.0018368806,,
-0.015287263,0.036179457,0.04204135,0.0007405135,,
-0.027394615,0.052005984,-0.09238893,0.032181468,,
0.016532939,-0.00049362314,0.03745081,0.05489963,,
0.050491855,-0.008906583,0.055894796,-0.008493613,,
-0.007874784,0.03465932,-0.03918951,0.048845347,,
-0.008727533,-0.010490387,-0.05427307,0.045799803,,
0.082994945,-0.040342476,-0.051547904,-0.05457684,,
0.027792633,0.02100699,0.075780354,-0.04136209,,
-0.017719528,0.06448295,0.059104737,0.09590148,,
-0.012815046,-0.045176145,-0.0061321566,-0.049715713,,
-0.011808041,-0.05275058,-0.02017858,0.042408854,,
0.0067433408,0.0039233807,-0.0026409654,0.017779145,,
0.06740971,0.011048293,0.0012915357,-0.019081099,,
0.06919995,0.019415155,-0.013259072,0.018919433,,
-0.027109765,-0.017083695,-0.03876512,0.006534555,,
-0.00048401125,-0.026240945,0.006482746,0.042589188,,
0.038623147,0.04004435,-0.014654374,0.065610014,,
0.022593182,0.041275874,-0.0012208738,0.014477171,,
0.0778484,0.06404081,0.006045887,0.01853341,,
-0.066283144,-0.0013653957,-0.023089267,-0.028050693,,
-0.014524771,0.009436389,-0.043528743,0.0012249247,,
-0.050541632,-0.0016381077,-0.010553973,-0.00708308,,
-0.04157262,0.014226003,-0.03995803,-0.0056033162,,
-0.026296126,-0.03805621,0.012450959,-0.04312543,,
-0.0016254291,0.018328292,-0.038435906,0.059881713,,
-0.00086498074,-0.03832918,0.004037512,0.02287451,,
-0.037141755,0.02254207,0.026211008,0.04571368,,
-0.027883917,0.07883293,-0.07403948,-0.0024470303,,
-0.041430373,-0.08235448,0.04912086,-0.018529655,,
-0.058700398,-0.0734247,-0.040753834,-0.040457357,,
-0.041862775,0.047308885,-0.018874666,-0.030172778,,
-0.076401785,-0.012735188,-0.024375413,-0.041810848,,
0.08409983,0.09767774,0.026760416,-0.030991588,,
-0.056409705,-0.034065213,0.073412806,0.0038167217,,
-0.078352116,-0.019763624,0.021150017,0.05413266,,
-0.013268586,0.08353143,-0.06556553,-0.015626661,,
-0.03899854,-0.06966854,-0.0003062547,0.03109974,,
0.0030389235,0.02925461,0.017307974,0.001885411,,
0.042426523,0.019718828,0.005442822,0.024770899,,
0.009714652,0.017729465,-0.03794699,-0.031247023,,
-0.0011253469,0.07068491,-0.052275613,-0.025862094,,
0.008149263,0.022167975,0.036994826,0.017163962,,
0.01696498,-0.05189256,0.024517437,0.06609347,,
-0.08144492,0.04873277,-0.028052252,0.019998847,,
0.04977495,-0.026560728,0.044105306,-0.02803233,,
0.050064947,0.017073793,0.026684888,0.07720805,,
-0.10234805,-0.07024005,-0.0041280813,-0.055485003,,
0.025965892,-0.031390168,-0.103662826,0.12599587,,
0.025088977,-0.0050178156,-0.030718544,0.10687051,,
-0.024071122,-0.015152598,0.010863459,-0.09693869,,
-0.009339427,-0.06311169,0.03993575,-0.057427414,,
0.026552718,0.05456589,-0.08848912,-0.0032856127,,
0.07625275,0.057841696,-0.09991859,0.0056930147,,
0.023857849,-0.035321914,-0.048299346,0.012835593,,
0.0007474633,-0.052678503,0.062250964,0.010791135,,
0.033642825,0.024752261,-0.0296998,-0.016701853,,
0.0099266935,-0.0070739016,-0.026724534,-0.08084161,,
-0.052957755,0.07480069,-0.00997559,-0.038330216,,
-0.015836317,0.00046405825,0.0447155,-0.021442195,,
-0.026361708,-0.005584641,-0.0052558165,-0.03193808,,
0.015950687,-0.083311945,0.06621622,0.020409143,,
-0.052549876,0.00025281828,-0.0022605397,0.023340743,,
0.0013804915,-0.022930173,0.060438503,-0.014920402,,
-0.04290342,0.0264206,0.07451591,0.00900401,,
0.021850137,0.029938526,-0.06630538,-0.027274156,,
0.0037522893,0.026685204,-0.03379743,0.016652694,,
-0.009835328,0.008908154,0.04540326,0.028305596,,
0.029770652,-0.025325663,0.036397327,0.047938365,,
0.04891612,-0.02177855,0.04735074,0.044137016,,
-0.06875618,-0.001365026,0.021124704,-0.030834436,,
-0.06627695,0.07129627,-0.012329892,0.003280945,,
-0.05708103,-0.03894887,-0.0554664,-0.02144737,,
0.08606965,0.06896947,-0.014809504,-0.015607249,,
-0.0047636195,0.07327158,-0.11472026,-0.08363549,,
-0.014490823,-0.019684087,0.008283403,-0.011075281,,
0.022587819,-0.001313355,0.045189258,-0.026047567,,
-0.016883772,-0.004676109,0.03395993,-0.044319775,,
0.0001318372,-0.0017589661,-0.0419361,-0.0006650925,,
0.020291321,-0.017916705,-0.016604329,-0.006230829,,
0.07485698,-0.06612299,-0.072949395,0.017311258,,
-0.072311044,0.052167412,0.00015261101,-0.04327828,,
-0.07606128,-0.025450082,0.0070618223,0.09007924,,
0.07089115,-0.11642459,-0.107469216,0.091721065,,
-0.048636183,0.015667468,-0.0043237736,0.0049667344,,
-0.028758278,-0.027678063,0.03531063,0.032520607,,
-0.032043274,-0.062190823,0.04550752,-0.034616183,,
0.037243623,0.010294678,0.02194148,-0.018547647,,
-0.018269598,0.011491678,-0.0144721065,-0.02299331,,
0.050012212,-0.015834697,-0.008439815,-0.10455197,,
-0.064198725,-0.042296182,-0.042477902,0.037580516,,
-0.035560355,0.060334403,0.057930157,-0.09246342,,
0.047266383,0.08725549,0.11644623,-0.010423548,,
-0.03948293,0.013424416,0.04953416,-0.0036296153,,
-0.05208161,0.010083902,-0.02278035,0.03600871,,
-0.038929097,-0.044301454,0.028707827,0.030239688,,
-0.035848882,-0.039851096,0.03140892,-0.010160868,,
0.02392781,-0.025803162,-0.012546005,0.09323229,,
-0.038540646,0.030136276,-0.08584835,-0.033589695,,
0.0066904547,-0.010151889,-0.1068453,0.06907162,,
-0.05415011,0.020810083,0.015565416,0.0070340987,,
0.021273015,-0.008232995,-0.014936591,-0.06857808,,
-0.0032459828,-0.05995164,0.008266334,-0.01930497,,
0.063364096,-0.06662308,-0.002235006,0.0555498,,
0.04449418,-0.046912763,0.01450516,-0.013240969,,
0.035566434,0.0119787315,-0.008551565,0.014610492,,
0.017883321,-0.03410566,0.012915039,-0.07449398,,
0.041028854,-0.021569587,-0.0035612162,0.053186484,,
0.037383005,0.08184051,-0.10338076,-0.003078906,,
0.009887659,0.035071474,0.0031476412,-0.048495073,,
-0.025159858,-0.04938216,-0.0015381123,-0.041324954,,
0.049225174,0.056447808,-0.008853063,0.016851371,,
-0.01521288,0.12217113,0.0322803,-0.0519019,,
-0.029740982,-0.088405736,-0.004845219,0.044394776,,
-0.018079331,0.02275477,-0.07304792,-0.02561134,,
-0.020394325,0.04074052,-0.030563116,0.024455069,,
-0.034332544,0.00538212,0.04778334,0.030913,,
0.03311723,0.028835535,0.03622303,0.040274236,,
-0.06868093,-0.06330638,0.02260618,0.15763997,,
-0.020929448,0.057499316,0.039027944,0.019143974,,
0.053417586,0.002978623,0.024246624,-0.021390812,,
-0.02524105,-0.014857942,-0.06085652,-0.088981144,,
0.038073692,0.02282501,0.0289192,-0.009985982,,
-0.0037956217,-0.068539284,0.043690566,-0.010226665,,
0.0021689169,-0.06634814,0.033412382,0.0580152,,
-0.015561043,-0.015123801,-0.03970854,-0.06146564,,
-0.07321434,0.005399392,-0.07789627,0.044084538,,
0.018982498,-0.036792394,-0.08152533,0.018759333,,
0.019445421,-0.113079414,0.00032596762,-0.009408159,,
-0.08184387,0.09576337,0.024094082,0.03197321,,
-0.007166802,-0.06930153,-0.0009608673,-0.008244944,,
0.032554094,0.01001234,-0.05214678,0.031757325,,
-0.07150569,0.0017494563,0.014559536,0.0035568434,,
0.048100088,0.07226479,0.037303474,0.07218705,,
0.054495923,0.03672299,-0.09031299,0.033365592,,
-0.017475516,-0.034771215,-0.031258788,0.06312854,,
-0.074821785,0.03144006,0.024049904,-0.0903998,,
-0.110054925,-0.019261776,-0.013231218,-0.017511781,,
0.036002737,-0.05498742,0.026359387,-0.044116765,,
-0.04681691,-0.049982704,-0.03993016,-0.015209642,,
-0.008440971,0.019037366,-0.03936565,0.043086447,,
-0.0505392,-0.03925544,0.057223335,0.012414033,,
-0.036957953,-0.018312102,-0.020057693,-0.024629064,,
0.023589773,-0.041962564,0.09704382,-0.07023366,,
0.101610325,-0.021438168,0.07142273,-0.004665208,,
-0.029151486,0.03153891,0.030192861,-0.05784498,,
0.049619626,-0.06815332,-0.026472067,0.056306057,,
0.022221118,0.019922784,0.0035238003,0.004334001,,
-0.073573366,0.06414541,0.011313842,-0.031925432,,
-0.10008412,-0.003608894,0.053699896,-0.00956535,,
0.05478771,0.03396595,0.039967556,-0.030203626,,
0.010679645,-0.064573765,0.082509995,0.01462194,,
-0.059694253,0.0056312727,0.027436074,-0.016868481,,
-0.014084318,0.03248116,-0.030597545,0.055537328,,
-0.02674634,0.04791807,-0.06181989,-0.03865919,,
-0.040934548,-0.026528127,-0.058217075,-0.038897097,,
0.016066564,-0.056199595,-0.0030416488,-0.06308726,,
0.07032937,-0.010051315,-0.03771349,0.043765333,,
0.010983342,0.07313686,-0.00035680924,0.019386305,,
0.022546146,-0.03234175,0.0016563173,-0.006470309,,
0.018050764,-0.02598816,-0.0071397014,0.051740814,,
-0.058183137,0.03931802,-0.06019311,0.013660018,,
-0.021208834,-0.034083594,-0.008098311,0.016319774,,
0.053410184,0.035900358,0.026668876,-0.054219287,,
0.017503394,0.03293046,-0.050346434,0.047328442,,
-0.007452758,-0.043740068,0.006831449,0.03352815,,
-0.0058352044,-0.003891131,-0.028249564,-0.083929986,,
0.01034637,0.012203331,-0.0027004306,0.05359456,,
0.002804796,-0.038757093,0.026204856,-0.025231695,,
0.051067736,-0.020978706,-0.07911265,0.03131267,,
0.013554685,-0.07821647,0.02245515,0.039668255,,
0.08689628,0.045774847,0.045075078,0.044793732,,
-0.06768407,-0.018780036,0.008206798,0.06013879,,
0.11508018,0.045459703,0.027064713,0.036143802,,
0.010567313,-0.039318033,0.0029775577,-0.037058514,,
0.037934054,-0.06744207,-0.014123864,-0.0070215813,,
0.0128045585,-0.06287812,0.08774497,-0.065238,,
-0.051568042,-0.01410136,-0.12337695,-0.02786603,,
0.029935632,-0.0071690446,-0.015694432,0.026861498,,
-0.05983384,-0.024782704,-0.011723541,-0.013051573,,
0.011539492,0.06793164,0.060272884,-0.07218699,,
0.016222805,-0.033378527,-0.02018253,-0.056079283,,
0.01625717,-0.018148487,-0.04644977,-0.019586997,,
-0.047650434,0.032463748,-0.02853637,0.015772425,,
-0.10201559,-0.08177783,-0.02000825,0.08066309,,
-0.018797098,0.029878128,0.011372408,0.13183075,,
-0.011036477,0.07847305,-0.0015218799,0.059066195,,
-0.026169362,0.041832406,-0.03660892,0.001211388,,
0.0025719167,-0.04520536,-0.0147809815,0.07302291,,
0.041723184,-0.08416463,-0.07125312,-0.068697035,,
-0.071124546,0.0036682275,-0.030317193,0.04213988,,
0.009311322,-0.048756115,-0.028916886,0.07263659,,
0.018153727,0.0014728275,-0.11173708,0.060183804,,
0.026966823,0.015536735,0.098557524,-0.05187885,,
-0.054232277,-0.031884562,-0.030410014,0.09670362,,
-0.07801217,0.029779626,-0.04360798,0.05895677,,
-0.02461412,-0.031901628,0.06589598,-0.028156998,,
-0.055781737,0.028621709,-0.015213901,-0.001451349,,
-0.006581089,-0.0016071192,0.026872272,0.013380344,,
-0.015898386,-0.00831089,-0.044023834,0.07583321,,
0.0019473088,0.024499092,0.008705902,0.014687896,,
0.11505457,-0.009484182,0.07144108,0.0034810123,,
-0.053554017,0.0664845,-0.09268964,-0.014741393,,
0.010773062,0.058238447,0.048413273,0.058603592,,
0.010123437,0.00974209,-0.0055970843,-0.03475423,,
-0.07030023,-0.033104368,-0.029439276,0.09951751,,
-0.005439374,-0.05469804,0.06274073,-0.012074287,,
0.0019781238,0.061783273,0.009643226,0.031412162,,
0.061975922,0.0078969505,0.07536002,0.10494625,,
0.009456184,-0.01057148,0.073061764,0.066117056,,
-0.07348856,0.03707661,0.0134495925,0.09287782,,
-0.025968285,0.05781386,0.059661947,-0.012298923,,
0.0018750841,0.0711274,-0.01663773,0.04507573,,
-0.008351993,0.020594016,0.035779547,0.007244637,,
0.026113546,-0.052776016,0.0352075,0.07377191,,
-0.0041437875,-0.011738257,-0.043328594,-0.05384484,,
-0.038382977,0.03935167,-0.033606615,0.014267323,,
0.043260273,-0.06166687,0.07309714,0.106420085,,
-0.010211891,-0.0014024376,-0.040724076,0.0007247995,,
-0.031894535,0.024190333,0.03464904,0.024130685,,
-0.02299505,-0.0383111,-0.050680563,0.06762735,,
-0.018750424,0.023763863,0.021545427,0.090936564,,
0.02672651,-0.07410096,-0.004155482,0.029196514,,
0.0026085335,-0.037043504,0.038897105,-0.022528533,,
0.0025596744,0.030554054,0.0028761858,-0.050321087,,
0.03920447,0.0031684218,-0.06811675,-0.031938493,,
0.009417329,0.0051012454,0.044672728,0.06792243,,
0.024879703,0.041871034,-0.0026335982,0.04885101,,
0.06859814,0.033412196,-0.04018954,0.011408221,,
0.00089577405,-0.044655565,-0.08348274,0.011926832,,
0.04349595,0.076765895,-0.097507395,0.055342987,,
-0.015783114,-0.056424484,-0.12889494,0.091770306,,
-0.015605575,-0.01213213,0.076495595,-0.028939458,,
0.026537536,0.01762453,-0.041121285,0.04594322,,
0.024959795,0.01896509,0.0063480274,0.017547831,,
-0.03095217,0.01897373,-0.06049974,-0.033767197,,
-0.06781438,-0.04384481,-0.002172981,-0.018615337,,
-0.035656534,0.043385524,0.009275107,0.035621326,,
0.019535683,-0.012129762,0.024610445,0.05295352,,
0.016236737,0.03271798,-0.04325355,-0.017359784,,
-0.0498517,-0.0037379868,-0.0074786153,-0.003769188,,
0.018695949,-0.024620585,0.015659198,-0.047959812,,
-0.05964359,0.013370557,0.10092404,-0.0078032534,,
0.03914664,-0.024305126,-0.052191388,0.008483303,,
-0.022227582,-0.053170808,0.10579671,0.03882023,,
-0.0055348175,-0.0058555664,-0.06122704,0.024778021,,
-0.013756383,-0.029024703,0.097601525,0.026139129,,
0.07322483,-0.047451753,-0.003974977,0.008717887,,
0.048921615,0.014186458,-0.064571686,-0.06741672,,
-0.05171834,0.048173346,0.06603839,-0.0023780807,,
0.01566513,0.049305525,0.059004582,0.0561013,,
0.045797344,-0.0005015307,0.044408258,0.03615443,,
0.09317448,0.007941166,0.053296827,0.008526818,,
-0.021140235,-0.02145158,0.01922043,-0.014158874,,
0.06713809,-0.059049238,-0.0768872,0.011810221,,
0.014919861,0.017846597,-0.011926099,0.0036789235,,
0.0063041537,0.02690469,-0.06900694,0.034738015,,
0.0308768,-0.011782981,0.0264981,-0.047113948,,
-0.032026608,0.018239968,0.038920015,-0.0065731504,,
0.059331127,-0.055968106,-0.07196304,-0.009980461,,
-0.017242013,-0.106054395,0.021805836,0.0066072154,,
0.007025515,0.008795404,0.0017644142,-0.0064958236,,
-0.049960427,-0.033937916,-0.022835886,-0.043571275,,
-0.0140997125,0.08758604,0.011242036,0.01535055,,
-0.040675793,0.052534282,-0.0031936113,0.042418033,,
-0.05232152,0.044430062,0.00042087215,0.08112175,,
-0.007066049,-0.0031154968,-0.060290903,-0.0092044715,,
-0.10166777,0.001987642,-0.037416786,-0.01279544,,
-0.0077813948,-0.07003301,-0.060550187,0.07080984,,
-0.011387254,0.0047959993,0.0106583545,-0.009774068,,
-0.040448777,0.05254294,-0.007979804,-0.008215863,,
0.061340492,-0.02936332,-0.010105831,0.027917273,,
0.0007505799,0.04882477,-0.027504094,0.02024608,,
-0.018703837,-0.00015247232,0.0031331386,0.06088009,,
-0.052856803,-0.05641246,-0.13647594,-0.003972335,,
0.061813347,-0.0055047353,-0.05445642,0.008869053,,
-0.009960566,-0.051518574,-0.002585973,-0.042525254,,
-0.049540654,0.025031595,-0.01976531,-0.048565313,,
-0.049469303,0.022887764,0.041442953,0.048190303,,
-0.010150336,0.005486185,0.027149832,-0.040174697,,
0.06114174,0.012923497,0.01646944,0.13167492,,
-0.016365036,0.020812629,0.029859774,-0.0472862,,
-0.016973738,-0.029320264,0.044575047,0.0433414,,
0.023062712,0.030838264,0.035901584,0.04561125,,
0.0046615233,-0.033781424,0.020253284,-0.05605018,,
0.030812364,-0.022657143,0.045196217,-0.02787463,,
-0.020466117,-0.022908434,-0.0073366347,0.038506117,,
0.042366143,-0.043803636,-0.024073442,-0.026111955,,
-0.012993631,-0.016873425,0.003181833,0.057042696,,
-0.06345914,0.09660676,-0.05435268,-0.027801614,,
0.049873777,-0.017525697,-0.06765117,0.059305046,,
0.01145584,-0.004795349,-0.020489603,-0.03551924,,
-0.01612711,-0.00021598757,-0.1117261,-0.0703915,,
0.029159559,0.016267585,0.059333622,0.033504777,,
-0.0351768,-0.026615513,0.04788039,-0.035060707,,
0.038901474,-0.02594729,0.043903273,-0.049796697,,
-0.053536948,0.0008619956,0.03627952,-0.09149749,,
0.014475564,0.077205256,0.036750007,0.039000288,,
0.015777152,-0.0130059915,0.005727047,-0.0059977933,,
-0.039995294,0.034088857,0.040778935,-0.0051412266,,
-0.013517571,-0.020263143,-0.023352463,0.02530846,,
0.018004587,-0.014493757,0.009818898,0.062037036,,
-0.015309889,-0.06007462,-0.036583114,0.001561982,,
0.04640095,0.0171249,-0.011642661,-0.014791906,,
0.07744397,0.020765796,-0.050982427,0.018107949,,
0.00042954794,-0.007968185,0.0058593014,-0.018928599,,
-0.039986726,0.001400483,-0.008124879,-0.011810281,,
-0.013574977,-0.03338923,0.026482025,-0.025762724,,
-0.021372357,-0.03433769,-0.044215534,-0.06416392,,
-0.087155215,-0.04161522,0.0043443493,-0.008535228,,
-0.027679242,0.017741509,0.03247105,0.04539522,,
-0.017555036,-0.023572732,0.0072964043,0.06315563,,
0.06452437,0.00063746015,0.00911559,0.021472165,,
-0.0060967333,0.00017760391,-0.036564898,-0.017706161,,
-0.041739706,-0.055842776,-0.08891102,0.12820956,,
0.07207761,-0.120736524,-0.06701473,0.015574878,,
-0.03107304,-0.05829347,-0.08215484,0.011524068,,
0.015153921,0.050404765,0.007813318,-0.019912655,,
0.018047616,0.10128288,0.0077400203,0.003818735,,
0.07457829,0.040715557,0.052306868,-0.01661675,,
0.043276444,0.034442864,0.012952502,0.012736686,,
0.034638844,-0.01019521,-0.10881742,-0.029616233,,
-0.06208083,0.056084536,-0.07374114,-0.043908197,,
0.0676678,-0.0033744562,0.038985386,-0.030615035,,
-0.039973624,-0.0034718744,-0.010095416,0.016113417,,
-0.064585045,-0.020505182,-0.018784061,0.0022952913,,
0.0049672676,-0.063062266,0.010600511,0.006446575,,
-0.11582979,-0.04820487,-0.03889918,-0.035146605,,
0.022139708,-0.014375167,-0.12085458,-0.02933134,,
-0.063807696,-0.012239829,-0.025220396,-0.023911003,,
0.03537767,0.0066487603,0.035825215,-0.030859238,,
-0.008305936,0.03412813,0.038267802,-0.041915443,,
0.030100206,-0.008766417,-0.06430928,-0.017034205,,
0.0056727543,-0.04191041,-0.07146693,-0.094794825,,
0.0125818895,0.04967182,-0.0069786054,-0.02437156,,
-0.012190594,0.02205898,0.058842033,-0.037087366,,
-0.023669222,-0.032016434,0.022978798,-0.039649136,,
0.04531663,0.057594664,-0.022071293,-0.03760477,,
0.059382096,-0.0075755953,0.07419412,0.016967474,,
0.066803776,0.048569486,-0.023573136,0.006405406,,
0.014806606,0.009188137,-0.03525812,-0.024147699,,
-0.021383224,0.01589082,0.03934758,0.012522082,,
0.044561908,0.10037361,-0.102800556,0.024960203,,
0.028280094,0.0027122549,-0.06525296,-0.075577706,,
0.08928748,-0.04091924,-0.03570143,0.022789141,,
-0.0016748394,-0.0023408423,-0.013940306,-0.020866165,,
-0.07052926,-0.04275394,-0.0036491856,0.028406164,,
-0.070192955,0.054310407,0.018054657,0.0034298624,,
-0.016195001,-0.058977503,0.014356585,-0.038476836,,
0.014606861,0.006111666,-0.07129291,0.0097936485,,
-0.042859584,-0.06359629,0.005810614,0.009818998,,
0.068558194,0.012578962,0.0046455287,-0.067513525,,
0.03101412,-0.050280467,0.05817632,-0.008285676,,
-0.0068892473,0.016001323,-0.030838441,0.0026681528,,
0.076486826,-0.0056984797,0.046108697,0.015823822,,
0.023331229,-0.062196277,-0.058778875,0.06744468,,
0.04903771,0.011840753,0.038203154,0.023419362,,
-0.029437039,-0.017368957,0.03659337,-0.03458909,,
0.024097966,-0.03399293,0.09610586,0.02111745,,
0.049161356,-0.05426625,-0.04630315,-0.010293144,,
-0.061353464,-0.102742776,0.017608047,0.021181762,,
0.005515514,-0.0977785,-0.14581585,0.046757184,,
0.039292667,-0.08104959,-0.027818182,0.015594583,,
0.04992218,0.0277006,-0.102780715,-0.008798121,,
-0.10291188,-0.065455444,0.019417267,0.057739936,,
-0.058437135,-0.019161787,0.011974844,0.042544108,,
0.0009566217,-0.038334064,-0.030263718,0.03932485,,
-0.013550739,-0.012303829,0.067051105,0.008185598,,
-0.0018383363,0.015612408,0.021631774,-0.09648556,,
0.022912977,-0.02769217,-0.03328366,-0.106729485,,
-0.085715905,-0.014363836,0.093943916,-0.02855564,,
0.028609186,-0.054059725,-0.011951434,-0.05984732,,
-0.020708717,-0.03431222,0.026283367,-0.030357452,,
0.026487658,-0.008309496,0.06344921,0.052584894,,
-0.05162788,-0.11358448,-0.032375224,-0.089147724,,
-0.013133605,0.002864417,0.012369224,-0.008643847,,
-0.010743362,-0.0041487818,-0.029619804,-0.06633592,,
0.038719118,-0.011891507,0.06542135,0.076919146,,
-0.056519683,0.028767264,0.036332563,0.009846034,,
-0.0214401,0.002479648,0.0113436775,-0.023678277,,
-0.09139755,-0.0073856334,-0.09853388,0.047509648,,
-0.045697447,0.0241406,0.05155338,0.0556586,,
0.011634591,-0.009722156,0.025454309,0.016641255,,
0.02663535,-0.017269926,-0.016024908,-0.030530117,,
-0.012944911,-0.03759109,-0.05782089,0.008993113,,
0.032500513,-0.06712687,-0.1011671,0.01924299,,
0.07159859,0.07677273,0.0010675003,-0.04224627,,
-0.07054214,-0.059005387,-0.0007549843,-0.055119768,,
-0.030302593,-0.0020763369,0.08357531,-0.0019792826,,
-0.033952925,0.028269535,0.026333163,-0.008129034,,
-0.027856821,0.07057715,-0.03776534,-0.01083006,,
0.09228,-0.005079587,0.020653414,0.0039958283,,
0.10140094,0.029206077,0.025972068,-0.020929044,,
0.04638657,0.059392497,0.0027190372,0.0017057664,,
-0.045285117,0.052868,-0.08098246,0.03822218,,
0.09029121,0.008004028,-0.02959947,0.014222184,,
-0.016397953,0.01461988,0.00044575153,0.041855685,,
0.03463108,-0.031702857,0.0003582947,-0.009183174,,
0.0096068075,-0.003734811,0.01615828,-0.007450063,,
-0.107785165,-0.0060193674,0.022193369,-0.0056886543,,
0.041822962,-0.06408317,-0.09002956,0.013828754,,
0.06935925,0.10945878,0.061998185,-0.0074961823,,
0.020841846,-0.010278487,-0.008273676,0.002401845,,
-0.014206371,0.042934895,-0.1261882,-0.04468279,,
0.02121629,0.0002932317,0.04767137,-0.03977007,,
-0.006565689,0.024111148,0.03743083,-0.05053596,,
-0.0035970863,-0.022722665,-0.029675353,0.08291724,,
-0.018947486,0.095985785,0.020904563,0.043231927,,
0.047269683,-0.030034242,0.010909101,-0.0031823195,,
0.036385242,-0.00011285991,0.09013796,-0.009018374,,
0.026347276,-0.047059555,0.07751357,0.06015347,,
-0.02135644,0.055527583,-0.03048909,-0.03427191,,
-0.03354602,-0.042028137,-0.014193035,0.03097248,,
0.018793507,-0.067039154,-0.059442796,-0.041505832,,
-0.022341944,0.014460167,-0.019388448,-0.014193398,,
0.01702323,-0.027132688,0.042333655,-0.02626019,,
0.056956023,-0.07693741,-0.06302878,-0.04909045,,
-0.023909558,-0.07692069,-0.09887032,0.07384601,,
-0.03626537,-0.026740573,-0.02668332,0.08767161,,
0.017939543,0.06738877,-0.10244081,0.019715598,,
-0.0009403778,-0.014297782,0.024922859,-0.017480422,,
-0.0448536,-0.042991955,-0.0140507,-0.08741747,,
-0.028526077,-0.011133953,-0.057351824,0.0054737222,,
0.01700165,-0.026417796,0.019123038,-0.026683684,,
-0.0072255107,-0.040688436,0.037455197,0.023012964,,
0.014085878,-0.0735998,-0.0031899519,0.04692507,,
-0.0012322757,-0.052481744,0.027494779,0.0025129463,,
0.03241577,-0.09624131,0.027593227,-0.015522008,,
0.010586489,-0.068872154,0.01265229,0.040468108,,
-0.0012221448,-0.009435308,-0.0071239043,-0.04524126,,
0.0032216734,0.09191009,-0.015279955,-0.0403387,,
-0.027611634,0.03637048,-0.064991556,-0.024913037,,
-0.01824671,0.0073565175,0.005020076,0.041769683,,
-0.04163498,0.030966893,-0.029981073,0.03717714,,
-0.0024426857,-0.0890182,0.015890772,0.029447485,,
-0.07060106,-0.10064831,-0.024189806,0.010601915,,
-0.042444613,0.02973148,0.007828389,-0.052419797,,
0.0021517861,0.037058465,-0.046078645,0.031238267,,
-0.022531364,0.022152646,-0.07115647,-0.05232533,,
-0.014304389,0.0036704065,-0.057918433,0.04287647,,
-0.03285766,-0.032464765,-0.020500554,-0.007880752,,
0.024945756,0.025151106,-0.094672546,0.0064040925,,
-0.022612866,-0.05048628,-0.09745538,0.028066946,,
-0.017137986,-0.00834214,-0.0009939425,-0.029550953,,
0.010368596,0.03607492,-0.042111237,0.035112165,,
-0.06574725,0.081543356,-0.042284206,-0.0041268743,,
-0.021025918,-0.020684652,-0.10129592,-0.07516233,,
0.009259468,-0.05641981,0.022891374,0.066025,,
0.1127129,1.6197242e-05,0.0048640263,0.01418785,,
0.065613486,-0.004299228,-0.043713987,-0.039519344,,
0.04261884,-0.017356183,0.021681868,0.038413953,,
-0.018127125,-0.020977708,0.054385185,0.05547108,,
0.021575509,-0.0007585628,0.012845995,-0.0062710163,,
0.06551426,-0.014078137,0.012087624,-0.012244034,,
0.049727164,-0.064547956,0.05640956,0.025684305,,
-0.012557014,-0.102657,-0.09402664,0.021101039,,
-0.059371747,-0.0015660769,0.046461195,0.0021013215,,
0.09320507,0.010364553,-0.008541928,-0.025177594,,
0.014695097,-0.064413324,0.008524833,-0.055135455,,
0.024411304,0.029136159,0.017838426,0.015158725,,
0.024513151,0.02701001,0.044639297,0.013230013,,
-0.004500748,0.012825933,-0.016303511,-0.081966564,,
0.074262425,0.0114178555,-0.015584571,0.0026478088,,
-0.00012972587,-0.009300692,-0.07073293,0.0017428803,,
-0.05181088,0.0044784667,0.022197206,-0.0534439,,
-0.114255406,-0.028985113,0.029132348,0.037318688,,
0.013233312,0.04418328,-0.048849598,-0.043088652,,
0.012649915,0.02456913,-0.03482486,0.056474503,,
0.10829454,-0.01988787,-0.022310412,-0.0024853928,,
0.08071345,0.015867138,0.036237124,-0.08096825,,
0.054619204,0.06703583,0.0035158882,0.02050179,,
0.007960098,-0.015384916,-0.00610229,0.016253985,,
0.043030903,-0.04352185,-0.026928965,0.06327179,,
-0.051548306,0.07112561,-0.087800175,-0.035226677,,
0.06809982,-0.010440607,0.01731448,0.05629746,,
-0.073755376,0.024102062,-0.041474625,-0.07350245,,
0.052710593,-0.0063004666,0.02230758,0.0026520737,,
0.040792976,-0.0027002052,-0.031935595,0.020525264,,
-0.0074453875,-0.048691057,0.0041097696,0.05292084,,
-0.03321197,0.050481193,-0.022379683,0.010696637,,
-0.050083723,-0.042065337,-0.035028618,0.006789197,,
0.08654375,0.038569394,-0.010130087,-0.117760636,,
0.010942612,-0.011727068,-0.016226815,-0.024193298,,
0.06748055,0.040267337,0.08060981,-0.005383419,,
0.035555486,-0.020300876,0.049452774,0.047174532,,
0.042080414,-0.0029059579,0.07853565,0.04987426,,
0.00423086,0.028062195,-0.032136567,-0.05051594,,
-0.021882966,0.031546444,0.030666476,0.022231322,,
0.010574492,0.025292557,0.040642735,0.043864515,,
0.015823437,-0.044662546,0.035026982,-0.0013284896,,
0.0083700055,0.021408899,-0.026198048,-0.0063201357,,
-0.05886774,-0.021681808,-0.024718823,0.06370677,,
-0.045110453,-0.038714454,0.025292244,0.043219496,,
-0.020294031,0.044897176,0.010213683,-0.055208802,,
0.019373069,-0.0062844097,-0.011077567,0.013094211,,
0.03269542,-0.02382357,0.06612247,-0.05252706,,
0.027189337,0.09011773,-0.005773101,-0.02195564,,
-0.012640702,-0.015146999,-0.05615678,-0.00126799,,
-0.031188207,-0.005104241,0.031829115,-0.043806754,,
-0.028933572,0.016764648,-0.014630932,-0.08195266,,
-0.012900258,-0.079760686,-0.008432197,-0.06122287,,
0.046091784,0.0279635,-0.003787616,0.059961617,,
0.02851077,-0.06757378,0.03328542,-0.01194763,,
-0.10137239,0.0366755,-0.027632425,0.016463969,,
0.021968624,0.112178884,-0.06475539,0.01765553,,
-0.017701693,0.016933061,-0.10003419,0.022358015,,
-0.004349783,-0.07413724,-0.046411466,-0.008923643,,
0.048630856,-0.0335271,-0.027413048,0.019583091,,
0.034153603,-0.005838703,0.052555446,0.06615317,,
0.101967946,0.03649328,0.00092271663,-0.015143782,,
0.020232884,0.026285842,0.022380488,0.04430656,,
-0.08001923,0.061498936,-0.026741168,0.06141421,,
-0.047311753,0.041171696,-0.04439862,0.03536789,,
0.018679457,0.028945336,-0.004800812,0.025535742,,
-0.0085857175,0.04169898,0.018664004,-0.042867094,,
-0.03769273,-0.023053214,-0.027499327,0.009726408,,
0.022193516,-0.07642601,0.04409539,0.0129876,,
-0.04397904,-0.01985876,0.056015972,0.049785018,,
0.10113111,-0.04728413,0.0025237754,0.035548374,,
-0.026168885,0.055370167,-0.0026562617,-0.0013937842,,
-0.100158475,0.011172235,0.06595245,0.054609988,,
0.029499425,-0.054371063,0.003780823,0.06444093,,
-0.07471207,-0.04868222,-0.028494876,0.045821056,,
-0.044404652,-0.03644325,0.0019411128,-0.061415706,,
0.047067784,0.01372716,0.0129149705,-0.069842845,,
0.08952573,0.07833978,-0.008180024,0.04571041,,
0.038238052,-0.0785745,-0.076073624,0.016956398,,
-0.06796396,-0.051895175,-0.032042805,0.06820458,,
-0.03129624,0.0030253604,0.0444142,0.036188576,,
-0.07187353,0.0007975065,-0.041259684,0.06777079,,
0.020207562,0.017525077,-0.09336345,0.08722203,,
0.0021054568,-0.059205294,0.06935053,0.072400525,,
0.037904467,-0.0074246973,-0.008890418,0.059724372,,
-0.034906432,0.030238891,-0.005437322,0.022686092,,
-0.0715311,-0.025486477,-0.0026135244,0.045729488,,
-0.031658106,-0.062710896,0.038503535,-0.015373658,,
0.0029801729,0.0048429724,0.07571657,-0.06558457,,
0.02336992,-0.08886848,-0.027760554,0.021084724,,
0.025936626,0.022000844,-0.07655391,-0.046880506,,
0.032166418,-0.073013306,0.1013991,-0.044358484,,
0.05105571,0.042358402,0.051833317,-0.07682429,,
-0.018203188,-0.012488999,-0.009572354,-0.041245084,,
0.052354243,0.015407539,-0.049748883,0.009564552,,
-0.04065089,0.034984984,0.00036185593,-0.021069163,,
-8.3945735e-05,0.034422692,0.08665741,-0.03708923,,
0.03695583,-0.019004708,0.043516662,0.06674401,,
-0.040605303,-0.052826304,0.063484535,-0.042675175,,
-0.044992182,-0.09883821,-0.008135711,-0.011191346,,
0.0018490116,-0.014375759,0.038023703,-0.022956138,,
-0.021226613,0.02420908,-0.00875586,0.05378389,,
-0.049466748,0.03671711,0.038317528,-0.0067261723,,
-0.031939268,0.040592305,-0.00260813,-0.018354727,,
-0.043231156,0.04379862,0.0055754166,0.0020660288,,
0.04027333,0.010893201,-0.0074772052,-0.008439499,,
0.021516738,0.11253042,-0.022714999,0.057974484,,
-0.005047275,0.09185436,0.027830968,-0.00028271138,,
0.012901671,0.011731958,-0.047493637,0.071857244,,
0.01751086,0.019561974,-0.033766974,0.05105579,,
-0.003229544,-0.01104291,0.0026629816,-0.050753333,,
0.004640547,-0.0083356425,0.0030069118,-0.053703908,,
-0.0037471964,0.0082413675,-0.00769706,-0.061469693,,
-0.014694862,0.047147717,-0.011539142,-0.014857656,,
0.08622853,0.069630325,0.04738795,0.08505474,,
-0.02403911,-0.0011445027,-0.03776154,0.046964396,,
0.03947248,-0.044845246,0.028753541,0.0055301315,,
-0.011130078,0.07465992,-0.03222265,0.057717614,,
-0.015817294,0.022221344,0.012446706,0.0017193025,,
0.043732956,0.04268127,-0.053135812,0.026697652,,
-0.040160254,0.008098816,0.0077828327,-0.014576766,,
0.060412854,-0.032634515,-0.08143188,0.014564669,,
0.036590718,0.004203219,0.021199077,0.004131396,,
0.039551876,-0.0032816809,-0.004745299,-0.008941059,,
-0.058158137,-0.02907391,-0.013445135,0.06969017,,
-0.028288918,-0.0034522237,0.030719524,-0.034131072,,
-0.050893057,-0.0056994623,0.026286133,-0.04776233,,
-0.052488264,0.017728988,0.0056898165,0.02470798,,
0.07509966,0.080365255,0.06760405,-0.05861064,,
-0.07291501,0.017683957,0.01622758,-0.009687663,,
-0.041702233,-0.0716841,-0.06822391,0.013981511,,
0.0037609274,0.01073043,0.022492709,0.040244017,,
-0.0053750305,0.05147956,-0.037651554,0.022845943,,
0.033587836,0.008004865,7.6053286e-05,0.040832296,,
0.12435028,-0.021823613,-0.027296875,0.00864322,,
-0.009668211,0.025126163,-0.047590345,-0.014153233,,
-0.016013958,0.07354185,-0.108389564,0.061323904,,
-0.006435347,-0.005868571,0.011082832,0.12117253,,
-0.06016854,-0.01257038,-0.0803658,0.045845352,,
-0.1022018,0.018075997,0.022894446,0.057115924,,
-0.057553582,-0.030998021,-0.057590287,0.07264047,,
-0.008940355,0.035614647,0.041599024,-0.073771775,,
-0.034473624,0.069360495,0.012834946,0.11326441,,
0.083908565,-0.019106196,0.007213942,-0.064292245,,
-0.033034686,0.0012444472,0.045481484,0.021669824,,
-0.06008527,-0.023835678,0.065140024,0.0044896775,,
0.030912206,-0.114092134,0.09984742,0.0038222927,,
0.06908738,-0.037511244,-0.018053593,-0.04045868,,
-0.020669043,0.014460681,0.07937719,-0.05602841,,
0.05374134,0.016029363,0.05019713,0.03683588,,
0.045471568,0.01710066,0.034467682,-0.11053155,,
-0.002854075,0.0062835887,0.0006823116,-0.042142443,,
0.015131183,-0.03129935,0.014767611,0.004136253,,
-0.058109377,-0.0250212,0.0035785662,-0.004667641,,
-0.012973597,-0.0021257382,-0.014225878,-0.05511149,,
0.06992443,-0.0491831,-0.025617218,-0.08113001,,
-0.056652207,0.045514006,-0.044406068,0.0074429093,,
0.03270203,0.120349124,0.031457476,0.028332287,,
0.008526,0.12176815,-0.01224722,0.050769567,,
-0.006630001,-0.030247757,-0.06644117,0.023608202,,
0.032547012,0.035040356,-0.02687165,0.027207343,,
-0.084754616,0.07424517,-0.037096895,0.013689554,,
0.026833102,0.06625436,-0.034355696,-0.013407904,,
-0.013792222,0.07670563,-0.022886014,0.022200348,,
0.10841974,-0.029029585,-0.06883372,0.02631221,,
0.007580384,-0.058912102,0.013190689,0.0073024123,,
0.059398744,-0.0012223746,-0.107653,-0.08534246,,
-0.031159913,0.008135652,-0.017833257,-0.049424086,,
