layer1node1,layer1node2,layer2node1
0.017388698,0.05558734,0.21520582
-0.019111255,-0.032471016,-0.17865293
-0.086399585,0.0068096276,
0.020906027,0.081105985,
-0.11919401,-0.0009091422,
-0.0633615,-0.02511448,
0.079337195,0.055490963,
-0.002878689,0.018176831,
0.010797126,-0.059981387,
0.050324615,0.039669167,
-0.07967256,0.0017681466,
-0.03531588,-0.0018807785,
0.020649089,-0.048133675,
-0.008499328,-0.035652217,
-0.037689995,-0.00025698697,
0.08029731,-0.015688414,
0.053030036,-0.02737894,
0.008249456,0.025659874,
-0.058147103,-0.036828548,
-0.09485818,0.038563058,
0.0104601225,0.0219921,
-0.051515684,0.0272431,
0.017711816,0.08074474,
0.08273061,0.11581515,
0.009112655,0.03921343,
0.0041007977,-0.028562175,
0.008498337,0.0026217764,
0.030819656,-0.020033514,
0.048987634,0.05838216,
0.05152988,-0.07464274,
0.044029966,0.04124485,
-0.008183617,0.0058080205,
0.013083044,0.008349294,
0.0049801986,-0.0141245,
-0.030188434,0.017491518,
0.019461783,-0.06670458,
0.032851346,-0.0036181877,
-0.056574643,0.0025479533,
-0.04395463,0.061095633,
-0.062300403,-0.012810526,
0.04530039,-0.037574314,
-0.10079844,0.062129755,
-0.003632604,0.00229084,
-0.0141499555,0.029256912,
-0.0019341063,-0.01751865,
-0.00817095,0.040612485,
-0.026485315,-0.049352325,
-0.06873668,-0.079526946,
-0.06294352,0.031893693,
-0.10270242,0.03997992,
-0.011859962,0.031372443,
0.06976477,0.020884179,
0.012739622,0.10777567,
0.029807957,0.021423928,
-0.089455195,0.056156874,
-0.040968586,-0.0054483805,
0.011886072,-0.057172954,
-0.015120083,-0.0073591718,
0.0044777617,0.03554022,
-0.07181039,0.03249546,
-0.040790737,-0.083720185,
0.009386925,0.0061877677,
0.010683601,-0.024338922,
-0.059566367,-0.047201835,
0.021644507,0.08359789,
0.045553267,-0.023829794,
-0.049383245,-0.08155832,
0.04902391,0.033722036,
-0.05280827,0.011348346,
0.062477242,-0.00852672,
0.04044592,0.0033944226,
-0.03302445,0.103790216,
0.04678176,0.057019107,
-0.06713061,-0.0045192246,
-0.0025794734,-0.005738779,
-0.09891806,-0.021330962,
-0.028329665,-0.055751767,
-0.029467562,-0.02610475,
0.011887264,0.0639873,
-0.02222735,0.011582728,
-0.04285832,0.05841178,
0.015992781,0.038501937,
0.041972578,-0.003900076,
-0.107384264,0.07132668,
-0.008765211,0.010219591,
0.008767364,-0.050844528,
-0.024895163,-0.015239392,
-0.011787137,0.059702363,
0.039402906,-0.016426235,
0.024726467,0.009013227,
-0.042585064,0.035210405,
0.039973795,0.08302534,
-0.00079163763,-0.089582674,
-0.04289903,0.052199714,
0.036172286,0.032098744,
0.0022192833,0.08177214,
-0.030220246,-0.11190139,
0.010254786,-0.014149551,
-0.046612248,-0.0496656,
-0.024676168,0.05851025,
0.039117254,0.05162428,
0.05183151,0.0377337,
-0.06028816,0.0048607173,
-0.055634227,-0.05157357,
-0.024930267,0.04298783,
0.11106162,-0.016588734,
-0.06687647,-0.00730284,
-0.0051838337,-0.07677697,
-0.008190037,-0.06610447,
0.0140040275,-0.086944,
-0.0071150474,0.026489723,
0.055620883,0.0033758592,
-0.10156771,-0.010709262,
0.026638983,0.031788915,
-0.07488082,-0.034204748,
0.0966717,-0.05306751,
0.04862468,0.0025735719,
0.043801576,-0.124607794,
-0.022219222,0.046944167,
-0.053400233,-0.045014925,
-0.10920845,-0.059583213,
0.060175676,0.009870486,
0.08895956,-0.021121867,
-0.003993074,-0.075500585,
-0.03263082,0.0762152,
0.055972777,-0.0285081,
0.018003479,-0.00046356072,
0.03762298,-0.075548105,
-0.06395801,0.01464317,
-0.025345176,0.05297321,
-0.015675146,0.0102393925,
-0.010131029,-0.045761913,
-0.08523925,-0.04088797,
-0.010329964,-0.059060566,
-0.06796213,0.031187821,
-0.009059508,-0.030228412,
-0.07896913,0.05434993,
-0.08809346,-0.030433808,
-0.02185192,0.008245663,
0.06744417,-0.035670113,
-0.014116638,0.059664194,
-0.012969833,0.0044003795,
0.06297567,0.06843774,
-0.030345561,-0.0504302,
0.079916626,-0.008336957,
-0.0015631987,-0.066316016,
-0.0037089856,0.09521409,
0.022289686,-0.025679765,
0.023247615,0.030302735,
-0.059355553,-0.07761638,
0.018296149,-0.06697424,
0.02586099,-0.049157288,
-0.015525931,-0.023046155,
0.031629585,-0.06237233,
-0.017564785,-0.017676765,
0.040530764,-0.011599622,
0.05974654,-0.014904912,
0.039324887,0.017886007,
-0.04451004,0.036691856,
-0.012451393,-0.041814152,
-0.020641867,-0.053165156,
0.023179611,-0.012282777,
-0.005351018,-0.043656934,
-0.01946245,0.014250946,
-0.003328689,0.023337867,
-0.007943769,0.06942704,
0.042319532,0.04770601,
-0.021743935,-0.05126196,
0.04599098,-0.019017335,
-0.024681225,-0.015724083,
0.05145605,0.016666101,
0.0012714728,0.03314347,
0.030946756,0.028464815,
0.036735147,-0.060442682,
-0.01913745,0.042850103,
-0.023863038,-0.0011557245,
-0.009864302,-0.037599176,
0.056973644,0.028507704,
0.011383082,-0.014075559,
-0.067210235,-0.0012056147,
0.0018912768,-0.011246303,
-0.030534223,0.021035815,
-0.026755322,-0.070595674,
-0.0013306037,0.010120562,
-0.1187083,-0.028050585,
-0.008362951,0.02152316,
-0.027132973,-0.05412311,
0.0257055,0.037934206,
-0.005208014,0.044136196,
-0.027183998,0.001951321,
-0.028261438,0.03846823,
-0.033452097,0.009767551,
-0.07451229,0.02076004,
0.058889203,-0.016144125,
0.08924277,0.03203857,
-0.012520529,0.016761186,
0.00234513,0.093401864,
-0.052969825,-0.023961637,
0.05105195,0.025809439,
0.0077631394,0.020406399,
0.0057030357,-0.020541448,
-0.07823283,0.013455051,
0.07757365,0.08617784,
0.006885124,0.006311633,
0.02956493,0.03189302,
0.03173912,0.09977479,
0.0077999467,0.0035273365,
0.028596893,-0.047545075,
0.044559777,-0.01335782,
0.0066501074,0.031452626,
0.0027724593,0.0032438883,
0.004600346,0.010465809,
0.06604554,0.022657685,
-0.036046505,-0.0045358036,
0.007059401,0.02045221,
0.009429636,0.027635822,
0.036403142,-0.014464559,
-0.017270522,-0.04719183,
-0.056774527,-0.05950445,
0.083234236,0.009051213,
-0.05155234,-0.043724224,
-0.006762008,-0.02770842,
-0.006615132,-0.022419263,
0.10061639,-0.07370289,
0.061790526,0.07960622,
-0.03479719,-0.036617603,
0.050771717,0.0013231689,
-0.028052201,0.008704312,
0.010467536,0.035883322,
0.009030912,0.08849157,
-0.0045843655,-0.011538331,
-0.00095256366,-0.13152643,
-0.04070335,-0.08189613,
0.07436787,-0.0048861974,
-0.04578612,-0.078044415,
-0.013701832,-0.021705039,
-0.014290453,0.04996182,
0.020227807,-0.091403805,
-0.057131708,-0.003298242,
0.05717753,0.020702899,
-0.009812634,-0.024196,
-0.07521079,0.057926234,
-0.010738743,-0.050137233,
-0.02497141,-0.044536557,
0.06966254,-0.03784136,
-0.028934143,0.028177934,
0.015286459,-0.063511394,
0.0008245468,0.023351494,
0.09581932,-0.048197392,
-0.0013357799,-0.07898878,
-0.07213461,0.027480029,
-0.043138415,-0.07801131,
0.020610563,-0.014086266,
-0.05912325,-0.049235545,
0.040617745,0.04110434,
0.05135095,-0.024128288,
-0.054663528,0.011421863,
-0.040334012,-0.0049238456,
0.02173496,-0.030294005,
-0.061276227,0.06101352,
-0.033499774,-0.006119381,
-0.020738875,0.013097049,
0.04484619,-0.065386966,
-0.00836276,0.005231573,
0.01034076,0.006752287,
-0.046798512,0.010518962,
-0.041498158,0.036491483,
0.029843641,0.03631532,
-0.019305998,-0.015931616,
-0.068684496,-0.032309256,
-0.036004942,0.030532481,
0.008755774,0.005827711,
-0.076970205,-0.005179376,
0.00026541512,0.024053268,
0.06284745,0.029340224,
-0.022931218,0.105035685,
0.045263577,0.02447656,
-0.0029246926,0.04606976,
0.005194295,0.104185276,
0.018834163,0.062056664,
0.009377584,-0.002076881,
-0.011687908,0.0952231,
0.12048187,0.043743502,
-0.06706389,0.013706224,
-0.019662295,-0.019962732,
0.06291169,0.0932357,
-0.019049695,-0.02762521,
-0.08289087,-0.035708707,
0.005049298,0.018039526,
0.03057147,-0.08974467,
0.03146789,0.06157112,
0.032530885,-0.0071662953,
0.0038292825,0.082270056,
-0.12913087,0.103480354,
-0.002316767,-0.03790768,
-0.028935393,-0.009513316,
-0.064337276,0.009094934,
-0.025855608,0.032264285,
-0.071176514,0.02699276,
-0.04948536,-0.060673613,
-0.03958689,-0.07549664,
-0.008739,0.007115533,
0.01229466,0.008859918,
0.02614191,0.07245141,
-0.019416424,0.056290016,
-0.04480085,0.041143175,
-0.019863002,-0.07763968,
-0.03874834,-0.02756757,
0.023561196,0.02554112,
0.026103728,-0.016628588,
0.0016298187,-0.025970967,
-0.023921173,0.00085213233,
-0.0502339,-0.0018931726,
-0.051752955,0.08797919,
-0.09728248,0.058025796,
-0.00608286,0.015353868,
-0.052307434,-0.0076352106,
-0.023525497,-0.01313923,
-0.11438381,0.01420299,
-0.003662704,0.024748255,
0.01332438,0.043623492,
-0.07437617,0.03596679,
0.019049196,-0.05638834,
0.02856578,-0.024190262,
-0.11321907,0.00823635,
-0.009140014,0.04367713,
-0.03710462,-0.008528515,
-0.037196472,0.08672897,
0.029369913,0.050150376,
-0.07055318,0.08104239,
0.0010515992,0.008499492,
0.13373947,0.029245233,
0.06609291,-0.03634367,
-0.0055506374,-0.10209579,
0.019324807,0.01232875,
-0.09484269,-0.012220605,
-0.043467432,0.049674876,
-0.0085771335,-0.012532585,
-0.010945264,-0.009618689,
0.041470505,0.02303534,
0.09045376,0.011078898,
0.10538922,-0.014260907,
-0.01977242,6.380561e-05,
0.06848974,0.023018962,
0.07076779,0.019116942,
-0.046787187,-0.04319154,
0.015741605,-0.024887193,
0.002792184,0.06382447,
-0.017577922,-0.07886553,
-0.037062597,0.0035061932,
0.009362945,0.06496898,
0.014572438,0.03589021,
-0.065547794,-0.06472077,
0.028752014,0.043398052,
0.010123562,-0.04328746,
0.046268035,-0.043186944,
0.11302842,0.059587397,
-0.036952622,-0.026989188,
-0.006968369,-0.023677094,
-0.049177486,-0.13810606,
-0.026764296,-0.029596062,
0.017695578,-0.025599947,
0.049420834,0.011985575,
-0.06692068,-0.0809544,
-0.056384936,0.0055809165,
0.02051352,0.028340578,
0.034759123,-0.0101036,
-0.008178112,-0.00025954988,
-0.06177398,-0.02751258,
0.066556156,0.007310245,
0.00077851827,0.08636828,
-0.020872056,0.03852595,
0.023007374,-0.023930926,
-0.025057698,-0.09394645,
-0.026565662,0.031971104,
0.06611688,-0.055879083,
0.08646536,-0.02931173,
0.050551906,0.0025189484,
-0.044754017,0.0048021,
0.08625328,0.0067406297,
-0.055273224,-0.073129036,
0.009871873,-0.035974268,
0.073366374,-0.068289965,
0.020399377,0.02886844,
-0.029472977,0.05158862,
0.023602301,0.08396462,
0.090793215,0.0322632,
-0.051694334,-0.012460939,
-0.026505155,0.03271337,
-0.011193199,0.036546685,
-0.034424044,-0.0017342223,
-0.04441966,-0.03481051,
0.017887482,-0.010309461,
0.07106418,-0.03828008,
-0.038959816,-0.008945703,
0.03167574,-0.12866291,
0.030506365,-0.008737286,
0.01738614,0.03029813,
-0.03710626,-0.03783914,
-0.0023644143,0.10075448,
-0.054193705,-0.0048880307,
-0.0013712947,0.0316739,
0.024377003,-0.0028920579,
-0.04302804,-0.05451095,
0.08309891,0.025175873,
0.020529617,-0.03018141,
0.016406579,-0.035562012,
-0.03042892,-0.007092787,
-0.019748412,-0.07121845,
0.0065593086,-0.058877647,
0.0013070103,-0.0026897006,
-0.038197152,0.008345291,
0.0011066977,0.030705357,
-0.0011435252,-0.08476751,
0.0008138456,0.03436126,
0.06833863,0.1716324,
-0.034563586,-0.060156863,
0.0021054475,0.0011027558,
-0.007994278,-0.020761563,
-0.03518575,0.083241865,
-0.053793658,0.00071388273,
0.084400654,-0.02413678,
-0.013586241,0.010524933,
0.029568782,0.03579725,
0.012107666,-0.047106262,
-0.0831021,-0.028930835,
-0.10590757,0.026822476,
-0.049360957,-0.032498833,
0.018617118,0.038282696,
0.007531364,-0.021346707,
-0.012667598,0.04986578,
-0.00294183,0.040738005,
0.057437167,0.04799832,
-0.031100646,0.056337286,
-0.09089317,-0.043658342,
0.035912544,0.042391613,
-0.010659531,0.034572326,
0.036169067,0.012297689,
-0.015898617,-0.052885305,
-0.08903705,-0.035442106,
-0.013513232,0.007819436,
-0.041414376,0.031144781,
-0.011828563,-0.018144168,
0.026518581,-0.07931128,
0.0060916534,-0.038161986,
0.035321493,0.04389057,
-0.011541813,0.053564947,
0.12599231,0.019113794,
-0.028745316,0.023671785,
0.0102151,0.052286543,
-0.025389344,0.010303136,
-0.003765899,0.09800601,
-0.020653201,-0.07707008,
0.10472954,0.07311517,
0.03330009,-0.061585654,
-0.025915623,-0.07038373,
-0.0011262693,-0.0050921496,
0.013444676,0.0023515776,
-0.016371313,-0.07824223,
0.0040529203,0.027418736,
0.008709904,0.014598728,
-0.05695472,0.031022154,
-0.1161811,-0.022383241,
0.058762953,0.080080874,
-0.008141412,0.028130632,
-0.05531408,-0.1371375,
-0.06051502,-0.08492823,
0.05632193,0.037018217,
-0.043585707,-0.026719568,
0.01614442,-0.0147778075,
0.04116251,0.00799587,
-0.028597953,-0.0106759,
0.015733566,-0.005459087,
0.07804251,0.0009851971,
0.028681733,0.03844361,
0.058291256,0.058678553,
0.075246625,-0.038215652,
-0.025586601,0.017365081,
0.05466403,-0.036550667,
-0.00023448013,0.078857504,
-0.012747689,0.067330115,
0.034874495,0.06029776,
0.02613685,0.0400225,
0.057691187,-0.014115391,
0.011929985,-0.030654473,
-0.061054237,0.00420249,
0.03849922,-0.014889794,
0.042936563,0.04167795,
0.026669452,0.037288565,
0.02098142,0.0086474195,
0.006211631,-0.02725155,
-0.039312966,0.11163918,
-0.05746226,-0.09676992,
-0.044113882,-0.0353199,
-0.0005669087,0.034412604,
-0.036077145,-0.018260665,
0.0014427629,0.0056821574,
0.008551811,0.07140454,
-0.09182204,0.001543466,
-0.090023,0.015795391,
0.02890666,0.05426426,
0.07979021,0.047155537,
0.03857568,-0.002059503,
-0.008073285,-0.05516768,
-0.07980994,0.044980593,
-0.13081391,-0.06997193,
-0.0064809998,-0.030470043,
0.00842767,0.023276314,
0.06456635,0.080761746,
-0.05877311,0.020542772,
-0.002538235,-0.047362074,
0.040642284,0.10636922,
-0.0064279647,-0.04343915,
0.046967905,0.07112878,
-0.012209244,-0.056007266,
-0.07207562,0.0036146468,
-0.0486397,-0.0071596587,
0.031128991,-0.08173474,
-0.07048236,-0.0325272,
-0.00047693128,0.032408144,
-0.061768476,-0.12314933,
-0.037269775,-0.06029768,
0.04238379,-0.07853084,
-0.011802751,0.042400207,
-0.00017466715,0.034809038,
0.049920063,0.13648826,
-0.02542124,0.017597314,
0.039229255,0.07821078,
0.08802725,-0.0022779834,
-0.0043325326,-0.0419256,
-0.01977179,-0.023033556,
0.0035017463,0.03275385,
0.08946369,0.049399048,
-0.031009862,0.043726657,
-0.023549803,-0.0104213115,
-0.0125432005,0.027700996,
-0.038528774,-0.035334088,
-0.0114324195,0.04616645,
0.015926935,0.04423431,
-0.055810146,0.024073595,
0.009336823,-0.11957977,
0.023374412,-0.048227143,
0.0032883561,0.038233936,
-0.09548875,0.006934828,
0.030133728,0.014218023,
0.052256107,0.08758032,
-0.014514592,-0.06710456,
-0.0010716195,0.008178061,
-0.09567239,0.007863001,
-0.025866045,-0.010155756,
-0.06970473,0.01176488,
-0.018947707,-0.040924337,
-0.09022472,-0.11861572,
0.0844488,-0.004521103,
0.035246108,0.05785863,
0.046805497,-0.0043554036,
0.02471577,0.077654146,
-0.010960083,-0.06932709,
-0.09433858,-0.05329238,
-0.07064297,0.021181056,
-0.048956107,0.016135005,
0.08076303,-0.04347619,
0.018551381,0.00883332,
0.012977389,0.059573404,
0.05860446,0.030394182,
-0.002822211,-0.002524975,
-0.0028294448,-0.017202694,
0.11896495,0.018857151,
-0.022761961,0.037336696,
0.0018053721,-0.060500283,
-0.034069646,-0.036420967,
-0.022733454,0.09981341,
0.057309862,0.022985673,
-0.03190403,0.026203465,
0.057298042,-0.047411736,
-0.036716692,-0.09919056,
-0.05222787,-0.0042824172,
-0.02951885,-0.062253933,
-0.06356621,0.020478895,
-0.058776923,0.06002063,
0.025923433,-0.0341298,
0.0046000374,0.037526652,
-0.039166,-0.015793908,
-0.012278445,0.009253163,
0.037792798,-0.09874976,
-0.04983813,0.068161644,
0.097940914,-0.03833311,
0.023970932,-0.032478917,
-0.008183757,-0.015792781,
-0.07073457,-0.007984291,
-0.11136515,0.062476866,
-0.020398937,-0.009589565,
0.057769872,-0.077858135,
0.024210006,0.014084829,
0.006483532,0.014858287,
-0.01113703,-0.065508716,
-0.027891003,0.059036184,
-0.010496592,0.0045248102,
-0.036231276,-0.005264375,
0.03205348,0.03169196,
-0.07929199,0.0062552164,
0.021503728,0.057106253,
-0.020499403,0.034162346,
0.03621319,0.037673067,
0.009106434,0.050848093,
-0.05370894,0.00601815,
0.04216742,0.021020418,
-0.024584407,-0.025889672,
0.04460312,-0.050875615,
-0.10034178,-0.08909352,
0.03823836,-0.009175709,
0.039119113,-0.022131141,
0.038048618,0.04483485,
-0.038659643,-0.041832075,
-0.05002326,0.0040849363,
0.037728738,0.031102933,
0.044778805,-0.032526307,
-0.047526658,0.012760487,
0.023921577,-0.023828741,
-0.06465762,-0.04448521,
-0.039842602,0.017941758,
-0.014632828,0.013567327,
-0.0122050075,-0.0577261,
0.031412706,-0.06515199,
0.060407266,0.02510675,
-0.0050380817,-0.08305273,
0.015320494,-0.01140203,
-0.06677106,0.0072846133,
0.053795706,0.03192107,
-0.041065305,0.081175014,
-0.04525717,-0.0116778985,
0.034933038,0.026756598,
0.04046279,-0.028765516,
-0.05995565,0.061215453,
0.031175263,-0.009229966,
-0.09688572,0.020329066,
-0.065105736,0.0025456247,
-0.0049246326,0.006735295,
-0.010364872,0.047158252,
-0.037748672,0.04629921,
-0.024311299,0.080901876,
-0.071780324,-0.054956544,
-0.01334224,0.025118817,
0.004278079,0.037651356,
0.04310791,0.12307398,
-0.08248327,-0.029265169,
-0.023449825,-0.022397177,
-0.033172056,-0.07162079,
0.026146017,-0.030640205,
0.015072044,-0.0073260055,
0.036429465,-0.056610003,
-0.0054375287,-0.027824339,
0.00019404817,0.009746334,
-0.01867532,0.0009685481,
-0.098615676,0.003358467,
-0.072335266,0.0045783003,
-0.0470098,0.008904641,
0.050829113,0.02689649,
-0.04218151,0.009649943,
0.116618566,0.015729044,
0.054781795,8.755808e-05,
0.008164199,0.00128335,
0.02421999,0.1234866,
-0.0049691317,-0.09577859,
-0.061086614,-0.022432927,
-0.036639884,-0.0037255592,
-0.006794221,-0.02673308,
-0.0032112414,0.031087225,
-0.011051046,0.023848172,
-0.067230254,-0.0066917147,
-0.04083573,-0.039742887,
0.051907565,0.036492914,
-0.05966404,9.172422e-05,
0.037771683,0.022037847,
-0.02924863,0.017174931,
-0.0035993354,0.08768005,
0.043261472,-0.0137473345,
0.04761067,-0.06465186,
0.028949393,-0.05350251,
-0.03266059,0.024459304,
-0.04171699,-0.04950691,
0.033126336,-0.044102963,
0.027527953,0.021911599,
-0.07153669,-0.121044025,
-0.05984291,-0.09993122,
-0.03454628,-0.07339033,
0.0243111,0.020112336,
-0.00974045,-0.025505653,
0.07945846,0.04359505,
0.043610413,0.038269043,
0.02177075,0.031573437,
0.046311967,0.090162985,
0.022054823,-0.023031535,
0.015186705,0.07349272,
-0.011167633,0.111877576,
-0.006492983,-0.049129155,
0.057717487,0.03555802,
-0.023823665,0.10683899,
-0.0027055005,-0.022656128,
0.05396926,0.007688568,
-0.063790455,0.029246017,
0.09941346,-0.019589867,
-0.025854152,-0.056901693,
-0.10041665,-0.028603597,
0.020226976,-0.10241231,
-0.0016136455,-0.0014666055,
0.014624989,-0.050034806,
-0.044156823,-0.057302065,
-0.03788435,0.032889336,
-0.072951004,-0.065801725,
-0.0800632,-0.02396927,
0.04558733,-0.120169066,
5.873968e-05,0.021161355,
-0.0748347,0.06259111,
0.011522093,-0.029701035,
-0.004533523,0.010802509,
-0.08908327,0.027225973,
-0.06777523,0.0046094335,
-0.05057349,-0.041131835,
-0.011240605,0.015084977,
0.07480713,-0.07573614,
0.013294387,-0.05007749,
0.0176546,0.05015872,
-0.023275396,-0.007407143,
-0.07547787,0.115601614,
-0.04774883,-0.03460342,
0.03867853,0.09850451,
-0.035943497,0.00871444,
-0.059109405,0.08001702,
0.09710227,0.011692021,
-0.028823812,0.018789241,
-0.012642357,-0.02687841,
0.067753136,0.08917408,
-0.0030768306,0.020869732,
-0.029264728,0.029273603,
-0.029064517,0.07154337,
0.019897481,-0.0737534,
-0.0035222133,0.046551026,
-0.10644311,0.04961379,
0.08886006,-0.010935558,
-0.011436575,-0.07835464,
0.03633114,0.009997288,
-0.02860033,0.019367168,
0.06971621,-0.029895844,
-0.11735948,0.0045540757,
0.011556417,-0.007293391,
0.032491624,0.09746718,
-0.04785885,0.018009169,
0.1250992,0.024742927,
-0.014159294,0.0069314265,
0.062151015,0.010279604,
-0.023669487,-0.036985397,
-0.00018855747,-0.02814586,
-0.0024602269,-0.03190754,
0.0022906566,-0.039959427,
0.049906593,-0.00052561593,
0.008076055,0.07154934,
-0.018231314,0.009180556,
0.017651483,0.045477152,
-0.0473917,-0.042807072,
-0.050953697,-0.020554867,
-0.03523147,-0.044754636,
-0.07166158,-0.03903774,
0.06591129,-0.00655717,
-0.08021244,-0.03975106,
-0.06331647,-0.034571003,
-0.07861066,-0.11381915,
-0.04834446,-0.10671328,
0.120640785,0.049792532,
0.010008332,0.03166107,
0.029646058,-0.04033212,
0.017570714,-0.117197365,
-0.062566996,0.054071415,
0.08599214,0.011307901,
-0.012040814,0.019932527,
0.05416619,0.037107937,
0.045337208,-0.054686032,
0.028966287,-0.030111019,
0.017465314,0.02150057,
0.008633452,-0.06645652,
0.018732216,-0.0256024,
0.04884059,0.020990033,
-0.034704555,0.030778881,
-0.005287534,-0.013172213,
-0.04244555,-0.020555707,
-0.045597553,0.08619307,
-0.018213108,0.112028874,
-0.038891055,0.047058124,
-0.059211127,-0.10258474,
-0.0002589464,0.08603729,
0.12091352,0.11627289,
-0.08562902,-0.0054185265,
0.003824559,-0.048834898,
-0.07304807,0.06305448,
-0.08334477,0.09680493,
-0.09086257,-0.0109344805,
-0.056396086,0.012072531,
0.03135332,0.0123032695,
0.04927985,0.009417458,
-0.055921942,0.045991257,
0.053779155,0.023057621,
0.005842894,0.036415815,
0.026954537,-0.03452749,
-0.00827911,0.06495785,
-0.053908344,0.07808727,
0.04410395,-0.07067871,
0.005365791,0.14036316,
-0.0879384,-0.060919814,
0.02456872,0.046425402,
0.019300133,-0.10955374,
-0.033188745,-0.018172642,
-0.0488144,-0.0286221,
-0.022637747,0.04164174,
0.008860125,0.004424639,
-0.098718405,0.029051695,
0.0042394497,0.0076974286,
0.076946646,-0.022123478,
0.046213437,0.0365628,
-0.04907501,-0.040581413,
-0.038119145,-0.015341619,
-0.01118909,0.05318766,
-0.019889422,0.021155043,
0.09580629,-0.057185676,
-0.0264686,0.01695504,
0.0046312814,0.0033839473,
0.07331263,0.04889455,
-0.008408647,0.07379139,
0.025153484,0.04974331,
0.0055281958,-0.02701754,
-0.07163264,-0.051668677,
-0.022035785,-0.017010024,
-0.033979215,-0.042099267,
-0.0220985,-0.0026800025,
0.0051866067,0.0432146,
0.03777569,-0.05692682,
-0.0664159,0.015411831,
-0.009767873,-0.0498671,
-0.05492181,-0.06689097,
0.045977734,0.006560685,
0.008884637,-0.026109796,
0.082732216,0.067817286,
-0.05694408,0.023288703,
-0.005118049,0.017442541,
-0.037758112,-0.073388994,
0.0051122047,0.050994534,
0.07517825,-0.0664561,
-0.024822317,-0.047941737,
0.08607622,0.113737054,
-0.02460191,0.07880654,
-0.0063292524,0.04396891,
-0.13155468,-0.11553676,
0.049328446,-0.03239643,
0.028102718,0.011706602,
-0.06550975,-0.041490722,
0.0052102003,-0.03237726,
0.0041364706,-0.010528633,
0.016702184,0.023344127,
-0.074059844,0.04155775,
-0.021528905,0.0011112704,
0.026826259,0.0409846,
0.07227972,-0.049246073,
-0.01817079,-0.0095241,
-0.026512705,-0.026989643,
0.020058928,-0.022951778,
-0.039264534,-0.008041121,
-0.034006882,-0.028799787,
-0.036680646,0.028678766,
0.02665432,0.028339323,
-0.035359956,-0.0068835476,
0.061358772,-0.049235422,
-0.0040070703,0.03827285,
-0.09227673,-0.114516094,
0.019119682,0.026970794,
0.058541033,-0.07456879,
-0.016943092,0.0367808,
-0.030641843,0.021589104,
0.004099494,0.076560214,
-0.07762821,-0.0012367825,
-0.06632471,0.085898526,
-0.072927564,-0.08657776,
0.023447536,-0.06275531,
0.03392091,0.0105571095,
0.0028184033,-0.025622586,
0.061837424,0.025811119,
0.01305587,-0.008970779,
0.008817082,0.013471884,
0.024748132,-0.044998482,
-0.05026139,0.04271532,
0.035204682,0.046380896,
-0.07197407,-0.047991995,
0.030115763,-0.021294678,
0.023920128,-0.040517885,
-0.019034881,0.034908265,
0.11403703,-0.042236373,
-0.012344508,0.029684305,
0.089116365,-0.021233201,
0.016135328,-0.026810285,
0.027896503,-0.0023502293,
0.064862065,0.025564997,
0.038448825,0.0046043023,
-0.10805451,0.1401636,
0.03765964,-0.034191925,
0.05235381,-0.050917,
-0.10768051,0.03343048,
0.11123247,0.047752425,
-0.074428424,0.044575974,
0.03015326,0.0018119068,
-0.0563187,0.04209565,
0.010971378,-0.018091138,
0.07188581,-0.029327767,
0.09695305,-0.010612038,
0.0022429868,0.027316647,
0.059065387,-0.012008589,
0.0011769062,-0.01487985,
-0.0063358555,-0.010548936,
-0.01210816,-0.07773106,
-0.082419135,0.07336783,
0.018164704,-0.04009055,
0.00017888722,-0.03736398,
-0.061897438,0.051779393,
-0.038897913,0.0043810266,
0.08219624,-0.012170446,
0.075714536,0.092030175,
0.036744073,-0.054602176,
-0.025587462,-0.14030015,
-0.059657816,-0.05844766,
-0.063331604,0.010287581,
-0.020150881,-0.06410751,
0.036985483,-0.026912164,
0.06620502,0.051731966,
0.0016488039,0.011111638,
0.0054515167,0.008707122,
-0.03511003,0.07992424,
0.009242736,0.013228987,
-0.00019789106,0.11026494,
-0.10774355,-0.0083606485,
-0.027641745,-0.0011544678,
0.09922026,0.012535675,
0.018747875,-0.038106166,
-0.018880393,-0.049087122,
-0.09017986,0.052489877,
-0.008812484,-0.00468503,
-0.07907994,-0.021026464,
-0.011065585,-0.059194624,
0.0017671305,-0.05490061,
0.020632498,0.044678602,
0.051163714,0.04559285,
-0.06355349,-0.007964935,
0.09757667,0.021019945,
0.027912209,0.015217952,
-0.042911887,0.022503885,
0.07072312,0.056642264,
-0.022200504,0.0067340606,
0.06451882,0.011227225,
0.08177983,0.034340017,
-0.06873992,-0.030855369,
0.047867,0.07417867,
-0.00996647,0.0075828102,
0.01409048,-0.018404813,
0.0020536724,-0.046503276,
0.025017064,0.056210607,
0.009690388,-0.048388813,
-0.04240006,-0.057757568,
-0.027501302,0.033940867,
-0.0046638735,-0.10342318,
-0.008627064,-0.056392618,
0.034122333,0.01370628,
0.03987847,-0.040278573,
0.01393006,-0.02906325,
-0.030341538,0.025547067,
-0.08581814,-0.023195332,
-0.1409178,-0.036779936,
0.052543115,-0.05902406,
0.03599608,-0.03286109,
0.08084719,-0.025509296,
-0.03556429,-0.024787316,
-0.014702038,-0.06496187,
-0.06799358,0.08439023,
-0.022327948,-0.041779026,
0.036373466,-0.021217115,
0.006674733,-0.0689408,
-0.06447055,-0.058427554,
-0.017203713,-0.03303672,
0.04934881,0.043691672,
0.112343855,-0.028270869,
0.013422796,-0.017837446,
0.023366809,0.116406694,
-0.01802418,0.010199439,
-0.031220114,-0.03243162,
0.045375284,-0.02236936,
0.011298449,0.086036064,
0.019784855,-0.05865988,
-0.11378912,-0.006565666,
0.084808074,0.03497773,
0.06585441,-0.050892577,
-0.03802934,-0.022355782,
-0.01349188,-0.00481641,
0.06629562,0.02524534,
0.095380224,0.005275928,
0.0008013193,0.08473529,
-0.026990239,-0.012948346,
-0.02062614,0.06427691,
0.035083503,0.062363595,
0.04300426,0.018401021,
-0.059069965,0.072173074,
-0.036402903,0.021992661,
-0.008003367,0.08852898,
0.07314418,0.03531163,
-0.043423142,0.046720788,
0.03110064,-0.009646818,
-0.0013827471,0.049671058,
0.02212378,0.015913077,
0.015761724,0.0061195716,
0.0029415558,-0.00027505145,
-0.02925614,-0.10822614,
0.004684028,0.048995636,
0.015158348,-0.05853928,
0.06784501,0.0034314168,
-0.010098475,-0.011509507,
0.0037456944,-0.074830845,
-0.036792353,-0.0051416424,
0.016345426,-0.010056655,
0.09570293,-0.0122626135,
-0.075119056,-0.014392769,
0.05474205,-0.018772969,
0.008457716,0.04693902,
-0.0056274543,0.0063628918,
-0.12445487,-0.09737471,
-0.013164444,0.03828719,
-0.024074137,-0.01830844,
-0.06398881,-0.023693407,
-0.07112511,0.03477428,
-0.09934332,-0.0023335426,
0.025143085,0.10580714,
-0.05514305,-0.026950225,
-0.047219597,-0.011780706,
-0.027252326,0.009722518,
0.038563665,0.0064858464,
-0.01994959,-0.030541385,
-0.007449164,-0.026829569,
0.047610532,0.070107765,
0.0014329604,-0.11324744,
-0.044445645,-0.023584329,
0.0960076,-0.0013816433,
0.05895749,0.054355808,
0.027135141,-0.0040436815,
-0.051592555,0.10134102,
0.0066208625,0.048142314,
-0.03607981,-0.017425738,
-0.09366769,0.035143655,
0.013590265,0.036932345,
-0.08568805,-0.027584573,
-0.02037198,-0.009187676,
0.053327814,-0.036819566,
0.040944237,-0.026968008,
-0.066345304,0.046849728,
-0.0398644,-0.031501614,
-0.0043253917,-0.05338948,
-0.03208913,-0.03250428,
-0.003248293,0.106485076,
-0.01281463,0.08556712,
0.026340656,0.14142907,
0.0028486578,0.03808437,
0.058494695,0.002367359,
0.12495307,0.012140378,
-0.054697674,0.0031939552,
0.009977759,0.03139741,
0.0094037205,-0.02922506,
-0.016288064,-0.0063777016,
-0.019662406,-0.036591645,
0.021223845,0.049124777,
-0.040142708,0.0067699566,
-0.031879224,-0.05176355,
-0.00629063,0.06252212,
-0.046562474,0.025933268,
-0.012584351,0.017762726,
-0.031127587,0.0894065,
-0.007817819,0.02838562,
0.051140096,0.06360671,
0.023335215,-0.03575444,
0.06820707,-0.021641456,
0.010619565,-0.06017932,
0.051593848,0.043420617,
-0.012635353,-0.09579877,
0.059463996,0.025093948,
-0.03643104,0.015104419,
-0.012789211,-0.03928124,
0.022250973,-0.0052082883,
0.06783153,0.06786908,
-0.05922251,-0.046353415,
-0.01280474,0.0007085211,
0.05456766,-0.13845438,
-0.0068599274,-0.0006418002,
0.029349301,0.08108387,
0.051914655,-0.01409283,
-0.018684274,0.02292214,
-0.021550247,0.015260384,
0.09869922,-0.031786773,
-0.016722104,-0.05082436,
-0.019386062,0.06986052,
0.069220275,-0.00046663324,
-0.06961467,-0.04254501,
0.09414611,0.0073799416,
0.0843193,-0.010732145,
-0.032978367,0.011246505,
-0.07336749,-0.00028986446,
0.06650989,0.016546505,
-0.022400886,-0.0605432,
0.046928205,0.042765625,
-0.012618172,-0.04636664,
0.04262425,-0.07870342,
-0.031949434,0.059084192,
-0.06284727,-0.0060693794,
-0.016636383,0.0029001646,
0.009310701,-0.0037894864,
0.060913056,0.045970548,
-0.0021615787,-0.0022478567,
-0.020372119,0.07904766,
-0.10165325,-0.014074347,
-0.014722476,-0.048843317,
0.03017523,-0.013045812,
0.0029213228,0.02714997,
-0.10777468,0.0381497,
-0.04861489,-0.0053696097,
-0.077218585,0.0713667,
-0.012298759,-0.03709085,
0.034659088,0.020787336,
0.013225083,0.051314157,
-0.024721885,-0.09195563,
-0.014151978,0.029557789,
0.045970418,0.0854755,
0.04895676,0.016335366,
0.07987486,-0.01736495,
-0.015135424,0.016028197,
-0.06971258,0.04123763,
0.027583033,0.08014437,
0.029642599,0.043371957,
-0.060550723,0.004451384,
-0.037210077,-0.023477608,
0.079862505,0.0015432427,
0.05985559,0.03433227,
-0.03377954,0.055037685,
-0.080244705,0.087184206,
0.0021199053,0.00019998604,
0.0047489163,0.01514339,
0.042815574,0.047201637,
0.022850806,-0.020999005,
0.04764545,-0.0375565,
0.042547584,0.05093495,
0.033423144,0.07440902,
0.013060975,-0.04515907,
-0.05008499,-0.005680443,
-0.013009835,0.022416463,
0.1557971,0.04202458,
0.10841391,-0.00850628,
-0.002790085,0.07573752,
0.029758256,0.066024065,
-0.007763519,0.030762874,
-0.09340499,-0.0399704,
-0.0507576,0.0012561408,
0.07367287,0.0131081715,
-0.020925045,0.09272897,
0.058544934,0.014303332,
0.08338213,0.011605009,
-0.01984583,0.02146425,
-0.016645841,0.024311254,
-0.0038005055,-0.035604585,
0.04150933,-0.006042648,
0.03655457,-0.05849323,
-0.023805529,-0.018959614,
0.05000197,0.043851193,
-0.029697748,-0.021961771,
0.08658737,-0.004717693,
-0.0450841,-0.041705556,
-0.004799618,-0.04668371,
-0.006645877,-0.046220385,
-0.020946505,-0.027547924,
0.076713316,0.011606461,
-0.024196906,-0.0017974183,
-0.032916453,0.03442159,
0.03376376,0.0043339557,
0.044413347,0.01862284,
-0.029752435,-0.019844841,
-0.022730194,0.087058455,
0.011139751,-0.009711807,
-0.005145412,-0.008354538,
-0.06136806,0.021076012,
0.05375488,0.11137672,
-0.049186684,0.054377537,
0.07664492,-0.093669705,
-0.12109257,-0.021466352,
0.030038824,0.00039684196,
-0.0074791843,-0.09118773,
0.02957108,0.014203535,
0.10518606,0.054437596,
0.025832688,-0.0027816792,
0.1342415,0.008479813,
0.04323126,0.013317544,
0.109015845,0.18336402,
0.043848,-0.0017711048,
0.00938817,0.07119036,
0.07303122,-0.024180194,
0.007123827,0.034412827,
-0.009563578,0.02320421,
-0.08467497,0.0152376685,
0.034010906,-0.012547765,
0.032112245,-0.0008478849,
-0.036767326,-0.07950363,
-0.034028824,0.122612685,
-0.0119784,-0.059620142,
-0.03334367,0.025648966,
0.026768446,-0.011335644,
-0.06638627,-0.024679612,
-0.034177683,0.09048469,
-0.017658144,-0.004061311,
-0.02418746,0.016957987,
0.04688578,-0.09970986,
-0.026510347,0.07060366,
0.0051266477,0.010061019,
-0.06534485,-0.02275733,
-0.06864754,0.023501405,
-0.012228864,0.026904857,
-0.03430418,-0.04802782,
-0.07286252,-0.040017597,
0.05510137,-7.724119e-05,
-0.032679837,0.018837497,
-0.03223895,-0.025383025,
-0.012470632,0.04349254,
0.026553487,-0.04602282,
0.011557297,0.066636905,
-0.023654379,0.08129382,
-0.048049767,0.037546907,
0.0434014,-0.040161856,
-0.05804442,0.005531662,
-0.008578447,-0.025446337,
0.007991519,0.076816395,
0.02532328,0.013922587,
0.017323392,0.04160186,
0.016663652,-0.03944006,
0.018374259,-0.037612442,
-0.07261259,-0.030396864,
0.023797393,0.025491808,
0.039407574,-0.04346668,
0.017582739,0.04472945,
0.0516369,-0.023540122,
0.052761447,0.0123067675,
-0.053104058,0.04944845,
0.06420399,0.019150184,
-0.04077746,-0.088272996,
0.07329146,-0.114764355,
-0.019721245,0.02347486,
0.009245785,0.038688973,
-0.06914307,0.072822906,
0.10187152,0.054369017,
-0.0197251,-0.0706121,
0.11818658,-0.04454637,
0.012095226,-0.001717877,
0.044134554,0.08347054,
-0.0037420588,0.020922245,
-0.04391468,0.025855804,
-0.00948422,0.101758614,
-0.041512854,-0.050260786,
-0.037062883,0.056828253,
-0.011292278,0.07838884,
-0.016405363,0.00012133637,
0.040379133,-0.05634569,
-0.0150858555,0.014206289,
0.028035536,-0.06706904,
0.021806639,0.1676018,
0.010464933,0.10043397,
0.06793791,0.0071461783,
-0.05282908,-0.08131131,
0.05510181,-0.032091234,
-0.07402693,-0.05859275,
-0.0063061933,0.053666994,
-0.053716466,0.07993911,
0.013571914,-0.107365675,
-0.027093602,-0.024511293,
-0.04947089,0.05034407,
-0.06670735,0.027245803,
-0.018420106,0.12755054,
-0.009389431,-0.0617011,
-0.031179626,-0.02357061,
0.058216717,0.01027635,
0.0068143657,-0.0025309578,
0.017680442,-0.008994118,
0.017493246,0.057669252,
0.05085547,-0.0023168712,
-0.008555098,0.08193926,
0.0027125557,-0.013555882,
0.014594768,-0.06457677,
-0.03378325,0.0759672,
0.034590818,-0.061472844,
0.015021938,0.0022523918,
-0.015965516,0.003232999,
-0.019870088,0.05081865,
0.0399764,-0.07812525,
0.011025213,-0.025853042,
-0.053641394,0.072823405,
-0.0150307575,0.08170433,
0.00095651526,0.043081608,
-0.044448525,-0.034730546,
-0.055023547,0.08474158,
-0.035030816,-0.04865609,
-0.027254505,-0.04566858,
-0.08366177,0.09502669,
0.016767025,-0.08199906,
-0.015401183,0.011627581,
0.029632904,-0.045811333,
-0.028736517,-0.033046976,
0.03434839,0.05165067,
-0.01414364,0.037249792,
0.005249058,-0.010001825,
-0.031943094,-0.04267737,
-0.030379768,0.034681864,
-0.027821077,0.07161821,
0.08652778,-0.019559775,
-0.07516375,0.05147304,
-0.0029879396,-0.039405636,
0.0589209,0.006947812,
-0.0030569253,0.019109493,
-0.041922737,0.08686877,
-0.061863046,0.053688698,
0.0016852757,-0.054257434,
0.06421691,0.033732746,
-0.036301248,0.08564904,
0.017119493,-0.023229204,
0.020711305,0.016609112,
-0.013504388,-0.0660913,
-0.054992843,0.09244865,
0.0027661636,-0.008616805,
0.043999724,-0.05654016,
0.0046643633,0.06601782,
0.027205164,0.025193358,
0.03036119,-0.010850233,
-0.0024016174,-0.07982888,
-0.01201809,-0.010043325,
-0.034121633,0.02151483,
0.03422035,-0.0044957954,
0.007162772,0.040088907,
0.031499587,-0.03808279,
0.023021748,-0.0410048,
0.032717142,0.03790115,
0.014482113,0.032746967,
-0.018842652,-0.0048373775,
0.012720245,0.012924955,
-0.009669424,-0.0402251,
0.03414913,-0.07157838,
0.12063843,0.070269026,
0.00077116763,0.014406496,
0.037685826,-0.09607669,
0.07192017,-0.020186415,
0.028994769,-0.027473928,
0.025681643,0.065750584,
-0.031248456,0.017926922,
-0.023121575,-0.02827804,
0.008324539,-0.06314721,
-0.015937688,0.06285275,
0.004091921,-0.0072622676,
0.07633773,-0.034352303,
-0.04311264,0.10003792,
0.03467639,-0.00980151,
0.039053593,-0.058827963,
0.11124099,-0.077858515,
-0.018965818,-0.0009438314,
0.03140793,0.026341423,
-0.054911807,-0.007584585,
-0.05356152,-0.02198294,
-0.021448515,0.049854003,
0.059173666,0.052306805,
0.030329816,-0.010439421,
0.043016117,-0.04671813,
0.09635562,0.009368698,
-0.018205732,0.04785611,
-0.015437207,0.03636673,
0.09709432,0.0064300625,
-0.033449933,-0.016631607,
0.053843893,0.04919424,
0.10584732,-0.004095198,
-0.09026505,-0.03867073,
-0.042546146,-0.04875399,
-0.030270202,-0.00028357128,
0.020321513,0.055075023,
-0.013967836,-0.0017457057,
0.011689192,0.09530102,
0.01556811,0.11085185,
0.03541422,-0.030834258,
-0.026070688,0.023418834,
-0.041597158,-0.030997716,
0.0015098989,-0.047152776,
-0.006466037,0.020644367,
0.083127566,-0.027435761,
0.10358061,0.007895768,
0.006693894,-0.047632758,
0.0023939281,0.024522774,
0.036945917,0.032468032,
0.07792398,0.015547461,
0.08315468,-0.0066441656,
0.013617534,0.05284929,
0.009854338,-0.038064316,
-0.00012918768,-0.008164654,
0.06155652,-0.103939116,
0.02492174,-0.062338464,
0.09600498,-0.03710594,
-0.011167482,-0.0012196678,
-0.05154234,0.023241304,
-0.01732197,0.076469325,
0.010766403,-0.06800377,
-0.0015725375,-0.040904965,
-0.049355343,0.029211955,
-0.046266742,-0.005630915,
0.05013656,0.012903215,
-0.021149773,0.032590847,
0.03812024,0.048674557,
0.0072803916,-0.11728561,
-0.02375405,0.026270615,
-0.014414153,-0.007586005,
-0.049210876,0.0011279883,
-0.073193975,-0.012573719,
-0.019967368,0.05100387,
-0.027049242,-0.04798588,
-0.061869405,0.0583748,
-0.032788314,0.041227058,
0.015179086,0.05545562,
0.03744729,-0.036915187,
-0.09434465,-0.02107139,
-0.005381523,-0.023357056,
-0.018314693,0.027738731,
0.09339621,-0.025744509,
-0.027749972,-0.07560021,
0.010282417,0.040120564,
0.08524501,0.11401926,
0.0056703687,-0.050047286,
0.047007054,0.032298625,
-0.0015531125,-0.007890982,
-0.12514676,0.10909565,
-0.14189222,0.0048887073,
0.014163149,-0.09303581,
-0.050315954,-0.013842426,
-0.033585448,-0.022945512,
-0.060887676,-0.0053614452,
-0.012541636,-0.0022411773,
-0.042024683,0.083383836,
0.008861147,-0.035231903,
0.08181753,0.006000809,
0.025974367,-0.04018255,
-0.01576982,-0.003658214,
0.043443754,-0.016600817,
0.04162789,0.0048343474,
-0.0544139,0.023972476,
-0.06774293,-0.038032915,
-0.08947993,0.06827362,
0.03209104,-0.03093909,
-0.025256472,-0.017918631,
0.021759428,0.00014868387,
-0.02593444,-0.00914251,
0.12385787,-0.054941222,
0.061443895,0.031552315,
0.06342567,-0.04800152,
0.014916537,0.06742553,
0.06101404,-0.07823913,
-0.014237431,0.025023883,
-0.07400275,-0.021195685,
0.09764474,-0.018905625,
-0.023684217,-0.0010277526,
-0.022361074,0.008211505,
-0.014458155,0.048357498,
-0.010603386,0.04344405,
-0.014537578,-0.13314125,
-0.05063369,-0.03210392,
-0.014662205,0.0016020131,
0.022247165,0.0441221,
0.004399765,-0.075036,
0.0087174885,0.036140714,
0.035950013,-0.10530288,
-0.058548894,-0.07331211,
-0.02715101,-0.09244101,
0.07621396,-0.05374195,
0.046495035,0.00033845517,
-0.030549418,-0.07015078,
0.019425347,-0.06227442,
0.0115029095,-0.047931388,
0.0075452104,0.008703996,
0.020519502,0.017443776,
0.06764326,-0.039291386,
-0.037274826,0.017405145,
0.0008512814,0.0635549,
0.008070631,0.023606796,
-0.034871425,-0.032166395,
0.04454946,0.01715362,
-0.022130689,-0.10523642,
0.02897243,0.09564487,
-0.086873904,-0.011667069,
0.039215606,-0.021739496,
0.03496824,0.036341574,
-0.0031726116,0.09093947,
-0.007046146,-0.011631736,
-0.030153032,-0.030853918,
-0.04009494,0.032069776,
-0.045062214,-0.05110618,
0.05999145,-0.009421907,
-0.008002147,-0.008518148,
0.011543538,-0.053432785,
-0.012549095,0.0592355,
0.10710246,0.05628696,
0.040222254,-0.025490226,
-0.024258895,0.0028894714,
0.054184258,-0.011285495,
0.039824482,-0.010422217,
-0.0023897,0.020595852,
-0.021709587,0.04616848,
-0.017852416,0.010183929,
0.045431297,-0.040871162,
0.07683886,0.0011277273,
-0.037407417,-0.013565903,
-0.069788605,0.009908668,
-0.0113913445,-0.023222396,
0.05858126,-0.012517529,
-0.043868747,0.03930873,
-0.00087920314,0.0119233765,
-0.08900697,0.0073906165,
0.014615818,-0.03764114,
-0.04924547,-0.043180726,
-0.06969948,-0.08548971,
-0.03087838,-0.051046636,
-0.024750084,-0.0088055115,
0.08723728,-0.037283532,
0.038847256,-0.013510291,
-0.0075975326,0.063414,
0.017851524,0.07462993,
0.0047357907,0.005041088,
-0.10014557,-0.0028388605,
0.0586449,0.003115501,
0.011742006,-0.008266518,
0.04142613,-0.03320152,
-0.025406674,-0.040519122,
-0.08956425,-0.03890011,
0.022375772,0.009134759,
0.046888396,-0.016562475,
0.00791246,-0.045790233,
0.01742375,0.011877431,
0.1278743,-0.010704883,
-0.03448105,0.04528769,
0.049637333,0.021610333,
0.07597732,0.008795319,
-0.13625777,-0.018845012,
-0.046185955,-0.012687327,
-0.022969536,-0.018687133,
-0.09610184,0.0049101436,
0.04192267,-0.049256224,
-0.060960907,-0.15703784,
0.065937035,-0.09656036,
0.08436833,-0.01824304,
-0.028067887,0.059466973,
-0.13327818,0.03523522,
-0.042665932,-0.06729349,
-0.03583037,0.00514067,
0.0459595,0.012966252,
-0.06002509,-0.0502785,
-0.04985839,-0.027173957,
-0.030332299,-0.07075945,
0.03228953,0.032165024,
-0.028332174,0.11292865,
0.039596908,0.01954345,
-0.078414835,0.044195715,
0.15117256,0.020659223,
0.029636374,-0.06486644,
-0.0024045734,0.09827534,
-0.04215818,-0.0460335,
0.06371332,-0.0026858095,
-0.08671643,-0.0062412866,
-0.02395432,-0.08160194,
0.068080835,0.008955775,
-0.01139113,0.11260035,
-0.041171856,-0.027707469,
-0.085305735,0.013203566,
-0.025816381,0.08585913,
0.0884723,0.06809365,
0.027658634,0.020493113,
-0.021082098,0.033945773,
0.07889061,-0.0030327276,
-0.041705023,0.008379762,
0.048638444,-0.09690692,
0.041716967,0.085126355,
0.07050176,-0.028806891,
-0.10224547,-0.06411586,
0.10734934,0.01022541,
-0.0032276278,-0.05673797,
0.024400825,0.008482756,
-0.002041627,0.011764637,
-0.017795768,-0.030387532,
-0.060627252,0.051550787,
-0.029154316,0.03454189,
-0.032627378,0.022309637,
-0.0062844777,-0.028124329,
-0.04982966,-0.055550385,
-0.050889853,-0.025297888,
0.036917537,-0.030584084,
0.046288315,-0.061225537,
-0.08038643,0.043785363,
-0.044602215,-0.0532562,
-0.006496517,-0.021668755,
-0.018406361,-0.016734527,
-0.0316448,-0.061361436,
-0.11997385,-0.021133626,
0.00055709446,0.03371814,
-0.09666224,0.024096353,
-0.020538019,-0.10316331,
0.023286408,-0.069774956,
0.04271355,0.004837202,
-0.037785325,-0.043634363,
0.064547196,0.10561226,
0.03747983,-0.017343465,
0.018239662,0.030103203,
0.004015147,0.077424966,
-0.0073245205,0.010551654,
-0.103038564,0.051340044,
-0.096052215,-0.05536908,
0.040522676,-0.0035994863,
0.03940898,-0.0055123484,
0.020697603,0.011657329,
0.053464692,-0.026556404,
0.07213466,-0.048703026,
-0.021513836,0.043169916,
-0.056674395,0.049123004,
-0.027204169,0.054964818,
-0.028517617,-0.021564156,
0.0025449987,-0.039246306,
0.0005176206,0.055684898,
-0.0283187,-0.052351005,
-0.009876563,0.047785625,
-0.06502036,0.031364776,
0.011410002,-0.016042098,
0.00339164,-0.0094152,
0.04796936,0.029458143,
0.0030836607,-0.06577829,
0.041320696,-0.040177513,
0.07932014,-0.07774373,
-0.08226324,0.0077278996,
-0.033385035,0.047366872,
-0.024285717,0.07079999,
-0.03049808,0.013650984,
0.012614243,0.010080923,
0.051186405,0.06262261,
0.035331696,-0.060969032,
0.07728863,0.05478551,
-0.06890024,0.024469055,
0.022470819,0.03918063,
0.060198843,0.11466992,
0.038365435,-0.047795035,
0.016654521,0.017489836,
0.015948204,0.087651595,
0.0639488,-0.0053083184,
-0.044941455,-0.024950933,
0.07168345,-0.104735814,
0.034605023,0.022828994,
0.07483705,-0.070963405,
-0.0030357921,0.06343185,
-0.016392391,0.06054812,
-0.024463454,-0.040512577,
0.019549627,0.021403594,
0.0076613985,-0.10388051,
-0.027322771,0.004229212,
0.016287174,-0.0071736975,
0.038006622,0.048626702,
-0.015239667,0.03333543,
0.003469056,0.016075134,
-0.09508903,0.007365526,
0.05088724,-0.042277258,
-0.043227293,-0.021861687,
-0.013660422,-0.027061738,
0.048785925,-0.036128093,
0.1035426,0.047338072,
0.117021345,0.047207173,
0.07692795,-0.009702161,
-0.040485322,0.012870879,
-0.045068346,0.020448439,
-0.0058025573,-0.021647634,
0.06733868,-0.01862941,
-0.00067255466,-0.0068504373,
0.035311013,0.05660966,
0.022655956,0.002465518,
0.0937884,-0.03345381,
0.013224076,-0.045412414,
-0.009111986,0.044518173,
-0.02980724,0.052945916,
-0.060117714,-0.0073133917,
0.005101431,0.023360502,
-0.03950065,0.032394566,
-0.046542667,-0.0024663226,
0.011301394,0.05318724,
-0.006072129,0.000764966,
-0.019266894,-0.001711506,
0.0004700618,-0.016268587,
0.029928258,-0.0397802,
0.06126915,-0.10746652,
-0.06698256,-0.024665063,
0.022359373,0.13650712,
-0.05303434,0.110345066,
0.004034518,0.075863704,
0.04625792,0.053231884,
-0.0400502,0.039767746,
-0.0007794571,-0.015778268,
0.0030983493,0.031521086,
-0.056157786,-0.058745578,
0.020454364,0.03304695,
0.09946708,-0.01457486,
0.043266557,0.008746987,
0.025139866,-0.058097377,
-0.001181013,-0.027375344,
-0.109783076,0.06192161,
0.06629439,-0.006161038,
0.016668139,0.027614996,
0.018884344,0.042099006,
-0.055033546,-0.013626542,
0.019206325,-0.03033822,
-0.08005457,-0.024920827,
0.003938682,0.14041017,
-0.009210246,0.010732949,
-0.12041572,-0.03400379,
0.040572908,0.07050695,
0.036887616,-0.018337766,
-0.032230023,0.014458099,
-0.014353665,-0.094627425,
-0.10606969,0.007090893,
-0.030112272,-0.051879153,
0.10284487,-0.049825013,
-0.011989386,0.024379369,
0.04398014,0.020342767,
-0.021690851,0.072728835,
-0.029686982,-0.025192058,
-0.04522927,-0.014193401,
0.031798568,0.037260428,
0.06263074,0.060817655,
-0.024684848,0.017573422,
-0.002382415,0.021393616,
-0.049932163,0.076372266,
0.028369667,-0.04910483,
0.044198796,0.006314122,
-0.01184923,0.005355409,
0.03331572,0.08887136,
-0.021681273,-0.039281815,
0.011781624,-0.0020027035,
-0.0024793933,0.07199779,
-0.049486138,-0.03122092,
0.06086191,0.049481846,
-0.050868124,0.014252314,
-0.04747948,0.022316875,
0.05782581,0.05959353,
-0.020736428,0.086400665,
0.011438906,0.057996366,
-0.016264962,0.10076504,
0.12383915,-0.005153505,
-0.17260939,-0.037980407,
0.015176446,0.017245805,
-0.04824404,0.007993398,
-0.027707621,0.05936772,
-0.076264195,0.05068903,
0.02313821,0.0033656785,
-0.035227064,-0.01029479,
-0.018197954,-0.025684906,
-0.023706112,0.024728453,
0.004747789,0.017575605,
0.027749963,-0.011825344,
0.0036154524,-0.04387851,
0.0075505837,0.044434883,
0.045369245,-0.006473935,
0.00045570053,-0.001849769,
0.02494848,0.0131078465,
0.105471246,0.06636271,
-0.019281799,0.020338824,
-0.022353472,0.042133816,
0.023945427,0.034262042,
-0.0006415672,0.0061915135,
-0.0059076706,-0.024098685,
0.054393236,0.04048355,
-0.049754962,-0.01921407,
-0.06157855,-0.101571746,
0.030044165,0.02457499,
0.056713864,-0.052135367,
0.02869883,-0.030089539,
-0.046634287,-0.018892901,
-0.04602596,-0.03003773,
-0.033898894,-0.02579942,
0.036303524,0.0018924638,
-0.034123946,0.098088466,
0.0056816344,-0.033141322,
0.02303557,-0.019745044,
0.033372562,-0.0043072132,
-0.023254827,-0.09109847,
-0.042568885,0.04115584,
-0.11966905,-0.03219583,
-0.024162453,-0.014853021,
-0.0493997,0.15115757,
-0.07838797,0.009060279,
-0.021243608,-0.03022303,
0.0020192028,-0.11631689,
0.06826793,-0.051914994,
-0.046523437,0.0012451216,
-0.042452216,-0.051791634,
0.037691824,-0.014563748,
0.0567692,-0.02475387,
0.041149702,-0.018160488,
0.038087487,-0.056140814,
0.020893741,0.05882057,
-0.14985701,0.021338793,
-0.009051593,0.017083962,
-0.057035364,0.05540666,
-0.086157314,0.016808266,
-0.058595154,-0.021261385,
-0.04486596,-0.009634854,
-0.048719272,-0.0558788,
-0.15439342,0.012250996,
-0.07647959,0.02616526,
0.014113958,-0.06497194,
-0.04589136,0.008765784,
-0.012307669,-0.0469173,
0.0002545992,0.030797077,
-0.0026506374,0.027969018,
0.102477595,0.0502241,
0.033080224,-0.10767805,
0.008621789,0.013924105,
0.02387085,0.073770046,
-0.07057119,-0.061123315,
0.07782865,0.03341634,
-0.059679117,-0.002636608,
-0.031238059,-0.05886618,
-0.00013215463,0.045176372,
-0.0032868714,-0.016913055,
0.014621287,-0.0072947363,
-0.0035805856,-0.023500046,
-0.0016380731,0.029453406,
0.05636889,-0.08685957,
-0.0026365088,0.042520467,
-0.031149326,0.082249634,
-0.042634547,0.049289923,
0.009081703,0.006394718,
0.007861337,0.029712843,
0.012854545,0.044686705,
0.017015474,0.07264469,
-0.15070815,-0.007368699,
-0.0050370656,-0.02282254,
-0.0031661906,-0.051279195,
0.11029738,-0.0165334,
0.0039763874,0.033967886,
0.05512682,0.050006106,
-0.037500553,-0.11329078,
0.019299513,0.06820647,
0.030613333,0.016338825,
-0.06068751,-0.0919447,
0.047498446,0.10819459,
-0.0491959,0.030853542,
0.027776055,-0.040352296,
-0.04624406,-0.028553782,
0.023061154,0.06784362,
-0.052266072,-0.116727844,
-0.02522133,0.035443947,
0.023116179,0.04509819,
0.06515171,-0.0441609,
-0.054866537,0.020497708,
0.025643205,0.046219736,
0.047960073,0.0027116276,
0.100047775,0.010823669,
-0.07077507,0.025595602,
-0.009309018,-0.04279882,
0.091246,-0.07403065,
0.046662875,-0.101984434,
0.031030247,-0.0010335891,
-0.03885003,-0.018233567,
-0.13212456,-0.010640165,
-0.029286303,-0.016726466,
0.028736178,-0.048925724,
-0.034878016,0.086739935,
0.038594194,0.10157075,
0.032536935,0.02036803,
0.08299536,-0.06528534,
-0.010172571,0.03937715,
0.02250091,-0.030624224,
0.09393561,0.01307875,
8.554824e-06,-0.023742484,
0.028978044,-0.02856599,
0.06812556,-0.015949788,
-0.028644525,-0.0028786643,
-0.014232941,0.030309046,
-0.024068793,0.017695064,
0.042553548,0.01860651,
-0.020340154,0.0054791654,
0.046278976,0.015687067,
0.025570838,0.054963067,
-0.02935442,0.040077344,
-0.023088736,0.05096919,
-0.048890945,0.008148728,
-0.036080416,0.035636723,
-0.019284125,0.0027072164,
0.027984774,0.04221635,
0.03301749,0.030636348,
-0.05632084,-0.070692435,
-0.011534364,-0.04778601,
0.026268564,0.12130046,
0.051260065,0.00011398835,
0.02486345,0.033138014,
-0.10596673,-0.03247726,
0.004811391,0.026738923,
0.056268748,0.004343969,
0.03177251,-0.018390017,
0.11575634,-0.033806093,
-0.017448107,-0.013676201,
0.039035887,0.04007127,
-0.056217354,-0.058227934,
0.063257016,0.12160006,
0.044738658,0.05515752,
-0.04073167,0.040297415,
-0.0025243408,0.0025837345,
0.05095664,-0.013081859,
0.0428427,0.018486438,
-0.07859241,0.032694887,
-0.033405453,0.14024544,
-0.00785299,-0.008637978,
-0.0132424,0.0042695417,
-0.047289312,-0.028717047,
0.08580651,0.009985772,
-0.0980519,-0.17523478,
-0.040174745,0.05553551,
0.020869194,-0.014315542,
-0.03051535,-0.028253589,
-0.01895758,-0.030071862,
-0.00072628167,0.03902885,
-0.067416966,0.09424436,
0.023489889,0.020141013,
-0.012796826,-0.018873453,
0.029893806,-0.072405614,
0.074955344,-0.0024301694,
0.028569484,-0.042924114,
-0.020327294,-0.046493895,
0.06353371,-0.03574703,
0.12948759,0.036107108,
-0.06781383,-0.039139144,
-0.03783914,0.024983184,
-0.048758376,0.062221475,
0.09160838,-0.058774352,
0.09502279,-0.04676662,
-0.029566,-0.0063362285,
0.003561947,-0.011480556,
-0.06833405,-0.039628796,
0.05344556,0.006720067,
-0.009483966,-0.03522978,
0.037193175,-0.052162535,
0.020638665,-0.03375696,
0.09353243,0.020613771,
0.010983566,0.014729743,
0.020603064,0.050834753,
-0.03865212,-0.034380678,
0.008294727,0.09733364,
-0.01183598,-0.008004687,
-0.01982043,0.03745805,
0.01179766,-0.054618675,
-0.030971244,0.04356626,
0.048639476,-0.0073284246,
0.016217515,0.05413942,
0.056624416,0.054674894,
0.0451839,-0.040999033,
0.055488255,-0.04758714,
0.035415642,0.04286587,
0.07213448,0.049477413,
-0.03557167,-0.028708996,
-0.043439977,0.017090052,
0.016352613,-0.0272215,
-0.011797254,-0.0640738,
-0.044529416,0.05264403,
-0.03797646,0.048102576,
-0.08314912,0.020925516,
0.03434455,0.009455152,
0.004253225,-0.0027407804,
0.04597115,0.053646706,
-0.009919089,0.03928384,
0.1210523,-0.0055467077,
0.080938764,0.03193503,
-0.085453175,0.05927754,
-0.058538184,-0.04248948,
-0.018891945,-0.047365937,
-0.023659365,0.007432329,
0.008868292,-0.024755456,
0.001837584,-0.06601268,
-0.017392306,-0.025632363,
-0.029506834,-0.098812945,
-0.043561317,0.11702493,
-0.0024407408,0.040177565,
-0.010509413,0.0516919,
-0.022626601,0.009565403,
0.06244619,0.11346634,
-0.09023325,-0.025543328,
0.009040872,0.0227114,
0.013231611,0.025189256,
-0.02975752,0.0036390144,
-0.043898847,-0.09086043,
0.09197927,-0.0197966,
0.0050022146,-0.04226368,
0.0017256938,0.0005227807,
-0.0909796,0.0436623,
0.07582055,0.008492454,
-0.01866251,-0.012244235,
-0.007926994,0.030714834,
0.08913742,-0.048957866,
-0.0260836,0.07085934,
0.041919526,0.06095103,
0.028104005,-0.017605027,
-0.05201035,0.044506684,
-0.0041292757,-0.028904112,
-0.058386035,0.08522728,
0.07984343,-0.0033374645,
-0.043504342,0.08691147,
-0.021318855,0.037717275,
-0.0295943,-0.0070516523,
-0.035191942,-0.05419792,
0.017623978,-0.06070742,
-0.06750702,-0.061798394,
-0.04533817,0.026137093,
-0.12901814,0.012154437,
0.0022026184,0.0020609105,
-0.023919005,0.07731792,
-0.0053274627,-0.030630907,
-0.034804847,0.005823719,
0.04248421,0.009749034,
0.0126976855,0.05565927,
-0.054379027,-0.067600444,
-0.02455646,0.055740263,
0.004195319,-0.04892677,
0.07336359,0.002447403,
0.029752571,-0.013481131,
-0.02508775,-0.049756587,
0.00024294281,-0.033567917,
-0.0042015268,-0.07890458,
0.05200115,-0.038862247,
-0.12624604,0.03609709,
-0.047637973,0.061185524,
0.03359671,-0.0367729,
0.027506998,0.01319561,
-0.08180217,-0.015091508,
0.05362539,-0.023042921,
-0.09399668,-0.10003307,
-0.029548202,-0.022585995,
0.07715331,-0.02949099,
0.04005668,-0.0014976581,
0.09629374,-0.007422914,
0.044073727,0.01673593,
-0.011286613,-0.013592007,
0.028807443,0.007551636,
0.064825654,-0.08714297,
0.05156852,0.056312177,
0.07517022,0.06621604,
-0.09279742,0.06266399,
0.020496925,-0.021440204,
0.04682664,-0.023066007,
-0.031586263,0.0057835444,
-0.050343663,-0.005856264,
-0.016046641,-0.01841555,
-0.047481492,0.022591867,
-0.055198964,0.035410304,
0.034929484,0.05699968,
-0.024069237,-0.010357512,
-0.043775782,-0.021830544,
0.01856625,0.054859895,
-0.010853603,-0.11002837,
-0.028142963,0.070540495,
0.0030809413,0.04439701,
-0.08340623,-0.035818473,
-0.014791237,0.020635681,
-0.12093591,0.06634582,
0.053549968,-0.020788219,
0.0068004406,0.030602315,
0.023571825,0.012229393,
0.10182004,-0.088805854,
0.04797097,-0.007890333,
-0.03884457,-0.08880488,
-0.024342205,0.05602077,
0.047336396,-0.03281481,
-0.079989314,0.0036136839,
-0.016306736,-0.03809639,
-0.10284193,0.026865087,
0.09639746,-0.024592718,
-0.03955056,-0.018445788,
-0.051464606,0.041886434,
0.004737288,0.019772626,
-0.059042335,-0.018351778,
-0.016368415,0.049397577,
0.012668077,0.016045155,
0.058915783,0.019760974,
0.045933314,-0.020042472,
-0.08117398,0.018818472,
-0.03341137,-0.018685428,
-0.04159469,0.09098833,
-0.008071444,0.04344678,
-0.110424906,0.0674042,
-0.054663487,0.038303763,
-0.08462856,-0.0032446582,
-0.03216924,0.036358792,
0.03166173,-0.010186272,
-0.07390658,-0.010248819,
-0.041798245,-0.001302216,
-0.028894352,-0.011529728,
-0.015398786,-0.004220169,
-0.017957473,0.03298607,
0.04080885,0.049097873,
-0.020083087,0.023343617,
0.039391197,0.0840241,
0.040971674,-0.021540673,
0.06270958,-0.04368547,
0.012566646,0.0347061,
-0.069055125,0.021603743,
-0.00165612,0.051700592,
-0.051226974,0.018961167,
0.029174058,0.026744913,
-0.0052533415,-0.023898935,
-0.030122343,-0.00367052,
-0.016538626,0.012540247,
0.0021819356,0.05473977,
-0.01944681,-0.037437003,
-0.018422142,0.097973,
-0.11375375,-0.08564686,
0.03956774,-0.06184664,
-0.038964827,0.09706124,
-0.07224279,-0.057617266,
-0.010212233,-0.015113219,
0.08117781,0.048139058,
-0.040055312,-0.006864808,
-0.0087246075,0.078866415,
-0.008247871,-0.042427372,
-0.022868058,0.048987195,
-0.060395103,0.031648308,
-0.05151617,-0.018188152,
0.010498451,0.042760257,
0.01726673,0.07165666,
-0.07148415,-0.0061984975,
-0.039936047,0.016468273,
-0.04791607,0.011934395,
0.02777101,0.042178687,
-0.0060969987,0.0121208895,
-0.023001965,-0.011660725,
-0.005969513,0.031065045,
0.056087334,0.005421201,
-0.0248965,0.049667902,
-0.028896255,0.0054416945,
-0.04182786,-0.017301396,
0.17071025,-0.014796774,
0.0032850388,-0.005074655,
-0.0544587,-0.0064044646,
-0.0327421,-0.052771248,
-0.0119498195,-0.044949643,
0.008165578,-0.035911705,
-0.032449517,0.03125718,
-0.018515315,-0.026047274,
0.08899125,0.050079875,
-0.015612962,-0.02978289,
-0.003085123,-0.010883412,
-0.10832503,0.01377382,
0.07125045,-0.03722549,
0.021231253,0.06379496,
-0.082876675,0.048961766,
-0.034623165,-0.06786075,
0.08734727,-0.07803286,
-0.02536299,-0.04542165,
0.05472579,0.0729702,
0.047017332,-0.013737617,
0.006855319,0.07234933,
0.024735486,0.12692334,
0.0070746704,0.011953615,
-0.017249642,0.116192795,
0.04708353,0.016456474,
-0.0034790356,0.048160728,
0.07140237,0.061233293,
-0.0076728477,-0.034215894,
0.083883666,0.01941695,
-0.006856244,0.042275347,
-0.07929016,-0.07770625,
0.04044611,-0.07246128,
0.0036200078,0.0050292807,
-0.033330787,0.049500436,
-0.027331445,-0.0603209,
-0.1010378,0.068739556,
-0.054176103,0.05545231,
0.07948664,0.020222092,
-0.040276136,0.07478829,
-0.018153673,0.10796307,
0.02341721,0.043358497,
0.085981354,0.034332275,
-0.031025656,0.02886414,
0.03274547,0.025813883,
-0.094211824,-0.019516204,
0.0600683,-0.09065057,
-0.02831983,-0.09099901,
-0.030440345,0.038374744,
0.07975448,0.05267911,
0.13289951,-0.046491843,
0.047595166,0.025389096,
-0.019407962,-0.05901465,
-0.083537355,-0.07011942,
0.017788293,0.06188276,
0.019685708,-0.006369173,
-0.016155036,-0.036119778,
0.10856618,-0.024783961,
0.002247943,-0.021165082,
0.064213604,-0.030912684,
-0.05541271,0.0647901,
-0.009801213,0.012321354,
-0.057374198,0.050716624,
-0.0099073425,0.047026165,
-0.050182644,0.05597524,
-0.00066408777,-0.07976547,
-0.032055065,-0.022251548,
-0.062117293,-0.0016647136,
0.016439036,-0.025745498,
0.02680397,-0.043545023,
0.061686642,-0.014635646,
0.011395577,0.032813158,
0.004864931,-0.07716799,
0.0119457375,0.03948458,
-0.07147098,0.0071733296,
-0.047118656,0.08584265,
0.018176362,0.02678282,
-0.0784667,0.11177154,
-0.013778898,0.07839506,
-0.008595258,-0.019325016,
-0.08396073,0.06471026,
-0.013154587,0.029825713,
-0.059227098,0.0077597788,
-0.021472195,0.06255644,
-0.006409593,0.034672797,
0.04800857,-0.02783293,
0.009940747,-0.0600014,
0.019150175,-0.0052541806,
-0.010334643,-0.010039022,
-0.06610234,-0.07004808,
0.051145963,-0.09395259,
0.08850942,0.023060072,
-0.008912926,0.0286187,
0.023408657,0.06640077,
-0.046069212,-0.007721046,
-0.032853644,0.057739925,
-0.03915449,-0.036306575,
-0.0245338,0.023163171,
0.0031967186,-0.018282622,
-0.023548156,-0.068963386,
-0.009090433,-0.0146788955,
0.024764221,0.0014030009,
0.098029085,0.017983403,
-0.0010968888,-0.12721087,
-0.0034977756,-0.049538992,
0.0591101,-0.014446271,
-0.04927477,-0.029694486,
0.069387116,0.00083959906,
0.07994772,-0.07340862,
0.025071269,-0.002685633,
-0.020479718,-0.026640575,
-0.05170262,-0.051509727,
0.046485957,-0.053867277,
0.0705404,0.031099409,
-0.008653233,0.012337751,
-0.059704367,0.0699763,
-0.0323444,0.0028943392,
0.062261965,0.035860695,
-0.008181093,-0.010209506,
-0.07261018,0.039724924,
0.039036646,-0.029057045,
0.02047617,0.025387391,
0.0025469672,-0.011919288,
0.04471673,0.11218392,
-0.062472496,0.0017576835,
-0.0003752358,-0.010250474,
0.022447383,0.058419507,
0.15179312,0.0887402,
-0.032527015,0.041419946,
0.037849765,0.042036008,
-0.0062111383,-0.046042383,
-0.0033104813,-0.06027399,
0.04231306,0.0292381,
0.0020442014,-0.044200122,
0.058279302,-0.060284,
-0.08468857,-0.012206249,
0.017074896,-0.053863674,
0.020781223,-0.052951615,
0.012061282,-0.022696028,
-0.0033940265,-0.02431241,
-0.046219263,-0.019592576,
-0.094597705,0.00094107585,
-0.016970461,-0.03772599,
0.016920328,-0.007696467,
0.028317807,0.016258357,
0.019013079,0.09087353,
-0.082859725,-0.012802334,
-0.024869246,0.025875485,
0.068495266,-0.05114828,
-0.019190013,-0.039006773,
0.059435844,-0.015151659,
-0.0054266746,-0.0057542142,
0.07329179,0.035490174,
-0.043242835,-0.0019155691,
0.044831406,0.007697757,
0.04623443,-0.08334503,
0.05026037,-0.004015732,
-0.06657578,0.04429335,
0.04407674,0.015031957,
-0.035240043,0.027447306,
0.011524417,0.027319148,
-0.015179477,0.0021644616,
0.0012006676,-0.049172506,
-0.050059363,0.031739756,
-0.029158177,-0.0033713435,
-0.012392358,-0.009483837,
-0.007028184,0.0482674,
-0.003475887,-0.03656276,
-0.05362169,0.0036468122,
0.031338345,-0.011759611,
-0.1048941,-0.031409822,
-0.062161546,0.0028064987,
0.045643166,0.0304101,
0.0393391,0.021139707,
-0.05352159,-0.001442892,
-0.05761879,0.08852843,
0.03392146,-0.000706318,
0.0698487,-0.017484618,
-0.08945136,-0.027426047,
-0.023362936,-0.03576503,
-0.0039704116,0.039701402,
0.062493604,0.08526301,
-0.017584164,-0.08429288,
-0.014144474,-0.0029653355,
-0.027745685,0.012922073,
0.0037205894,-0.011811026,
0.097985856,0.023680229,
-0.0041998285,0.08022347,
-0.03568574,-0.04742477,
-0.09900452,-0.02207589,
0.055004653,0.09484701,
0.02384116,0.062219027,
0.10091923,-0.07297186,
-0.07798904,-0.02244689,
-0.0040206667,0.037492014,
0.122242674,0.07599101,
-0.05309122,0.0063546426,
0.04525625,-0.01978779,
0.03707622,-0.038390085,
0.065680176,-0.012521715,
0.015547293,-0.02947422,
-0.009489303,0.0012383331,
-0.03991226,-0.010840577,
0.0045416793,-0.043902725,
0.062777944,0.003797306,
-0.040914323,-0.020809827,
-0.028322976,0.07097371,
-0.07860224,0.05142686,
-0.088545375,0.0020713708,
-0.033358805,0.026696607,
0.035148777,0.012879115,
0.03259831,-0.044071257,
0.012652702,-0.013027604,
0.073664136,0.05707604,
-0.04461984,-0.0024943803,
-0.046104573,0.09659332,
0.03418897,0.009066436,
0.051052976,0.023810815,
-0.0016343002,-0.026243893,
0.017670045,-0.13344085,
-0.0057841744,-0.006450676,
-0.07243682,-0.011706685,
0.005976644,0.03209107,
-0.065043025,-0.054982044,
0.055046823,-0.012215767,
-0.0701678,0.016518394,
0.052035943,-0.001914155,
0.054704,0.04453991,
-0.07049306,0.009111974,
0.007880542,-0.051000074,
0.058919385,-0.16770543,
0.090505056,0.051525265,
-0.026126899,0.07592881,
0.11240118,0.006846035,
-0.05776897,-0.035938926,
-0.015972797,-0.0861237,
0.0071116523,-0.080779746,
0.05245124,-0.00018974846,
-0.048893195,-0.0011688672,
0.035455566,0.03867544,
-0.06390305,-0.019664489,
-0.04132362,0.030558962,
0.013607715,0.029693931,
0.015401932,-0.008155421,
0.017982943,-0.033550385,
0.016738698,0.023364712,
-0.019391196,-0.06841775,
-0.016973296,0.009588843,
-0.0064788633,0.016997907,
-0.012221636,0.07511276,
0.0067011267,-0.040146433,
0.0767673,0.022325914,
0.04170628,0.02383484,
0.031898323,0.006867429,
-0.047684625,0.00941612,
-0.021093652,0.038089607,
0.03151776,0.05876291,
-0.0015798048,0.044406407,
-0.038250215,-0.01222734,
-0.029693233,-0.036810905,
-0.047014702,0.009535682,
0.07476036,-0.057401102,
-0.071834825,0.017183945,
-0.0685374,-0.030617444,
0.09912738,0.013407925,
-0.058587324,-0.008944827,
0.054621942,0.110193886,
0.0135032805,-0.032294277,
-0.020234441,-0.056499965,
0.0072036656,0.032321822,
-0.028884655,-0.010097972,
-0.027162485,-0.027816808,
0.09180097,-0.027211709,
0.035107885,0.06018503,
0.016641662,0.06833782,
-0.018616553,-0.062467016,
-0.030248396,0.004245832,
-0.06629379,0.06004165,
-0.015186621,-0.05731672,
0.0738867,0.018903123,
-0.0100077195,0.06314897,
0.0092258565,0.04236,
-0.037794217,0.07147874,
0.016200572,0.073641144,
0.056160655,-0.012070424,
0.0021785696,0.017165154,
-0.06713907,-0.0073328926,
0.022627307,-0.0012537567,
0.024932157,0.02229709,
0.049205743,0.06429939,
-0.032395568,-0.03144108,
0.010418106,0.030538896,
-0.048306115,0.015357375,
-0.02562394,-0.005299646,
-0.10763105,0.092581384,
-0.0030875392,0.080807135,
0.019379398,-0.015671289,
0.016703662,0.021203082,
-0.010545187,-0.092493355,
0.023379039,-0.02618073,
0.058360547,0.00904718,
-0.09318075,0.013379891,
0.052592024,-0.009844632,
-0.013925147,0.058345746,
-0.005746831,-0.06653188,
-0.060877383,0.009631327,
-0.0028274113,-0.0820874,
0.01666778,0.048619997,
-0.04379927,0.08346605,
-0.008480285,0.013801438,
-0.010156135,-0.0030389794,
0.07943442,0.028707258,
0.011471968,-0.02413892,
-0.01796383,-0.010327925,
-0.10826369,0.062839754,
-0.03352053,0.06988273,
0.03930591,-0.0071262536,
-0.0023812694,-0.036053743,
0.04343738,-0.07125,
-0.06015196,0.029950261,
0.046463143,-0.08979022,
0.0216198,0.011326793,
0.008898341,0.054079827,
0.034155287,-0.039860927,
0.041402947,-0.0616728,
-0.04426401,-0.07028313,
-0.06374325,0.01631161,
-0.045740787,0.030437212,
-0.02168071,0.013569748,
0.06637666,0.060842525,
0.04618645,0.065864146,
0.007048537,0.11477889,
0.028457843,0.04453692,
-0.0069521996,0.023228392,
-0.022805022,0.024769163,
-0.06239156,-0.08490997,
-0.11866046,-0.030791132,
-0.012173664,-0.09754875,
0.026950778,0.056340933,
-0.09946808,0.019249521,
0.01706359,-0.05748361,
0.048144937,-0.012226828,
0.046329804,0.057770774,
0.0060871094,0.009089385,
-0.02356411,-0.0736819,
-0.039729584,0.041901905,
0.021818481,0.00870236,
-0.008444069,-0.007941602,
-0.049679074,0.04352937,
-0.038595922,0.05139909,
0.0024067033,0.036188554,
-0.03142508,0.13324839,
-0.009870042,0.033915494,
-0.04615661,0.009714254,
-0.0396188,0.08345289,
0.015825195,-0.06814779,
-0.024633886,-0.070855275,
-0.03436171,0.023160404,
0.04891439,-0.0419725,
-0.057756867,0.05863918,
-0.10998119,-0.044415865,
-0.05096277,-0.017227754,
0.031605445,0.05366033,
-0.057456534,-0.061527833,
0.052914053,-0.12938322,
-0.048320558,-0.01383523,
0.015875235,-0.14257903,
0.034351084,-0.026279204,
-0.009965909,-0.03734359,
0.070307605,-0.048298392,
-0.058335703,-0.015587115,
8.464922e-05,0.04987966,
0.045690782,0.014640492,
-0.0043598334,-0.026312795,
0.041699085,0.07690993,
0.023320531,0.058910575,
0.02776566,-0.022474071,
0.029328773,0.004887757,
-0.01881222,-0.022064744,
-0.012987852,-0.05153724,
0.057199575,0.0240044,
0.036090944,0.036386088,
-0.030841218,0.023646293,
-0.08460302,-0.012336671,
0.046528842,0.011379578,
0.041992474,0.009684698,
0.020033281,0.015792489,
-0.013052607,-0.005413092,
-0.02170625,-0.0033170339,
-0.015430718,-0.011230468,
-0.0722669,-0.023371343,
0.003996357,0.04903659,
0.0032078242,0.022372995,
-0.013146835,-0.047926977,
0.017202906,-0.00069045677,
-0.006815166,-0.014250431,
-0.09136046,-0.05516628,
0.048329327,0.03277539,
0.018537944,0.06175297,
0.05450655,-0.031945564,
-0.022900019,-0.06352587,
0.015083103,-0.0033573178,
0.0074241655,-0.0074613392,
-0.099335745,0.017778631,
0.008558704,-0.0004602411,
-0.13259569,0.13345422,
-0.027826957,0.004528161,
0.013349597,-0.025849627,
-0.0759725,-0.008340694,
-0.10011926,0.10777821,
0.0007869736,0.030408576,
-0.032148086,-0.0024549589,
0.043414824,-0.07227636,
0.020569028,0.076359876,
0.05540075,0.045138344,
0.04193233,-0.038665887,
0.047757063,-0.06794995,
0.041604865,0.018767968,
-0.010458445,-0.006413068,
-0.033528354,-0.0072747893,
-0.038740713,0.048810452,
-0.0810927,-0.050937235,
-0.031938355,-0.040565394,
-0.048323285,-0.0043020085,
0.02093487,0.015176856,
0.04382215,-0.014760329,
-0.010539872,0.032898966,
0.007975501,-0.061825164,
0.06109792,0.076897964,
0.051264312,0.07764252,
-0.013897366,-0.035552938,
0.048106283,0.04671442,
0.040056832,-0.015916387,
-0.0032840848,-0.0391191,
0.060995508,-0.045530155,
0.04205904,-0.03848418,
0.089191906,0.047193483,
0.03141109,0.034475666,
0.014004345,0.0290815,
0.0437354,-0.028890528,
-0.07697668,0.063427605,
-0.03946886,-0.0038372227,
-0.0115278615,0.074799865,
0.025781121,0.0040642554,
0.0035875074,0.030402318,
0.010423732,-0.107326984,
0.01849703,0.07485631,
-0.027308054,0.040683776,
-0.024615053,0.03685128,
-0.06284288,0.054962557,
-0.02013809,0.07640677,
-0.031913236,-0.07721789,
-0.009125348,-0.09067098,
-0.059572943,0.0049095703,
0.012605995,0.034938555,
-0.012885649,-0.027033387,
-0.03877066,-0.03719359,
-0.047752794,-0.0601323,
-0.044202577,0.023957822,
0.005860535,-0.029781334,
0.08347119,0.052853502,
0.01082595,-0.027742013,
0.044045076,-0.01825325,
0.0106349485,0.005839443,
-0.014546519,0.0030049963,
-0.07926179,0.0570985,
-0.044943962,0.029810086,
-0.041287847,-0.09463783,
-0.04877522,0.06589983,
-0.11202815,-0.0013676177,
0.07760589,-0.027233692,
-0.019664306,0.029898576,
0.03874763,0.058090873,
-0.042178907,0.025412485,
-0.00629328,0.02529307,
-0.015061805,0.03993261,
-0.03631933,-0.061695065,
0.026143575,0.0013422599,
-0.015620159,0.13411734,
-0.06729373,-0.02589122,
0.06920138,-0.06469766,
-0.0036405274,-0.0119699845,
-0.012239144,0.010992648,
-0.028069291,-0.036710337,
-0.116859086,-0.016386542,
-0.07038594,0.038508985,
-0.021527637,0.029986711,
-0.005313956,-0.005860337,
-0.066263385,-0.031036513,
0.0043964684,0.108710855,
0.011391765,-0.011768023,
-0.0018381174,0.008058666,
-0.032668997,0.08546807,
-0.045143325,0.12527013,
0.017089793,-0.05447245,
-0.03841357,-0.00052276155,
0.017087337,-0.070784375,
-0.016249876,0.03328443,
0.008733959,0.009446632,
0.04610749,-0.013187509,
-0.05697326,-0.04818846,
-0.061632887,0.018330934,
0.019871023,0.05475429,
-0.002291955,-0.03989151,
0.03359816,0.08835792,
-0.04576005,-0.06960531,
0.080926664,0.036841862,
0.009562428,0.09236697,
-0.0157699,0.024683688,
-0.037632152,0.016910752,
-0.053695604,0.07045302,
-0.00241022,-0.041777626,
0.026888877,-0.024492888,
-0.04911929,-0.017968781,
-0.069059364,0.05578098,
0.08678534,0.034837943,
0.030692235,0.020327576,
-0.0042461096,-0.030540776,
0.07191927,-0.038213566,
0.027327655,0.026189933,
-0.011952559,-0.032422606,
0.04548437,0.05692817,
-0.03127983,0.044701457,
-0.038619872,-0.057558008,
-0.09087804,0.02683234,
0.10212432,0.017459627,
-0.010453796,0.05874863,
0.11926671,-0.014069065,
-0.018464167,0.013303878,
0.02439798,0.0082244435,
-0.029318081,-0.02632802,
-0.0637609,-0.03039661,
-0.008609138,0.008987534,
0.046050552,0.027085561,
0.019018516,0.036185075,
-0.13300705,0.012165466,
0.039674845,0.09419584,
0.008359649,-0.051027056,
0.030136218,0.005214362,
0.016699705,0.009652713,
-0.050736103,-0.09971253,
-0.09706768,0.020934943,
0.0174661,-0.035335556,
-0.0026482637,0.010258589,
-0.033636067,0.04414004,
-0.013031514,-0.07731464,
0.012588961,0.03842141,
0.055463158,0.03578366,
0.038711734,-0.019052224,
-0.057818707,-0.070487365,
-0.032932367,0.09972431,
-0.018663598,-0.031371746,
-0.026908921,0.0004851799,
-0.0025155174,-0.015105894,
0.0051524905,-0.018336484,
0.04005981,-0.0050307265,
0.004374242,0.08273593,
0.0638143,0.06762144,
0.032104973,0.09564316,
-0.010611849,0.07881002,
-0.035544824,0.07960993,
-0.0041916785,0.03230044,
-0.0034411787,-0.10453297,
0.050792377,-0.008794471,
-0.10468083,0.036553346,
-0.0014616547,-0.04521548,
-0.059390217,0.053431027,
0.0593261,0.0014996511,
0.055492897,-0.0019113,
0.07882501,0.05262485,
0.02111139,-0.01606365,
0.087954625,0.012514274,
-0.04290892,0.017168412,
-0.009317588,0.021056646,
-0.02312065,-0.0656445,
-0.09059732,-0.01453311,
0.010474511,0.030783685,
0.024576705,-0.016118497,
-0.056692217,-0.090858944,
-0.044597734,-0.027098754,
0.0025181787,0.11972308,
0.06439956,0.07441927,
-0.056125764,0.014433399,
0.017591048,-0.009905567,
0.04705754,-0.07377832,
-0.037848134,-0.002578671,
0.016811233,0.18726969,
0.011427124,0.031827696,
0.060539804,0.03165046,
0.02506672,-0.08231187,
-0.0362026,0.0888808,
0.007962818,-0.029025558,
0.008225439,0.046946887,
0.0027519611,-0.024638714,
-0.014859467,0.12744012,
-0.08230729,0.016340967,
-0.078431696,-0.07687577,
-0.0045405654,0.04911004,
0.0735969,0.043329142,
-0.04359108,0.0071180393,
-0.07597943,0.07903621,
-0.047253236,-0.084816575,
0.061540022,0.023860257,
-0.044109117,0.035153672,
-0.07859267,0.03070738,
-0.004510758,-0.06908934,
-0.034656953,0.08648694,
-0.0057380907,0.02531768,
-0.0377878,-0.04115909,
0.05503814,-0.0155219305,
-0.014366941,0.068509094,
-0.13664754,0.01793601,
-0.035965685,-0.03442099,
0.06424305,0.039728332,
0.015381564,0.037160005,
-0.0915116,-0.0773712,
0.096554235,0.085848376,
-0.017438794,0.12057415,
0.029553909,0.017163275,
0.042659204,0.03569632,
-0.09080178,-0.024133785,
-0.07059202,-0.05966644,
0.0521311,-0.038458925,
-0.049927562,0.009681197,
0.044277906,-0.004936475,
-0.045156803,0.009044452,
-0.03717985,0.011731695,
0.03425094,0.013767232,
-0.083451286,0.059382487,
-0.04590576,0.00937964,
0.009817045,-0.00639054,
0.03305061,-0.008676172,
-0.117320016,0.05558831,
0.0026420564,0.0031089499,
-0.0027434956,0.050241616,
0.012050564,-0.026604237,
0.026724674,-0.034567505,
-0.106317155,0.024283428,
-0.08177202,0.0007981417,
-0.01942765,-0.08095449,
0.042605016,-0.018364282,
-0.009563982,-0.034328196,
0.037689578,0.035356745,
0.030532435,0.02792502,
-0.0544636,-0.093058266,
0.0020995263,-0.003777996,
0.07042287,-0.013594241,
0.07998721,0.010402415,
0.03724749,0.034136873,
-0.012709323,0.07707681,
-0.057617117,0.002501858,
-0.073777564,-0.01142973,
-0.018320598,0.14528269,
0.019623647,-0.027530113,
-0.023007507,0.022958126,
0.011242124,0.048475772,
0.0026824607,0.031975918,
0.006061389,-0.008781275,
0.11080415,-0.056059632,
0.05646039,0.04372442,
0.09697755,-0.08630269,
0.02785149,0.031219156,
0.028131533,0.051141143,
0.013119851,-0.016359735,
0.03055477,0.0093114525,
-0.0021012633,0.026332187,
-0.058496714,-0.02863368,
-0.031465836,0.015576884,
0.056995712,-0.0067788167,
0.013406555,-0.044696793,
0.016460488,0.020973183,
0.0168562,-0.019995235,
0.014448835,0.04834877,
0.0043414934,-0.011515469,
-0.021109087,0.040162057,
0.052003246,0.022936514,
0.04933875,0.0749607,
-0.0064092586,0.01595064,
0.052890558,-0.041741244,
-0.007494492,-0.056976415,
-0.1296536,0.014267677,
-0.0048737354,-0.016856063,
-0.0013039776,-0.017338343,
0.024835426,-0.019859679,
-0.037446696,0.025545795,
0.045651406,0.031528004,
-0.06181459,0.06647301,
-0.060986307,0.00996751,
0.0098105185,-0.006074952,
0.05131243,-0.031499546,
0.0058461786,0.037424505,
0.044663534,0.02056908,
-0.03999508,-0.0050707953,
-0.019618673,-0.081638955,
-0.008506497,-0.04398721,
0.070673734,0.028632538,
0.114753,-0.003432267,
0.01527283,-0.013382043,
-0.03321394,-0.018532231,
0.035897776,0.037375517,
-0.06621308,0.015817448,
-0.034734692,-0.0060149306,
-0.06315276,0.03461634,
-0.04784666,-0.011292092,
0.004213455,0.011008419,
0.028424306,0.07816025,
0.010611219,-0.008189979,
-0.04168234,0.042796195,
-0.07165057,0.007771031,
-0.030813621,-0.04336212,
-0.007176191,0.035605248,
-0.026557898,-0.03394221,
0.0066618416,0.007144249,
-0.075390354,-0.10196896,
0.020534238,-0.0020664847,
-0.026358522,-0.054956846,
-0.11298403,0.034608424,
-0.010324636,0.055280823,
-0.01483737,0.0058539165,
0.01534738,-0.003041294,
-0.05880192,0.026006397,
0.026110832,0.05155745,
-0.04345249,0.013522402,
-0.008363572,-0.00348991,
0.07445828,0.10374421,
0.06501043,0.08187083,
0.06608299,-0.018151311,
-0.018197654,0.061519835,
-0.029510234,-0.018070228,
0.024029648,0.082032986,
0.04432855,0.019746399,
-0.042282198,0.0066571343,
0.029797556,0.045215342,
0.0027485394,0.100001074,
0.029709626,-0.017455822,
-0.07492994,-0.036232717,
0.049305603,0.08102475,
-0.059619658,0.05211856,
-0.05632697,-0.026223194,
-0.0015657232,0.0102623515,
0.021346673,0.05853658,
0.020100383,-0.0066988547,
0.011546093,0.00032127238,
-0.11614141,0.08814509,
-0.00088875706,0.03709966,
-0.015886605,0.03787346,
0.01917878,0.024855565,
0.0009065032,-0.04433963,
0.06743079,0.0048883003,
0.024138253,-0.06102414,
0.0366307,-0.03486964,
0.08845587,0.04802061,
0.030258406,-0.009417452,
0.09732663,-0.17561874,
-0.039295334,0.018882599,
-0.0014749517,0.07307937,
-0.030354299,0.0048143305,
0.032337524,0.0366374,
0.012434182,0.051557712,
0.013409513,0.09813537,
0.0127772335,-0.020513715,
-0.029813338,0.010849662,
-0.011328141,-0.0075972714,
-0.068007916,-0.087970376,
-0.07983098,-0.060888663,
0.043305732,0.074391454,
0.060448345,0.014742262,
0.106338196,-0.0078086997,
-0.025632927,0.088620625,
-0.056505606,0.10343038,
0.01524747,0.030432288,
-0.04666628,0.005197124,
-0.02597807,0.008661139,
-0.00827567,0.022281248,
0.015683103,0.01064319,
-0.07926528,0.007934108,
-0.030765435,-0.008894771,
0.043131255,-0.033702794,
-0.0015646216,0.066295825,
-0.06145065,0.010204731,
0.020540887,-0.11100671,
-0.017522996,-0.052760277,
0.09507747,0.023525296,
-6.666282e-05,0.0051699122,
-0.038624905,-0.048745915,
-0.027958235,0.022600928,
-0.05445183,-0.069442734,
-0.04443111,0.057880618,
0.0053657824,-0.07010149,
-0.054244187,0.01865503,
0.0052308934,-0.026918897,
0.008742714,0.041753512,
0.06815892,-0.01405699,
-0.021502417,-0.09042935,
0.07258966,0.09539701,
-0.020763244,0.11055847,
-0.0381184,-0.01208258,
0.02185874,-0.027248297,
-0.06730558,0.107673414,
-0.068089165,-0.114994526,
0.064677015,0.038702674,
-0.059059642,0.046946585,
-0.019381948,-0.0419878,
0.08242871,-0.0038187513,
0.033984262,-0.036689214,
-0.058667302,0.04337156,
-0.04229008,-0.05228521,
0.11251417,0.03161411,
-0.0969152,0.06972575,
-0.062055293,0.05984756,
0.037212227,-0.017218795,
-0.020429844,-0.07236552,
-0.020571258,-0.02088359,
-0.03309691,0.016369402,
0.0049932376,0.019026728,
-0.013669781,0.0034816132,
-0.008342451,0.02850238,
0.051730096,0.042655792,
0.03344998,-0.045244817,
-0.029731466,0.0012606204,
-0.0136908265,-0.02038185,
-0.0535925,-0.04807494,
0.03323318,0.018514592,
-0.0063204896,-0.124262005,
-0.024757901,-0.12094363,
-0.021452,0.021524398,
-0.032644257,-0.009525947,
0.039761722,0.13597178,
-0.0046808235,-0.10508566,
0.053675063,-0.050483134,
0.014340883,0.015012741,
0.027351648,-0.063864,
0.0016232664,0.013421335,
-0.04173294,0.080021106,
-0.009154143,-0.029970365,
-0.06418097,-0.050779216,
-0.05435921,-0.06648216,
0.069024585,0.04688334,
-0.007499559,0.13303111,
0.004650085,0.034728628,
0.008959755,-0.045246933,
-0.0014391487,-0.03763014,
-0.043160524,-0.0050282916,
0.05263553,-0.033294212,
0.009264049,-0.086746424,
-0.10045589,0.032457486,
0.08333901,0.023612577,
0.006838117,0.09731861,
0.031667773,0.023368217,
-0.07736191,-0.07875954,
0.04319444,-0.03684617,
-0.03405945,0.07957534,
-0.025651459,-0.017792743,
0.050035417,0.07343717,
0.03114037,-0.017582016,
-0.080875985,0.05096451,
0.0121263815,-0.04515841,
0.0026196889,-0.09591832,
0.10163769,-0.013241594,
-0.016261932,-0.025506347,
-0.025430514,0.019515175,
0.048809066,0.011871744,
-0.0623451,0.026527949,
-0.037789673,-0.043086566,
-0.09515298,0.046202734,
-0.0037201722,0.06276214,
-0.043051213,0.037860416,
0.029439498,-0.013806742,
-0.010304198,-0.025759045,
-0.0043099243,-0.06380656,
-0.039391816,-0.010209156,
-0.021997519,0.06413354,
-0.018322276,0.068603575,
-0.030614996,-0.008883768,
-0.04509745,0.027953716,
-0.028071927,-0.041485105,
-0.030814353,0.017264184,
-0.0049621738,0.0027140218,
0.0050553195,0.010640197,
0.08055374,0.0022676163,
-0.042857226,-0.019225605,
0.010934056,0.12014489,
0.07250658,0.017195066,
-0.117588356,0.023775198,
0.032341868,-0.0067283707,
0.055279896,-0.0039742747,
0.019506417,-0.017349267,
0.024328617,-0.034147363,
-0.03622976,0.02193753,
-0.009439771,0.0991144,
0.027332408,-0.0558116,
4.6829242e-05,-0.0108577125,
-0.11035954,-0.027663002,
0.0697681,0.025050415,
0.044359207,-0.029173963,
0.011906586,-0.037141662,
0.020479044,-0.049474135,
-0.07014615,0.034095407,
-0.00573174,-0.05520013,
0.006710541,0.08135009,
0.018270457,-0.025184525,
-0.060716983,0.0046636285,
0.0602483,0.0880484,
-0.0020621049,0.013481436,
0.067973554,-0.09039494,
-0.04890542,0.02203805,
0.027884694,-0.009631056,
-0.03795083,-0.028962657,
0.016035186,0.014122992,
-0.020664966,0.040791772,
0.082091674,-0.012060666,
-0.050556403,-0.032954857,
0.010512038,-0.088642,
0.0332809,-0.031517368,
-0.05315926,0.0002167625,
-0.037691057,-0.017524986,
0.031387605,0.031581137,
0.0006776463,-0.040426247,
0.05199827,0.0039650835,
0.11001395,0.01080068,
-0.05608616,0.033439662,
-0.076907836,0.022555783,
-0.011236633,0.08077838,
-0.12214319,0.027824102,
0.025700865,0.046514604,
0.08334487,0.051753357,
-0.0071227294,0.040114947,
0.007454083,0.027088419,
-0.096372865,0.10807353,
0.0372865,0.0010858087,
0.00061398785,-0.043756623,
0.03494998,-0.08505629,
-0.024330376,0.08658392,
-0.026211131,0.021404753,
-0.01414281,-0.0058877612,
-0.03412576,0.03436359,
0.033330597,0.06189274,
-0.016473839,-0.028382612,
0.03358179,0.06659471,
0.12853716,-0.05422612,
-0.02660984,0.043913122,
0.024371786,0.09556995,
0.020557232,-0.061222617,
-0.047196098,0.0077068377,
-0.013638214,0.041525986,
-0.056380484,-0.010138593,
-0.0026472155,-0.127272,
0.07964398,-0.051317934,
-0.003992579,0.005056662,
0.007466593,0.016707337,
0.018427355,0.05370128,
-0.11071227,0.04772149,
0.07032064,0.11568449,
-0.0013501083,-0.025277548,
-0.0021985497,-0.002977226,
-0.0056511257,-0.029816095,
0.06555225,-0.032242723,
0.08683923,0.035166435,
0.016369464,-0.009025554,
0.05325352,0.03617157,
-0.06810528,-0.03164276,
0.06295491,0.042779226,
0.05643515,0.09209473,
-0.032056794,-0.021377396,
-0.009043815,0.041194126,
-0.027809715,0.061954882,
0.0025603757,0.008034871,
0.07299215,0.023243243,
-0.020289697,0.01523849,
-0.03685671,-0.016092582,
-0.041134655,0.041098624,
0.016760366,-0.038775977,
0.04807592,0.05321189,
-0.0054538436,-0.012518627,
-0.028371582,-0.014435807,
0.0057031494,0.026915304,
-0.05894971,0.07756888,
-0.00014793122,0.049356584,
-0.037926145,0.04090157,
-0.014042976,0.096314326,
-0.036917787,-0.013070697,
-0.031757068,0.03924222,
-0.028181132,-0.0378677,
-0.062481903,0.06060572,
-0.03865067,0.014789229,
0.029283442,-0.005465551,
-0.021632195,0.037339028,
-0.002078305,0.04761637,
-0.0064523867,-0.030263899,
-0.006647975,0.07402186,
-0.14751771,0.009591195,
0.030870147,-0.05349068,
0.009213111,-0.0019499967,
-0.017569086,-0.03537125,
