layer1node1,layer1node2,layer1node3,layer1node4,layer2node1,layer3node1
-0.07647357,-0.0038622047,0.04734292,-0.05647797,0.65532553,-0.9689394
0.07025986,-0.04747743,0.017475894,0.012628499,-0.29072514,
-0.03996554,-0.055513367,-0.015092776,0.0904744,-0.27324885,
0.026933972,0.047580265,-0.06391592,0.009150427,0.53970915,
-0.013674779,-0.0034793685,0.0471605,-0.056733083,,
0.03179276,0.019670252,-0.028521437,0.04387836,,
0.013036827,-0.014287883,-0.020928197,-0.050815742,,
-0.042932585,-0.025559045,0.048720095,-0.021638194,,
0.044154126,-0.08963974,0.026752658,-0.028506864,,
-0.0023341319,-0.017233841,-0.011773826,-0.0640794,,
0.01834719,0.018088318,-0.03564918,-0.02659266,,
0.013643758,0.0052138777,-0.11607796,-0.027400633,,
-0.0020054008,-0.022733154,-0.0018144462,0.037039127,,
0.0049725766,0.026679732,0.045224104,0.011673149,,
0.045353238,-0.0012948296,0.0024932288,-0.03979305,,
0.020572424,0.06308964,0.051320106,-0.09079115,,
0.024556903,0.04302858,0.077250384,0.033391252,,
0.0483673,0.052958272,-0.0014424131,0.037342057,,
0.013250739,0.0010647002,-0.014177547,0.02137334,,
0.058333278,-0.03287606,-0.0025997567,-0.026804423,,
0.050971538,-0.022241559,0.037697304,0.058978338,,
0.04386231,0.03690393,0.0367092,0.052923936,,
0.082087934,0.054103903,-0.03825485,0.016266089,,
-0.010797402,-0.010548378,-0.097116925,0.07226036,,
0.072280064,0.08854519,-0.022531081,0.07858666,,
-0.026082769,-0.01367721,0.05022076,0.0072335824,,
0.0141589865,0.03154858,-0.0406443,-0.019427368,,
-0.003856116,-0.009844102,-0.01161181,-0.00243271,,
-0.0023657347,0.0103032775,-0.024553284,-0.01543358,,
0.042935103,0.009887758,-0.040173475,0.048584245,,
0.019442394,-0.0072408956,-0.053419523,0.021103848,,
0.03474465,0.05238005,0.027435416,-0.01128132,,
-0.012118238,-0.01544447,5.8520123e-05,0.030712271,,
-0.01871637,-0.09008232,0.0776536,-0.006652079,,
-0.035704564,-0.035495743,-0.0461451,0.051507983,,
0.03717933,0.04511174,-0.0016166255,0.023175722,,
-0.0076423557,0.0052966634,0.015912604,0.008099774,,
-0.051923417,-0.01694682,0.11091813,0.019930221,,
-0.08207333,0.0381398,0.025409037,0.019805796,,
-0.01617657,-0.028725931,0.021142881,0.10455587,,
0.025934795,0.03979054,-0.034572512,0.030835532,,
-0.053967126,0.02525357,-0.02156992,-0.0055797547,,
-0.013676046,0.043652497,0.036834408,0.039517596,,
-0.081524014,-0.052106142,-0.021112917,-0.026058124,,
-0.050118785,-0.06658841,-0.004377528,0.057554808,,
0.02274907,-0.029122334,-0.053139344,-0.04265955,,
-0.038681567,-0.010722924,0.058234192,0.011089196,,
-0.026274446,0.05224071,-0.01240608,-0.01601512,,
-0.02548687,-0.052323494,0.00068344886,0.11648459,,
-0.07677259,-0.054691073,0.07929188,-0.0030670515,,
0.033898752,-0.034043826,-0.03234114,-0.01904925,,
-0.11188395,0.0001595991,0.05378108,0.014917242,,
-0.006644645,0.035174593,-0.013201242,-0.016881332,,
-0.0060076937,-0.017181834,0.096254386,-0.048471946,,
-0.023874028,-0.07358212,0.06326323,-0.012838675,,
-0.009797966,-0.0031210566,-0.008120672,-0.07888594,,
0.027627125,-0.032060497,0.055457644,-0.026857687,,
-0.042993937,-0.040001247,0.09181637,-0.042746726,,
0.014480442,-0.09096526,-0.029571284,0.027041303,,
0.04159501,-0.034991458,-0.02329379,-0.01232972,,
-0.013139279,0.0014374924,0.0052867057,0.049170528,,
0.05003277,-0.032233957,0.018608153,-0.024793472,,
0.051274918,-0.010949818,0.0969014,0.12284514,,
-0.015404451,-0.036978867,-0.09790865,-0.026306905,,
-0.07518338,-0.10907216,-0.030647885,-0.046701755,,
-0.026054358,0.012059275,-0.050351586,-0.049841013,,
-0.018061599,-0.04555541,-0.0748339,-0.024700454,,
0.0059104464,0.0681898,-0.04178057,-0.07371389,,
0.021633806,0.030162234,0.023557529,-0.0010258745,,
0.047768224,-0.0076135723,-0.006549368,-0.061284177,,
0.010721626,-0.06427811,0.030910062,-0.011530712,,
0.04205518,-0.03205567,-0.0071241166,-0.036794033,,
0.06688398,-0.022699552,-0.005546493,-0.021577474,,
0.025656087,-0.018141486,0.035623763,-7.5839416e-05,,
-0.021396248,-0.0559455,-0.0021714394,-0.054328606,,
0.08123544,-0.0981859,-0.038524095,-0.035591196,,
-0.0062585203,-0.00012723399,0.041961104,0.009906554,,
-0.032807134,0.0047393036,0.07236841,0.014291181,,
-0.028017914,0.010682933,-0.05021505,-0.030590832,,
-0.023659138,-0.011212265,-0.0034851437,-0.0011807256,,
0.010221909,-0.004387672,-0.038853724,-0.037999585,,
-0.021523118,-0.063779466,-0.054778323,0.0134075135,,
-0.040979672,-0.0016719693,-0.009230977,0.0035185996,,
0.06264562,-0.041852225,-0.04616447,0.05186762,,
-0.014839893,0.0099283755,-0.06484809,-0.08552743,,
0.031555917,0.11420991,-0.054701187,-0.0004106723,,
0.047605813,0.045897968,-0.01166721,0.0472495,,
0.009676548,0.023243267,0.013699877,0.013515848,,
0.037032988,-0.047740497,0.044166718,0.008342519,,
-0.03065357,-0.0009990329,0.044128217,0.0007656192,,
-0.022132827,0.02030012,-0.03744578,-0.0506433,,
0.04871175,-0.11819084,-0.000812116,-0.01976301,,
-0.018218353,0.053057034,0.04183837,-0.0039397674,,
0.04501613,-0.004035546,-0.08580795,0.09486878,,
-0.10420402,-0.047704287,-0.05131638,0.09369499,,
-0.0028489265,-0.05954617,0.05287971,0.10312731,,
0.0072478484,-0.019061679,0.008233442,0.00077187404,,
-0.08955311,-0.028647812,0.037622742,-0.013826048,,
-0.011138018,-0.075752735,-0.025631111,0.007235228,,
-0.03020761,0.017822154,0.03384962,0.051460564,,
0.0093703335,-0.036372952,0.05807089,0.017363401,,
0.017029611,0.030196734,0.05018509,0.0022029136,,
-0.048360873,0.04565116,0.0015891794,-0.004216961,,
0.017310902,-0.0026075,-0.00542628,-0.004283114,,
-0.012582148,0.03355875,0.08139713,-0.08449915,,
-0.00832482,-0.07341767,0.05878148,0.009366072,,
-0.12896894,0.0044449084,0.003968135,-0.030063313,,
-0.01593927,-0.06510423,0.055267606,0.025528206,,
-0.045204666,-0.0060738255,-0.07264706,-0.025503209,,
-0.05294147,0.021695994,0.015418803,0.0036438804,,
0.044487584,-0.05316841,-0.0382596,0.03588579,,
-0.09488833,0.014594409,0.007888055,-0.030383255,,
0.048804585,-0.07426814,-0.0066994047,-0.025014916,,
-0.0038012182,-0.077149324,0.045149527,-0.03476378,,
-0.013487301,0.057531077,9.145259e-05,-0.07086601,,
0.05196439,-0.05049945,-0.026373032,-0.021693656,,
-0.05650947,-0.010402931,-0.041997965,-0.03888798,,
0.07954326,-0.0741477,-0.071832374,0.009815873,,
-0.012955538,-0.04247963,0.04667552,-0.01917363,,
0.014533569,-0.034508865,-0.033371247,-0.06772718,,
-0.006211418,-0.04148488,-0.0045246836,-0.041254677,,
-0.1129694,0.022033365,0.03530345,-0.038961843,,
-0.079919524,0.036101595,0.05427037,0.0009464245,,
-0.011083099,-0.03417249,9.2746064e-05,-0.11729038,,
-0.0759335,-0.017230583,0.010349071,-0.03388921,,
0.07537292,0.0537463,0.031173738,0.0114183165,,
0.025267133,0.039690066,0.004141011,0.0041533094,,
-0.0018958206,0.001025133,-0.012929937,-0.0336815,,
-0.053762995,0.08110399,0.026436044,0.034439318,,
0.0450815,-0.02432029,0.0604751,0.012564424,,
0.09218788,0.040628243,-0.010732139,-0.024649218,,
0.00012835374,0.035152305,0.028776815,0.02483049,,
0.07244497,-0.03364731,0.03891909,0.06157883,,
0.07211404,0.0075533404,0.04242199,-0.018116338,,
-0.026454866,0.0020327764,0.018604105,-0.071142614,,
0.011241367,-0.024860447,0.05114485,0.039079923,,
-0.001485761,0.019100377,0.009377585,-0.058110114,,
0.09737218,-0.097383514,0.012914149,-0.023096964,,
-0.015554861,-0.0702119,0.02901826,0.028948197,,
0.12788372,-0.002387294,0.05971577,-0.0016617931,,
0.02288092,0.01091402,0.02862908,-0.062339995,,
-0.06261351,-0.00086549914,-0.031988025,0.059558943,,
0.055877745,0.055461474,-0.009372239,0.0073665516,,
-0.010278826,-0.0017229924,-0.01033208,-0.15287097,,
0.050012596,-0.008087455,-0.0693844,-0.00473894,,
0.01435899,-0.034438133,-0.026503513,0.041381568,,
-0.032958917,0.015181171,-0.026152754,-0.052107356,,
-0.0018340307,-0.011891046,-0.009603465,-0.02071057,,
-0.032993935,-0.121881,-0.016854964,-0.07048167,,
-0.04295924,0.06670755,0.070201,-0.028513823,,
0.014245896,-0.061832376,0.014933531,-0.0860737,,
-0.0077439193,0.036403738,-0.06953748,0.0141481925,,
-0.024736421,0.044715516,0.03433345,0.0424993,,
-0.01385947,-0.06958137,0.0062899473,0.03239453,,
0.09779396,-0.016086163,0.0032972582,0.07962847,,
0.09639549,-0.04099343,-0.038946345,-0.033075947,,
0.031638414,-0.053481635,-0.007316893,-0.0129565075,,
-0.03375243,0.04082167,-0.028718438,-0.0002968642,,
0.02793308,0.027970087,-0.0075401235,0.010123463,,
-0.05936548,0.06656258,0.034182765,-0.007242265,,
-0.06501193,-0.011856065,-0.052596256,-0.011723355,,
-0.03766781,-0.047170572,-0.009812377,-0.04602564,,
-0.021228315,-0.04513398,0.08021487,0.003247307,,
0.034670826,0.02194356,0.007141224,-0.00792939,,
-0.045143835,-0.03640022,0.022920914,0.0719027,,
-0.0007773579,-0.02702518,-0.021814823,-0.070501246,,
-0.00413263,-0.014582397,0.020580472,0.010140872,,
-0.04152919,-0.03856786,0.037344296,-0.026713576,,
0.022792919,0.08420583,0.005429035,0.017378736,,
-0.04922247,0.08214115,-0.0040874546,0.032152664,,
-0.059757028,-0.022410182,-0.00922242,0.039451674,,
0.052290685,0.032783035,0.039980363,0.047068045,,
-0.06945148,-0.033046078,0.017516574,0.09541641,,
0.06790526,0.03306877,0.0044838847,0.0015413265,,
-0.024584286,-0.023009203,0.082573645,-0.036121838,,
0.050800126,0.08230631,-0.0031491723,0.0310163,,
0.057946134,-0.019834774,0.048619654,-0.046419922,,
-0.043915197,0.01307038,-0.015440915,0.0033466679,,
-0.039231285,-0.09837995,0.06792798,0.044074602,,
-0.023844345,0.044874582,0.07187944,0.011193585,,
-0.05493885,0.036087546,-0.01148521,-0.015853541,,
0.0870317,-0.007492615,0.004792499,-0.0795105,,
0.034321636,-0.0054497942,-0.0042691533,-0.029489862,,
-0.06255033,0.046682104,-0.032114904,-0.002713246,,
0.024601353,-0.016391108,0.077953726,0.00085350417,,
0.050628364,-0.026875533,-0.0008149436,0.008060837,,
0.10845087,-0.024764279,0.05386619,-0.08041018,,
0.027057983,0.038314585,-0.05552857,0.009061581,,
0.016975664,0.03424907,-0.0061525805,0.065667644,,
0.012878334,0.06451014,-0.09027869,0.020678306,,
-0.030889504,-0.029052312,0.016376609,-0.018653408,,
0.053588364,0.068766154,-0.08175489,-0.047424294,,
0.06653251,0.056792676,-0.08476135,-0.045169123,,
0.030346183,0.033138137,-0.023120685,-0.053705126,,
-0.009020099,0.034964956,0.0008605541,0.01538196,,
0.06311491,-0.06395424,0.008679289,0.08271637,,
0.06615309,0.03850352,0.026147524,-0.05378195,,
-0.049279265,-0.08021321,-0.038309276,0.05029187,,
-0.0105446195,0.08416565,0.048377298,0.08215369,,
0.010212198,0.07748498,-0.05228716,-0.05673227,,
-0.009049596,0.04342473,-0.033240203,0.055080142,,
0.0057255416,0.05769526,-0.027882209,-0.030114293,,
0.028520333,0.047647502,0.0327997,-0.032699052,,
0.055897683,-0.035102468,-0.030355293,0.043397807,,
-0.093316376,-0.02362666,0.03515857,0.02019004,,
0.044152692,0.061563928,-0.048237797,-0.018023627,,
0.03974115,-0.0026947337,0.018199917,0.0065741,,
0.027528025,-0.007437966,-0.0055573923,0.03436802,,
0.003538347,-0.06958919,-0.034888353,0.006989372,,
0.01710527,-0.004198716,-0.023526553,0.056917373,,
0.017589359,0.046899386,-0.030080223,0.019613922,,
0.046262365,0.048107874,0.06216118,0.039125845,,
-0.06877767,-0.000386734,0.012822069,0.011484467,,
0.098843575,0.041081626,-0.04672875,0.061430693,,
0.07899343,-0.021877559,0.068097845,0.008485675,,
-0.030207606,0.006248252,0.011779911,0.058822278,,
0.0034007297,-0.042377677,0.013466903,-0.064910576,,
0.039575364,0.0082336785,-0.051505715,-0.04481067,,
-0.015592755,0.0015861032,-0.054883756,-0.039578144,,
0.016309554,-0.03664874,-0.04411812,-0.029036174,,
-0.004546472,0.025233928,0.021310754,0.0058692894,,
-0.0615104,0.062090077,-0.060552917,-0.060356412,,
0.022138786,0.013811992,-0.017421499,-0.022169584,,
-0.049414698,-0.002859991,0.010009958,-0.09385599,,
0.034610026,0.07359743,0.007631056,0.001463374,,
0.00476722,0.06345469,-0.053076185,-0.036741804,,
-0.0070723626,0.027371947,0.069736905,-0.04588769,,
0.05615872,-0.031222096,-0.013753385,0.057022132,,
-0.06845614,-0.017848464,-0.008714102,0.03631346,,
0.04530876,-0.011267629,0.078273125,0.029199125,,
-0.014331698,0.006531762,-0.035882358,-0.012896042,,
-0.025333878,0.037006002,-0.013140718,-0.07428425,,
0.06854863,0.011626922,-0.032858364,0.061881248,,
0.029109815,-0.011469077,-0.07613113,0.0023370583,,
-0.046199016,-0.06902689,0.056873366,0.011061135,,
-0.008169286,-0.07117559,-0.0059473794,-0.02582798,,
-0.03775534,0.045693785,0.018277852,0.0119858775,,
0.026678106,0.048015542,0.06936205,-0.0017228439,,
0.0036375003,-0.011340765,0.016226392,-0.16167967,,
0.09849115,0.024572164,0.01727253,-0.033703223,,
-0.022424595,-0.085278064,0.06923693,-0.014004132,,
-0.055852026,-0.052414745,0.061214607,0.046529602,,
-0.048285984,-0.046807393,-0.09465296,-0.035121683,,
-0.030327424,0.016237013,0.008660583,-0.10991215,,
-0.02497458,0.021964295,-0.010073083,-0.010963213,,
0.0020417853,0.0005101367,0.0052839234,-0.054595258,,
0.040354535,-0.00051729375,-0.02739348,0.06201841,,
0.0045605106,-0.030926207,0.028605094,0.012449496,,
0.05337636,-0.06680101,-0.018784419,0.010994718,,
0.054923397,0.01228334,-0.024542958,-0.00021941737,,
-0.039431646,-0.022384908,0.02594065,-0.011995826,,
0.014740549,-0.014691181,0.065156884,0.15150209,,
-0.020707656,0.035654135,0.025542093,-0.045293935,,
0.07666777,-0.06558999,-0.0054924577,-0.010693584,,
-0.00068520143,0.042557225,0.05768358,0.0471905,,
-0.0002851353,-0.0129993865,0.028908892,-0.05298531,,
0.03184307,0.011619162,0.02009155,-0.028535904,,
-0.06323979,0.009453828,-0.052559104,0.012596788,,
0.085254624,0.055438023,-0.040601317,0.011916828,,
-0.045338795,0.06525613,-0.030952184,-0.01662945,,
0.0009628133,-0.0010462425,-0.037710123,0.027884463,,
0.012092296,-0.017543947,0.054884408,0.110680066,,
-0.0671156,-0.038764786,0.041259915,0.042523537,,
-0.04462083,0.0391595,-0.005029767,-0.0110838525,,
0.05070201,-0.07431056,0.027129235,-0.0007178079,,
0.051087808,0.0035696547,-0.01603985,0.015064698,,
-0.013498136,0.08621539,0.01897027,-0.0074797575,,
0.06982953,0.0042507797,-0.04155898,0.020044805,,
0.07125914,-0.043827772,-0.05385736,0.041623004,,
0.017616022,0.0056455936,-0.04495205,0.01581207,,
0.026659206,-0.019405099,-0.036871802,0.033057887,,
0.008008322,-0.05835152,-0.021968445,-0.022784272,,
-0.0006338449,-0.034800377,0.08046476,0.03547572,,
0.040671982,0.076517016,-0.08670491,0.035048243,,
-0.046789773,0.022263704,0.072636575,0.008601397,,
-0.035742354,-0.020372001,-0.074333675,-0.057898857,,
-0.059498467,8.071383e-05,0.05413051,-0.08078103,,
-0.07223945,-0.040781863,-0.016064435,0.031009415,,
0.11307342,0.01707478,-0.020076275,0.0019837527,,
-0.019006085,0.015545873,-0.029985756,0.08141625,,
0.111160114,0.03402883,-0.007977524,-0.012353749,,
0.031350933,0.014055238,0.052356046,-0.0066074207,,
0.012112287,-0.015053203,-0.045211893,0.0043559177,,
0.016573459,0.023982871,0.04665268,-0.047632527,,
-0.01918849,-0.008059982,-0.022158617,0.14031568,,
0.0027029123,0.011015732,0.052669507,-0.029722651,,
-0.0025651637,0.053219646,-0.08401075,-0.013714016,,
0.027335087,-0.031720378,0.0076330006,-0.09116621,,
-0.04363656,-0.018545426,0.033167586,-0.039911687,,
0.056869887,-0.107034184,0.04942098,-0.033672627,,
-0.0014506225,-0.054553915,0.009845849,0.033226654,,
-7.943301e-05,-0.027636163,0.038459104,-0.017142221,,
0.041112885,-0.07803592,-0.08978032,0.007340339,,
0.0006479035,-0.009724712,0.02841447,-0.07698338,,
-0.008017574,0.004440635,0.042696275,-0.06892842,,
-0.014604798,0.036595687,-0.03877576,-0.030447097,,
0.01676833,0.0005126612,0.015118372,-0.023778835,,
0.01991331,0.04729062,0.019505067,-0.073704116,,
0.04762453,-0.01246529,0.070743516,-0.052504797,,
-0.0035005307,-0.052272405,0.000530816,-0.022488363,,
0.07177539,-0.066094965,0.076759316,-0.022682013,,
0.089750804,0.009646832,-0.06704728,0.022813624,,
0.14233531,-0.015492164,0.014661093,0.038163524,,
0.024313575,0.055077307,-0.00924226,-0.010189938,,
0.022024997,-0.07459492,0.063234,-0.056136455,,
0.0866048,-0.025821596,0.01921776,0.054623205,,
-0.0009940909,-0.011079721,-0.008789368,0.086783364,,
0.04090638,-0.017389467,0.008071827,-0.06260586,,
0.00875805,0.022695147,0.019021438,-0.06869837,,
-0.04856523,0.09136143,-0.0195769,0.01686477,,
-0.055841036,0.043358877,0.08412395,0.022292586,,
0.05430979,-0.046505075,0.07651676,0.019653304,,
0.0107122855,0.025325913,0.056471154,-0.019948397,,
0.036102377,-0.020412214,-0.030807845,-0.106505536,,
-0.008820013,0.042508855,-0.04660808,-0.04071339,,
-0.057724778,-0.02888044,-0.018963406,-0.009080131,,
0.061742824,-0.019590853,0.033233628,0.023592625,,
-0.011087268,-0.012649847,0.009348971,0.060057867,,
0.0753903,-0.03735111,-0.058072064,-0.019038493,,
0.09092574,0.02939394,-0.09362381,0.037813414,,
0.07521175,-0.004992358,0.023710458,0.056731146,,
0.03142898,-0.04800119,0.0036809018,-0.008625905,,
0.04355372,0.012429174,-0.00016650553,-0.063227676,,
0.021907356,-0.077311106,0.025886837,0.036019213,,
0.02468228,-0.04976578,0.053712223,-0.08640135,,
-0.004442942,0.0021363795,0.04564953,0.01058767,,
-0.00026892222,-0.06923756,0.04612469,0.023629326,,
0.024018431,-0.0028050558,0.04789104,-0.0647801,,
-0.002291369,0.0037416131,0.04334282,-0.06979942,,
-0.0078632645,-0.0016269372,0.07025267,-0.052641228,,
-0.0006575366,-0.08129893,0.020209052,0.102721,,
-0.01894973,-0.021516655,0.032380246,-0.020567782,,
-0.0369929,-0.053876456,0.063436225,0.034172922,,
-0.030715214,-0.010467264,-0.04189102,-0.06318205,,
-0.05028432,0.0055716853,0.025076853,-0.015983172,,
0.035261907,0.0452931,-0.016566621,-0.013380517,,
-0.059598528,-0.018716967,0.114725746,-0.013930543,,
0.09180208,0.031214109,-0.033096265,0.03276246,,
0.044259936,-0.00101227,0.03477241,-0.093610235,,
0.070830934,-0.052413024,0.024916373,0.007102423,,
-0.06323301,-0.021193579,0.046606883,-0.0073487973,,
0.027118947,0.00012397589,0.005919971,0.020137846,,
-0.02696934,0.0554798,-0.0014131417,0.028799757,,
0.01469489,0.0704416,-0.04516859,0.04094927,,
0.0047476045,0.067786634,0.024009025,0.0029443952,,
-0.018585341,-0.021160655,-0.022133684,0.08629986,,
-0.018547634,0.055811726,-0.07984657,0.05739825,,
-0.006291412,0.021235218,-0.005234774,0.050499633,,
-0.0067056813,-0.037787367,-0.06167922,0.01809068,,
0.010425318,-0.03168825,0.058434065,0.0504251,,
0.07250512,0.019782597,-0.02410993,-0.017205779,,
0.071232066,0.009658357,-0.013260493,0.016505867,,
-0.015759649,0.0023095284,-0.0029523228,-0.099843174,,
-0.021179575,-0.004260131,-0.07136821,-0.08277668,,
0.0058493577,-0.005805083,0.0603175,-0.02307199,,
0.036910456,0.026157064,-0.020525662,0.06758365,,
0.050046824,-0.013549427,0.05051101,-0.027238313,,
0.0015813655,0.024933958,-0.025541646,-0.02737503,,
-0.016316678,-0.06985954,-0.013007656,-0.022054845,,
-0.032951426,-0.0046922434,0.019479666,0.017013995,,
0.031022051,-0.018380845,-0.0005288921,0.045390256,,
-0.042720728,0.02937707,0.004227536,-0.06914171,,
0.006921876,0.0069188955,-0.049019724,-0.021927714,,
0.016697766,0.0137600675,0.06688441,-0.015435299,,
0.0011102773,-0.030311154,-0.02670359,0.019828329,,
0.044509135,-0.008370242,0.02256358,-0.0662436,,
0.00942442,0.046966065,-0.0012232476,0.04207057,,
0.0002518624,0.016736843,0.027213005,-0.011876517,,
-0.0126818195,-0.016202183,-0.026819313,0.048808713,,
-0.016486304,-0.027205568,0.092248246,-0.060500305,,
0.0033032775,-0.013111078,-0.0072133006,0.0419421,,
-0.013783194,0.06421325,-0.012764882,-0.042091407,,
0.00029303334,-0.016789705,0.11011118,-0.016178375,,
-0.05546131,0.046906684,-0.0024578422,0.04561064,,
-0.016388005,0.023391968,0.026030047,0.013575202,,
-0.0012587935,-0.051392544,-0.040089242,0.03870372,,
0.028294165,-0.07958088,0.042153638,0.010236472,,
0.040210947,-0.058942143,0.03411677,-0.03878903,,
0.017419705,-0.046567984,0.03481969,0.008639756,,
0.041771762,-0.021251228,0.016925894,-0.059166886,,
0.094621114,-0.029076094,0.00047333603,-0.056531865,,
0.07707334,-0.003297528,-0.0036952645,-0.0035723033,,
0.02290221,-0.034076564,0.072888866,0.006577621,,
0.038586155,0.0019349421,-0.038884334,-0.007902259,,
-0.009447202,-0.05257297,0.051238537,-0.02875457,,
0.07877825,-0.004126489,0.036375865,-0.025992049,,
-0.012762217,0.0019604743,0.024563847,0.051563416,,
0.041375786,0.035257254,0.009140169,-0.05214453,,
0.106934816,0.019229112,0.019432927,-0.051794358,,
-0.030683443,-0.008449303,-0.017626954,-0.018419135,,
-0.0035989217,-0.07088491,0.011582246,-0.02208833,,
-0.086600274,-0.0050940737,-0.035323568,-0.035029054,,
0.033649642,0.022246674,0.021754412,0.04181886,,
-0.0030645197,0.014079779,0.042841434,0.029572964,,
0.04908078,0.0037731705,-0.024972215,-0.028141871,,
-0.003598394,0.042234056,0.057919346,-0.011952192,,
-0.011205311,0.02948759,0.01706868,-0.0032047762,,
0.010985318,-0.038387544,0.058497,0.0008829856,,
0.087255895,-0.049493264,-0.07101575,0.07601284,,
0.057094693,0.04248911,-0.06079792,0.031721283,,
0.054307815,-0.041857593,0.02756952,0.075812116,,
0.086668186,0.0193166,0.0045165494,0.0009228985,,
-0.017506154,0.04008701,0.000749623,0.013633582,,
-0.04343187,-0.022209564,-0.039984867,-0.008507819,,
-0.06707385,0.037951086,0.034237888,-0.040824816,,
0.020095544,-0.041206278,0.05802666,-0.004721251,,
0.036131512,-0.08487441,-0.062340323,-0.028281804,,
0.04306385,-0.028544638,0.0088499235,-0.019054757,,
0.09496104,-0.01283415,0.0109609375,-0.037163023,,
-0.061915282,-0.030416055,-0.023299377,-0.01422596,,
0.01636329,0.02009576,-0.001513311,0.01592533,,
0.08799382,0.018235337,-0.061910827,-0.012657531,,
-0.0021797447,-0.0063273767,-0.056847706,0.06851023,,
-0.006141652,-0.054086655,0.01279825,-0.025493143,,
0.09011095,-0.013681089,-0.09715089,-0.05535667,,
0.004394829,0.055301446,-0.06516579,-0.018537985,,
-0.0583009,0.022590548,0.06990135,-0.076294184,,
-0.013950308,0.04730197,0.05222877,0.03396669,,
0.079580516,-0.004017944,0.015914239,0.027967054,,
0.03709143,-0.035691552,0.079747975,-0.062043115,,
0.057490185,-0.01483864,0.01777236,0.06540947,,
0.10522845,0.0058829226,-0.0014478262,0.030335773,,
-0.097037636,0.010405388,-0.0018494459,0.004713947,,
0.035841003,-0.00477241,0.050071046,-0.022424573,,
-0.034350876,-0.066056505,-0.025219042,0.033271104,,
-0.068352066,-0.05469985,-0.07084323,-0.019863363,,
-0.03792728,0.054201383,-0.027526645,-0.020861197,,
0.058352448,-0.013974413,0.027568258,-0.13708961,,
0.0018621947,-0.05038946,0.012847785,0.003149055,,
0.01431351,-0.029094767,-0.052297052,-0.024510046,,
0.008730148,0.034540348,0.011210328,0.029759338,,
0.011345097,0.092426635,-0.087225735,-0.027845616,,
-0.047815412,-0.021580392,-0.0115776025,0.054170255,,
0.026759345,-0.002032718,0.0022592964,-0.03850201,,
0.064835235,0.045393173,0.009755182,0.011210949,,
0.04364466,-0.07358475,0.026901793,-0.041311383,,
0.038775157,-0.039409176,0.057873875,0.008297593,,
-0.031742312,-0.030855976,-0.02995359,0.05270404,,
0.06818857,-0.019789891,-0.06840278,0.05970757,,
-0.0012841879,0.02401513,0.004918837,0.0057047913,,
-0.021270288,-0.028991517,0.07679353,-0.0320093,,
-0.011563251,-0.0054354924,0.049415853,0.0058758804,,
0.01567912,-0.018575378,0.030064095,0.028644435,,
0.05205483,-0.018968549,-0.047630873,-0.0078008217,,
-0.03061243,0.005981107,-0.015064635,0.03159334,,
-0.015674328,0.0031890883,-0.022402309,-0.03484722,,
0.046422735,-0.054402947,-0.01789135,0.10087146,,
-0.0054209437,0.0158735,0.02590928,0.002846664,,
-0.018850302,-0.018015174,0.017531797,0.041091822,,
-0.029845536,0.11285222,-0.11669458,-0.034660067,,
0.024734477,0.04641782,0.05802591,-0.007926146,,
0.03924057,-0.009198921,-0.0026764981,-0.046378136,,
-0.007475182,-0.029600807,0.039667185,-0.004676895,,
0.06443614,-0.020858064,-0.022235926,0.0548884,,
0.054156404,-0.056145422,0.037013337,-0.04333005,,
0.10252561,0.047897853,-0.04258069,-0.036295548,,
0.03536519,-0.039110392,-0.043901794,-0.024542136,,
-0.033152334,-0.02245361,-0.038633756,0.022767551,,
0.012517053,0.003939593,0.01368931,-0.054899886,,
-0.023400644,0.013617953,0.050076388,-0.00031443435,,
0.06302399,0.04500826,0.008720086,-0.01911271,,
0.023889428,0.047289535,-0.031416252,0.085154004,,
0.029415661,0.042587582,0.010430124,-0.03727801,,
0.020032186,0.012094905,-0.03730142,-0.0826473,,
0.0256964,0.06604888,-0.06193838,-0.045685183,,
0.02978151,-0.0048411163,0.021492839,-0.01693304,,
-0.0036902656,-0.04948363,-0.037579983,-0.0018360133,,
0.06543151,-0.020029504,0.0037073202,0.055324133,,
0.004764063,-0.07123486,-0.012706568,0.0073827053,,
-0.028950248,-0.01274739,-0.004638508,-0.011919258,,
0.056986995,-0.016491452,-0.048212726,0.051254176,,
0.0149222985,0.020495232,-0.04365615,-0.012872555,,
-0.068184815,-0.007959907,-0.014972964,-0.05821137,,
0.04439446,-0.010307976,-0.06988237,-0.09353535,,
0.07383329,-0.07513776,-0.046257813,-0.00046030065,,
0.010144569,-0.005658109,-0.009005343,-0.06630222,,
-0.015410287,0.0038174938,-0.0065733087,0.035784155,,
-0.03434176,0.049379844,0.049925376,-0.0052966364,,
0.07784465,-0.052055705,-0.03387725,-0.015760988,,
-0.054924816,0.017394356,0.05135974,0.014852836,,
0.011596843,0.009141229,0.047021706,0.06336053,,
-0.02801616,-0.10177819,-0.019051911,-0.040457778,,
-0.005176085,0.035633616,0.03638768,-0.008145217,,
0.04883348,0.024613455,-0.1120055,0.06625023,,
-0.016588902,-0.102316834,-0.06553918,-0.013283663,,
0.03341971,-0.063254975,0.046482082,0.013412727,,
0.0023399359,0.008630869,-0.032933753,-0.056928568,,
-0.042189736,0.0015923142,-0.07609481,-0.011770936,,
-0.011616331,-0.05839479,0.0051640966,0.05581055,,
-0.012534431,0.034695107,0.073349595,0.0022152774,,
0.047446474,-0.06597416,-0.00029357342,0.039592393,,
0.05258742,0.03048644,0.027747635,-0.11430121,,
0.036955263,-0.009348633,-0.004581748,0.048546534,,
0.103476785,-0.025004184,-0.046073966,-0.02825422,,
-0.007874635,0.072823785,-0.015737915,0.04324338,,
0.01972019,-0.021425826,0.010957799,0.009195321,,
-0.01831796,0.006052648,0.0532489,0.052526608,,
-0.070454925,0.014707897,0.0542319,-0.043695744,,
0.015778938,0.030520558,0.0025735248,0.010586332,,
0.0018400821,0.008263291,0.048617385,0.032164685,,
0.071772575,-0.0096772835,0.008728002,0.015473364,,
-0.056954175,-0.11879016,-0.015123834,-0.013832741,,
-0.09835883,-0.013570601,-0.014591329,0.026162058,,
-0.003953854,0.028321018,0.017120633,-0.110047214,,
0.025026789,-0.01142955,0.003607989,-0.014051166,,
-0.026924279,0.018246047,0.0051162154,-0.048518784,,
0.04141504,-0.052593224,0.0099306805,0.03293709,,
0.09082956,0.00367637,0.008760042,0.010558618,,
-0.02753982,-0.026206588,0.025493992,-0.017408054,,
-0.0051402086,-0.07497213,-0.06475134,-0.02854624,,
0.0032789274,-0.041830063,-0.06156994,0.082153074,,
-0.012887332,0.08056934,0.044359997,0.06938655,,
-0.023432776,-0.07596044,0.008027319,-0.044494998,,
0.08207326,-0.07147068,-0.0037800781,-0.08305407,,
0.065792985,-0.058832705,-0.07034035,-0.028491635,,
0.105209425,0.08885504,0.010416252,0.05365585,,
0.06364499,-0.065650776,-0.040381145,0.0071919067,,
0.02774913,-0.022336483,0.0041204575,-0.03453514,,
-0.06005128,-0.018247727,-0.0106329685,-0.003999933,,
0.02367666,-0.06678587,0.06722965,-0.101885304,,
-0.05410165,0.02737455,0.069553055,0.019625815,,
-0.009436001,0.0016441462,-0.001105295,0.034741305,,
-0.0521655,0.008613531,0.05498683,-0.04322592,,
-0.016130492,0.09541201,0.0014527106,0.002464722,,
-0.0022636668,0.018780675,-0.01763128,0.039240863,,
0.07745942,-0.04493073,-0.03986195,0.004571294,,
0.037430104,0.010107124,-0.00028130124,-0.03216976,,
0.014285123,-0.059140325,-0.0028591433,-0.013522695,,
0.028934814,-0.0568854,-0.0022699567,0.017300438,,
0.0001911345,0.045880165,-0.017085914,0.030907625,,
-0.026841173,0.0024604977,-0.052329436,0.03821148,,
0.034195468,-0.022446197,-0.049348515,-0.067484446,,
-0.017353503,0.06979143,0.039950408,0.011311173,,
0.0028309226,-0.0015672513,-0.04438441,-0.0041753026,,
0.012514801,-0.011966837,0.040807392,-0.026282696,,
-0.05188249,0.034934685,0.017064767,-0.006540804,,
-0.012704615,0.08862388,-0.036364675,0.05323377,,
0.0035998076,0.03323842,-0.017284824,0.035726186,,
0.019818405,0.026777536,-0.028449096,0.032357607,,
-0.1027697,-0.02687108,0.012844963,-0.044879347,,
0.006983514,0.016261885,-0.027627315,0.042260043,,
0.0016290655,-0.010047344,-0.037578106,-0.053558666,,
-0.03086067,0.024903184,-0.029707387,-0.018951362,,
-0.04541936,-0.04761349,-0.006653594,0.037903633,,
0.04043094,-0.0042818016,-0.014046697,-0.028418832,,
-0.024876112,-0.0073496806,-0.016104255,-0.017197195,,
0.013315,0.006347726,-0.05573266,0.017681789,,
0.022264944,-0.012498043,-0.057835903,0.06496011,,
-0.010652628,-0.11330069,0.040198855,0.04236683,,
-0.008952719,-0.09798379,0.023373576,0.0034948757,,
-0.062863804,-0.04457944,0.061160352,0.044327408,,
0.07536743,-0.029821306,0.039312758,-0.017802024,,
0.09159142,0.055307526,0.08666824,0.019740444,,
0.05591229,-0.013814606,-0.048829176,0.039724104,,
0.0240039,-0.07717163,-0.070380665,0.015304846,,
0.10265749,-0.09816659,0.039953057,-0.07728021,,
0.013327486,0.019114561,-0.09383085,0.013343649,,
0.005025908,0.095920965,0.027371999,-0.08806722,,
0.04411466,0.036620073,-0.04873492,0.06741637,,
-0.020605218,0.04997926,0.056786053,0.078608215,,
0.04389605,0.03325807,-0.026443787,0.023396501,,
-0.050729707,-0.022409935,-0.004160861,0.004824963,,
0.053708274,-0.06306979,0.037943628,0.07987518,,
0.0117549095,-0.008770245,-0.04932155,0.0029824395,,
0.027288113,-0.04339513,-0.03309634,0.03095434,,
-0.04332297,0.06049799,-0.006202429,-0.011875948,,
0.030134942,-0.03409908,0.0044582845,0.044466943,,
-0.02950084,-0.07658496,-0.016159019,0.035218686,,
0.017023042,-0.061175358,-0.0043576453,-0.06948553,,
-0.03400303,0.009016503,0.015828928,0.048059642,,
0.013215272,-0.02997586,-0.06400327,-0.015324938,,
-0.046713144,0.0507105,0.061231297,0.021694135,,
0.006924338,-0.06255404,-0.010490909,-0.040489197,,
-0.07344909,-0.08780827,-0.052646007,-0.033521716,,
0.010389449,-0.009151456,0.044560906,-0.033056237,,
-0.044807725,-0.055333957,-0.007983608,0.009673918,,
-0.063340425,0.024288973,0.045101274,-0.025281545,,
-0.019200092,0.11738616,-0.013327929,-0.059665628,,
-0.02162112,0.080899455,0.009452696,0.013847058,,
0.07966808,-0.0033664992,0.047722414,0.012981718,,
-0.022150083,-0.0040960815,0.045163002,-0.012752292,,
-0.036520503,-0.0076222504,-0.017563643,-0.06750275,,
0.0135700805,0.013156286,0.087701894,-0.035721377,,
0.038269904,0.09842725,-0.12110537,0.028652955,,
-0.021932693,0.010461782,0.06012416,0.017015055,,
0.03132633,0.021199603,0.08699767,-0.03627762,,
0.016152034,0.092911385,0.00096094457,0.0031321037,,
0.06151855,-0.008422353,0.012713355,0.03914951,,
-0.0012656807,-0.037458096,0.013304286,-0.0154991355,,
-0.039485853,0.029438179,-0.062340103,0.012337384,,
-0.03963194,-0.032290477,-0.0010961762,-0.009249825,,
-0.015008997,-0.006788064,-0.021488415,0.06314872,,
-0.058747705,0.01413561,0.008888027,0.063180834,,
0.034676027,-0.007021736,0.00648849,-0.010073112,,
0.007873837,-0.036205105,-0.001284966,-0.024119727,,
-0.02413734,-0.0524314,0.010988575,-0.029012695,,
0.08368703,-0.08821403,0.050781604,-0.04320001,,
0.04121959,-0.008719309,0.02890255,-0.04656335,,
0.040459566,-0.0012552338,0.09487428,0.09793679,,
-0.033749588,-0.031737812,0.016823152,-0.050822854,,
0.05100691,-0.09213979,0.021735767,0.07610686,,
-0.022463486,0.004085749,0.06408956,0.052006215,,
-0.018318225,-0.04420013,-0.014614668,0.021641452,,
-0.00040996316,-0.03892196,-0.022665491,-0.034126855,,
-0.01159049,-0.031256083,0.033320807,-0.044255145,,
0.03020673,0.076656066,0.011387743,-0.007340941,,
0.023212213,0.04359039,0.061786443,-0.07050003,,
0.03631595,0.012628624,-0.07310186,-0.009333618,,
-0.00037976974,0.002011999,0.0036139246,-0.020522462,,
0.020665605,-0.05039245,0.034787744,-0.03208894,,
-0.05454943,0.0022360573,0.070829995,-0.08231843,,
0.09181038,0.00081282225,-0.049335364,-0.008574896,,
-0.023044534,0.084815025,0.014431869,-0.04344606,,
-0.04868282,-0.09640802,0.061494842,0.0386073,,
-0.0202033,0.0015093103,0.07314067,-0.0076942113,,
-0.0335749,-0.0668428,-0.031195182,-0.014769076,,
0.053387254,0.046236645,0.039916053,-0.051298942,,
-0.017167801,-0.029919995,-0.01841642,-0.024551626,,
-0.031718723,0.04234101,0.009766629,0.0052765594,,
0.049456723,-0.0022439586,-0.050794985,0.042233407,,
0.031733748,-0.020589173,-0.010007669,0.03151527,,
-0.14204064,-0.086064555,-0.02179713,0.017751418,,
0.054066572,0.030532671,-0.019663142,-0.024648719,,
0.06426155,0.014218247,0.025331782,-0.03569847,,
0.0021538208,-0.046245188,-0.006756297,0.07604329,,
-0.062424086,0.015431503,0.03689509,-0.014771213,,
0.01755591,-0.07515974,-0.009150762,-0.018581463,,
0.011163362,-0.006804516,-0.0054564793,0.03966687,,
0.06756378,0.07689007,0.026240027,0.0025286204,,
-0.005284243,0.000959377,0.048738144,0.035624754,,
-0.028894275,0.051105153,-0.02048977,-0.03616176,,
-0.0111192595,0.0160321,0.07062002,0.005002678,,
0.01402721,-0.015464165,0.03086341,-0.021213278,,
-0.088988364,-0.042963024,-0.031616677,0.016294794,,
-0.020812884,-0.031000433,-0.05583055,-0.035187077,,
-0.035298593,-0.083451286,-0.06876458,0.021905128,,
-0.008086206,0.01454306,0.03832838,0.02666424,,
0.04757664,0.01670771,-0.013897759,-0.10332193,,
0.039643202,-0.0890261,-0.02848853,-0.058629606,,
-0.0140854735,0.035701998,0.04367293,0.005076004,,
-0.013707111,0.020203182,-0.0101930285,-0.030418172,,
0.009424194,-0.039632957,-0.044832096,0.018726388,,
-0.0047086836,-0.10236682,-0.0020265044,-0.011168023,,
-0.13474731,-0.034299985,0.041234836,0.084574476,,
-0.015197589,-0.009640436,0.056786314,0.002616007,,
0.037799984,0.0010976073,-0.06823695,0.003747205,,
-0.057665292,0.0414949,0.09269672,-0.018011896,,
-0.03435548,-0.00823619,0.016685713,0.007992528,,
0.0019245937,0.03041742,-0.01459637,-0.05477429,,
-0.00665416,0.037038367,0.019860147,0.00881213,,
-0.044454448,-0.029043287,-0.0015847941,-0.017223405,,
0.0133454,-0.044037685,-0.030314181,0.024662513,,
-0.018231394,0.00833798,-0.013310994,0.04905632,,
-0.0571209,0.051282417,-0.034719903,0.030178724,,
0.03753175,-0.049204875,0.0022191252,-0.08809796,,
0.021280386,0.021556325,-0.037660472,0.01411671,,
0.001246172,-0.10713125,0.00052222516,-0.014181771,,
-0.02602386,0.016350364,-0.06653578,0.008683308,,
0.010715859,-0.019281486,-0.060340412,0.016409047,,
-0.02343763,-0.01965159,-0.05334396,0.009557674,,
0.029400952,-0.033464227,0.0129135735,-0.025584582,,
0.052261375,-0.0073174457,-0.00037352668,-0.007376926,,
-0.016850777,-0.028300624,-0.06499804,-0.018830793,,
-0.012822892,0.06428804,0.07890066,0.0018489696,,
0.06548009,0.051788792,0.041951835,0.06583612,,
0.13991314,-0.0051411325,-0.06307245,0.04984672,,
0.024816452,0.011563672,0.06820751,0.10321113,,
-0.047308967,0.055695172,0.0025653369,0.025222396,,
-0.08510152,0.027570141,-0.042160682,-0.02582212,,
0.031267323,-0.026113734,0.018182997,0.0016537141,,
-0.076026864,0.01221114,-0.014989674,0.04105716,,
-0.039024852,-0.04285201,-0.025840852,-0.03765586,,
0.06069042,0.06274474,-0.030012995,-0.054302868,,
0.020636968,0.028879369,0.017735906,-0.028260767,,
0.021503536,-0.023472423,0.005771565,-0.017117348,,
0.08739598,-0.095690094,-0.025298094,0.043810997,,
0.067856036,-0.0023191029,-0.012209199,0.028498087,,
0.10100726,-0.003450564,-0.014124261,0.011687961,,
0.015470173,0.008855337,0.03949537,-0.014103392,,
-0.04821503,0.013873013,0.0042992355,0.009876466,,
0.016734635,0.0069494834,-0.03271782,0.024254074,,
-0.007905969,-0.04187275,0.059654836,-0.0019070393,,
-0.02488708,0.004687564,0.012774125,0.023421073,,
0.09071841,-0.038858887,-0.048417073,-0.01988033,,
-0.10953706,-0.02435755,-0.00031153992,0.011228019,,
0.0024985813,-1.1453358e-06,-0.011034273,-0.0476329,,
-0.06244913,0.023889443,0.05087989,-0.017227823,,
-0.0065427604,0.020206833,0.052124336,0.0072438945,,
-0.0026974606,0.027870828,0.016162954,-0.06052653,,
-0.02975057,-0.024012404,-0.030487342,0.038200807,,
0.036199354,0.05554115,-0.011758449,0.016004227,,
0.019492127,0.05345223,0.025617262,0.056441948,,
-0.026800973,0.004219408,-0.062376842,-0.019841686,,
-0.024264462,0.048025828,-0.043179266,0.0034237043,,
0.04495258,0.007140061,-0.01995887,0.02100363,,
0.10712274,-0.039015185,-0.008583652,-0.009543991,,
-0.037351295,0.09643537,-0.005571963,0.026539972,,
0.04286763,0.07629951,-0.042895596,0.04202702,,
0.029741554,0.003277586,-0.0005123126,-0.05387955,,
-0.056148015,0.016608497,-0.018280573,-0.03179183,,
0.024155265,-0.053640515,-0.03851922,7.6103366e-05,,
-0.0008952344,0.059496526,0.025267879,-0.01074102,,
-0.0128221875,0.032191396,0.00070538203,0.01457693,,
-0.037835985,0.06254632,-0.0657796,-0.01132932,,
-0.09381525,-0.013811008,-0.032076646,-0.01948125,,
-0.014599148,0.03868301,-0.071977824,-0.017690502,,
-0.0030255069,0.020432387,-0.02729421,-0.01162799,,
-0.016252236,-0.010560724,-0.053082574,-0.05935146,,
-0.04843755,-0.013962123,0.029478202,0.0010991603,,
-0.010944511,0.018047728,0.034281135,0.0018673786,,
0.11545633,-0.045064308,0.025110967,0.011977391,,
-0.05995335,0.0457876,0.027966795,0.02446155,,
0.013960434,0.026734928,-0.043634105,0.045553613,,
0.0073261536,-0.038849592,0.083903804,0.0411703,,
0.060771495,0.022397935,-0.03720559,0.013365253,,
0.014604115,0.075328544,0.064572245,0.030558825,,
0.009114531,0.045998905,0.0554129,0.055264845,,
0.099740915,-0.05243447,-0.05499104,0.02050426,,
0.055920757,-0.052755207,0.051047232,-0.015659023,,
0.041757178,0.05339291,-0.0651666,-0.020654134,,
-0.019027425,-0.069575734,0.019851174,-0.024353826,,
-0.05124535,-0.06679099,-0.033264317,0.006994309,,
-0.035890322,0.0006409745,0.05665903,0.04127254,,
0.015502967,-0.00867046,-0.021380756,-0.026904702,,
-0.012802106,-0.019886095,0.06412244,0.012278852,,
-0.041070446,0.027316835,0.05293944,0.013113828,,
-0.08409244,-0.04532347,0.05713215,0.05437341,,
0.03520557,0.07784131,0.028233243,0.026175633,,
-0.016057013,-0.03814447,0.024497302,-0.008595307,,
-0.12590456,-0.033554375,-0.015417025,0.016817378,,
-0.031954616,0.070569985,0.0016840429,0.014335792,,
-0.027891098,-0.014865241,0.008621157,0.1019897,,
-0.038727645,0.060630582,0.031990565,-0.030780252,,
-0.060830012,0.03869327,0.03974892,0.0041713994,,
0.13311927,-0.034087792,-0.0023047226,-0.0066449265,,
-0.05758514,0.064531706,-0.0121989045,0.06630181,,
-0.0656367,0.07896483,-0.05490132,0.03284395,,
-0.029440802,0.06763989,-0.01972202,-0.036693737,,
-0.029898344,0.01809587,-0.038141485,-0.0013855926,,
0.046085566,0.00339769,-0.019574385,0.019107498,,
0.04487297,0.015228371,0.031990055,-0.0053758845,,
-0.054669775,-0.06327187,-0.04674611,0.026388124,,
-0.0080444515,-0.06387656,0.013509653,0.016615324,,
-0.038931597,-0.049430847,0.034234896,-0.04501895,,
-0.040718228,-0.007775153,0.0064564254,-0.020695472,,
-0.07042593,0.03477898,0.015683647,0.0064320713,,
-0.10441175,0.057897598,-0.043712474,-0.080403045,,
0.00014519453,-0.022935923,0.004918309,-0.09418486,,
0.018332988,0.03809997,-0.054005463,-0.005881489,,
-0.018299429,0.026892042,-0.06993152,0.0075243637,,
0.06651693,-0.029216975,-0.081713445,0.040053964,,
-0.033448167,0.08323787,-0.049682233,-0.045116667,,
0.020349529,0.0064145564,-0.026046231,4.6554593e-05,,
0.000307274,-0.021616831,-0.06606045,-0.0129362475,,
-0.0054719085,-0.008679005,-0.101768665,0.014175813,,
0.07322187,-0.068616,-0.05769622,-0.022403874,,
-0.018575149,-0.016574815,-0.013819746,-0.0051947604,,
-0.020022482,-0.05285543,0.07615848,0.053843398,,
0.017746007,-0.051311586,0.011617863,0.0375271,,
0.05991224,0.01754228,0.07420293,-0.03250733,,
0.03496105,-0.05244622,-0.047707826,0.02453587,,
-0.035161115,0.0061264522,0.009317934,-0.0028122086,,
-0.022806363,-0.028855972,0.021260245,0.00885568,,
-0.06646726,0.02884471,-0.054594923,0.01514851,,
0.044474363,0.017227909,0.04494724,-0.01566738,,
-0.032442484,0.027000431,-0.0036551799,-0.031550582,,
0.019530335,0.031591523,-0.071286194,-0.01752713,,
-0.08838495,0.08812457,-0.02176453,-0.039963644,,
-0.008926923,-0.026197188,0.09047495,0.017757261,,
0.00030700176,-0.00051181886,0.010791216,-0.050171852,,
0.008190028,0.0019231307,0.018154666,0.06842866,,
-0.020110948,-0.05894837,0.030886427,0.019716898,,
-0.035801608,-0.07363003,-0.005123014,-0.021059813,,
0.00011174547,0.06604224,0.014851959,0.030652056,,
-0.048783798,0.018385362,-0.06331165,-0.07059192,,
0.0062335827,-0.024200538,0.01556526,-0.016374031,,
-0.050274145,0.014211073,-0.04605117,0.05167812,,
0.008936211,0.056605533,-0.0415828,-0.07672934,,
-0.0130248675,0.0035456896,-0.016930819,0.01811088,,
0.061492775,0.033624623,0.09090986,0.020065062,,
-0.0063812044,-0.051843274,0.057123065,-0.009035683,,
-0.040870134,0.0024262448,-0.019839983,-0.00900093,,
-0.09413371,0.013898972,-0.01679369,-0.073303334,,
-0.054254904,-0.017904986,0.0011065728,-0.06967351,,
-0.04839508,-0.013244133,0.02237663,-0.015377676,,
0.028705165,-0.021632355,-0.011769839,-0.054011315,,
0.0077768783,-0.03580315,0.05607152,-0.05021386,,
-0.036646336,0.07353557,-0.08205953,0.048785757,,
0.038328856,0.029739188,-0.013665384,0.05155331,,
-0.020269187,0.0023288208,-0.013372552,-0.009828808,,
-0.022515498,-0.068945244,-0.021418639,-0.058521207,,
0.0647605,-0.021884788,-0.06678872,-0.043465048,,
0.026620995,-0.04622566,-0.017134251,0.009704225,,
-0.008694602,-0.011897918,0.01998466,0.08605616,,
-0.014367409,0.0027469145,0.027391085,-0.009524533,,
0.05166465,0.006132094,0.002307569,0.040018912,,
-0.037282627,0.018437888,0.027565306,-0.076941304,,
0.047902714,-0.01971161,-0.06674575,0.059726723,,
0.0138021745,0.044541422,-0.068092,0.07649635,,
0.022471342,-0.009768027,0.009872129,-0.059358258,,
-0.026330646,0.05913148,-0.007810218,0.03768784,,
0.009858462,0.054869253,0.039451525,0.025562864,,
0.05013495,0.011322608,-0.061426148,0.10368662,,
-0.059565496,-0.0011672636,-0.019364992,0.051240653,,
-0.0040481454,0.01843416,-0.055222932,0.049666215,,
-0.04680206,-0.003114551,0.004405484,-0.011638262,,
0.05603498,-0.008884866,0.01506995,-0.008013117,,
-0.018849554,0.0008577546,-0.006416577,0.061325423,,
-0.05671139,-0.023513336,-0.0101671005,0.02032705,,
0.008352051,-0.020162284,0.009492604,0.054728076,,
0.002143336,-0.043624245,-0.09048399,-0.025933344,,
-0.012891689,0.024965452,0.011855248,-0.012060332,,
0.013298053,-0.02871134,-0.04436999,0.0029753146,,
-0.023720594,0.03858053,-0.0033229785,-0.045664627,,
0.08451093,-0.016244935,-0.011667777,-0.0016927873,,
0.032638665,0.05726602,-0.0045526363,-0.027260194,,
-0.010938862,-0.04096745,0.005863064,-0.020288002,,
-0.032108042,0.029332887,-0.023632634,0.0027432695,,
0.03425774,0.015288074,-0.12088631,0.01755932,,
-0.034713894,-0.03545564,-0.048269756,-0.024735585,,
0.0017417077,0.034213766,0.046413768,-0.0062808087,,
-0.055899955,0.0678767,-0.041686825,0.05465033,,
0.012141335,0.04837984,-0.0037993619,0.03841569,,
-0.08198899,-0.088881075,-0.06382448,0.01537047,,
-0.026732173,-0.05887188,-0.010117373,-0.00135181,,
-0.05156986,0.06647336,0.013837384,-0.005036298,,
-0.03692575,-0.002439239,-0.030037934,0.07471004,,
0.05979551,-0.049766004,0.037636373,0.018881721,,
-0.0065131052,0.053852797,0.028914697,-0.040640477,,
-0.016861435,-0.015112806,0.012173548,0.043657213,,
-0.0024779525,-0.052157465,-0.0129673965,-0.031961814,,
0.040954217,-0.0009036769,-0.043294407,-0.03595853,,
0.037027072,0.020848282,-0.022417316,-0.06026347,,
0.027569415,0.08682636,0.0921294,-0.03632301,,
0.0017194846,0.06288273,-0.054296583,0.012851842,,
0.015532771,0.013922528,0.07555561,-0.1129358,,
0.04079772,0.022966266,0.0071117203,-0.021020764,,
-0.047575492,0.114691325,-0.028835822,-0.034363694,,
-0.014630651,-0.01232338,0.05172206,0.079002924,,
0.02213935,-0.029909898,-0.0877903,-0.00157156,,
0.056638513,-0.045622036,-0.046565313,0.05459457,,
-0.0060022823,-0.021918554,-0.06173265,-0.0073451186,,
0.0018072067,0.0034914836,-0.038324494,0.034188762,,
0.0021528825,0.058831453,0.031216659,0.06458473,,
-0.029877208,0.02340356,-0.028171772,0.060720075,,
0.02608181,0.0045936466,-0.049918573,-0.04075913,,
0.051900096,0.014635306,0.023307547,0.09564585,,
0.030328453,-0.025199365,-0.029839385,-0.008550701,,
-0.06378236,-0.007034861,-0.03206006,0.07193071,,
-0.023866901,0.004010762,0.047324106,-0.028230194,,
-0.015473562,-0.027968949,0.040084027,0.0036032805,,
0.008146891,-0.0666719,0.0570436,-0.0076627433,,
0.012949657,-0.02954259,0.064521335,0.020681735,,
-0.06627014,0.037751086,-0.038681358,-0.030364923,,
-0.0644953,-0.020870896,-0.05435337,-0.091549076,,
-0.0143805435,0.0075826994,0.015706347,0.00078385684,,
-0.0008575001,0.057450753,0.030726139,0.046715572,,
0.06852748,0.0047600353,0.03693652,0.038980898,,
0.014492693,-0.005797748,0.05191208,-0.041614246,,
-0.051184382,0.07594449,-0.01731129,0.0075577875,,
-0.01856553,-0.015909042,-0.036405504,-0.079351,,
-0.002264901,-0.02681974,-0.022450369,-0.066370524,,
0.011152523,-0.09588878,-0.008365449,-0.0039461246,,
-0.048886757,-0.080918916,-0.10529286,-0.060131628,,
-0.042141095,0.054265454,-0.042569887,0.02205444,,
-0.011947275,0.07645999,-0.049955074,0.012656156,,
-0.03469928,-0.04525159,-0.017779768,0.046542678,,
0.05737813,0.04275134,0.019177545,0.013237558,,
-0.025089027,0.00922385,0.012229785,0.0127664395,,
0.0024747034,-0.0018680852,-0.035197686,-0.045519467,,
0.009895024,0.0076732216,0.043656517,0.088478625,,
-0.04509484,-0.1271894,0.10860474,-0.041980736,,
0.034299202,-0.041982595,-0.16630489,-0.009852923,,
0.0021860523,0.025220985,0.031177096,0.015547302,,
0.021927118,0.025016855,0.05946295,-0.0036790953,,
0.076769866,-0.017010419,0.067056194,-0.037930783,,
-0.039502632,-0.06971829,0.016774649,-0.004238532,,
-0.0326971,0.0406703,-0.02059918,-0.014542524,,
-0.033924364,-0.019573718,-0.024762485,0.030597882,,
0.028504487,-0.015649056,-0.099523254,0.07341241,,
-0.054146428,-0.061927024,-0.009239459,-0.08225062,,
0.022192035,-0.008003602,0.032577094,0.049131967,,
-0.0023220228,-0.06372218,-0.070275754,0.057919107,,
0.024438402,-0.071604386,-0.039958626,-0.049471937,,
-0.033939425,0.046523716,0.08177624,-0.024928026,,
-0.032682974,-0.001076656,0.1376758,0.017058833,,
-0.023088498,-0.0058060177,-0.0045076488,-0.001786122,,
0.049295418,0.01749955,0.009593742,-0.011795605,,
-0.091470174,-0.02072957,-0.0050033717,0.028486155,,
-0.009051548,0.015510785,-0.008376256,-0.006226815,,
-0.06582635,-0.075975314,-0.016476452,0.07273987,,
-0.039127596,-0.023891453,0.022249773,0.03500373,,
-0.020579368,0.0012051933,0.026661184,0.014113988,,
-0.008802339,0.051504526,-0.028113037,0.025590675,,
-0.051366046,0.06316835,0.048147995,-0.0003431845,,
-0.016495815,-0.03949148,-0.070547566,0.10301596,,
0.029784767,0.014654975,-0.05819324,-0.08268308,,
0.0729606,-0.038917094,-0.13822125,-0.009848655,,
0.023494763,0.013704637,-0.023454988,0.06824783,,
0.0074632787,0.044650503,-0.033939015,0.021368727,,
-0.017824586,0.052362833,0.025393259,-0.004463944,,
0.0065857926,0.08287839,0.0102560595,-0.026911246,,
-0.04275914,-0.008079344,0.037353706,0.053329997,,
0.039213598,0.055690583,-0.002919797,-0.018963976,,
0.0044676056,-0.02317377,-0.031530056,0.033558793,,
-0.009897873,0.020301713,0.050746545,0.018147016,,
0.020665793,-0.03558402,-0.048722222,0.013171684,,
0.01526237,0.053618703,-0.055821564,-0.055569563,,
-0.052661054,-0.044108815,-0.025054792,-0.020392237,,
-0.012411644,0.0007533554,-0.022184066,0.06542074,,
-0.042390805,0.051453613,0.03833737,-0.048958745,,
-0.031030037,-0.01817855,-0.0046952274,-0.0022963649,,
0.004104361,0.058025997,-0.08448809,0.02015587,,
-0.09390261,0.007511276,0.013315183,-0.0022065982,,
0.016886748,0.022257155,-0.030537827,0.0024555854,,
-0.025757242,-0.03564475,-0.040718425,-0.060508776,,
0.012225606,0.011872429,-0.031403325,-0.02795572,,
0.0012501624,0.031336524,-0.0012288752,-0.028538398,,
-0.10857803,-0.003089916,0.08781946,-0.004408749,,
0.02020857,0.0009951373,-0.004343168,0.0447107,,
0.07334782,-0.06987342,-0.0070468704,-0.012692031,,
0.0034298173,0.02696259,0.024235446,-0.039503925,,
-0.0049136863,-0.038684797,0.0034073957,0.02485821,,
0.020415671,0.0117901545,-0.0023178514,0.024809971,,
-0.0012368719,0.016020691,0.007947261,-0.032898404,,
-0.014898842,0.04475836,0.0410764,0.032526843,,
0.040675715,-0.045532994,0.06915972,0.046494886,,
-0.059603717,0.03805014,-0.071652025,0.006411206,,
0.06472933,0.008472122,-0.098823704,0.009712374,,
-0.048409086,-0.109323286,-0.0032685606,-0.046386044,,
-0.10419411,-0.015711525,0.022354092,-0.03389262,,
-0.007449465,0.021222226,-0.00891911,-0.06947406,,
-0.12252401,0.00037864974,-0.030553913,0.022668682,,
-0.03517821,0.0009287426,0.053352196,0.045618504,,
-0.015637068,-0.005839508,0.038071714,-0.0005660302,,
0.008910555,0.028549269,0.0031719338,0.10670223,,
-0.07512881,0.014986404,0.018053938,-0.048346173,,
0.026798015,0.04858538,-0.02004539,-0.0043632295,,
0.0086803725,-0.044767532,0.10524198,0.0040408317,,
-0.07296139,-0.02173108,-0.08100456,-0.05646271,,
-0.008577484,0.024256432,0.032018173,-0.0031492498,,
-0.009441509,-0.021822356,0.06039746,-0.034137998,,
0.01859423,-0.08887126,-0.01114354,0.030200982,,
-0.09850684,-0.061248127,-0.065367736,-0.005253797,,
0.02505085,0.046641085,0.05118061,-0.0066935206,,
0.022999013,0.050758414,-0.006958322,-0.029004911,,
-0.013534971,-0.058603853,-0.04727614,-0.03528153,,
-0.047737874,0.026675945,-0.00027622952,0.031680234,,
-0.040006626,-0.073496684,-0.058896486,0.051795524,,
-0.0109454235,0.09257963,0.037466336,0.01745203,,
-0.048289645,0.014906914,0.029942237,0.007105276,,
-0.023285877,-0.05106776,0.0074552097,0.010576321,,
0.007266195,-0.021932809,0.0326127,0.024847178,,
-0.0028919491,-0.051139716,0.011920312,0.08378224,,
-0.024491396,0.05053379,-0.08903843,0.0034734416,,
0.04774985,-0.012889629,0.027758855,-0.034971807,,
0.05900131,-0.036868297,-0.0910733,0.03306093,,
-0.0023600454,0.05819693,0.08712132,0.10238033,,
-0.0820352,-0.016803388,0.0028425278,-0.037752844,,
-0.0027893288,-0.01366448,0.02240176,-0.08209035,,
-0.073968284,-0.08499735,0.029284267,0.04559559,,
0.07018015,0.049011286,-0.025796805,0.03548095,,
-0.0017071248,0.0146471765,-0.008778148,0.0370864,,
0.013791746,-0.014410155,-0.08965695,0.06700877,,
0.040200055,-0.065063715,-0.0015442122,0.10286338,,
-0.029420828,-0.0030117934,-0.034517217,-0.051874056,,
-0.036584545,-0.03336939,0.046834867,0.006475494,,
0.058359414,0.03129965,0.0039445655,0.101776235,,
-0.069366336,-0.02791178,0.03144954,-0.03665642,,
-0.13045606,-0.04338758,0.051624253,0.028104335,,
-0.030554732,0.011453393,0.047665097,0.022377746,,
-0.036788505,0.021337884,-0.0069169397,-0.07506241,,
-0.039300334,-0.027319917,0.013178874,0.024134807,,
0.04258923,0.02869137,-0.0549435,0.013635365,,
0.023440523,0.0151397865,0.03168676,0.041891463,,
0.04574111,0.036456518,0.05298746,0.031939924,,
-0.025161717,0.020940367,-0.073541395,-0.067427814,,
0.08994997,-0.008310497,-0.028410705,-0.0049136104,,
0.0060607507,-0.027686803,-0.043887135,0.03149842,,
0.058785852,0.032498088,-0.00350597,0.00257736,,
-0.0029695944,0.014906264,-0.006615216,-0.034827672,,
-0.06490838,0.06599241,-0.02539171,0.06771522,,
0.025370833,-0.05894525,-0.043100215,-0.042069644,,
0.007374465,-0.0046093576,-0.024068287,0.053077865,,
0.048671674,-0.034484997,-0.049943365,-0.025783649,,
-0.006449259,-0.074177474,0.1403943,-0.03631638,,
-0.03912422,0.064708464,0.000872949,0.040788215,,
0.003380433,0.09747877,-0.024168504,0.062416807,,
-0.07377209,-0.0129003115,0.107579924,0.0067425226,,
-0.09286691,0.045297563,0.010823346,0.00058221404,,
-0.053783506,-0.057846285,-0.051619332,-0.060594145,,
-0.002437517,0.0057438016,-0.0026163417,-0.037893515,,
-0.07101484,0.114724375,-0.05484464,-0.064651996,,
-0.0029273687,-0.0004733355,-0.047533568,0.022389503,,
-0.031896222,-0.009599106,0.028713813,3.4864825e-05,,
-0.059653457,0.027735788,0.09365725,-0.022183394,,
-0.005286735,0.0128112985,0.034611803,-0.023609597,,
-0.01878687,0.040700313,0.010732589,-0.088011265,,
0.09801025,0.019775879,-0.07549703,-0.049737263,,
-0.04713286,-0.05518526,0.025509614,0.03842676,,
0.05642651,0.051603664,0.011361656,0.006554438,,
0.01849515,-0.08298183,-0.034904372,-0.0012276269,,
0.0071383463,0.031010348,-0.06731843,-0.03917917,,
0.09430188,-0.053868435,-0.0033516127,-0.042962346,,
0.009685558,-0.017309017,0.05433179,-0.05906654,,
0.083357275,0.03469256,0.08251498,-0.018653974,,
0.020106433,0.010726673,0.0048985924,-0.03027029,,
-0.016278248,0.089604855,0.16630176,0.017726319,,
-0.091408215,-0.028668026,0.042857938,-0.044735868,,
0.00096802216,0.014927363,0.030947935,-0.070161596,,
0.013556582,-0.019383008,-0.056772146,-0.0044615692,,
0.0510261,0.06700686,0.10246632,-0.0029465025,,
-0.010156616,0.029485859,-0.03793114,0.078989685,,
0.038057145,0.029735679,0.010293887,-0.011233943,,
0.007992855,0.04179212,-0.036318555,-0.02170683,,
0.026054708,0.084804624,0.069780394,0.049468745,,
-0.0009865898,0.021737669,0.043658376,0.041282736,,
0.04539088,0.0321595,0.047053467,0.03665003,,
-0.048969198,-0.07548412,0.01989821,-0.082197435,,
-0.012033409,0.07061429,-0.06973813,0.022006964,,
-0.053325143,-0.034725927,0.0038716525,0.08666294,,
-0.0052146297,0.00794421,-0.0018065663,-0.01875833,,
0.016917435,0.016931528,-0.009815872,-0.014914819,,
-0.00611769,-0.046080828,0.0043418887,0.010016539,,
-0.02970654,-0.0534348,0.015677016,-0.054508574,,
0.005372795,-0.039869394,0.009168994,-0.022963777,,
-0.057566483,0.0054379064,0.03670167,0.0011892602,,
-0.031420283,-0.047662444,0.04523287,0.0582789,,
0.041528944,-0.051652644,0.0003111041,-0.0076863794,,
0.018241841,-0.08526855,0.06526471,-0.009045738,,
0.055658508,0.053485606,-0.0359593,-0.016309628,,
-0.017422086,0.09798507,-0.006519286,-0.13572708,,
0.013309028,0.02241602,0.024714652,0.019919401,,
0.044069584,-0.018325863,-0.0032584993,0.064647526,,
-0.022194155,-0.059879646,-0.028422022,-0.0070683877,,
-0.0101828175,-0.05117945,-0.007867836,-0.06845383,,
-0.0020659026,-0.07135701,-0.11686072,-0.04037442,,
-0.0054642186,-0.0177072,0.09752479,0.0111389095,,
0.022536742,-0.020198492,-0.012873281,-0.05281502,,
-0.0727976,-0.030717473,-0.037993647,-0.0090345135,,
0.01240354,0.011621065,-0.049122192,0.043246407,,
0.052418273,-0.019525273,-0.005232031,-0.007523173,,
-0.038237583,0.055053417,0.08309452,0.052007582,,
-0.018421205,0.024439644,-0.019325864,0.030214349,,
0.03736767,-0.07390551,0.01592202,0.086230956,,
0.008214649,-0.06905123,-0.117899075,0.04565969,,
-0.0432767,0.026297284,-0.030974036,0.034970053,,
0.009660696,-0.031334836,-0.034621898,-0.0027791802,,
-0.068082556,-0.00035421352,-0.103617586,0.046928555,,
-0.08894679,0.023999488,0.022591053,-0.006725971,,
0.039825514,-0.036027785,-0.011974742,0.05696255,,
-0.07321566,0.01907853,0.06144929,-0.037715316,,
0.032719057,-0.023592103,-0.044948556,-0.0044814143,,
0.03513193,0.021593468,0.010352055,-0.009029174,,
-0.022335723,0.016589131,-0.08028817,0.062244117,,
-0.021501392,0.032397646,0.0064337538,0.021620762,,
0.05273955,-0.04601561,0.017172432,-0.07528262,,
0.1403789,0.07609851,-0.030626595,-0.06587039,,
-0.0051035606,-0.07020202,-0.03929904,-0.03533678,,
0.022227228,0.024351569,-0.07739391,0.034282774,,
0.0090801045,0.02199569,0.11548209,-0.025771843,,
-0.04810693,0.018677695,-0.058456827,-0.016504921,,
0.0021383541,0.037929013,-0.049317427,0.018058995,,
-0.0013707323,-0.019632906,0.017897757,0.038765535,,
0.021672757,-0.0900832,-0.004831218,-0.025864476,,
0.06907464,-0.0011778877,-0.042316698,0.014212436,,
0.029538617,-0.038216293,0.023445895,-0.02044599,,
0.042465337,-0.096953645,-0.0026182642,-0.062339652,,
0.017084502,-0.02549537,0.010463915,0.0007172402,,
-0.01242344,-0.06801202,0.0059534214,-0.055350516,,
-0.047866985,0.08127081,-0.040967867,0.039041776,,
-0.037967246,-0.022846844,-0.022269454,-0.039540768,,
-0.024561303,0.045757674,-0.017623411,0.025944836,,
-0.092816636,-0.010594034,0.032452736,0.036138248,,
0.004295139,0.042517956,-0.037564874,0.026028253,,
-0.11031007,-0.006688805,-0.04561605,0.015505676,,
0.0032730799,-0.008398234,-0.016533967,0.021359561,,
-0.040773492,0.0090897195,-0.031705674,-0.011722935,,
0.02684745,0.017748548,-0.10516269,0.01265163,,
-0.030020341,0.021414276,-0.028640417,-0.07246957,,
0.045190975,-0.06363035,-0.010905265,-0.024924675,,
-0.061277527,-0.050475847,0.023188712,-0.011979363,,
-0.06464542,0.007187678,0.018322706,-0.021988178,,
0.041844033,0.009284036,-0.043665584,0.051299807,,
-0.051859956,-0.0030970194,0.0030019702,-0.013622039,,
-0.01620059,-0.0033120823,-0.013203103,0.016617078,,
0.016246516,-0.03468738,0.03818904,0.02000335,,
0.026876455,-0.02180391,0.03189267,-0.012521425,,
0.016957344,-0.024657262,-0.06707801,-0.0057643256,,
-0.041225795,0.03877368,-0.017514497,-0.104289696,,
0.047468476,0.047344677,-0.04918969,-0.06975914,,
-0.0012017976,0.123914436,-0.019210258,0.01646314,,
0.020872789,-0.023187298,-0.056647047,-0.057375405,,
0.031424306,-0.013528768,-0.0695242,0.10808011,,
0.0028315322,0.05387053,-0.038354844,-0.040276434,,
0.018720802,0.009720744,-0.017148059,-0.014238052,,
-0.0036285992,0.021929068,0.003299991,0.046282876,,
-0.09024822,-0.008569039,-0.022793708,-0.00089107023,,
-0.07922324,0.0013074897,0.0021198364,0.09465382,,
-0.0039787637,0.006568767,-0.11182016,0.0032128212,,
-0.030537574,0.002480806,-0.047828823,-0.032333978,,
0.004856693,-0.00127174,-0.040800244,-0.041956127,,
0.00417007,-0.00090889476,0.015501224,-0.06733432,,
-0.05437474,0.093658485,0.032776352,-0.05570371,,
0.114749804,0.0041893385,0.032147028,0.019764956,,
-0.017311221,-0.024416849,0.021920662,0.037123904,,
0.07948762,-0.09202735,-0.085898146,0.032299794,,
0.03761039,0.0144514935,0.014655308,-0.014209247,,
0.058348574,0.051836323,-0.026109539,-0.07985112,,
0.026391484,-0.03054435,-0.040188126,-0.009329344,,
-0.030865159,-0.055316262,-0.04629008,0.059971068,,
-0.008887088,0.036110323,0.015006339,0.00983957,,
0.073289216,-0.014495774,-0.039282337,0.05722336,,
0.041604917,0.02312162,0.09183851,0.0055289716,,
0.041369554,-0.01860461,-0.022141926,-0.011283513,,
0.079514846,-0.027681187,-0.041417453,-0.0039659482,,
0.05721285,-0.018080095,-0.0045368206,-0.030602664,,
-0.02500559,0.0032625804,0.07328785,0.006757225,,
0.024725115,-0.0005921613,0.029509462,-0.003946382,,
-0.03571957,-0.031901386,-0.025907837,-0.03758583,,
-0.06885686,0.048250806,0.020562144,-0.036442567,,
-0.036021546,-0.025429415,-0.019799352,0.04909079,,
0.043318108,-0.0321547,0.052384246,0.0058928058,,
0.0359702,-0.03563123,-0.009742077,-0.060183544,,
-0.07815485,0.06924143,-0.05572236,-0.026016671,,
-0.012748086,0.046922117,0.13539714,0.07478684,,
0.04566122,-0.040746454,-0.024396887,0.05501101,,
0.025186304,0.0006442088,0.037227996,-0.03912634,,
0.04015832,-0.02784472,-0.03359088,0.038648605,,
0.052350704,-0.017852334,-0.08646341,-0.042978894,,
-0.008167061,-0.04822368,-0.03852977,0.002577197,,
0.040405232,-0.02634047,0.06364656,0.019301726,,
-0.06389227,-0.010052029,0.03482404,-0.03376293,,
0.008106747,0.013333805,0.017382853,0.07964051,,
-0.008270319,-0.01247804,0.025392015,0.036228865,,
0.059340376,-0.013126259,-0.024217134,0.036692154,,
-0.007879653,0.005699333,-0.06963153,0.030939797,,
0.012649494,-0.029960878,0.04328414,0.02601129,,
0.034945928,0.03255148,-0.016477743,0.035324626,,
0.04146751,0.05073266,0.0021227028,-0.009679838,,
-0.010446522,0.079376906,0.043786652,0.04204055,,
-0.012140462,0.03717385,-0.08852256,-0.012076153,,
0.009287911,0.010970298,-0.054426685,0.017888077,,
-0.04061057,-0.06365265,0.002294752,0.012072548,,
0.051736325,0.0910831,-0.048495036,-0.00043527858,,
0.05813839,0.03028679,0.0002808507,0.012646637,,
-0.019662399,0.073694624,0.02572568,0.023619352,,
0.03120433,-0.026807683,-0.020821016,0.029019834,,
-0.022063565,0.029405234,-0.027743302,0.004899773,,
0.025231227,-0.036712956,-0.04037312,-0.044268277,,
-0.1104483,-0.09597066,0.0045781857,-0.026005868,,
-0.046884105,-0.008671825,-0.0011161501,-0.036111448,,
0.017094297,0.015959455,-0.07277938,-0.03163756,,
-0.077324174,-0.041775282,0.08080076,-0.00097082736,,
-0.050054517,0.0016534798,0.00068007776,0.04043509,,
0.010943146,0.0369095,0.060958676,0.050988134,,
-0.045901794,0.052475102,-0.019825205,-0.0018298414,,
0.0049114404,0.06169652,-0.006467774,-0.012831333,,
-0.020875199,0.007429696,0.011305189,-0.060109813,,
-0.009391302,-0.012239016,0.030505747,-0.101569034,,
0.03065844,-0.0134474905,0.0036230364,-0.023691678,,
0.019853562,-0.024375683,-0.05185771,0.020807404,,
0.0018460864,0.07688578,0.020725429,-0.054556362,,
0.06523172,-0.04285741,-0.046378788,-0.035854813,,
-0.021951258,-0.068222456,-0.0023750174,0.0017248594,,
0.043959446,-0.018024158,0.047694996,0.07565524,,
0.022037765,-0.08259672,-0.010579545,-0.04299204,,
0.07340602,0.084197775,-0.06586937,-0.037806965,,
0.018122826,0.061624866,-0.030213233,0.004722808,,
-0.041277494,0.11693636,0.021093495,-0.04536455,,
-0.06684383,0.019875731,-0.0067867464,-0.06325166,,
-0.07365554,0.032987364,-0.005349989,0.10796073,,
-0.055966187,-0.0350784,0.013076282,0.014617713,,
-0.022444498,0.041526895,-0.008467813,0.052086465,,
0.053736113,0.0653699,-0.025634613,0.060259208,,
0.0014623423,-0.011769198,-0.07065781,-0.06527393,,
-0.029879414,0.018526983,0.009195346,-0.01205711,,
-0.010833079,-0.027348837,0.054705597,0.0033088992,,
-0.12474492,0.018021276,-0.02463098,0.010660664,,
-0.075158216,-0.007128102,0.050043516,0.007831517,,
-0.036050405,-0.015311729,-0.0026780944,-0.025141064,,
0.048675254,-0.004849056,-0.08479882,0.06041227,,
-0.011211149,-0.005356984,-0.016289597,-0.0011714781,,
-0.025537042,0.034227215,0.03939003,-0.01892186,,
-0.008795804,-0.0016901852,-0.061170176,0.022392707,,
-0.019303435,-0.05116102,0.0615125,0.025514975,,
0.024477217,0.07691434,0.039741796,-0.05274633,,
0.05339801,0.054847248,-0.025740022,-0.060734447,,
-0.0635093,0.051630132,-0.0109777935,0.004309101,,
0.05884026,-0.07089805,-0.098334566,-0.035196513,,
-0.06926442,-0.098002255,0.025230927,0.04226082,,
0.028751194,-0.034324218,0.017944125,-0.032655902,,
0.03928413,0.08566497,-0.00044474605,0.02520585,,
-0.041412335,0.02859867,0.024086125,-0.01944552,,
-0.009827788,-0.034872945,-0.0715715,-0.010646895,,
-0.01659771,0.09777933,-0.0065873563,0.056888606,,
-0.0013988714,0.02256746,-0.053684805,-0.038671378,,
-0.027410047,0.008253462,-0.0130894715,-0.048491385,,
-0.029380398,0.060705703,0.0054622674,-0.03871376,,
0.014472939,0.011551406,-0.020545077,0.08235267,,
-0.009570072,-0.03150773,0.026194308,-0.0026216095,,
0.023271734,0.07346707,-0.01308687,-0.0013658986,,
-0.008784133,0.016448181,0.009434665,-0.037358556,,
0.008021405,0.038807616,0.021981772,-0.012453668,,
0.0055013653,-0.042206172,-0.029094405,-0.1170673,,
0.04612034,0.061980713,0.015865508,-0.07743108,,
0.019335708,0.080753356,-0.031197581,0.0071775583,,
-0.059478223,-0.052581273,-0.0026224768,0.045369234,,
-0.0059363674,0.043732878,-0.07472429,-0.03735821,,
-0.037481576,0.0036488653,-0.022070503,0.013580915,,
-0.048579488,-0.07597793,0.05176505,-0.050149497,,
-0.006454971,0.034056228,-0.05563516,0.064958654,,
0.00089238083,0.032679267,0.0029801389,-0.056848884,,
0.04280329,0.06805393,0.033262912,0.014415022,,
0.03888318,-0.0152322175,-0.035014942,-0.019544184,,
-0.035155583,-0.110634,-0.028699042,0.039006535,,
-0.055062495,0.0038021835,-0.03791873,0.046788976,,
-0.069118574,0.022102471,0.0468993,-0.005531342,,
-0.06310635,-0.06931416,-0.023296138,0.05501571,,
-0.061530672,-0.06329828,0.044639368,-0.0046695843,,
0.106471546,-0.033568896,-0.033739142,-0.071273506,,
0.030513426,0.07748005,-0.0128114475,-0.004398816,,
0.039841007,0.07224427,-0.0058529647,0.045771807,,
0.05056265,0.0002972166,0.07670869,0.034723967,,
0.062243678,0.037271626,0.040951878,-0.043878604,,
0.01657335,-0.0153568415,-0.020942193,0.10968396,,
0.015923582,0.0014402858,-0.0026011707,-0.029191626,,
0.044799246,-0.07199488,0.0057918103,0.060627732,,
0.028461324,0.018971566,0.09033069,-0.04736175,,
-0.081502825,0.0073650745,-0.021406393,0.08041058,,
-0.05912406,0.012513908,-0.049159575,-0.009873254,,
-0.037163794,0.081268474,0.022942148,0.054790217,,
-0.049195025,0.063194245,0.05367722,-0.02429747,,
0.011943626,-0.02340353,0.050312,0.054347534,,
-0.080729336,0.016970804,-0.010040971,-0.013106327,,
-0.0067272373,-0.033849373,0.015824618,-0.029392852,,
-0.049986977,0.00947486,0.00034273436,-0.014096339,,
-0.0005229802,-0.032007076,-0.021950748,-0.057517808,,
0.025316222,-0.0051800655,-0.071400754,-0.10479827,,
-0.070327446,0.027926844,0.044720545,0.03771068,,
-0.024153972,0.0115478,-0.09113862,-0.07780365,,
0.07462475,0.0028648474,-0.024687018,0.03407881,,
-0.07906826,0.07278268,-0.051909637,-0.04406434,,
0.028877635,0.0062574004,0.006517636,0.041626085,,
-0.025365982,0.041902736,0.014047474,-0.020693894,,
-0.10698015,-0.10156264,0.058515456,-0.0050460473,,
-0.039451562,-0.015526299,-0.03762664,-0.07128114,,
0.062262587,-0.08658167,0.06250068,0.06086767,,
-0.05062407,-0.017088436,0.029342674,-0.045793135,,
0.13088916,0.014204245,-0.023170052,-0.00073459634,,
0.040608026,0.045427397,0.030394804,0.0008747056,,
-0.018956034,0.1138162,-0.027160436,-0.07970784,,
-0.061346218,-0.12803717,-0.041124873,-0.08529915,,
-0.032902416,-0.050190523,0.012790102,-0.0038927614,,
-0.018957887,-0.017708238,-0.01985335,-0.037594058,,
-0.015036566,-0.007836835,-0.0005466382,0.009829709,,
-0.0037066268,0.013650187,-0.036531076,-0.013259526,,
0.045717914,-0.045746908,-0.00091008656,-0.053484313,,
0.08230318,-0.058951564,0.019097723,0.0017515968,,
-0.008424309,0.021937354,0.00025592555,-0.057736993,,
0.0066178828,-0.021871233,-0.020743495,0.039387457,,
-0.0039859037,0.08482739,0.005546134,0.015172327,,
0.010140941,-0.030155653,-0.036606994,-0.06915598,,
0.0042045694,-0.009959956,0.006031334,-0.00883125,,
-0.052158706,-0.01543588,0.07631187,-0.032296926,,
0.012986943,-0.021592472,-0.010971458,0.0022381255,,
0.041149195,0.03918836,0.016176151,0.06009618,,
-0.044226844,0.03367586,-0.004521451,-0.010044545,,
-0.05307324,-0.026115697,-0.069574535,0.007578473,,
-0.02818632,0.01938257,-0.0108553255,-0.041204356,,
0.033208437,0.03017742,-0.011669538,0.104339726,,
0.007508345,-0.054024592,0.04321677,0.07466083,,
-0.061324477,-0.02505505,-0.0059366915,0.019541685,,
-0.014081083,-0.052510113,0.048664995,-0.091586195,,
-0.07566669,-0.018548585,0.0080451155,0.047051392,,
-0.022448117,0.04062131,0.025114866,0.07045851,,
-0.0733517,-0.028429838,0.0660193,-0.023852184,,
0.041801937,-0.034882717,0.005403588,0.042079117,,
0.027125597,-0.029066961,0.039693117,-0.0033710655,,
0.023536984,-0.023730643,0.009252959,0.03770575,,
0.016433805,-0.02175901,0.041244943,0.0064866547,,
0.04147218,-0.025313664,0.0061499956,0.007821108,,
0.050104145,-0.06150567,0.10933896,-0.03265568,,
-0.020558784,-0.010838102,0.0090241395,-0.023354696,,
-0.0052661025,0.031065749,-0.010423202,0.052274205,,
0.053734582,-0.022591071,-0.00843959,0.018170664,,
-0.028000662,0.013886301,0.07819609,-0.059261374,,
0.0005898483,0.022404253,0.08557244,0.017982908,,
0.030923847,-0.02103895,0.01699137,-0.0047289063,,
-0.030651238,-0.000304644,0.0521189,0.03141031,,
-0.021718623,0.06358839,0.0014302635,0.08965905,,
-0.015267028,-0.044434387,-0.013684368,-0.0047055115,,
0.03975815,-0.012204127,0.020781303,-0.009868947,,
-0.029910184,-0.034783214,-0.041383836,-0.024596233,,
-0.0038799995,-0.067304805,-0.037209567,-0.024335366,,
0.00063370494,-0.054180697,-0.016634181,-0.002956896,,
0.0013093483,0.016267585,0.004186313,0.06936151,,
0.01424252,0.0077044126,-0.067821175,-0.019307055,,
-0.03296292,-0.042589016,-0.10737357,-0.016120424,,
-0.012908898,0.025947187,0.0009796515,-0.031246133,,
-0.031421795,-0.0011408475,-0.0839963,0.01827169,,
0.018521203,-0.028194848,-0.03271145,0.006351297,,
-0.07198869,-0.020326717,0.020214405,-0.04318152,,
0.018298535,-0.090881675,0.027007777,-0.032285344,,
0.03269776,-0.022550747,0.07301737,-0.054190796,,
0.11702081,-0.0047474373,0.08199977,-0.03284531,,
0.041775886,0.015782716,0.029228834,0.030091664,,
-0.0066017928,0.013229992,-0.008233192,0.041136343,,
0.06323877,0.016655467,-0.09720503,-0.039754517,,
-0.03493502,0.00925505,-0.0017895233,-0.04094183,,
0.0010147324,-0.054823525,0.013978837,-0.009982582,,
0.0398348,0.029835643,0.0065694666,-0.041477684,,
-0.012258267,-0.06467068,-0.061662287,-0.018246233,,
0.004421037,-0.015649553,-0.041317873,-0.029507495,,
-0.03237711,-0.018578822,-0.026975818,0.027990531,,
0.025514582,0.029904937,0.05791909,-0.07460415,,
-0.030589717,-0.010453681,-0.006320981,-0.13823546,,
-0.033152487,-0.013942256,-0.061693735,-0.06123086,,
0.021352895,0.093028724,0.007474628,0.1147201,,
0.007077324,0.09426333,-0.03999969,0.05615083,,
0.028152568,0.033913415,-0.0010093891,0.03624889,,
-0.059289534,0.0685206,-0.0020840084,0.0053041917,,
-0.032264248,-0.03897781,-0.034044914,-0.056645654,,
0.048169218,-0.00610438,-0.04394995,0.03036432,,
-0.011521777,0.0066829333,0.012265575,0.01806012,,
-0.03644073,0.03660951,-0.039215367,-0.032799028,,
-0.013080284,-0.03443041,-0.014283278,-0.06737084,,
-0.033571873,0.0029917418,-0.013437175,0.039173517,,
0.061331045,0.0027526845,-0.027733278,-0.013653357,,
0.03668243,0.050458334,0.014879055,-0.015319133,,
0.039705057,-0.021470018,0.10945194,0.034685034,,
-0.045862928,0.036066364,-0.0054910243,-0.057496697,,
0.08946094,-0.057633784,-0.014353322,-0.076684415,,
0.034122724,0.023582153,-0.0151964165,0.017353067,,
0.07276081,-0.048696216,-0.071480244,0.042283006,,
0.0788297,0.008745934,-0.059420366,0.073985025,,
0.026954917,-0.021866366,0.0068934485,-0.020212453,,
0.054329496,0.04062778,-0.0062163947,-0.090927854,,
0.0076448014,0.011808227,0.01006821,0.018634085,,
-0.037543755,0.036677223,-0.03718968,-0.054408077,,
0.0082204975,0.022779025,-0.042987924,-0.018335607,,
0.002593307,0.034747127,-0.044531256,0.068006426,,
-0.031354915,-0.1228906,-0.009400776,0.008699702,,
0.115716286,-0.028503904,-0.03218611,-0.0616101,,
-0.042291615,0.083028965,0.017142495,-0.10782967,,
-0.027613532,-0.03811248,-0.071180545,0.041610572,,
0.041777123,-0.038067434,0.015396141,-0.026390394,,
0.03588843,0.03724842,-0.0030362902,0.017328192,,
-0.05724364,-0.02947734,-0.009572069,0.0013623515,,
-0.038806543,0.022025391,-0.01890123,0.010037334,,
-0.022469586,-0.0251854,-0.0379304,0.026461024,,
0.07899184,-0.009228379,0.01979467,-0.06590325,,
0.053112462,0.00229214,0.01776495,-0.00075881084,,
-0.054282654,-0.018192517,-0.031040838,0.059097905,,
-0.12158254,0.04736937,-0.024965493,-0.01611247,,
-0.049539585,-0.06271247,0.033050776,0.0032758657,,
0.034020044,0.06508667,-0.026175728,-0.025417246,,
-0.06585715,0.042325962,-0.04359374,-0.043390524,,
0.00021783054,-0.037910137,0.040726636,0.030879037,,
-0.053635508,0.051143978,-0.0013219657,0.049679175,,
-0.027925225,0.019344078,-0.07742506,-0.111422874,,
-0.019833734,-0.008106143,-0.022340644,-0.034931112,,
-0.045125987,0.03686139,-0.017989902,0.096664324,,
0.038571265,-0.027327526,-0.057062235,0.016602507,,
0.056204394,0.023599084,0.0068190494,-0.011322119,,
-0.035669364,-0.0313519,0.028169261,0.1255761,,
0.014429908,0.01940002,0.026794456,0.051810324,,
-0.019464647,-0.020803979,-0.013237554,-0.05522561,,
0.047399495,-0.022570796,0.052080087,0.03374581,,
0.058165252,-0.019176953,-0.0024950663,-0.015711863,,
-0.04758767,-0.069676824,0.055748697,-0.031453744,,
-0.0075569125,-0.038200498,0.012557553,0.0188275,,
0.050094023,-0.014966346,0.028965442,0.01503456,,
-0.021122271,-0.020533618,0.1296355,-0.058363535,,
-0.04854914,-0.03687417,0.04975784,-0.05487811,,
-0.06423516,0.06758459,0.009389404,0.006532235,,
-0.06922423,0.10071443,-0.04308599,-0.023952158,,
-0.00585821,0.028926352,0.050197255,0.053335927,,
-0.083796896,-0.0063431584,-0.00032167896,-0.070093304,,
-0.032825906,-0.02804121,0.02289064,-0.044975784,,
-0.05420051,-0.06269166,-0.011616098,-0.044760678,,
-0.035400707,0.003946128,-0.015487678,-0.056651168,,
-0.07011636,-0.032776132,-0.029184373,0.056496862,,
0.016697764,-0.03895211,-0.029491257,-0.044459246,,
0.012432938,-0.0003321792,-0.0077071567,-0.049141057,,
0.07136119,-0.012551773,-0.09238728,0.07984644,,
0.009107845,-0.010069774,0.017969199,-0.06462969,,
0.049794775,0.00062070467,0.041083574,0.07593479,,
-0.01593378,0.01805898,0.029692365,0.035792906,,
-0.055206478,0.0012780481,-0.01963771,-0.018990459,,
0.028795986,-0.007253899,0.015076945,0.06479858,,
0.10802764,-0.052214038,-0.038260315,0.073515594,,
0.015267953,-0.040671874,-0.011970671,-0.031331103,,
-0.004291305,0.093988605,-0.050033137,0.030724451,,
0.025531007,0.04315095,0.024575142,0.014330783,,
0.0077380068,0.084897205,0.0660945,-0.034781717,,
-0.022464033,0.00996765,0.012300661,0.035373185,,
-0.009400913,0.0056081684,0.027035432,-0.015790114,,
-0.029697066,-0.06328007,0.010408172,-0.029634222,,
0.0173096,-0.007906671,0.02168511,-0.017607387,,
0.020680657,0.0046959803,-9.459894e-05,-0.040936384,,
-0.028709246,0.04953305,-0.010965373,0.0068451352,,
-0.026142897,-0.00092535524,-0.044446327,-0.05223843,,
-0.033894885,0.037310675,0.050131638,0.024087442,,
-0.083821334,0.03174784,0.021489112,-0.01288929,,
-0.015436739,-0.069568805,-0.032711625,-0.01761523,,
-0.04164746,0.061221007,0.0877861,-0.029210802,,
0.053391095,-0.003023966,-0.024341669,-0.04153668,,
-0.044326335,-0.04184865,0.0014512631,0.111018844,,
-0.03126272,-0.11112579,0.057914164,0.045771047,,
-0.030837806,-0.027449626,0.028978635,-0.013889377,,
-0.034298792,-0.021742426,-0.049591787,-0.06545102,,
-0.045468494,-0.029206466,0.0108242165,0.05481757,,
-0.0080107525,-0.04871839,0.003164354,-0.067260064,,
-0.037643842,0.096108735,0.025868528,0.004911806,,
0.054717947,0.016219625,-0.081927456,-0.015967714,,
-0.013814825,-0.038316946,-0.015403394,0.034138523,,
-0.0038730914,0.014972099,-0.033600558,0.036451466,,
0.010878152,0.04713039,-0.1103709,-0.049986966,,
-0.007680732,-0.07451015,-0.028563723,0.043436218,,
0.0026732213,-0.09890855,-0.005895784,0.06112111,,
0.07074019,-0.08825647,0.008345448,0.041154113,,
0.0011862621,0.03312311,0.0221845,-0.019699616,,
-0.002694327,0.027980547,0.03280526,0.13706505,,
0.011914798,-0.008338035,0.0069143693,0.06263112,,
0.01742621,-0.07648114,0.03560353,-0.09093574,,
-0.066220984,0.003045819,-0.0040799445,0.012960001,,
0.03731036,-0.021579824,0.0399776,0.027405156,,
-0.03491324,-0.01599186,-0.012523853,-0.064942144,,
0.026211716,0.021399764,0.020139644,-0.063820474,,
0.012338194,-0.033598054,-0.05481464,-0.03271939,,
-0.027022583,0.013120754,0.03372107,0.0038229239,,
-0.0029350042,-0.07910594,-0.011105604,-0.029768538,,
0.094466574,-0.05947742,-0.00050405785,0.060066216,,
0.055331506,0.0058718696,0.012297923,-0.00084166264,,
0.053018045,0.11492361,-0.020390611,0.07423224,,
-0.045879763,-0.03669519,0.08223407,0.056098342,,
-0.008828147,0.018617854,0.0043441844,-0.0187574,,
-0.065627895,-0.02059326,0.080361806,-0.017352374,,
-0.043898553,0.003770425,-0.050210454,0.07270295,,
-0.039293963,-0.0826397,-0.045960404,-0.02303866,,
0.029895784,-0.002091597,0.042467363,0.04440547,,
0.035998624,0.0010096568,0.04436794,-0.025592497,,
-0.04145803,-0.09287731,0.049049575,-0.03905094,,
0.05805002,0.044016022,0.056685355,-0.06342934,,
0.026475374,0.044629347,-0.0026259262,0.035890583,,
0.025819685,-0.00013054746,-0.058508378,-0.075374454,,
0.0063342126,-0.031059144,0.05007679,-0.048060376,,
0.006991496,-0.044513162,0.05546684,-0.032058034,,
0.022502244,0.04001438,-0.0065258336,0.067033924,,
0.0038525963,0.021576557,0.040059764,0.015947,,
-0.03163052,0.02615012,0.07242096,0.10112619,,
0.040262144,-0.047170676,-0.0033453675,0.01053637,,
0.0025284209,0.06377265,-0.06356508,-0.0041846135,,
0.04557611,0.006160961,-0.011740984,0.0053844075,,
0.04663838,0.060845792,0.0013921479,0.06857771,,
-0.06441049,0.05225007,0.0365517,-0.027038407,,
-0.093925916,-0.0043711006,0.00825844,0.0016149324,,
-0.12510595,0.03588787,-0.0659636,-0.0129554,,
0.12698303,-0.012769746,-0.06280195,0.0005257153,,
-0.028664261,0.024757583,-0.011345596,0.0049621523,,
0.067259096,-0.013666093,0.006926318,0.082195014,,
-0.03197677,-0.060982797,0.026946438,-0.035197187,,
-0.05800146,0.009976178,-0.024246765,-0.0031494473,,
0.0075878794,0.07531278,0.039709512,-0.019021526,,
-0.053589538,-0.014318172,-0.07627311,-0.005247725,,
-0.013329965,-0.081483096,-0.03806093,0.011835146,,
-0.054219756,0.0030906713,0.030871699,0.02980144,,
-0.054722678,-0.15642264,-0.005016798,0.011274718,,
-0.0795541,-0.014675755,-0.02142815,-0.102652766,,
-0.060149778,0.0762796,-0.010351461,0.009080612,,
-0.016168399,-0.023200914,-0.056679133,-0.010604885,,
-0.059384637,-0.020432746,-0.0506942,0.022832789,,
-0.08551014,0.029980302,0.00040049668,-0.026028035,,
-0.008265731,0.02421048,-0.07320097,0.0029438722,,
-0.054825854,-0.022465447,0.011744067,0.07228345,,
-0.012651669,0.044003323,-0.04458107,0.0030342073,,
0.010809689,-0.005625371,0.0007930938,0.0940279,,
-0.040714763,-0.023276038,0.033704683,0.012280896,,
0.01339748,-0.021212786,0.008176952,-0.030056488,,
0.070077956,0.059591264,-0.032530148,0.043662548,,
0.00015129325,0.11340638,-0.0150128035,0.042367037,,
-0.037939712,0.015528283,0.03299374,0.008222175,,
0.016540945,-0.049325373,-0.031951036,0.031276513,,
-0.050271023,-0.06254641,0.04198711,-0.021908352,,
-0.08644102,0.03432299,0.035436783,-0.05343456,,
-0.011295497,0.002577908,-0.00059772073,0.044602226,,
0.037414048,0.011572623,-0.090565436,0.029333765,,
0.0026714497,-0.015174255,-0.15170321,0.063136496,,
0.02805773,-0.028586095,0.098448224,-0.009783643,,
-0.022619579,-0.032527648,0.030492635,0.00929278,,
0.06624636,0.026618704,-0.080309115,-0.057899512,,
-0.045644782,-0.024129728,-0.029045809,0.025123548,,
0.01038928,-0.05395978,-0.00013338066,0.05663812,,
-0.0011250436,0.032906916,-0.044927627,0.046323344,,
0.054349367,0.010167002,0.016138706,0.007987344,,
0.10378344,0.07765934,-0.028378861,-0.04194998,,
0.016785933,0.019021815,0.025478635,-0.112383746,,
-0.030739825,-0.019721173,-0.077391624,0.02570173,,
0.029526887,-0.008805032,0.045769062,-0.019993627,,
0.03798015,-0.052966647,0.015417333,0.043614734,,
0.07266925,-0.030325843,0.013639293,-0.028076518,,
-0.014313204,0.0872082,0.010355551,0.042586807,,
-0.018442968,-0.011831167,-0.004679025,0.060414962,,
0.085975714,0.046099193,-0.08931512,-0.035872206,,
-0.00906239,-0.07285797,-0.015763886,0.020538488,,
0.06415312,0.075967796,-0.043163095,-0.007312315,,
-0.05240761,0.039165482,-0.034082983,0.06506665,,
0.058429796,0.025110178,0.03543278,0.041996945,,
0.095006205,-0.016111303,0.01480962,0.041403346,,
-0.042173497,-0.01803765,-0.044333663,0.04698921,,
0.09337521,0.02846244,0.05162092,-0.058716882,,
-0.011479367,-0.026200319,0.07346276,-0.08496669,,
-0.04463206,-0.05410564,0.0070491163,-0.045058493,,
0.040771004,0.031173863,0.06514069,-0.019731542,,
0.009622623,-0.05668761,0.020625914,-0.015574219,,
0.027620293,0.00495416,0.09320075,0.060336232,,
0.02716972,-0.0031632832,-0.09750039,-0.030500717,,
-0.019209173,0.038212933,-0.066043645,0.009419642,,
-0.05786739,-0.027722953,-0.042583585,-0.025026744,,
0.004535803,0.042189367,0.05937317,0.009663093,,
-0.05867306,-0.04679185,0.029788554,0.06682683,,
0.0058472836,0.01856819,-0.09345904,-0.027748754,,
-0.012625625,0.026382305,-0.011811492,-0.02680352,,
-0.01485485,0.011095508,-0.02908382,0.029383525,,
-0.052014988,-0.00849184,0.008166377,0.011063421,,
-0.045455266,-0.057619285,-0.020117486,-0.015816059,,
-0.008782872,0.0448158,-0.027054852,0.03364999,,
-0.030303739,-0.08777204,0.015481879,0.021265468,,
0.031017521,-0.018006759,0.022981115,0.01741209,,
0.0018804288,0.033181272,-0.038506933,0.0795903,,
0.05720007,0.077307016,0.029015299,0.06517198,,
0.03450349,-0.056929573,-0.023039468,0.03057786,,
-0.016229004,-0.07694326,0.0060639423,0.071811184,,
0.0068317195,-0.08884058,-0.0352178,0.009092417,,
0.09154065,-0.011937679,-0.05095906,-0.01076437,,
0.016132822,0.022840053,0.042172216,-0.026117858,,
-0.011822193,-0.07984354,-0.07934332,0.05146765,,
0.042155143,0.071520224,0.005864384,0.083334476,,
-0.04933169,-0.09369446,0.021263601,-0.05179988,,
-0.07660731,-0.028450422,0.010570104,-0.034496766,,
-0.0075332895,0.024084996,0.0069364905,0.031619035,,
-0.03960699,0.05509565,-0.047971833,0.0076362425,,
-0.056901045,-0.029585011,-0.027912224,0.02927916,,
-0.042260848,-0.016401531,0.030392407,0.053175,,
0.013836892,0.00501573,-0.04214982,0.04461759,,
0.0016438693,-0.014728467,0.035319667,0.08147035,,
0.031941384,0.027222356,0.09559409,0.055390257,,
0.08061365,-0.018861815,0.07761234,0.014641096,,
0.00040616322,0.024788737,-0.03655153,0.03623389,,
0.009108004,0.041423243,0.058648404,-0.044558898,,
0.014440559,0.019884637,-0.0086349035,0.12773582,,
0.044608932,-0.014663244,0.02475764,0.03592433,,
0.055351436,-0.043064453,0.068871796,-0.07029185,,
0.028544609,-0.01384344,-0.03319014,0.010306665,,
0.023112468,-0.0026328291,-0.032189965,0.0047717537,,
0.020323973,-0.00011714859,-0.020827856,0.0299425,,
0.030232882,0.0629049,-0.027564963,0.039764356,,
0.01902858,0.08114872,0.048567623,0.033474397,,
0.023011329,-0.055473574,0.02139379,0.011178342,,
-0.0060249483,-0.017969158,-0.012110061,0.015342164,,
-0.0037096937,-0.029827029,0.02905803,0.058457173,,
0.04135846,-0.040753774,-0.006927226,0.001852171,,
-0.0082862675,-0.015945662,-0.029967165,0.0040730387,,
-0.012977397,-0.020731997,0.009133665,0.007523869,,
0.025725115,-0.053896498,-0.014871282,-0.07333239,,
0.03699673,0.016763873,0.035367727,0.08175995,,
0.03502873,-0.016899219,-0.005031966,0.010885524,,
0.057227094,-0.01795084,-0.02756831,0.023672722,,
-0.0023208212,-0.012664241,0.0018929879,0.009799161,,
-0.01500042,-0.04332573,0.06219042,0.07524645,,
0.10457533,-0.025341453,0.012151792,-0.0068682344,,
-0.043120068,0.019029127,-0.0776679,0.008944868,,
-0.00083459687,-0.024825959,0.027620219,-0.101824656,,
-0.032147657,-0.00896833,0.0067472383,-0.0024164834,,
0.0077299615,-0.027092151,-0.003627283,0.056551527,,
0.04678998,0.017131267,0.015808841,-0.072978474,,
0.031207334,0.055182286,-0.016121589,-0.010985337,,
0.0062864874,0.00554351,0.045122586,-0.04744827,,
0.07865326,0.026396602,-0.05587292,-0.04110134,,
-0.023706138,-0.023207042,-0.038448714,0.012552159,,
0.08921655,-0.07022503,0.049356442,0.017979475,,
-0.02251845,0.047231548,0.018048212,0.12049184,,
-0.07361396,-0.01231243,-0.01836096,0.087355845,,
-0.06870155,-0.054604754,0.0061868383,0.007807251,,
0.040511604,0.071317606,-0.05323717,-0.042186536,,
0.011321585,-0.010595973,-0.015613982,0.021127738,,
-0.06606891,0.02061841,-0.059598286,-0.011935573,,
0.039849464,-0.018182095,-0.017338945,0.037893403,,
0.018935192,-0.03951014,-0.06509936,0.06326327,,
-0.01327182,-0.039469466,-0.035610773,0.0028456952,,
-0.023436878,-0.02632961,0.020098794,0.086143956,,
0.082122065,-0.01313765,-0.05519412,-0.04222202,,
-0.026949232,0.05424424,-0.0246882,-0.0024532645,,
0.04241118,0.05030569,0.056859586,0.027713431,,
-0.014944899,0.036766246,0.035386227,0.021490056,,
-0.062013697,-0.04828462,0.016669217,-0.018898569,,
0.049101226,-0.01454176,-0.008471403,0.02210434,,
0.0040247934,-0.093923256,-0.020699026,-0.0156961,,
-0.0152850915,-0.0385423,0.008156909,0.015510787,,
-0.016323917,0.022964628,-0.046141483,0.045617472,,
0.057381302,-0.0039748005,-0.0011321636,0.039224084,,
0.09573036,-0.007885805,-0.03401982,0.10986319,,
-0.05739314,-0.040010456,-0.104887985,0.06111481,,
0.043587815,-0.008807059,0.044374574,-0.078632295,,
-0.043332554,0.0071672117,-0.042039454,0.052673038,,
-0.024162792,-0.028968297,0.07297657,-0.035219904,,
0.02450874,0.0026213017,-0.0333646,0.06855079,,
-0.017365133,0.015767684,0.053391743,-0.008655458,,
-0.02243092,0.033626825,-0.030307513,-0.02087702,,
0.06499851,-0.028546443,0.003315164,-0.029530963,,
0.034324072,0.050296884,0.01886546,0.039463818,,
-0.039117154,0.0071842526,-0.036044415,0.021279722,,
0.10395266,0.049462657,-0.018574703,0.046461776,,
-0.0040731505,-0.105945066,0.016266564,-0.03477771,,
0.02360319,-0.04839709,-0.020714661,-0.009009957,,
0.003669055,0.016145702,0.0048792013,-0.031717815,,
-0.009094412,0.034183234,0.08123331,-0.003599612,,
0.0005516536,-0.022658667,-0.021934135,-0.09884704,,
-0.035339635,-0.03763223,-0.017199805,-0.042720657,,
-0.020988492,0.0021027036,0.039785273,-0.012361616,,
0.072616994,-0.030672971,0.033035733,-0.0688251,,
-0.015336801,0.0016392593,-0.016152143,0.050279878,,
-0.046702154,0.0596376,0.049995568,0.059571028,,
0.021312097,-0.032515798,0.057370603,-0.037586235,,
-0.05395385,0.040773135,-0.028311286,-0.018698169,,
0.012068977,0.003033164,0.06873096,-0.008218894,,
0.018323343,-0.07034178,-0.034653585,0.014798568,,
-0.0042779613,-0.065154724,0.01952574,-0.023782868,,
0.05379512,-0.059311505,-0.04587527,-0.00041535794,,
-0.011764984,-0.009390419,-0.006248651,0.02649443,,
-0.023558449,-0.111378685,-0.021622017,0.0029169775,,
-0.0047763023,0.013912018,0.003641498,0.05202119,,
0.033509687,0.0022381938,-0.055918314,0.03845542,,
-0.08462743,0.013722676,0.00749315,-0.01077496,,
0.06280659,-0.07220028,-0.044484265,-0.04677468,,
-0.02750195,-0.015751528,-0.07288175,-0.03330113,,
-0.012833102,-0.05229772,0.0578384,-0.01852263,,
-0.012789537,-0.044427216,0.028040504,-0.022558339,,
0.033185095,0.10374725,-0.005887454,0.048242107,,
0.08357263,-0.048554152,-0.06867195,0.039316963,,
0.090191886,-0.07482213,-0.008690479,0.060210425,,
-0.045570318,-0.031485453,-0.042578384,0.0016167584,,
-0.010672025,-0.11206027,-0.009239396,-0.00568315,,
0.020309458,-0.009142967,0.019539548,-0.039088387,,
-0.04670093,0.064729065,-0.056132,0.0039595296,,
0.017895116,-0.011019882,0.012525361,0.031653997,,
0.07339093,0.030461768,0.0017976519,0.10737813,,
0.06109364,0.04170436,0.014576706,0.068078816,,
-0.044560615,-0.045720287,-0.016012538,0.020930596,,
-0.056964647,0.0016240897,-0.076494925,-0.02652287,,
0.038791683,0.06594945,0.032452907,-0.078254096,,
-0.024246765,-0.011285012,-0.04627356,-0.00093427714,,
-0.10668323,-0.06599845,0.03872203,-0.066185206,,
0.04915026,0.040137768,-0.05984056,-0.02204121,,
0.0028604958,-0.008001309,0.027561773,-0.12323598,,
0.04395829,-0.02065822,-0.050734643,0.049162317,,
-0.043096643,0.018012347,-0.031427663,0.045446668,,
0.012969987,0.05659664,-0.030612519,0.063297294,,
0.0303407,-0.011469402,-0.059392266,0.015339814,,
0.089726314,0.0501283,-0.0012041252,-0.011903523,,
0.053961888,-0.018395277,-0.08432808,0.016368264,,
-0.04619021,-0.025251035,-0.0666716,0.045412045,,
-0.035068177,0.017204266,0.013244534,-0.0075816717,,
0.011765263,0.00877516,0.04290128,0.018545642,,
-0.007506318,-0.09521205,0.061027676,-0.040676758,,
0.044232536,-0.043941874,-0.049587794,0.028457718,,
0.0030782246,0.011444504,0.039422553,0.018258372,,
-0.028936155,-0.059702504,0.07062498,0.043613046,,
0.031457156,0.02174247,-0.04233211,-0.060325,,
0.030807447,0.045578316,-0.05725402,0.018625392,,
0.007029239,-0.008187467,0.02907365,-0.042936303,,
-0.01227951,-0.051265523,-0.057214584,-0.0047563585,,
-0.024725145,-0.04514563,0.0018979225,0.03937342,,
0.0071081333,-0.04702125,0.039667863,0.024372721,,
0.040714797,0.0681859,-0.06447012,0.03251466,,
0.02130957,0.02973454,0.08179378,0.041947447,,
-0.019922204,-0.061480444,0.0034451578,0.026252499,,
-0.048500154,0.030710159,-0.045113217,-0.041008085,,
-0.037093326,-0.011986836,-0.0066387355,-0.018891817,,
0.03100778,-0.00084935955,-0.00500694,-0.054249853,,
-0.0062607164,-0.04106279,-0.05206136,0.0035139392,,
0.013566995,0.0043234294,-0.033594478,-0.041680735,,
-0.007434312,-0.023715531,0.0006455176,-0.0041293916,,
-0.037737377,0.038483374,-0.048522547,0.0029332412,,
0.011500445,0.0123332925,-0.0027841625,-0.06001438,,
-0.06608043,-0.09152024,0.010169663,0.12470979,,
0.024771232,0.05459896,-0.017504966,0.039193925,,
0.014868784,-0.01896663,-0.024550186,-0.040531788,,
-0.030943222,-0.032125346,0.024793267,0.07258689,,
-0.0074043362,0.014047848,-0.027280351,0.004288649,,
0.02385538,0.028462972,-0.010585626,-0.025547337,,
-0.08691585,0.010719795,-0.030403009,0.045369525,,
0.017115878,-0.017116476,-0.050298203,-0.011842623,,
-0.033299226,0.03282553,-0.09332935,0.044657547,,
0.0047719944,-0.0709467,-0.052040666,0.014268214,,
0.0073648216,-0.0046916846,0.010894772,-0.05335077,,
0.013557698,0.028637165,-0.0021334656,-0.016959038,,
0.010668132,0.024442006,0.03950671,0.060510747,,
0.03804635,0.07048526,0.045187585,0.01488191,,
-0.04539768,0.029670049,0.033000268,-0.00096284196,,
-0.028050337,0.07374287,-0.030313889,0.059075657,,
0.065607995,0.059237238,-0.034413204,-0.050801143,,
0.023984058,0.016847713,-0.03316987,0.024985991,,
-0.026587399,-0.025673155,0.10139788,0.09250687,,
-0.042867817,-0.04088253,0.03353482,-0.04986362,,
0.035021733,-0.016315976,-0.029464126,-0.047578152,,
0.0023970963,-0.026304033,-0.01213292,0.00996488,,
-0.004027716,0.060792238,0.03769638,-0.029524824,,
-0.0066848076,0.02163281,0.038205516,0.019262636,,
0.05202075,0.025567666,0.021987386,-0.07377011,,
0.06628774,0.0038897041,-0.06508514,-0.033257112,,
-0.0011713706,0.00836203,-0.08413182,0.008390633,,
0.0031792538,-0.011533621,-0.05564609,0.009006736,,
0.024110243,0.022417061,0.09785969,0.0004481874,,
-0.059323575,-0.035547026,-0.09271464,0.07600886,,
-0.023678986,0.049874973,0.056681983,0.053403635,,
-0.00039872975,0.037422046,-0.077996984,0.012093651,,
0.0491295,-0.052506022,0.046801146,0.04120966,,
0.06502318,0.0521089,-0.0057112863,0.03010211,,
-0.024818642,-0.001961357,0.028217992,-0.0043019936,,
0.04300173,0.0799753,-0.009774462,0.108343266,,
-0.04271591,-0.077773616,0.07675534,-0.026866054,,
-0.021058254,-0.04964316,0.003813823,-0.06181364,,
-0.0496313,-0.037304744,0.03541284,0.039360937,,
-0.030025212,-0.0011483997,-0.012420315,0.07874922,,
-0.08442477,0.040351607,-0.043497253,-0.061332643,,
-0.030071111,-0.013983887,-0.0034558917,-0.017097233,,
-0.020787958,0.068141624,-0.04434773,-0.036008492,,
-0.027368154,-0.04684755,0.030152896,0.026370121,,
0.015219834,-0.06652598,0.022327965,-0.044515382,,
-0.036150467,-0.035730615,0.052740853,0.013341892,,
-0.030558355,-0.05119579,-0.011952231,-0.06500375,,
0.021141658,-0.011475687,0.037480477,0.04426459,,
0.018793501,0.081196494,-0.0076918635,0.044225372,,
0.0018945494,-0.012136358,0.069081545,-0.033829525,,
-0.0037662364,0.018913604,0.004249753,0.0160652,,
0.01241746,-0.007225896,0.008884707,0.008375625,,
0.050760757,0.00531882,0.015492981,0.023769535,,
0.06940906,0.031294145,-0.050800793,0.027932877,,
-0.057037767,-0.014148348,-0.04038771,-0.02563762,,
0.012728778,-0.09039727,-0.044836648,-0.024564382,,
-0.020379514,0.008775451,-0.039143607,-0.022225603,,
0.047802467,-0.0118165,0.052084837,-0.0024251947,,
-0.022083826,0.0349931,-0.03314967,0.05424211,,
0.0202071,0.0003823114,-0.053879764,-0.033253916,,
0.0691169,-0.00887195,-0.0054978556,-0.0011580357,,
0.025743123,0.049512263,-0.057694875,-0.05699993,,
0.05451864,0.032505248,0.033992626,-0.056284573,,
-0.07632265,-0.019494008,0.020110471,-0.070910126,,
-0.009255203,-0.012832679,0.02510689,-0.07789072,,
-0.0031033563,-0.016248887,0.011623502,-0.016141444,,
0.076036274,-0.006518807,0.03363312,0.13809401,,
0.0031095461,-0.13588591,0.042724874,0.07493801,,
-0.017752547,-0.0032759348,0.021605624,0.01613102,,
0.07488961,0.044774026,-0.08084694,0.082218185,,
-0.0027936378,0.019129604,-0.019789603,0.088037446,,
-0.02495614,0.019093223,-0.03235457,-0.012568986,,
0.061281607,-0.023587717,0.020506253,0.039549753,,
0.02341701,0.026460748,-0.042302273,0.014818695,,
0.00031741656,0.016130934,-0.03977521,0.09008746,,
-0.06765155,-0.037995044,-0.08744541,0.073333345,,
-0.035518024,0.01905206,0.029995872,-0.03123233,,
-0.07741521,-0.013087654,0.014363361,0.019373106,,
-0.03283582,-0.01315115,0.060569413,-0.03974097,,
-0.09197703,-0.029351335,0.062289886,-0.063694455,,
-0.03835731,-0.031146394,0.08075202,-0.109423175,,
0.02124333,-0.021215975,-0.011430113,0.045992907,,
0.015369391,0.06718995,-0.105915196,0.041424137,,
0.058830142,0.0905072,0.08869945,0.021047106,,
-0.033640288,-0.019920506,0.0013484592,0.075684406,,
0.06086364,0.03657645,-0.015649283,0.031032676,,
0.055902734,-0.03583109,-0.036352057,0.035029855,,
0.0065076854,0.07094629,-0.043879062,0.11910736,,
0.004954264,0.019162565,0.041871797,0.022148073,,
0.03153436,-0.018490719,0.022527477,0.015113806,,
-0.0056992653,0.022422956,0.09224876,-0.01099281,,
-0.07380587,0.083398,-0.039279524,-0.04756419,,
-0.08027121,-0.0029538327,-0.02337788,0.024774347,,
-0.052783694,0.0083842985,-0.07247654,-0.036641218,,
-0.043578804,0.014473737,-0.008015175,-0.006641693,,
0.0231115,0.0030427028,-0.08853907,0.04250688,,
0.015221459,0.048883174,0.04479136,0.02793788,,
0.02227217,0.030015191,0.07406177,-0.025752181,,
0.022010745,-0.0128808655,0.098450474,0.050363157,,
0.0545557,-0.039440107,0.057944503,-0.0153104495,,
0.023090238,0.05738731,0.0060134837,0.028541666,,
0.036517236,-0.044669714,0.038595915,0.03667683,,
-0.034879234,-0.079803795,0.012991488,0.011152561,,
-0.027379757,0.054507963,0.022653231,-0.07353325,,
0.031824175,-0.0043823095,0.024004601,0.06902042,,
0.037902486,-0.062331524,0.022473296,-0.021026576,,
-0.09898766,-0.02021759,0.0150701925,-0.0139771905,,
-0.01091133,0.030514613,-0.014053149,-0.025878062,,
-0.032800257,-0.004401453,0.03824812,-0.034532174,,
0.0030442392,-0.04191489,0.02997854,0.0056114183,,
0.020806495,-0.1308084,0.060499698,0.011144074,,
-0.015400457,0.034304947,-0.015152153,-0.0077432105,,
-0.026519436,-0.030775543,0.0073720585,0.06656973,,
0.02262084,-0.010173937,-0.0019614757,-0.026419848,,
-0.052702792,-0.1316788,0.019074762,0.020249013,,
-0.026665134,-0.039603855,-0.051039994,0.014444853,,
0.034261245,-0.08012851,0.016340764,-0.011538558,,
-0.10971127,0.032817185,0.025490992,-0.074278675,,
0.043475173,0.016499782,-0.0032696633,-0.075408384,,
-0.021926884,-0.044559367,-0.08832428,-0.011969184,,
-0.019131992,0.0044087437,-0.024740748,0.08443179,,
-0.018285977,-0.046175864,0.031674586,0.07880162,,
-0.021572238,0.0004490429,0.007101046,0.0034437943,,
0.049079064,-0.032934155,-0.0387348,-0.021054298,,
-0.053406585,8.047135e-05,-0.069499515,0.0026701025,,
-0.003317401,-0.07491207,-0.013010832,-0.053782243,,
-0.011987882,-0.050283812,0.0018921369,0.04179354,,
-0.007683073,-0.025145184,-0.090909705,0.050448827,,
0.031223504,0.082965836,0.024274593,-0.0010813916,,
0.02811352,0.0029251901,-0.044482183,0.07710193,,
-0.026219964,-0.0031181502,0.030423747,0.03281479,,
-0.06937577,0.05076621,0.0043284874,-0.041445237,,
-0.10893864,-0.010810265,-0.0036771772,-0.08250914,,
-0.07445016,0.040731166,0.037490413,-0.01087807,,
-0.025143089,0.023424812,-0.018204281,-0.002548962,,
0.0028139157,0.058652144,-0.07102712,-0.003316314,,
-0.023734406,0.01511279,-0.0037339712,-0.053027093,,
-0.008117115,0.019931529,0.05263426,-0.04206053,,
0.022529725,0.013687791,0.054410078,0.056135595,,
0.051530093,-0.0039271656,-0.024272123,-0.032055825,,
-0.010608348,-0.028302511,-0.013661842,-0.07124417,,
0.04625088,0.031455614,-0.0041219112,0.02454396,,
-0.03370953,-0.02698006,0.06077863,0.04108092,,
0.039319772,-0.039865293,0.015521139,0.07073741,,
-0.0001953024,0.019548723,-0.062067475,0.013630741,,
0.011957636,0.033625964,0.019747991,0.011757016,,
-0.02045874,-0.035468522,-0.059399724,-0.026090046,,
-0.076381736,-0.031887956,-0.0048281215,0.05742165,,
-0.0069739744,-0.06361096,-0.0046336693,0.053152878,,
-0.09417633,0.08315298,-0.015421204,-0.004230203,,
0.04638842,0.06354714,0.032873634,-0.08228754,,
-0.09875479,-0.078287035,0.013747466,0.023928298,,
0.01014968,-0.015234682,-0.021995505,-0.004555765,,
-0.042655226,-0.07004489,-0.00058623304,0.0072921747,,
0.0606567,-0.030439159,-0.029047213,-0.026080241,,
-0.012721978,0.049474835,-0.012721713,0.08425739,,
0.009534595,-0.016789952,0.026487289,0.008393222,,
0.032398276,0.025597364,0.04008747,0.032764055,,
-0.02803438,-0.010084248,0.06389589,-0.075537324,,
-0.011534176,0.030947406,-0.072441645,-0.086791046,,
-0.0047952915,-0.04000568,0.046736017,0.021866044,,
-0.03411662,0.03426754,0.019222796,-0.06320724,,
0.0044613904,-0.0074057286,0.086301476,-0.05757611,,
0.027028844,-0.002935716,-0.015798401,0.06572949,,
0.025356285,-0.036815938,0.06900051,0.037182864,,
0.11671597,0.039692212,0.057323806,0.012222589,,
0.024821222,-0.03456432,0.037868176,-0.0060259253,,
0.037466515,-0.032276664,-0.06449354,0.0039737863,,
0.026483707,0.016216248,-0.018112347,0.01861979,,
-0.0043220976,-0.03138853,-0.068441205,0.0188516,,
0.04313622,0.06326122,0.0025480844,-0.019735752,,
0.02318059,0.07966138,0.040675234,-0.020916201,,
0.0073190588,-0.01583787,0.02239394,0.05219074,,
0.029266112,-0.039507065,-0.003456788,-0.12883395,,
-0.04582119,-0.028963726,0.020370722,-0.037235923,,
0.019976864,-0.049342886,0.056474205,0.039537326,,
0.011123379,0.049949273,0.016090395,0.011334657,,
-0.009174536,-0.04507877,0.017639503,-0.11765453,,
0.048328653,0.025511598,-0.05823573,-0.0070854845,,
-0.036596984,-0.02914416,0.12963945,0.08101967,,
0.018975995,-0.06893034,-0.0009096716,0.04754368,,
-0.048689388,0.0024512364,-0.011271441,0.006768872,,
0.03753162,-0.0382686,0.029043881,-0.015727624,,
-0.040632617,-0.0008463307,-0.011307809,-0.016025592,,
0.047050476,0.04401552,-0.030259198,-0.0020619077,,
0.032964334,0.039889283,0.018031877,-0.017363336,,
-0.07800444,-0.019027334,0.008622165,0.01711973,,
-0.11287274,0.027497236,-0.056483697,-0.017538114,,
0.038789522,0.110459186,0.10487328,-0.07598529,,
-0.07539989,-0.011220602,-0.020088596,0.009439969,,
-0.040801235,0.006821484,0.04755771,-0.052010853,,
0.011221611,-0.008718273,0.12555155,-0.041777693,,
-0.008275072,-0.0012225258,0.032896146,-0.047211908,,
-0.048299316,-0.008981017,0.00078814116,-0.025644582,,
0.05281747,-0.043847594,0.05087392,-0.075065054,,
-0.045055058,-0.023804136,0.014186172,-0.036284488,,
-0.05436869,-0.0067992276,-0.11180978,-0.033715107,,
0.054717164,-0.030158807,-0.050088976,-0.081828795,,
0.04041626,-0.011334444,0.046564836,0.055022784,,
-0.0547536,0.020559832,0.0501551,0.053251438,,
-0.068130314,0.043073267,-0.12397924,0.094169535,,
-0.0014376001,-0.0016188887,0.06809433,-0.0031668355,,
0.015243595,-0.0309448,0.0444052,0.018487442,,
-0.028783428,0.033501174,-0.02583929,-0.03853456,,
-0.0036917555,-0.048820578,0.011802954,8.919367e-05,,
-0.08794073,0.00075308525,0.020754458,0.13581173,,
-0.06482913,-0.0031035927,0.06717737,-0.046012767,,
0.048841275,-0.03907301,-0.016371038,-0.04820581,,
0.031749286,-0.0068676677,-0.08449064,0.030556165,,
-0.056754205,0.020525085,-0.021799983,0.09851025,,
-0.04070878,-0.031423327,0.015190803,0.013459173,,
0.014816531,-0.034725852,-0.013021076,0.022292588,,
0.06683415,-0.0002585341,0.013709804,0.011274719,,
0.0026304142,-0.0010328665,-0.03371353,0.0071359426,,
0.039464273,0.0439877,0.040637832,0.0077282214,,
-0.0341695,0.058410138,-0.027169188,-0.040208474,,
0.021597128,0.0067237257,0.02298354,-0.09707451,,
0.019813504,-0.0431933,-0.00178417,0.0072422544,,
-0.033243254,0.049996085,0.09062775,0.05929497,,
-0.0056042,-0.005152726,0.0019152428,0.014860601,,
-0.102809384,-0.021955078,-0.05500589,0.0046088137,,
0.0075469576,0.038859647,-0.00029533365,0.022597596,,
-0.054686848,0.01787808,-0.020685893,-0.009309237,,
0.023224495,-0.08329465,0.009186645,-0.015342414,,
-0.096707955,-0.09183062,0.030334996,-0.055889666,,
-0.027188338,0.004094404,-0.021582458,0.006360304,,
0.0171974,0.032545876,-0.028500855,0.037124254,,
0.0048994794,-0.0083041275,0.072740786,0.027972758,,
-0.050328463,-0.010145687,0.010316943,0.030558467,,
-0.0016595008,0.05313877,0.04231981,0.0129325725,,
-0.045899037,-0.038542584,-0.01350825,0.0070179403,,
-0.030666387,-0.045063026,-0.026569529,-0.061270606,,
-0.019138888,-0.046290122,-0.03318428,0.06430921,,
0.021701977,-0.05070119,-0.042813487,-0.026524222,,
0.11709208,-0.028858647,-0.010751293,-0.018936208,,
0.000110174326,-0.019446034,-0.023042694,-0.007037863,,
0.03901562,0.019650588,0.034209996,0.027811747,,
-0.03233934,-0.053548373,0.026224859,-0.040586557,,
0.014140215,-0.000595619,0.019818567,0.01236512,,
-0.037878368,0.045253105,-0.054689907,0.041961577,,
0.047864903,-0.018292278,-0.006645812,0.011198441,,
0.011714846,0.005955853,0.0032499288,-0.046634298,,
-0.009489057,0.002692492,0.04120812,0.10145916,,
-0.00025796986,-0.060316954,-0.03819911,-0.06037324,,
-0.019907726,-0.048834547,0.061935723,0.041623395,,
-0.029004555,0.046646647,0.057458114,-0.04332067,,
5.502981e-05,-0.0068173106,-0.00751765,0.014623519,,
0.0018378925,0.08955084,0.014272549,-0.08297914,,
-0.026909659,-0.06603091,0.01586978,-0.041334227,,
0.0010004832,0.050675806,-0.050812963,-0.04408588,,
-0.01570064,0.024909364,0.067556776,-0.06419182,,
-0.0711085,-0.004939597,-0.065274864,-0.04136215,,
-0.062459357,0.008399558,0.07889378,0.008906333,,
0.0032399313,0.045286763,-0.053189017,-0.012057132,,
0.019011004,-0.033322915,0.0075015607,-0.016236374,,
0.03006469,0.01975794,-0.078028806,-0.05471729,,
0.0028791944,-0.077387586,0.02690915,-0.013927127,,
-0.017338352,0.010512631,-0.044115707,0.11686476,,
-0.021054132,0.00950222,-0.043414954,-0.034736935,,
0.014874961,-0.030717053,-0.021801772,-0.0133132255,,
-0.108826324,-0.009752918,-0.025859833,0.011326512,,
-0.046829823,-0.004959518,-0.05190663,0.07818943,,
-0.0058900816,-0.06642713,-0.002982818,-0.0020106025,,
