layer1node1,layer1node2,layer1node3,layer1node4,layer1node5,layer2node1
-0.06788837,0.023670632,0.041163266,0.06637217,-0.015429524,0.5569523
-0.03668616,0.056330036,-0.10963292,-0.066071056,0.041583195,-0.75441146
0.05517206,-0.086716555,0.039073568,0.035633314,0.023157975,0.7974844
-0.032331318,0.038649946,-0.06573912,0.042616133,0.03562018,-0.66428703
-0.024023863,0.09037004,-0.010677098,0.0,0.09597401,-0.5760627
-0.017967232,0.14162429,-0.016469872,0.10862467,-0.011410329,
0.042940278,0.0985746,0.027553404,-0.09740148,0.043965124,
-0.018184219,0.026230348,0.018896332,-0.048340492,-0.017841784,
0.06299466,0.024023402,0.045813404,-0.07056657,0.011388043,
0.03009142,0.03634488,-0.034132544,0.016547121,-0.049822215,
0.0,-0.04319672,-0.0460716,-0.06200477,-0.03573744,
0.010497271,-0.03967637,0.07391123,-0.0801885,-0.025123175,
-0.014734955,-0.011452322,0.022982549,-0.02938534,-0.060110327,
0.09438592,-0.069319844,0.0,-0.013415884,-0.056041855,
0.0,0.03186396,-0.02934509,0.010491245,0.0,
0.03436173,0.01133499,0.07061564,-0.03605853,0.016420452,
0.040716246,0.026589733,0.0,0.011445276,-0.07265186,
0.0,0.021272756,0.017409332,0.012623225,0.031690154,
-0.05661683,0.06559264,-0.06772156,-0.041494552,0.028007733,
-0.020704407,0.0122873895,0.0,-0.08540388,-0.061525177,
0.044837996,0.05059195,-0.030280963,-0.047845792,0.0,
0.0,0.026598155,0.072264984,0.041328173,0.0,
0.02808876,0.09624685,-0.052069154,0.022089506,-0.016219975,
0.0,-0.020389125,0.05525465,-0.1001427,-0.013795851,
0.030675234,-0.046591368,0.010857383,-0.034765963,-0.02441424,
0.0,0.037749194,0.0,-0.023465272,-0.011122052,
-0.05453976,0.052366998,-0.09334822,-0.037840877,0.08765019,
-0.046921704,0.053919982,-0.028459704,-0.043394696,0.028248286,
-0.024334721,-0.040364992,0.024290772,-0.010755647,0.019664623,
-0.04003252,0.0,-0.04476423,0.06169506,0.024847496,
0.014601319,-0.03431622,0.087689385,0.08566698,0.0,
-0.010229992,0.033884898,-0.018285418,0.038039543,0.02090565,
0.039141063,-0.035821505,0.0,-0.041729733,-0.054579396,
-0.01663302,-0.023597805,-0.07952056,0.05456801,0.0,
-0.03408186,0.022915315,0.024584316,-0.025019823,-0.09515836,
-0.010879483,-0.010197227,0.016016103,0.056712244,0.024979215,
-0.054624427,-0.045512162,-0.013956485,-0.02320025,-0.013940206,
0.08496226,0.037013568,-0.038260143,0.0,-0.010009839,
-0.04401236,0.07222551,0.013361173,0.0,0.0,
-0.016628232,0.0,-0.0304609,0.0,0.02079009,
-0.0708516,0.04060249,-0.06955115,0.0,-0.046392996,
0.0,-0.10308644,-0.09854772,-0.031872798,0.030995863,
-0.026017742,-0.07668748,-0.050805982,0.02721765,0.0,
0.0,-0.090519704,-0.01758697,0.0346893,0.053580746,
0.0,-0.072328,-0.04327896,-0.06685314,0.025138129,
0.011194965,0.01589508,-0.072971456,0.0387413,0.070084214,
-0.06471313,-0.04087276,0.0,-0.053375896,0.035702415,
0.033494018,-0.054970954,0.0,0.032665167,-0.022873636,
-0.08874635,-0.06424886,0.06939095,-0.0440527,-0.015007142,
0.028879117,-0.027125986,-0.088654764,0.0,0.045333292,
0.05826436,0.06455913,0.0,-0.033048056,0.078471966,
0.010676464,-0.09516416,-0.059159853,0.0,-0.033004574,
-0.021164885,0.016661756,0.05555054,-0.04091325,0.026344413,
0.04085242,0.029255187,-0.011326242,-0.045072254,0.013965348,
-0.07783946,0.04174858,0.022649715,0.014183603,0.0296848,
0.024623765,0.026648013,0.051755175,-0.03949847,0.014544864,
-0.056634374,-0.02056681,0.075723104,-0.019077724,-0.0670168,
0.0,-0.054648194,0.077029034,-0.05276003,0.032776274,
-0.019856114,-0.047108248,-0.035752796,-0.022516968,0.061715286,
-0.12293981,-0.017691344,-0.010465675,0.0,-0.03442363,
-0.047669582,0.03946914,-0.010086759,0.0,0.021909652,
0.03012466,0.102508016,-0.020706087,0.0155332,-0.049854517,
-0.013650373,0.0358561,0.018404912,-0.045948245,-0.026356038,
0.0,0.0,0.0,-0.13819891,0.0,
0.0,-0.02281332,0.0,-0.036222655,-0.01558064,
0.024374023,0.016767876,-0.01560324,0.06705999,0.013356402,
0.013614383,-0.017123159,0.07403273,-0.036356356,0.0,
0.022412889,-0.09192199,0.03949774,-0.050812628,-0.014841131,
0.01913551,0.0,0.0,-0.044203546,-0.05592065,
0.11103896,0.050525177,0.099270225,0.024775095,-0.021286502,
-0.08826543,-0.04491748,0.039686583,0.015868427,-0.03772763,
0.0,0.0,-0.065336935,0.11490724,-0.028607508,
0.048703674,-0.030344535,-0.03073997,0.01439753,-0.022766706,
-0.027717836,-0.038589068,0.015922323,0.0,-0.038185734,
-0.054508917,-0.020681664,-0.09599166,0.052384384,-0.044572078,
-0.033885155,-0.010933172,-0.044661883,-0.030574206,-0.042245425,
-0.06259956,-0.09869844,-0.06136539,0.0,0.0,
0.07074627,0.06936526,0.0,-0.09013689,0.11787751,
-0.0144226365,0.015721794,0.0,-0.061180923,0.044660185,
0.0,-0.021576734,0.041923948,-0.04594807,0.03737632,
0.04137335,0.0,0.034892004,-0.023624552,0.05524424,
0.03142904,0.059895776,0.0,0.02612629,0.0,
0.038120087,-0.067721136,0.025802225,0.0,-0.032551195,
-0.04937055,-0.056762576,-0.04630372,-0.021716377,0.0,
-0.03108029,-0.019085886,-0.030718345,0.05295262,0.051397324,
-0.07247203,0.05367236,-0.10666759,-0.016557522,0.031610604,
0.036099818,-0.035382792,-0.05252738,0.04665206,0.0,
0.0,-0.042490784,0.011746045,-0.016368374,0.03353754,
-0.04691693,-0.055350017,-0.04332841,-0.051438555,-0.024908362,
0.048498917,0.09996907,0.04464326,0.07895851,-0.04330985,
0.0,-0.033378754,-0.054933526,0.02160701,-0.08569252,
0.0417967,-0.011920511,0.031433947,0.011591318,0.026876165,
0.010221972,0.015093319,-0.08602078,-0.08161259,-0.11797036,
0.0582134,0.027920304,-0.038060162,0.027262557,-0.028821802,
-0.021173513,0.05058427,-0.015077224,-0.041076574,-0.023652662,
-0.0278508,0.026899336,-0.041414842,-0.03157101,-0.05219802,
0.0,-0.04610413,-0.080997154,-0.036041427,-0.04051175,
-0.028474381,-0.08195059,-0.026067795,0.031998083,0.01569511,
-0.044385906,0.0,0.06070733,-0.023932425,0.010269886,
0.0,0.0,0.0,-0.013850709,-0.08222338,
-0.033148896,0.030815104,0.09538575,0.021407984,0.0,
-0.061214488,0.030997124,-0.13202149,-0.045115523,0.03239062,
-0.0176631,0.047688954,-0.07813816,-0.02682548,0.073316984,
0.063578516,0.014472665,0.065323785,-0.015455066,0.02779105,
0.0,-0.068249926,0.02165061,0.0,-0.038784314,
-0.05986369,0.029313145,-0.017182069,-0.043546956,0.0133391125,
0.012107944,-0.07100779,-0.02480637,0.0,0.050884675,
-0.03577131,0.0,0.037482716,-0.018294701,-0.014132892,
0.049286295,0.058676403,-0.09084245,0.0,-0.03928086,
0.043241408,-0.10050761,0.09381343,-0.092498936,0.10923704,
0.011957206,0.07573874,0.010466762,0.0,-0.08769134,
0.036811154,-0.016412409,0.0,-0.09926225,-0.045372237,
-0.013625585,0.039482735,0.0,-0.023250502,-0.017614396,
-0.040907383,0.0,0.016875148,0.04195646,-0.05964143,
-0.037672743,-0.077808455,-0.013357496,0.058224253,0.014868747,
-0.0467866,-0.072174564,-0.010066832,-0.0125320805,-0.018835781,
-0.0100125065,0.109793596,0.0,-0.078382954,0.0,
0.032881185,0.067025095,0.0,0.026517296,0.04892897,
0.0,0.06762885,-0.021802649,-0.06928269,0.07078977,
0.0,-0.027695606,0.015796576,-0.07622394,0.04250476,
-0.104824126,0.07795072,0.0,-0.09784129,0.09253235,
-0.025269503,0.027134817,0.030745218,0.028310616,0.031870082,
-0.04473526,0.03874089,-0.028896892,0.051026702,0.017211193,
0.011520756,-0.053376835,0.010153811,0.0,0.023700897,
-0.012370297,0.014829174,0.05339488,-0.057551645,0.07702834,
0.14447083,0.020845443,-0.0754737,0.03452479,0.042794745,
0.04035557,-0.113174,0.0,0.0,-0.06370312,
0.03576323,0.0,0.0,0.0,0.058747593,
-0.07913611,0.050696857,0.06289004,0.07589702,0.0,
0.0,-0.037082694,-0.035860773,0.025142241,-0.056727983,
-0.040786173,0.16272473,-0.014942216,0.047256052,-0.08623182,
-0.05007367,0.071902186,-0.07806896,0.0,-0.016297914,
-0.018469902,-0.08642607,0.0,0.014114513,-0.01176869,
0.013677755,0.015712293,-0.07262412,-0.04941297,-0.061190225,
-0.03131193,0.05132337,0.026837904,-0.034700066,0.09183257,
-0.02862114,-0.03942776,-0.05485169,-0.059223805,-0.07172514,
0.022286952,0.010124543,-0.043426376,0.04853602,-0.028656337,
-0.026832085,0.057207834,0.028473591,0.0,0.047676187,
-0.031655572,0.05798299,0.08759267,-0.07078698,0.10277718,
-0.032976434,0.0,-0.062539764,-0.07743495,0.078850634,
0.043832626,0.083431065,-0.016048903,0.0,-0.06038242,
-0.018167522,0.01566224,-0.0467881,-0.022044374,0.042310294,
-0.012672237,-0.0377912,0.0,0.0,0.0526115,
-0.019412428,-0.035674926,-0.036526036,0.0,-0.040875893,
-0.10630289,-0.07120065,0.0,0.0,-0.034294482,
0.0,0.019085744,-0.057020374,0.042585235,0.020088114,
0.035775404,0.060137037,-0.024259223,0.0,0.0,
0.04756239,0.0,-0.022158716,0.07343965,-0.021458875,
0.0,-0.016038092,-0.017538525,-0.021842385,0.0,
0.016126558,0.0,-0.042712424,0.06589342,-0.011615212,
0.0,-0.028809281,0.010015466,-0.027252331,-0.040492777,
-0.0840686,-0.05677792,-0.035436515,0.0,-0.03464887,
-0.061968077,-0.043839738,0.07350336,0.0,0.043770313,
-0.010951075,0.0,0.014354824,-0.014634593,0.01442609,
-0.05653935,0.0,-0.011298668,-0.039229967,0.01326245,
-0.104851134,-0.038162556,0.067229,-0.014785844,-0.022331363,
-0.049164735,0.0351959,0.02489881,0.0,0.029037483,
0.058523957,0.0,0.13746853,-0.026159022,-0.031033883,
0.024577847,0.021375254,-0.04678856,-0.04000692,0.03547727,
-0.0102811195,0.062698744,-0.068151295,-0.04680645,0.0,
0.029752765,-0.060255498,0.08142333,-0.060782045,0.044065073,
-0.011286467,-0.018414613,0.0,0.021226568,-0.026784243,
-0.04627852,0.0982178,-0.09334306,0.044631068,0.026311079,
-0.02236346,-0.017278124,-0.034473084,-0.02835657,0.022251016,
-0.010295074,0.0,-0.019877046,-0.07511696,0.030251933,
-0.024455363,0.01957916,-0.028546166,-0.01781541,-0.022863656,
-0.020784149,-0.017130062,0.06493501,0.0186657,-0.0287067,
0.016283592,-0.06340968,0.026313249,-0.112454966,0.018716523,
-0.017112872,0.0,0.117318,-0.042577103,0.0,
0.037465915,0.010369597,0.07683401,-0.011707766,-0.058636628,
-0.11877884,0.028442638,0.059446976,0.037560746,-0.040812384,
0.0,0.0,0.09140236,0.046756145,0.01368736,
-0.07912928,0.06788572,0.0232824,0.032138456,0.051813845,
-0.021665068,0.04192181,-0.0370908,-0.037894044,-0.04979931,
0.067452975,0.018314114,0.08036964,0.02339844,0.03706602,
-0.01700848,0.028865615,0.016016163,0.03982428,0.0,
-0.042429324,0.053661034,0.0,-0.053091887,-0.04048927,
0.037487086,-0.053383116,-0.031945594,-0.04009746,0.027026286,
0.030142099,-0.041034162,-0.016092455,0.010274337,-0.03324685,
-0.05116559,0.098928824,0.013842814,0.03996929,0.0,
-0.015498613,-0.018850084,-0.021911547,-0.12370024,0.0,
0.0,-0.03147997,0.06317846,-0.013929516,0.020098154,
0.0,-0.054199927,0.0,0.039491143,0.0766569,
0.094924524,-0.019625835,0.0,0.0,0.02882827,
-0.013730585,-0.047209337,0.065781794,0.02054206,0.088526234,
0.010571493,0.09916396,-0.0184924,0.045475777,0.044924866,
-0.041526683,0.0,-0.04336877,0.05673681,0.097403646,
-0.021786707,0.022995068,-0.010802923,-0.051169463,-0.010372288,
-0.09193544,0.0,0.0,0.10620858,0.0,
-0.04962012,0.0,0.04835349,-0.031134345,-0.06097925,
-0.05606142,0.043971647,0.0,0.02983303,0.0,
-0.03422662,0.0562021,0.030904546,-0.069193296,-0.052778743,
0.0,0.011341357,0.0,0.0,0.035445947,
0.028419588,0.04486497,0.0,-0.09153962,-0.031405415,
0.05500568,0.032145698,0.019418765,-0.030295666,0.09335271,
-0.032554265,-0.01633254,-0.017992923,0.028956905,-0.012829777,
0.0,0.01681873,0.09168451,-0.012896627,0.052225407,
0.042260256,0.021641145,0.061549835,-0.042668883,-0.017974297,
-0.058500666,0.015929626,0.042072233,0.0,0.060981713,
0.01836842,0.05009778,0.019574244,0.022788523,-0.033249855,
-0.033060845,-0.011499837,-0.011883425,-0.058935307,0.0,
-0.10008076,0.054126717,0.089374974,0.020309132,0.0,
0.0,0.066073745,-0.048319582,0.0,-0.054683883,
-0.089482814,0.0,0.011343109,0.0,-0.037721228,
0.042478736,0.028005952,0.029129744,-0.022441389,0.04915777,
0.0,-0.02999457,-0.050203443,0.0,0.11312895,
-0.08767612,0.028647363,0.021382134,0.0,0.06975489,
0.022177327,0.028961942,-0.054816008,-0.04838744,-0.067017436,
0.025421908,0.0,0.022675738,0.0,-0.02119582,
-0.057331797,0.026901376,-0.036677618,-0.034903973,-0.017058628,
0.016708419,0.0,-0.03766862,0.026204621,-0.013044518,
0.027179746,0.0,0.08271868,0.05237905,0.0,
-0.035314403,0.0,0.0,-0.020722803,0.03779894,
-0.015803846,0.042136602,0.067950316,-0.066116385,0.019498916,
-0.013486189,-0.031868894,0.04203571,-0.04691112,-0.011024376,
0.06883576,-0.0221874,-0.061677154,-0.018442232,-0.06988507,
-0.025773197,0.0,0.028140888,0.05414956,0.0,
0.059926324,0.043236207,-0.031352136,0.022029277,0.048209578,
0.03260088,0.04778003,0.03866445,-0.094063595,0.030954463,
0.014210241,0.021211883,-0.031083288,0.036104627,0.0,
-0.046059694,0.040971674,-0.026951544,-0.010599361,-0.09662559,
-0.054480232,-0.01542708,-0.02926851,-0.051053185,-0.020986518,
0.014706567,0.05385456,0.0,0.017210366,0.0,
-0.026571939,0.0,0.05044333,-0.07182234,0.0230326,
-0.07709572,0.0,0.018487852,0.040790446,0.0,
0.0,0.0,0.0,-0.030236201,0.066922605,
0.0254483,0.011572209,0.04900403,-0.02614258,0.0,
-0.046650987,0.04661589,0.06954239,-0.03651122,-0.02728659,
0.0,0.0,0.013694475,-0.020729423,-0.026596282,
0.0,0.0,-0.068990745,0.05376318,0.04270022,
-0.035310425,0.026153667,-0.0171666,0.0,0.03131692,
-0.031020824,-0.03182278,-0.04333578,-0.023201972,0.047813952,
0.0,0.0,0.0,0.0,0.06097345,
0.0,0.045618106,-0.036176145,-0.027781218,-0.05781663,
0.01814086,0.09140634,0.07631327,-0.040507123,0.039735608,
-0.054132,0.06422958,0.0,0.04833034,0.0,
0.05315796,0.046197325,0.0,0.015755128,-0.07149122,
-0.042871416,0.024354203,0.0,-0.010546649,0.0,
0.035590872,-0.039354086,0.048166342,0.033113036,-0.03511633,
0.07586738,0.117987394,0.049632046,0.055146873,0.020296365,
0.037142288,0.014110324,0.053957656,0.0,0.0,
0.0,0.09831391,-0.0265411,0.032069184,-0.08177994,
0.028807264,-0.094026655,-0.04436293,-0.08014365,0.021241171,
-0.056706853,-0.019051673,0.03507373,0.050444007,0.048821677,
-0.05784451,-0.0717203,0.011608976,-0.023474976,0.025230099,
0.06338721,-0.03423103,0.0,0.0,0.0332525,
0.0,0.030735457,0.04040167,-0.028127132,0.031283136,
0.020487968,0.0,0.019240636,-0.05579087,0.0,
0.0,0.057582136,0.050737094,-0.07324265,0.0,
-0.096758015,-0.01401658,-0.022820864,-0.034320515,-0.092336826,
-0.059776235,-0.067423835,0.010305264,0.031605788,0.090077825,
-0.053708777,0.019173006,0.025848951,-0.018389897,-0.018256309,
0.054336008,-0.024723455,-0.08682605,0.028541347,0.019463783,
0.047068432,-0.07567667,0.028849103,0.021706104,0.028285304,
-0.014136245,0.035366192,-0.020739224,0.047513254,0.028832234,
-0.03378496,-0.06521872,-0.051356263,-0.05766369,-0.033552922,
-0.057046525,0.0,0.04047095,0.025292449,-0.08837853,
0.0,0.070815265,0.049561787,0.0,0.0174376,
0.040993016,0.038237303,0.01800006,-0.072827674,-0.048106223,
-0.060433388,0.016345907,-0.047775283,0.018185245,-0.08916285,
0.028469106,0.04317841,0.018784745,-0.030166913,-0.027326617,
0.12538405,0.026434144,-0.016036114,0.0,0.04256056,
-0.025658315,-0.05106548,-0.072392315,0.050134297,-0.07717586,
-0.06250068,-0.096128225,-0.07700819,0.0,0.025882164,
0.033582583,0.07615822,0.025090452,0.0,0.018985359,
0.0,0.023769721,0.0156174,0.03236146,-0.01357496,
-0.04006605,-0.018175382,0.042741593,0.03514793,0.011397153,
-0.056534294,-0.04240733,0.026650663,-0.07989757,0.018654237,
-0.03133737,-0.045402188,-0.06108353,0.0,0.06076056,
0.01389972,0.07206355,-0.07194143,0.010140735,-0.015531997,
-0.07472324,-0.08076329,0.0,-0.08688747,0.053148475,
0.0,0.04115712,0.023487756,-0.03733888,-0.02707102,
0.06852489,-0.024578081,-0.045607664,0.0,-0.03161456,
0.022914648,0.013410181,0.010752778,-0.034324355,0.017849298,
-0.03363226,0.0,-0.078169584,0.0,-0.044090852,
-0.035684273,0.03161583,0.03630169,0.0,0.0,
0.0,-0.060992826,-0.034890484,-0.02120724,0.02677056,
-0.049282726,0.0,-0.06323273,-0.04551311,-0.0659845,
-0.09906021,-0.011114425,0.044929072,-0.028008312,-0.0479558,
0.0,0.013625432,0.07906642,-0.089837275,0.01091701,
-0.043061554,0.056916837,0.04788794,0.018029565,0.012299653,
-0.017605998,0.0,-0.025410635,0.0,0.0,
-0.040019803,0.04621614,0.011063647,-0.053792737,-0.022603096,
0.02451601,0.0,0.013946941,0.035662454,0.053269617,
0.023607908,-0.048115708,-0.061137855,0.033388596,-0.024728004,
-0.026036631,0.065330654,0.05627339,0.042059503,0.0105313435,
0.03826838,-0.0448829,-0.015409691,0.0225658,-0.03339389,
-0.10228103,0.09083651,-0.032445915,0.01732505,0.011578224,
-0.057623222,0.0,-0.021836108,0.0,-0.06912042,
0.0,0.03857015,-0.04234606,0.05084813,0.05667831,
-0.019816214,-0.02744518,-0.04798147,-0.048450176,-0.02945049,
0.026296483,0.016851382,0.023564203,0.050497014,-0.023233479,
-0.024607573,0.081361294,0.0,0.026119119,0.0,
0.07518718,0.08073167,0.012215778,0.0,0.0,
0.0,-0.011925303,0.013480707,0.040079936,0.024646584,
-0.024470517,-0.054301817,0.07695315,0.09449719,0.0,
0.010161127,0.02052186,-0.0646622,0.0,-0.09974512,
-0.044983163,-0.011018334,0.02369405,-0.019450605,0.0,
0.015096821,-0.05206465,0.029876702,0.024641072,0.0,
0.048622884,0.04110572,0.064003505,0.0,-0.0146792885,
-0.03960877,0.058754772,-0.0396938,0.0,0.0,
-0.046019252,0.030246379,0.06502327,-0.04352936,-0.052593477,
0.0,0.05430352,-0.033604,-0.099578016,-0.043325916,
0.0,0.09564663,0.0,-0.05397037,0.09345831,
-0.0537007,0.053329013,-0.04789191,0.0,0.035908394,
0.046454135,0.0,-0.019333087,0.058226373,0.0,
0.03947508,0.08059794,0.018584821,-0.031372145,-0.042253677,
-0.019687617,0.0,0.031122776,-0.057369728,0.031187225,
0.056391615,0.040922627,-0.036311537,0.0,0.031349793,
-0.049619727,0.0,-0.08912936,-0.014444725,0.0,
0.019921178,0.03263125,0.025577437,0.0,0.038134597,
0.01510447,-0.043771505,0.0241962,0.0,0.0,
-0.04475405,-0.017097183,0.19592199,0.032648154,-0.019470274,
0.013689934,-0.058492716,0.03469032,0.0,-0.03892053,
0.047574434,0.037748847,0.06621693,0.0,-0.03411753,
0.055879056,0.062453676,0.031798232,-0.017420352,0.0,
-0.029843356,0.051846802,-0.05452899,-0.0634236,0.0,
-0.06829162,-0.04452181,-0.03369454,-0.03163334,0.059348267,
-0.017778223,0.014820992,-0.045628265,0.028418817,-0.03641685,
-0.0559471,0.027393013,0.013809277,0.06652343,0.0,
-0.03478148,0.038840838,-0.017079428,0.02509563,0.046553038,
-0.035009034,0.03207313,0.0,0.020917658,0.017006632,
0.0,0.0,-0.036337394,-0.021438912,0.04339688,
0.0,-0.046788473,0.017103104,-0.050626896,0.09818873,
-0.013209593,-0.03031738,0.066706926,0.0,0.05851957,
0.028995171,0.0,-0.05137077,0.012644563,0.029038684,
0.047982346,0.07924927,0.024825517,0.02769912,-0.06878347,
0.01831884,0.0,-0.012075742,-0.043550007,-0.019150529,
0.0,-0.024824323,0.0,-0.01400993,0.0,
0.02737417,-0.061418355,-0.020341197,0.0154882325,-0.022656027,
0.043342855,0.018617302,0.0,0.0,0.07488289,
0.031896375,-0.04286317,-0.049570173,0.035108812,0.0,
0.027944405,0.02217557,-0.017456142,-0.051348954,-0.018173983,
0.029880311,-0.01729245,0.062082395,-0.06378703,0.0,
0.07260261,-0.033312235,0.094334446,0.0,-0.026288988,
-0.04076022,0.084726095,0.11757505,-0.050402347,-0.016783888,
0.036928684,0.026726093,0.027357033,-0.018956209,-0.05531585,
-0.021366071,0.026253404,0.018825723,-0.020180708,0.0814012,
0.0,-0.058738228,0.010465808,-0.06212074,0.08028903,
-0.05222575,0.035399824,0.06595506,-0.014454931,0.0,
-0.010767239,0.058273204,0.09275634,0.0,-0.023515683,
-0.049475454,0.02463044,-0.04543837,-0.062016614,0.014102196,
0.05882422,0.08329778,0.06820813,0.059602145,0.02500003,
-0.100877374,0.044445284,0.0430612,0.0,0.010347581,
0.043407414,0.06974804,-0.018851306,0.0148409065,-0.06661974,
0.0,0.0,-0.034229096,-0.013172947,0.01607642,
-0.038864676,0.052975386,0.043919105,-0.012699962,-0.023191756,
0.0,-0.025407715,0.019065743,-0.10803535,0.0,
0.0,-0.051400922,0.0,0.08467207,-0.032761075,
-0.054816574,-0.07980657,0.105291575,0.011224821,0.0,
-0.03441587,0.025626643,0.0,-0.06367743,-0.08715965,
-0.027091576,-0.033413615,0.0,-0.060344003,-0.06923854,
0.01559634,-0.033960532,0.09530135,0.07050127,-0.042147774,
0.011440143,0.036494736,0.0,0.0357559,0.0,
0.07175059,0.039712846,-0.017203093,0.04588618,-0.07691954,
0.0,0.057134878,-0.03783767,-0.046939727,0.0,
0.012338866,0.0,-0.09846229,-0.033032812,0.05273912,
-0.0589696,0.049098704,0.0,0.0114649385,0.024037378,
0.055033486,0.05769291,-0.018715592,0.035634,0.0,
-0.052543953,-0.04914515,0.0773314,-0.028263824,-0.03666596,
-0.015778802,-0.07961684,0.041526187,-0.06372038,-0.017123416,
-0.01254575,-0.06495179,0.0,-0.10645127,0.036617674,
0.0,-0.02651062,-0.051020652,-0.0443267,-0.040495217,
0.0,0.0180494,0.0,0.03716111,0.0,
0.06621578,0.022576712,0.0,0.0,-0.049102675,
-0.056509618,-0.054651048,0.033743743,0.05091811,0.06685626,
-0.032260943,-0.06440187,0.046297643,-0.04520279,0.017746346,
0.03389173,-0.029918313,0.013975748,0.08092794,0.035676543,
0.0,0.0,0.054069374,0.018350247,-0.024667185,
0.0,-0.08128052,-0.057864122,0.05029381,0.04464619,
-0.026041431,0.0,-0.05536027,0.0,0.0,
0.0,0.04175157,0.04510308,-0.018732175,-0.074669525,
-0.035474885,0.06015886,-0.01509486,0.042827103,-0.017886713,
-0.03512844,0.11312537,-0.044221465,0.015109776,-0.051463448,
0.0,0.026397055,-0.03899606,0.03634857,0.0,
0.0,0.0,0.047442686,-0.050724976,-0.03964451,
-0.041577715,-0.023009364,-0.0356752,-0.119729295,0.027015917,
0.0,0.035694025,0.044095933,-0.02927392,0.09660366,
-0.07371339,0.0157747,0.014350222,0.015355157,0.0,
0.0,-0.05495897,0.043760788,0.07250702,0.0,
0.0,-0.018290164,0.07968976,-0.024994157,0.07208117,
0.043862514,0.029035741,0.0221506,-0.031533778,0.0,
-0.01433962,0.03250421,0.0,-0.034682877,0.04794854,
0.02768921,0.0268855,0.014694462,0.13279356,0.01857388,
0.034185886,0.0,-0.019338746,0.01686521,-0.053390756,
-0.08437968,-0.036448825,0.0738968,0.0,-0.014874438,
0.07318266,-0.050457995,0.0,0.039264765,0.019845141,
-0.050681796,0.0,0.0,0.0,-0.01053941,
-0.031275585,-0.037934426,0.04855565,-0.035558615,0.062221162,
0.011789424,0.0,-0.027758162,0.03357232,-0.041585237,
0.0,0.032850944,0.038509976,0.0,0.0,
0.081211545,0.0,0.093183056,0.033401646,-0.10950685,
0.0,0.017869985,-0.032741632,0.013790739,0.013186838,
0.027542837,0.0,0.017668685,-0.014221416,0.020102164,
0.0,0.0,0.0,0.0,-0.032406487,
0.03205587,-0.079690166,-0.024414582,0.037366703,0.0,
-0.026466642,0.0,0.04050337,0.0,0.0,
-0.029324941,-0.05635136,-0.03831982,0.0,-0.058646847,
0.033754162,0.0,-0.02290161,0.0,-0.017075205,
-0.018165171,0.04637244,0.05296974,-0.08024562,0.012247222,
0.040798564,-0.050252832,-0.02217582,0.0,0.09527009,
0.0,0.05862155,-0.09739499,-0.014082831,-0.14364333,
-0.10877838,0.07200481,-0.04263685,-0.018476373,-0.0332083,
0.0,-0.018957494,-0.016825538,0.055760816,-0.06102054,
-0.042047426,-0.0293484,-0.016470712,0.0,0.057659056,
0.029302876,0.05366768,0.041768648,-0.041841958,-0.019164896,
-0.017149566,-0.013874242,0.0125922905,0.0,0.04513692,
-0.041543506,0.048619755,0.03622678,0.04138794,0.0,
0.0,0.0505568,0.0,-0.056027163,-0.039848886,
0.02958859,0.016213037,0.017265907,-0.04561753,-0.0694347,
0.0,-0.06556465,0.057654858,0.042971887,-0.090611055,
0.05755262,0.037658047,0.053183544,-0.052021526,0.08125624,
-0.030279616,0.0,0.045981094,0.025649384,-0.02125268,
0.03492359,-0.044500925,-0.06233831,-0.048806805,0.012745916,
0.0,0.045048054,-0.019532558,-0.051815394,0.056395642,
-0.07064166,0.052936926,-0.027111974,-0.015483182,0.012053369,
-0.040936045,0.065389074,-0.011707371,-0.08273273,0.070499755,
0.030488864,0.02630796,0.01743176,0.0,-0.038974006,
-0.017397594,0.058027457,0.046905093,0.039148055,0.024824442,
0.07255842,0.018461794,-0.039106365,0.0,-0.049471747,
0.043841295,0.0,0.047458127,0.0,-0.031201517,
0.025895167,-0.06941771,0.032437038,0.017985674,0.0,
0.0,0.0,-0.03684272,-0.05745539,0.07527062,
0.0,-0.017248102,0.027846007,0.0,-0.026474262,
-0.035314634,-0.09047062,-0.023287738,-0.04350332,-0.039820574,
0.027118584,0.03413315,-0.028804578,-0.012607302,0.082111366,
-0.04841388,0.10842912,-0.040858578,0.0,-0.034707487,
-0.010344327,0.03768422,0.03259241,0.031993534,-0.061209984,
-0.065409705,0.016665272,0.020383999,0.024830984,-0.011443969,
-0.03214204,0.016568528,0.017337108,0.019763552,-0.020121627,
0.045457426,-0.015442098,0.011208729,0.0,-0.02211415,
0.040102758,-0.0963212,-0.03119278,0.0,-0.041814506,
-0.02696312,-0.078161396,0.0,-0.014541047,0.04411174,
0.018877512,-0.026757222,-0.040632617,-0.022733536,-0.05605039,
0.0,-0.028840061,0.03250551,-0.089937985,0.09347901,
-0.051970918,0.012024897,-0.015049731,-0.021299528,0.0,
-0.038084224,0.013334259,-0.018371105,-0.019389482,0.09276636,
0.03029842,-0.020564327,-0.025098622,0.01847982,-0.01333898,
-0.08438056,0.016927151,-0.058991943,0.038764354,0.015226335,
0.014330917,0.0,-0.013896198,0.053017907,-0.03291166,
0.033004574,0.0794499,-0.028203504,0.05631558,-0.03458891,
-0.102082744,-0.027572004,-0.06599399,0.0,0.0,
-0.015443453,0.031089604,0.0,0.032811683,0.016387437,
0.03885615,0.0,-0.035730135,0.010796284,-0.030139163,
-0.035714526,0.049151942,0.0,0.0,-0.011040715,
-0.041355625,0.0,-0.011421747,0.036698766,0.09982454,
-0.06270982,0.03839899,0.07413652,0.0,0.0,
0.0,0.012575206,0.05741627,0.010507598,-0.048059974,
0.0,0.04510167,0.06296439,-0.016928993,-0.11332908,
0.0,0.03757589,0.0,0.0147326235,0.025633255,
0.060631074,0.094763234,0.0,0.0,-0.02257134,
-0.014230438,0.048075102,0.033484943,-0.016102301,0.034266353,
0.02226252,-0.078193195,0.05174504,-0.019388067,0.0,
-0.06519386,0.025198396,0.020500993,-0.023878647,0.058410965,
-0.066874735,0.02744411,0.044364687,0.036253504,0.0,
0.049588025,0.016034454,-0.028153408,0.03290913,0.036426313,
-0.04865153,0.03983968,0.070583224,-0.013125145,0.036753587,
-0.044604376,0.0,-0.0208003,0.044943936,0.015695289,
0.0,0.011107956,0.0,-0.026131975,0.012342869,
0.019157492,0.0,-0.043566283,0.060345955,-0.028229032,
0.019259304,0.012330837,0.03192551,0.014364119,-0.042697977,
-0.011850065,-0.016048046,0.020152468,-0.01263648,0.057952505,
-0.043612365,0.058227897,-0.012312581,0.0,0.020982217,
0.033432182,-0.111318536,0.0,0.015676469,0.0,
0.015560583,0.04740329,-0.032753095,0.01810499,0.0,
-0.010892102,0.016223455,0.0,-0.018925969,0.047402974,
0.0,0.0,-0.05178185,-0.14737098,-0.05012245,
-0.061508004,0.011265314,-0.016444905,0.014847193,0.029600104,
0.0,0.024139438,-0.05434827,0.022842735,-0.07925979,
0.0,0.024951722,0.019813763,0.03172558,0.013843485,
0.04054296,0.034546286,0.0,-0.029552316,0.06485535,
-0.077474944,-0.07027466,0.0,0.0,0.0,
0.0,-0.027011903,0.039177537,-0.038400657,0.019452212,
-0.07541855,0.08102244,-0.03502525,-0.017335016,0.013603028,
0.0,0.039931472,0.0,0.0,0.031699974,
-0.05195241,0.04602622,0.0,0.052790903,-0.054377005,
0.076575935,-0.044606775,0.020814916,0.01692606,0.029129053,
0.024788115,0.052983962,-0.033400424,0.03416332,0.07054108,
-0.070953526,-0.024080433,0.0,0.03479599,-0.08644091,
0.04885735,0.019941043,-0.037475802,0.019193873,-0.031018887,
0.014862424,0.03180524,0.0,0.0478736,0.049955383,
0.0275514,-0.023877813,0.036276273,0.0,0.023111537,
0.0531036,0.0,0.016593084,-0.04359523,0.03327034,
-0.05465991,-0.021905567,-0.02798819,-0.037819475,0.031784043,
-0.015665911,-0.044930506,0.015511749,0.0303908,0.0,
0.027884895,0.0,-0.06798326,0.0,-0.028071322,
-0.027051954,-0.012536616,-0.04888701,-0.09445063,0.03812561,
-0.03383267,0.016459595,0.0,0.021422947,0.07292824,
0.049578954,0.045021493,0.013454733,-0.06827434,0.026793884,
0.038503394,0.03056087,-0.013012976,0.0,-0.02458714,
-0.07821432,-0.029748188,-0.043401547,-0.011657882,0.050045863,
-0.08065048,0.028199345,-0.033759844,0.024368217,0.06978929,
-0.07993106,0.117959306,0.045995023,-0.052617226,-0.06286992,
0.026612757,0.02456431,0.03752116,-0.046610665,0.021811906,
0.017853225,0.08222092,0.07779341,0.02128987,-0.069243714,
-0.036758035,0.0,0.029786283,0.016464198,0.010349254,
0.059281167,-0.021903561,-0.04622168,0.036039002,-0.02558635,
0.04332626,0.0,0.018036064,-0.01746205,-0.10286117,
-0.056714322,0.02363805,0.0,0.07617318,0.028265122,
0.0,0.065875076,0.036526185,0.04295032,-0.016635936,
-0.07268077,0.014356541,0.038211085,0.018654529,-0.039829,
0.047377784,-0.033264782,-0.011248541,0.021841116,0.077770576,
-0.01673896,-0.056291297,-0.0729229,-0.03806391,0.07152077,
0.015261877,0.101634875,0.07888213,-0.07133163,-0.028508013,
0.0,0.09104814,0.0,-0.016865328,-0.020042047,
0.0,-0.03718816,0.0468427,0.022136563,-0.015400216,
-0.07913904,0.02341294,-0.081234,-0.052779876,-0.07033929,
0.0,0.03500266,-0.04788353,-0.036438067,0.081224576,
-0.084525295,0.028259475,-0.07957316,0.026582403,0.036292292,
-0.05273911,0.0,0.015897304,-0.040744446,0.04187983,
-0.026308214,0.027439011,0.076539725,0.05110145,0.025823615,
0.016801277,-0.01086297,0.015831431,0.043714438,-0.014755871,
-0.037778206,0.023745365,0.0,0.0,-0.054902956,
0.018648818,-0.03868516,0.027998187,0.020619066,0.0,
0.012972845,0.06809291,-0.011395271,-0.02152458,-0.02766604,
-0.056675415,0.07003893,-0.020520326,0.020229656,-0.038012844,
-0.014926032,-0.055446267,0.022709945,0.0,-0.073588654,
0.0,-0.03226758,0.0,-0.015303893,0.0,
-0.048855763,-0.011047536,-0.047769174,-0.03834116,0.023553053,
0.0,0.0,0.0,0.0720342,0.0,
-0.042193964,-0.030358316,-0.012319168,0.0,0.0,
-0.036821283,0.058192223,0.031922195,0.017950254,-0.08472516,
0.012044929,0.057926405,0.0,0.0,0.020160686,
0.013006475,-0.016223425,-0.015787045,-0.06551617,0.075496666,
0.023235401,0.0,-0.0207579,0.010384278,-0.06928404,
0.028109837,-0.03716645,-0.021378994,-0.010008434,0.035847783,
0.0,0.023889681,0.0,-0.01300662,-0.02039965,
0.041452438,-0.018525181,-0.02299492,0.03804287,0.034035612,
-0.09497746,-0.024196353,-0.02237967,0.0,0.0,
0.03656761,0.031056158,0.016121317,-0.010001057,0.0,
0.061537303,0.03788608,0.03862246,-0.038695786,-0.013459151,
-0.025079362,0.0,0.1311163,-0.018243192,0.063954696,
-0.024560178,0.027117863,0.110966615,0.0,0.0,
-0.039494827,-0.018936513,0.02536113,0.06659053,-0.052468948,
0.0,-0.081427075,0.0,-0.03362787,0.070105255,
0.050318997,-0.014455029,0.043215442,0.0,0.0,
0.08380669,-0.078436635,-0.023959707,0.0,-0.019913504,
0.042791344,-0.03265262,-0.01544087,-0.016085848,-0.014340747,
0.042727914,-0.021395752,0.0,0.014215445,0.042274557,
-0.03108966,0.0,0.0,0.0,-0.06326715,
-0.013980671,-0.0678522,0.027129449,-0.06105707,-0.07048881,
0.017343255,-0.016342249,-0.06631687,-0.02910268,-0.02754673,
0.0,-0.057090648,0.052953888,0.0,0.13009281,
-0.027068233,-0.04106084,0.0,0.0,-0.08235209,
0.0,-0.016893158,0.0,-0.03010837,0.0,
-0.025507689,-0.082606085,0.0,0.0,0.026129508,
0.0,0.043230515,0.062693775,-0.016153384,0.0,
-0.054495163,0.039370447,0.06358863,-0.062280912,0.02118231,
-0.029048214,0.052085407,-0.06074576,0.0,-0.01225917,
0.02905808,-0.04694086,0.011688643,0.014430395,-0.06529507,
-0.067554235,-0.044989977,0.027309489,-0.050708428,-0.048528615,
0.05098056,0.054467466,0.022581683,0.01809567,0.044164926,
-0.034076262,0.0,-0.07885199,0.0,0.025317028,
0.0579737,-0.043890327,0.03672202,0.018784417,-0.02879731,
0.0,-0.06975827,0.022770483,0.039993715,-0.057487182,
-0.04456481,0.039467998,0.0,-0.046061408,0.0,
0.043743704,0.0,0.0,-0.08850616,-0.0671537,
-0.014909419,0.06634176,-0.013449263,-0.027159683,-0.06743622,
-0.05293681,-0.048283365,0.0,-0.032242205,0.0,
0.09838761,0.086471185,0.0,-0.01545895,-0.048978638,
0.0,0.0,0.018213626,-0.08004007,0.03335502,
0.034309182,-0.06699835,-0.010330533,0.08718526,0.011001948,
0.017839791,-0.015785687,0.024562743,0.023707947,-0.0722287,
-0.012416387,0.0,0.024899738,0.0,0.0792092,
0.05669836,0.0,0.017831512,-0.06210927,0.0,
-0.035751715,0.034310523,-0.022444472,-0.02980621,-0.017891185,
0.04123023,-0.017690757,0.027221052,-0.053469226,0.0,
-0.018162392,-0.036709353,0.109329045,0.0,0.0,
-0.01473482,0.06695067,0.01301437,0.0,-0.07039643,
-0.043393705,0.072105914,0.0,0.0,0.0,
0.0,0.112938315,-0.02535336,0.013297025,-0.050405983,
0.0,-0.023356652,-0.04099642,0.046262383,-0.01579082,
0.035065833,-0.06040635,0.0,0.0,0.055855144,
0.0,-0.04137931,0.09202517,-0.014212079,0.029281931,
-0.031949405,0.016652893,0.03516422,-0.012119042,0.026286377,
0.03200971,-0.016813165,0.05326669,-0.02096067,0.0,
0.0,0.0,-0.02584671,0.05629562,0.0,
-0.015358118,0.06546495,0.03077161,0.012856828,-0.030390518,
0.0,-0.026738271,0.013115335,0.0,-0.04230793,
0.027592346,0.0,0.015909323,0.011971748,0.02314094,
0.01070184,0.03872212,0.0,-0.09908199,0.0,
0.01726555,0.038217656,0.0,0.011624998,-0.049216777,
0.043304,0.060423873,-0.025820877,-0.03362509,0.032818247,
-0.05465123,0.096988454,0.013015088,-0.034004256,0.023917904,
0.040452622,0.07427671,-0.039316453,-0.025026212,-0.036685254,
-0.074121565,0.018066447,0.035923555,0.0,-0.01569608,
-0.08376215,-0.052992813,0.046951473,0.059912633,0.0,
0.053354118,0.0,-0.01303433,0.0,-0.07213319,
0.0,-0.10885466,-0.0365575,0.0,-0.04693799,
0.0,0.0,0.06712973,0.047539707,-0.03314402,
-0.05334905,0.02473552,0.010644631,0.011858016,0.0,
-0.033341184,0.050700452,-0.026891515,-0.018510547,-0.045082383,
0.08417888,-0.014967565,0.05023373,-0.03310343,-0.06880788,
0.0,0.06519531,0.0,0.034300137,-0.07425681,
0.044980153,-0.04581006,-0.051602572,-0.021787,-0.032877624,
0.08842174,0.075477384,0.016857745,-0.038772263,0.012505394,
0.0,0.012736515,0.018630039,-0.10314935,0.060939215,
0.06346424,0.03647767,-0.018860409,-0.0714251,-0.031778876,
-0.026027964,0.057699054,0.010114172,-0.027678259,0.021700421,
-0.03172032,0.034938853,0.018450059,-0.10137614,-0.06921846,
-0.06448786,-0.013554296,0.0,-0.042232156,0.057926357,
-0.047889702,0.05862699,-0.09060922,-0.04391869,0.04546226,
-0.032530732,0.033097632,0.0,0.010713533,0.0,
-0.043603193,0.064852625,0.027641276,-0.023617594,0.044847973,
-0.053190988,0.108699284,-0.03851232,-0.011905687,0.03886693,
-0.05795473,0.0,-0.03812607,0.049194958,-0.021959407,
-0.011766809,-0.04026812,-0.018512005,-0.013250042,-0.039497383,
0.018687326,0.029770106,-0.028230663,-0.0111297425,-0.06541584,
-0.012599191,-0.010122586,0.031884577,0.041966107,0.03138066,
-0.036191378,0.0122956205,0.0,0.0,-0.036015853,
-0.01576582,0.024532825,0.08340528,-0.04582376,-0.022489298,
0.0,0.02147243,0.04809893,-0.04550704,0.039046492,
-0.034087542,0.015970932,0.03612363,-0.032755233,0.03523057,
-0.0698888,-0.039188296,0.11734783,0.05114731,0.032807227,
-0.045114357,0.044716496,-0.08435545,0.0,0.0,
0.0,0.059731696,0.0,-0.11358407,0.045528322,
-0.05719934,0.07321075,-0.023100847,-0.06980594,-0.033448644,
0.08484455,0.03945595,0.068458565,-0.07896513,0.018152906,
0.050179813,0.08139347,-0.033915218,-0.046115197,0.017397441,
0.0,0.040542156,-0.017354582,-0.0164269,-0.048210435,
0.0,0.064147785,0.014071369,0.0,-0.047814287,
0.027661126,-0.034657508,-0.031454273,0.022241844,-0.015249332,
0.020627312,0.056965023,0.1242908,0.024725879,0.0,
0.035041828,-0.017430978,-0.08802895,0.037846465,0.010278686,
0.04623102,0.039520428,0.0,-0.013078541,-0.032297593,
0.022097021,-0.04435981,-0.029833741,0.05755325,-0.041600097,
0.015989758,0.0,0.05423552,0.0,0.055977087,
0.01895075,0.013309842,-0.027556248,0.016010556,-0.065364845,
0.087827675,-0.036280833,-0.06118874,-0.04939599,-0.011207097,
-0.013215733,0.0398613,-0.036792714,-0.046360116,0.0,
0.0,0.0,0.04000624,0.0,-0.07022353,
0.027126797,0.057978448,0.020827882,0.04816072,-0.03768789,
0.0,-0.04290471,0.036056083,0.01852791,-0.07766418,
0.04856614,0.06734369,0.052916806,0.01181118,0.01626413,
0.03910722,0.0,-0.035018027,0.0,0.052756637,
0.0,0.050607007,0.0737939,0.04393815,0.0,
0.01754462,0.06971595,-0.03205342,-0.03322058,0.056952532,
0.07203008,0.04021119,0.036237698,0.0463683,0.07525063,
0.049940277,0.09275,-0.021353718,-0.03304076,-0.01192552,
0.043012623,0.0,0.010955689,-0.09761983,-0.06018314,
0.023179514,0.046707947,-0.020521902,-0.09425027,0.038078498,
0.015301932,0.045824494,0.014260453,0.0,0.030524967,
-0.012639493,0.07489586,0.02332303,-0.058812313,0.0,
0.09236077,-0.035353687,0.061836712,0.04594853,0.050223812,
0.03179694,-0.03706255,0.050538693,-0.039521698,0.019226912,
-0.06073349,0.0,-0.034571394,-0.05554334,-0.0243932,
-0.070051484,-0.025662737,-0.05884506,0.0,0.021745173,
-0.05873806,-0.06666805,0.0,0.016573563,-0.050298426,
0.07339956,-0.035936434,0.014658252,-0.052176926,0.01966313,
0.023441445,-0.05263059,-0.053248044,0.0,0.02527901,
0.0,0.04095776,-0.011733332,-0.05699714,-0.023315966,
0.0,-0.05271524,0.058537245,-0.07853924,0.0,
0.0,0.027062247,0.0286624,-0.022586947,0.037506707,
0.020890549,-0.088532634,-0.08946334,-0.033005256,-0.06415326,
-0.031811573,0.05143823,0.029282678,-0.13510285,-0.04302382,
-0.028258892,0.018776707,-0.019087123,0.040832445,0.08738303,
0.010602857,0.102651656,0.015893264,-0.07784126,0.0,
0.06714579,-0.01821556,0.049439564,0.0,-0.07033723,
0.0,0.0,-0.019483356,0.052160315,0.056872062,
0.0,-0.043661192,-0.03872361,0.08511496,0.0,
-0.015467174,0.06435935,0.043281022,-0.112634696,-0.041681938,
-0.010776261,-0.024588333,0.015531317,0.017624564,-0.04579735,
0.0,0.08939712,-0.017383719,0.12725176,-0.053660702,
0.049058806,-0.042393338,0.03039986,-0.075540945,0.044290077,
-0.013783147,0.032681063,-0.07898151,0.047341708,-0.13637538,
-0.037387762,0.0,-0.034106717,-0.03098838,-0.026634753,
0.027742954,-0.036484666,-0.027227728,0.03228368,0.031351298,
-0.012672842,0.076144464,-0.027588163,0.040151328,-0.057639938,
0.0,0.0,0.034144152,-0.08041388,0.018490631,
-0.020739222,0.04709049,0.06178894,0.0721798,0.0,
-0.035971917,-0.010045196,-0.0324446,0.0,0.013969166,
0.0,0.037407435,0.06694971,0.052316703,-0.06562176,
0.0,0.1280041,-0.10922068,-0.018973518,0.023899237,
0.02841068,0.051914852,-0.01595015,0.01366441,-0.033562604,
0.0,0.11836536,0.031100016,-0.0526156,-0.09085134,
0.017039418,0.07675848,-0.03539598,0.07058801,0.0,
0.09496849,0.017306363,-0.047517177,0.0,-0.045740996,
0.0,-0.025648631,-0.036288317,0.012732776,0.0,
-0.02222234,-0.0522148,-0.032563142,-0.024461493,0.086507,
0.039245706,-0.04841035,-0.04563895,0.02782494,0.043791823,
-0.04802706,0.013269506,0.02069737,0.0,0.019589063,
0.0,-0.047220714,-0.069769666,0.04980652,0.10751792,
-0.085398294,0.0,0.0,0.0,0.016903894,
0.09645708,-0.022181375,0.049215622,0.0,0.0,
0.0,0.07052523,-0.0126905665,0.0,-0.05500101,
-0.0310962,0.0,0.06984101,0.090201914,0.016509922,
0.0,-0.07444808,-0.03910577,0.06780315,-0.038027324,
0.0140764145,0.016263522,0.03149087,0.03114556,0.04991074,
0.0,-0.14794077,-0.02019877,0.02979719,0.0,
-0.07220721,0.038924158,0.0,0.038168274,-0.053014837,
0.047641158,-0.05254929,0.06643648,-0.04485371,0.026326627,
0.033954944,-0.03391226,0.06384947,-0.03950085,-0.06608948,
-0.028244223,0.0,-0.070664965,-0.071781516,0.058760084,
0.07896436,0.0,0.0,-0.06409353,0.04297896,
0.07245071,0.011750616,-0.017654467,0.03141849,0.0,
0.08809602,0.04049623,0.097953215,-0.0903983,0.03821301,
0.01711704,0.06771454,0.024561869,-0.05625907,0.0,
0.044894457,0.017447619,0.040917426,0.0,0.0,
0.03141058,0.034489572,0.019020032,-0.045388345,-0.078243144,
0.033608824,0.0,0.0892387,-0.0105081,0.037323266,
-0.04061293,0.025580095,0.074680716,-0.08731815,0.100430205,
-0.011606267,-0.0461334,-0.05844648,-0.038626853,0.045062516,
-0.050982326,0.011310791,0.039165482,-0.013521038,0.010828882,
0.054943167,-0.045058303,0.06627112,0.018906528,0.0,
0.040230162,0.027761534,-0.027368184,-0.028282171,-0.044394147,
0.02805745,0.0,0.0,0.031777546,0.0,
0.022411967,0.01950663,-0.087091826,0.018531438,-0.054695215,
0.015363418,0.014542756,-0.07279278,0.03762544,0.049894445,
0.01847774,-0.03348421,0.029638954,0.05162793,-0.030726679,
0.036814604,0.05500137,0.0,-0.05543935,-0.089585155,
-0.016514864,0.0,0.022433512,-0.06063389,0.045963675,
0.023180908,0.08425529,0.025420671,-0.052959073,-0.022915019,
-0.047879443,-0.012676586,-0.06036173,0.04439296,0.0,
-0.021506062,-0.030884244,-0.030425288,-0.09317987,0.07097871,
0.041850742,0.013655891,-0.045228224,0.0,0.03929676,
-0.045431737,0.03871208,0.044309866,-0.054232307,0.04437771,
-0.042937994,-0.031831417,-0.027188336,0.0640706,-0.0142996255,
-0.02259994,-0.0123831285,-0.02887911,-0.09188525,0.036822762,
0.0,-0.011594451,0.0,0.053707577,-0.062133662,
0.013636523,0.08250755,-0.060279887,0.01974261,0.06660523,
0.030366248,0.04682582,-0.03711305,-0.050153535,0.0,
0.0,-0.06805857,-0.021044213,0.10469368,-0.0418297,
-0.021825468,0.017211946,0.0,0.052806962,0.036794346,
-0.05731953,0.08471998,0.010761702,-0.026548909,-0.04508597,
0.010832721,0.028240312,-0.020816611,0.019672427,0.01987051,
-0.035263922,-0.07436121,-0.056458622,0.0,0.0,
0.01670189,0.0,0.02364154,0.0,-0.03021473,
-0.0524135,0.06837678,0.0,0.0,0.029702261,
-0.03044915,-0.060456723,0.08689879,-0.047940258,0.0,
0.0,0.032086316,0.0,-0.033494808,0.021539703,
0.0,-0.044155456,0.03275905,-0.045158964,0.051098578,
0.016333409,-0.02722753,-0.01530556,-0.03740873,0.031029578,
-0.015613277,0.0,-0.086656846,0.026863793,-0.04415392,
-0.053016048,0.012459235,0.06954239,-0.03311291,-0.028003082,
0.046406563,0.07160658,-0.05291123,0.016539384,0.044609156,
0.0,0.0,-0.055712827,0.0,0.020626416,
-0.04135222,-0.011240063,-0.031330027,-0.025302393,-0.044515986,
0.049667127,0.043827098,-0.111753695,-0.03884228,-0.033539854,
0.019414563,0.0,-0.032251187,0.03622441,-0.06388258,
0.0650121,0.03374951,0.06037142,0.0,-0.030708885,
0.0,0.06435939,-0.037024125,0.023392545,-0.083061025,
-0.010357008,0.07621451,-0.014784085,-0.027257957,0.014441916,
-0.036663197,-0.03816632,0.09790438,-0.048119646,0.043244384,
0.074321,0.0,0.028371958,0.026925642,0.07537005,
0.08819194,-0.050698202,-0.023589974,0.014966108,0.0,
0.0,-0.016413355,-0.020523455,0.05338742,0.022061761,
-0.070354864,-0.067950025,0.07966533,0.036241625,-0.02346044,
0.0,0.0,0.03203989,0.039723676,0.0,
-0.038583066,-0.020355528,-0.08078277,-0.04108838,0.0,
-0.038333837,0.0,-0.05634766,-0.056596417,0.03300161,
0.050603155,0.065791085,0.026370047,-0.09640971,0.03690178,
0.0,0.011421009,0.0,0.10322807,0.018733013,
0.036500324,-0.051463094,0.0,0.0,-0.031704087,
-0.08160593,-0.033301905,0.05974977,-0.032230906,0.0,
-0.03173046,0.03094176,0.062492564,0.038122497,-0.04698132,
0.06161446,0.0,0.09052005,-0.014162569,0.028582823,
0.074529156,-0.025027145,-0.010340694,0.04111105,-0.017738886,
-0.026479857,0.05326437,-0.07621526,-0.020663772,0.028691476,
-0.094616875,-0.04237533,-0.047819845,0.0,0.0,
-0.022726014,0.111887045,-0.11705037,0.0,0.013108206,
0.015856737,-0.06443105,-0.021995403,-0.039566286,0.0,
-0.074746855,-0.108045004,0.029318629,0.0,0.033066783,
0.044058967,0.06225185,0.019805731,-0.07907433,0.0,
0.116922796,0.012107498,-0.05380284,-0.029415317,-0.011067812,
0.06650232,0.04878199,-0.081572846,0.02535792,0.0,
0.0,-0.023476936,-0.037147585,-0.09803038,-0.054075245,
-0.07223041,0.0,0.0,-0.073622674,0.041895017,
-0.0413308,0.029319454,-0.034861375,-0.018200412,-0.06116747,
0.017968144,0.0,-0.039760694,0.012456765,-0.034774113,
-0.056958836,-0.028979514,-0.06794676,0.0,0.12577975,
0.027438434,0.030766703,-0.034648523,-0.02990731,0.0,
0.043979537,0.034370832,0.06618085,0.0136698475,-0.03235251,
-0.06683428,-0.063947864,0.0,-0.076115966,-0.029980844,
-0.04034096,0.10199924,0.025020367,0.0359244,-0.109170005,
-0.018892271,-0.04353283,-0.05333094,0.027235879,-0.025322137,
0.07009289,0.061934713,-0.059062567,0.0,0.0,
-0.03856983,0.0,-0.062571734,0.03144552,0.026453286,
-0.0360478,-0.029821735,-0.032651786,0.033933774,-0.05297382,
0.051966045,0.0400092,-0.013672366,-0.03117636,0.0,
-0.03362422,-0.018947253,-0.09005133,0.01809217,0.101980336,
0.014616423,0.0,0.029282093,0.016365662,0.016205752,
0.0,-0.017220637,-0.053001467,-0.013242357,-0.05212815,
0.036302418,0.013935644,0.049417876,0.011702485,0.01822651,
0.0,-0.010977539,-0.02159809,0.01873677,-0.11484789,
0.023958882,0.06766689,0.016505055,-0.028345251,0.0,
0.0,-0.042288046,-0.040659714,0.07554315,0.0,
-0.033463795,-0.063496575,-0.061715424,-0.046078295,0.03433718,
0.0,-0.05730465,0.025272438,-0.040182605,-0.089580335,
-0.015973238,0.0,0.07150026,-0.09681851,-0.017079415,
-0.04156268,0.0,0.0,0.07893358,-0.01241819,
0.047517747,-0.058210332,-0.040407192,0.06488938,0.010676286,
-0.032871135,-0.022386534,0.031031098,0.028282914,0.04336205,
-0.030043883,0.036863085,0.0,-0.032415017,0.0,
-0.028592644,-0.014717532,-0.028154988,-0.014517444,0.034263693,
0.038351495,0.0,-0.042114113,0.060329918,0.01791439,
0.051318485,0.0,0.029210715,-0.017008152,0.0,
0.0,0.0,0.0,-0.01189925,-0.095350884,
-0.049407773,-0.015434111,0.027336797,0.0,0.0,
0.019591073,-0.051960204,0.025673224,0.012432002,0.0,
0.0,-0.026399162,-0.034953322,0.07221188,0.038860604,
0.0,-0.031008951,0.13003936,0.061618987,0.03578627,
0.028684795,-0.03159818,-0.027454996,-0.041758556,0.10542691,
0.0685698,0.040689565,0.0,0.02937611,0.03573219,
0.057298973,-0.033266958,0.026197495,-0.053962015,0.037570514,
0.047286686,0.028797023,-0.0151250055,0.037253626,0.045440234,
-0.0148574505,0.074162,-0.038432892,-0.03511183,0.06674447,
0.067890756,0.048606716,-0.013843654,0.022745486,-0.03213225,
-0.0318857,0.0,-0.04146554,0.07055625,-0.0530947,
-0.02040688,0.06807316,0.06032401,-0.05043287,0.01902555,
0.0,-0.05464068,0.024727475,-0.042912,0.0,
-0.011414517,-0.010042656,0.021351239,0.021760391,0.0,
0.0,0.011592468,0.0,-0.026451109,-0.010180447,
0.0,0.0,0.03558722,-0.016081607,0.019240431,
0.010045113,0.019733315,0.0,-0.022597548,0.031736676,
0.05713276,-0.10231869,0.09227284,0.06875667,-0.018189734,
0.047140777,-0.04285911,0.0,-0.0115929125,0.022608532,
0.056259558,0.08600517,0.0,0.010315793,0.06677967,
0.0,0.050651453,0.06954621,-0.015064854,0.04675221,
0.0,0.0317456,0.010717185,0.0,-0.068403855,
0.028866297,-0.015286776,0.019182166,-0.042266738,-0.04238099,
-0.036590002,0.0,-0.066190265,0.0,0.0,
0.049507577,-0.027125277,-0.05000276,-0.013388435,0.0,
0.043264464,-0.10353431,-0.13294372,-0.07077029,0.0,
0.0,0.0,-0.02203395,-0.030641804,-0.03956702,
0.050550535,-0.03999809,0.0,-0.08277423,0.09231951,
0.0,-0.010143027,-0.040725898,0.0,-0.04109685,
-0.054168437,0.019898828,0.0,0.016039934,-0.015842611,
0.034072693,0.02333538,0.0,-0.030928586,0.0,
-0.10030769,-0.07387064,0.017443597,0.07098276,-0.060378253,
-0.03618207,0.018424913,-0.057934716,-0.07241181,-0.11805655,
0.0,-0.0130357295,0.08634428,-0.041646626,0.0,
0.0893865,0.031416602,0.0,-0.06037076,0.04408901,
0.048206035,0.022292048,-0.028683031,0.08820167,0.0,
0.019042367,0.02526181,-0.054211903,-0.08087005,-0.1012328,
-0.042585455,0.04064009,-0.021765124,-0.06994679,-0.04174453,
0.042155363,0.0,-0.046998627,0.04764838,-0.019505631,
0.01567903,0.06155494,-0.019371482,0.025425944,-0.031912107,
0.0,-0.015988898,-0.05240196,-0.046176538,-0.0100673465,
0.055249047,-0.014589997,0.0,-0.10917144,0.0,
0.024688307,0.017240392,-0.012158631,-0.047616467,0.084154025,
-0.035546456,0.01049804,0.0,-0.012760069,0.0,
0.0,0.028132096,0.0654128,-0.06127818,0.04990933,
-0.057324443,0.018600436,0.0,0.012511564,-0.03645112,
-0.016530542,0.0,0.0,-0.024708977,0.08254014,
0.027140414,-0.06143687,-0.062391654,0.0,-0.0126101775,
-0.062044576,0.01775375,-0.049023908,-0.091225944,0.018281361,
0.0,0.049715616,-0.022706557,0.032500666,0.01077717,
0.020965401,-0.033973906,0.0,-0.07178099,0.0,
-0.040882483,0.0,0.05595199,0.10428581,0.10428465,
-0.05092682,0.029821122,-0.12897316,0.010771299,0.0,
0.0,0.0,0.044700358,0.0,-0.0597901,
0.034922265,-0.050979603,0.04890219,-0.03289043,-0.047713373,
0.08858838,-0.011060275,0.018068383,-0.022661202,0.042557117,
-0.02145181,0.058779366,-0.05703563,0.05375505,0.05094415,
0.048183694,-0.050603334,0.059932917,0.078329444,-0.034815185,
-0.028183108,-0.038673297,-0.029472101,0.12967132,-0.050815817,
-0.029592656,-0.07964466,0.022867344,-0.07280505,0.0,
0.09382932,-0.06717986,0.06490312,-0.04687428,0.0,
0.047126416,-0.0213923,0.0,0.034601767,-0.024330249,
0.074566916,0.05487064,-0.08749307,0.0,0.050720982,
-0.011034031,0.1014955,0.026188,0.03655884,0.0,
-0.051811382,0.060098384,0.015050216,0.0517688,0.0,
0.0506966,0.026522849,-0.07354241,0.018490447,-0.034384694,
0.018007549,0.07026383,-0.01379752,0.038992323,0.01716277,
-0.047308426,0.05089771,0.0,0.037364714,-0.015230328,
-0.03528967,-0.04007474,-0.020841792,0.06684407,0.012663688,
0.0,0.08950887,0.017784478,-0.053774767,-0.027823893,
0.03538862,-0.01678591,-0.03443023,-0.019176997,-0.020164791,
0.0,0.043688934,-0.031870835,0.0,0.0,
-0.03396819,0.050391622,0.0,-0.022584995,0.0,
-0.055868637,-0.017022425,-0.05700417,0.0,0.04636581,
0.045720074,0.0,-0.018718813,0.033066727,0.0,
-0.12061804,0.10024365,0.010571007,0.11698859,0.055094514,
-0.02145352,0.01992864,0.010277641,-0.043512724,-0.029720856,
0.0,-0.033673238,-0.0554907,0.039728098,-0.030437863,
0.013219608,0.051985662,-0.042049214,0.04340487,0.0,
-0.067448355,-0.03788062,-0.10278474,0.047803435,-0.02821843,
-0.057607092,0.018040333,-0.026899943,-0.045313172,-0.03253564,
-0.070049316,-0.0848227,-0.06250871,0.0,0.029060056,
-0.018985916,-0.050295174,0.0,0.039587267,0.0,
0.037027594,0.0,-0.031596296,-0.04029556,0.0,
0.018244809,0.034705594,0.0,0.0,-0.029707521,
-0.11142689,-0.0244158,-0.059560362,0.118516766,0.0,
-0.022346044,0.049770445,0.025059562,-0.02389497,0.06372869,
-0.032951295,-0.09279099,0.020869663,0.033695694,0.0,
-0.029432498,0.010597329,0.09620068,-0.058089945,0.014710288,
-0.07059295,0.0,0.01836124,0.06949866,-0.046295732,
0.0555783,-0.029663285,-0.018459212,-0.026133077,0.05097537,
-0.025351683,0.0,-0.04214534,-0.050135694,0.08201219,
0.072218835,0.033206914,-0.010937106,0.0,0.016733978,
-0.04127166,0.051520765,0.060375858,-0.029183038,-0.021139894,
-0.014101243,-0.037483595,-0.012413651,-0.06664262,0.0,
0.044957075,0.0,0.047567677,-0.07881711,-0.023100369,
0.0,-0.023134442,-0.031406887,-0.024325775,0.0,
0.0,0.023139056,0.031310778,-0.03969498,0.014807945,
-0.031019935,0.010135917,0.04101437,0.0,0.055068467,
-0.041762516,0.043596502,0.022047369,0.0,0.031665925,
-0.05069234,0.0,-0.08560548,0.0,-0.049555767,
-0.04510402,-0.024207605,-0.014857751,-0.021963978,0.0,
0.0,0.042372808,0.044294264,0.020446137,0.077231124,
0.027160542,-0.08538406,0.017444717,-0.026845377,0.05728793,
0.0,-0.040305294,-0.029081706,-0.05706633,0.0,
0.018812297,0.028550321,0.012989371,-0.018396009,-0.03609602,
0.03803426,-0.01881161,0.026981186,-0.020939553,0.050970823,
0.05534202,0.07148232,0.0,0.031116894,0.023275541,
-0.033424225,-0.09255343,0.033652835,0.02683327,-0.04975954,
0.062045947,-0.062967144,0.0,-0.031518996,-0.042026263,
-0.037826464,0.06542699,0.03319889,-0.015350323,-0.095007494,
-0.090005375,-0.023490718,0.03135747,0.0726278,-0.02599754,
0.07266348,0.0,0.04925947,-0.0503358,0.07680685,
-0.083308674,0.0,0.055003416,-0.038591605,-0.040374476,
0.0,-0.061157394,0.02599307,-0.06656749,-0.04498297,
-0.041539866,0.0,0.046925265,-0.053128503,0.020763641,
-0.05231847,0.014325283,0.09387907,0.029107692,-0.044810224,
0.032015834,0.010837797,-0.093348496,-0.048505,-0.07172052,
0.091677345,0.057075255,0.0,0.044565126,0.065439194,
0.024248628,0.010744917,-0.037790094,-0.050544553,0.0,
-0.012449076,0.032163978,-0.07157228,-0.0342347,-0.028660484,
-0.076227255,-0.06306832,0.042229448,-0.039798032,0.056163616,
-0.010404316,0.027098749,0.0,0.05416321,0.039659593,
-0.044001404,-0.081983365,-0.012142628,0.0,-0.06656843,
0.0,-0.010375992,-0.037643667,-0.021992614,-0.011186279,
-0.029971827,0.048384912,-0.028116051,0.036539156,-0.04662929,
-0.08636232,0.013291542,0.03616177,0.0,-0.041612674,
0.0105866995,0.010297943,-0.08422385,0.01415393,-0.025107618,
-0.032815326,0.0,-0.025027208,-0.08814967,0.0,
0.0,0.10008644,0.01018359,0.0,0.08403393,
0.0,0.04258032,-0.019630574,-0.039473467,0.01634861,
-0.021826848,-0.016481778,0.020269137,0.08397358,0.0,
0.04878505,0.0,0.018745719,0.03209246,-0.073316045,
-0.015647132,0.0,-0.077164404,0.03907746,-0.085009195,
0.04067345,-0.0757396,-0.0413992,0.058720738,0.02222922,
0.01326566,-0.032795757,-0.015044038,0.0,-0.06654311,
-0.037890565,0.0,-0.03837888,0.0,-0.014922786,
0.018176612,-0.09682578,-0.023601726,0.070733026,0.0664722,
0.02486257,-0.07759383,0.05402193,-0.013969336,0.0,
0.0,-0.055330973,-0.10565381,0.0,0.022867901,
0.024462683,-0.05414428,-0.06312078,0.04690888,-0.02087658,
-0.031358443,0.0,0.019677954,-0.037537307,0.06438325,
0.016279567,0.055983,-0.05259339,-0.08526859,0.02231564,
0.016884303,-0.08967354,0.0,0.047126155,0.031111898,
-0.03499643,-0.023055451,0.030226639,0.0,0.012034511,
-0.0127471015,-0.08228361,0.015656395,-0.04127821,-0.06782663,
0.0,-0.025750656,0.0,0.023425542,-0.044948876,
0.0,0.078165315,-0.014353942,0.0,0.0,
0.0,-0.056889452,-0.026170995,-0.011121375,0.10214698,
-0.06968467,0.03307608,0.0429874,0.058368027,-0.092987604,
0.06719125,0.0,0.047756672,0.0,-0.031222502,
0.07708169,0.0,0.033069637,-0.06906251,0.046027977,
0.0,0.0,0.08657311,-0.0131697375,0.047448657,
0.04318139,0.026095958,-0.035515834,0.0,0.046008643,
0.06931209,0.010117968,0.05315117,0.046833973,0.034873143,
-0.086980335,0.06355304,-0.022562567,0.025181914,0.030179577,
-0.057869337,0.034742564,0.014317008,-0.024463411,0.05490425,
-0.06348082,0.030108364,0.025470002,0.0,0.03862444,
-0.049673393,0.0,0.03103152,0.025805788,0.0,
-0.05168904,0.03755709,-0.029797545,0.0,-0.042916927,
-0.08821162,0.015567359,0.0,0.07468002,-0.10153381,
-0.010447506,0.04420014,-0.023350706,-0.020795047,-0.06334267,
0.046062596,0.05468047,-0.026505578,-0.053550843,0.017913885,
0.047511004,-0.012045103,0.04257209,-0.052459083,-0.03301165,
-0.083329804,-0.03754298,0.0,0.0,0.070583835,
0.057382118,0.0,-0.046205673,0.046598043,0.0,
-0.018198738,0.03049253,-0.081603914,0.0,-0.026755048,
-0.06552444,0.0,-0.10590811,-0.032676265,0.0,
-0.038113434,0.013188827,-0.0500007,0.03797827,-0.03616293,
0.047105853,-0.09851693,0.0,-0.05489556,0.052545577,
0.03391997,-0.11254112,0.012234494,-0.010914606,0.06480912,
0.06210056,-0.059704144,-0.011531389,0.04966211,0.0414404,
-0.039058633,-0.098852664,-0.027520867,-0.030512158,0.04561905,
0.08265976,0.029680712,-0.05739291,-0.024282275,-0.021865783,
0.0,0.011900183,0.0,-0.08834926,-0.021538686,
0.08735431,-0.011466408,0.040544186,-0.012452097,0.12390989,
-0.019351859,-0.01380393,0.0,0.034647584,0.018724838,
-0.037236854,-0.038903575,-0.011896421,-0.03494609,0.034957685,
0.031194087,-0.049419343,-0.088893615,-0.053380366,0.016267695,
0.037458554,-0.049770102,0.04033181,-0.028294291,0.0,
-0.02412452,0.0,0.0,0.0,-0.03858108,
0.059291888,-0.025221774,-0.036698796,0.0,-0.0745775,
0.0,-0.01921442,-0.029989494,0.02864495,0.011826652,
-0.04412071,-0.023687432,-0.011124069,-0.048602536,0.012661535,
-0.04850791,0.016278708,0.019177739,0.04254134,0.056517337,
0.0,0.084442504,-0.018393096,-0.028939655,0.017874362,
-0.073443964,0.06647448,-0.018608397,0.0,0.037155814,
-0.027267296,0.042412978,0.05977162,-0.014837213,-0.016157586,
0.0,-0.017942058,-0.01110292,0.015436877,-0.04531799,
-0.0327469,0.05083853,0.0102229975,0.019399304,0.0,
0.0,0.0,0.043943156,0.015351924,-0.035905145,
0.042104885,0.0,0.0,-0.030755281,-0.039478797,
0.0,0.016050285,-0.015459388,0.0,0.033433147,
-0.07988617,-0.07941966,0.090428,-0.039228022,0.02494435,
0.032628726,-0.05158223,0.022291807,-0.119717985,0.0,
-0.011107608,-0.032052554,0.0160333,0.043964744,0.030701501,
0.031888727,-0.06953499,0.03834022,0.09495022,0.04096637,
-0.09877212,0.037546027,-0.055295687,0.05344072,0.0,
-0.08326292,-0.05214618,0.013123924,0.0,0.0,
-0.091797896,-0.026138002,0.0,0.0,0.09732642,
-0.016203042,0.0,-0.045231756,-0.03139803,0.0,
0.035496593,-0.019975137,-0.050772276,0.074449964,0.029083712,
0.0471927,0.011995388,0.0,0.0,0.0,
0.031600256,0.037427906,0.073953964,-0.059083723,-0.10141286,
0.02242812,0.018703772,-0.021754181,0.03237037,0.06799287,
0.02657655,-0.012405218,0.023867315,0.0,0.0,
0.0,-0.03362063,-0.013064239,-0.062198076,0.0,
-0.024116766,-0.058281925,-0.037648596,-0.024117582,0.05533241,
0.032658022,-0.025841286,0.050939802,-0.016620211,-0.022999208,
0.017801728,0.012323489,-0.04297417,-0.03306501,-0.010130481,
0.0,-0.02698209,0.05100514,-0.041312788,0.0,
-0.025717186,-0.050156355,0.0,0.013418883,0.03917412,
-0.0583885,-0.017629921,-0.020540355,0.06174113,0.021607684,
0.02229778,-0.022659076,0.019743659,-0.057009757,0.034305044,
-0.028222758,0.02434558,0.04362113,0.09938628,0.0,
-0.022037003,-0.06363142,0.0,-0.08713691,-0.05930559,
-0.050780103,0.07939941,-0.058431882,-0.06575178,0.029153965,
-0.025500605,0.0,0.043506723,0.0,-0.03415618,
0.034818366,0.05506044,0.0,-0.02942428,-0.013750684,
0.02695626,-0.036765657,0.0,-0.027877785,-0.047397174,
-0.045013417,0.0,0.092195794,-0.026100498,-0.109059684,
-0.024193652,-0.05728243,-0.020715179,0.012844713,0.0,
0.056284163,-0.017122207,-0.09974578,-0.015403253,0.075756766,
0.015070899,-0.03153986,0.0,0.06996989,0.0,
-0.048045643,0.018543417,0.086494416,0.0,0.0,
-0.03544851,-0.020910349,0.065932624,0.031221876,0.060769696,
0.0286212,-0.055256624,-0.069517866,0.0117024975,0.0,
-0.02490299,0.016609084,0.06494783,0.07007832,0.0618751,
0.0,0.08699419,-0.04012535,0.04199138,0.017477376,
-0.051677734,0.05046429,0.0119263595,-0.05163547,0.013024938,
-0.021100704,-0.065488525,0.021931434,0.018129818,0.018326523,
0.0,-0.038419742,-0.07156701,-0.023577616,-0.07096996,
0.022300694,-0.09612632,0.026536027,0.023672612,0.0,
0.0,-0.077357516,-0.03788876,0.0295461,0.036242377,
-0.023781598,0.07143105,-0.06240463,0.039839175,0.016197374,
0.029785285,0.027021544,0.013051983,-0.041883558,0.0,
0.0,0.03394964,0.0,0.017437428,-0.011478259,
0.0,0.03721717,0.043712053,0.07080051,0.06730703,
0.045215514,-0.0128274895,0.0,0.027836239,0.011762066,
0.0529982,0.0,-0.054268107,0.0,0.04476313,
0.023082275,-0.03247322,0.0,-0.059722193,-0.02930948,
0.045964167,0.012276226,0.035809133,0.051715385,0.029635329,
-0.04435298,0.020064944,-0.024286399,0.03101105,0.042534884,
0.0,0.04412801,0.07912276,-0.014172165,0.028911898,
0.015878875,0.0,0.0,0.033085495,0.08001186,
0.0,-0.01785661,0.046520818,0.05298383,0.022712437,
0.043622877,-0.11716762,-0.026887393,-0.036480315,0.027302863,
-0.041783333,-0.03562709,0.0,-0.02516804,-0.015553878,
0.0,-0.1266142,-0.054750305,-0.027628401,0.0,
-0.05639915,0.022676691,0.05617838,0.023281045,0.05309746,
-0.0650371,0.0,0.0,0.034014393,-0.03978915,
0.0,0.020079264,-0.01302739,0.0,-0.080386914,
-0.06369986,-0.02521562,0.09072612,-0.02370749,0.0,
-0.017109327,-0.06640631,-0.041184973,-0.028650332,-0.051782522,
0.015254843,0.04954047,0.013339253,0.037367374,-0.024486424,
-0.04836878,-0.042929992,0.011344735,-0.024126597,-0.061691202,
0.08578359,-0.033612423,0.025916815,-0.0314231,0.0,
-0.065677725,0.056950737,-0.026657114,0.0,0.048045028,
0.039052323,0.022593483,0.07592073,-0.035293132,0.05460028,
-0.029976359,-0.06753749,0.016922513,0.0,0.06558606,
0.0,-0.0356582,0.033525806,-0.019018248,0.024192348,
0.033759706,0.06749205,0.0,0.028803667,0.0,
0.039987054,0.022689927,-0.09453386,-0.045724668,0.041816834,
-0.031512804,0.025407555,0.0,0.0,-0.024786817,
-0.029662127,0.044547983,0.0,0.02629231,0.022071071,
-0.010596739,0.012746914,0.016906552,0.015835373,0.09109078,
0.064281985,0.057711706,0.06314247,0.01167063,0.06131125,
-0.033543296,-0.03951345,0.0,-0.032797668,0.092490084,
-0.08183788,0.0,-0.014826727,-0.049065422,0.015080315,
0.015530654,-0.055082,-0.014794786,0.022351157,-0.021029748,
-0.025316067,-0.07978779,0.055620234,-0.011591328,0.057367656,
-0.064531796,0.021223472,-0.043917354,0.015989691,0.027398786,
0.075324886,-0.04528218,0.0,-0.050159104,0.09104178,
-0.011114242,0.011962785,0.049285166,0.025512848,-0.015978344,
-0.012227724,-0.07970374,0.0,-0.015491293,-0.032996967,
0.058698837,0.028436633,0.050935686,0.017186413,0.0,
0.04259115,0.026541073,0.028216308,-0.059928678,0.047598235,
0.0,0.0,0.044490088,-0.06666735,-0.032119356,
-0.059930455,-0.04794299,-0.025625017,-0.02025241,0.031699754,
-0.022180865,0.013442051,0.0,0.036531735,0.0644663,
-0.011150276,0.0,0.045539364,0.015598616,0.0,
0.022313925,-0.05454339,0.04857564,-0.028711377,-0.011270135,
0.0,-0.040926136,0.02808662,-0.010038977,0.011178465,
0.034884177,-0.070835285,-0.01387545,0.06385023,-0.050527327,
0.01614213,-0.030032318,0.02638082,-0.029934198,0.049059153,
0.06887012,0.013376884,-0.012381054,-0.055770423,0.015575584,
0.0,-0.039247658,0.012691439,-0.06804893,-0.011552597,
0.043697618,0.018617513,0.0,0.036846925,0.10679911,
0.09211474,-0.010854341,-0.049258735,-0.077874675,0.0,
0.022359937,0.020338502,0.0,0.0,-0.064250566,
-0.039226044,0.08558314,-0.02461036,0.037760083,0.011417764,
0.1462739,-0.043865193,-0.04134221,0.04747181,0.05457856,
0.0,0.027334323,-0.022472344,0.016876237,0.03863675,
0.038888127,0.026121149,0.026230639,0.054079615,0.012763262,
-0.02935466,0.08692118,0.024228906,0.06343308,0.0,
-0.033033535,0.013942759,-0.014165626,0.0,-0.019475866,
-0.04822943,-0.01480213,-0.06303641,-0.024380635,-0.04083759,
-0.022579364,-0.014440982,0.029724872,0.052307587,0.0155193405,
-0.028507758,-0.018080218,-0.025230562,-0.033780538,0.0,
0.050218523,-0.011093926,0.048488565,-0.041892063,-0.06279952,
0.053749885,0.0,0.021961682,0.0,-0.037794758,
0.040946137,0.01113467,0.02170059,0.037602805,-0.016019663,
0.06657511,0.07763764,-0.073114246,0.05062372,0.052040048,
0.04912852,0.0,0.054649834,0.0,-0.040986247,
-0.06325787,-0.07957473,-0.09633206,0.0,-0.072869316,
-0.06998435,-0.08805265,0.036857117,0.028213302,0.026268668,
-0.03137806,-0.022136306,0.077857375,0.0,0.0,
0.03244845,-0.05625571,0.0,-0.019263186,-0.033467546,
-0.102251835,0.012796475,-0.07564801,0.05096587,0.0,
-0.023006275,-0.026371893,0.057646293,0.055529296,-0.059841234,
-0.0144190295,-0.05734729,0.05868432,-0.058693513,0.051396806,
-0.036131985,-0.018582884,0.0,0.02887404,0.0,
-0.021164339,0.01349558,-0.028952854,-0.03783126,-0.0102901375,
0.04582813,0.0,0.0,-0.030645879,-0.013608805,
0.04360951,0.03283232,0.042671166,-0.05328621,0.01626864,
-0.081525646,0.0357251,-0.053228408,0.057361547,0.020675588,
0.03078593,-0.025820859,0.0,0.02132785,0.03680683,
-0.011071536,-0.028245257,0.046698596,0.03310083,0.042530518,
0.06399464,0.0,-0.011605736,0.0,0.06484435,
-0.0761463,0.046427645,0.03553886,-0.07080449,-0.015170467,
-0.029903492,-0.038618643,0.058772065,0.0,-0.019513203,
-0.11358083,0.03668318,0.04273385,-0.11571019,0.037129086,
0.0843184,0.045794193,-0.020227658,-0.07004997,0.011551218,
-0.03651527,-0.024948964,0.018378152,0.017508756,0.0,
-0.033212166,-0.07190845,0.020997727,-0.017061593,0.039094795,
-0.03083014,0.013479607,0.0,0.0,-0.052813973,
-0.05914675,0.0,0.053481825,-0.01874983,-0.03740186,
-0.07612632,-0.03219589,0.0,-0.023012754,0.030476132,
-0.014599996,-0.011158535,0.017353281,0.020394228,-0.03865788,
0.07618705,-0.034232065,0.043003272,-0.036888182,-0.05985119,
0.031475745,0.03216909,0.0642789,-0.021135628,0.022046283,
-0.01536512,-0.08870058,-0.07448514,0.033536818,0.044699363,
0.015019675,0.0,-0.09528704,0.044577792,0.022270529,
0.014065083,-0.055054612,0.028852249,-0.08949195,0.04506947,
0.050771356,-0.024268711,-0.059189737,-0.07848495,0.0,
-0.050402105,0.025649475,0.037457325,0.0,-0.029229153,
-0.052716464,0.0,-0.046912085,0.07057275,0.013471666,
0.0,-0.10585274,0.0,0.0150773525,-0.02413493,
0.0,-0.06202504,-0.023171563,-0.055709105,0.041510917,
0.08966749,0.012179638,0.0,0.053241074,0.013163552,
-0.028739791,-0.0177348,0.0,-0.026566427,0.0,
0.027505198,0.04166478,-0.0154440375,0.0,0.037980847,
0.0,-0.08952958,-0.03232071,0.025621798,0.0,
0.045969337,0.0377803,0.08387527,-0.019318067,0.04831328,
0.075418055,0.0,0.011838991,0.02423189,0.07464874,
0.09815757,-0.06784353,0.0,0.04761039,-0.012211065,
0.0900736,0.05523809,0.044786993,0.030028772,-0.027143162,
0.0,-0.016527094,-0.047396988,0.06069771,0.035049856,
-0.03184052,-0.023390139,0.0,-0.05327898,-0.056795735,
-0.052417886,0.012934677,-0.072352245,0.0,0.014777126,
0.051934462,-0.05720816,0.037506815,-0.056143414,0.056356434,
0.0,0.0,0.017483857,0.04740356,0.024505826,
-0.0116659105,0.0,0.013501451,-0.046273164,0.0,
0.06974492,-0.010446021,0.014097101,-0.060917225,0.026611919,
0.07527712,0.028839948,0.0,0.024634467,-0.05824494,
-0.014668059,-0.022832546,0.0,0.017207146,0.022433974,
0.013904033,0.0,0.027458813,-0.045932867,-0.03497592,
0.0,0.0,-0.011153161,-0.05486901,0.033895805,
0.057197828,-0.05661406,0.05605906,0.030692928,0.03227042,
0.0,-0.05128255,-0.012400687,-0.079325214,-0.039793164,
0.058918677,0.031730723,0.03500313,0.043874055,0.0,
0.013927766,0.0,-0.019896753,0.011112694,0.0,
0.0,0.0,-0.05582541,0.07633812,0.0198116,
-0.02857437,0.010800047,-0.010219945,0.042053368,0.038838312,
0.032854702,-0.037745714,0.05818273,-0.03145882,0.045456,
0.018488394,-0.09648475,-0.031220127,0.022468876,-0.030838791,
0.0,0.09707013,0.074069455,0.011402298,-0.0204177,
-0.08452101,-0.048698436,0.051437043,-0.020135824,-0.12153356,
-0.05894918,-0.01545822,0.04255102,0.022658342,0.05428998,
0.057969343,0.011931751,-0.07183308,-0.04820089,-0.033546444,
-0.019146454,0.05517414,0.07818137,0.07992096,0.023306541,
-0.036367454,-0.053348836,0.03651601,0.035039097,-0.030844035,
0.0140200285,0.0,0.0,-0.049875125,0.0,
0.012060312,-0.037571967,-0.01213246,0.06626878,0.010465561,
0.0,0.0,0.0,0.036540736,0.0,
-0.09584188,0.054856814,-0.022400683,0.0,0.0,
0.035681423,0.016384719,-0.0135926185,0.0,0.012871923,
0.044281077,0.049493305,0.06618492,-0.016494399,-0.05064568,
-0.03102021,0.0,0.03086998,-0.049608182,-0.062234823,
-0.04313866,0.029504267,0.023520458,-0.03859901,-0.029047031,
-0.021023924,0.0,-0.06792002,-0.026770864,-0.043714594,
0.025486877,-0.086322345,-0.01337395,0.0,0.0,
-0.060590938,0.02918928,0.05356268,-0.027786456,-0.01599013,
0.0,0.022380922,0.022635043,0.077158764,0.021381956,
0.0,0.019268608,0.024843149,0.0,0.016071063,
-0.100407325,0.014749546,-0.01950956,0.010987271,0.0115923425,
0.0,0.0,-0.029544316,-0.0419593,0.058143497,
0.016055105,0.0,0.0,0.05150837,0.021791842,
0.0,0.0,-0.030733734,-0.013083514,0.049355075,
-0.030630568,0.044380676,-0.0952774,0.03522132,-0.028059756,
0.030138697,0.048018474,-0.042569198,0.0,-0.02896138,
0.0,-0.03282478,0.011585101,-0.09871835,0.08651897,
0.04146865,-0.09248276,0.0,0.0,0.07377896,
0.095816724,0.0,0.01587312,-0.026918195,-0.030658511,
0.03283478,0.0,-0.05196017,-0.024599545,-0.05505161,
0.0,0.033546608,-0.12193165,0.041239053,0.0,
0.018756276,-0.022740614,0.0,0.03935721,0.01275104,
-0.05811447,-0.06961052,0.024081107,-0.06100808,-0.028273294,
-0.013427282,0.0,-0.06624184,0.07932802,0.091917746,
0.011943794,-0.048900746,-0.08424993,-0.013257499,0.0140556265,
0.0,0.0,0.0,0.067460716,-0.031864688,
0.041547906,0.01658389,0.05681057,-0.030648073,0.0,
0.050651427,0.04437319,0.0,-0.0599722,0.06422308,
-0.0865471,-0.031993046,-0.06663459,0.0,0.035675637,
-0.024352277,0.064748555,-0.07132274,0.03496015,0.017874476,
-0.05085194,0.014309165,0.0,-0.036443874,0.0,
-0.056667466,0.024817308,-0.06640246,0.030492913,-0.031355515,
-0.043145213,-0.03184412,-0.019797998,0.05911,0.06449118,
-0.02039165,0.047994684,-0.06460924,0.0,-0.05821717,
-0.058165863,0.14406863,-0.030268576,-0.05001356,-0.069785185,
0.0,-0.05255835,-0.058731157,-0.15287307,-0.028213838,
0.03357426,-0.05211407,0.0760646,-0.038364403,-0.03996721,
0.11157527,-0.0647072,0.0,-0.0344692,-0.015294791,
0.03424056,-0.040554523,0.014583458,-0.05622305,0.019345485,
0.015950425,0.0,0.031144226,-0.0662405,0.017632179,
0.0,-0.05180053,0.099899106,0.018575015,-0.022378724,
0.0,-0.03517921,0.023664601,-0.035414167,0.0277303,
-0.057848662,0.0,-0.035472915,0.034750585,-0.051947758,
0.023480948,0.0,0.0786722,-0.028906344,0.025910683,
-0.047480542,0.0773083,0.0,-0.012620665,0.0,
0.0,-0.055161655,0.09196098,0.08245022,-0.04570763,
-0.076115675,-0.029182615,-0.05869135,0.017192226,-0.016277298,
0.013076676,-0.085779496,0.0,-0.0899168,0.06735044,
0.03698338,0.0,0.0,0.050022464,-0.05488235,
-0.011142577,0.030740533,-0.05679006,0.05572591,0.0,
-0.036479417,0.03802952,0.04890042,0.0,0.0,
0.04014972,0.08032129,-0.049939405,0.045157377,0.06396931,
0.046512816,0.09893009,0.0,0.027595948,0.015704105,
0.024375554,0.06588651,0.012982483,0.0,0.054587957,
0.058664862,0.061401367,-0.059288263,-0.024056435,0.0,
-0.06314169,0.014265312,0.0,0.0145144155,0.019129803,
0.018869914,0.027908396,0.0,-0.09832645,-0.057158936,
-0.03547519,-0.029933734,0.0,-0.024545718,0.023945885,
-0.02303861,0.043659266,0.066873595,-0.06604161,0.024714962,
-0.013764224,0.040862225,0.08410366,0.012719825,-0.011837569,
0.0,0.0,0.03475549,-0.038804367,-0.025512993,
0.011197417,0.0377881,0.0,0.0,-0.078638725,
-0.03263603,0.0,0.081652105,-0.068834715,-0.08133983,
0.0,-0.020731406,-0.021977287,-0.03249554,0.051933754,
0.0,-0.05095956,0.015732514,-0.05515775,0.023272047,
-0.04419372,-0.029030783,0.017491935,-0.047189284,0.0,
-0.056881245,0.12245327,0.035731286,0.08995205,-0.03249515,
0.054533623,-0.013285251,-0.021463534,0.0331302,-0.04335251,
-0.055008866,0.104669884,0.0,-0.01980737,0.06819879,
-0.04594313,-0.044515856,-0.025092391,0.013073019,-0.011416491,
0.028705364,0.077832825,0.0523447,0.0,-0.031017583,
0.0,-0.033969898,0.016886681,0.026202174,-0.05108359,
0.0,0.0,0.037089054,0.0,-0.035911288,
0.039975625,-0.044182654,0.0,0.016254151,-0.100641266,
0.08019104,-0.02619001,0.11351258,0.09928541,-0.058118537,
0.0,-0.122223035,-0.06519856,-0.0713755,0.0,
0.030349586,0.015060352,0.0,-0.0224035,0.0,
-0.035534695,0.0,-0.100577176,0.013321112,0.03189632,
-0.0109816305,-0.07001946,0.0,0.0685703,0.041588146,
0.07890894,-0.07633076,0.035493642,-0.012506251,0.04321012,
0.0,-0.0814335,0.015872484,-0.02972195,0.042758256,
-0.05406439,0.039839704,-0.03977288,0.0,0.060701765,
0.026758008,0.026568072,0.0,0.07443442,0.0,
0.020599406,0.013744497,0.07723911,-0.020278355,-0.040543433,
0.13055168,0.067887,0.045230716,0.0,0.0,
-0.024169084,0.03236796,0.0,0.01163442,0.011373725,
0.0,0.010639519,0.0,0.0,-0.060998492,
0.024586163,0.0145447245,0.06018285,-0.025780616,0.063366346,
-0.064775914,0.08772641,-0.048586223,0.023229498,-0.043631893,
-0.04175854,0.018428028,0.015302562,-0.13022602,0.018651169,
0.021243379,-0.05575533,0.024022842,0.010391414,-0.038211666,
0.0,0.0,-0.041063465,-0.04510452,0.0,
-0.018281098,0.014329609,-0.047877055,0.01916111,0.034529645,
0.0,0.0,0.030418893,-0.10282924,0.03856196,
0.06611029,-0.041684538,0.0,-0.075445674,0.0,
0.011244669,0.0,0.028361391,-0.14949025,0.03175033,
-0.01355046,-0.034628272,0.018711086,0.0,0.0,
-0.0627441,-0.058256637,0.012417708,0.019631868,0.0,
-0.025327712,0.0,-0.08175395,0.04883661,0.026117276,
0.0,-0.014613362,0.0,0.07303706,0.0,
0.029695373,0.065433666,0.0,0.010585363,-0.022871397,
0.016878897,-0.046449386,-0.023183437,0.0,-0.022867586,
-0.063246794,-0.010098005,0.11550604,-0.011433154,-0.0144261,
-0.052539296,0.046186846,0.052905194,0.028619368,0.062403303,
0.0,-0.039477065,-0.017661953,0.028276106,0.049085356,
0.0,0.081305675,-0.03138695,0.044147883,0.0,
0.0,0.030793928,-0.074538074,0.0,0.0,
-0.098282605,-0.023008063,0.06551758,0.07114277,-0.055321597,
-0.020575143,-0.040583886,0.060004555,0.0,0.022201685,
-0.07206532,0.07456413,0.023185693,0.04559876,-0.076849036,
0.05979482,0.0,0.07479291,0.013713991,0.05327839,
0.06532622,-0.059871912,-0.027535558,-0.07898045,0.025078973,
-0.060992476,0.05954698,0.02716404,0.0,0.064349234,
0.045687765,-0.016273156,0.010538191,0.058868047,0.0,
-0.06626587,0.050975908,-0.015275658,0.0,-0.0131898755,
0.11413097,-0.015263618,0.07505508,-0.07034191,0.030402571,
-0.027534192,-0.034412045,0.0,-0.038383864,0.038623985,
-0.07127267,-0.035047814,-0.055432834,0.027933037,0.0,
-0.036672585,-0.033487253,0.02448046,-0.014945543,0.0,
-0.044729926,-0.05789619,-0.0945681,-0.019103678,-0.019563131,
-0.068084314,-0.010017654,0.021613512,0.0,-0.09426131,
0.026251871,0.048831023,0.015728451,0.0,0.0,
0.0,0.067799866,0.054560453,-0.036159046,0.0,
-0.12023107,0.040375937,-0.094282314,-0.09880114,0.018418673,
0.049975578,-0.068756424,-0.017858384,0.0,0.045336187,
-0.05802362,-0.015609842,0.0,-0.07338121,0.0,
-0.028498039,-0.023149729,-0.030561505,-0.01719324,0.062869,
-0.05932581,0.03932503,0.0,-0.05902312,-0.06701359,
0.064804964,-0.050485704,0.025187379,-0.089147225,-0.043292664,
-0.012636584,-0.122652,0.011483607,0.06028442,-0.04098522,
0.053739976,-0.031120993,0.0840192,0.0992459,0.0,
0.0,-0.088617615,-0.04604211,0.0,0.029662618,
0.02806955,0.029160362,-0.11091293,-0.034737866,-0.04450565,
0.0,-0.025488084,0.029955097,-0.051492486,0.0,
0.0,-0.0536896,0.020842373,-0.03002804,0.0,
-0.02270496,0.035584867,-0.024890674,-0.0411935,0.058168225,
-0.0137066515,0.0,-0.027076434,0.028015343,0.0,
0.039545055,0.03958985,-0.043231055,0.0,0.031264536,
-0.029336056,0.0,0.0,-0.09390958,-0.11117863,
0.076753184,-0.020940084,-0.033639766,-0.015189039,-0.039687883,
-0.03882457,0.05122733,0.031151889,0.0,-0.04724314,
0.06571904,0.10321767,-0.018652031,0.042700574,0.09471934,
-0.07787951,-0.020749312,-0.043937016,0.019438522,-0.057871055,
-0.08814624,-0.016735798,-0.015320746,-0.024406957,0.03690194,
0.0,-0.06877069,0.06304489,-0.07453597,-0.021528779,
-0.043061014,-0.016037636,0.05947893,-0.08437174,-0.05455669,
0.0,-0.015914697,0.04335874,-0.041054543,-0.022700919,
-0.019786973,-0.058376294,-0.038715743,-0.108056925,0.09149472,
0.100648805,0.036125485,-0.057136457,-0.026740562,0.0,
0.088344105,-0.019858865,-0.012707162,-0.09832609,0.0,
-0.017716296,-0.029279036,-0.066908896,0.04302862,0.0,
0.010351189,0.0,-0.03360163,-0.01335288,-0.019304778,
0.045571063,-0.061133675,-0.067595,0.0,0.0,
-0.017662019,0.046304107,0.07155599,-0.07865147,0.02162365,
0.014739535,-0.013727345,-0.041844796,-0.032021973,0.02258647,
-0.011981478,0.053459626,0.020019326,0.0,0.05280933,
-0.049441036,0.031103076,0.041023992,-0.023120405,0.023852294,
0.0,-0.0553664,0.028962657,0.055342615,-0.018469611,
0.0,-0.038630333,-0.011483572,0.0,0.0,
-0.0139759015,-0.035120025,0.0,0.0726477,0.0,
-0.028320681,0.0,0.06877699,0.017879428,0.06884973,
0.04006668,-0.017889706,-0.027679838,0.071680635,-0.028752567,
-0.031739555,0.014317919,0.0227672,0.035443354,0.036840346,
-0.0114158755,0.0,0.0,0.0,0.07225092,
0.022074217,0.08928989,-0.08083859,0.01870748,0.09114217,
0.015193275,-0.040277913,-0.0103240665,-0.018053915,0.025744671,
0.069405764,0.026893966,0.02991305,0.038160328,-0.01832757,
0.07404542,0.060054842,0.06268965,0.034968443,0.012248576,
0.055450037,0.029621463,-0.04261672,0.013343904,0.0,
0.047975954,0.0,0.035033327,-0.07457683,0.016943475,
0.018136248,0.03713728,-0.05434347,0.060696073,0.09469675,
0.0,0.10009391,0.112758905,-0.065824814,0.0,
-0.04083318,-0.048559938,-0.028768973,0.02559217,-0.054737523,
0.0,0.044502843,0.03477517,-0.06559854,0.0,
0.11377255,-0.10679165,-0.031134551,0.03459368,-0.054435253,
0.05378406,-0.09707041,0.0,-0.06776661,-0.033054557,
-0.021443047,-0.033813626,0.036418565,0.013123694,-0.014208738,
-0.024818977,-0.015584847,0.047360547,0.019682784,-0.03226108,
-0.035468273,-0.015960008,0.030858401,0.028871162,0.022508483,
-0.015527658,-0.082784936,0.049900126,-0.02954963,0.042942006,
-0.044057515,0.031306412,-0.048959605,-0.027950102,-0.011770001,
-0.08036381,-0.02346641,-0.028788665,0.0,-0.025753217,
0.0,0.0,0.020018354,0.09111969,0.02866677,
-0.026049992,-0.030514475,-0.07657036,0.08767412,0.030510824,
-0.051801473,-0.07951627,-0.03314486,0.0,0.0,
0.0,-0.09788563,0.12874375,-0.045600228,0.0,
-0.012025783,-0.045583665,-0.06836838,0.0,-0.06507459,
-0.02845167,-0.052842546,-0.050780915,0.022810278,-0.055618614,
0.013510049,-0.08333561,-0.041577034,0.09415582,0.06512678,
-0.012084591,-0.08047638,-0.059849095,0.0,-0.02493026,
0.015789684,-0.09453162,0.0,0.055468537,0.0,
-0.04362728,0.010726886,0.0,-0.011028375,0.03264806,
0.046421453,0.0,0.026558219,-0.010764388,0.0,
0.0,-0.026022274,-0.083223976,0.0,-0.036344606,
0.0,0.0,-0.012255437,0.0,0.0,
-0.03967375,-0.014640816,0.034564056,-0.066415,-0.022419568,
-0.05301372,0.0175567,-0.01946196,-0.08973903,-0.06731095,
0.0971307,0.027018793,0.06889735,-0.04464341,0.022306873,
0.029677287,0.015003762,-0.03680313,-0.03532211,0.03588049,
0.021856396,0.010791586,0.028608887,0.02169856,0.035851486,
0.041077007,0.028263098,0.04213888,-0.07203242,-0.088637605,
0.07349149,0.0,0.021513905,-0.011723679,0.03608091,
0.021900801,-0.054918423,0.017160414,-0.031427935,0.022178553,
-0.10628709,0.08399198,-0.022510335,-0.010509668,0.023115931,
0.0,-0.05955237,0.0,-0.023701696,0.039835032,
0.0146495085,-0.025317555,0.0,0.021435447,-0.057392266,
0.024767157,0.033039324,-0.024840808,0.0,0.0,
0.011949422,0.0,-0.013984555,-0.0626434,-0.070472434,
0.0,-0.014956653,-0.038652766,-0.019005284,0.046642013,
0.06726237,-0.03866582,-0.033326924,0.05729076,0.096541315,
-0.05672969,0.014523802,0.019285124,-0.05315367,0.0,
0.022567235,0.0,0.0,-0.049146388,0.044586867,
0.012067092,0.0,0.0,-0.020979667,-0.010930375,
0.0,0.018208362,0.057360627,0.012926491,-0.036383655,
0.010050759,0.017333787,0.0,0.05382003,-0.034217212,
0.044244394,0.020662269,0.065746166,0.04648894,-0.014410494,
-0.09398586,0.013377526,0.113709405,-0.05030553,-0.012273816,
-0.04906422,0.0,0.0,0.0,0.053930838,
0.0,0.029021211,-0.011837451,0.02567353,0.012283197,
0.06087095,0.0,0.017448772,0.04811002,0.039914474,
0.0,-0.057945445,-0.032938708,0.045685995,0.048657853,
0.0,0.017557323,0.025036465,0.028660385,0.056064017,
-0.029372394,0.04989001,0.0,0.0,0.05342509,
0.04989046,0.0,0.0,0.025743907,0.0756677,
-0.01910619,0.051832777,0.06063491,0.03464098,0.022613201,
-0.029162105,0.077203505,0.0119492,-0.053738087,0.0,
-0.029948257,0.06143182,-0.011087745,-0.01838544,0.033634845,
0.062123645,-0.021744495,-0.04008991,-0.037357584,-0.045071967,
0.059746914,-0.07207651,0.025648551,0.0,-0.065161176,
0.0,-0.067025214,-0.010668207,0.085976474,0.0,
0.04285964,-0.03688543,0.07253317,-0.050471045,0.0,
-0.03195532,-0.018767705,0.048647553,-0.031785842,0.049601503,
0.044780947,-0.050644882,0.015368024,-0.012251301,0.0,
0.0,-0.027467454,0.021549048,0.06160369,0.021212084,
0.025802966,-0.035130087,0.0,0.01676407,0.0,
-0.055252936,0.053447206,-0.03713906,0.030347519,0.0,
-0.04414198,0.04806232,-0.03664635,0.016274933,0.047740933,
-0.01639036,0.051632274,-0.04575865,-0.09326469,-0.04518893,
-0.039558005,0.066784926,-0.017657023,0.013113761,0.0,
0.0,-0.07703632,0.0,0.0124527505,0.030157221,
-0.079501875,-0.08458447,0.037183445,0.037262242,0.018877663,
-0.022645395,-0.082012095,-0.03672711,0.025276816,-0.04861426,
-0.027979804,-0.063102715,0.01099196,0.0,0.0,
0.0,-0.082682796,0.07643231,0.11308175,-0.101111196,
0.01252158,0.051838145,-0.046425354,0.08838407,-0.013198369,
-0.012941395,0.017495355,0.021264972,-0.030539054,-0.021151967,
0.0557858,0.0,0.021956649,-0.016993962,-0.03513713,
0.016144717,0.049431205,0.0,0.05775821,0.07712838,
0.08754729,0.0,0.08376917,0.07544581,-0.06832614,
-0.02348089,0.0,-0.014765535,-0.04962777,0.05609773,
-0.01858736,0.023058599,0.022443492,-0.023026126,0.04100639,
-0.03206714,-0.010109046,-0.050653446,0.010137312,-0.040174402,
0.040486347,0.0,0.057221122,0.07459925,-0.024048416,
0.062718555,0.0,0.031080823,0.07741742,-0.05936033,
0.04156198,-0.033342294,-0.023209795,-0.036520764,0.054033946,
0.06867359,0.013652574,0.065245144,-0.01370204,-0.017558375,
-0.03128655,0.018673778,-0.045347877,0.0,0.014057971,
-0.032440443,-0.063157395,0.0,0.030102747,-0.061833475,
0.035576716,-0.084258154,0.03752823,0.021869728,0.04241137,
0.022580912,-0.034300804,-0.03132237,-0.07826286,0.015266869,
0.022577928,-0.055770677,0.011002339,0.0,0.0252717,
0.0,0.05307513,0.0,0.0,0.0871418,
0.0,0.09611309,-0.06763805,-0.04143515,0.044545513,
0.047626644,0.0,-0.078104086,-0.044195898,0.018054947,
0.037813637,-0.044413775,-0.094279625,-0.026650798,0.0414897,
-0.013282672,-0.052833878,-0.018113911,-0.035637416,-0.039622683,
-0.016086018,-0.03546113,0.0,-0.010660488,-0.09397643,
-0.011409823,0.0,0.0,0.013799672,0.010742108,
0.029601743,0.0,-0.017775806,0.0,0.012805259,
0.03742181,0.081329465,0.0,0.0,0.0,
0.03470458,0.08456228,-0.029169839,0.0,0.03408452,
0.040994912,-0.021240452,0.0,0.033972256,0.054697707,
-0.06846525,0.01966998,0.030803721,-0.053892188,0.0,
-0.053678628,0.06162893,0.016542718,0.070413314,0.04861804,
-0.023853114,0.0,0.0,0.05812654,-0.033052057,
-0.061072458,0.0,0.0,0.03064495,0.071860336,
-0.011751767,0.11250114,0.013185652,0.040873487,-0.033451784,
0.019829564,0.0,0.0,-0.102117024,-0.05418585,
0.0,-0.07161331,-0.058510054,-0.037415147,0.0,
0.05733276,0.010466767,0.0,0.11198702,-0.08395736,
-0.10510972,-0.055775937,0.08570825,0.05436163,0.08937499,
0.042110838,-0.021491867,-0.016664717,-0.029383099,0.015570586,
0.03563118,0.0,0.05837268,0.0,0.08482527,
0.023672491,0.03722812,0.05521592,-0.066061266,0.05882405,
0.0,-0.15338138,0.055316374,-0.06930718,0.0,
0.0,0.0,-0.06689784,-0.02827708,0.022350537,
0.016456367,-0.107205376,-0.025428973,0.0,0.0,
0.014617145,0.0,-0.0152267665,0.0,-0.010421855,
-0.07583264,-0.053680863,0.034722086,-0.011942805,0.039650824,
0.010220901,-0.066272825,0.0,-0.03243503,0.02972361,
0.0,-0.033643223,-0.031179545,-0.03180725,0.021592977,
0.04541835,-0.053701386,-0.09371803,0.0,0.0,
0.0422301,-0.05550516,0.06797674,-0.016325697,0.0,
-0.025156641,-0.043663625,-0.08733247,-0.040951386,0.0,
0.048256665,0.018361533,0.014442122,-0.029805772,0.0,
0.025836673,-0.05779564,-0.013327521,-0.027249059,0.047342267,
0.045502346,-0.08846711,0.03843614,-0.05246765,0.07158595,
-0.022808364,0.036045447,0.067507744,0.014643366,-0.059179064,
0.014878565,0.046024464,0.09702972,0.02729415,0.026534757,
0.0,-0.023399135,0.0,0.0125558,-0.016706258,
-0.051610425,-0.017035292,-0.051315688,0.0,-0.037533835,
-0.019897118,-0.02208881,-0.01222468,0.032647416,-0.0635286,
0.069167025,-0.048740905,0.033980727,0.012639538,0.0,
-0.06339838,-0.03540959,-0.026504248,0.013814421,0.0,
0.0,0.019074699,0.0,-0.035180267,0.024240892,
0.047377586,0.094485864,-0.03856127,0.09215549,-0.046039496,
0.049541593,0.0,-0.075704955,0.037757177,-0.07791815,
0.012547692,-0.05883808,-0.04809041,-0.013632873,0.032953702,
0.015185935,0.011113957,0.0,0.05454005,0.015512627,
0.0,0.0,-0.012765823,-0.042033017,-0.04955063,
-0.028064385,0.072916076,0.017250504,0.12681492,-0.029824242,
0.026621323,-0.05700995,0.03846585,0.0,0.030026933,
-0.04104083,0.016329924,0.0,-0.076986864,0.0,
0.0,-0.05102584,0.0,-0.030362863,0.025910888,
0.019201694,-0.031562906,0.040138625,-0.025527623,0.028746635,
-0.06826074,0.07183963,-0.07923249,0.031705834,0.02109642,
0.074402526,0.010535957,-0.12994651,-0.056727413,0.015357043,
-0.033050526,-0.043711603,-0.07973221,-0.08595731,-0.03879897,
0.09340256,-0.047689598,0.0,-0.03006519,0.0,
0.0,0.0,-0.09890103,-0.08387854,0.05603103,
0.075021975,-0.05320545,-0.092189565,0.022408508,0.0,
-0.029879555,0.020263884,0.016927054,-0.014339085,0.0,
0.0,0.0,-0.04771581,-0.06770191,0.050080784,
0.0,0.030859597,0.011645914,0.016963152,-0.037329834,
-0.03229213,0.0,0.011275144,0.0,-0.02108906,
-0.106063254,-0.03670195,-0.13186559,0.05124931,-0.06459395,
-0.03718975,-0.02778038,-0.015078409,0.043279823,0.0,
-0.048569873,0.013855161,0.0,0.034371912,0.080345586,
0.018798502,-0.017325956,-0.022396639,-0.0108909225,0.03603824,
0.0,0.0761365,-0.016490323,0.088995665,-0.088640325,
-0.026433121,-0.022258315,0.067627735,-0.028363286,0.063651755,
0.040079094,0.05947431,0.0,0.0,-0.04514301,
0.0,0.031828377,0.07250177,0.0,0.0,
0.023615832,0.015828859,-0.019768387,0.010935093,-0.023861049,
-0.038398568,0.032024466,-0.010036784,0.0,-0.018492894,
0.09959838,0.0,-0.053297933,0.047566038,0.04110755,
-0.03776711,0.014567162,0.0,0.029889481,0.02641703,
0.029027274,0.06095634,-0.016554588,0.028153159,-0.07932862,
-0.014938441,0.026370978,0.08645549,0.029571606,-0.07664936,
0.016531656,0.013865073,-0.014279513,-0.012464638,0.041109685,
0.033791963,0.0,0.05565486,-0.051163472,-0.04500141,
0.0,-0.018769387,0.070758246,-0.031827156,0.058408134,
0.05003098,-0.01838446,0.0,0.0109878015,0.0,
-0.042800084,-0.061709516,-0.016416578,0.049532462,0.04585085,
0.0,-0.04963318,-0.011540574,-0.027528642,-0.044099927,
0.0,-0.038692296,-0.106732465,0.042358484,-0.011993409,
-0.08451419,0.0,-0.015630065,0.041247718,0.036678042,
-0.026232967,-0.052204274,0.0,0.06026938,0.039032534,
-0.012677412,0.0,-0.01015447,0.022244968,-0.015385467,
0.012989998,-0.0680812,0.010352947,-0.0314862,0.016776992,
-0.022199463,0.028345587,0.0,-0.024110215,0.072701044,
-0.11347959,0.016868709,0.06685538,0.011866503,0.025765132,
-0.045724336,-0.050822992,-0.049088657,-0.036604874,-0.020859318,
0.03778446,-0.023808628,0.0,0.02506464,0.027437456,
0.04411296,0.015519759,0.0847055,0.0,0.055108935,
0.04224007,-0.030226283,0.0,0.033156183,-0.09809395,
0.04540077,0.068247564,0.0,0.04770942,-0.09337476,
-0.033244148,0.057806414,0.0,0.080965295,-0.025636895,
-0.11686933,-0.10909418,0.023741877,0.13019341,0.03578308,
0.023901336,-0.064670004,-0.084870815,0.0,0.034368515,
-0.017310059,-0.08270149,-0.058220282,0.05319092,0.06148387,
0.04653727,0.06317835,-0.056603447,0.0,0.020868544,
0.11904711,0.098008595,0.0,0.06017654,-0.047391098,
-0.0106103765,0.03381501,-0.08954716,0.0,-0.025416635,
-0.016513068,0.061216164,-0.07094854,0.041910622,0.050779995,
0.0195601,-0.03562788,0.03682434,0.07998168,0.05044401,
-0.05816428,0.08020725,0.0,0.10217547,-0.037221428,
0.0,0.036721725,-0.02458521,0.0,0.0,
0.029207366,0.023595106,0.02469433,-0.04835856,0.039855782,
0.067242734,-0.07331368,-0.032208078,0.07067625,0.0140889725,
-0.0392688,-0.01700974,0.0,-0.12497898,0.028073812,
-0.010663324,0.0,-0.048827857,-0.013789918,-0.026472095,
-0.0627932,0.032649253,-0.0568359,-0.08297225,0.024743024,
-0.014785764,0.016918086,0.019373342,0.0,0.073247924,
-0.018527798,-0.030302161,0.0,0.11379649,0.018678904,
-0.011054485,0.045242704,-0.032082845,0.036174927,0.041611146,
0.0,0.02182879,-0.0971731,-0.012922615,-0.013821536,
0.035447143,0.09073492,0.0,-0.040759373,0.0,
0.026401754,-0.055520732,-0.07309319,0.1055722,0.0167088,
-0.045273874,-0.01074408,0.038816933,0.09590258,-0.011028148,
0.021991985,-0.061923526,-0.055264067,0.01841915,0.121915296,
0.0,-0.07452587,-0.06975627,0.029220767,0.078699015,
0.038659234,0.057615206,0.0,0.024617907,-0.05412814,
-0.040427044,0.02951628,-0.013997503,0.0,0.031591594,
-0.015267886,-0.050997704,-0.028584007,0.1048218,0.0302128,
-0.030781446,0.031503133,0.0,0.034425844,0.03198536,
0.0,0.012555467,-0.027066596,0.010825717,0.04112367,
-0.036271285,-0.026924843,0.06544827,-0.04303592,0.015091213,
0.08893499,-0.03226927,0.062859826,0.0,-0.027684642,
0.043469056,0.0,-0.02491121,0.014984438,-0.060155023,
0.065186866,-0.0824527,0.09330547,0.061447825,-0.018932803,
0.010179028,-0.07493178,0.03664809,0.0,-0.062725775,
0.0,0.019349825,0.0,0.0,0.05780111,
0.05488604,0.059523325,0.02038433,0.029236741,0.03558445,
0.0,0.028060026,0.0,0.0,0.012913917,
-0.016224965,0.04563309,-0.04357316,-0.011590197,0.026827913,
0.05035759,0.0,0.0,0.0,-0.0131787015,
-0.05203971,-0.055551138,0.0,-0.06956538,-0.017159607,
0.0140581075,0.1031736,-0.012901981,0.0220807,-0.054577343,
-0.04825879,-0.034724288,0.05552025,0.041520204,-0.015364632,
-0.09802461,-0.036579512,0.10538709,-0.06100607,0.03333824,
-0.024734745,0.03633261,0.100593336,0.01060044,0.017751722,
0.01687716,-0.017047036,0.0,-0.01765508,0.022043634,
0.055258524,-0.059986275,0.018206539,-0.06275895,-0.01830591,
0.04164199,0.074386455,0.034805387,-0.022605399,-0.04433063,
0.0,0.011793861,0.025578965,0.03127712,-0.051109444,
0.062023744,0.021171158,0.024280736,-0.05173396,-0.05178766,
0.016540367,0.036419466,-0.06437981,0.10037,0.0,
0.0,-0.03363872,0.0,-0.026221998,0.015295579,
0.04994066,-0.052523892,0.014065499,-0.060829815,-0.03936922,
-0.05195858,0.018513516,-0.094319984,0.0,0.010282787,
0.0,0.026522309,-0.04537542,0.074711435,-0.023672998,
-0.03607298,0.015875336,-0.028907044,-0.015309843,0.0,
0.011062734,-0.032321386,-0.01546231,0.041684918,0.0,
-0.035851397,-0.031787235,0.03361543,-0.020493185,-0.08140459,
-0.052469973,-0.04237629,-0.050132547,0.076102145,0.030928906,
0.011728694,0.052034732,-0.07693393,0.0628516,0.026574248,
0.05587915,0.049114604,-0.060697272,-0.015717134,-0.02278216,
-0.06043926,0.0,-0.0403915,-0.028137272,0.042886022,
0.08795186,0.023744702,-0.06034716,0.06549284,0.12514944,
0.04482748,0.03678223,0.017983546,-0.011293811,-0.055415515,
-0.048071146,0.0162964,-0.020827768,0.034891754,-0.015209688,
0.0,0.0,0.08584268,0.034624983,0.043431345,
0.0,0.07509801,0.06934663,0.03371457,-0.037620395,
0.01177058,0.0,0.054366957,0.0969801,0.024608307,
0.0,-0.042152632,0.0,0.013868415,0.05079404,
-0.0742374,0.073603205,0.09838167,0.10087483,-0.10454037,
-0.06945591,0.070181064,-0.04472525,-0.06770039,0.010798887,
-0.023765488,-0.025330871,0.0,-0.021610806,0.10170625,
-0.04594302,0.09702132,-0.025075398,0.0,0.08312129,
-0.01503628,0.0,-0.037348818,0.0,0.043949876,
0.01666769,0.057647057,-0.08768153,-0.064400055,0.0,
0.090946026,0.08190237,0.0,-0.0101085715,-0.011648518,
0.070454106,-0.037316922,0.0,-0.054985378,-0.045227334,
0.028688923,-0.018620359,-0.024510974,0.06529167,-0.016027136,
0.028915497,0.0142862005,0.02102741,0.0,-0.03494672,
0.011369298,0.0148753775,-0.043011628,0.018095654,0.060460784,
0.030531693,0.028031556,-0.02836695,0.016090505,0.0,
0.051774085,0.029462883,0.020468445,0.057003275,0.055188894,
0.044346105,0.029220808,-0.03549896,-0.027255096,-0.105297714,
0.07648224,-0.050356742,-0.021374796,0.019863375,0.034282405,
0.020840114,-0.08181538,-0.083967336,-0.016026657,0.030054014,
0.079109475,-0.028281715,0.019124737,0.041784808,0.040650483,
0.0,-0.056355067,0.034597024,-0.017623754,0.0,
0.046302136,0.07357653,-0.01392626,0.0,0.022909783,
0.09995943,0.0364869,0.0,-0.013060185,0.026593644,
-0.010657609,-0.029899595,0.03487934,-0.020609075,0.05701121,
0.0118710855,0.0,0.0,-0.07652763,0.0,
0.0631531,0.04763981,0.015053259,-0.044657648,0.022086393,
-0.022883106,0.04114876,-0.070160836,-0.027082086,0.0,
-0.015200471,0.04885269,0.02870806,-0.0352265,-0.04000646,
0.029615447,0.085859574,0.020984305,0.0,0.024431882,
0.022069212,-0.024379985,0.0,0.0,-0.115002535,
0.083420314,0.03428374,-0.038863085,0.0,-0.08215004,
0.048660994,0.0,-0.016331695,-0.020327564,-0.04084223,
-0.023615573,0.0,-0.07569027,0.0,-0.020036403,
-0.012364952,0.02455829,-0.030629208,0.0,-0.061089706,
-0.05325733,-0.030497465,0.0,-0.121390246,0.0,
-0.024638735,0.046165567,-0.042902686,0.04383287,-0.058742724,
0.030186068,-0.03474529,0.022218578,0.04515989,-0.018039143,
-0.04783797,0.0,0.015330898,0.049403038,0.07651348,
0.03106773,0.043668553,-0.031437878,0.0,0.061411183,
0.0,-0.013466454,-0.046136327,0.03638478,-0.073987536,
-0.03753287,0.0,0.03311126,0.031188378,0.04565734,
-0.013705088,0.06461701,-0.08336659,0.039728273,0.0,
0.03655114,-0.0699437,0.040565148,0.06212208,-0.041055787,
0.03243673,0.017881872,0.0149500575,0.07926392,-0.020514773,
0.0,-0.032250058,-0.011845699,0.0,0.050835554,
-0.039336458,-0.044739634,-0.044873152,0.0,0.020758992,
0.047934584,0.010218314,0.053153977,0.07438035,0.0,
0.034491498,-0.011704668,-0.045335375,0.026322827,0.016146218,
-0.0312167,-0.025080917,-0.099602476,0.043746974,0.012367872,
0.0,0.0,-0.110128015,0.0,0.0,
0.046294104,0.014286447,-0.063838825,0.0,-0.043454617,
-0.055330507,0.013824455,-0.08212802,-0.022529047,0.08064167,
0.0266782,0.0554471,-0.055987317,0.09342504,-0.03426401,
0.015158522,0.021365952,-0.03254107,-0.06829744,0.09215169,
0.033977397,-0.030515594,-0.040088654,0.012167528,0.051575534,
-0.10326117,-0.010196371,0.0,0.06517624,-0.05359835,
0.0,-0.085379586,-0.059525702,0.1493269,0.0,
-0.05435767,-0.04462234,-0.043068007,0.04856037,0.048476137,
-0.034353428,-0.07276136,0.0,0.042228743,0.06479026,
-0.07816607,-0.055349518,0.034065932,0.16839004,0.0,
0.093264766,0.045529813,0.015632316,0.025965264,0.041201554,
0.0,0.024579532,0.0,0.0,0.0,
0.090218805,0.03629165,0.0,0.010739422,0.0,
0.041741922,0.054162342,0.0,-0.034637634,0.0,
0.028266441,0.0,-0.0122352,-0.017145656,-0.11739616,
-0.030120581,0.0,-0.049030118,0.06861028,-0.048056774,
0.0386357,0.034382075,-0.046744682,-0.023609452,0.06742552,
0.016144386,0.0,0.014283707,0.0,-0.021883775,
0.0,0.0,0.03276701,0.03323419,-0.02018179,
-0.04574705,-0.03625607,-0.060210936,-0.04278828,0.0,
0.014780731,-0.032694694,0.037694152,-0.053943947,0.0,
0.0139388675,-0.014258182,0.044860158,0.035190735,-0.025468701,
0.03075594,-0.033442616,0.0,0.014050915,0.0,
0.033804804,0.08891842,0.045016557,-0.063813284,0.012232371,
-0.047961775,-0.013265548,0.014993452,-0.0281055,0.059988398,
0.017906073,0.0,-0.0991672,-0.024246503,-0.022203775,
0.06154677,-0.013537611,0.07539363,0.06870999,0.04632965,
0.0,0.01789691,0.021655522,0.021185733,-0.06441389,
-0.063038394,0.0,0.04891886,0.054090515,0.021110464,
0.017158646,0.0,-0.055693224,-0.032014806,0.020300867,
0.021000642,0.020242458,-0.032770094,0.0,0.045533415,
0.0,-0.018514797,0.025919834,-0.010526717,-0.047556184,
-0.019681199,0.014295406,0.010800089,0.040313218,0.08061223,
0.0,0.018827021,0.03187612,0.0143175945,0.0,
0.01998467,-0.024908978,0.0,0.0,0.0648781,
-0.10787546,0.0,-0.011136682,0.021799533,-0.1528945,
-0.029257864,-0.05009583,-0.072096415,0.018711424,-0.016179841,
0.09293321,-0.04455187,-0.07952878,0.07621646,-0.07577349,
-0.05211468,0.033675324,-0.039689403,-0.041163847,0.0,
0.04512743,0.0,0.031940084,0.0,-0.031017888,
0.039065838,-0.029042896,0.023614665,0.016601669,-0.01474218,
-0.04547297,0.0,0.032265276,0.0,0.014688882,
0.01507264,0.0,-0.020845214,-0.03702431,-0.022953607,
0.0,0.017501898,0.0,-0.052114405,-0.057577003,
0.0,0.028313026,0.045307897,0.0,0.0,
0.02130417,-0.04217941,-0.038744807,0.026663247,-0.07437595,
-0.0336489,-0.035488956,0.040316697,-0.022494188,0.0,
-0.038746998,-0.05627499,0.0,-0.010123764,-0.033771228,
0.06442502,0.01596446,0.076313,0.037871,0.015985604,
0.06508343,0.0,0.046785623,0.08790013,-0.08414278,
0.011830634,-0.025504092,0.0,0.08016044,-0.06383345,
-0.04650703,-0.024999954,-0.08718269,0.054373287,0.054414548,
-0.13766858,0.014084361,-0.035788916,0.0,0.020870013,
0.0,0.09604718,-0.043159574,-0.021007376,0.0,
0.06738292,-0.036832035,0.0,0.05497976,-0.11384119,
-0.015149801,0.04733685,-0.06216158,-0.048509005,0.034759846,
-0.029707601,-0.030859431,0.0,-0.04262728,0.0,
0.012527974,0.036772896,0.0,-0.086397275,-0.020574024,
-0.034084566,0.085911535,-0.013629945,0.042167425,0.019166892,
-0.013679348,0.044317815,0.011484805,0.062378798,0.017055878,
0.0,0.021329893,0.033323683,-0.02420949,0.0,
-0.043495305,-0.124750406,0.0,-0.02778023,-0.010072577,
-0.01010205,0.0,0.073007174,0.10070189,0.036038753,
0.04110593,-0.020270947,0.05313552,0.06532004,-0.054118212,
-0.049241006,0.042447865,0.072354205,-0.026497675,-0.03342812,
0.0,0.01607452,0.058820937,-0.022285568,0.0,
0.0695467,-0.022604018,0.018804124,-0.030929063,0.053926893,
0.0,-0.02469497,0.06706278,0.0612087,0.022190545,
0.035705447,0.0,-0.042355146,0.057681564,0.0,
0.0,0.031104729,-0.04171696,-0.027088562,-0.058985222,
0.04941377,0.03937524,-0.09069743,0.09924819,0.0,
0.059752177,0.022719948,0.0,0.014446666,-0.0426735,
0.06548181,0.046820935,0.010038899,0.0,0.05112186,
0.071143374,0.0125762755,-0.0171441,0.0,0.039328773,
0.03857824,0.024566764,-0.08622642,-0.052280642,-0.016610473,
-0.061899148,-0.018956823,-0.030314969,-0.040385105,0.0,
0.04718414,0.0,0.024262616,0.039665647,-0.04260031,
-0.048538752,-0.017862806,-0.026132762,0.026369276,-0.010400406,
0.0,0.040506817,0.0,-0.016842468,0.01228581,
0.021867339,0.0463129,0.0,0.025801187,0.016249068,
-0.087271266,-0.026225803,0.11333928,-0.024683677,-0.022911342,
0.09233865,0.05303063,0.042436723,-0.043958515,-0.026607128,
0.08366763,-0.0325679,-0.010113367,0.0,-0.046442173,
0.0,0.0,0.03943788,-0.060440358,-0.040686592,
0.017161578,0.0,-0.034196742,0.0,0.013916303,
0.0,0.02202022,0.015037313,0.042567894,0.016129859,
-0.068897195,0.02637152,-0.024908915,0.025909081,-0.0444794,
0.02001298,0.043673996,0.02712442,0.015942171,0.0,
-0.03384044,0.0,0.064730726,-0.02178698,0.04248229,
0.0,-0.085657656,0.0,-0.021723349,0.027867734,
-0.06308772,0.0,0.07243078,-0.08462915,0.034717135,
-0.0294142,0.0,-0.016932935,0.03123554,-0.052796695,
0.044698752,-0.05821491,-0.025824217,-0.03339792,-0.060786873,
0.0438901,0.084599614,0.03290514,0.014988283,-0.030087505,
-0.03234002,0.0,0.05555024,0.047872454,-0.09340178,
-0.084494844,0.041353807,0.04979226,0.07364586,0.04768498,
-0.021376735,0.01783157,-0.039369516,-0.04710884,-0.021487806,
-0.077603266,-0.022033136,-0.10686645,-0.08746594,0.06464114,
-0.013226395,0.017344255,-0.077178836,0.0,0.0,
0.036825284,-0.04507348,-0.031687483,0.045138936,-0.04380717,
0.0,-0.03075777,-0.07928894,-0.066151224,0.0,
0.0,0.047676753,-0.062036,0.034436747,-0.074285,
-0.030378869,0.08957139,-0.06522821,0.01791097,-0.023808349,
0.053295277,0.06792042,-0.03950998,-0.010511834,0.0,
-0.014978254,-0.08025049,0.0,0.018327104,-0.013026319,
0.0,-0.051747937,0.012450044,0.0477808,0.0,
-0.025005713,-0.026957825,0.0,0.07693833,0.010744763,
-0.06103439,0.092824355,0.074787855,-0.010254635,-0.08014704,
0.0,0.025329703,0.045882642,0.039371986,0.0,
0.0,0.0,-0.058922566,0.0,0.017766649,
0.058623217,-0.0140682645,-0.026156273,0.02194847,-0.011701236,
0.0,-0.02696413,-0.07158156,0.0,0.014301998,
-0.019851869,-0.021687703,0.0,0.026164586,-0.029098377,
-0.03351538,0.0899194,-0.042089604,-0.021752944,0.02051262,
0.02425391,-0.011317379,-0.09315624,-0.067350164,0.029331677,
-0.08757701,0.0,-0.0405945,-0.048459843,-0.054321535,
0.01312659,-0.02232597,0.056132995,0.0,-0.03899028,
-0.010516761,-0.04425051,0.031455494,-0.050791103,-0.06540491,
-0.09276805,-0.020250903,0.07972058,0.0756345,0.02019313,
0.0,-0.04127737,0.0,0.013463061,-0.016291345,
-0.013426405,-0.05041763,0.025149032,-0.014804736,-0.058815915,
0.026772397,0.0,0.056899805,-0.03412998,0.022451384,
0.04921568,-0.04159456,0.1277531,-0.022897055,-0.026452601,
0.022152312,-0.04768462,0.0,0.041597273,0.03394256,
0.07400258,-0.0207519,-0.013580612,-0.08534149,-0.02757601,
0.0,-0.0724875,-0.051177595,0.0,0.039147045,
0.028801495,0.011950252,-0.06654154,0.0,0.0,
-0.013787808,-0.036800463,-0.023204604,0.0,0.04034935,
0.018206878,-0.05815592,-0.079522565,0.096235834,-0.033555813,
0.019233078,0.024839278,0.054029997,0.033411343,0.029645149,
0.037661098,0.027675495,0.0,0.02798771,-0.0632051,
0.03766093,-0.05836049,0.0,0.05745317,-0.028391298,
0.018336127,-0.039503396,0.019242227,0.08805236,0.044693783,
-0.10579458,-0.052746687,0.11035428,0.05678413,0.067939885,
-0.03659173,0.069821104,0.0,0.02654053,0.082779035,
-0.056562494,0.015159394,0.01633102,0.0,0.021602683,
0.03527676,-0.011879729,0.0579975,0.0665818,0.0,
0.0,-0.07202784,0.02763239,-0.05056077,0.013945976,
0.0,-0.06572651,-0.05508373,-0.052685,0.049693998,
0.037148487,0.0,-0.01919862,0.0,-0.030678023,
0.0,0.0,-0.06928432,-0.054736465,-0.057516377,
0.053928662,0.0,0.0,0.0787864,0.0,
-0.026523134,0.048416875,0.010133765,0.028415257,0.02031023,
0.07536085,-0.054658934,0.06737574,0.0,-0.09843636,
0.04940264,0.010034264,-0.021860264,0.013194802,0.01077688,
0.0902481,0.026597418,0.0,0.0,-0.021965813,
0.057956833,0.0,0.0,0.058090266,-0.02359169,
0.0,0.0,0.0,-0.037906706,0.0,
-0.059472464,-0.040389173,-0.08614748,-0.0223745,0.017971735,
-0.04728441,-0.013036818,-0.058363434,-0.030867748,0.049016442,
-0.041272473,0.114575,0.011065591,0.032048464,0.045581907,
0.011771405,-0.026000125,0.016372755,-0.014435689,0.022724988,
-0.058353778,-0.09061039,0.056718532,-0.018474612,-0.050809287,
-0.041867062,0.0486278,-0.048290472,0.0,-0.05432704,
-0.033501066,-0.06417467,-0.0463539,-0.08017181,-0.042070772,
-0.10132374,-0.045248274,0.038564112,0.021757144,-0.045124438,
0.0494302,0.053346924,0.0,0.0,-0.02461137,
-0.059731595,0.0,0.08139462,0.087646075,-0.089167655,
0.042304765,0.07557278,-0.060022596,-0.040945366,-0.030393677,
0.02398502,-0.022024231,-0.05641493,-0.065605715,-0.041956995,
-0.036245733,0.0,-0.014366356,-0.04250993,-0.03796542,
0.0,0.045506023,-0.069584936,0.028410621,0.0,
-0.083304405,-0.03343579,-0.09232668,0.022635994,-0.08783331,
0.02129221,0.021175507,-0.051798563,0.035190724,0.060194887,
0.0,0.037911423,-0.08073625,0.035185397,-0.059131104,
0.07954535,0.062963255,-0.038648635,-0.045285944,0.019518439,
0.03273301,0.033637345,0.0122878235,0.033986736,-0.031537917,
0.0,-0.07723585,-0.06957188,-0.09185634,0.03903984,
0.0,0.03535329,0.0,-0.038653605,0.012850632,
0.082140215,-0.057026614,0.0,0.071275115,0.036764838,
0.12597772,-0.023369268,-0.050786547,0.0,0.022887576,
-0.07208256,-0.054750517,0.022578804,0.0,-0.040216573,
0.0,0.0,0.060035206,0.02330281,-0.05194362,
-0.05701639,-0.014751926,-0.049883176,0.015869653,0.0,
0.0,-0.03755564,0.022405418,-0.088929616,-0.035584558,
0.0,-0.035022885,0.12793422,-0.049935296,-0.1383006,
0.040168386,-0.010914012,0.043196417,0.014706252,0.0,
0.0,-0.063612595,0.11128438,-0.10010736,0.014575759,
0.048876017,-0.07746174,0.07046365,0.07028884,0.018332753,
0.0,-0.039472304,0.018160736,-0.051139645,-0.016205344,
-0.06011427,-0.079459764,0.025490602,-0.015448875,0.05141976,
-0.05489657,0.031903,0.045379456,0.07821303,0.0,
-0.06210598,-0.032629523,-0.05947763,-0.01662353,0.0,
-0.022182586,-0.027743578,0.012459388,0.09395907,-0.030923937,
0.013599308,0.030522332,0.0,-0.03411001,0.03796741,
0.0,0.014528374,0.046665397,0.024111412,0.0386154,
-0.011148207,0.079229794,-0.061537027,-0.031011969,-0.042050555,
