layer1node1,layer1node2,layer1node3,layer1node4,layer2node1
-0.07201359,-0.02509506,-0.02778603,-0.022676826,0.6899847
0.022898115,0.080298804,-0.009327582,-0.0705375,-0.37064207
-0.011944161,0.115604125,0.08046306,-0.019830918,0.71474385
-0.059702244,0.060834806,-0.0071699712,-0.013185117,-0.83248615
-0.00939776,-0.05741845,0.049544167,0.025297541,
0.013103506,0.024170574,-0.014014863,-0.02204688,
0.015820589,0.010088417,0.00858438,0.036172878,
-0.015315003,0.077978306,0.06886222,-0.034470066,
-0.026152654,0.056706253,0.08547078,-0.099246286,
-0.10640213,0.027470132,0.020455588,-0.038944513,
0.005032708,-0.073432,0.046905883,-0.014424952,
0.07455899,-0.029139882,0.05100678,-0.056204233,
-0.0016671661,0.015301801,-0.039849013,-0.010551393,
0.009676432,-0.015247032,-0.011871984,0.019951494,
0.0039078128,-0.033289995,0.079722196,-0.01982437,
-0.071383834,0.001929498,0.0062949653,0.06853936,
-0.0055699567,-0.005418084,-0.03438884,0.08890539,
0.029892348,0.008728957,-0.013910661,0.0964766,
0.061845616,-0.0823731,0.004097808,0.023960391,
-0.0393216,0.0437854,-0.068896964,0.010991687,
-0.08017657,-0.020125672,0.0659226,0.089459926,
0.034749173,-0.0017745937,0.058237456,0.017293165,
-0.069554836,0.097102046,-0.008806728,-0.011284038,
-0.017492075,-0.0041489946,0.03215721,-0.014189196,
0.02373693,0.008983501,0.040490933,0.05849684,
-0.00186492,0.033572312,-0.0033908733,-0.02486807,
0.015955107,-0.04376559,-0.09833349,0.0033097041,
-0.037241668,-0.0013514312,0.029657736,0.048169002,
0.04674264,0.009304867,-0.10573255,0.04246849,
0.036310524,-0.001582142,0.0026756718,0.071626894,
0.008124856,-0.016133988,0.03483673,0.040003926,
-0.0023855234,-0.037401937,-0.0067238077,0.04635128,
-0.0471572,-0.049787126,-0.0047529065,-0.0019559814,
0.015078996,0.022960428,-0.04180481,0.03206826,
-0.067954235,0.058310937,-0.024791159,0.037707552,
0.03671758,-0.00094088016,-0.08054469,0.018879011,
0.06631708,0.009205903,-0.0033839892,-0.06479835,
0.022881117,-0.014091433,-0.02568528,0.04940151,
0.030093027,-0.008946979,0.021588944,-0.061883714,
0.0048910887,0.03721963,0.02019582,-0.008283999,
0.02160631,0.03259183,-0.03568527,0.12343311,
-0.03066503,-0.022865234,-0.061065767,-0.022287898,
0.003691391,-0.08652983,0.009304201,0.076419026,
-0.059126522,0.014276432,-0.06473711,0.08389143,
-0.013582135,-0.0063761473,-0.08237044,0.017586725,
-0.026339084,-0.0014162165,0.021593142,-0.05123533,
0.033694953,0.017422875,0.03641329,0.015339187,
0.05736636,0.058508173,0.07410835,0.0009301143,
0.012673895,-0.009974592,0.0792997,-0.10071324,
-0.067664444,0.0048221797,-0.015266106,-0.04267476,
0.0065690395,0.097362265,-0.018291026,-0.034583826,
-0.00516586,0.043925036,-0.043868586,0.042208057,
0.0024656376,0.015554966,-0.0037639022,-0.03300803,
-0.04140359,0.037712555,0.09570737,-0.034372296,
-0.0059062564,0.013574997,0.069110975,0.042101465,
-0.035214514,-0.03474124,0.06336482,-0.13964842,
-0.02103155,-0.042626474,0.013756659,-0.058619287,
-0.0044719726,0.05729017,0.02133895,-0.061877098,
-0.031351008,0.013283347,-0.019458557,-0.04067524,
-0.028855946,0.012790889,0.00794272,-0.041221246,
-0.048268527,0.011940366,-0.031641714,-0.08083863,
-0.008030858,0.0095137535,-0.076875284,-0.02380846,
-0.02780254,0.024165131,-0.066506125,0.03942375,
0.009330736,-0.033675723,0.011429297,-0.13836308,
-0.04416854,-0.038578637,-0.020770103,-0.039207637,
-0.022486478,-0.042405616,0.07130358,-0.061800756,
-0.0006458865,-0.03217602,0.031265583,-0.014828772,
0.066167966,-0.029395977,0.07350184,-0.06856567,
-0.034508415,-0.022615243,0.06074186,0.0006266228,
-0.0032242038,-0.07773578,-0.16810496,0.010395053,
0.03857941,0.01799841,0.024800144,-0.009764679,
0.07260678,-0.013189399,0.018586323,-0.060673613,
-0.018632574,0.029548438,0.017834121,0.034372203,
-0.011120173,-0.050484393,0.038864594,0.14977337,
-0.09282872,0.078107774,0.019836372,-0.023988413,
-0.03291764,0.078988135,-0.027271114,0.08943205,
-0.022664033,0.034388073,-0.024730124,-0.04530427,
0.041841872,-0.0018022564,-0.011215582,-0.03321127,
-0.031314757,-0.019362867,0.01061383,0.04728958,
-0.0506964,0.03346479,0.018054869,-0.046625882,
0.0038408649,-0.029415332,0.02685251,-0.012068145,
-0.039054185,0.08036103,-0.008584915,-0.044746757,
0.015200761,0.019177677,0.09329812,-0.011534957,
-0.008166235,0.0301757,-0.013516512,0.09895362,
0.009535485,0.00067993393,-0.035860553,0.011158701,
-0.003541035,-0.036362402,-0.07410832,0.03926355,
-0.04691078,-0.06982976,0.0089043705,0.0018124857,
0.016377158,-0.060820896,0.112742856,-0.0001075541,
0.036580868,-0.044172492,0.02629871,-0.04820894,
-0.02703359,-0.089600794,0.0136790015,-0.070128344,
-0.017547958,-0.007630276,0.085376315,0.00040488978,
-0.01830548,-0.027182776,-0.013185792,0.11576987,
-0.026663,0.009675957,-0.05996363,-0.038989104,
-0.008143576,-0.0052273977,0.017972399,0.09671363,
0.006751377,-0.054828208,0.010136992,0.030189252,
0.035119534,-0.0053556203,0.01985577,-0.009619678,
-0.026185965,0.024274094,-0.115588725,0.005577452,
0.037790693,-0.014799117,0.074184954,-0.056096394,
-0.058270145,0.030580914,-0.03852081,0.037559595,
-0.035279315,0.029168855,0.022407595,0.07846187,
-0.12152405,0.058811937,0.0011710824,0.00967411,
0.033945505,-0.009870713,0.053329673,-0.023576455,
0.010663725,-0.021866016,-0.053817075,-0.05126987,
-0.008281327,-0.025834696,0.013921678,-0.051253024,
-0.0038371852,0.091425814,0.060578115,-0.10222921,
-0.03217536,0.0028703555,-0.054851964,-0.028697252,
-0.06931342,0.03151554,-0.039485876,-0.013571773,
0.032186795,-0.07233184,-0.034838922,-0.013688547,
-0.025999334,0.025799634,-0.004262838,-0.036936123,
0.0044717444,-0.08411999,0.05567196,-0.046895266,
-0.07851138,0.020197088,0.03730152,0.0044785854,
0.029671615,-0.003740519,0.023865359,0.00017016171,
-0.05193057,-0.008605033,0.017245756,-0.04384067,
0.06405513,0.0049630217,-0.05459332,-0.09797957,
-0.040282544,-0.03571127,-0.034151237,-0.08489964,
0.012958278,0.017297065,-0.0008794185,-0.08601135,
-0.06179064,-0.046326533,-0.0013933356,0.035304874,
-0.06618254,0.008271521,0.04904377,0.058318794,
0.0052740113,0.000104459985,0.010178556,0.008108276,
0.0031164144,0.09278443,0.044526115,-0.029817473,
-0.048957605,-0.030803978,-0.047663417,-0.028063491,
0.007882571,-0.05905075,0.0025673728,0.012272263,
0.042211942,0.027357206,0.060915716,-0.090646304,
-0.005375801,-0.023035837,-0.027086582,-0.067278974,
0.01782937,0.017595101,0.011156702,-0.06921873,
0.02369862,0.02565712,-0.014654514,-0.005958849,
-8.944093e-05,-0.006182566,-0.049612496,0.038713645,
-0.09248816,-0.064357765,0.0024826713,-0.023345478,
0.013475699,0.041764542,0.090881065,0.03214641,
0.07624081,0.0017925632,0.038069285,0.030029707,
0.07729612,-0.014581201,-0.054499716,0.07477003,
-0.010758909,-0.0064322534,-0.01749195,0.09234199,
0.034226056,-0.015697217,-0.020890912,0.15349595,
-0.010782997,0.025804901,-0.043205924,0.062264476,
-0.041735254,0.033227976,0.04604856,-0.023879113,
0.019152861,0.06833274,0.011493397,-0.06934165,
0.075944684,0.07243938,-0.0029053967,0.029614365,
-0.03355688,0.073665865,-0.019825103,-0.011363723,
-0.0033881818,-0.025766673,0.022473153,0.010865614,
-0.045981824,0.049531054,-0.10080863,-0.0008997098,
0.06296947,0.01635488,0.022002172,-0.051751792,
0.026231704,0.0022888493,0.022695187,0.02856117,
0.026107615,0.105576314,0.049440872,0.093408614,
-0.045746945,-0.011145923,-0.037237532,0.052089006,
-0.007658501,-0.034376536,-0.029180825,-0.0121306265,
0.023098009,0.019965796,-0.010400488,-0.06853982,
0.04213417,0.062821165,-0.011609176,0.02586505,
0.01308199,-0.0020480552,-0.046706457,0.010017611,
-0.057552163,0.05180479,0.04189681,-0.014351797,
0.0090157315,0.0046346406,0.0483132,-0.07866226,
0.06576852,-0.099228546,-0.0009627761,-0.06439077,
-0.034808032,0.08337327,-0.06672892,-0.02672531,
-0.045779243,-6.6807035e-05,-0.0041700434,0.045434713,
-0.0070378426,0.010754299,0.007849341,0.0035408507,
0.05239912,0.044776242,0.1626559,0.014852577,
0.0730377,0.029972844,0.026531318,0.017064082,
-0.05382544,-0.0016300634,0.012279574,0.07364854,
-0.03320587,-0.007875686,0.0047144927,0.0075734146,
-0.06789793,-0.08694462,-0.065829754,-0.015421321,
0.006856201,0.09626547,-0.0038155292,0.019464009,
-0.05597208,0.05873722,-0.029519117,0.0035797902,
-0.08278531,0.009710227,-0.04132256,-0.057018686,
-0.033791352,0.005778361,0.017668236,-0.10057908,
-0.0077947085,-0.009824216,0.04805048,0.011777272,
0.06891686,-0.031271774,-0.028559687,-0.04427871,
0.049194396,0.07732472,0.027103975,0.019185081,
0.08004526,-0.047818765,-0.075061366,-0.053831406,
0.040936604,0.03272036,0.0164215,-0.073261455,
0.0427634,-0.097507104,0.028571138,-0.026437694,
-0.014332268,-0.021098606,0.0668267,0.034020808,
0.01915806,0.07023548,0.01717602,-0.081660606,
0.057051435,0.031056188,0.083267234,-0.02443749,
-0.024464672,0.10981453,-0.041220125,-0.07002499,
-0.041490696,0.03789652,0.022579005,0.05068962,
-0.000248279,0.010985427,0.030679835,0.05835776,
0.04744638,0.004453646,0.029805768,0.015025652,
-0.0504775,0.02293026,0.030546837,-0.019962769,
0.040074676,0.015954776,0.040803626,0.045738798,
-0.04373441,0.017394112,-0.017712668,0.009006705,
0.019085757,0.02593217,-0.07162171,-0.123797655,
-0.09506555,-0.006446024,0.022920638,0.006716527,
0.015206538,-0.0013612879,0.02161401,-0.010585097,
-0.014615462,-0.0058523645,0.019871973,-0.044001907,
-0.044904456,-0.009536943,-0.051983293,-0.008387187,
0.021401549,0.038258225,-0.019577231,0.05843161,
0.032471154,0.022858378,0.03771819,0.07797918,
0.0047539296,-0.025277423,-0.093046196,0.004520152,
0.025600564,0.029913204,0.02817889,0.055227485,
-0.03632125,0.02589047,-0.032283593,-0.00484012,
0.05413068,-0.028223881,0.108379506,0.050636925,
-0.037517995,0.020004822,-0.010659517,0.059222776,
-0.02329403,-0.0026200283,0.014803655,0.033433862,
0.043024205,-0.085116,-0.028035814,-0.0036601697,
-0.055286463,-0.002998824,0.048277076,0.055147436,
0.03319596,0.034629345,0.060921017,0.004253301,
0.05232962,0.001207477,-0.09328326,0.013604113,
-0.0054460517,0.012572834,0.0030364655,-0.018485444,
0.047146138,0.017374383,-0.049351275,0.06294756,
-0.016823051,0.03184572,-0.07160796,0.044256594,
0.058419805,0.052134395,0.002757852,0.010351634,
-0.039903246,0.05190663,-0.023474192,0.029079057,
0.042225063,0.029598594,0.049488135,0.039648473,
0.028423868,-0.036751438,0.029564867,0.08688464,
0.050599694,0.016577663,0.0048416727,-0.003949652,
0.06963308,-0.009196905,-0.0147645995,0.03809617,
0.02370756,-0.018812345,0.023747351,0.013208635,
-0.0740939,-0.07215334,-0.09053142,0.009412927,
-0.044477157,-0.036493346,-0.002151303,-0.058358673,
-0.046738237,-0.08387918,-0.08545318,-0.072664596,
-0.03669834,0.001222117,0.0055112895,0.054370746,
0.04713705,0.017472306,0.11620723,0.044870444,
-0.011292389,-0.031504728,0.029071877,0.0014518689,
0.038917586,-0.0517218,-0.06403491,0.03439941,
-0.092667915,0.0005044554,0.0097066425,0.050620247,
-0.04664282,-0.024812074,-0.024552042,-0.059792396,
-0.0015204138,-0.014056031,-0.0035610714,-0.04291995,
0.019255007,0.0010155799,0.01938207,-0.05201487,
-0.07804585,0.009376879,-0.039028477,-0.021387972,
-0.052198183,0.021247962,-0.035400916,-0.0038999463,
-0.024211979,0.06435501,-0.010569815,0.017903717,
0.10139682,0.03375516,0.054128237,-0.12836559,
0.099999115,0.07140537,0.009626529,0.025474187,
0.020480784,0.037053697,0.057924543,-4.087155e-05,
0.03427381,0.00897946,-0.021634368,-0.0130867055,
0.037364986,0.018461216,-0.06217843,-0.020092767,
0.01152595,-0.0577263,-0.053575646,-0.0741676,
-0.014147117,0.009180076,-0.02239642,-0.015961146,
0.0023854394,0.047001302,0.040424675,-0.009376748,
-0.068108186,-0.0046245973,-0.009366812,0.06502691,
0.029457526,0.0019871618,0.011800264,0.088680364,
-0.02126448,0.05949163,-0.07584734,0.11596449,
-0.02033922,0.015295077,-0.049167898,-0.06782326,
0.03316049,-0.007054173,0.0083140535,-0.007469889,
-0.0906291,-0.016112072,0.06960093,0.023113817,
0.012190174,0.011239528,0.05770671,-0.012549485,
-0.03282468,-0.10546069,-0.04290579,-0.091323584,
0.016001493,0.08926132,-0.03286482,0.02484006,
-0.03177346,-0.013574796,0.08648206,-0.024414537,
-0.05797105,-0.036546867,0.0015395613,-0.05363664,
-0.044107642,0.084603205,-0.03090938,-0.09124171,
-0.07984918,-0.021440782,0.0060827336,-0.007019251,
0.0023419906,0.04162297,0.00044650628,0.06648439,
0.041672096,0.012234222,0.03080796,0.06558917,
0.0019331311,0.0019094629,-0.05238345,0.055233654,
-0.08275505,-0.033234585,0.026796114,0.0013447555,
-0.01311466,-0.019441804,0.049205624,0.08421091,
0.1038969,-0.023344407,-0.043575153,0.06468638,
-0.029087221,-0.041537054,0.047182396,0.023048203,
0.028535558,0.024997154,0.034325156,-0.033514712,
-0.019777216,-0.001694188,0.033038534,-0.019183245,
-0.009777273,0.052287966,0.024018,-0.045375466,
0.05177207,0.05706632,-0.024985762,0.037053235,
0.038005605,-0.0020161334,-0.011867254,0.011276064,
-0.10867168,-0.03715536,-0.11388753,0.06395389,
-0.0014088622,0.038088106,0.0556494,0.05574844,
0.015234652,0.035517454,0.118121356,0.0046584546,
0.041084167,0.09892259,0.012739502,-0.05851941,
0.025894329,-0.018023333,0.04632529,-0.012232771,
0.02273574,-0.07034655,0.062541224,-0.0030363768,
0.015217788,-0.012160243,-0.07503773,0.013467528,
0.022588642,0.055980116,-0.04810475,-0.0011331864,
-0.011943876,0.030508608,0.022443743,0.050174467,
-0.06526343,-0.045778587,-0.058489244,0.008832604,
-0.029741528,-0.0062504034,-0.08669776,-0.037313092,
-0.07546253,-0.01185889,0.022286579,0.0652644,
-0.020408208,0.011241212,-0.051721882,-0.061018463,
-0.056475654,-0.037399862,0.010586638,0.06843398,
-0.065173045,0.02469625,0.009731179,0.009039294,
0.04541914,0.008345184,0.039186105,-0.042204656,
0.044210527,0.009203903,0.052734613,-0.08191887,
-0.0116347,-0.018525055,0.06295282,0.05657637,
0.018803159,-0.03749362,0.02379017,0.028505992,
-0.030121453,-0.05451542,0.04031717,-0.050239306,
-0.042961005,0.023665942,-0.059121866,-0.012948788,
-0.053680018,0.079412036,-0.028818425,-0.012488307,
-0.07426234,-0.01042706,-0.07622267,0.014196396,
0.00821692,-0.035031058,0.024628922,0.042341072,
-0.02185729,0.04550044,0.03063676,0.026109653,
-0.031811714,0.026622243,-0.012455692,0.022725122,
0.055187825,-0.07958866,0.037107866,-0.051357575,
-0.065264255,-0.01126688,-0.015040227,0.08353145,
0.0020181683,0.09786572,0.053124156,-0.043648344,
-0.04517789,-0.015058935,0.0784254,-0.07849976,
0.029226346,0.07225945,0.023346866,0.017111102,
0.012927237,-0.056763016,0.029683108,-0.037337713,
-0.12100787,0.021622641,0.033514924,0.0582271,
0.026121076,-0.07454765,-0.11086968,-0.010009202,
0.06334977,0.021221297,0.07670106,0.014452335,
-0.014966981,0.036463372,0.033176225,0.031093543,
0.006311066,-0.055134162,-0.073705055,-0.04797909,
0.010247318,0.031552836,0.006221188,0.0030539858,
-0.028221317,-0.029198678,0.00606704,-0.006402395,
-0.060987096,-0.0457562,0.06421702,0.034229133,
0.060984492,-0.046138808,-0.043070175,0.06497476,
0.04145249,0.040101603,-0.01610066,-0.0009786877,
0.011016808,-0.055383362,-0.011696663,0.035091955,
0.061879285,0.043234657,-0.07252423,0.04867631,
-0.049355887,-0.0029050338,-0.055454355,0.034427185,
-0.05404503,0.06258971,-0.029879758,0.015205241,
-0.037984163,-0.035005838,0.01338147,-0.007232228,
0.031461067,-0.0033226248,-0.021339258,0.0046574255,
-0.02334769,-0.012974061,-0.027636962,0.03488313,
-0.044801,-0.05544018,0.073754966,0.00010549224,
0.001141933,0.009451463,-0.0022538968,-0.10236877,
-0.0013578713,0.0846041,0.02774862,0.038816996,
0.04828513,-0.071786866,-0.013785555,0.012503478,
0.031905625,-0.03174181,0.03507136,0.08427982,
-0.009543517,-0.056623057,0.016209446,0.050795995,
0.0059553767,-0.063900284,-0.0776396,-0.019505924,
0.034088776,0.0044061225,0.010313886,0.04401001,
0.05600892,-0.10133652,0.049571976,0.04795685,
0.028110325,-0.04408843,-0.027617292,0.05221339,
0.0012587989,0.013194738,-0.009672158,0.04384396,
0.005923146,0.023934057,0.0110450825,0.038653467,
0.031307023,-0.0043941373,0.07987757,0.019942824,
0.08028817,-0.061986774,-0.017552627,0.037417285,
-0.02130135,0.042457443,-0.0029333362,0.0050100433,
-0.023766916,0.007619591,0.040784422,-0.0073431786,
0.00064001867,-0.033448637,-0.10212112,0.024911951,
-0.0054993713,-0.020245219,-0.01028855,0.016875155,
0.030161895,-0.05211373,-0.06855119,0.07558148,
0.006457141,-0.0155691495,0.014255791,0.046560075,
0.037030462,0.017273605,-0.0059688073,-0.018804993,
-0.023887483,0.03298442,-0.05522231,0.06881612,
0.013861081,-0.012538001,-0.06309706,-0.07904956,
-0.0515662,0.08650217,-0.012821253,-0.04242107,
-0.016848775,0.03205281,0.014998051,-0.050817624,
-0.10090804,-0.013704187,0.022248033,0.050629064,
0.05068116,0.02121277,0.017608976,0.017496647,
-0.017687805,-0.022565885,-0.009853294,0.0558062,
0.008929368,0.00039591017,0.018279728,-0.038633958,
-0.07388523,0.031845775,-0.016294751,0.0377863,
0.0070707556,0.00019922243,-0.027611343,0.023950676,
0.043873154,0.054944005,0.023606313,-0.04726417,
0.0364676,-0.110283,-0.031909175,0.046215147,
0.09547171,-0.018415626,0.087068364,-0.075340845,
0.021763975,-0.06013445,-0.022535846,0.041854687,
-0.054307804,0.03395141,-0.011738272,-0.06606266,
0.026918426,-0.12188128,0.05281431,0.037261877,
-0.018060725,0.06400193,-0.016104717,-0.06329134,
-0.10876413,0.042357028,0.021696495,0.0064386246,
-0.040081646,0.056543287,-0.03418989,-0.0442566,
-0.053379808,-0.022478534,-0.009874274,0.02033388,
-0.033584535,-0.031734522,0.04031421,-0.0040097763,
-0.0477695,0.023284942,-0.019922962,0.01858766,
-0.008327724,0.02931869,0.046137962,-0.024028378,
-0.031981688,0.039001722,-0.037604716,0.019508228,
-0.07125674,-0.054252416,0.017696474,-0.09208665,
-0.053417534,0.06712163,-0.03557455,0.0110084545,
0.033622537,-0.11398723,0.028046295,0.018916478,
0.016456084,-0.05555062,0.07585706,-0.018296061,
0.027258275,-0.014542596,-0.00785088,0.030755198,
0.027076563,0.0030127596,0.012250916,0.11069798,
-0.029585216,0.047033794,-0.04328673,0.037852447,
-0.011320529,-0.030396018,-0.029484935,0.018808223,
0.011158104,0.014196081,0.0014032628,0.037808552,
0.0653442,0.003173758,0.010796343,-0.03997413,
0.06747957,-0.012453169,0.03308656,0.030194232,
0.06346796,-0.0741924,0.035264432,0.020615568,
-0.0031428419,0.015624971,-0.008421355,0.049488824,
-0.00978038,0.016181102,-0.020214649,0.03916484,
-0.028772188,0.0078004585,0.015856735,0.07014235,
0.025458299,0.036530655,-0.06243182,0.020762617,
-0.039048236,0.048491545,0.054428667,0.16976209,
0.0016791926,-0.010596061,0.039558996,0.029331937,
0.034499135,0.05915672,0.07810354,0.032276113,
0.04973061,0.045214415,-0.032842584,-0.0039596776,
0.04399885,-0.035788674,-0.025861807,0.026028879,
-0.014999066,0.01601435,0.06591418,-0.03792091,
-0.01040751,0.072140105,0.00036020766,-0.00081686454,
0.02612299,0.064659424,0.04183365,0.014279965,
0.032180876,0.023426773,-0.019851625,-0.037679054,
0.02538584,0.10007825,-0.010273838,0.026921142,
0.0076765483,-0.018367473,-0.032430377,-0.023492707,
-0.031233953,-0.017825188,0.046996307,-0.014442053,
-0.05889876,-0.04495138,-0.009050163,0.0062063434,
-0.022284841,0.04976635,0.05971153,0.038808584,
0.054939244,0.0437302,0.031883612,-0.009892862,
0.011445121,-0.04416747,-0.016855525,-0.00029599128,
-0.024316983,0.008772668,-0.028976375,0.022426689,
-0.05548869,0.068550706,-0.028710272,-0.05720876,
-0.039253112,0.026579237,0.034591533,0.10135974,
-0.03116128,0.023553638,-0.039762113,0.07694034,
-0.12255117,0.007648999,0.06959252,-0.09916245,
-0.037486676,-0.064633496,0.05058757,0.043576654,
-0.06383202,-0.006877108,-0.025854275,-0.019810071,
0.04577923,0.09186085,0.07276897,-0.026744772,
-0.0887121,-0.016592916,-0.026394738,0.00960386,
-0.035994425,0.056102205,0.0584753,0.004462377,
-0.08074331,-0.034328945,0.046439935,0.07295696,
-0.02654317,-0.016853703,0.12032413,-0.03061798,
-0.049075622,0.02617437,0.06180452,-0.0689089,
-0.0039356714,0.012685103,-0.07972746,-0.04272055,
-0.021220503,-0.008755531,0.05042403,0.041469146,
0.017696679,0.0061832676,0.038327917,-0.062336013,
-0.104593344,0.057246115,-0.0062696063,0.024630772,
0.0796104,0.11087376,0.01894525,-0.08661639,
-0.019739449,-0.05624393,0.008009068,0.027432196,
-0.093210734,0.077961095,-0.0120646935,-0.042237252,
0.020952405,-0.057321478,-0.014027638,0.10338899,
-0.0706294,-6.971619e-05,0.008938626,0.029720295,
-0.009357488,-0.012005094,0.02304805,-0.065989226,
-0.036426954,0.087491535,-0.034351356,0.049428403,
0.0496496,0.03711994,0.09419404,0.1061125,
-0.011099386,-0.031801894,-0.029669793,0.0018016757,
0.048449636,0.089341745,-0.049257416,-0.016835231,
0.0028936553,-0.0078052026,0.0303015,-0.019308783,
-0.073334895,-0.13564827,0.035493225,0.063055456,
0.057542518,0.056541532,-0.01266418,0.017308127,
-0.0072222333,-0.009135832,-0.021992195,0.018910518,
-0.011722419,-0.06755305,0.094615035,0.009699034,
0.019308293,-0.04893587,0.039528996,0.008124106,
-0.057621885,-0.04660878,-0.0059707942,0.05997479,
0.0014692041,0.0913996,0.06980004,0.02696339,
0.045946293,-0.02787216,-0.050705858,0.018343223,
0.11349432,-0.017625688,0.03294076,-0.038006242,
0.019081041,-0.0003759887,0.008965464,-0.038087126,
-0.0012721469,0.03274538,-0.06405692,0.018695245,
-0.044927627,-0.009023359,-0.02513473,0.031023664,
-0.069069184,-0.014763562,0.04517927,0.06793612,
0.022364488,0.030174382,-0.0389849,0.085854255,
0.0534812,-0.0011436053,0.05238764,0.000651703,
0.011366586,0.026473686,0.016914057,-0.033244416,
-0.0638259,0.0027488098,-0.041081943,-0.024011012,
0.0763504,-0.043633968,0.048648246,-0.014451428,
0.048115138,-0.0018830572,0.12434643,0.034841616,
-0.0019695244,-0.014629924,-0.064842656,0.0012275164,
0.14569995,0.07662015,-0.047843263,0.044731636,
0.060811434,0.006847602,0.037518624,0.022609845,
0.005071254,0.06087801,0.06692603,0.018442167,
-0.049209118,0.034879528,-0.034020387,-0.01475136,
0.018676233,-0.026686337,-0.007055596,0.0034127505,
-0.07860958,-0.0075960183,-0.0029038847,0.004432795,
-8.7022854e-05,-0.03338494,0.016730558,-0.11785912,
0.031310186,-0.037610803,-0.026889136,-0.0027887693,
-0.09962687,0.0064947037,0.03888636,0.015406737,
-0.03517937,-0.012888154,0.03868446,-0.022136863,
-0.056738,0.035735894,0.013432506,0.052426107,
0.05684462,0.037163902,-0.07624936,-0.0011390209,
-0.014737271,0.04184308,0.015730482,-0.023846036,
0.008120719,0.03386526,-0.007516788,-0.015314886,
-0.004543435,-0.0067797964,-0.08006046,-0.012459175,
0.07665551,0.028219912,-0.00010137644,0.019090524,
0.06295771,0.015358853,-0.0026292924,0.047030374,
0.0082094055,0.02957976,0.031430803,0.082561076,
0.036383383,-0.036461905,-0.039171323,0.07316791,
0.11775257,0.015882459,-0.060731005,-0.01002765,
0.017118512,-0.063840784,0.008433559,-0.088995256,
-0.06055955,0.025895325,-0.04681669,0.057045393,
-0.0037216458,-0.01511254,-0.052263565,0.0077104443,
-0.040399276,0.09318325,0.0029509617,0.020328403,
0.043710623,0.06270362,0.023279777,0.10437972,
-0.04619327,-0.031525522,0.029074917,0.009360812,
0.07224414,0.09012522,0.018889032,0.05965906,
-0.032067157,0.06955991,0.070918,0.07592728,
-0.0052584293,-0.016231028,-0.05632237,-0.05617438,
-0.07384484,0.014125343,-0.0010393319,-0.009315188,
-0.07031274,-0.015895296,-0.10385992,0.0045709005,
-0.057120886,0.016052099,-0.0053832782,0.017912464,
0.0155542735,-0.037376,-0.030746408,-0.020574322,
0.06300488,0.014492112,0.03435706,0.0002140789,
-0.079068385,-0.054658644,-0.003958237,0.009548172,
0.072687365,-0.07789112,0.038233962,0.03799193,
0.015810687,-0.03388393,-0.012780664,0.053419057,
0.03316718,-0.024822863,0.053801544,-0.005841197,
0.045187186,-0.016505472,0.00621158,-0.018348038,
-0.06498021,-0.04963293,0.016661396,-0.057518825,
-0.010057721,0.015418274,-0.05206391,-0.059087098,
0.026410494,-0.060372602,-0.03272997,0.0072181537,
0.09748326,-0.038792063,-0.021388063,0.09079877,
-0.081098355,-0.02154089,0.012340553,0.08411244,
0.0705357,0.006721849,0.011464224,0.024048984,
0.00488289,-0.07022688,-0.0064007286,-0.018472178,
0.009593784,0.032977503,0.0193301,-0.09138716,
0.04798068,0.04318079,0.004911301,-0.013048018,
-0.037819937,0.031389732,0.027062556,-0.039777827,
0.058774065,0.02747446,0.008792383,-0.020762144,
0.1163424,0.030895278,-0.017160313,0.0051474986,
-0.031991195,0.028234186,-0.026994228,-0.011720427,
-0.053298634,-0.023637228,-0.023261178,0.015149277,
-0.038560256,0.000743335,-0.0180216,0.011283882,
-0.04116428,-0.05092211,-0.0010435738,-0.032047816,
0.012178487,-0.01268414,-0.08399005,-0.024276622,
0.057173517,0.120270945,-0.059349444,-0.050682884,
0.09879627,0.006338987,-0.0647523,-0.005625479,
0.06893499,-0.015194612,-0.03979886,0.0010740365,
-0.004814091,0.0783441,0.012563323,-0.0458239,
0.010154878,0.014383639,-0.029370235,0.035516486,
-0.010834481,0.027088491,0.017740725,-0.023326451,
-0.0016586484,-0.042193748,-0.04942849,0.07509675,
-0.004649325,-8.330136e-05,-0.108709134,-0.017389134,
-0.0213207,-0.025467256,-0.05400105,0.043867394,
-0.10393751,0.009956179,-0.051381502,0.038495082,
0.016762547,-0.046885747,-0.010878074,0.002039096,
0.004613596,-0.040597964,-0.035076283,0.05075768,
-0.067215085,0.03526902,-0.009980875,0.012882699,
-0.07412545,0.041090794,0.028689438,0.029683104,
-0.0006754902,0.05800311,0.077611685,0.039861493,
-0.037552696,-0.025020631,0.027835313,-0.005851182,
-0.02230834,0.09911711,0.06861682,-0.0035453155,
-0.044656247,-0.027944988,-0.04756718,0.0347861,
-0.0045843422,-0.000116630115,-0.02853706,0.0838352,
0.020523641,0.018882692,0.06732107,0.0037575022,
-0.028477494,0.048280235,0.020241639,-0.017098354,
0.044046093,0.0048948447,-0.011711133,0.022609565,
0.06117215,0.02557539,0.047208074,0.08469968,
-0.01759996,-0.03203276,-0.04100607,0.04710027,
0.0102636,0.00033574807,-0.030900326,-0.0055803265,
0.07172841,-0.06414832,0.023844736,-0.0046031433,
-0.026565248,-0.012447763,-0.02176806,0.01906404,
0.04207603,-0.017687112,0.03644456,0.08381135,
-0.012945434,0.050447587,-0.06565446,0.06723807,
0.01894151,0.025545252,0.02102952,0.049883272,
0.047389235,-0.05950994,-0.10493251,-0.0552073,
0.01000046,-0.034495868,0.08548664,0.058674403,
0.043387003,0.0011854701,0.010147875,0.029747095,
-0.002508756,0.01986657,0.0009071146,0.0026129258,
0.03969812,-0.0028937072,-0.01779816,-0.022992337,
0.00061174866,0.04259932,-0.06524027,-0.064744644,
-0.02687678,0.0343718,-0.0831327,-0.013520024,
-0.027995516,0.030092504,-0.031058762,-0.0010982868,
-0.013882573,0.013124367,-0.017134517,-0.011206435,
0.07154656,-0.028121194,0.0067435387,-0.00612386,
0.012455346,-0.030613655,-0.032405414,0.09899926,
0.03763315,-0.03806512,0.027759122,0.047534816,
0.023874415,-0.011430339,-0.011231876,0.04613798,
0.013228717,-0.019218365,-0.029984748,-0.014167568,
-0.06655721,-0.026020328,0.030607637,0.087825745,
0.066453345,0.035914037,0.024671841,0.025942951,
-0.01645869,0.023712697,0.05087798,-0.036937255,
-0.04452538,0.059298526,0.00010323317,0.017893542,
-0.009463935,-0.019500645,0.04583648,0.010026133,
-0.011897236,0.025548996,0.00394096,0.01683379,
-0.030308777,-0.009328422,0.10692559,-0.0957216,
-0.003763746,-0.035568982,0.083835155,-0.06685187,
0.053674094,0.078777805,0.07061396,-0.043123316,
0.00633439,0.076303266,0.053654753,-0.008883235,
-0.033588428,-0.04558296,-0.043452255,-0.060604043,
0.020334236,-0.00911323,-0.04615473,-0.057289198,
0.009384287,-0.007924354,-0.004931803,0.02800296,
0.038252465,-0.023898005,0.018299956,-0.00036669453,
-0.07206311,-0.019845076,0.051723804,-0.078360945,
0.011947527,-0.049159642,-0.025665816,0.07852019,
0.055255044,-0.022817498,0.023081245,-0.04012057,
0.00014917205,0.052225977,0.010511023,-0.0041503,
0.0026132304,0.08364564,-0.02803572,-0.029440913,
0.017813763,-0.02907099,0.020387981,0.027480206,
-0.04660703,0.01966806,0.009009771,-0.030834591,
-0.076742545,-0.019003173,0.017327802,0.010167772,
-0.053221144,-0.0013570824,0.006468103,0.04431689,
-0.045934513,0.05088382,-0.036231805,0.04793514,
0.004833256,-0.036852166,0.03804055,0.0008942715,
0.0032809807,-0.028822538,0.051858876,-0.010183151,
-0.037584804,-0.024110042,-0.018204715,-0.05163183,
0.0417094,-0.018897252,0.007963113,0.012611582,
0.057143103,-0.009995582,0.014156174,-0.047673464,
-0.007655993,-0.0039992235,-0.012202371,0.031350482,
-0.0097533725,-0.025599563,0.0053261947,-0.071928635,
0.0112937465,0.010154914,0.028599897,0.030612977,
0.005467798,-0.005787125,0.06200387,0.02028082,
0.10275274,-0.0019319562,0.056275953,-0.0004783101,
0.0068525556,0.057324097,0.007811304,-0.039036416,
0.03898457,0.00048924197,-0.01740403,0.005583751,
0.0148658445,0.05841883,-0.023244768,-0.007960351,
0.007886696,-0.064251676,0.06269474,0.07407174,
-0.017389504,-0.031054275,-0.0155000845,-0.0037489003,
-0.042618312,0.013790944,0.050298285,-0.0034929283,
0.069724515,0.08859761,-0.010436742,0.094366305,
0.046382234,0.0109589975,-0.005840124,0.05752809,
0.023465144,-0.035187487,-0.0014600144,0.07431064,
-0.055173095,-0.071256794,0.0015959991,0.07815346,
0.04398632,0.024468573,-0.006247789,-0.011738601,
-0.07048016,-0.033271175,0.04354356,-0.03299757,
-0.056250777,0.025255607,0.030855328,0.07177358,
0.012052539,-0.06963643,-0.042488933,0.013419467,
-0.05123705,-0.041223112,0.0048640836,-0.021929802,
-0.04729688,-0.050408512,0.053483114,0.07333364,
0.02529949,-0.058694076,0.02415239,0.015880283,
-0.10524465,0.013178575,0.036178645,0.011452,
-0.05440836,-0.053083893,-0.024668675,-0.043671656,
0.06614734,-0.08190866,-0.021398315,-0.009158191,
-0.08083024,-0.050388847,0.016520388,0.016928969,
0.00900733,-0.0014668467,-0.009344367,0.09182626,
-0.016739458,-0.023138663,0.031125337,-0.04598379,
-0.051136285,-0.011646537,0.031715155,-0.05610099,
0.025750551,0.06032137,-0.0038702937,-0.01415138,
0.042503122,0.036051083,-0.008124497,0.027392834,
-0.002385809,0.040464506,0.03871384,0.011999135,
-0.028098708,-0.08565346,0.058663726,-0.032768365,
-0.039124843,-0.03573686,-0.03995257,-0.02876308,
0.04257889,-0.02552483,0.03433393,0.0017990613,
-0.03437764,0.0358664,-0.035339866,-0.007608343,
0.012746041,-0.078711644,-0.08681278,0.068456225,
0.062877014,-0.059646774,0.045170955,-0.047868438,
-0.035748266,-0.0034514726,0.02122347,0.029129243,
0.08902526,0.008152262,-0.07537974,-0.07196489,
0.028194075,0.017859831,0.01084232,-0.034543537,
-0.005820378,-0.005078261,-0.04404612,-0.0077402573,
0.031083474,-0.030182049,0.080730036,0.03483389,
-0.061451897,0.05322796,0.04115171,-0.046683658,
-0.0012713105,0.012650382,-0.0012396374,0.00734726,
-0.054643873,0.031024572,0.022030527,-0.028554548,
0.020368049,0.017607752,-0.027660917,0.05048713,
0.00791136,0.020659883,0.070341416,0.024822837,
-0.0010153194,-0.007853203,-0.046936877,0.0027619784,
0.007451762,0.10238394,0.09960302,0.056205083,
-0.037009664,0.04009254,-0.057770472,-0.046375763,
-0.019702883,-0.04826666,0.026429016,-0.0071763364,
0.014448791,0.098570295,-0.03381363,-0.0497935,
-0.008589155,-0.006213622,0.034803852,0.049138308,
-0.05543222,-0.056100115,-0.027212564,0.045970235,
-0.03963593,0.0033695789,-0.02074178,0.04874181,
-0.06447237,0.00777505,0.027035933,0.021502042,
0.011185992,0.015029116,-0.054360084,0.023336878,
0.015537314,-0.08316292,0.023249295,0.048828438,
0.007169471,-0.011919459,0.05823016,0.050377324,
-0.06394653,0.033693284,0.0077976254,0.035725217,
-0.023298264,0.022155853,0.032288227,0.063639365,
-0.01850185,-0.052099876,-0.05661464,0.014384358,
-0.012620095,0.014690953,-0.013170706,0.0591162,
-0.09021479,-0.08482492,0.1120138,0.07362142,
0.02481491,0.052919544,-0.033986196,-0.046953376,
0.011216699,-0.05341492,-0.030074524,0.0014618003,
-0.018635014,0.04671473,0.020888813,0.05765327,
0.023430454,0.04448066,-0.021982731,0.07370181,
-0.012071974,-0.013834711,-0.042895008,0.08104811,
-0.008693824,-0.010288418,0.06924378,0.08196834,
0.08941283,-0.07631666,-0.0047221794,0.06271041,
0.008108885,-0.00014746368,-0.047367316,-0.04654652,
0.052222077,-0.050881572,-0.02518822,-0.025600452,
0.014139551,0.062006682,0.034078684,-0.04184844,
0.026748106,-0.040909786,0.059451148,0.0149083445,
-2.5504458e-05,-0.02384163,-0.06767069,0.032253694,
0.035828795,-0.047703814,0.015953427,-0.08172844,
0.027187603,-0.07829672,0.037010625,0.028829718,
0.012552066,0.015815658,0.004259584,0.05117841,
0.0018651425,-0.09512673,-0.012008664,-0.026328985,
0.08250273,-0.043329462,-0.038563505,-0.06236049,
-0.009312848,-0.00337629,0.008443717,-0.009589571,
0.07714958,0.044679377,-0.053488143,0.0147204045,
-0.077660576,-0.05896892,-0.044233542,-0.009842163,
0.028894654,-0.012779385,-0.046261545,0.08247173,
-0.0019771198,0.0024497628,-0.05672857,0.017681662,
0.111429535,-0.024719685,0.03216962,-0.040269304,
-0.041690826,-0.016925057,0.03217286,-0.052938096,
-0.020636456,0.027705103,-0.045754936,-0.023339808,
-0.005019296,-0.015519206,0.023627099,-0.006819926,
-0.059751436,-0.01708622,-0.036090523,0.0016658003,
0.039069775,0.07353898,0.049258634,0.071800254,
0.10168146,-0.053579185,-0.049188543,0.044430815,
-0.017572613,-0.024832895,-0.023474244,-0.055320837,
-0.036128618,-0.06505886,0.0024392032,-0.02653788,
-0.0074851676,-0.04104089,-0.012341076,0.008406975,
-0.04091099,-0.065551005,0.009796404,-0.008943215,
0.05698077,0.03443252,0.051362917,0.009618637,
0.046435986,-0.033041194,0.0045843446,0.026968848,
-0.04721639,-0.053808503,0.09407945,0.032941364,
0.053541966,0.03953691,-0.049295306,-0.0064970157,
-0.020881766,0.021502843,-0.051736597,0.040704336,
-0.020854007,-0.032877672,0.063373536,0.03773734,
0.008087261,0.11226244,0.08472238,-0.021553349,
0.06076931,0.009247862,0.04860164,0.018632773,
-0.057232007,-0.034763135,-0.020945534,0.040802132,
0.018697744,-0.035163034,0.01895902,0.010349988,
0.040808562,-0.12657277,0.034901742,0.03131628,
-0.013287045,0.0031109948,0.106464215,0.06851216,
0.023821233,0.0063416623,0.014929797,0.0075010224,
-0.15314911,0.012267687,-0.019292092,0.007184299,
0.026420722,-0.044726964,-0.14114472,-0.02295961,
-0.021457123,0.010465127,0.007019984,0.041348234,
-0.011881346,-0.08462359,-0.027561836,-0.033463906,
-0.01023757,-0.040485922,0.046378616,0.043756068,
0.11587552,-0.03218135,0.013765785,-0.03349295,
0.034046814,-0.08378671,-0.04588196,0.014016215,
-0.0036465072,0.017657056,0.009328951,0.040256865,
0.059949473,-0.028667126,-0.05326763,0.06542007,
0.02584688,0.021972522,-0.018664962,-0.02282612,
0.015813585,0.03893026,0.027091682,-0.0039373166,
-0.022798793,-0.016929256,0.060664635,-0.06451653,
-0.008892115,0.019640587,-0.029907435,-0.024600264,
0.026474532,-0.033789046,-0.010082358,0.008486224,
-0.020329757,0.038638044,0.013338202,0.0068225693,
-0.006351571,-0.060378477,-0.068384446,0.040328298,
0.07226707,0.023671072,0.014398317,-0.009885336,
0.045448147,0.07505096,-0.01056118,0.011434133,
-0.0061184256,0.0041721445,-0.03126259,0.022582447,
0.08482612,0.006979259,-0.052577753,-0.043672305,
-0.054760277,-0.041214973,0.031458437,-0.04036193,
0.0102377515,-0.0464528,0.0053115175,-0.07679638,
0.012430303,0.12732787,0.048877697,-0.0011882996,
-0.0630422,0.019623723,0.01250355,0.07937511,
0.08961141,0.025201943,-0.07977847,0.01607137,
-0.029062716,0.0029196786,0.03952116,0.040929176,
-0.037583824,-0.081963055,-0.0049254564,-0.044970483,
0.06060018,0.00513774,-0.079607524,-0.058333986,
0.008155375,0.06746899,0.0055930144,-0.010032876,
0.06890408,0.0567256,0.038799934,0.053785462,
0.045969784,0.07481036,0.039126143,0.003126134,
0.07767463,-0.09456012,0.0379086,-0.0009368222,
0.05424606,-0.0004702004,0.002351619,-0.06682764,
-0.023142891,0.050572034,-0.024883296,-0.037909716,
-0.04401472,-0.021409562,-0.03344809,0.06106747,
-0.059534796,-0.02748591,-0.07582819,0.0614195,
0.0014951262,-0.056525655,-0.03401598,0.01971105,
0.06008504,0.10524598,-0.039892737,0.037718568,
0.069491215,0.10662478,-0.04835917,0.12960698,
-0.026729828,0.0449515,-0.042841062,0.054919865,
0.017399468,0.06494593,0.034973904,-0.11781924,
0.071057715,-0.029394751,0.06609673,0.051902134,
-0.018097255,0.03206391,-0.018695347,-0.0715164,
-0.0254528,-0.026538083,0.012733844,-0.014498262,
0.059236173,0.046923704,-0.026714746,-0.023390176,
-0.0011566618,0.0583683,-0.0015069663,0.027230075,
-0.020098886,-0.007866584,-0.0069571002,-0.057766914,
-0.07693009,-0.072442494,-0.0059504537,-0.06275138,
0.022906758,-0.046665587,-0.008377869,0.079970606,
-0.010897961,-0.055821978,-0.026064334,0.03807128,
-0.0025839766,0.04137415,0.047428977,0.027289934,
-0.04828957,-0.013499326,0.040110685,0.017755944,
0.00761343,0.07150825,0.018014282,-0.00764264,
-0.08832607,-0.08105451,-0.089652725,0.012069505,
-0.01345632,0.01851792,-0.04321661,-0.08359924,
0.013471773,0.02498996,-0.026039064,0.05554516,
-0.06323929,0.106530525,-0.0025255983,-0.040750816,
0.0707011,0.008282964,0.07066742,-0.0009811684,
-0.026237112,-0.027631642,-0.08773303,0.12451719,
-0.03132046,-0.09198273,0.013455343,-0.08798179,
-0.04741985,0.017981065,0.005569675,-0.021395594,
0.070821255,-0.029839631,0.01679626,0.037741374,
-0.11306059,0.027706813,-0.0913176,-0.03299934,
0.011176251,-0.024486195,0.012078986,0.0424012,
-0.034625184,0.026213123,0.015131373,0.032112658,
-0.023981431,0.03566852,0.038301915,0.044230647,
0.06397535,-0.06185005,-0.028128317,0.036247816,
-0.06673147,0.100340046,0.004977733,-0.036187995,
0.010098419,-0.043514367,-0.003603048,-0.010205479,
0.07877433,0.023945177,-0.09292384,-0.10763894,
-0.023254313,0.050318956,-0.0122495,-0.045040265,
0.014429262,-0.03596089,-0.03134234,0.006772569,
-0.008766997,-0.06621555,0.10107736,0.054421034,
-0.041874103,0.011920627,0.046723846,0.023281757,
0.011758056,-0.00709718,-0.05154579,0.0071021286,
-0.031848986,0.03128533,0.041554652,0.027097741,
-0.05361153,0.028394038,0.025281169,-0.06844602,
0.024247944,-0.036098197,0.01647384,-0.0043629953,
-0.005777821,-0.08041173,-0.027101139,-0.08586736,
0.09033809,-0.09273485,0.04447733,-0.0756781,
0.017674362,0.014013195,0.01322716,-0.034051076,
-0.08021244,0.052209597,-0.03757355,-0.0022462353,
0.07390128,-0.012675296,-0.045612693,0.003175963,
-0.024349539,-0.069608286,0.0006484807,-0.028579706,
0.03484153,0.031174596,0.01968912,0.09074993,
0.02736028,-0.0039825705,0.008475201,0.059579782,
-0.012369841,0.032145247,-0.029342713,-0.016419888,
0.019629441,0.01568735,0.03933052,0.046911526,
0.07045294,-0.0037581811,-0.01869459,-0.023777397,
0.03862387,-0.04558592,-0.07681794,0.11168437,
-0.018378502,0.03663775,0.03404636,-0.01245474,
-0.058484577,-0.0013979783,0.033892248,-0.10591775,
0.05037048,0.007731429,-0.01148405,0.02849477,
0.05120067,-0.0017075111,0.0064770523,-0.059079427,
0.048318762,-0.009846692,-0.008856021,-0.0358198,
0.01880428,-0.05515589,0.016912334,-0.041493114,
-0.05716577,-0.008903763,-0.034694836,0.019080203,
0.02759241,-0.0009648745,0.14440769,-0.014593235,
-0.026449723,-0.027562678,-0.021043701,0.055318918,
0.08964407,-0.015453835,0.017674983,-0.014434922,
-0.07077771,0.03857765,0.002011512,0.025456458,
-0.068857424,0.03092405,-0.03285182,-0.0164217,
-0.011851518,0.0658311,-0.06904862,-0.0054293247,
0.01900145,0.06084134,-0.016057096,-0.010156342,
-0.008747652,0.018980326,-0.03517184,-0.013961558,
-0.01357724,0.005321433,-0.0086555965,-0.014780639,
-0.047987506,-0.0053163795,0.05949047,0.08853659,
0.0030634077,-0.021337457,0.114630684,-0.056839723,
-0.013486504,-0.036024876,0.0023237732,-0.080967896,
0.041623525,0.04898543,0.0060698707,0.013827033,
-0.007264692,-0.030945737,0.0012367745,0.037709154,
-0.013267917,-0.05349337,-0.0024825388,-0.046595845,
-0.049801186,-0.037335854,-0.02908429,-0.0037473876,
0.008099106,-0.05889456,-0.033475064,-0.05155423,
-0.01866651,0.049440946,-0.06756633,-0.0014329097,
0.07614079,0.03244737,0.031754036,0.01630379,
0.02213198,0.060155347,-0.010738144,0.033695016,
0.027140688,0.029886084,0.01484361,-0.015549061,
-0.03234998,-0.04169825,-0.059988983,0.011383413,
0.03847259,0.032078657,-0.057593994,0.0044916226,
0.053638116,0.03723875,-0.08065718,0.03132768,
-0.045097955,-0.03246431,0.038881645,0.028948797,
-0.0028051785,0.060376436,-0.015050305,-0.074747644,
0.048113015,0.032247357,-0.005350434,0.016708419,
0.094306305,0.0790384,0.02825655,-0.08020321,
-0.003255467,0.011459886,-0.04440144,0.03957019,
0.0012295931,-0.046470452,-0.055920083,0.008004257,
0.098149255,0.0032349569,0.015940666,-0.044486463,
0.0016934188,-0.05657957,0.012896053,-0.011195154,
0.07401796,-0.0018725645,0.06959831,0.059513744,
-0.0261969,0.032530524,-0.05242216,-0.015487506,
-0.00973823,-0.022316134,-0.08540559,-0.03533874,
0.024458261,-0.021028344,0.00974378,-0.052451216,
0.002956872,0.03011508,-0.060974218,-0.026557874,
0.060967714,0.066995494,-0.017961146,-0.022429181,
0.024291439,0.05052855,-0.003530341,-0.03315765,
-0.035583243,-0.02039311,-0.060392484,-0.004094588,
0.021208536,-0.032834187,-0.007824157,-0.011226629,
0.034398172,-0.014379242,-0.04985861,0.05216928,
-0.008453294,-0.029048322,-0.007373265,0.023819787,
-0.00022790107,0.0547451,-0.015397681,-0.0041605304,
-0.008197839,-0.011067751,0.008006499,-0.057347972,
0.061842177,0.032350074,0.0572613,-0.020958398,
0.030732678,0.007445405,-0.039330777,0.018538514,
0.009515883,0.045361485,-0.025211465,0.04299851,
-0.0057643172,0.006688649,0.014200769,-0.07413971,
-0.027329981,-0.001737158,-0.0019011169,0.034003813,
0.04987252,0.0060512596,-0.0004015644,0.039480574,
-0.042088702,0.012963698,-0.0066578346,0.022682484,
-0.042311482,-0.0252233,-0.0012739529,0.059410464,
-0.015798395,0.017939331,-0.06885775,-0.038731728,
-0.005548075,0.044849493,0.028086916,-0.02764991,
0.023017239,0.0010792897,-0.029253589,0.013545783,
0.03561506,-0.0002064541,0.05511664,0.046084445,
0.0836475,0.0026289579,0.0650696,-0.036366973,
-0.01396033,0.036063597,0.011709708,-0.042868953,
-0.0032191614,0.077250354,0.029986508,0.039840527,
-0.019172125,0.06690769,0.078467704,-0.007097136,
-0.03552953,0.06994469,-0.054286413,-0.0059029255,
0.04100285,-0.07196422,0.007823278,-0.015579441,
-0.046974584,-0.07451095,0.0005725685,0.03539635,
-0.0584174,-0.012238372,0.017496318,-0.035700608,
-0.048872948,0.07671799,-0.055719867,-0.040926088,
-0.016121577,0.0686054,0.08376082,-0.012134974,
-0.006637328,-0.04094489,-0.073495135,-0.06516634,
0.042023625,-0.019676667,0.03519702,0.034228243,
-0.05832797,-0.024239196,0.027099935,0.0357146,
0.015045264,-0.0030687074,0.00037753838,0.00039369747,
0.030738948,-0.0069881254,-0.035398208,0.07751459,
-0.01689185,-0.04944983,-0.016440976,-0.057801727,
-0.02266778,-0.013189517,0.038460907,0.02030907,
0.06359526,-0.097487666,0.011807943,0.0783527,
0.005977574,0.046334475,-0.036036402,0.005694504,
-0.02731483,3.5331817e-05,0.10178698,-0.033510912,
0.0026559574,0.012688178,0.040354457,0.0559325,
-0.0061417576,0.015203881,-0.035870638,0.077931754,
-0.019525656,0.01887821,-0.015921015,-0.016511047,
0.07172644,-0.011692887,-0.010510477,0.008788829,
0.04223119,0.051968653,0.010875135,-0.014630592,
0.021155044,-0.010921613,0.010565776,-0.0600186,
-0.051553383,0.0027110325,0.112902775,-0.015838042,
-0.015970415,-0.013442739,-0.018094625,0.0552173,
-0.006409305,0.0019724462,-0.038618576,0.033835683,
0.059505217,-0.07172795,0.0961942,-0.010266289,
0.004116163,0.032639116,-0.0038058865,-0.009024931,
0.052112296,0.00032071862,-0.03354149,0.05370402,
0.03550682,-0.016242571,-0.019416844,-0.007821369,
-0.025019217,-0.027931685,0.009765262,-0.097723015,
0.04924551,0.0064993156,0.0020965042,-0.065659836,
0.044149842,-0.007713988,0.03696803,-0.01813591,
0.0029590873,-0.040079173,-0.039887387,-0.011835581,
0.019112632,0.0071099256,-0.032905437,0.043889884,
0.08709181,-0.041631464,-0.006750233,0.030362424,
-0.083970584,-0.033130184,0.07639571,0.029494548,
-0.03518377,0.004094357,0.0378763,-0.022339443,
-0.00034549888,-0.03353411,-0.033379134,-0.029687261,
-0.004732727,0.007859407,0.0025684203,0.03121288,
0.071334176,0.02706594,-0.0006315989,-0.037430763,
-0.09560889,-0.06924902,-0.07995127,-0.0036120005,
-0.024739627,-0.019835033,-0.037144832,-0.019602753,
-0.022529215,-0.00090352044,0.0017641295,0.008303223,
-0.08832691,0.07174467,-0.003541656,-0.057484206,
0.02410696,0.035148982,-0.034726188,0.06272801,
-0.048368216,-0.02081395,0.0024994053,-0.04791384,
0.022422893,0.02666018,-0.068503894,-0.02938704,
0.010716289,-0.0054000383,0.04518396,-0.056140102,
0.030014744,0.039662328,-0.0446055,-0.02865861,
-0.012957358,0.042306777,-0.035612665,-0.077998064,
-0.025287442,-0.072983205,-0.040058266,0.03962332,
0.03610797,0.041473795,-0.04231498,0.008601654,
-0.0071818144,0.050412107,0.0033076429,0.01849862,
-0.03651315,0.050732695,-0.011923233,-0.01831648,
-0.10469703,-0.038014058,0.01869667,0.023204181,
0.028750068,-0.01794849,-0.020347448,-0.040044867,
-0.028602108,0.040037654,0.005378402,-0.0329228,
-0.07372152,0.027230162,0.007292549,0.004647685,
-0.066221125,0.018903088,-0.023447452,-0.053413868,
0.035103146,0.08800988,0.07632445,-0.062108375,
-0.06739454,-0.043592133,0.010250119,0.009485901,
0.018940814,-0.04453312,0.011027674,0.0044337804,
-0.023014234,0.026269991,0.021565238,0.038900506,
-0.03999573,-0.057979867,-0.09164323,0.05394322,
0.032142237,0.0034090797,-0.04264371,-0.0348761,
-0.015470258,0.00061343546,0.036745235,-0.031379562,
-0.0044661346,0.022863863,0.007052137,0.014196151,
-0.086227044,-0.042013932,0.038611695,-0.0036815733,
0.030471457,-0.015368778,-0.024175731,0.04548789,
-0.02534629,0.033678625,0.010545134,0.06488082,
0.037222356,-0.08640709,0.07670367,0.00896443,
-0.012022494,0.00911608,0.018290048,0.016570255,
0.05512691,0.06878318,0.062265053,0.07849406,
0.10824584,0.022689028,-0.04502143,0.008294127,
0.046888422,-0.004191889,-0.11780405,-0.023260644,
0.009270877,-0.0056463825,-0.008986919,0.030846668,
0.02900228,0.028380219,-0.06803335,-0.010431301,
0.009919115,0.034041468,0.0341134,-0.025674345,
0.077911414,0.057936035,0.059469808,0.0026821538,
0.06203603,-0.011498694,0.0031752875,-0.077511966,
-0.02509881,-0.028316874,0.013723675,0.044503342,
-0.02554769,0.04878221,-0.08525319,-0.0076155798,
-0.028407631,-0.094585665,0.10889424,-0.034846805,
0.011237225,-0.023704188,-0.033396475,0.037907116,
-0.0058947396,-0.013393806,0.023376554,0.04804134,
-0.06545858,-0.009854354,0.021330323,-0.03896428,
0.07296812,0.07171557,0.0041788924,-0.053479914,
-0.025960533,-0.0408868,0.08598019,-0.12343085,
-0.029172419,0.053044852,-0.06493855,-0.04629181,
-0.07642006,-0.014317894,0.0739158,-0.094721004,
0.032252323,0.009157547,-0.044422146,-0.034552585,
0.048689976,-0.009210136,-0.05837919,-0.10270504,
-0.04234001,-0.012342435,-0.08311019,0.0027583141,
-0.00072336703,-0.00040467005,-0.0024300427,0.12669396,
-0.040913954,0.016379526,-0.05443065,-0.0035038476,
0.07365124,0.013615715,-0.08533569,-0.10520107,
0.061035797,-0.050937623,-0.047637425,0.0111546125,
0.017944833,-0.06169385,0.042475108,-0.028955914,
-0.028736783,0.03942186,0.029307932,0.00564964,
-0.047066677,0.026990024,-0.06550031,-0.0034131822,
-0.027009096,0.076090656,0.01625022,0.010431409,
-0.0055206157,-0.053958815,-0.014524993,-0.018907502,
0.043101106,0.017706338,0.0025775163,-0.020149566,
0.03603019,-0.04582445,0.031815857,0.016427215,
0.0077599483,0.004200218,-0.03184483,0.054435104,
-0.076559275,0.004864297,-0.060235977,-0.07808365,
0.03736955,0.005066899,0.07766844,0.0070090555,
-0.05763684,0.025367387,0.03197103,-0.0041676275,
0.023717616,0.02560419,-0.016215695,-0.007991108,
0.0042036166,-0.017945206,-0.017872496,-0.052588515,
0.035471592,0.10915969,0.050114863,-0.059163548,
0.030680668,0.067871034,-0.06665399,-0.037491996,
0.059804797,0.019586433,0.07562713,0.09032673,
-0.07432571,-0.038925577,-0.0069488133,-0.05973108,
-0.09114033,-0.049916517,-0.007678393,-0.03306269,
-0.00920815,-0.005550839,0.06110471,-0.05907631,
-0.080861196,0.035309706,0.036531895,-0.074103065,
-0.057310667,0.049973436,0.041982815,-0.0031243593,
0.030108403,0.05016588,0.05541924,0.0028732289,
0.018458256,-0.0423941,-0.030806554,-0.017438866,
0.051629405,0.037871618,-0.0016902369,-0.05165172,
-0.032637235,-0.1291804,-0.056728568,0.083639674,
-0.021274282,0.052427348,-0.034189843,-0.034086093,
0.030309247,-0.06296085,0.012077319,-0.02881416,
-0.014398632,0.0071770516,-0.0018871576,-0.01603339,
0.04743564,0.052193943,0.07654794,-0.012177062,
0.11645491,-0.0012289537,0.04842838,-0.0010129007,
0.0055395397,-0.041630447,0.051392324,0.037067756,
0.005831596,0.039680243,-0.043177146,-0.033508793,
-0.039240193,-0.024642311,0.02490239,0.04711897,
-0.0025675667,0.041455958,0.049354028,0.028246313,
0.033764265,-0.023425927,-0.04079372,0.017072136,
0.05812916,-0.022846205,-0.06150288,-0.0322952,
-0.030984633,0.042618796,0.04837419,-0.020368965,
-0.022223217,-0.025172153,0.043094426,-0.010369194,
-0.040119067,0.038738254,-0.13384195,-0.0049546454,
-0.050214645,-0.030705877,0.038630575,-0.073152885,
-0.03165569,-0.0029729162,-0.06209594,0.080722705,
-0.023675391,0.032263696,-0.054014098,-0.0015508325,
-0.012947011,0.028505629,-0.030449525,0.018338528,
-0.01959418,0.018883087,0.0010054903,-0.031284936,
-0.07124399,-0.034421574,0.014777536,-0.08138518,
0.012452793,-0.040647388,0.008382483,-0.024534674,
-0.052168876,-0.011212471,0.0152959945,-0.072070315,
-0.037150588,-0.052359957,0.0053095133,-0.0093027465,
0.030296508,-0.08055137,-0.03315955,0.07876921,
0.021400368,0.015265098,-0.009598374,0.008209997,
0.018844612,-0.020802181,-0.05077578,-0.019088605,
0.047516104,0.0007561171,-0.035650205,-0.017923588,
-0.05449742,-0.05544741,-0.104173936,0.014790875,
-0.03824693,-0.047676522,-0.0018532785,0.041896045,
0.011670062,0.025936194,-0.038028575,-0.017456684,
-0.0049456875,0.032261517,-0.02362175,-0.020063877,
-0.010991705,-0.020262072,-0.113089174,-0.027302122,
0.023053752,0.0034226286,0.019608287,0.018132139,
0.002101245,-0.043788146,-0.014287533,0.018026419,
-0.061840378,0.0048305965,0.013490955,-0.015018047,
0.02914726,-0.023637054,-0.032579485,0.008627448,
-0.06276973,-0.022727326,-0.027721498,0.001254634,
-0.007822153,-0.008454226,-0.03361057,0.045018163,
0.014243741,0.04367773,-0.031833436,0.05039002,
-0.010069484,-0.054838702,0.05837716,0.010939414,
-0.023575911,0.0022482884,-0.007576756,0.033777688,
-0.05217877,0.04117806,-0.10261641,0.025424745,
0.0182485,-0.009661165,0.05019752,-0.018603383,
-0.0038821804,0.008304672,-0.019465039,-0.021231405,
-0.06306224,0.12909977,-0.04638109,-0.045933392,
-0.05601722,0.04375067,0.009866419,-0.08773117,
0.03784373,0.028269634,-0.0092055565,0.068670124,
-0.01153417,0.058571376,-0.0036995506,0.03765077,
-0.02974306,-0.02833811,0.08578474,-0.04133344,
0.015128858,0.08234119,0.043674268,0.008793102,
0.05082722,-0.016652564,0.02346606,-0.032499794,
0.07928806,0.05133481,0.008199055,0.042098835,
-0.067315094,0.016375197,0.055034414,0.04432076,
0.05915062,-0.021074098,0.0274844,0.006561564,
-0.009218077,0.001608595,-0.024845438,-0.038023088,
-0.046952214,0.025215853,-0.016524632,-0.017852396,
0.022568202,0.009248264,-0.0113603575,-0.017348636,
0.050070666,0.013592246,-0.02727207,-0.00015469387,
0.023934817,0.028797375,-0.04721864,0.03118927,
-0.04184305,0.016886985,0.01581617,0.00046691025,
0.027099263,0.018097911,-0.0036353692,-0.03527172,
-0.0118397465,0.073528774,-0.0071260924,0.0419077,
-0.03411762,-0.052694127,0.11876319,0.049477696,
-0.020839531,-0.019267,-0.013775332,0.029555527,
0.06184941,0.094386026,0.0107815,0.06847204,
-0.005165562,-0.014946421,-0.038746465,-0.04528858,
-0.068136506,-0.015230254,-0.035445396,-0.02678242,
-0.0098627815,0.017029913,-0.0024160375,0.049702045,
0.02298807,0.0046709194,-0.029605737,0.063278906,
-0.002664312,-0.0067106765,0.0811931,-0.08341202,
0.0034256282,-0.009999995,0.016714921,-0.070862666,
-0.023096584,0.00060605904,-0.08464181,-0.029849615,
-0.039045557,0.07687994,-0.06665262,0.08123744,
0.04823367,0.034420382,-0.04997044,0.04465913,
0.004230202,0.03292002,-0.121485494,-0.005883925,
0.038068812,-0.033762008,-0.010489022,-0.0044127037,
-0.014378718,-0.07329619,0.0011428001,-0.05111521,
0.024472302,-0.021691801,0.019633554,-0.032546002,
0.047769092,0.0038064937,-0.09401583,0.029726448,
0.012985166,0.092972405,0.02658676,-0.025815917,
0.00034724115,0.06681618,0.06315292,-0.010900925,
0.021961259,-0.016827399,0.047051877,-0.01496007,
0.05624376,-0.010425196,-0.05863798,-0.050348252,
-0.045371115,0.029741118,-0.05433446,-0.054715995,
0.07866213,0.06768446,-0.07320882,0.011733302,
0.025600426,-0.05376533,-0.06300745,-0.007900916,
0.05232684,0.019414568,-0.079066575,-0.03507407,
0.006490825,0.038178798,-0.06904967,-0.03159174,
-0.011104514,0.014185302,-0.014091458,0.019407352,
0.029179351,-0.030255582,-0.042548932,-0.014905678,
-0.067038134,0.048000943,0.0061902725,0.11814354,
0.032621734,0.02464681,-0.073437795,0.02375142,
-0.05096071,0.014235983,-0.046159226,0.039910223,
0.0038882988,0.02917399,-0.04990666,0.03814229,
0.029386237,0.052804623,0.0133101195,-0.09104116,
0.04912422,0.014803148,0.010952309,0.1161738,
0.02747812,0.0135043,0.009159407,-0.025521317,
-0.06999245,-0.02797896,-0.01973646,-0.15554868,
0.068563245,0.008245977,0.034263443,-0.04566964,
0.05771539,0.06633636,-0.04064393,-0.0061755893,
-0.027127717,0.04658957,0.044171806,0.058009427,
0.032562174,0.0075944657,0.022443524,-0.0039747357,
-0.056592196,0.073596925,-0.014437376,0.011116297,
0.057596758,-0.021658717,-0.024802547,-0.055327516,
-0.007215958,-0.033209965,0.06189267,-0.10742881,
0.0054671657,0.02374862,-0.017266918,-0.01290755,
-0.015647534,-0.006226249,-0.04271751,-0.010049853,
-0.02872779,-0.033664256,0.07111897,-0.01311575,
0.08022547,-0.024852354,-0.042963736,-0.0068960944,
-0.03533217,-0.022597006,0.00094032724,-0.032693367,
0.05216155,0.02997375,0.01900866,-0.013579795,
-0.015315313,-0.047571152,0.025337717,0.011829521,
0.06535463,-0.043018553,-0.019772587,-0.045664076,
0.04181866,0.03648415,0.027118199,-0.021698745,
0.006934421,-0.04608605,0.010145674,-0.031500448,
-0.04157346,-0.035966475,0.011079168,0.07120999,
-0.026555663,0.0088198185,0.061120715,-0.018148882,
-0.062063202,-0.048385296,0.01342044,-0.031664837,
0.02578201,0.026483173,0.0069639767,0.0470337,
-0.008039317,0.040069938,-0.033140603,0.0011302363,
0.045171548,0.04581026,0.00066002266,-0.0069672973,
0.055320326,0.03176239,-0.02145932,0.032518547,
-0.08112506,0.03097779,0.035278976,0.06002141,
0.029999267,-0.03200085,0.11517533,0.01272694,
-0.020838574,-0.055390406,-0.089921534,0.08158344,
0.120958865,0.010178613,0.034137554,0.017071525,
0.0046814773,0.040641785,-0.06949785,0.013237651,
0.019142075,0.008307141,-0.07339197,-0.0018035823,
-0.07129654,-0.056114875,0.03220875,-0.061559636,
-0.06769834,0.04090498,-0.042107258,0.004896486,
0.032455858,-0.029269,-0.05163938,-0.010705632,
0.0028327832,0.05721251,-0.0066715814,-0.0200303,
-0.042927403,0.053311862,-0.043827116,0.022868643,
0.04667785,0.04133049,-0.007935413,0.084171355,
0.103936225,-0.059130237,-0.019969864,-0.06510719,
-0.028625391,-0.13820589,-0.047081266,-0.018480007,
-0.031831153,-0.07287341,-0.05577645,0.005971269,
0.013081544,0.03279329,0.02755922,-0.07583544,
0.0033581757,-0.046206787,0.045304,-0.049123988,
-0.026829263,0.034723062,0.02021829,0.025683567,
0.06396119,-0.012066497,-0.0107733235,0.09755521,
0.008627736,0.01847487,-0.040545493,0.04886758,
0.09832924,-0.023414332,0.012053156,-0.04676151,
0.004353376,-0.051700942,0.039128523,-0.021702733,
-0.053978655,0.004977994,-0.026174996,-0.028316997,
0.03273159,-0.0027283211,-0.010984051,0.0018119651,
0.079122186,0.07249229,0.05254738,-0.021493383,
-0.05207824,0.04888679,-0.06828991,-0.054108012,
-0.018416367,0.008947512,0.014130275,0.006850188,
-0.037920073,0.08723914,-0.07211652,0.019650025,
0.032840233,0.0050660176,-0.039213017,-0.0036640563,
0.048884146,0.0043968596,0.040885728,-0.059550766,
0.079502314,-0.0023833914,0.021012072,0.007476249,
0.028540501,-0.041972227,0.0012352847,-0.0628498,
-0.027943544,0.073761836,-0.005051046,0.016647197,
0.02977669,-0.06690874,0.031950425,0.031734366,
0.053884152,-0.013373167,-0.020019582,-0.038168352,
-0.038175143,0.0039072935,-0.07377835,-0.012523374,
0.008197491,0.043199506,-0.051414963,0.01261417,
0.04480566,0.053153552,-0.034707222,0.040392306,
0.040521104,0.010647681,0.085421674,0.05115927,
-0.009573649,0.04696107,0.04272879,0.024768528,
-0.031149404,0.053422384,-0.0096840225,-0.001438812,
0.003256641,0.04855367,-0.0015376798,-0.019701716,
-0.029466644,-0.052610256,-0.0017769807,0.052737642,
-0.016406229,-0.011512364,-0.01973959,-0.043686725,
-0.027941564,0.025786366,0.030832568,-0.0005760934,
0.015918994,-0.04125025,0.021043517,0.06842622,
0.08638622,0.006623052,0.019029677,0.01761805,
0.023385648,-0.023826422,-0.04158807,-0.06944991,
-0.013910278,0.00843561,-0.004529293,-0.039033115,
0.096087255,0.031555608,-0.06655214,-0.050748877,
0.026411803,0.04309044,0.05892282,0.041216698,
-0.07021841,-0.055598248,0.009118681,-0.072399706,
0.025413662,-0.031515427,-0.096113056,0.021738078,
0.04909405,-0.04289854,-0.018154237,0.062038697,
-0.043070752,0.03384546,-0.02430397,-0.10840951,
-0.023703499,-0.1210044,0.048367728,0.025977492,
-0.04454905,0.04509936,0.01682449,0.029822009,
-0.010765866,-0.010617941,0.033975467,-0.0016344313,
0.00043592052,-0.014014126,0.04305674,-0.015050442,
-0.05308509,-0.0379132,-0.030768003,-0.074094616,
-0.0033112722,0.042008046,0.09343961,-0.05034085,
0.015698401,-0.013608627,0.054747477,-0.048656683,
-0.015957216,-0.02979016,-0.0552111,-0.070497826,
0.009708908,-0.047959868,-0.010872681,-0.05358032,
-0.06581805,0.027358651,-0.03798848,-0.025003465,
-0.049040437,-0.029668294,0.05154294,0.052276988,
-0.0014445924,0.0041060806,-0.032556243,0.018728673,
0.07505054,-0.0053013414,-0.012181385,-0.037531395,
0.028243937,0.05479523,0.008316031,0.015865121,
-0.032699373,-0.11062992,-0.006168163,-0.0810198,
0.011312858,-0.044227373,-0.024749488,-0.072796814,
-0.07948013,0.020824814,-0.061847538,0.047796637,
0.06831546,0.021595279,-0.0024889493,0.07005783,
0.01821564,0.021137128,0.031160362,0.0026058473,
-0.012883861,-0.019746426,0.020538485,0.01327935,
0.009894916,-0.017643543,-0.12069526,-0.07886778,
0.0053685782,0.010795982,-0.09325946,-0.031534035,
0.016463794,-0.008908094,-0.010069027,-0.002257354,
-0.044684246,0.01758093,-0.016391968,0.009397714,
-0.066817954,0.103133656,0.020591196,0.056228597,
0.019306336,0.03028187,0.025846966,0.013857391,
0.03465088,0.019459985,-0.027442424,0.0323465,
0.080499835,0.04757741,0.0067180744,0.053181306,
0.073409095,0.06444796,0.0026128131,-0.024261035,
0.13900638,0.032547988,0.037254505,-0.038069338,
-0.02472526,0.052681513,-0.018648166,-0.019292114,
0.0015767328,-0.03654814,-0.058896285,-0.0063299653,
0.0492238,-0.06906799,-0.05294836,-0.056099795,
0.003811464,-0.031341493,-0.00575411,-0.074854836,
-0.01587088,-0.05212612,0.037284635,0.07960118,
-0.0757809,-0.005680509,0.013680569,0.0053538363,
0.019634476,-0.04984594,0.0072622444,0.08083713,
0.050860617,0.056382623,0.053221114,0.0026784525,
-0.013986838,-0.0055404236,0.03714923,-0.084345974,
0.0040582493,-0.011342724,0.026064388,0.046602424,
-0.071675375,0.05366613,0.053372264,0.016863497,
0.012243791,0.05973687,0.027409969,-0.0038258564,
-0.021787234,-0.020117735,-0.04939872,0.02880424,
-0.0589782,0.022547744,0.0037924722,0.06335638,
-0.04057434,-0.0013037449,0.0010708895,0.07491678,
-0.05660382,0.008990654,-0.03285095,0.020789675,
0.090283535,-0.007156434,-0.010469193,-0.081453994,
0.09033341,0.038554844,-0.006303905,-0.009411691,
-0.08049737,0.037743688,-0.032850146,0.02684239,
0.027072446,0.008885238,0.020652154,0.013025919,
0.06622977,0.040570773,0.059853848,0.015215324,
0.026072096,-0.010680542,0.003824283,0.056746222,
0.019948596,0.011997834,0.0099676605,0.012795794,
0.06806066,0.043224256,-0.038919527,-0.014625392,
-0.027291147,-0.06593516,0.028610772,-0.03957584,
-0.0212088,0.005676394,0.06922704,0.029277332,
0.012976487,-0.039664168,0.030131454,-0.022380322,
-0.08383399,-0.052215472,0.008794025,0.043388903,
-0.04296175,-0.048459414,-0.0016875814,-0.014071011,
-0.0019303283,0.044841647,0.03480392,0.06784876,
-0.11434657,-0.0571677,0.0341671,-0.008968117,
-0.07011501,0.013298595,0.022895616,-0.07155163,
0.013744774,0.03996273,-0.029939197,0.009629172,
-0.04383885,0.05251055,-0.04054362,-0.057809405,
0.011777358,0.018340468,0.0149120465,-0.03095215,
0.0022265296,-0.026036765,-0.051038142,-0.13059066,
0.0787481,0.007908336,-0.09430971,0.026829766,
-0.015879901,-0.014918183,-0.021572338,0.03914697,
0.039359502,-0.015648264,0.020028124,0.019895405,
-0.016542979,0.040589947,-0.0046127154,0.005639293,
-0.06958007,-0.0101784,-0.094948255,-0.07705209,
-0.012824159,-0.01148937,-0.04417466,-0.054487657,
-0.012433237,0.06200373,-0.021612525,-0.006251464,
-0.03495283,-0.013171555,-0.00047046482,0.0073474916,
-0.0068092295,-0.03278873,-0.012802421,-0.0053145466,
0.03843034,0.025125,0.062332436,0.01239184,
0.040335987,-0.012644815,-0.010742884,-0.011238012,
-0.044163913,0.019044453,-0.09637309,-0.029118763,
0.08468831,0.008723202,0.012467896,-0.031639624,
0.016024197,0.015872436,-0.042004567,0.057523392,
0.03166293,0.025477646,0.07156421,0.014328012,
-0.0004917122,-0.07465363,0.027013602,-0.021101266,
0.09006419,0.0017672156,-0.01238703,-0.03233177,
0.016781354,0.05391572,-0.039938748,-0.03791905,
-0.0024447036,-0.039350756,-0.06552112,0.014865085,
-0.016586065,0.09816524,0.014870981,0.032096535,
0.030752309,0.004375722,-0.0051756515,-0.085809715,
0.03479031,0.06887393,0.0012127754,-0.09488689,
-0.02419428,0.0101641035,-0.007345751,-0.030058153,
0.03000867,0.025611905,0.041509055,-0.017123923,
0.056084212,0.010419314,-0.03498369,-0.038412213,
0.030613255,0.053170502,0.07998203,0.023455542,
-0.06850711,0.0040399362,-0.039340038,-0.13819623,
-0.059540488,0.07829306,0.02624603,-0.029398628,
-0.050036818,-0.021954589,-0.07162593,-0.03212736,
0.008824013,0.097178295,-0.014522166,0.03085042,
-0.068372846,0.038865447,-0.03805877,-0.017636117,
0.010332117,-0.020040333,-0.0034121796,-0.078875214,
0.028898863,-0.0451955,-0.025223248,-0.018271623,
-0.03611105,-0.019225795,0.0006387661,-0.03543768,
-0.020561807,-0.10278158,0.025095232,0.01872363,
-0.015418265,0.013325012,-0.0820303,0.023390343,
-0.04517846,-0.02088035,-0.062399704,-0.041267063,
0.021161247,-0.04401655,-0.033858765,0.026376821,
0.002231222,0.00315676,0.079536736,0.053766243,
0.09551603,0.053863097,0.0485118,0.027550854,
-0.03586328,0.0077431006,0.028357605,0.0433603,
-0.026207136,-0.032826304,-0.023030235,-0.047211297,
-0.07305217,0.010158177,0.079196155,-0.06343606,
-0.0348311,-0.043805443,-0.07640132,-0.07176578,
-0.04568977,-0.013217752,0.03825579,-0.0056190575,
-0.09757339,0.042753875,0.07412603,-0.00508953,
-0.035573814,0.02169407,0.014350883,-0.01894385,
-0.0104710655,-0.035393927,0.042952232,0.044338904,
-0.053298034,-0.00997327,0.06915224,0.018259693,
-0.023788666,0.001958502,-0.011396304,-0.020206397,
-0.06822813,-0.030448288,0.0056085126,-0.016140232,
-0.0018675181,0.045889974,0.057704285,0.019350925,
-0.025783826,-0.09785041,0.0028333715,-0.12787415,
0.04570564,-0.031544153,0.008443495,-0.015962498,
-0.09214398,-0.008151647,0.036365222,-0.032768812,
0.0338233,-0.06252705,-0.05347829,-0.053195823,
0.13764258,-0.124974914,0.056109536,-0.06532753,
-0.007136486,-0.05900747,-0.016970493,0.04786402,
0.017045075,9.6053634e-05,-0.07875884,0.0023545097,
-0.05959181,0.0038789862,-0.060234394,-0.07343008,
0.030540971,-0.022399602,-0.107127436,0.019596223,
-0.013825466,0.024765266,-0.04263874,-0.06289815,
0.006513836,0.03191715,-0.041524414,-0.03683466,
0.038271323,0.018170772,0.019456627,0.029452791,
0.075889274,0.042142794,0.0801882,-0.06275022,
-0.0141835585,0.033172958,0.03991411,-0.034112867,
0.024849763,-0.03662977,-0.0017184234,0.042053215,
0.01741128,-0.029087182,0.02328716,-0.00025751124,
0.07044735,-0.015664376,-0.012966149,-0.005000141,
-0.0107707465,0.05294921,-0.040099684,0.014866534,
0.027297417,0.03335257,-0.04801871,0.004586264,
0.04011789,0.026705068,-0.08484346,-0.047609173,
0.061576433,0.030614074,0.010552278,0.013582545,
-0.013544741,-0.048828144,-0.017808517,-0.055937596,
0.020947529,0.07049766,0.0012175306,-0.02149673,
0.06640116,0.067419074,-0.013085129,-0.024396159,
-0.03944486,0.019728603,-0.0051261387,-0.10040569,
0.020046983,0.08516528,0.0025410098,-0.059829857,
0.04319559,0.032760356,0.08165074,-0.0141354455,
0.025380852,-0.04150665,-0.05265296,0.024838908,
-0.023344874,0.044290934,0.03282339,-0.12865031,
0.00949449,0.039284006,-0.02442989,0.05400972,
-0.03970332,0.0062684366,-0.07601732,-0.037349068,
0.083235316,-0.040504165,0.042835087,0.023315143,
0.048407447,0.025325598,0.044012174,0.07098277,
0.02480494,0.019464493,-0.06918551,0.101908594,
-0.028140813,0.13900532,0.06400575,-0.0023491315,
0.05143415,-0.009955902,0.054481585,0.02833587,
-0.15842916,0.05838885,-0.027216002,0.009889957,
-0.027171893,0.027545765,0.003311955,0.050590184,
-0.020204779,0.03909062,-0.061808944,-0.023674369,
-0.02471948,0.058616515,-0.023849435,0.004040252,
0.014243489,0.03427863,0.050074283,-0.0192906,
-0.0001958138,-0.08697582,0.059058286,-0.02138859,
-0.005621462,-0.016512645,-0.034944624,-0.017340535,
-0.06535789,0.038237784,0.040563554,-0.049374238,
0.036323752,0.071230136,0.040823545,0.12057139,
0.1126689,-0.00082340086,0.06261383,0.04967464,
0.032000214,-0.05051574,0.011193071,-0.005578656,
0.03551459,-0.021699099,0.038140055,-0.033749454,
-0.0025423218,0.04676268,-0.0054416335,-0.0834394,
-0.06720479,0.01899283,0.07670796,-0.002534835,
-0.068281524,0.009965545,-0.010221179,-0.036495995,
-0.09810013,-0.03126397,0.018058669,-0.0042891046,
0.027009644,-0.042801626,-0.06279931,0.025287885,
-0.007341886,0.013386169,-0.033488702,-0.053917672,
0.009028658,0.018086612,0.029778428,0.030461105,
0.03735436,0.057964608,0.021815782,0.0097594615,
-0.023393495,-0.033201545,0.028929485,-0.042172432,
-0.03292419,0.09090445,-0.031007627,-0.029407598,
0.010059716,0.073638976,-0.00494581,0.01671484,
-0.049983166,-0.028016673,-0.0014455563,-0.04179251,
-0.008796392,-0.018545402,-0.03853556,-0.03536256,
0.076291054,-0.03351288,-0.009598663,-0.052277748,
-0.0030327514,-0.07029124,0.0053057713,0.008214012,
-0.038273133,-0.05059143,-0.02126366,0.09684603,
-0.011280017,-0.022003548,-0.012751376,-0.047500942,
0.031804115,-0.034920618,0.018025253,0.09414822,
-0.11608614,-0.009136075,0.07389769,0.029715212,
0.018931855,0.014632058,-0.029418752,-0.037826,
-0.019658448,-0.0007190216,-0.059949957,-0.025643392,
-0.041107647,-0.07279275,0.014264563,0.017557912,
0.03563145,0.05643152,0.0013560295,0.02521209,
-0.010433339,0.0027048925,-0.043747663,-0.007021123,
0.022674067,0.03381871,-0.013821738,0.08385608,
-0.07665961,-0.015314183,0.013422879,0.05198635,
0.03731788,0.021797128,0.050985646,0.11654825,
0.03622506,0.04891226,0.030189177,-0.02168655,
-0.028179884,0.03967778,0.05126247,-0.016950166,
-0.03916103,-0.04093909,-0.01641511,0.008620807,
0.060805466,0.008375824,0.026796272,-0.02067142,
0.07371634,-0.054229468,0.01180583,-0.016034095,
0.004868668,0.056392223,0.011595736,-0.03756397,
0.01936802,0.01945327,-0.021602923,-0.02462067,
0.046885308,0.08034618,0.014003506,-0.1119756,
0.07289282,0.061475217,0.049836162,0.049329147,
0.0915,0.061369218,-0.0138339205,-0.050881587,
0.02643917,-0.046825442,0.039072353,0.026767781,
0.008029987,-0.06435923,0.024627909,-0.050311267,
0.014046525,-0.071190886,-0.022856662,-0.016863493,
-0.03268823,0.03411526,-0.027293876,0.020827772,
-0.077898555,-0.06991216,-0.06751926,-0.0152875045,
-0.062640205,0.027131174,-0.025548724,0.017440824,
-0.036536276,0.026738554,-0.004021013,0.065817386,
0.03198895,0.0021832678,-0.035069473,0.057562295,
-0.055385068,0.02683086,-0.07320862,0.08583218,
-0.00083211384,-0.023459636,-0.04027302,0.07523145,
0.01445275,0.0387873,0.01734968,0.026486311,
0.05490611,0.10181217,-0.017964715,-0.0440909,
0.031458165,-0.0050562103,0.007893953,-0.010085329,
0.007234519,-0.013401384,-0.06332406,-0.008319676,
0.080516785,0.08754424,0.006796278,-0.0025130787,
0.047289435,-0.054730743,0.032410763,0.0076748175,
0.042367887,0.04071833,-0.05856751,0.030930523,
0.021106137,0.054832317,0.00065680465,-0.011629144,
0.024714738,0.0747418,0.009136068,-0.05058241,
-0.07691142,-0.013520768,0.012870752,0.025599571,
0.022082616,-0.08564774,0.046848293,-0.006546862,
-0.050486505,-0.018941911,0.047521763,-0.07334538,
-0.035374656,-0.0379365,0.071311526,-0.08260008,
-0.028113753,-0.014537686,-0.024584986,-0.05814232,
-0.04887929,-0.050799884,0.041975163,0.04889923,
0.008771761,-0.032454204,-0.021165889,0.03696639,
0.004244712,0.05764966,0.04896913,-0.057845637,
0.0018232814,-0.031151865,-0.0123905055,0.012524898,
0.02824487,-0.00034066773,-0.004507049,-0.0097580375,
-0.059780773,0.027526438,0.07273433,-0.0386203,
0.028821904,0.04376999,0.027110675,-0.04493739,
0.049403325,-0.016335499,0.026151288,-0.119970515,
-0.0010270316,0.0025186196,-0.07387746,0.022472022,
0.014965377,-0.0699177,-0.00779896,0.04274826,
0.0027751268,-0.0219821,-0.030815521,-0.028773613,
-0.09312504,0.047399774,0.026662253,0.06121844,
0.06940722,-0.07325202,0.022821425,-0.03207512,
-0.020301362,-0.08536448,-0.014157079,0.06507319,
0.0024972886,0.020877164,-0.043745648,0.034918074,
0.028147131,-0.05488922,-0.009187551,-0.034601077,
-0.031408433,-0.020206062,-0.0040150844,0.023465091,
-0.008215374,0.03280104,-0.023522481,0.005589848,
0.018509813,-0.032930437,0.030662805,0.08485958,
-0.067634426,-0.089376695,0.01476834,-0.05838949,
0.11536716,0.011869378,0.0068516624,-0.0016289209,
-0.018198144,0.016175324,0.07797722,-0.015381907,
-0.026684815,0.0023588324,0.019547872,-0.017711693,
0.015327815,0.073406965,0.021665188,0.01839632,
-0.028713917,-0.03982595,-0.0123581765,-0.062903434,
0.023130186,-0.023302386,-0.013182209,0.06294812,
-0.081494965,0.022027085,0.0011552123,0.0263623,
0.07260064,0.015805721,0.013150214,-0.03390356,
0.025730787,-0.04672737,0.083007105,-0.07692232,
-0.016881896,-0.031227937,-0.01796387,0.024859026,
0.021216527,-0.025769567,-0.058491006,-0.12927398,
-0.081673115,0.0328178,0.014289051,-0.022090564,
-0.018824372,0.099968374,-0.055167444,0.01789089,
0.0064840163,0.072546445,-0.030267961,-0.03632319,
0.027542023,0.00035442377,-0.08951029,-0.03846517,
0.009775344,-0.04203029,0.020405719,0.07204736,
0.0026418802,-0.021143338,0.055109017,-0.019919917,
0.039694387,-0.09685589,-0.048324883,0.012437368,
0.021839699,-0.039659485,3.4085075e-05,0.015299562,
0.06216888,-0.028015403,-0.029553382,0.040309407,
-0.008275242,0.052137423,0.066707894,0.045226585,
0.049590815,0.02182065,-0.053698115,0.046235103,
-0.0517583,-0.008790678,0.017971281,-0.00143153,
-0.0003784199,0.019728739,-0.06670099,-0.010581491,
-0.026983889,0.06402685,-0.018128335,0.035481516,
0.052713733,0.017187221,0.027875558,-0.02170249,
0.046299227,-0.03992217,0.013323907,0.02803196,
0.018498456,0.110724576,0.09137669,-0.001390972,
0.04315291,-0.036454946,-0.013601373,-0.020845663,
0.0181852,0.037105832,0.08990815,-0.059013437,
-0.047802206,0.0013515112,-0.018293913,-0.09311004,
0.0013885453,-0.059607126,-0.110285595,0.012924879,
-0.024406506,0.05025778,0.013825065,-0.053904437,
-0.039937917,-0.01344953,0.030271119,-0.030940564,
0.01588819,-0.043631192,0.002892458,-0.043581307,
-0.014717343,0.09387103,0.025265612,0.023562562,
0.024222149,-0.028760167,-0.013407254,-0.077526525,
-0.031922914,0.08585773,-0.013721879,-0.00655479,
-0.0031305873,-0.05373537,0.0032110144,0.0029686117,
0.021500021,-0.088895686,-0.04272515,0.015141166,
0.01418971,-0.035255723,-0.003834667,-0.0085986005,
0.072927326,-0.033749085,-0.03551742,-0.04282629,
0.013034886,0.0007345368,-0.03342017,-0.101623915,
0.05347736,-0.046148844,-0.037938587,0.045827746,
0.02293375,-0.0032580132,-0.089891285,-0.0025449179,
0.0004741342,0.0029018538,0.008698904,-0.044395894,
-0.034008365,-0.037588805,0.04351622,-0.019089472,
-0.030257745,-0.01211955,0.016929472,0.063926935,
-0.015328278,0.004493102,0.02453103,0.036597088,
0.034505136,0.018785097,0.028786866,0.048068013,
-0.040370535,0.004895046,-0.044622254,-0.027774252,
-0.019458441,0.051735558,0.026210789,0.00060461485,
0.037447438,-0.0257192,0.033955056,-0.007497541,
-0.042933147,-0.004560101,0.09910972,0.018247176,
-0.01304364,-0.021939365,0.036339596,0.030009247,
-0.046040703,-0.0495669,0.10786451,0.0325502,
-0.060708225,0.0011729294,0.008756972,-0.03547645,
0.03459884,-0.031155612,0.0250151,0.005939233,
0.03556773,-0.06618421,0.10621032,0.03201397,
0.0010085151,-0.043941855,0.033044036,-0.0912613,
0.021948438,0.015477667,0.056053866,0.005263258,
-0.046989087,0.0029603564,-0.014958398,0.013341213,
-0.0066121896,-0.079032004,0.008082893,0.015466476,
0.06614937,0.052420624,0.009013461,0.038028512,
-0.010852654,0.066646844,0.011465941,0.00039768874,
0.021662835,0.010350996,0.03680941,0.0065937894,
-0.03596841,0.024104252,-0.009646398,-0.02126406,
0.08310589,0.058162358,0.057971295,0.03120688,
0.03888851,0.030467609,0.028040908,-0.01155117,
-0.025816765,0.038148377,-0.06792027,0.018650457,
0.047055915,-0.013462801,-0.06032554,0.023129858,
0.03261231,0.060917206,-0.074810386,0.010165894,
-0.0027695063,0.02437074,-0.06306415,0.06226328,
-0.0045282454,-0.058849603,0.038636368,0.05811809,
0.078055285,0.0756693,0.011964823,-0.03356801,
-0.045700014,-0.034539737,0.012373765,0.13323957,
0.0125200935,0.02983144,-0.07348973,0.019089706,
0.005889751,-0.01283206,0.04463397,0.07179651,
-0.0009394425,-0.06993688,0.01622561,-0.010066784,
0.057352338,0.047360085,0.048386205,0.055471648,
0.0031140407,0.03278202,-0.04167616,-0.0077566067,
0.006769055,0.014397063,0.04684162,0.038438648,
-0.050653707,-0.03873494,-0.09510143,0.08169613,
0.07030631,-0.043111864,0.02117822,0.0374888,
0.020241205,-0.002764352,-0.017060509,0.14613713,
0.05262501,-0.014521948,0.022468265,-0.035043098,
0.017403113,0.029907981,-0.016701195,-0.055380084,
-0.10031407,-0.030948916,-0.026496472,-0.06373088,
-0.09599318,-0.046815798,-0.063708484,-0.003798755,
0.03295575,-0.004321536,-0.013512299,-0.07023952,
0.04278265,-0.041263018,0.035173412,0.036663525,
-0.00014048914,-0.011872947,0.004007772,0.030681964,
-0.013221766,0.09912101,0.0047609825,0.035170335,
-7.929457e-05,0.017857023,-0.05528904,-0.019028727,
-0.037920285,0.048945118,-0.056386467,-0.016357468,
0.025150344,-0.038603887,-0.03192256,-0.012816785,
0.06727526,-0.018946242,0.024373047,-0.07718383,
-0.009576123,-0.049465366,-0.014653364,0.045099776,
-0.0035640253,-0.006304791,-0.09549329,0.004964329,
-0.022283982,-0.034710996,-0.0274911,-0.008426118,
0.006535492,-0.09210247,-0.015346834,0.0540942,
0.03440496,-0.031190896,-0.061445307,0.037041083,
0.027082227,-0.06628753,-0.029710976,0.02412095,
-0.0443947,-0.025570516,-0.035008732,0.038685028,
0.06449407,0.019165942,-0.020466533,0.017819278,
-0.032730922,0.032298256,0.029796446,-0.036354944,
0.00942716,-0.03926509,-0.045486547,-0.06679769,
0.042876873,-0.019241493,-0.079124466,-0.05859984,
-0.06815681,0.031661425,-0.046478048,-0.017991332,
-0.056651823,-0.0076438435,-0.042287212,-0.004103001,
-0.08735629,0.026874693,0.011736393,0.0059322123,
-0.0037399062,0.08555441,-0.023814103,0.0065083145,
-0.08454934,-0.05030072,0.0021230495,-0.008595362,
0.035036556,-0.011866421,0.014505399,-0.05822151,
-0.11165861,-0.009392939,0.008907508,-0.007615691,
-0.004012735,0.073220134,0.049069796,-0.015671488,
0.01639873,-0.016453175,-0.02662122,-0.015487329,
0.035204384,-0.06773373,0.027275318,-0.014223009,
-0.063614845,0.06422573,0.062841326,0.018800039,
-0.0077366787,0.009079809,0.017593537,-0.02891482,
-0.040740725,0.09254157,-0.02638605,0.054718267,
0.01105031,-0.046722252,-0.031166594,-0.025130637,
-0.023875201,-0.029250544,-0.029727707,0.09374647,
0.0097793965,-0.0580355,-0.035826165,0.030026156,
-0.0064749555,-0.022540255,-0.00857927,0.021369588,
0.032409154,-0.025824266,0.016994234,0.052814677,
-0.018782448,0.0014083034,-0.0031332911,0.058349486,
-0.030087233,0.024925197,0.01050478,0.025403894,
-0.025935492,0.04435053,-0.007286387,0.012029107,
-0.011584436,-0.034342654,0.073817395,0.019279253,
-0.0014674315,-0.010530132,-0.010560481,0.043341376,
0.0023401033,0.07153449,-0.054257568,-0.01611621,
0.030902144,0.112788804,-0.036346972,0.08080148,
0.09004819,-0.04292842,-0.00072730915,-0.101412274,
0.06735454,-0.052349895,0.027319195,0.007848365,
-0.0051435847,-0.016638106,0.018970512,-0.02507915,
-0.010096252,0.01517791,-0.12008189,-0.13591543,
-0.012888304,0.06272298,0.06527476,-0.022315847,
0.071435414,0.038435616,0.043882,0.022493383,
0.05214299,-0.010023154,0.06411738,-0.016291017,
0.087844044,0.015798839,0.0103571145,0.054071315,
0.0749892,-0.050233077,-0.06876144,-0.10262567,
0.010644909,0.0075512985,-0.03241846,-0.034409806,
0.012692613,-0.01771844,-0.004026242,0.020104652,
0.052952092,-0.06462079,0.0044936836,-0.019179681,
-0.013827354,-0.0138200745,0.00039246795,0.013981677,
-0.054930754,0.017112436,0.04695889,0.002492417,
-0.01139372,-0.041348867,-0.0292096,-0.019396108,
-0.010533279,0.002618214,0.0034160053,-0.002730181,
-0.063763365,-0.012616059,0.06425005,0.010092819,
-0.010106347,-0.04230291,-0.0035464067,0.02948781,
-0.040709846,0.00696068,0.004781185,0.021754974,
0.038775086,-0.014597629,-0.08516492,-0.023584828,
-0.0064274217,0.007934118,-0.09302291,-0.0147559885,
-0.00998324,-0.05624406,0.04645794,-0.057769187,
0.002823393,-0.0938673,0.045844477,0.008466644,
0.023914838,-0.04147214,-0.0058578644,0.021217763,
-0.004567343,-0.058570024,-0.034637716,0.025112446,
-0.020803781,0.03184615,-0.057461888,0.05003006,
0.056412276,-0.10083325,-0.038528595,-0.022820506,
-0.013215777,0.009381047,-0.040852375,0.04867939,
-0.023764156,-0.09091456,-0.032868966,-0.020523127,
-0.020089438,0.05688898,-0.06454288,-0.07457811,
-0.011442924,-0.031152857,0.04268289,0.04883253,
0.032326654,-0.09055768,-0.04802226,-0.03346795,
-0.08329722,0.039555423,0.0017944089,-0.0063855154,
-0.024175486,-0.058115512,-0.059598364,0.11185576,
-0.058069766,-0.031981543,0.0027564918,-0.04229258,
-0.073254764,-0.07115349,0.074655734,-0.0012254562,
0.009186228,-0.060390677,-0.01099689,-0.055006083,
-0.05375475,-0.036965437,0.007353371,0.06693969,
-0.019915104,-0.07527806,0.076740846,0.058695912,
0.03454113,-0.016001318,-0.026395319,0.008103551,
-0.025385797,0.0049903602,0.017669942,-0.021641906,
-0.057970338,0.007722622,-0.018689709,0.035611384,
-0.013643134,-0.02198075,-0.06178973,-0.028214231,
0.04780396,-0.004546569,-0.06840757,0.016517526,
-0.053281505,0.022544093,0.033901356,0.07155269,
-0.09102789,-0.06876394,-0.005727672,-0.052178424,
-0.0073759584,-0.028088132,-0.0054243696,0.044515505,
0.02985668,0.0027365144,-0.0064909915,0.049915954,
-0.072779484,0.007032162,0.0997829,0.048600156,
0.002096396,-0.025580568,0.04534826,0.06207839,
0.0014405958,0.0013556931,0.0028768904,0.03454762,
-0.03405173,-0.013168713,0.060209237,0.0029011208,
-0.069117345,-0.11195829,0.05416606,0.015910657,
0.051252097,-0.009213936,-0.046119593,-0.0057646795,
0.042829465,-0.017497342,-0.039031424,-0.04722144,
-0.031981044,-0.078936756,-0.028855074,-0.051213764,
0.04071305,0.07262738,0.004998625,-0.0073312004,
-0.07632159,-0.007212272,-0.05801275,-0.06760412,
0.0857147,0.035393503,0.0635386,0.00042477626,
0.007095023,-0.029926956,-0.043649442,0.01015574,
0.023654904,0.016255723,0.10035617,0.046966307,
-0.038274813,0.09402476,0.0071573397,0.058735806,
0.001648715,0.047426663,0.031523913,0.017461944,
0.00446866,0.010500873,0.09580282,-0.04765839,
0.04790857,-0.03832566,-0.020294778,0.020077016,
0.054372326,-0.028358705,0.0037237809,-0.029646901,
0.040446833,-0.026773786,-0.048161022,0.03636799,
-0.03692047,-0.012389021,0.03312411,0.0048307595,
-0.099027954,-0.03383318,0.08031684,-0.04624745,
-0.04620863,-0.03252785,0.026230458,0.01302972,
-0.037916537,-0.038584452,-0.03903046,0.037663877,
-0.053224467,-0.13237606,0.025261559,0.0049067517,
0.0028065038,0.05037231,-0.0017697337,0.0020361848,
0.068437666,-0.01659239,0.018496418,0.048788596,
0.0097451955,0.046124432,0.036234744,0.009247822,
-0.037651166,0.011571317,0.0020910685,0.010538,
0.021905053,-0.05810771,-0.03275153,-0.05581595,
0.062421903,-0.059870843,-0.032877743,-0.027662499,
0.064761415,-0.020703912,-0.053410836,-0.041780304,
0.058958042,0.016505502,-0.031389225,0.075889416,
0.004288164,0.03554517,-0.048979625,0.018888462,
-0.072582066,0.036363833,-0.036897913,0.0042060823,
-0.05648983,-0.0536919,-0.03678082,0.18100178,
-0.058328394,-0.019373182,-0.011855115,0.0050477013,
-0.010009367,-0.082081825,0.048472267,0.00090741157,
-0.011870979,-0.054261163,-0.0112671405,0.051008675,
0.033787902,-0.010143564,-0.0029247135,0.051577147,
-0.0315617,-0.038091686,-0.009468381,0.061649185,
-0.1137744,0.029439835,-0.0053320415,0.048243325,
0.04829141,-0.0013627145,0.069092624,0.08771771,
-0.04581022,-0.019211333,0.0052603767,-0.0131290825,
-0.0036679246,-0.0018882389,-0.043450505,-0.04270162,
-0.08196359,0.0038663878,-0.02960014,-0.04248787,
-0.07507078,0.005986861,-0.13338038,-0.057183728,
0.022828378,0.005394633,0.05186319,0.013007862,
-0.033868387,0.024638003,-0.023862686,-0.020392014,
-0.047484312,-0.010179887,-0.0903861,-0.007230713,
-0.023570757,-0.0010967259,0.016933924,0.028149981,
-0.07231832,-0.023478815,-0.013032666,0.005613777,
0.007141194,-0.023244318,-0.10044595,-0.051747605,
-0.03125182,0.01686694,-0.018074803,-8.707051e-05,
0.0066092596,0.055270538,-0.024623113,0.02284476,
0.08064508,0.029920118,0.033453442,0.074563384,
0.00078827003,-0.07746844,0.056889072,-0.01310441,
0.0032782236,-0.00026334528,-0.03976078,0.07177474,
0.010583309,0.002687928,0.065707825,0.06322413,
-0.014221251,-0.008001731,-0.041224934,0.025382068,
0.08591066,0.06835401,-0.06569099,0.06105716,
0.009233859,0.036194477,-0.011282671,-0.035683304,
0.004131811,-0.057185374,0.0027752582,-0.009310606,
0.09014362,-0.039929416,0.009920082,-0.03156173,
0.04263237,0.082202114,0.04695755,0.011337857,
0.018657792,-0.0104877865,-0.02091232,0.028983586,
0.06830819,-0.10905734,-0.0043166755,0.05177059,
0.03728606,-0.0009855176,0.017592508,0.015367013,
0.025619375,0.04721954,0.028684339,0.03523193,
0.06589153,0.002940032,0.01869568,0.0011672322,
-0.03396667,-0.021365462,-0.0035270134,-0.050912444,
0.04145323,0.0054277987,0.03234782,0.030894496,
-0.002014363,0.068281926,0.0475891,0.13561484,
-0.044378817,-0.012212305,0.03419698,0.09876085,
0.0017014671,-0.0070580794,0.033573817,0.02523327,
0.07335682,-0.046904624,-0.011681309,0.017961266,
-0.018392405,-0.10694587,-0.025560632,0.001745648,
0.090863004,-0.109623656,-0.005930729,-0.034864433,
0.033562463,-0.0151765905,0.02566156,0.03200355,
-0.026959673,0.0439109,0.06885135,0.056779962,
-0.064128146,0.014264992,-0.055547055,0.015261624,
0.07636685,-0.020421358,-0.0034564552,-0.0045683114,
-0.009594547,-0.013177776,-0.04530767,-0.052778427,
0.059476953,-0.019882534,0.027401675,-0.09476991,
-0.020400558,-0.06594596,0.0037295448,0.025702363,
0.062723175,-0.009838464,-0.047316182,-0.06390587,
-0.022131184,0.053106382,0.009509967,-0.0015477368,
-0.023036923,-0.046343606,-0.094194405,0.03612977,
0.031232495,0.078021824,-0.016548108,-0.010847053,
-0.08360455,0.0173596,-0.1446324,-0.053435884,
0.02883504,0.042464416,-0.05567728,0.017817467,
-0.048360165,-0.02211812,-0.024163757,-0.0010805437,
-0.045621295,0.09137112,0.025278196,0.067842655,
-0.035818096,-0.025992516,-0.006198536,0.036297392,
-0.03488359,0.076258525,-0.08391599,0.003818122,
-0.046318095,-0.025493337,-0.010407911,0.055904064,
-0.047253404,-0.028886924,-0.042790204,0.047400996,
-0.017706078,-0.021975785,0.0024718768,0.12289344,
-0.02063624,-0.042292517,-0.0002332227,-0.084978975,
-0.031728454,-0.031187654,0.06570656,0.08860587,
0.01131729,0.009352669,0.042190943,0.009825326,
-0.02498073,0.021584695,-0.06875277,0.086988814,
-0.0016922146,-0.022892797,0.017608194,-0.0047888365,
-0.03051071,-0.007054782,-0.02475983,0.009400195,
0.02007469,-0.06530484,-0.026957234,0.010780556,
0.031983804,-0.010810929,-0.08827394,0.027040517,
0.0045218607,0.028058834,-0.0662343,-0.025618369,
0.03784928,0.00816913,-0.09523158,0.145551,
0.073795356,-0.0027202289,0.0010243693,-0.07468596,
-0.018345775,0.0142328795,-0.03647267,-0.029009333,
-0.046435125,0.011953557,-0.030064123,-0.027557094,
0.02523403,-0.0037226467,-0.028885486,0.027972523,
0.04339601,0.01108196,0.14341778,0.049032062,
-0.052702993,-0.0457854,-0.04374095,-0.02228771,
-0.029056324,0.037351195,-0.01370714,0.04556032,
-0.04581372,0.014358942,0.06986043,-0.025531288,
-0.06709416,-0.042761296,-0.07229326,-0.08802858,
-0.07157327,-0.030142855,0.04883147,-0.016111108,
-0.053496875,0.008199593,0.006116133,0.017862767,
0.014264145,0.08085215,0.047952563,-0.016391402,
-0.01157206,0.015356433,0.018080983,0.021112014,
0.034094036,0.0043189633,0.026800703,-0.052108556,
0.044221614,0.012177414,-0.025977274,0.04755602,
0.0054944744,-0.030543283,0.019466281,0.014090534,
0.0023870352,0.016962625,0.057288162,0.09437584,
0.05447096,0.03418458,0.019590504,-0.006830259,
-0.028718935,-0.06398891,0.06136982,-0.025095172,
-0.040867347,0.05121135,-0.037079457,-0.018533787,
0.0067019947,-0.053444788,0.012268223,-0.03182775,
0.028531825,-0.055220548,-0.0056793178,-0.046406407,
0.0415678,0.034882527,0.075796515,0.044451725,
-0.032905873,0.014210658,-0.025277874,-0.03601721,
0.04994733,-0.06036133,-0.080798686,0.05993576,
-0.050039575,0.028015442,0.000407458,0.04958268,
-0.048021115,-0.01100871,-0.024792137,0.017209956,
0.052636907,-0.07199856,-0.027958687,-0.024431555,
-0.06942272,0.08161093,-0.04343441,-0.025051214,
-0.04643793,0.08637761,-0.037590772,0.01672211,
-0.011797068,-0.04646328,-0.02361162,0.031443063,
-0.08902669,0.028758643,-0.027451994,0.024114031,
-0.054236818,-0.029881235,-0.047060426,0.04410324,
0.005089656,-0.05821024,-0.011523057,-0.014272174,
0.055278365,0.03012822,0.006504764,-0.000966054,
0.007969328,-0.033922162,0.029581774,-0.05481818,
0.09122997,-0.017057778,-0.10841199,0.09911963,
-0.10209386,0.0009468934,0.02386362,0.0051669795,
-0.04549236,-0.015040029,-0.07459318,-0.03172298,
-0.009650871,0.057983313,-0.045705784,0.032057393,
-0.047292657,0.030390246,-0.10129241,-0.02730296,
-0.036638293,0.012652619,-0.05597905,0.0064505255,
-0.039689593,-0.051881157,-0.035546467,0.13642308,
-0.072661325,0.0072382693,-0.100287385,0.06900948,
0.030285819,-0.017082788,0.009182851,-0.02234458,
-0.04614157,-0.012850805,0.028613193,-0.017822703,
-0.028446658,0.060623646,0.08250469,0.019651592,
0.00228418,0.0015887236,0.11512256,-0.009045335,
-0.043001503,-0.011303742,0.047513638,-0.05443224,
-0.007441426,-0.14996059,0.01328557,0.0023619272,
0.009926737,-0.06481387,-0.027237093,-0.00029885894,
-0.031999286,0.014973879,0.08241162,0.0055242474,
-0.016505623,-0.10028114,-0.006727038,0.09437533,
0.044102788,-0.0049750577,-0.033198375,-0.050979692,
0.028902538,0.060698763,-0.099113666,0.0178743,
0.04613729,0.08253036,-0.029988606,0.02585056,
-0.0069786794,0.026354926,-0.034069266,0.030238686,
0.006669542,0.059298765,-0.06596195,-0.052695468,
-0.07445317,-0.038804308,0.028016556,-0.007344719,
-0.04380164,-0.0020412835,-0.06667588,0.016031148,
0.07184646,-0.06219931,-4.4216886e-06,-0.0414967,
0.05130283,-0.06843075,0.038413037,0.030387677,
-0.024797272,-0.012732033,-0.03257442,-0.063152,
-0.08267321,0.05377205,0.02358245,-0.0027348343,
0.01674404,-0.015700208,-0.048670046,0.025070412,
0.016640928,-0.041371386,-0.023773452,0.05074518,
-0.027431848,-0.051288124,-0.041228417,0.051913224,
0.0633078,-0.0229102,0.014357366,0.017280195,
-0.0003793039,0.013547114,0.0110220425,0.08715582,
0.093569785,0.038704947,0.025117233,-0.0050413995,
-0.0017800711,-0.025617613,-0.054385778,0.044626016,
0.011534249,0.022023745,-0.026137356,0.056809302,
0.010548012,0.069958255,-0.058061693,0.05330455,
-0.03452694,0.0027917435,-0.07063458,0.018984543,
0.022407273,-0.045439657,-0.005887066,0.006362216,
-0.011416863,0.03694211,-0.058480863,-0.019287648,
-0.024884354,-0.008438667,-0.046657637,0.0289463,
-0.033712804,-0.10826253,0.020956071,0.047173128,
0.057087332,-0.048968818,-0.028947841,0.016037583,
-0.064855255,0.016455688,0.049593236,-0.023524914,
-0.007704153,-0.04656117,0.0052900505,0.024047323,
-0.083382346,-0.050724927,-0.06959817,0.017379044,
-0.0059947562,0.022718228,0.004722293,0.021299535,
0.01030343,0.017814098,0.02259898,0.025633028,
-0.020694,0.028906709,0.04930513,0.02182164,
0.057721138,-0.069186054,-0.09909469,0.025273902,
-0.027363256,0.016632156,-0.034022756,0.043080874,
0.021851396,0.009509464,0.054682065,0.0021099695,
0.041994102,0.018771928,-0.020035189,0.052078936,
-0.02547846,-0.038041364,-0.030481813,-0.03227809,
-0.016045952,-0.0072969883,-0.033032626,-0.06286896,
0.05322696,-0.0038101464,-0.034672663,0.025502056,
0.0061493,-0.077997185,0.06935858,-0.06686042,
0.00911929,-0.048041206,-0.08807682,0.07122377,
-0.06872124,0.0056608794,-0.039779466,0.009543784,
0.013257023,0.021681018,0.004176768,0.008348146,
-0.037220135,-0.034134366,-0.021556249,0.019526798,
0.06577251,-0.02000628,0.06350049,-0.011905035,
-0.010264197,-0.0110500865,0.06916815,0.014374839,
-0.019618124,-0.035885494,0.024294741,-0.029674174,
-0.012499898,-0.017841516,-0.058843523,0.060989294,
0.018747913,0.08806864,0.0013012203,0.026927343,
0.04669906,0.046295743,0.023960924,0.0016519283,
-0.004718976,0.08697169,0.031376477,-0.0957592,
0.042555638,0.04839887,0.068796046,-0.098428056,
-0.04290447,0.028079053,0.0019383657,-0.016433956,
-0.0048066657,0.042152163,0.12541394,-0.044534255,
0.0083919065,-0.052837595,-0.0025990645,0.03666647,
0.020674655,0.034204587,0.0057754465,0.044425674,
0.01130906,-0.09796581,0.017553575,0.011839269,
0.031239696,-0.022870148,-0.04943542,-0.029400941,
-0.04238742,-0.0095398305,-0.023660313,0.03335642,
0.026989974,-0.008681956,0.021183219,-0.016849736,
-0.06950887,-0.03145769,-0.047247108,0.06057007,
-0.005201784,-0.0088230455,0.025906328,0.0055691465,
-0.041438725,-0.14084445,-0.033939492,0.010613709,
-0.01046409,-0.06427311,0.03510767,-0.011962448,
-0.0005082947,0.048942987,-0.021000968,0.004104573,
-0.038136087,0.051266182,0.004665205,-0.06135591,
-0.048113257,-0.0052210474,-0.013821236,0.019314514,
0.10115834,-0.08801147,0.07358796,-0.068330444,
0.037809443,0.015716797,-0.03076731,-0.033344474,
0.020092031,0.059309423,-0.053140573,0.1111188,
0.015283829,-0.043665987,0.034031913,-0.0498588,
-0.031049022,0.014654337,0.05553647,0.026471278,
0.0236751,0.037917964,-0.0060473736,0.05952276,
0.025475936,0.048215844,0.04494696,0.0866281,
-0.009914169,0.059990153,-0.04432006,0.014408517,
0.13727841,-0.055603396,0.04475984,0.09747292,
0.025905982,-0.031415418,-0.07992948,0.10381043,
-0.0390962,-0.03640208,-0.00026235654,0.06895102,
-0.023694484,0.00067928457,0.0076657017,-0.020686805,
-0.004803549,-0.023827735,-0.048721805,-0.02860336,
0.0007172858,0.0029137994,0.048975546,0.0100315325,
-0.024977593,0.005018466,-0.027536698,0.04022406,
0.043838162,0.016161766,0.011723802,-0.023527376,
0.061689243,-0.00120599,0.0010660111,0.03355528,
0.041111946,-0.022403363,0.044459175,-0.007907816,
0.040815886,0.015360792,-0.03149725,0.062024277,
0.0049738064,0.004366503,0.0145532675,0.027864724,
0.025015797,-0.023933783,-0.06813322,0.0075088143,
-0.04378535,-0.008632347,-0.012659519,-0.06478172,
-0.0072310343,-0.0143766105,0.045664806,0.01119456,
0.040180888,-0.055460323,0.0600615,-0.01369779,
-0.03579283,-0.10259741,-0.0025308733,0.012508222,
0.085783504,-0.012893259,-0.028353104,-0.03384848,
0.079139926,-0.009609753,0.033261523,-0.04207928,
-0.017688071,-0.049868416,0.03123131,-0.061289694,
-0.007015566,0.0030691985,-0.027845815,-0.0013760366,
0.021944724,-0.012336176,0.03543969,0.0737039,
0.011785961,0.030809125,-0.03613213,0.07350639,
-0.05042731,-0.01906551,0.07547035,-0.13336806,
-0.10955208,-0.017944867,0.004440829,0.0060388916,
0.049459968,0.041307215,-0.045637432,-0.007943141,
-0.01569735,0.005050763,0.020351142,-0.006351212,
-0.0064036674,-0.002033133,0.06876289,0.021127375,
-0.041830897,-0.03943591,0.040985066,0.09001648,
-0.037794832,-0.007243564,0.038737107,-0.05853983,
0.0108009195,-0.008058057,0.011468483,0.042232025,
0.002591212,-0.019124378,0.09669096,-0.010241392,
0.016415313,-0.034760438,0.04647076,-0.06719344,
0.020604156,0.04053102,0.044390436,-0.056094997,
0.013494286,-0.029763728,0.040539525,-0.11180796,
0.016326336,0.0027042658,0.013278323,-0.06724851,
-0.009940095,0.04757737,0.054434318,-0.011171755,
0.004862618,0.033090662,0.020019693,-0.039789006,
-0.04452125,0.047369547,-0.050797522,-0.00514647,
-0.10226905,-0.014277747,-0.081168935,-0.059543423,
-0.0146905,-0.084610514,-0.015429573,-0.0063963938,
0.022550058,-0.038260017,0.04356141,0.06924535,
-0.028660525,-0.08380363,-0.009136373,0.08352846,
0.006203036,-0.050620206,0.034136698,0.05054827,
-0.046271935,0.015239658,-0.018602617,-0.032231167,
0.02970848,-0.053860385,0.07293753,-0.0029652044,
0.024812948,-0.097081535,-0.08270699,-0.045666274,
0.05297124,0.09484144,0.012166631,0.020959927,
-0.008967768,-0.034136888,0.021462712,0.04514496,
0.017347353,-0.036045674,0.08717185,-0.032164834,
-0.03066102,-0.012285744,-0.06190199,0.04482791,
0.0013708622,0.011413956,0.051336117,-0.0071594194,
-0.06413865,-0.029547792,-0.027763523,-0.012669636,
0.05901446,0.013094162,0.0058287485,0.0023469776,
0.014343018,0.045200348,-0.008451999,0.004942084,
0.01769216,0.0011663351,0.049157247,-0.027687075,
-0.08135292,-0.010607341,-0.016148292,-0.0073478227,
0.018250216,-0.048387177,0.07016746,-0.024904534,
0.015570555,-0.0007055364,0.051798094,-0.07792844,
-0.016351148,0.014407619,0.015689922,-0.0062900833,
0.03310006,0.027503332,-0.021228533,0.055699725,
0.056573924,-0.029107522,-0.029944384,0.039620884,
-0.045793783,0.017930297,-0.012644099,0.065879785,
-0.042160224,-0.027932437,-0.013832435,-0.034745626,
0.048081093,0.076426074,-0.031617016,0.03951856,
0.008212362,-0.026392605,-0.018267846,-0.063048206,
0.074306175,-0.011628689,0.0072674826,-0.0046636784,
-0.006885607,0.048149303,0.00048077534,0.0012860043,
0.094393715,-0.021743009,0.009257199,0.02400226,
0.03551173,0.0038372136,0.014463182,-0.0056781773,
-0.009827358,-0.0369893,0.07638175,-0.06549422,
-0.057388477,0.1007075,-0.022962317,-0.033622574,
-0.043559775,0.10518414,-0.026264705,-0.012716754,
-0.019870853,-0.09630296,-0.015177384,-0.010829924,
-0.018362975,-0.0647771,-0.016296154,-0.03636961,
0.023162503,0.0022250544,-0.0069738226,-0.0049498794,
0.0165408,-0.00511384,-0.028551374,0.0024821858,
-0.103515625,0.089398935,-0.039453804,-0.0583105,
-0.007773527,0.0011946966,-0.12732303,-0.06358572,
0.02337725,0.020101668,-0.10598344,0.02072578,
0.0517511,0.05987528,-0.10729558,-0.052092146,
0.02366929,-0.010472136,0.029016007,-0.07520922,
0.019698232,0.02330035,0.04154869,-0.08564761,
-0.03692373,-0.02631089,0.0012935209,0.027195241,
-0.05514895,-0.026064808,0.015065518,-0.07165416,
-0.021444073,-0.083228976,-0.021953149,-0.0028662668,
0.031130686,0.045072373,-0.0013313732,0.0030397465,
0.0150824385,-0.01797932,0.03279666,0.0088331755,
0.11854106,-0.075653374,0.039972603,0.025521206,
0.0538772,-0.014689133,0.07564033,0.0034263218,
-0.058029033,-0.06259645,0.052858837,0.033075757,
0.061102718,0.020782912,0.051753152,-0.030977836,
0.052422296,0.015698804,-0.038742222,-0.08347761,
0.0648079,0.03433373,0.043658808,0.0043761358,
-0.014593346,-0.054459248,-0.039875515,-0.05708263,
0.024342371,0.033707775,0.060196742,-0.0738863,
0.124808185,0.08097133,-0.064475104,-0.009101393,
-0.021535488,0.055397302,-0.01088983,0.01538036,
-0.029302154,-0.06244972,-0.05530143,-0.038115066,
0.011962648,-0.057858292,0.05505631,0.0039241556,
-0.038507644,-0.031565316,-0.036501188,0.087748036,
0.04050654,0.039240718,0.083876275,-0.001428418,
-0.08028187,0.022070728,0.029429678,-0.03956457,
-0.031307098,-0.054113653,-0.028776422,-0.08557495,
-0.040331632,-0.018413505,-0.057108976,-0.011679798,
-0.04460142,0.04021226,-0.078025475,-0.027243767,
0.078719795,0.07471254,0.049975127,-0.028488895,
-0.039749958,-0.008871734,0.025469054,0.041680124,
0.08378981,0.013618102,0.008508228,-0.023277352,
0.036160763,-0.09993781,0.004243549,0.007283113,
-0.007414465,-0.045492854,-0.026839267,0.07729154,
-0.05427132,-0.027053054,-0.10163548,-0.0032789586,
-0.054917827,-0.022458479,0.03341103,-0.004954369,
-0.030155241,0.01712179,0.018585246,-0.07221555,
-0.074838474,-0.04933604,-0.015004501,0.008352938,
-0.03579976,0.0464528,-0.028751183,0.08074343,
-0.008352843,-0.015085599,-0.002255782,-0.004002268,
0.06557122,-0.06669777,0.015485538,-0.024540981,
-0.007857487,-0.01964667,0.06377367,-0.014848699,
-0.030816644,0.07439723,-0.01000385,0.05721086,
0.02067808,-0.06326224,-0.05414331,-0.0121764755,
0.022835728,-0.058400273,0.013583098,0.052845344,
-0.0006015831,-0.0058204164,-0.0075410875,-0.08800497,
-0.042726245,-0.07469401,-0.0015625242,-0.03365803,
0.08325974,0.083646715,0.043212388,0.0131914355,
-0.10385892,-0.03138853,0.08574356,-0.057616685,
0.042689838,0.019036017,0.05229727,0.05583568,
0.011955084,0.016689174,0.024120677,-0.06088367,
0.040947292,0.021530675,0.068149336,-0.010015656,
0.038371958,-0.011939892,0.014967686,-0.11699828,
-0.01677575,-0.01016978,-0.025746508,0.038070932,
0.03005571,-0.005303156,0.08957719,0.04565208,
-0.09020029,0.057291385,0.031372525,0.015584947,
-0.0065706484,0.02667543,0.028441051,-0.024523396,
0.018694349,0.016019395,-0.08185208,-0.07216077,
-0.04959405,-0.00470452,-0.019708106,-0.04074258,
-0.01994884,-0.036283534,-0.05306947,-0.0076443725,
0.055205353,-0.044771586,-0.01735559,0.0664899,
-0.0022630398,0.008145586,-0.0461754,-0.08966657,
-0.060034662,0.0065508373,0.0004347639,0.06266298,
-0.082322136,-0.03392062,0.007187805,0.01622966,
0.0719089,-0.018396383,0.020633258,0.053850725,
-0.07498914,0.010609332,0.034938812,0.01983237,
-0.043409087,-0.019339824,0.012254021,0.034055546,
0.040116977,0.07389992,0.012049281,-0.06109169,
-0.019337382,-0.0684978,0.008999315,0.028181091,
-0.056512564,0.106345795,0.08260772,-0.0032895794,
-0.04890582,0.10473451,0.0678631,-0.04061013,
0.050129604,-0.009686133,0.029383225,-0.029070089,
0.08609603,0.07843067,0.04481356,-0.01071996,
0.045680232,-0.039014675,-0.01939001,-0.024601134,
-0.0075680246,0.07127783,0.12154141,-0.014325953,
-0.006414278,-0.007694525,-0.036734864,-0.10830082,
-0.06954796,-0.010549003,0.047594633,-0.029071309,
-0.011764818,-0.07818636,0.0545105,0.01648328,
-0.033129483,-0.08083046,-0.08260383,0.030804805,
0.07917291,0.016554637,0.027049376,-0.049702603,
-0.052442823,0.077583686,0.11110497,0.0011843137,
0.07932999,0.007248195,0.01557225,-0.027179264,
-0.073178306,0.027776882,0.01641948,-0.06262992,
-0.029896166,0.010596958,0.0042895554,-0.050142553,
-0.0090518035,-0.019636039,0.06656237,0.04249775,
0.006889186,0.0668673,0.018092187,0.02816868,
-0.011934208,0.032161582,0.022904953,0.03886005,
-0.08947244,-0.01697696,0.018215332,0.029845761,
0.0013185018,-0.021981029,0.045085657,-0.008847541,
-0.022514317,-0.06317014,-0.02031902,0.012686885,
-0.0038424686,-0.008776701,0.018911367,-0.035695083,
-0.042363383,-0.06466604,-0.019296065,-0.018067464,
0.031109266,-0.015392725,-0.074984536,0.041613597,
0.032398462,0.03699735,0.010895176,-0.08414787,
-0.016948072,0.012645137,-0.028361855,0.039293535,
-0.07488999,0.020012228,0.0043009208,-0.029793477,
-0.05653899,-0.019418348,0.094180435,-0.039320156,
0.10174003,-0.067545965,0.0723183,-0.025167286,
0.026535101,-0.032810546,-0.007494671,0.08873652,
-0.018851731,-0.019428525,0.009458947,0.005864087,
0.009044302,-0.05276743,-0.044211466,0.04248889,
-0.11196933,0.018058782,-0.04136233,0.08816911,
-0.0064554377,0.03687688,-0.100769505,-0.013091452,
0.043693077,-0.01883949,-0.06424415,0.051289786,
-0.023675442,0.0035912856,-0.039905958,0.021710439,
0.097337626,-0.034420248,0.027659632,0.031958286,
0.049943563,-0.039742533,0.0040028407,0.017820869,
-0.077284336,0.034082774,-0.013354342,0.05124228,
-0.033799887,0.03316402,0.008039884,-0.035533775,
-0.029699717,-0.05149228,-0.0055702794,-0.042460587,
-0.10072191,-0.0071850657,0.055151135,0.07508051,
-0.018596714,0.010829071,-0.002222106,0.008543956,
-0.06071022,0.07029893,-0.017699381,-0.0014194524,
0.059045874,0.03869303,-0.022672785,0.07868947,
-0.0661844,-0.08037833,0.0005883804,0.07302731,
0.011693601,0.062172472,0.0068938974,0.09828016,
-0.012459205,-0.04594337,0.00911723,0.022515774,
-0.015275093,-0.014479946,-0.075774424,0.09672239,
-0.0012998933,0.03533055,-0.030229783,-0.019939356,
0.06616323,0.048516158,-0.0035071853,0.033644125,
0.024188915,0.0072910665,0.0014123238,-0.049536552,
-0.0031200487,0.07587757,-0.004951174,0.066709846,
0.06496436,0.034828804,0.08765991,-0.010488955,
-0.039634656,0.010495808,0.02438233,-0.07383974,
0.00818279,0.037082218,-0.023145081,-0.036340274,
0.05715639,-0.010911913,0.012522823,-0.070529655,
0.018971387,-0.07401136,-0.03656644,-0.025575114,
0.061535016,-0.062392987,0.07394045,0.073089205,
0.020447813,-0.016326139,-0.001273542,0.016113007,
0.05630812,-0.012898157,0.09137843,0.05155323,
0.013781468,0.016791359,-0.09428399,0.0030591313,
-0.012159254,-0.028688328,0.0044269776,-0.0440775,
