layer1node1,layer1node2,layer1node3,layer2node1
0.0,0.06520024,-0.101833045,-1.6761013
0.0,0.055800483,-0.05735566,-1.5204163
0.0,0.0,0.05769383,1.4233911
0.0,0.0,0.027415484,
-0.061244447,-0.090845495,0.049775828,
-0.09810617,-0.0139038665,0.0,
-0.023854164,0.0,-0.014836702,
-0.016364267,-0.06678148,-0.028049845,
0.026016241,-0.047269598,0.0,
0.0,-0.057411574,0.01691367,
0.02729026,-0.03762597,0.012681446,
0.010585327,-0.01880245,-0.054849207,
0.022602031,0.010847355,0.0,
-0.038615607,0.03893802,-0.031929526,
0.04664964,0.063337736,-0.09559575,
0.09413685,0.06946173,-0.072545975,
0.07391138,0.038472574,-0.03674881,
0.021009607,0.0,-0.030665567,
0.0,0.0,0.0,
-0.05273997,-0.014506341,0.0,
-0.02268308,-0.08115244,0.013198263,
-0.023235997,-0.032133084,-0.029567918,
0.038760703,0.06564529,-0.10907858,
0.015449369,0.062441286,-0.07417253,
-0.07299376,0.08137342,0.0,
-0.03001991,-0.06127535,0.07045332,
-0.014181455,-0.07372027,0.02770817,
-0.018212873,0.020403352,-0.076129034,
0.040206123,0.021736015,-0.090096384,
0.059771515,0.022005497,-0.07819615,
-0.044568025,0.012033814,0.013542247,
-0.0368791,0.014291338,0.0,
0.0,-0.014634686,-0.015095877,
0.010748259,0.0,0.01926089,
0.018931443,0.027744204,-0.023812586,
-0.037113484,-0.05740478,0.0,
0.0,-0.011848293,0.010549951,
0.0,-0.026306,-0.08007523,
0.0333076,0.0,-0.07555501,
0.026072664,-0.037124038,-0.06874501,
0.0,-0.08632575,-0.049793754,
0.09393925,0.022673551,-0.046061113,
0.058304157,0.0133066615,0.0,
0.06605712,0.0110451365,-0.072151475,
0.060685024,0.07748675,-0.09255859,
0.0,0.06356276,-0.08346246,
-0.05927859,0.021683283,-0.04523615,
-0.035296068,0.027732754,0.015330308,
0.0,-0.03495008,0.03319986,
0.0,0.0,0.04755823,
-0.012520016,0.059119355,0.02222547,
-0.04887913,0.063950665,0.0,
0.017478166,0.023841701,-0.014934677,
0.013386508,0.045146786,-0.061199922,
0.026285984,0.083902165,-0.08904231,
0.057036914,0.10410306,-0.062280353,
0.0,0.12206109,-0.06741387,
0.075498596,0.08554666,-0.057950784,
0.04577545,0.013785666,0.065487325,
0.0,-0.031404488,0.09287329,
-0.111258365,-0.047250442,0.010607091,
-0.08896241,-0.024737893,0.03893525,
-0.027407944,0.056676082,0.0,
0.024288613,-0.0701778,0.03496895,
-0.022312103,-0.05300768,0.04012699,
0.07027865,-0.07034416,-0.012957926,
0.05540926,-0.0894569,-0.014927109,
0.033941343,-0.027006997,-0.025282862,
0.04511883,0.01653775,-0.039433647,
0.019316904,0.0,-0.05668102,
0.061737273,0.020366888,-0.08420615,
0.073389806,0.0,-0.0341979,
0.017748125,0.0,-0.03976601,
-0.040377665,0.0,-0.03435494,
-0.052291077,0.0,-0.048952833,
-0.03663008,-0.03281211,-0.023960866,
-0.022847341,-0.04042584,-0.049277518,
0.023121538,0.026398577,-0.026825778,
0.028367354,0.09168662,-0.058492612,
0.025523895,0.06668326,-0.061675552,
0.0,-0.0102002965,0.0,
0.0,-0.04468266,0.05637831,
0.0,-0.037661493,0.0,
0.025090206,0.0,-0.051507022,
0.11852223,0.0,-0.041772578,
0.012657437,0.02971398,-0.039290298,
-0.03950942,0.0,0.017442226,
0.0,0.0,0.0,
0.0,-0.04053707,0.0,
0.011755244,0.0,0.017026756,
0.0,0.0,-0.0139701795,
-0.019096298,-0.042029396,0.049987447,
-0.020146018,0.0,0.0,
-0.012713116,0.028932052,-0.039012656,
0.027481534,0.051609084,-0.06808555,
0.047720436,0.0,-0.12110579,
0.035369974,0.0,-0.04290615,
0.05847155,0.0,-0.05104701,
0.07976024,0.0,0.0,
0.11235841,0.022160525,-0.06128156,
0.05782424,0.09667919,-0.089383684,
-0.035432264,0.08096878,-0.05638045,
-0.07776719,0.029465752,-0.0517673,
-0.037635062,-0.023180058,0.03133824,
0.016473707,0.013551285,0.060526848,
0.029920194,0.0,0.0262084,
0.0,0.044521734,0.06296652,
-0.01989277,-0.021027738,0.025663722,
0.0,0.051480655,-0.028746942,
0.01641312,0.09685457,-0.09631985,
0.025022946,0.055582065,-0.06734169,
0.0,0.124676935,-0.04242274,
-0.023794698,0.09861661,-0.041885894,
0.0,0.018574692,-0.029770203,
-0.070446886,-0.05995952,0.041838344,
-0.0159563,-0.03844246,0.06189458,
-0.078247964,-0.05759598,0.033913642,
-0.09915506,0.0,0.015420528,
-0.031946998,-0.04965912,-0.034466904,
0.0,-0.041485306,-0.03781136,
-0.058799595,-0.040041625,-0.026335372,
0.026828475,-0.02952432,-0.013397254,
0.024776915,-0.026457328,-0.081086,
-0.01230551,-0.012362552,-0.06531813,
-0.016440175,-0.021366777,-0.041860014,
0.031660832,0.033084,-0.048170153,
0.0,0.024205906,-0.058407184,
0.054312922,0.0,0.0,
0.019278964,0.016647976,-0.012790173,
-0.021516062,0.0,-0.017954076,
-0.05297508,-0.0208763,-0.036073707,
-0.025577173,-0.010205605,0.0,
0.011359979,0.020562664,-0.04054834,
-0.01725308,-0.011382311,-0.05779693,
0.013310705,0.047649216,-0.057284784,
0.03308798,0.02252101,-0.057022665,
0.0,-0.024575636,0.033458196,
-0.019454796,-0.043238997,0.07148557,
-0.03489936,-0.048980374,0.02861575,
0.054567885,-0.023659924,0.0,
0.10778535,0.0,-0.06192172,
0.01512118,0.055466916,0.0,
-0.017308753,-0.023479076,0.01026689,
-0.02759715,-0.034667317,0.017748918,
-0.030724002,-0.052697033,0.025731618,
-0.037597496,-0.063310675,0.02838543,
0.017719654,-0.0322532,0.0,
-0.06020187,-0.047361553,0.061133236,
-0.04530782,-0.06845665,0.0,
-0.03509729,-0.043564815,-0.03683702,
0.0,-0.0381783,-0.1238579,
0.10825529,0.014203896,-0.07278574,
0.061020676,0.02256182,-0.028600255,
0.08115181,-0.024110448,-0.054061163,
0.07450154,-0.040269583,-0.038198754,
0.091777414,-0.02354714,-0.027721161,
0.0,0.061005946,-0.0945118,
-0.10213811,0.055093605,-0.045320887,
-0.1004445,0.0,-0.024506383,
-0.0251878,-0.036888506,0.05085085,
0.0458722,0.0,0.06761737,
-0.03376641,-0.024008073,0.025757294,
0.03512683,0.0,0.032208078,
0.014889213,0.025666049,0.03330273,
-0.026763972,0.023634348,-0.035460673,
0.0,0.016719976,-0.06843001,
0.017344812,0.097977825,-0.028047288,
0.0,0.025704857,-0.012877496,
-0.057522424,0.117637224,-0.102392435,
-0.102962606,0.027624663,0.034732472,
-0.051885318,-0.056661714,0.097432844,
-0.06671897,-0.048596606,0.058353543,
-0.09946796,-0.048763964,0.0,
-0.05215867,-0.01267784,0.018758323,
-0.06294237,0.06476338,-0.061366316,
-0.027421638,-0.08424413,0.0,
0.0,-0.021299427,0.026230305,
0.0,0.0,0.013160738,
-0.010861254,0.0,0.0117398,
0.0,0.0,-0.01930302,
0.0,-0.022243055,-0.06849132,
0.0,0.0,0.01916278,
0.0,0.031175457,-0.045070007,
0.03098713,0.084628895,-0.023193756,
-0.023988368,-0.012049743,-0.051356476,
0.0,0.014599695,0.010670159,
-0.028953737,0.016431276,-0.03887688,
0.0,0.034006495,-0.030465558,
0.03998336,-0.0745792,0.0,
0.060631968,0.037260257,-0.025610603,
0.018989548,0.040055655,-0.05425715,
0.098966084,0.023498187,-0.036593623,
0.019545734,0.030406231,0.0,
0.011276427,-0.020353448,0.05466106,
-0.035146113,-0.020142809,0.0,
0.067102894,0.047701217,0.0,
0.08725276,0.07001367,-0.027164198,
0.05091527,0.0,0.019105015,
-0.047360536,-0.014157126,0.020069625,
-0.068775415,-0.04278337,0.02660828,
0.0,-0.07243461,0.019441936,
0.0,0.013336716,0.046667177,
-0.028065555,-0.041120455,0.06796272,
-0.04245599,-0.020079082,0.046155836,
-0.07071664,-0.07019376,-0.010190743,
-0.06758731,-0.033260435,0.0,
-0.02297942,-0.024981543,-0.079390995,
0.04580471,-0.031071281,-0.048059326,
0.05967902,-0.02245429,-0.09247477,
0.10014386,-0.029228525,0.0,
0.11151133,0.0,-0.04559437,
0.06363663,-0.055583835,-0.039653756,
-0.010185607,-0.014205867,-0.0703687,
-0.06110419,0.0,-0.053055488,
-0.07700696,0.055641767,-0.05649272,
-0.028041245,0.022164727,0.063783556,
0.0,0.0,0.07697882,
-0.011868277,0.0,0.060827643,
0.0,0.0,0.08488109,
0.05482116,0.04059289,0.016859107,
-0.027077397,0.05344634,-0.01697773,
0.018231943,0.07765159,-0.087135464,
0.02291743,0.065427735,-0.029621165,
0.0,0.018598648,0.044608712,
-0.020997077,0.0403788,-0.03140242,
-0.06906621,-0.018214244,0.010014905,
-0.034730267,-0.018596152,0.113445066,
-0.05352202,-0.03848445,0.0470306,
0.0,0.045491215,0.016191693,
-0.061039187,0.0,0.0,
-0.014458431,0.0113102915,-0.035353478,
-0.058927517,0.0,-0.018516148,
-0.03767331,-0.04241332,-0.036808643,
-0.013556361,-0.05897561,-0.029286606,
0.01678995,-0.018752787,-0.03749672,
0.040720727,0.011790169,-0.039807245,
-0.016301425,-0.019514121,0.0,
-0.054545153,-0.06933071,0.0,
-0.011066484,-0.011069609,-0.06060463,
0.028939515,0.05267996,0.0,
0.014461763,0.0,0.011445514,
-0.025269866,-0.014690131,0.058957845,
-0.03790493,0.0,0.022320112,
-0.019820182,-0.011198934,0.017208787,
0.044390664,-0.01399256,-0.031487685,
0.06398681,0.021494437,0.015206966,
0.0,0.0,0.0,
0.022055238,0.0,0.0,
0.049953625,-0.020827662,0.09606865,
0.0,0.055106737,0.028558038,
-0.01926103,0.024687303,0.053826455,
0.023655197,0.0,-0.024008168,
0.044343878,0.0,0.02036284,
0.0,0.02887086,0.0,
-0.017951934,0.027659953,0.030106515,
-0.088536814,-0.0482906,0.048201468,
-0.030802568,-0.038374655,0.0,
0.0,-0.070542015,0.10701226,
0.032633677,-0.020593751,0.028579177,
-0.030338239,-0.08080051,0.054282837,
-0.05093128,0.0,0.07136073,
0.026128756,-0.012941308,0.0,
-0.029831527,0.0,-0.0269745,
0.0,0.014330499,-0.06957549,
0.039851423,0.0,-0.03512586,
0.13534042,-0.030396886,0.0,
0.08185345,0.0,0.0,
0.04273869,-0.012620432,0.0,
-0.011842109,0.0,0.0,
-0.032078966,0.07690703,0.0,
-0.04764565,0.0482977,-0.026345545,
-0.029769108,-0.059983864,0.010659231,
-0.054423068,-0.10658705,0.07131137,
0.0,-0.073373534,0.12955427,
-0.025206128,-0.056581143,0.079776645,
0.012381734,0.0,0.06779988,
0.0,0.0,0.0,
-0.03409687,-0.02655688,-0.027871734,
0.0,0.020042162,0.016563963,
0.0,0.05886324,0.015420142,
0.0,0.03132855,-0.026401728,
-0.0530457,0.011249165,0.0,
0.0,-0.095592126,0.0,
0.0,0.02090831,0.0,
-0.021409271,0.04452938,0.031378932,
-0.013048022,-0.014709445,-0.047330033,
0.027108038,0.03411741,-0.03917531,
-0.047593385,0.010313068,-0.05824179,
-0.06477181,-0.019416371,0.0,
0.06730937,0.020352172,-0.055808805,
0.0,-0.027391048,-0.03195594,
-0.0135403145,-0.015550536,-0.020943262,
0.011338026,-0.010115407,-0.034193803,
0.0,-0.06822401,-0.041748915,
0.017664723,-0.022580495,-0.04232764,
0.015136961,-0.016102936,0.0,
0.035741165,0.047801428,0.013268864,
0.020067573,0.026210476,0.05547046,
-0.083383285,0.0,0.060522903,
-0.041480623,-0.039872814,0.0,
0.015848015,0.0,-0.024114922,
0.06744512,0.035626218,0.0,
0.02045736,0.044144258,0.026938936,
0.0,-0.020029064,0.03806205,
0.033111826,0.0,0.045441993,
0.038031958,0.063856184,0.07993926,
0.031230984,0.0,0.0,
0.03415141,0.016698636,0.0,
0.022289082,0.018666407,0.02152949,
-0.012597019,0.0,-0.037174825,
0.0,0.0187801,0.04763268,
-0.03031646,-0.034733254,0.04403072,
-0.029264143,-0.033804502,0.023792915,
0.0,-0.02545427,0.014578031,
0.040854137,-0.038414307,0.022638187,
0.022314223,-0.02716994,0.060434505,
0.0,-0.021917298,0.044288956,
-0.028904324,0.0,0.0111044,
-0.029977199,0.0,-0.04891719,
-0.017584367,0.0,-0.07855664,
0.0,-0.050062735,-0.07157692,
0.047467384,-0.06127661,-0.043077707,
0.11263843,-0.025432581,0.036162194,
0.0,-0.060826626,0.026739342,
-0.049484205,-0.01786763,0.052943923,
-0.03673619,0.045288928,-0.01469318,
-0.013921855,-0.032351546,-0.07739096,
-0.037571937,0.0,-0.012525865,
-0.040223904,-0.052458305,0.062051427,
-0.09416252,-0.061639126,0.067543544,
0.050615948,-0.077156216,0.10761162,
0.020739874,-0.08102566,0.06467914,
0.0,0.0136243105,0.015001162,
-0.030222565,0.042908207,0.0,
-0.015847038,0.02238902,0.013034888,
-0.021760978,0.0,0.0,
-0.016016511,0.0,-0.046930324,
0.0,-0.045168992,-0.036389004,
-0.0100395195,-0.017852552,-0.014233234,
0.03479701,0.028205728,0.0,
0.059770036,0.0,-0.015625019,
0.0,0.024601215,0.013228953,
0.0,0.043216493,-0.012926723,
-0.042922456,0.0,0.02640312,
0.0,0.0,-0.021246774,
0.0,0.031393018,-0.05748018,
-0.05431965,-0.017784221,-0.059256617,
-0.091819145,0.023758326,-0.05129081,
-0.04966896,0.015033038,-0.05439598,
-0.034401502,-0.04709881,-0.014469194,
0.02951557,-0.062922865,-0.022484466,
0.055848118,-0.034231443,0.03951008,
0.057336014,0.0,0.029899072,
0.032353863,0.036594763,0.054336954,
0.018482763,-0.010837984,0.028228119,
0.0,-0.037082415,0.040835563,
0.0,0.026057472,0.0,
0.039857175,0.0,-0.020988677,
0.02212706,0.0,0.052149605,
0.013695472,0.0,0.06431467,
0.0,0.0,0.1049142,
0.0,0.07876091,0.029628735,
0.0543992,0.056335445,0.030502697,
0.08429806,0.0,0.05854718,
0.022784574,0.027741577,0.023782521,
-0.0681422,0.05636962,0.022533571,
0.0,0.01856687,0.0,
0.0,0.019926516,0.0,
-0.020469388,-0.011241318,0.059677377,
0.0226484,-0.027862875,0.033241127,
0.024012024,-0.04085203,0.0304179,
0.037328374,-0.05291406,0.0,
0.020096222,0.0,0.0,
-0.042508602,0.0,-0.036076684,
-0.018811347,-0.037891272,-0.07909427,
0.014417207,0.0,-0.080042355,
0.0106659485,-0.016119339,-0.057783738,
0.044435397,-0.025936292,0.0,
0.039562173,-0.060658675,0.010119834,
0.0337703,-0.07115924,0.06269604,
-0.0484923,-0.0428606,-0.014137808,
-0.026288249,-0.021366788,0.0,
0.0,-0.015347956,-0.08771279,
0.013656803,-0.021880971,0.011618329,
0.019088108,-0.08724627,0.035133347,
-0.05656401,-0.06800487,0.07576651,
-0.044916835,-0.108138606,0.1364519,
0.029416418,-0.076383434,0.10040875,
-0.04616675,-0.02118548,0.020227099,
-0.024728969,0.02028561,0.025605319,
-0.050577644,-0.04007605,0.0567875,
-0.028028667,0.0,0.08870515,
-0.03339662,0.018546192,0.022750849,
0.047639184,-0.041477986,0.0,
0.033189934,-0.080762245,0.0,
0.044730026,0.031214314,0.03791185,
0.022202874,-0.048081093,-0.03215026,
0.036829192,-0.04976533,0.016877675,
0.02275003,0.051897842,0.0,
0.046629347,-0.011213818,0.032625537,
-0.06748595,-0.03431244,0.0,
-0.08073011,0.0,0.013252894,
-0.043546405,-0.011067738,-0.051033746,
-0.07110914,0.029542582,0.0,
-0.06821487,-0.0419624,-0.010158299,
-0.051067535,-0.058080815,-0.026153514,
0.0,-0.041022807,0.04638412,
0.051065974,-0.025246961,0.0,
0.08416616,-0.03341927,0.04678297,
0.057651978,-0.021493956,0.063533925,
0.033931196,0.0,0.06935311,
-0.026446382,0.0417918,0.041269347,
-0.010062717,-0.03039185,0.04166801,
-0.035315156,0.0739378,-0.018942703,
-0.017170561,0.042874414,-0.044658974,
-0.03979035,0.0,0.050393756,
0.0,0.027148308,0.07224188,
0.03800935,0.017063094,0.0,
0.0,0.060766622,0.038641535,
-0.027467597,0.030601146,0.028432598,
-0.050435897,0.037889484,0.021782873,
-0.044384494,0.030876536,0.0,
0.0,0.031643372,0.010745935,
0.042808868,0.0,-0.016897427,
-0.015167621,0.051135242,-0.010339617,
0.053391512,0.043727074,-0.037976623,
0.13486737,-0.024335997,0.03648382,
0.0836653,0.0,0.022199942,
0.029976508,-0.039143704,-0.02521387,
-0.035688244,0.0,-0.089636676,
0.0,0.0,-0.04002418,
0.041283686,0.0,-0.08063052,
-0.03303158,-0.04181973,-0.03100954,
0.031889655,-0.042912062,0.0,
0.0,-0.09128631,0.05375458,
0.0,-0.057663295,0.011781129,
0.0,0.014377324,0.09992172,
0.0,-0.010229888,-0.026592948,
0.0,0.045654137,-0.011877902,
-0.014857359,0.027733024,-0.11010735,
0.041750737,0.0,0.0,
0.0,-0.03334052,0.05255726,
0.0,-0.060253806,0.07606377,
0.0,-0.035198513,0.05010548,
-0.025721515,-0.026915208,0.04012087,
0.0,-0.011486488,0.01666313,
-0.029306302,0.019241976,0.04885925,
-0.033280306,-0.038610507,0.038120743,
-0.027665555,-0.039414916,0.0,
0.0,0.0,-0.01428609,
0.07777078,-0.0135404095,-0.027353577,
0.041424442,-0.041692562,0.030104693,
0.062024426,0.0,0.05711968,
0.07885495,-0.023617884,0.074380174,
0.05491685,-0.039644692,0.052450616,
0.031204972,-0.029171707,0.03160919,
0.0,-0.040578935,-0.016053969,
-0.0728481,-0.029356115,-0.011264192,
-0.04839135,-0.010012437,-0.05547709,
-0.06760778,0.0,-0.05051129,
-0.064127535,-0.0107681835,-0.014326009,
-0.039410077,-0.040223338,0.028996998,
0.0268975,-0.01007351,-0.012400667,
0.01066648,-0.017332762,-0.02787618,
0.056278124,-0.023741994,0.05613548,
0.028411316,0.019124277,0.040360287,
0.013180307,-0.021165347,0.04636566,
-0.062661976,-0.034040358,0.03268257,
-0.020209521,-0.02516696,0.0,
-0.05265973,0.06646248,-0.020187689,
0.03084504,0.07779884,0.012091122,
0.01945018,0.044538964,0.04062754,
0.0,0.055203333,0.045515902,
0.064042814,0.018328957,0.076274395,
0.013350406,0.053314768,0.035198692,
0.025060266,0.07574078,0.053499956,
0.0,-0.012494665,0.0,
0.0,0.018483944,0.0,
-0.012745617,0.043880545,0.0,
0.0,0.0,0.0,
0.051949166,0.010567637,-0.045325518,
0.08844701,-0.029505251,-0.028220892,
0.12083078,0.012190119,-0.059966143,
0.13025689,0.032690432,-0.038381897,
0.059606515,0.0,-0.015256234,
-0.045461223,0.036151905,-0.12096671,
-0.016099172,-0.04600673,-0.044426166,
0.022286233,0.0,-0.09479049,
0.014968546,-0.055601396,-0.011566611,
0.026542235,-0.09784487,-0.031693067,
0.0,-0.07514877,0.05469668,
-0.01723254,0.0,0.032830503,
-0.023458395,-0.04139108,0.036967102,
-0.023683231,0.01715728,-0.03149274,
0.010840703,0.03234453,-0.043485306,
-0.029107334,0.025152972,-0.06627964,
0.035986267,-0.019769173,-0.055357385,
0.025513045,-0.039926454,0.032897122,
0.012095496,-0.056988753,0.060531583,
0.025944995,-0.039061815,0.041769587,
-0.01088884,0.0,0.0654603,
-0.042762008,-0.030951014,0.07263128,
-0.058549628,0.0,0.030762535,
-0.12388043,-0.045678563,0.06528865,
0.0,0.0,0.0,
0.0,0.0,-0.013310144,
0.026966715,0.03009753,0.015668081,
0.05357574,0.0,0.011383429,
0.057457738,0.0,0.0,
0.09505206,-0.017449964,0.053678755,
0.014975308,0.0,0.11723086,
-0.011149048,0.0,0.0,
0.021749144,0.0,0.018091422,
0.029147658,0.015825097,-0.018621687,
0.0,0.035452776,-0.055352677,
-0.010583029,0.032047328,-0.069920264,
-0.033373572,-0.030565176,0.0,
-0.03689214,-0.053787045,0.0,
-0.02167048,0.022381864,-0.034357008,
0.029834645,0.016647134,0.015664298,
0.037481934,0.017760685,0.04323186,
0.040209685,0.021218494,0.0233731,
0.0455134,-0.026260532,0.05728623,
-0.054021433,-0.06571721,0.0,
-0.10146706,-0.013739745,0.011170594,
-0.045406125,0.08888822,-0.032027982,
-0.022621028,0.061593127,0.011683844,
0.028405996,0.06506234,0.0,
-0.014528372,0.013349393,0.050584875,
0.0,0.031359516,0.028084943,
-0.03391025,-0.028587183,-0.033343237,
0.022145549,0.022931328,0.024397042,
0.0,-0.051979326,0.04284815,
0.0,-0.021367047,0.03042112,
0.027188856,-0.014698343,-0.012965332,
0.0,-0.013149902,0.031729348,
0.020877127,0.0,0.01765315,
0.12267598,0.06393904,-0.034556303,
0.07135763,0.033685584,-0.03345519,
0.08565516,0.0,-0.017420266,
0.03568801,-0.03328115,0.0,
0.0,0.07702289,-0.07251789,
-0.07486553,0.04511696,-0.06390201,
0.0,0.023036802,-0.018716633,
-0.025830312,0.018839814,-0.055975687,
0.0,-0.018774355,-0.012203867,
0.019543959,-0.01928889,-0.013511289,
0.024199618,-0.047130894,0.010636381,
-0.019852258,-0.025713813,0.027658207,
0.029913474,0.03415433,-0.06676877,
0.0,-0.017435547,-0.04171054,
0.023412734,0.060484193,-0.067873605,
-0.0365061,0.014832296,-0.023806782,
0.02585313,0.024320012,0.039929166,
0.03594379,0.0,0.0,
0.031125132,-0.021185257,0.037025947,
0.01095277,0.0,0.01053495,
0.0,0.0,0.015788166,
-0.018161148,0.0,0.06442595,
0.0,0.03339719,0.0,
0.0,-0.018125342,0.0,
0.02413657,0.0,0.03226552,
0.036581717,-0.06726934,0.0,
0.04891873,-0.025450315,0.0,
0.05876188,-0.12558565,0.020658147,
0.0,-0.10162825,0.08432922,
0.0,0.0,0.015673347,
-0.022907058,-0.0141292,0.0,
0.0,0.021917937,-0.028715275,
0.022936292,0.0,-0.033388108,
0.030128187,0.022725655,-0.06447022,
-0.038147047,0.023222674,-0.09336303,
-0.06722684,-0.013583499,0.011199298,
-0.023576718,0.0,0.023691794,
0.015667561,0.027871406,-0.033270113,
0.0,0.0416998,-0.034665406,
0.018529637,0.0,-0.035938036,
0.030756738,0.0,0.054172136,
0.02471105,0.0,0.014371423,
-0.024674451,-0.06412243,-0.04472904,
-0.029647978,0.023291267,-0.05020075,
-0.022015752,0.028435262,-0.035157267,
0.0,0.017102003,0.015133338,
0.0,0.042453412,0.013449527,
-0.01303985,0.0,0.023652388,
-0.06604248,-0.013160645,0.03239614,
-0.0461744,0.0,0.04232425,
0.0,0.0,0.044519853,
-0.03473085,-0.092644565,0.0,
-0.029285256,-0.09796527,0.0,
0.0,0.012233547,-0.025101218,
0.0,0.0446721,0.010670781,
0.044611566,0.030399056,0.0,
-0.022271944,0.025939656,-0.038459044,
0.0,-0.010448436,0.01409625,
0.0,-0.022317076,0.0,
0.0,-0.04038906,-0.05660942,
-0.067665495,0.0,0.0,
-0.038189597,-0.025273925,-0.0621626,
0.014010423,0.07057065,-0.02614638,
0.0,0.073642485,-0.044106297,
0.063606836,0.02558187,-0.026196888,
0.053464837,-0.028806986,-0.013983719,
-0.011111432,-0.0569856,-0.016455945,
-0.077779405,0.02079361,-0.095630825,
-0.07881143,0.017596904,-0.06552961,
0.0200319,0.019835817,-0.06685405,
0.0,0.016382197,-0.06421356,
-0.020514753,0.017731719,-0.04319985,
-0.022138378,0.028625509,-0.021041594,
0.043905754,0.023117062,0.031554952,
0.014994742,0.053939715,0.044177767,
-0.049468543,-0.026185036,0.011616784,
0.0,0.04543807,0.055657618,
-0.02823331,0.04368826,0.021756722,
-0.033465255,0.022632847,0.0,
-0.01163392,0.0,0.010675192,
0.036703758,0.0,0.0,
0.05109955,0.014621992,0.0,
0.10330273,-0.03962877,-0.014810773,
0.018313428,0.0,0.030519156,
0.046820972,-0.06767928,-0.010500074,
-0.06608239,-0.051531393,0.03145506,
-0.029775986,-0.045400057,0.06331405,
0.046520516,0.049228556,0.0,
0.08925622,0.045767266,-0.017378999,
0.018993286,0.09902099,-0.050847944,
-0.013543224,0.013111686,-0.056350973,
-0.05037721,-0.015109707,0.06876998,
-0.03939216,0.0,0.0,
-0.017129414,0.043448444,-0.0142796915,
0.0,0.0,-0.019067401,
-0.026353126,0.016763907,0.025567845,
0.0,0.0,0.029424036,
-0.026902804,0.03619627,0.0,
-0.037551485,-0.034363613,0.025631309,
-0.04135531,-0.028802842,0.043946847,
-0.03610489,-0.034575768,-0.08111538,
-0.02230219,-0.016009247,0.0,
-0.022636184,-0.010958961,0.0,
-0.02707425,0.0,0.016832298,
-0.08691662,0.0,0.04527351,
-0.086754315,0.0,0.023218594,
-0.019245554,0.0,0.022131963,
-0.030520873,-0.025912328,0.020265818,
0.0,-0.052537374,-0.03151345,
-0.02325395,-0.088466465,0.0,
0.013174619,0.05126098,0.0,
0.022904927,0.039971765,-0.017960701,
0.0,0.0,0.036463503,
0.071642116,0.022561243,-0.018330399,
0.0,0.027699767,0.018689767,
-0.020130854,-0.016952872,-0.024380544,
-0.0534892,0.0,0.0,
-0.043661803,-0.031913605,-0.050739247,
-0.010362699,-0.020553533,-0.021422252,
0.03649111,0.041549373,0.023053044,
0.0,0.0,0.0,
0.0,0.024758022,0.011391174,
0.0,-0.012291207,0.0,
-0.027955754,0.013070947,-0.04720801,
-0.016543683,0.02552982,-0.046103936,
0.0,0.0403137,-0.06030433,
-0.029226292,0.042823456,-0.083503485,
-0.03800814,0.030662997,-0.06234196,
-0.019089714,0.0,-0.027021354,
0.028022716,0.0557539,-0.025601836,
0.020522676,0.037557207,-0.016935235,
0.0,0.04123029,0.023213884,
-0.056201085,0.07127973,0.0,
-0.016338259,0.03466949,0.03956917,
-0.020641698,0.0,0.022136416,
0.0,-0.014231072,0.07179711,
0.04146175,-0.030373957,-0.04860048,
0.056506597,0.0,0.016400725,
0.12099237,0.0,-0.011434097,
0.0645621,-0.057867292,0.047649853,
0.021470029,-0.11826889,0.058699142,
-0.022453712,-0.030694505,0.054162756,
-0.0554663,-0.017622117,0.031549275,
0.029352421,0.05365501,0.012269558,
0.0464478,0.06480013,-0.04787942,
0.061207876,0.035841595,-0.056034453,
-0.035766073,0.019544423,-0.034400832,
-0.0262128,0.017597646,-0.013832419,
-0.02588707,0.0,-0.034583483,
-0.063541144,-0.035461806,0.019366441,
-0.039413564,0.059970092,-0.051375683,
-0.022982208,0.031047704,0.02813617,
-0.062061373,-0.017178284,0.043333925,
0.01995356,-0.062178127,0.023443924,
-0.020895116,-0.046521094,-0.026079625,
0.020089064,0.0,0.0,
-0.06663907,-0.030032804,-0.030477118,
-0.02701648,-0.017978415,0.033093724,
-0.02790622,-0.029574076,-0.029638665,
0.0,-0.049849458,0.0,
-0.034051035,-0.042583562,0.07988621,
-0.026239162,-0.025833393,0.0,
0.0,-0.015202683,-0.046781346,
0.0,-0.12997127,0.03511686,
0.023299048,-0.023285197,0.032703407,
-0.0128840245,0.0,0.03532518,
0.03310849,0.047171913,0.024229228,
-0.07776989,0.01766365,0.01575898,
0.010566235,0.0,0.0,
0.010209602,-0.024767166,0.0,
0.01305083,-0.06541214,0.0,
-0.02017578,-0.019967511,0.0,
-0.012406643,-0.048757292,0.0,
-0.04730322,0.011968816,0.012462179,
-0.03556533,0.028130906,-0.03334636,
0.04731514,0.0,0.010198517,
0.025564024,-0.02626691,-0.030852176,
0.0,-0.043739606,-0.018735472,
0.023636313,-0.0355382,0.0,
0.020945946,-0.058116432,-0.026433552,
-0.036831707,0.015833648,-0.025600279,
0.032725383,-0.019182222,-0.034560118,
-0.023484997,0.022519207,-0.025823943,
0.0,0.05743029,-0.03365357,
0.03876471,0.06221436,-0.011527757,
0.05311342,0.08348527,-0.03211513,
0.026643554,0.07449781,0.0,
-0.016494721,0.0,0.0,
0.02199883,0.041048918,0.031706616,
-0.03791277,0.0,0.046871603,
0.0,0.048422128,-0.022736663,
0.07652048,-0.020638961,0.05148815,
0.0,-0.014181033,0.032738313,
0.046992876,-0.017806385,-0.023580289,
0.021555273,0.06493282,-0.011222461,
0.06671643,0.0,0.0,
0.07161659,0.0154334465,0.036980066,
0.010412481,0.0,0.025718797,
0.022442527,0.046689134,0.023217114,
0.0,-0.03769825,-0.05826976,
0.049932305,0.02743594,-0.0437883,
0.061328474,0.034390118,-0.037665028,
0.0,0.011229804,-0.014749218,
0.020217719,0.011326937,0.0,
-0.052727267,0.0,0.0,
0.018719297,0.06411191,0.0,
0.046054788,0.024102198,0.0110688815,
-0.04675721,0.04879506,0.0,
-0.03616024,0.0,0.0,
-0.028496053,-0.0146682905,0.033480283,
-0.033010438,-0.055753063,-0.034259528,
-0.043081492,-0.03253657,-0.028452326,
-0.025543684,-0.05239829,0.016307795,
-0.010727829,-0.022709856,0.0,
-0.015440398,0.012473686,0.0,
0.0,-0.09493769,0.068081535,
-0.023449218,-0.021964736,0.019639984,
-0.04249225,-0.053601738,0.056957778,
-0.059411854,-0.035485826,0.0,
0.014237987,-0.050120592,0.0,
0.026206896,0.0,-0.017365152,
0.0,-0.021955151,0.060638208,
-0.026931994,0.0,0.033582184,
-0.07646349,-0.05146201,0.0,
-0.032900065,0.0,0.066151306,
-0.061804533,-0.03440659,0.0,
-0.021287302,-0.064005814,0.0,
-0.012491236,-0.06290689,0.013207764,
0.05327699,0.0,-0.013396169,
-0.012513123,0.0,-0.0400218,
-0.07042136,0.0,0.013372216,
-0.031979386,-0.019964028,0.01968114,
0.013696361,-0.02657648,-0.013989481,
-0.034153957,-0.037699025,0.026863653,
0.034791663,-0.04620011,0.0,
0.0,-0.031644445,0.02162671,
-0.022075417,-0.030207073,-0.017280223,
-0.012303956,-0.03292247,-0.043124035,
-0.025297152,0.06866832,-0.032065157,
-0.04249958,0.060057536,-0.05538896,
-0.025204608,0.076840416,0.019874573,
0.0,0.075412735,-0.04212323,
0.0,0.071050204,-0.03978276,
-0.036415678,0.03967934,0.016419135,
0.03486995,0.017678719,0.020958235,
-0.01130034,0.07371023,0.05162948,
0.013928509,0.024452347,0.018971965,
0.09146287,0.012303803,0.0,
0.030433292,-0.04502012,-0.019931972,
0.042729132,-0.015280148,0.0,
0.061803367,0.021584652,0.024104297,
0.03738455,0.0,0.011909618,
0.015292482,0.028159296,0.0,
0.0,0.022013316,0.0,
-0.012322729,-0.03643757,0.0,
0.0,0.027025716,-0.026183093,
0.10592462,0.016687939,0.0,
0.0,-0.029696424,0.028486593,
0.041947804,0.0,0.0,
0.042821173,-0.01535856,-0.035493515,
0.054255728,0.01154061,-0.032749794,
0.06348173,0.04001945,0.0,
0.07789257,0.030842846,0.037777092,
0.0,0.041252393,-0.015507686,
-0.051547147,0.04560128,0.018722657,
0.0,0.0,-0.032431208,
0.015776673,-0.0318267,-0.024817979,
0.02314376,-0.03612396,-0.024722736,
0.0,-0.04331132,0.0,
-0.016135069,0.0,-0.03426434,
0.022878947,-0.022853652,-0.04013057,
0.05697209,0.0,0.011490914,
-0.02806628,0.036595378,0.0,
-0.013001089,-0.021396797,0.0,
0.029175377,0.026778514,0.016435608,
-0.010752186,0.016430894,-0.04730735,
0.06409587,0.022678452,-0.022029076,
0.030668775,-0.012315418,-0.03227096,
-0.047450066,-0.05586789,-0.06429789,
0.0,-0.036716443,0.026660431,
0.0129660135,-0.042869225,0.0,
-0.10463392,-0.07948615,0.011163516,
-0.04579608,-0.08785694,0.028660858,
-0.025194196,0.0,-0.013669919,
0.0,0.018578816,0.0,
-0.03501604,0.0,0.014066172,
-0.09789408,-0.057950396,0.014263049,
-0.052664854,-0.058815103,0.0,
-0.010096791,0.0,0.013412267,
0.0,-0.045427028,0.0,
0.0,-0.057199627,0.0,
0.0,-0.075104006,0.020601314,
-0.015873406,-0.030837048,0.025653638,
-0.076188676,-0.03677388,0.0,
0.0,0.022100097,0.0,
-0.033081573,0.045308024,0.0,
-0.019903345,0.035975184,-0.027891101,
0.016586691,0.03414392,-0.062159352,
-0.030466964,-0.027398935,-0.039613582,
-0.07233812,0.036030017,-0.060635127,
0.0,0.011669365,0.0,
-0.037184924,0.0,0.0,
-0.059111368,-0.03261943,0.046401586,
0.098694704,0.026267998,0.0,
0.042205766,0.017836632,0.048630904,
0.0,-0.013874827,0.0,
0.011478237,0.047482733,0.019697512,
0.03620509,0.039712388,-0.017277425,
-0.011403664,0.015845582,-0.02340889,
0.0,0.015998349,0.0,
-0.015510435,0.017693462,0.022195071,
0.03834767,0.0,-0.07035741,
0.07589227,0.012204822,-0.035970777,
0.10580153,-0.051808704,0.012779056,
0.047746405,-0.067385554,0.027867723,
0.044318154,-0.037013408,-0.026980927,
0.03215164,-0.029374886,-0.023562646,
0.025665635,0.0,0.042244617,
0.034302786,0.0,0.0,
0.029042836,0.033641413,0.015617042,
-0.025198784,0.0,0.0,
0.0,0.04327796,-0.041786585,
-0.015277965,-0.011195861,0.023443649,
0.0,0.030783186,-0.026754403,
0.05236486,0.014073491,-0.039668996,
0.0,0.03638932,-0.029197372,
0.065772824,0.040596083,-0.024605894,
0.1106811,0.0,-0.028949311,
0.0,0.0,0.022608863,
-0.03187253,0.0,-0.03156709,
0.0,0.044690937,-0.02647614,
-0.025970273,0.05532146,-0.038321503,
0.0,0.02607992,-0.09961413,
0.0,-0.06350814,-0.029400133,
0.015912829,-0.06951354,-0.072955534,
0.0,-0.027652133,0.02708318,
-0.096375674,-0.037174363,-0.03090855,
-0.058807325,-0.04927581,0.0,
-0.046803705,-0.065881684,0.026308108,
0.048752524,-0.019621076,0.03694823,
0.03752662,0.0,-0.01871232,
-0.014394923,0.027340133,-0.023049254,
-0.0600573,-0.0611912,0.013845333,
-0.0942184,-0.024420451,0.0,
-0.0145041775,0.0,-0.078772224,
-0.021817628,0.03723914,-0.047023833,
0.0,-0.08701403,-0.043728292,
0.0,-0.0228344,0.0,
0.014138702,-0.030277697,-0.012435152,
-0.036045827,0.049846984,-0.011829334,
-0.013354263,0.0,-0.045138,
-0.061939836,0.0,-0.026137495,
-0.045833018,-0.024614373,-0.054620013,
-0.03247102,-0.029375887,-0.03649428,
-0.034396276,0.038783435,-0.011418231,
-0.05518594,0.0,0.0,
0.0,0.0,0.07727431,
-0.044137824,-0.04460106,0.051350195,
0.0,0.0,0.033908565,
0.061610717,0.039108492,0.10624038,
0.059884142,0.029861469,0.033831853,
0.093445145,0.01980022,0.0,
0.02222663,0.013400153,-0.010276253,
0.018761273,0.06497146,0.028348701,
-0.013957381,0.029465921,0.015724797,
-0.026450781,0.060100485,0.0,
0.0,0.06374744,-0.020538842,
0.0,0.04522657,-0.028030926,
0.04658832,0.025697965,-0.039584097,
0.08799723,-0.010991472,-0.013979894,
0.048005562,-0.016317053,-0.023884831,
0.061073374,0.0,0.036019128,
0.026579617,-0.038489893,-0.05427098,
0.069098406,0.014119821,-0.028046425,
0.030338576,-0.025594356,0.028342852,
0.01848501,-0.036918443,0.021291783,
-0.04039834,-0.012425415,0.0,
-0.055106856,0.030797442,-0.048917018,
0.0,-0.052273598,-0.03839607,
0.035744645,0.0,-0.059282914,
0.036720205,0.024659911,-0.07848959,
0.061579194,0.013039629,-0.05079597,
0.012750273,0.0,-0.051909074,
0.05155839,0.0,-0.031892087,
0.0,0.021879263,-0.040304426,
0.0,0.019664705,0.0,
-0.010444069,0.022074917,-0.070741005,
-0.026817493,0.04623789,-0.051743332,
0.0,0.077524245,-0.06470094,
-0.025361838,0.046778936,-0.062117342,
0.059781462,0.0,-0.030513296,
-0.032215845,0.0,-0.010423081,
-0.034799956,0.0,0.0,
0.0,-0.016404187,0.04344907,
0.01913041,-0.019007629,0.04721479,
0.037020545,-0.040619235,0.028660903,
0.0,0.021662954,-0.015917635,
-0.060882624,0.040021338,-0.020808322,
-0.06206118,-0.03820633,0.0,
-0.06911563,-0.03183517,-0.019261025,
-0.030380148,0.07626427,-0.041622084,
0.0,0.022514714,-0.16429994,
0.0,-0.043224398,-0.040349927,
0.0,0.024977963,-0.05616166,
-0.038793895,0.025139287,-0.024930201,
-0.014767147,-0.020295788,0.0,
0.0,0.0,0.03712224,
-0.041538592,-0.052636202,0.0,
-0.011005555,0.011155007,-0.049531966,
0.0,-0.022838231,0.0,
-0.039531022,-0.022398802,-0.012320585,
-0.026990911,0.0,-0.012206947,
0.031732146,-0.028683288,0.05199411,
-0.029482039,-0.04397248,0.08349887,
0.010781212,0.0322687,0.054496765,
0.07994219,0.014338821,0.09381215,
0.058692697,0.03202024,0.07780709,
-0.022777477,-0.028182276,-0.01243401,
0.0,0.07153516,0.0,
0.014140582,0.028922731,0.0,
-0.060346387,0.03153125,0.0,
-0.053160474,0.0428008,0.01072566,
0.0,0.046484876,-0.052336175,
0.040578924,-0.019230982,0.010846104,
0.064031705,-0.07804034,0.0,
0.05199464,-0.11061802,0.0368732,
0.031248612,-0.091048114,0.04578393,
0.04230894,0.060167428,-0.029870847,
0.030555135,0.035110634,0.0,
0.06071647,0.037086308,0.011284887,
0.045258567,-0.012869493,0.014875066,
-0.015178247,0.015238023,0.030581135,
0.0,0.0,0.057103314,
-0.016184896,-0.03250795,-0.041053515,
0.042893723,-0.067106016,-0.04036781,
0.03522858,-0.052352894,-0.057035793,
-0.019971399,-0.030098392,-0.070128486,
0.04884971,0.030290816,-0.08067925,
0.025143363,0.05489866,-0.07620696,
0.010650109,-0.013233082,-0.047916587,
-0.014816562,0.0,-0.016685834,
-0.04519029,-0.08501732,-0.06375982,
-0.059940986,0.0,-0.047435585,
-0.043361764,0.051209323,-0.058471765,
0.03001211,0.036388453,-0.041548934,
0.03874168,0.06773268,-0.054951638,
0.035446115,0.014146876,-0.101185195,
-0.018171022,0.0,0.014431035,
-0.015829397,-0.029267369,-0.04485229,
-0.05573169,0.02403275,0.0,
0.019360078,-0.03690843,0.0,
0.020550374,0.01634105,0.0,
0.0,0.014021372,-0.03389271,
0.025993368,0.0,0.0,
-0.054878835,0.0,0.0141948825,
0.0,0.080357134,-0.055384975,
-0.014243951,0.0980853,-0.07326328,
-0.013106028,0.10938271,-0.11230963,
-0.03087459,0.0,-0.059175085,
0.010300844,-0.026335191,0.026576065,
-0.022702439,-0.03270054,0.044666246,
-0.040818818,0.0,0.0,
0.02151302,-0.047293194,0.033949815,
0.0,-0.07477836,0.0,
0.03244747,-0.024479493,-0.03559164,
0.0,-0.029281681,-0.04511721,
0.0,0.0132931415,-0.048894353,
0.0,-0.04935319,-0.065829046,
0.0,-0.064856745,0.04797019,
-0.012543619,0.0,0.04581858,
-0.029450428,0.058173392,0.0,
0.028680613,0.047568813,0.049930297,
0.03026917,0.055242296,0.056740355,
0.023522113,0.0,0.05904025,
-0.011261582,0.039904993,0.023708269,
-0.051599585,0.04388485,0.021740898,
-0.011071725,0.016277684,0.0,
-0.04088626,0.020154933,-0.019074384,
-0.01776184,0.030753382,0.0,
-0.014335957,-0.015458771,-0.029177357,
0.0,-0.079025656,0.0677576,
-0.016577693,-0.045376528,-0.019308884,
0.021684641,-0.035724822,0.03645721,
0.0,-0.013486441,0.012554592,
0.0,0.0,0.02725498,
-0.042833194,0.027197888,0.0,
0.019451527,-0.012903549,0.0,
-0.022347122,-0.01664337,0.04897963,
-0.048552092,-0.023578588,-0.015732171,
-0.02260787,-0.010349686,-0.010325874,
-0.030440535,-0.061161786,0.0,
0.07278576,-0.011485136,-0.04971838,
0.015511122,-0.037642058,-0.0523073,
0.0,0.0,-0.046386458,
0.03305331,0.010386162,-0.06209871,
-0.03182162,-0.02147946,-0.038174868,
0.047159698,-0.030731456,-0.0898447,
-0.035770793,0.013948741,-0.024226544,
-0.0335679,0.036459334,-0.080978334,
-0.03361277,0.026669918,-0.044479173,
-0.021257114,-0.04630712,-0.02955908,
0.035915148,0.0,-0.05082041,
0.03137764,0.07568613,-0.060777612,
-0.031531904,0.018899128,0.0,
0.0,0.0,0.010145494,
0.021669662,0.03876219,0.042195152,
0.0,-0.054944247,0.04355527,
0.027227167,0.0,0.021799006,
0.06885863,0.055413883,-0.073926575,
0.023493104,0.02335775,0.0,
0.0,0.0,0.0,
0.0,0.057827525,-0.024569562,
0.014611439,0.14461382,-0.086425245,
0.021549761,0.09197905,-0.10621665,
0.04059318,0.019072339,-0.093447536,
-0.0149029875,0.0,-0.05106755,
0.0,-0.013218176,0.012148139,
0.014967963,0.019485274,-0.030574664,
0.0466679,0.0138630355,-0.016182018,
0.044278637,-0.015852323,0.0,
0.06438927,-0.021635802,0.013085454,
0.028389389,0.0,-0.04700325,
0.0249193,-0.030159531,-0.032085907,
0.0,-0.077332824,0.022333601,
-0.024725733,-0.07665746,0.06303141,
-0.046568777,-0.062068548,0.04460695,
-0.072004765,0.038475927,0.040467814,
-0.027240887,0.07008113,0.017705064,
-0.041606683,0.056849845,0.0,
0.0,0.0,0.019417599,
-0.0611697,0.0,0.0,
-0.041468795,0.017074974,0.019159058,
-0.043086935,0.048856303,0.0,
-0.042239923,-0.05588948,0.026814815,
-0.046346422,0.0,-0.029904263,
0.014967337,-0.040182546,-0.028070055,
-0.033295598,-0.055757746,0.014800504,
-0.03987653,-0.10362834,0.03531927,
0.0,-0.034148443,-0.050789863,
-0.02451927,0.052641004,0.066182844,
0.014795054,0.022465147,-0.052563243,
-0.018748088,0.01676566,-0.024425179,
-0.013551762,-0.034584865,-0.07286606,
-0.051126905,0.014867563,0.0,
-0.062012948,0.0,-0.03782184,
-0.03624445,-0.09280664,-0.028642816,
0.02601586,-0.061764836,0.0,
-0.013806997,-0.082463264,-0.010104547,
-0.027792726,-0.047795936,-0.05114294,
0.012649959,0.0,-0.0492128,
0.0,0.030019319,-0.027381342,
0.04125973,-0.037006434,-0.091335036,
-0.06121284,-0.017116409,-0.042146232,
-0.050706457,-0.027095351,-0.059709106,
0.0,0.0,-0.041422993,
0.0,-0.027549477,-0.050281353,
0.04243584,0.0,-0.030221963,
-0.029510902,0.05779879,-0.059754595,
-0.018771777,-0.01937143,0.0,
0.027174797,-0.03752387,0.0,
0.041375052,0.0,0.028685525,
0.03159396,-0.012329566,0.014681067,
0.020844381,0.016483257,0.0481194,
0.0,0.0,0.021942427,
0.056490168,0.051558737,0.0,
-0.013039084,0.045293882,-0.011140582,
0.041601572,-0.02604197,-0.042375658,
0.0,0.016486002,0.0,
0.050302554,0.12728195,-0.071809,
0.05588941,0.08696564,-0.0823389,
0.0,0.0,-0.10587705,
0.085332245,0.039275896,-0.070393994,
0.04279076,0.06940633,-0.013450202,
0.06705711,0.08247142,0.031353902,
0.044832435,-0.051685363,0.0,
0.08487133,-0.06241715,0.048343733,
0.0789793,-0.07383396,0.018721724,
0.0,0.0,-0.015218997,
0.028227393,-0.02729805,-0.03455204,
0.035882935,-0.027208388,0.020004524,
-0.02357511,-0.056849618,0.050077733,
-0.050319742,0.029620405,0.02644253,
-0.025899572,0.025708284,0.0,
-0.031422667,0.07474483,0.0,
-0.039872736,0.094831795,-0.032671172,
0.0,0.022182891,0.04491671,
-0.046933692,-0.030498058,-0.010978932,
-0.022517819,-0.03872047,-0.017484393,
-0.046619564,0.0,0.04922125,
-0.045701824,-0.041532006,0.05670152,
-0.060283706,-0.058672316,0.017093852,
-0.035855237,-0.06346919,-0.024568597,
-0.018391311,-0.081504695,0.021810273,
-0.055846997,-0.101442285,-0.012937331,
-0.04551922,0.029264836,0.017023016,
0.0,-0.04089677,0.02185287,
-0.022815974,-0.031142185,0.0,
-0.030552479,0.0,-0.062597364,
0.0,0.0,0.0,
-0.061987005,0.0,-0.04451583,
-0.026798546,0.096392624,0.0,
-0.06576352,-0.010462101,0.0,
-0.019277161,-0.07918546,0.0,
-0.017010257,-0.095428914,0.016161667,
-0.024670219,-0.09150195,-0.07375264,
-0.07928176,-0.036302447,-0.0648,
-0.02085826,-0.050204948,0.0,
-0.027064787,-0.064617135,-0.06803361,
-0.010791822,-0.054413326,-0.07322809,
0.0,0.025484469,-0.05510302,
-0.038266897,-0.012245826,-0.06944074,
-0.036072947,-0.024887718,0.0,
0.037247572,-0.025453521,-0.014490081,
0.0,-0.05288669,-0.07798634,
-0.01768408,0.0,-0.024488177,
0.019999262,0.0,0.027933083,
0.018133545,-0.035070878,0.070576474,
0.0,-0.027009353,0.010759894,
-0.031940915,-0.030673536,0.06423825,
0.0,-0.031832967,0.04862732,
-0.040880684,0.019062629,0.0,
0.0,0.0,0.0,
0.03963676,0.047589447,-0.01739325,
0.028542114,0.075720765,-0.047501992,
0.043181606,0.054747906,0.0,
0.06435801,0.0,-0.054272003,
0.04538977,0.0,-0.04398304,
0.11212748,0.0,-0.08248974,
0.031307593,0.0,-0.037692975,
0.01519313,-0.022380609,0.0,
0.031445894,-0.043476447,-0.01792165,
0.016840642,-0.06779534,0.06508681,
0.09075622,-0.090922005,0.066876225,
0.020913081,-0.036089037,0.011779129,
0.035996914,-0.017637396,0.0,
0.05650909,-0.0214868,0.02268097,
-0.016030788,-0.05079274,-0.02904474,
-0.06116845,-0.023927433,0.050545473,
-0.034768302,0.03841071,0.030831449,
-0.029121665,0.09148989,0.014813129,
0.0,0.0,0.029722823,
0.020637935,0.043282624,0.026594153,
-0.0421722,0.0,0.017601553,
-0.020624217,-0.068831526,-0.017828805,
0.0,-0.037105847,0.036347806,
-0.0739144,-0.10778849,0.0,
-0.016795067,-0.011164034,-0.07206183,
-0.027484072,-0.0620645,-0.04726854,
-0.047222707,-0.06568853,-0.021432258,
-0.01867064,0.0,0.0,
-0.024009628,-0.021903386,-0.01324407,
0.0,0.018314453,-0.042128094,
0.054174438,0.0,0.020907823,
0.054137643,0.04248611,-0.014984676,
0.0,0.050986778,-0.069775105,
0.016684491,0.09599814,-0.05148764,
0.0,0.06375534,-0.021185163,
0.0,-0.022321364,0.01366083,
0.0,-0.08432316,0.042785,
-0.039754286,-0.019329524,0.0,
-0.0105076,-0.05912141,-0.01387111,
-0.015119175,-0.028646706,-0.06399542,
-0.056665916,-0.013299743,0.017893229,
0.047293548,0.012115045,0.0,
-0.011054377,0.023496471,0.0,
0.0,0.0,-0.025061345,
-0.043807417,0.04305417,-0.056156855,
-0.021563545,-0.044433493,-0.018803183,
0.020710068,0.0,0.016832002,
0.0,-0.017767133,0.0,
0.01742305,0.013927294,0.049774308,
0.0,-0.030161975,0.03183682,
0.04377828,-0.012393098,0.07512126,
0.0447025,0.0,0.106041856,
-0.019782241,0.0,0.031741377,
-0.04114408,0.0,0.08994167,
-0.05942661,0.031140292,-0.018582586,
-0.051941734,0.035453375,0.0,
-0.012758649,0.050508756,-0.040028706,
0.02082747,0.054734066,-0.044071417,
-0.012506505,0.020532757,0.0,
0.0,-0.04028206,-0.05325885,
-0.042915527,0.0,-0.032732684,
0.07719747,-0.021723693,-0.07577801,
0.0,0.016504567,0.010685559,
-0.044029042,-0.04375401,0.0,
-0.018379716,-0.094292,-0.014681917,
0.046708282,-0.028418237,0.07473328,
0.018278273,-0.12638286,0.026675425,
0.04948266,-0.04983675,0.010616838,
0.059274565,0.0,0.021509608,
0.034889307,0.04547236,-0.041260432,
0.0,0.0,0.0542143,
0.0,0.050481923,0.029631667,
-0.042819045,0.030683424,0.0,
-0.03357901,0.06482556,0.042227473,
0.0,0.0750074,0.012694907,
0.011115159,0.017653562,0.0,
0.020476317,0.06348033,0.06737028,
0.04307489,-0.03844088,0.0,
-0.03474349,-0.073788255,0.025022145,
0.010414871,-0.06250789,-0.035343427,
-0.035664577,0.0,-0.04390365,
0.0,-0.010906839,-0.07608296,
0.012091872,0.0,-0.027983904,
0.0,-0.019152952,-0.010064493,
0.039695438,-0.037492976,0.0,
0.094029404,0.0,-0.041271046,
0.1140062,0.0,-0.025464794,
0.02811311,0.018731533,-0.022682173,
0.04659935,0.010633527,0.0,
0.0,0.059674803,-0.028415335,
-0.01125193,0.053719513,0.0,
-0.032290485,0.0,0.0,
0.025292397,-0.078053504,0.020546274,
0.0,0.0,0.0,
0.0,-0.044808883,-0.041507732,
-0.026861256,0.0,0.04842891,
0.0,-0.045062218,0.016330348,
0.05276746,0.016534941,-0.037709974,
0.0,-0.01769683,0.024553949,
0.03641542,0.023876935,-0.0417369,
-0.060605794,-0.011678448,0.0,
0.019379139,-0.08387803,0.031037904,
0.011330471,-0.018459655,0.058447137,
0.018235067,0.082724996,0.026731113,
-0.012876033,0.0,0.0381899,
0.045264117,-0.036741924,0.05399723,
0.10388566,-0.03198703,0.07676515,
0.021809755,-0.045476962,0.07211866,
0.0134366,0.014662845,0.06370717,
-0.038693395,0.013538156,0.069169186,
-0.064886145,0.0,0.019261153,
-0.028471896,0.050095007,-0.03631815,
-0.023650397,0.0929475,0.029100902,
0.0117891785,0.0,0.03839084,
0.0,-0.029926661,0.011263151,
-0.02821197,-0.01826055,-0.041905455,
0.03711846,-0.075912885,-0.061927952,
0.04549386,0.026738077,-0.022664577,
-0.07008015,-0.023241445,-0.053737894,
-0.047760047,0.0,0.050641507,
0.0,0.0,0.0,
0.047167726,-0.049092237,0.07089264,
0.038941428,-0.036087207,0.042416044,
0.030278923,-0.014479837,0.022595933,
0.09921625,0.0,0.0,
0.0,0.012781869,-0.044327717,
0.0,0.076714806,-0.02309111,
0.0,0.06001111,0.049748275,
-0.0578454,0.03205241,0.024312474,
0.0,0.0,0.09775656,
-0.024182117,0.07326713,0.05055794,
0.0,0.0,0.049404915,
0.020474292,0.037672576,0.022134304,
0.017747784,0.0,0.0,
0.0,-0.04973457,0.012786214,
0.0,-0.053285692,-0.074182406,
0.016259741,0.0,-0.10719312,
0.083857246,0.017274974,-0.09796357,
0.028474065,-0.029556643,-0.041692093,
0.017965123,-0.053883877,-0.033366993,
0.024690125,0.010915281,0.04603569,
0.054976024,0.0,0.024880614,
0.089588486,-0.0133125475,-0.039489646,
0.061690625,-0.027633015,0.036694746,
0.06717598,0.02899765,0.0,
0.034158453,-0.025749668,0.0,
-0.050590653,0.0,0.0,
-0.023604995,0.0,0.03322116,
0.038222756,-0.03407057,-0.028649362,
0.024892041,-0.016260423,-0.018980606,
-0.059592325,0.017229747,0.037506804,
-0.06705187,-0.041896205,0.01552767,
0.04572867,-0.022319026,0.0,
0.0,-0.024743978,0.045677096,
0.040396832,-0.028557124,0.0,
0.030861279,-0.026291935,0.0124187665,
0.019081322,-0.03513687,0.02903071,
0.011475907,-0.075049266,0.07360065,
0.036401913,-0.053354945,0.047377087,
0.05141742,0.05114343,0.020796478,
0.0,-0.016200572,0.035661936,
0.039955795,-0.042615943,0.021706037,
0.055177636,0.048994582,0.029934503,
0.042713657,0.08761058,0.048708223,
-0.05184455,0.041350525,0.03719042,
-0.028251797,0.067079626,0.025486154,
-0.057722814,0.020856414,0.029209001,
-0.08341107,0.017741635,0.0,
-0.076112136,0.012629431,-0.035706993,
-0.0623931,-0.022264414,0.0,
-0.056128666,-0.03589535,0.0,
-0.04050623,-0.022581365,0.0,
0.0,-0.04541096,-0.07075811,
-0.027484661,0.01719966,-0.052596003,
-0.06075145,0.0,-0.018386729,
-0.011408836,-0.023143895,0.017279819,
0.02322372,-0.020586755,0.013483681,
0.0,-0.046757873,0.052827958,
0.060472347,-0.04363152,0.0,
0.0,0.014142438,0.01687175,
0.0,0.09750089,0.05342005,
-0.029826311,0.06100479,-0.057889618,
0.050224077,0.07666263,-0.046485562,
-0.016085394,0.019042464,0.05732276,
0.0,0.0,0.024445912,
0.05234488,0.0,0.09875182,
0.029515201,0.05152789,0.079583935,
0.030914016,0.077069126,0.038490962,
0.0,0.013039281,-0.06378405,
-0.017879117,0.015607455,-0.020251993,
-0.036254946,-0.012421355,-0.028935617,
-0.036729943,0.0,-0.07665226,
0.06468281,-0.033920847,-0.059891675,
0.0555596,-0.019498562,-0.042168442,
0.011210259,0.046302892,-0.05109959,
0.010922443,-0.05206953,0.0,
0.06707058,-0.029878996,-0.08269107,
0.09864408,-0.020901931,-0.017586868,
0.0707539,0.01488244,-0.034879588,
0.065616846,0.0,0.0,
0.016224248,0.0,0.0,
0.040551186,0.015522816,0.0,
-0.020501988,-0.08098784,0.03775879,
-0.014367848,-0.031696852,0.05509869,
-0.021061974,-0.0110672545,-0.013989203,
-0.024152435,-0.031439066,0.010224904,
0.050752986,-0.014543278,-0.013423276,
-0.078884706,-0.042501755,0.024227757,
0.069548845,0.0,0.02691111,
0.05867109,-0.03150046,0.03641245,
0.104140215,-0.047856033,0.076442026,
0.05632354,-0.01422324,0.03807193,
0.07199623,-0.0341966,0.06752066,
-0.02194586,-0.03541139,0.13298981,
0.053208515,-0.03382501,0.08128261,
0.0,0.051282845,0.053148918,
0.014052303,0.019667072,0.06176325,
0.011929766,0.080331884,0.0,
0.034591638,0.053378694,0.016109321,
0.07418372,0.023615057,0.016128933,
0.0,0.08944825,0.017146109,
-0.05019261,0.05375641,0.020446295,
-0.03416232,0.04224097,0.030054009,
-0.050126452,0.03493279,0.03185243,
0.017502356,-0.019715026,-0.010966194,
-0.07560411,-0.09518441,0.0,
-0.026649391,-0.08262969,0.036585048,
-0.02990928,-0.13187478,-0.03428982,
-0.015525101,-0.055426333,-0.06565155,
-0.027118426,-0.05247518,-0.04117224,
0.058429915,0.018746316,0.0,
-0.012104374,0.014916931,0.0,
-0.025589107,0.016721368,0.059259105,
0.052541904,-0.041871727,0.08581668,
0.06188935,-0.04441324,0.0,
-0.020014133,0.055861555,0.0,
0.0,0.03790834,-0.03271047,
-0.021264285,0.08586168,0.011102342,
0.046055503,0.041847393,0.0,
0.033399954,0.05394663,0.033650793,
0.0,-0.042683113,0.08234824,
0.02645607,0.0,0.13813736,
0.048704233,0.06011589,0.0596218,
0.020346705,0.049771663,-0.012992759,
-0.047646746,0.022310207,-0.033738762,
0.0,-0.014103489,-0.04923167,
0.0,-0.030490823,0.0,
0.06133233,0.0,-0.058973595,
0.0,0.0,-0.038925804,
0.04154034,0.04413048,-0.08770686,
0.03260171,0.0,-0.06271842,
0.03537912,-0.034773014,-0.09403522,
0.08355542,-0.02758235,-0.05478693,
0.07860137,0.017467037,-0.048373036,
0.0,0.012998143,-0.07153921,
0.02105066,0.0,0.04372687,
0.046649616,0.022708138,0.0,
0.027959438,0.01846569,-0.06217446,
0.0,-0.034876633,-0.036878236,
0.017597552,-0.06346362,0.052659955,
0.0,-0.024887858,0.052883346,
-0.040723167,0.0,0.023141181,
-0.09161063,-0.027102046,0.012893274,
0.0,0.0,0.013750757,
0.0,0.06960356,0.052830335,
0.056151167,0.0,0.06979423,
0.045496687,0.0,0.04793978,
0.061745837,-0.014566806,-0.025779882,
0.053718325,-0.038773265,0.012156441,
0.012727848,-0.02060734,0.112337224,
0.020391693,0.018711401,0.05177065,
0.0435761,0.0,0.024528181,
-0.059237294,0.0,0.047374845,
-0.032891862,0.03138818,0.02306649,
0.060506035,0.032937817,0.06794515,
-0.015780397,0.10043987,-0.040062375,
-0.027524108,0.08270959,0.0,
-0.025793174,0.021837272,-0.021442717,
-0.043537024,0.04975076,0.03822565,
0.0,-0.010067531,-0.045749232,
0.0,-0.016628686,-0.01365849,
-0.04853363,-0.026716454,-0.012604725,
-0.083146006,-0.07536214,-0.014723895,
-0.024157131,-0.09382219,-0.041929115,
0.010596762,0.0,-0.041439448,
-0.014471435,-0.025274063,-0.034087002,
0.02032532,0.0143997045,0.021776872,
-0.01837193,0.0,0.0,
0.0,-0.022197127,0.039245356,
0.01344708,0.013448867,0.066932596,
0.01258154,0.0,0.0,
0.0,0.03414304,0.0,
0.0,0.097843334,-0.031606935,
-0.046192985,0.010761975,-0.027423078,
0.0,0.05608379,0.0,
0.02796088,0.035203688,0.03829759,
0.06359436,0.0,0.107190445,
0.0132383555,0.020592125,0.09131489,
0.0,0.1576615,0.03284845,
0.017542193,0.071620345,0.0,
0.0,0.08093189,-0.042628095,
0.05514399,0.05191749,0.0,
-0.013276238,-0.015150544,0.0,
0.01907398,-0.018612184,-0.03423488,
0.029956002,0.0,-0.041986924,
0.017408993,0.0,-0.019509496,
0.0,0.022608425,-0.094188094,
0.0,-0.021970317,-0.02997895,
0.020985777,-0.03649176,-0.034629777,
-0.03342178,-0.05292544,-0.041102927,
0.041120276,0.051215567,-0.03646172,
-0.04881198,0.0,0.040554136,
0.012511478,-0.018068127,0.0247989,
-0.07217032,0.0,0.016740557,
0.020947246,0.0,0.0,
-0.014618095,-0.026727388,-0.019805374,
-0.06807245,-0.018420069,0.05543715,
-0.023372844,0.02652437,-0.036552757,
0.0,0.026775474,0.0,
-0.01888075,0.054788765,0.029831953,
0.0,0.052222382,0.031431742,
0.02414783,0.0,0.046358574,
0.033220917,-0.01863119,0.1168334,
0.082036436,-0.07458996,0.020972751,
0.03385228,-0.028766394,0.0,
0.0,0.039252445,0.06023315,
0.043948416,0.02923279,0.05044091,
-0.010052709,0.028607883,0.06105106,
-0.06194519,0.0,0.112372525,
0.0,0.0,0.073390335,
0.0,0.03690027,0.03466371,
0.0,0.072904125,0.018010903,
0.029818177,0.08681069,0.012373841,
-0.017349325,0.06720331,-0.038367663,
-0.020461323,0.0,-0.013218057,
-0.03398482,0.028143018,0.032186862,
-0.0341657,0.0,-0.050018605,
-0.08411588,0.051945634,-0.07447754,
-0.025845625,-0.05803764,-0.09968427,
-0.034958597,-0.08494505,-0.047326237,
-0.013499008,-0.025278246,-0.07888965,
0.01714762,-0.049843825,0.016440917,
-0.03280525,0.0,0.023106335,
0.010878269,0.027940258,0.0,
0.11515199,0.043022353,0.072906554,
0.020205585,0.047413897,0.056814138,
0.0,0.040688142,0.0,
-0.07004862,0.047747996,0.0,
-0.08339074,0.103790365,0.017135993,
-0.08517779,0.04216712,-0.05928914,
-0.027671415,0.048829906,0.039808884,
0.039103746,0.046790805,0.029340724,
0.034492113,0.0,0.08293113,
0.054020245,0.015358296,0.065490775,
0.032715607,0.012581918,0.046005186,
0.04369644,0.054840595,0.017420005,
0.019260626,0.023973549,-0.051548533,
-0.017915944,0.04105224,-0.021939635,
-0.029771337,-0.06572119,0.0,
0.029607348,-0.0147412745,0.0,
0.026844945,0.045395773,0.019916214,
0.0,-0.024583776,0.012471563,
0.037716787,0.029873047,-0.06402487,
-0.011957859,0.0,-0.043333996,
0.0,-0.031635344,-0.05951192,
0.0,-0.086228125,-0.06801766,
-0.07012287,0.05171095,0.015513176,
-0.0641257,0.0,0.03247433,
-0.07700909,0.0261484,0.017209211,
0.0,0.014949707,-0.02893498,
0.020792563,0.030505417,-0.023100866,
0.018714588,-0.048062045,-0.028631289,
0.0,0.0,-0.020627867,
-0.06554557,-0.015891729,0.027318519,
-0.0403678,0.0,0.03760598,
0.0,0.058398902,-0.015229337,
0.0,0.09955228,0.0,
0.037657417,0.038275186,0.0,
0.02963668,0.0,-0.012455477,
0.018745124,0.058588136,-0.033831473,
0.0,0.08345244,-0.022539595,
0.050975576,0.030950028,0.025425958,
0.05660179,0.049248725,0.03418948,
0.0,0.08147185,0.017428363,
-0.0241065,-0.014516717,0.03604035,
-0.018868959,0.04183458,0.04366721,
0.0,0.03472207,0.04896428,
0.0,0.08764508,0.0,
0.0,0.06668305,-0.013459195,
-0.02058189,0.061495308,0.03264388,
-0.049642365,0.026390182,0.036052447,
-0.066121474,0.01595087,0.021081593,
-0.045606352,0.02003309,-0.088389345,
-0.06793417,0.0,-0.12796985,
-0.021781107,-0.04711254,-0.07438987,
0.0,0.011862848,-0.09552218,
0.010260289,0.0,-0.07294163,
0.0,0.015308133,0.0,
-0.04236068,-0.03549635,0.015144728,
-0.010273829,0.013126543,0.043994673,
-0.02350836,0.0,0.022476178,
-0.021178473,0.07077212,0.02205175,
-0.033947207,-0.014743965,0.015657565,
-0.060596216,0.029730914,-0.011040764,
-0.04064059,0.035860535,-0.029315684,
-0.100424044,0.013761039,-0.057963304,
-0.012759537,0.07525631,0.01948458,
0.05310347,0.057135444,0.03373873,
0.046622895,0.024405612,0.085153185,
0.044447698,0.0,0.121002294,
-0.015786108,0.034805175,0.0812338,
-0.064053416,0.021387434,0.030871652,
-0.0632279,0.038000297,0.0,
0.0,-0.015426214,-0.028789839,
0.027986854,-0.065936595,0.0,
0.0,-0.033788312,0.0,
0.04017889,0.0,0.08146832,
-0.035674512,-0.039475016,0.0,
0.029762195,0.01210978,-0.0154512385,
0.057048693,0.04052726,0.0,
0.0,-0.023928445,-0.01342718,
0.016944485,0.03140923,-0.011857288,
0.0,0.043549176,0.0,
-0.036328737,-0.029204099,-0.0110022435,
-0.0762011,0.024724346,0.0,
-0.072113976,0.0,-0.05636305,
0.010941926,0.02311459,-0.09363876,
0.019189477,0.031780474,-0.058057737,
0.0,0.0,-0.051059857,
0.0,0.04553459,-0.044779893,
-0.068582036,0.04845211,-0.040839516,
-0.045860782,0.08141808,0.0,
-0.032185,0.08608832,0.05110257,
0.07391071,0.063065946,-0.044027716,
0.016974492,0.053537562,-0.035446826,
0.08583831,0.06898326,-0.06834073,
0.01989396,0.04331854,-0.073848,
-0.027807437,0.05429555,-0.047815695,
-0.023606058,0.090293266,-0.042847104,
-0.042524308,0.09992319,-0.077425614,
-0.054521542,0.011967733,0.0,
-0.028218731,-0.023553295,0.0,
-0.02711301,0.045519937,0.0,
0.0,0.052937474,-0.083338745,
-0.030838968,0.0,0.0,
0.0590497,0.032386094,-0.018009972,
-0.045622792,0.0,0.050233755,
-0.020193709,-0.060107574,0.070600785,
-0.1104046,0.043578513,-0.04662125,
-0.08445332,-0.022361396,-0.040017262,
0.05675541,0.0,-0.039207146,
0.016518004,0.0,-0.04666298,
0.0,-0.04162622,-0.069813155,
0.0,0.0,0.0,
-0.045464903,0.0,0.03516117,
-0.02555254,0.0,0.0,
-0.01968622,0.011198971,0.01723122,
0.0,0.010503551,0.020332985,
-0.09425507,0.0,0.0,
-0.07620156,0.014962977,-0.035050306,
-0.08663569,0.027277483,-0.04259635,
-0.039271142,0.06088515,-0.030578196,
0.03700405,0.053068753,0.0,
0.058546327,0.04308291,0.054249685,
0.079092234,0.03280921,0.057183668,
0.0,0.02441905,0.0901432,
-0.03721858,0.0,0.07616217,
-0.05765339,-0.043674644,0.062034033,
-0.07119974,0.0,-0.04981077,
-0.013163573,-0.033118304,0.0,
0.029591512,0.0,-0.041267682,
0.045069333,0.011885008,0.067848615,
0.056417078,-0.032586638,0.06552896,
-0.014064242,-0.020355696,0.054250766,
-0.028378038,-0.020295875,0.0,
0.032139543,0.041625615,0.0,
0.023228692,0.071980834,-0.05099658,
-0.032769352,0.04502287,-0.04978311,
0.0,0.0157313,-0.018635303,
-0.08125754,-0.017155338,0.012638095,
-0.09664468,-0.04469513,0.0,
-0.036530633,0.0,-0.067940794,
0.058352575,0.021504005,-0.09250429,
0.07893628,0.022021985,-0.066237174,
-0.017954612,-0.049866095,-0.056259204,
-0.02672562,0.033510912,-0.030512186,
-0.09360377,0.0,0.0,
-0.05786065,0.056892656,0.019087166,
0.0,0.07630768,-0.026374629,
0.010005557,0.11593169,0.032775007,
0.022197304,-0.018337905,0.032367796,
-0.020558195,0.03669273,0.0,
-0.041200187,-0.019133631,-0.0352926,
0.0,-0.026262067,-0.053236548,
-0.100918286,0.0,-0.09196443,
-0.010311046,0.02110516,0.0,
-0.102348015,0.03817354,0.0,
-0.015938492,0.05075558,-0.014959659,
0.018272452,0.0,0.0,
0.069564216,-0.04423977,-0.028160617,
0.046183005,-0.014682672,0.020377042,
0.021553053,0.012484003,0.03781263,
0.0,0.0,0.07418362,
-0.07226533,-0.018856881,-0.013697606,
-0.048893385,0.05637918,-0.052197278,
-0.025569327,-0.029962175,-0.049578205,
0.026286632,0.015103906,-0.066937305,
0.0,-0.04465877,-0.106450275,
0.0,-0.013282283,-0.02768431,
-0.025847165,-0.06303741,-0.010560256,
-0.05241934,0.0,-0.038294766,
0.0,-0.017849967,0.015938096,
0.0,-0.011652214,-0.016184803,
-0.05797656,-0.04466017,0.010956078,
-0.10399985,-0.012972408,0.018321091,
-0.096620746,0.0,-0.059747003,
-0.07045782,0.0,-0.08014702,
0.013243823,0.058896445,-0.10688389,
0.0,0.033562105,0.0,
0.06899412,0.045112137,0.074075475,
0.077929765,0.012144496,0.12864237,
-0.010437939,0.0148874335,0.057413846,
-0.08821702,0.0,0.051798943,
-0.052302644,-0.047032826,0.0,
-0.042451564,-0.029842976,0.014439398,
-0.013062769,-0.02794893,0.0,
0.0273567,-0.050900776,0.0,
0.021396708,-0.032373644,-0.023246532,
0.06288124,-0.0690896,0.01772059,
0.015913764,0.0,0.05960129,
0.025331244,0.011447633,0.0,
0.044237334,0.0,-0.010002817,
0.05408768,0.0,-0.03881647,
0.04337228,0.0,0.018608335,
0.025732348,-0.066025175,0.053212192,
-0.07529023,-0.049697563,0.045706593,
-0.09215769,-0.08099614,0.0,
-0.038630392,-0.032480676,-0.08526029,
0.0,-0.043053605,-0.09019474,
0.06329418,0.0,-0.105117865,
-0.027844459,0.047984794,-0.031462118,
-0.028171033,0.012418753,-0.042921104,
-0.09436871,0.010792986,0.015957633,
-0.09344892,0.0,0.049869988,
-0.030964859,-0.014930359,0.08889152,
0.0,0.017176481,0.0533103,
-0.011117875,-0.021790717,-0.013945027,
0.02901417,-0.01926728,0.0,
-0.07781265,0.037523426,0.0,
-0.043475304,0.0,0.032779068,
-0.016342439,-0.045579962,0.028901562,
-0.0668415,-0.035515092,0.0,
-0.05887499,-0.012203467,0.029788652,
0.011099355,0.022308582,-0.06823934,
0.066388026,0.01103585,-0.025561946,
0.051898006,0.015754184,-0.048147496,
0.03984768,-0.04704088,0.010387867,
0.0,0.0,0.06831455,
-0.022932637,-0.027081462,0.07994665,
-0.0450062,0.0,0.030662302,
0.0,0.0155500285,0.0,
0.0,-0.011802648,-0.053619713,
0.03601968,0.016406367,0.0,
0.02968839,-0.020353848,-0.06601415,
-0.028491184,0.016953213,-0.06719309,
-0.030084018,0.045124866,-0.030287826,
0.032523137,0.04362147,0.0112083,
0.012967155,0.014616869,-0.06459863,
0.0717193,0.03314237,-0.03100816,
0.0,0.03504032,-0.035668172,
-0.08376159,-0.027410118,-0.03581239,
0.021327375,0.0,-0.038608126,
-0.04275198,0.0137404455,-0.05740721,
-0.03085224,0.080904834,-0.029283905,
0.051899742,0.02801826,0.027689708,
0.0,0.033073585,0.06976193,
0.08564913,0.04357717,0.12198882,
-0.07414528,0.0,0.04127242,
-0.09462304,0.0,0.05036065,
-0.1285076,-0.018037507,0.061921127,
-0.08652517,-0.030106416,0.0,
0.01764765,-0.017202055,-0.047822706,
-0.034315087,-0.034277093,0.0,
0.042262107,0.0,0.03633943,
0.023137843,-0.022235114,0.04348716,
0.0,0.0,0.060012084,
-0.06710149,0.05815394,0.0,
0.06450898,0.044392083,-0.0147525305,
0.08045367,-0.04313726,0.0,
0.10257724,-0.01754878,0.016520422,
0.01721869,-0.056558363,0.0,
-0.076858155,-0.09116945,0.018971298,
-0.122072875,0.0,0.038279552,
-0.10716292,-0.054152194,-0.038904965,
-0.041722555,-0.057910487,0.0,
0.023898896,-0.055200607,-0.054438684,
-0.027535364,-0.068338774,-0.029732885,
-0.013598007,0.0,0.0,
-0.037449498,-0.043483265,0.050039016,
0.0,0.020933846,0.12638979,
-0.040153038,0.0,0.09139245,
-0.042110763,-0.019450352,0.060205977,
-0.027064752,-0.037032526,0.026073845,
0.0,-0.019144941,-0.037676826,
-0.094556205,-0.054035414,0.04891444,
-0.0937173,-0.080819376,-0.014590469,
-0.062799,-0.06080951,0.05181349,
-0.06725618,-0.065117344,0.075777814,
-0.038896177,-0.020432536,0.09044625,
0.08063876,0.0,-0.022268506,
0.120083086,-0.016662035,-0.04058759,
0.08960499,0.0,-0.07821689,
0.051937424,0.0,0.06397208,
0.0391043,-0.017714616,0.07219938,
0.023263788,0.017250648,0.010757472,
0.0401635,0.0,0.055567306,
0.020684525,0.0,0.012394349,
0.080633886,0.040950853,-0.03987055,
0.047188215,-0.06852689,-0.019637432,
0.018867584,-0.034617074,-0.018907052,
0.0,0.0,-0.049527757,
0.037089877,0.0519622,-0.06422012,
0.0,0.03659877,-0.03754527,
0.055650093,0.039796676,0.0,
0.08501385,0.063187845,0.0,
0.0,0.0,-0.011051418,
0.0,-0.027927544,-0.029167691,
-0.014540923,0.026128521,-0.039480615,
0.015000312,0.0,-0.046785884,
-0.03123333,0.023174211,-0.040645376,
0.0,0.0,0.0,
0.03465905,0.01975081,0.06714833,
0.0,0.05365824,0.029783608,
-0.05333079,0.09396157,0.041053407,
-0.030514387,0.0,0.024615826,
-0.08187314,0.01758743,0.063741796,
-0.09407094,0.0,-0.018803092,
0.0,-0.060898464,0.014340881,
-0.023401352,0.014023673,-0.033383515,
0.0,-0.05825,0.014436443,
0.01575723,-0.061892673,0.02657561,
-0.03237733,-0.018379224,0.020065028,
0.019801255,0.06489809,-0.050838266,
0.0,0.06954781,-0.04847217,
0.032034237,0.028018069,0.0,
0.010411222,-0.07737284,0.05145655,
0.017052326,-0.0818558,0.034347024,
0.0,-0.05880542,-0.025502395,
-0.09944753,-0.058318604,-0.037115145,
-0.017444998,-0.08988632,-0.06637406,
-0.021075731,-0.080793336,-0.09171738,
-0.02277049,-0.07332476,-0.037092548,
0.0,0.0,-0.017355865,
0.0,0.07058931,-0.07381471,
-0.019151691,0.016849935,0.017387392,
-0.012266047,0.015094401,0.0688921,
-0.018755455,0.011838413,0.08343305,
0.012730482,0.0,0.104297854,
-0.026358884,-0.058304664,0.01999658,
-0.08644477,0.03160779,0.020137085,
-0.10031803,0.0255273,0.028782241,
-0.06361785,-0.032363713,0.07060035,
-0.01409457,-0.06412311,0.015623483,
0.011655382,-0.09598062,0.04281018,
0.0,-0.026308823,0.0,
0.066082224,0.0,-0.01729132,
0.096336454,-0.0195948,0.0,
0.07401493,-0.04118416,-0.042981073,
0.048925795,-0.012822137,0.01167137,
0.0,0.016986657,0.0747155,
0.0,0.0,0.038776822,
0.04723534,-0.024476282,0.012141892,
0.0536336,0.02186419,0.0,
0.0,0.0,0.0,
-0.021503469,0.0,0.0,
0.0,0.0,-0.057019822,
-0.032908373,0.011886678,-0.02403459,
0.039260656,0.06770751,-0.039104205,
0.0,0.041160405,0.021833548,
-0.012704578,0.0,0.0,
0.01545346,0.0,0.0,
0.0,0.015790274,-0.037002325,
0.0,0.024740785,0.0,
0.029614462,0.016986499,-0.10138863,
0.027546646,0.0,-0.11433914,
-0.039514944,0.0,-0.024961289,
0.0,0.0,-0.023032427,
0.050276253,0.015206981,0.053640243,
0.058702737,-0.01835389,0.10829926,
-0.027166666,0.091244236,0.08657774,
-0.06836959,0.021933299,0.015662862,
-0.066073336,0.0,0.036845133,
-0.038806576,-0.01617046,-0.018238043,
-0.04778743,0.011929767,0.034958433,
-0.013254314,0.020594303,-0.021694593,
-0.030339047,0.0,0.08010635,
0.0,0.0,0.0,
0.0,0.056426678,0.026204538,
0.023888618,0.07123914,0.0,
0.051852632,0.028667638,-0.021048415,
0.037580997,-0.015736308,-0.0262801,
-0.04486159,-0.062498864,0.06428296,
-0.022596788,-0.087584056,0.0,
-0.030240688,0.04069133,-0.033863693,
-0.025748122,0.020181881,-0.060580894,
-0.06787482,0.039964724,-0.07455835,
-0.045449596,-0.077164054,-0.07208535,
-0.049666528,-0.03859016,-0.050165836,
0.02275305,0.029083172,-0.06036405,
0.036870528,0.070575364,-0.09561797,
0.082103744,0.0,-0.014995406,
0.031636268,0.019377513,0.042990543,
0.04152475,0.024817092,0.054082066,
0.031281706,-0.042608682,0.03265041,
-0.010985003,0.022261918,-0.0154550895,
-0.04298504,0.048795447,0.024781656,
-0.042166837,0.054493416,0.11804722,
0.0,0.0,0.050820213,
-0.024294255,-0.028248163,0.055746995,
-0.010644056,-0.044962484,0.043121368,
0.030908741,0.0,-0.026200833,
0.0,0.019268006,-0.022957115,
0.079327665,-0.023533503,-0.06464998,
0.05280132,-0.030096909,0.0,
0.04205736,0.0,0.027376873,
0.0,0.0103987055,0.0118864365,
0.050958235,0.033182256,0.0,
0.063197814,-0.024802215,0.0,
0.06716616,0.0,0.082643285,
-0.03705888,0.027030652,0.05225232,
0.022085272,-0.019489331,0.063053995,
0.014692381,-0.021575809,0.021304006,
0.010542466,-0.020658096,0.0,
0.013660449,0.03036739,0.016331084,
0.05754348,0.020210821,0.0,
0.021261148,-0.03713713,0.06491976,
0.038866043,0.024748797,0.051141147,
-0.05930742,-0.045580603,0.040081814,
-0.04814565,-0.029361656,0.017238645,
0.0,0.012082273,-0.07562468,
0.029382184,0.014928972,-0.04704744,
-0.055924628,0.0,0.0,
0.058423508,-0.02613209,0.035369784,
0.021107646,-0.016048238,0.0,
0.08809136,0.05468796,0.03665977,
-0.018879514,0.10737046,0.0,
-0.05576619,0.05499706,0.040075872,
-0.08063687,0.0244749,0.017830897,
0.0,0.02176067,0.041082997,
0.0,-0.02324802,0.0,
0.04168047,0.0,0.061378766,
0.0,-0.023133818,0.041375007,
-0.03232729,0.03327994,0.04659058,
0.023587136,0.021662232,0.03572554,
0.06436569,0.104942635,-0.069681406,
0.037084118,0.060263034,-0.025341762,
0.054277964,-0.040013757,0.053289745,
0.0,-0.08572616,0.028236978,
-0.015554661,0.0150798,0.026241878,
-0.023447253,0.011745775,-0.024622086,
0.0,0.021699456,-0.0439556,
0.046269204,-0.014480093,-0.117102586,
0.023556981,-0.06676941,-0.05623388,
-0.022768384,-0.02998947,-0.018759688,
0.019759174,0.068599775,-0.035425056,
0.06825192,0.06092836,-0.043041263,
0.030637668,0.08917485,-0.0364455,
0.044510018,0.0,-0.033326924,
0.09863968,0.013921825,0.02701923,
0.01985992,0.0,0.0,
0.0,0.0,0.0,
-0.058806553,0.042234335,0.0,
-0.056708217,0.01836918,0.037283357,
-0.034421835,-0.010110202,0.092567556,
0.025121825,-0.033325806,0.03726642,
0.019951386,-0.01744777,-0.01680419,
-0.029046342,0.0,0.046452623,
0.013822277,0.043899816,0.01305495,
0.0,0.0,-0.02088089,
0.0,0.037075117,-0.025992231,
0.014055601,0.017239856,0.0,
0.02812501,0.06863209,-0.016360195,
0.069994174,0.023285726,-0.010447841,
0.05774127,0.014256673,-0.01340734,
-0.032381352,-0.027285099,0.0,
0.01741543,0.013871594,0.08399132,
0.055191625,0.02006619,0.02503903,
-0.022929344,0.0,0.023202578,
0.079051055,0.0,0.021389218,
0.039574582,-0.018301122,-0.022271855,
0.0124455765,-0.0415181,0.033573955,
0.043561462,-0.040331095,0.07128954,
-0.013776346,-0.09088274,0.115178406,
-0.050330214,-0.07156665,0.06814199,
-0.04106666,-0.061749976,0.027403342,
0.034651347,0.02435216,-0.028331257,
0.05100178,-0.020555172,-0.05929513,
-0.010374962,-0.033353474,-0.058717813,
0.013229425,-0.06942099,-0.016784575,
0.0,-0.04537321,0.0,
0.1257159,-0.030424796,-0.0184837,
-0.033666827,0.11418234,0.015909212,
0.0,0.1037829,-0.025155436,
-0.049574222,0.05918222,0.048159275,
0.02414617,0.02554562,-0.017611036,
0.0,0.06583444,0.06686555,
0.0,0.023186497,0.028647216,
0.0,0.0,0.01710196,
0.0,0.030230729,0.068993874,
-0.027504826,0.06746669,-0.023662023,
0.038136218,0.06229287,-0.07461639,
0.055128075,0.0631557,0.0,
0.050624676,-0.021565491,0.027255075,
-0.07865181,-0.034883875,0.0,
-0.084959075,-0.03475852,0.010557931,
0.0,0.0,-0.077305,
0.058189593,0.03282159,-0.0984063,
0.05948725,-0.016915392,-0.060954995,
0.0424248,-0.030606193,-0.027197383,
-0.068056464,-0.028817045,-0.021207662,
0.0,0.011669413,-0.021891514,
0.017911384,0.078276336,0.025417393,
0.0,0.04028232,-0.02539923,
0.030865975,0.06403972,-0.04268588,
0.060192596,0.02328079,-0.037944265,
0.04278772,0.03289287,-0.039356038,
0.04835502,-0.013592227,-0.06734999,
0.0,0.031101322,-0.029795645,
0.017135074,0.047968727,0.0,
-0.022385532,0.0,0.029358657,
0.04083457,-0.046223447,0.09333263,
0.03862247,-0.050032903,0.04795736,
0.043802585,0.014947148,0.043285556,
0.0,0.05073239,0.0,
0.0,0.0,0.0,
-0.010090125,-0.05664218,0.0,
-0.022489952,0.055678412,-0.024419267,
0.0,0.025222491,-0.096483395,
0.036899067,0.081417285,-0.08708276,
0.015014163,0.058399364,0.0,
0.065199494,0.061565403,-0.021782545,
0.046753652,-0.015764648,0.0,
0.06329024,0.0,0.042928,
0.05322392,0.037040155,0.07419848,
0.03822632,0.015234834,0.037881628,
0.037844412,0.011434291,0.069698155,
0.030733202,0.0,0.05609567,
0.0,-0.060642377,0.06711207,
-0.018487025,-0.0692039,0.07913738,
-0.047438417,-0.09308072,0.071003996,
-0.026466785,-0.078497335,0.017713582,
0.030208731,-0.042878736,0.0,
-0.025867335,0.028664846,-0.045504887,
0.019313293,-0.013908482,-0.018219791,
0.0,-0.10423959,0.0,
0.058774456,-0.083043404,0.0,
0.09802819,-0.03473042,0.0,
0.04508325,0.06911019,0.0,
0.019512998,0.09289234,-0.05179837,
0.043736365,0.06162005,-0.031529117,
-0.010195382,0.03323725,0.0,
-0.02700326,0.050666288,0.0,
-0.020335296,0.010102257,0.05374276,
0.0,-0.024117481,0.10133456,
-0.020517247,0.0,0.056979842,
0.0,0.019128868,0.01869128,
-0.024114346,-0.015250282,0.0,
0.037596215,0.0,-0.02819012,
0.0,0.011213771,-0.04243086,
0.0,-0.05534235,0.0,
-0.058540102,-0.06440379,-0.04745211,
0.0,0.036142487,-0.096820086,
0.035743877,-0.015650079,-0.07489959,
0.054631907,-0.021365132,-0.05929639,
0.0,0.010886965,-0.015450645,
-0.02817154,0.0,0.0,
-0.013088938,0.028446313,0.039713528,
-0.034905892,0.034652565,0.0,
0.0,0.025321672,0.0,
0.0,0.020368163,0.0,
0.071804255,0.05607432,0.0,
0.092464924,0.055370282,-0.045548506,
0.09569464,0.04241781,-0.01755686,
0.0,0.058102652,-0.057080537,
-0.026140025,0.021476213,0.018875917,
0.0,0.029669411,0.024238482,
0.088207684,-0.04079902,0.06572678,
0.04642271,0.0,0.05876614,
0.0,0.0,0.0,
-0.025181947,0.03447279,-0.028513566,
0.0,-0.014551946,-0.019813772,
-0.056830395,-0.011939873,-0.04854228,
-0.01531131,0.0,-0.011526616,
0.0,0.042424113,-0.04656755,
0.023803644,0.09154399,-0.081035145,
0.0,0.020917477,-0.014044114,
0.0,0.064963706,0.030087216,
0.043679863,0.050524343,0.0,
0.06267528,0.049167067,0.035903137,
0.07050635,0.052271876,0.09664389,
0.024884025,-0.012317315,0.03182632,
-0.05181103,0.05400147,0.021464676,
0.010703133,-0.019715682,0.023564015,
0.0,-0.010960232,0.04629094,
-0.026733827,-0.044814862,0.05594279,
-0.023611361,-0.06196949,0.04170645,
-0.04179153,-0.05845764,0.05024186,
0.0,-0.044846755,-0.016362868,
0.0,-0.04498353,0.0,
-0.032577164,0.0,-0.1098875,
0.024283584,-0.06996851,-0.033960324,
0.016401198,-0.046243105,0.03723972,
0.08590667,-0.064898156,0.0,
0.021634895,0.08120599,0.0,
0.03618717,0.06887181,-0.03178346,
-0.023851896,0.031580303,-0.029159177,
-0.03069575,-0.042281527,-0.011450564,
0.0,-0.025815275,0.036515366,
-0.034157835,-0.034742918,0.055735078,
-0.020608578,-0.0486499,0.02843192,
0.03066578,0.0,0.025754686,
0.0,0.0,0.031930078,
-0.062630035,0.029793955,0.040743884,
-0.025835777,0.014100898,-0.030778008,
-0.010616605,-0.058699265,0.06518304,
-0.015483648,-0.038101483,0.018887581,
0.011746344,-0.014124342,-0.0764224,
0.04800239,0.0,-0.08929332,
0.03406361,0.04328517,-0.07338573,
0.023189181,0.0,-0.051463753,
-0.014183619,-0.020370584,-0.019485723,
-0.03869826,0.017675329,-0.03434287,
0.0,-0.017144322,0.0,
-0.019610655,0.0,-0.029987952,
-0.010723428,-0.015022627,0.0,
0.02751036,0.01751126,0.023539806,
0.04498714,-0.074580126,0.013766002,
0.0,-0.040300783,0.02693329,
0.012919701,-0.029642444,0.0,
0.048992075,0.05326142,0.01405987,
-0.019827701,0.031459168,0.0,
-0.024403337,0.013244676,0.023085171,
0.051938336,-0.102930725,0.04403658,
0.07120094,-0.02670412,0.065579705,
0.0,-0.029210506,0.04164666,
-0.036873136,-0.020691287,0.0,
-0.043429654,-0.052536767,0.019272782,
-0.04751469,-0.07921345,0.034639824,
-0.04031895,-0.0173943,0.017432794,
0.0,0.0,-0.053152867,
0.063177355,0.0,-0.040201686,
-0.01644675,0.05069331,0.012648464,
-0.09559991,-0.011188903,-0.013479959,
0.037956778,0.040236767,0.0,
0.039462373,0.03402552,-0.0134104965,
0.03091047,0.058410782,0.0,
0.06901665,0.0,0.0133945625,
0.011768753,0.0,0.016419783,
-0.015868282,0.028268842,0.052065678,
-0.028516652,0.050491877,-0.011956978,
0.0,0.05549727,0.034494746,
0.022684423,-0.032621194,0.11741282,
0.0,-0.07246473,0.057206508,
0.0,0.0,0.035297256,
-0.05337821,0.017084701,-0.037893392,
-0.015822291,-0.020400787,-0.016373627,
0.013312254,-0.019380191,-0.023422625,
0.0349687,-0.017931193,-0.010965998,
0.0533375,-0.035640374,-0.053545803,
0.020250782,0.07156828,-0.055238407,
0.031873774,0.010692766,-0.054730304,
0.017361045,-0.026091035,0.031674225,
-0.056603823,-0.02567223,0.018647846,
-0.013649369,-0.070808426,0.033970308,
-0.011709277,-0.07461772,0.0,
-0.012037792,0.0,0.03229491,
0.022802508,0.043942794,0.08899905,
-0.03981897,0.034125555,0.024727143,
-0.06630819,0.0,0.013516008,
-0.05283594,0.0,0.021871049,
-0.07014539,-0.0262129,0.018259875,
-0.048338976,-0.030615978,0.0,
0.0,-0.024231054,-0.025544444,
0.014027897,0.04495344,-0.09324848,
0.026793214,-0.011912882,-0.08245761,
-0.010894629,0.0,-0.08524407,
0.0,-0.06306365,0.033275593,
0.0,-0.09140297,0.06603204,
-0.013128642,0.0,0.0,
-0.036534015,0.025713613,-0.028928103,
0.0,-0.042214822,-0.050875008,
-0.044275906,-0.022649622,0.050745152,
0.0,-0.06315404,0.060529925,
0.0,-0.04669809,0.03146808,
-0.02368225,0.014785798,0.030985689,
-0.02480434,0.010460709,0.0,
0.0155771235,0.056012157,0.029143816,
0.0,-0.11382563,0.030527888,
0.044049125,-0.03902704,0.011978426,
0.06516134,-0.074501365,0.038744997,
-0.07847127,-0.060801018,0.024256753,
-0.04471157,0.0,0.0,
-0.061006073,-0.038352236,0.0,
-0.078455746,-0.025119498,0.0,
-0.061255652,-0.023348637,-0.036445946,
-0.03620399,-0.041135516,-0.038945023,
0.0,-0.061615504,-0.02016913,
-0.046955694,-0.07206437,-0.02141618,
-0.06455904,-0.019331446,0.017048905,
-0.025919836,0.04908326,0.014358549,
0.040043622,0.08884226,-0.020052139,
0.047775045,0.0,0.0,
0.030432569,0.01481142,0.035628945,
0.0,-0.04210774,0.01314784,
0.046216786,0.039315283,-0.016750563,
-0.026022844,0.07519517,0.03439782,
0.0,0.05881094,0.0126973195,
0.011057546,0.0,0.054765232,
0.022554377,0.0,0.029805547,
0.0,0.0,0.03560352,
-0.041131705,0.039705187,0.0,
-0.04279068,0.0,-0.053591598,
0.0,0.016319782,-0.048295684,
0.028148107,0.05024134,-0.02576067,
0.086766705,0.0,-0.027238749,
0.062616676,0.030030001,-0.015431082,
0.018121291,0.06891218,0.0,
0.043228906,0.0,-0.06862277,
0.0,-0.02695218,0.018839147,
0.0,0.0115598785,-0.021317804,
-0.04608828,0.017609611,-0.013073173,
-0.040571254,0.0,0.027771248,
0.056950323,0.05311065,-0.024603555,
0.0,0.03760534,-0.016979638,
-0.094149254,0.014230731,0.023507815,
-0.10376706,0.0,0.045699842,
-0.059544943,0.028083455,0.0,
0.017466357,0.0,-0.012739397,
0.039188303,-0.017755728,-0.05586296,
0.07508779,0.0,-0.06077805,
0.049120147,0.0,-0.116376996,
-0.017297957,-0.043234903,-0.030783992,
0.016589204,-0.0355093,0.0,
0.06001078,-0.013607309,0.028631203,
0.07779198,0.0,-0.027043754,
0.017075142,-0.03503569,-0.022878146,
-0.048842218,0.044886444,-0.03054083,
-0.044853486,-0.054112636,0.014077989,
-0.029846715,-0.063555844,-0.030147815,
-0.034204446,-0.11669298,0.019700719,
-0.077514395,-0.0331371,0.02022098,
-0.031963006,0.039424594,0.0,
-0.0668177,0.032123465,-0.07277256,
-0.04402832,-0.05069346,0.04417719,
0.011377084,-0.059975825,0.0,
-0.011936577,-0.07980413,0.08122535,
-0.02149687,-0.037129942,0.037806444,
-0.04551443,-0.03460324,0.05589941,
-0.050820015,-0.07825366,0.019317945,
-0.078133546,-0.020860625,0.0,
-0.073676035,-0.027808562,0.0,
-0.03933381,-0.030223321,0.0,
0.017863246,-0.072367504,0.0,
0.0,-0.07323558,0.0,
-0.04418525,-0.023739731,-0.010787088,
-0.027187733,0.043882128,-0.036488466,
0.018674627,0.063223936,0.0,
0.0,0.022915432,0.0,
0.062305324,0.022498572,0.049636852,
0.03394242,0.046083655,-0.025358925,
-0.030987894,0.028947987,-0.027068067,
-0.014177685,0.07571657,0.0,
-0.01289888,0.07904336,0.011990632,
-0.030469852,-0.032977775,0.037237227,
0.053071674,0.053282585,0.015827205,
0.0,-0.056535177,0.047424436,
-0.02489418,0.0,0.0,
0.0,-0.012058436,-0.02667471,
-0.018621614,0.03619528,0.0,
0.03420382,0.069069415,0.0,
0.08029109,-0.021692725,-0.013551481,
0.0,0.016688962,0.045137823,
0.032561794,0.011360753,-0.037782457,
0.04519191,0.023427866,0.0,
-0.057100676,0.018174672,-0.031925913,
0.0,0.0,-0.035433374,
0.039084755,0.022458596,0.0,
0.05781209,0.06713726,0.0,
0.039549347,0.07583115,-0.021346241,
0.027841024,0.0,-0.025536768,
-0.03415958,0.045183968,0.0,
-0.042878546,0.0,0.0,
-0.06625583,0.0,0.0,
-0.01362082,0.0,-0.042324435,
0.014505118,0.0,-0.03978841,
0.06613952,0.012855086,-0.028971665,
-0.010108953,0.014108522,0.0,
0.0,-0.0405527,0.031131227,
0.030120723,0.0,-0.022674896,
0.011350819,0.0,0.04538887,
0.040448967,0.014326425,0.0,
0.025274958,0.0,-0.032632295,
0.010062207,-0.053123567,-0.03513945,
-0.012349076,-0.030507846,-0.030207288,
-0.08999454,-0.03255767,-0.020025447,
0.013488766,0.0,-0.06854484,
-0.03407989,-0.026431091,-0.039417807,
-0.036003646,0.049325988,-0.011667381,
0.038454987,-0.01833961,0.0,
0.041134514,0.0,-0.0325353,
0.010042235,-0.040420607,0.013104407,
0.010970031,-0.0838062,0.03549684,
0.0,-0.06914008,-0.013838125,
-0.06593424,-0.020001736,0.0,
0.0,-0.01828802,0.0,
-0.022963768,0.060283996,-0.05628853,
-0.027855035,0.046492185,-0.010807913,
-0.057335816,-0.02988488,0.0,
0.013656987,0.0128550725,0.0204064,
-0.015058359,-0.06597386,0.024865448,
-0.047987092,0.023247296,-0.012158736,
0.0,0.04548996,0.023471374,
-0.024034508,0.090436205,-0.012011096,
0.017558265,0.039987452,0.0,
0.06264354,-0.013253487,-0.024640271,
0.02906877,0.015556427,0.05255661,
-0.012386173,0.052680477,0.06569298,
-0.0779515,0.05178963,0.0,
0.019489175,0.038799353,0.0,
-0.028466433,0.0,0.07338583,
0.01564763,0.0,0.049917538,
0.04093524,-0.013779316,0.040138405,
0.053445082,0.03185034,-0.011821601,
-0.03549752,0.018728806,-0.079263195,
0.0,0.060888093,-0.048301198,
0.0726428,0.025062488,0.010519221,
0.101142034,0.025536334,0.0,
0.08417326,0.05126844,0.02770623,
0.0,0.03931592,0.052002262,
0.014736826,0.059197936,-0.01288216,
0.0,0.0,0.0,
-0.019268187,0.016420916,-0.072148636,
0.012855812,0.018645138,0.0,
0.013851761,-0.022894401,-0.018704727,
0.06741617,0.022299588,-0.04424694,
0.024047786,0.0,-0.018665861,
-0.026876569,0.0,-0.02313333,
0.0,0.023334853,-0.01381861,
0.010747397,-0.047106642,0.0,
0.013703856,0.0,0.0,
0.0,0.0,-0.08696059,
0.0,0.053453512,-0.06323117,
0.039408356,0.021770803,-0.051786747,
0.013946837,-0.01786658,0.015899122,
0.030625349,-0.03608719,0.010318365,
-0.019130154,0.0,0.020225938,
0.012575713,-0.03531995,0.01875825,
0.04987185,-0.04064433,-0.02850022,
-0.029374946,0.0,-0.07942504,
-0.015346356,-0.021403044,-0.05959715,
0.010393866,-0.021615423,-0.07625475,
-0.012661953,-0.019719975,-0.06886539,
-0.048059333,0.0,0.0,
-0.04194244,-0.013355313,-0.02136478,
-0.04761337,-0.016589973,-0.072561115,
-0.019607704,-0.03816743,0.0,
0.0,-0.019140013,-0.023340844,
0.049632147,-0.06638413,0.051258776,
0.07065052,-0.085551,0.056090627,
0.022633487,0.0,0.051956356,
-0.01694374,0.015127793,-0.047213666,
0.0,0.02760619,-0.021969974,
0.016975889,0.013561247,0.0,
-0.061676808,-0.04587836,0.016137606,
0.010479282,-0.049697194,0.02323217,
-0.022549413,-0.08152392,0.03131952,
-0.021064853,-0.011772627,-0.017219987,
0.064895555,0.038746037,-0.039326735,
-0.020831257,0.026092244,0.0,
-0.02380892,0.023024406,0.030078014,
0.02938301,0.040994585,0.052534346,
-0.020251147,0.04284263,0.0,
0.0,0.024422301,-0.016866315,
-0.015359524,0.037869237,0.029740829,
-0.016596913,-0.017065987,0.0,
-0.043886326,0.013325504,0.020750737,
0.022276063,0.045098342,0.050225683,
0.011748752,0.0,0.0,
0.0,0.0,0.016666554,
0.04068626,0.0466915,-0.036075402,
0.0,0.0,0.029580718,
0.010952619,0.0,-0.014049731,
0.097393416,0.0,0.056053057,
0.028262883,0.0,0.015768377,
0.0,0.0,0.0,
0.04936398,0.0,0.010877038,
0.0,-0.070358574,0.04270642,
-0.056886245,0.026059436,0.025925972,
-0.059710987,0.0,0.028930642,
-0.060000222,-0.029114699,0.0,
0.0,-0.054127734,-0.027777743,
-0.052446973,-0.040294036,0.04313384,
0.037644427,-0.051150322,0.02283479,
0.0,0.0,-0.047006562,
0.014975642,0.0,-0.05045076,
-0.030960787,-0.030661078,-0.054769732,
0.0,0.036661018,-0.0180079,
0.028493427,0.053338524,-0.038510162,
0.022827046,0.021382123,-0.07019893,
-0.012156053,-0.013849257,0.029458102,
0.01276629,0.029103793,0.0,
-0.057130553,-0.043281417,0.05908607,
0.018562423,-0.01617019,-0.061212435,
0.0,0.019636115,-0.040780175,
0.0,0.010877315,-0.07418715,
0.0,0.019190602,-0.10866353,
0.0,0.0,-0.10086616,
0.025550868,0.0,-0.048508663,
-0.026738228,0.0,-0.055789117,
0.0,0.04434832,-0.041094832,
-0.03319762,-0.020690141,-0.030420477,
-0.0381789,0.0,0.0,
0.03426491,0.024829261,-0.019788066,
0.044121645,-0.039168052,0.0670443,
0.057583842,-0.019108282,0.03732863,
0.04293134,0.0,0.0,
0.05437963,0.022250503,-0.039184716,
0.0,0.0,-0.036892943,
-0.02298065,0.031138156,-0.05316433,
-0.04667687,-0.013435856,0.026971273,
0.0,-0.01801055,0.034711923,
0.0,-0.026193459,-0.015750026,
0.0,0.0,0.029815257,
0.0,0.0,-0.024580797,
-0.034200076,0.0,-0.014713837,
0.051706426,0.030885017,0.014231955,
0.023633668,-0.05730296,0.025324298,
0.0,-0.010703826,0.0,
-0.06627947,0.040028203,0.054191127,
0.0,0.013036624,0.017718863,
-0.02328091,-0.01888983,0.03504516,
-0.024850283,0.04407827,0.024489503,
0.0,0.032595508,0.04798167,
0.074372776,-0.02116994,0.052193586,
0.011286248,-0.04879462,0.0,
0.025439404,0.013720386,0.0,
0.057969283,-0.010341397,-0.011175444,
0.06469252,-0.015570521,0.013543828,
0.051021904,0.0,0.048715338,
0.02643727,0.022576695,0.027044566,
0.030714288,0.034660507,0.0792994,
0.058861032,0.0543186,0.0,
-0.033688415,0.0,0.024322733,
-0.051951163,0.019675422,0.0,
-0.046628907,-0.013002052,-0.04939333,
-0.035823368,-0.016338188,-0.01689942,
-0.011184721,-0.01024044,0.03214876,
-0.025663529,-0.051066063,0.04251971,
0.044433378,-0.030354947,0.11032235,
0.0,0.0,0.08443962,
0.028409407,0.02567044,0.08246935,
0.0,0.02739758,0.013342296,
0.0,-0.048794154,-0.013542844,
-0.025933081,0.0,0.03895703,
0.01683487,-0.032308277,0.021365378,
-0.019327827,0.014253011,0.014579155,
-0.012415754,0.015782673,0.06832373,
0.0,0.0,0.013705764,
0.016718684,-0.021066036,-0.014715594,
-0.020003028,0.0,-0.07828575,
0.049063463,0.06840995,-0.092161216,
0.03173101,0.09201134,-0.07612287,
-0.021162307,0.044008892,-0.124303885,
-0.050975055,-0.020591237,-0.04223825,
0.04063494,-0.054126136,-0.02690592,
0.025619933,0.03086749,-0.034475308,
-0.020692218,-0.021339688,-0.058856104,
-0.028288268,-0.020407498,-0.029867016,
0.020182159,0.030697655,-0.019503063,
0.018293109,0.015887925,0.0,
0.019443091,0.0,0.0,
0.1462636,-0.01222868,-0.05339415,
0.04548735,0.012463513,-0.055680722,
0.012681681,0.040052716,-0.016093627,
-0.06578804,0.0,0.017406743,
-0.016302492,-0.010043142,0.010442785,
-0.017113687,-0.068217814,0.0723288,
0.06389253,-0.024074338,0.026763564,
-0.013599907,-0.0125679225,0.0,
-0.04849297,0.046317015,-0.06310021,
-0.059354812,0.017411552,0.0,
-0.069044724,0.014834242,0.030056363,
0.0,0.0,-0.021100873,
-0.013228436,0.022428112,-0.014995279,
-0.02473254,0.0,-0.045563594,
-0.028364552,-0.045510717,0.020766793,
-0.06075222,-0.015599334,0.0,
0.0,0.013705286,0.0,
0.015261855,0.0,0.0,
0.0,-0.045036424,0.027764717,
0.037014324,-0.012053937,-0.025855932,
0.031574577,0.0,0.0,
-0.01175448,-0.028204545,-0.041428212,
0.036038607,0.0,0.03302789,
0.024642171,0.0,0.05687917,
0.0,0.0,0.04486176,
0.03528982,0.012720981,0.059666492,
-0.029864123,0.01358582,0.021592783,
-0.0450723,0.048771992,0.015967399,
-0.03529419,-0.020362128,-0.01177609,
-0.07024603,0.022183672,0.0,
-0.035149965,-0.04785956,0.0,
-0.08924869,-0.036258493,-0.012594396,
0.023904169,-0.035666708,0.0,
0.0,-0.041862488,-0.012715606,
0.010429677,-0.029010791,0.020140206,
0.06861099,-0.022805238,0.037372034,
0.04843,-0.04400905,0.02083434,
0.017326485,-0.018740637,-0.012766289,
0.0,0.0,0.020352986,
0.0,-0.018528825,0.06560591,
-0.04818838,0.016991438,0.010966567,
0.012625275,0.0,0.09896533,
-0.018536732,0.0,0.080512494,
0.019646475,-0.042987995,0.0,
0.05887151,0.0,-0.026577776,
0.033969317,-0.03408315,-0.06793383,
0.0,0.0,-0.04335952,
-0.033602007,-0.035464615,-0.046699338,
-0.021281755,-0.07723474,-0.060756218,
0.01256181,-0.015955225,-0.07517677,
0.0,-0.062377892,-0.04775886,
-0.017970184,-0.015971158,-0.03676337,
-0.014151146,0.032187376,-0.028455775,
0.028210722,0.07148101,-0.049735747,
0.04584047,0.07711596,-0.01003312,
0.023831503,0.06710138,0.03069218,
0.077899374,0.03835285,0.0,
0.0,0.04422828,0.012472066,
0.0,0.0,0.012458003,
-0.038379524,0.0,0.04994349,
-0.044334702,0.0,0.014282082,
0.02847815,-0.0575796,-0.067524225,
0.041719,-0.05488041,0.0,
0.0466976,-0.017061014,-0.038707927,
0.0,-0.045240972,-0.013141299,
0.0,-0.04298775,0.0,
0.0,-0.059263032,-0.029121205,
-0.012819706,-0.011513181,0.010983751,
-0.01854693,0.0,-0.060022596,
-0.034105215,-0.0346951,0.02417953,
-0.05602672,-0.017775431,0.04626187,
-0.06976252,0.0,0.0,
-0.04218055,0.0,0.0,
-0.016409729,-0.047141697,0.0146128135,
0.026098898,0.011097712,0.022816202,
0.019471278,0.01113429,0.034300953,
-0.0128616085,-0.026191276,-0.03514817,
0.0,-0.029732514,0.0,
-0.041088622,0.0,-0.013445143,
0.015313582,-0.03138967,-0.01751779,
0.053054705,-0.050329093,0.0826364,
0.011112963,-0.07201118,0.038677957,
0.018940747,-0.042052895,0.03627148,
-0.08622279,-0.036174815,-0.038955804,
-0.016273469,0.0,-0.020749789,
0.0,0.042373635,-0.031238241,
0.013905312,-0.04627725,0.0,
0.0,0.0,-0.041329697,
0.0,-0.019036261,-0.03930474,
-0.035263013,-0.041984145,0.014280654,
0.015675614,0.0,-0.021681732,
0.03762799,0.034415435,0.021007571,
0.015684042,0.0,0.019278089,
0.04562499,0.02008302,-0.048852384,
0.0,0.01344368,0.031097326,
0.036182366,0.0,0.0,
0.0,0.0,0.07567207,
0.0648513,0.0,0.043727446,
-0.04915288,0.0,0.045782525,
0.025177987,-0.023942413,0.032255005,
0.058837548,0.0,0.0,
0.050090645,0.0,0.0,
0.0,-0.03904202,-0.023018356,
-0.039104726,0.0,-0.051179413,
0.02793706,-0.03510138,-0.025390767,
-0.045939635,-0.07682257,0.020384941,
0.0,-0.12585393,-0.011789682,
0.0,0.015692823,0.0,
-0.06874753,0.0,-0.0796333,
0.0,0.09958774,0.025232507,
0.045208883,0.042279627,0.012391781,
0.011467204,0.050808817,-0.055517484,
0.0,-0.03751707,-0.013200595,
0.109684125,0.023879357,0.013395476,
0.0,0.017906837,0.0,
-0.11619979,0.0,0.0,
0.0,-0.033806644,-0.019285,
0.034044877,-0.0411034,0.0,
0.021303346,-0.043651436,0.0,
0.01893212,-0.024492988,-0.041531373,
0.027373815,-0.020559175,-0.029800138,
0.025476325,-0.04081138,-0.028890122,
0.037588924,-0.019437073,-0.01679936,
0.0,-0.04233115,-0.04113995,
0.0,-0.041144915,-0.03369644,
0.023839021,-0.030572208,0.035072427,
0.010480348,-0.11212498,0.0,
-0.030384595,-0.036795538,0.073321044,
-0.01287582,-0.03023635,0.0,
0.0,-0.036885113,0.014519999,
0.030710893,0.0,0.029663406,
0.018686026,0.0,0.0,
0.015352874,0.021364955,0.012052207,
0.0,-0.02085894,0.0,
0.0,0.031285185,0.0,
0.030006181,0.013806653,0.0,
0.024173157,-0.058455102,0.08174847,
0.02327514,-0.042412873,0.10388437,
0.0,-0.061327614,0.041296333,
-0.039373767,-0.012419969,0.0,
-0.039563525,0.0,-0.04485957,
0.0,-0.056615785,-0.061924417,
0.0,-0.012220265,-0.034654904,
0.014784574,0.0,0.0,
0.0,0.0,0.0,
0.02688184,0.03680208,0.0,
-0.020183519,0.0,0.0,
0.016079212,0.03407803,0.0,
0.025336027,0.055774506,0.04547062,
0.033254452,0.03759717,0.016914878,
0.01075301,0.01682083,0.06499102,
-0.024273887,0.02745882,0.04416862,
0.044861328,0.0,0.04746885,
0.048841257,0.017317833,0.041727312,
-0.024748908,-0.031961188,0.03827903,
0.019064091,0.012799497,0.04562103,
0.015349151,-0.04182193,0.0,
0.02224373,-0.015355493,0.0,
0.028628001,-0.018328236,0.014005218,
0.047251962,-0.046108734,-0.070828125,
0.06309026,-0.010733114,-0.050161645,
-0.017880145,-0.029038714,-0.05101066,
-0.034769803,-0.08062395,0.052478984,
-0.06301553,-0.07385035,-0.05086327,
-0.037033197,-0.014499702,-0.02007187,
-0.018851815,0.0,-0.035540767,
0.028480485,0.023691118,0.0,
0.04049552,0.0,-0.037619103,
0.02672644,-0.015531613,0.024981873,
-0.024820726,-0.036427964,0.015679823,
-0.039892945,0.0,0.025450423,
-0.052211314,0.038168333,0.0,
-0.0487992,0.041684315,0.032794908,
0.0,-0.015950838,0.07267076,
0.0,-0.03264515,0.015037941,
-0.02760121,-0.0115629565,-0.043858204,
-0.0100602405,-0.06410223,0.0,
-0.024768015,0.0131254615,0.02607061,
-0.03733555,-0.06884522,-0.03000076,
0.085070096,-0.027087368,0.0,
0.016126461,-0.034029868,0.016472451,
-0.01776381,-0.057610657,-0.031415064,
0.017507823,0.0,0.0,
0.027246287,-0.029329753,-0.06456808,
-0.03209066,-0.022848804,-0.02567373,
-0.012488902,-0.010543385,0.0,
-0.048882123,0.0,0.015500155,
0.0,-0.010540427,-0.017233111,
0.0,-0.034834333,0.05524289,
-0.034376975,-0.021260716,-0.060613073,
0.054867774,0.024065804,-0.02649215,
0.017418424,0.03502831,-0.03440724,
0.0,-0.08070572,0.09784198,
0.058090173,-0.06631512,0.06933169,
0.0,-0.021128418,0.042995196,
0.018296005,0.05216258,-0.04221818,
-0.0140842,0.06264612,-0.022125103,
0.034125693,-0.021805456,-0.023459185,
0.061896063,0.0,-0.07154245,
0.023178613,0.025856415,-0.04028316,
0.011716368,0.0,-0.057664033,
-0.040768918,0.044571582,0.016487334,
0.010239248,0.0,0.0,
0.0,0.041725427,0.010596125,
0.059896145,0.0409656,0.043946363,
0.0,0.061131917,0.0314603,
0.0,0.069286145,-0.017889252,
0.0,0.07474263,-0.016821744,
0.05572631,0.04100339,0.0,
0.0,0.044675883,0.035773724,
0.0,-0.06633521,0.029443905,
-0.016713962,-0.047212712,0.03566116,
0.06895139,-0.02365156,-0.018337017,
0.035626743,0.0,0.0,
0.01782244,0.0,0.0,
0.0,0.0,-0.015895972,
0.044974845,-0.05338167,0.0640734,
0.02457257,-0.030551024,0.0,
0.031141138,-0.04333222,0.0,
0.0,-0.07497476,0.022025015,
0.06897554,-0.016087484,-0.052635226,
0.03341823,-0.045645162,-0.030624865,
0.01647945,-0.010654662,-0.028181609,
0.09378498,0.040749732,-0.028867964,
0.034321252,0.0,0.010947122,
-0.021478325,-0.019170107,-0.047712926,
-0.054664727,0.010800214,-0.043487534,
-0.0886102,-0.017259134,0.0,
0.0,0.0115602985,0.0,
0.03212565,-0.06428964,0.029333945,
0.052191958,-0.04235358,0.010041215,
0.0,-0.044605974,-0.021987092,
0.0,-0.11257244,0.017741993,
0.01951477,-0.060359392,0.07168897,
0.02198136,-0.040201966,0.017388284,
0.04880913,-0.030118864,0.011651639,
-0.017527113,-0.068073764,-0.027815636,
0.03931277,-0.06854416,0.02795001,
0.04458006,-0.032768987,-0.025186501,
0.044593625,0.023289975,-0.06613289,
0.011164291,0.0,0.0,
0.0,0.017950965,0.0291543,
-0.022778956,-0.03466001,0.0,
0.0,-0.06485682,0.0,
0.0,-0.06498445,0.0,
-0.018820545,-0.027702602,-0.011279234,
-0.016803956,0.012397593,-0.024300506,
0.09014504,0.0,-0.03882545,
0.031176513,-0.100944825,0.1546697,
0.05454964,-0.04974678,0.045930088,
0.0,-0.017184457,-0.017682238,
0.025721615,0.0,-0.04065275,
0.022207467,-0.011073269,-0.060748238,
0.017241972,0.054384682,-0.032938648,
0.061380986,0.021007568,0.0,
0.021404931,-0.012977911,-0.065165564,
0.0,0.04272066,0.0,
-0.04433789,0.0,-0.018701313,
-0.07582948,0.025191229,0.0,
0.0,0.0,-0.02710856,
-0.046201546,0.030737773,0.06123628,
0.0,0.035303976,0.05859148,
-0.031340048,0.065232284,0.03100932,
-0.013498404,0.07555468,-0.015460129,
0.053236615,0.0,0.0,
0.0,0.062254496,0.087846465,
0.0,-0.019313674,0.03311838,
-0.026872812,-0.031566337,-0.025409387,
0.0,0.0,-0.022620387,
0.0,0.0,0.013734851,
0.035846658,0.01441862,-0.03744245,
0.024387024,0.016191471,0.0,
0.019839462,0.0,-0.01234641,
0.059618276,0.03356141,0.0,
0.0,-0.09695892,0.021791248,
0.07079961,-0.054773133,-0.043188483,
0.038618527,-0.024653714,-0.030476307,
0.04473898,-0.01309332,-0.011285729,
0.044108972,-0.02431059,0.0,
-0.012968634,-0.081529886,-0.024835285,
0.09605993,-0.01368871,0.05346151,
-0.022036925,0.021902857,0.0,
-0.044921912,0.045408342,0.0,
-0.06740147,-0.017432628,-0.02305257,
-0.010713826,0.01244594,-0.049874138,
0.0,-0.01030281,0.04302561,
-0.061359018,-0.024445925,0.0,
0.0,-0.05605653,0.042356957,
-0.033816144,-0.06761942,0.017473249,
-0.01644296,-0.056641527,0.020822724,
0.04899722,-0.06978513,0.04412909,
0.09809955,-0.07522993,0.061395727,
0.0,-0.011766155,0.057188828,
0.07109494,-0.07037726,-0.017513325,
0.042734023,0.022890288,0.012861844,
0.096614055,-0.018473743,-0.056609202,
0.0390623,0.0,-0.03377232,
-0.086118214,-0.010195364,0.0,
-0.066507384,-0.034634907,0.0,
-0.011400276,-0.022474112,0.0,
-0.012436667,-0.07595254,-0.01560899,
-0.05736056,-0.026508365,-0.039935503,
0.0,0.021610623,-0.06485247,
0.07216048,0.07795218,-0.105210476,
0.05819998,0.014392429,0.050772298,
0.057770938,0.0,-0.016490929,
0.05635924,0.054952815,0.0,
0.0,0.010050058,-0.019751443,
0.0,-0.037022326,0.0,
0.061696697,-0.049085196,-0.02108287,
0.02679805,-0.040151983,-0.018829267,
0.019522224,0.0,-0.01974905,
-0.0363505,0.0,0.0,
-0.026185008,0.0,-0.015257823,
-0.04481039,0.0,0.020414976,
-0.027857658,-0.03656428,0.044558052,
0.0,0.0,0.06094361,
-0.01111246,0.03634246,0.0,
-0.08220794,0.037868936,0.0,
0.0,0.05015381,0.0,
0.035497855,0.029503327,0.06698872,
0.013392548,-0.020347197,0.06804534,
0.0,-0.04635847,0.0,
-0.015030484,-0.04673067,0.0,
0.056179926,0.0,0.0,
0.056389555,0.05160474,-0.044424888,
0.0,0.04705308,0.035686433,
0.0,0.022112425,0.028947402,
-0.010112653,0.055372413,0.0,
-0.020116428,0.027061515,0.0,
0.05860881,0.0,0.01711284,
0.025285654,-0.09677005,0.0,
0.018510636,-0.03167431,0.018675936,
0.058801647,-0.039965384,-0.064300306,
0.07685553,-0.053459488,-0.012503467,
0.031087076,-0.039218023,0.017092293,
0.07037291,-0.053334698,0.057359345,
0.015565554,-0.03020686,0.06485161,
0.0,0.0,-0.033355664,
-0.017651865,0.04518886,-0.04213447,
-0.0112761725,0.029160786,-0.07654416,
0.0,0.0,0.058150645,
-0.074198715,-0.011762327,0.051232416,
-0.07863727,-0.036872216,0.0,
-0.08151341,0.021285817,0.016393706,
-0.073941424,-0.054654524,-0.014698237,
0.0,-0.071820855,0.084208794,
0.040222593,-0.0602649,0.0,
0.038023863,-0.074667946,0.0551893,
0.020105023,-0.10691668,0.0,
0.07051804,-0.07138752,0.0,
0.04678148,-0.021070542,-0.043927904,
0.0,0.010711352,0.0,
-0.031068714,0.06385389,-0.03151454,
-0.040574666,0.0,0.0,
-0.06145853,-0.037389737,0.0,
-0.07742869,-0.0686233,0.02361767,
-0.028105592,-0.025859196,0.0,
-0.043242723,0.047311198,-0.043460708,
0.0425406,0.14921618,-0.108992845,
-0.04921804,0.05462556,0.03800656,
0.045114346,0.07175875,-0.02550528,
0.030890193,0.04028026,0.0,
0.0,0.018244773,-0.032288507,
0.0,0.014053968,-0.04889429,
0.05584711,-0.021740353,-0.010703126,
0.025586132,-0.027406523,0.0,
0.015127048,-0.0519749,0.0,
-0.06330151,0.013934243,0.0,
-0.017584108,-0.017477516,-0.014103359,
0.0,0.0,0.0,
-0.04162769,-0.074591056,0.04941939,
0.010028132,0.010655089,0.0502213,
-0.015251842,0.037108123,0.020092236,
-0.060913965,0.028789792,0.012289584,
0.045869816,0.015397383,-0.012619718,
0.020187575,-0.02055426,-0.01144373,
0.05616445,-0.050690234,0.049178306,
0.06710103,-0.04352972,0.03038919,
0.0,0.0,0.04565499,
0.030313974,0.025268735,0.02063596,
0.028829794,-0.030595412,0.0,
0.02576708,0.041027207,-0.02503965,
0.03149624,0.0,-0.03971405,
0.0101068625,0.05445092,-0.010250134,
-0.08220753,0.08970173,0.05461274,
0.054703187,0.02342908,0.0,
0.036647275,-0.03832167,-0.0273252,
0.049732063,-0.04639663,0.010692552,
0.09402191,-0.026508078,0.0,
0.044331722,-0.06694309,0.03024944,
0.0455556,-0.059634265,0.031440303,
0.047304828,-0.07863176,0.023406742,
0.0,-0.024267,-0.032921832,
0.018007508,0.019472305,-0.06961168,
-0.029549897,0.0630083,-0.0636302,
-0.01320724,0.0,-0.06761485,
-0.045477904,0.0128626125,0.02835287,
0.0,-0.028397083,0.05336761,
-0.03956976,0.018490145,0.0,
-0.11310804,-0.065335706,0.015893506,
-0.06008906,-0.020527955,-0.034636762,
0.05129075,-0.100852124,0.01788538,
0.06702585,-0.061321307,0.03195528,
0.07333703,-0.032376733,0.03910798,
0.11161833,-0.0169492,0.064558014,
0.085354336,0.0,-0.060897067,
0.016318487,-0.024944687,-0.01730906,
0.0,0.03861537,-0.05283441,
-0.013969858,0.016220748,-0.041126236,
0.024873914,-0.051106114,0.030614061,
-0.048230965,-0.10163184,0.030792728,
-0.067501046,-0.06821078,0.058566008,
-0.032015298,0.0,0.0,
0.013349508,0.043760993,-0.08496582,
0.080708265,0.08680132,-0.107683845,
0.0,0.05295807,0.020213617,
0.014975657,0.03891876,-0.0227043,
-0.024355765,0.02934522,-0.020025903,
-0.018302418,-0.014481212,-0.08313758,
-0.012430446,-0.01855049,-0.018601203,
0.016317382,-0.045422893,-0.023853552,
0.0,-0.018085288,-0.03691609,
0.0,-0.01447154,-0.012238586,
-0.029346442,0.0,0.018497061,
0.021848388,0.0,-0.03934995,
0.027507119,-0.05534462,-0.015088843,
-0.036739968,-0.11585667,0.06959317,
-0.083144695,-0.01131207,0.03469585,
0.039056007,-0.042809207,0.0,
0.0,0.039174527,0.04472572,
-0.011437751,0.03480216,-0.043594487,
0.0107991835,0.0,0.020754792,
0.03316716,-0.04906304,0.020257715,
0.06411086,-0.025578963,0.018579822,
0.059221517,-0.014134374,0.058795862,
0.04303035,0.012478413,0.0,
0.07405303,0.048836324,-0.017781654,
0.0,-0.02530436,0.034960605,
-0.038036168,0.0324945,0.059266724,
-0.010293257,0.102916725,0.07277812,
-0.064835444,0.10699223,-0.015643107,
0.022763379,0.0,0.03064134,
0.0,-0.050931804,-0.054211278,
0.067211285,0.038534876,-0.020136291,
0.0,0.0,-0.021762038,
0.03980149,-0.10186261,0.0,
0.036744896,-0.06354983,0.05351565,
0.05044512,-0.08367342,0.037134588,
0.019041462,0.021026874,0.054649405,
-0.013311042,0.034639336,-0.04821986,
0.03905931,0.011025179,-0.07867383,
0.0316998,0.017679479,-0.07029157,
-0.04164233,0.02782553,0.054376166,
0.0,0.0,0.09165448,
-0.052585285,-0.0236827,-0.01307593,
-0.04484852,-0.03455191,0.0,
-0.05998722,-0.04713033,0.0,
0.0,-0.03447216,-0.023238167,
0.076992676,-0.028470654,0.0,
0.05616438,-0.07058862,0.032511376,
0.07985368,-0.034402598,0.015288527,
0.04103159,-0.052931096,-0.035741188,
0.06357089,0.0,0.0,
0.0,0.0,0.02124087,
0.047578003,-0.03897292,0.0,
-0.021343421,-0.04272776,0.0,
-0.02146694,-0.048188705,0.06503728,
-0.0725973,-0.10577384,0.026171472,
-0.044736642,-0.022674123,-0.035873942,
-0.018077414,-0.010817319,-0.03159922,
0.05624291,0.08565475,-0.038614105,
-0.03720569,0.08991248,0.028179662,
-0.026503574,0.04736009,-0.024021763,
-0.02074129,0.023054406,-0.06181324,
0.0,0.018430026,-0.08941132,
-0.05265506,-0.076161,-0.062859006,
0.0,-0.023373147,-0.024777612,
0.07114274,-0.0684117,-0.056728285,
0.0,-0.049240243,0.0,
0.026040498,-0.021411296,-0.014589556,
0.010921823,-0.046189558,-0.051074084,
0.0,-0.032849036,0.0,
0.0,-0.057719298,0.01386319,
0.011658367,-0.09962048,0.012743401,
0.0,0.0,0.0,
-0.016420877,0.0,-0.013706871,
0.025380058,-0.027850362,-0.047358852,
0.0,-0.026419811,-0.033867527,
-0.023817966,-0.094216496,0.082142696,
0.02656632,-0.023085842,0.024834253,
0.065009914,-0.06251658,0.038543433,
0.0,0.024516765,0.091685586,
0.0,0.0,0.08611996,
-0.03455577,0.0,0.029198123,
0.0,0.040266585,0.019484386,
-0.06767418,0.04435314,0.11641102,
0.044441372,0.08589639,0.05337933,
0.0,0.04339662,0.012557791,
0.0,0.0113802655,0.0,
0.0,0.0124411415,-0.01806882,
-0.014691961,0.015135876,-0.020540936,
-0.06297028,-0.0371536,0.017516602,
-0.02893705,-0.042951744,0.012062301,
0.0,0.0,0.0,
-0.030110672,0.024172036,0.0,
0.0,0.021248734,-0.07395753,
0.05492162,0.039465714,-0.03199831,
0.03990013,-0.025276994,-0.060987722,
-0.03792948,0.02667954,0.026138255,
-0.02504284,0.0,0.03436863,
-0.06887848,-0.03677368,0.011912517,
-0.098330855,0.0,-0.021807833,
-0.0934365,-0.052293703,-0.046021864,
0.0,-0.04875635,-0.01028082,
0.056762554,-0.078056596,0.0,
0.11720704,-0.029505428,0.0,
0.074255064,-0.049143013,0.03198826,
0.04286739,-0.057421625,0.0,
0.04081203,-0.036827683,-0.055800527,
0.063649215,-0.024576023,-0.04978629,
0.04503159,-0.040998325,-0.020267567,
0.03548506,-0.015485207,0.019045902,
0.0,-0.022937011,0.0,
0.0,-0.048899446,0.026883235,
0.01150345,-0.07187296,0.0,
0.01698013,0.0,-0.028525235,
0.032650117,0.010059715,0.018558426,
-0.010203763,0.0,-0.037579373,
0.0,0.0,0.022299737,
-0.019086428,0.0,-0.020508572,
-0.09831207,-0.047744237,-0.036917474,
-0.02478835,-0.017950052,-0.027982052,
0.014697814,-0.05585559,0.0,
0.06233837,-0.06815253,-0.025412044,
0.0,-0.047190577,-0.07406415,
0.079662375,-0.034393143,-0.011248112,
0.056055877,0.024793867,-0.040245596,
0.035760272,-0.020268047,-0.06698197,
0.016310554,-0.04264326,-0.03949352,
-0.010501842,0.0,0.0,
-0.040973336,-0.024566779,-0.04169855,
-0.043833386,0.0,-0.016941408,
0.010516565,-0.0154053215,-0.012686227,
0.022724852,0.010542995,-0.03011123,
0.01038619,0.019099802,0.018792074,
0.02070673,-0.07013756,0.0,
-0.013575409,0.019290872,0.041346,
-0.010193728,0.0,0.04099627,
0.019367605,0.0,0.046966456,
-0.034321796,0.0,0.032642644,
-0.04048768,0.029198145,0.07451714,
-0.060955636,0.07889236,0.06901883,
0.011128814,0.05479238,0.048053384,
0.06355529,0.038453035,0.030887108,
0.05395598,0.010296551,0.01228596,
-0.028387345,0.0786628,-0.06433022,
0.0,0.053765852,-0.015470449,
0.04417698,0.039423265,-0.03773154,
-0.016233146,-0.02341267,-0.021783378,
-0.040970195,0.0,0.04158033,
-0.022814613,0.0,0.01192034,
-0.035413533,-0.023290075,-0.010444104,
0.03596829,0.0,-0.01379003,
0.0,0.0,-0.04843868,
0.011073594,0.0,-0.030214144,
-0.011383211,-0.019860057,0.030605635,
-0.030827178,0.043015584,-0.0104059,
-0.06941392,0.01577774,-0.06798498,
-0.054463927,-0.036520172,-0.04281887,
0.0,-0.020092478,-0.047568522,
0.037169196,-0.029698737,0.0,
0.0788258,-0.04759785,-0.033467542,
0.045672894,-0.025230877,0.0,
0.0,-0.035692096,0.0,
0.0,0.0,-0.051354233,
0.026200084,-0.011948122,-0.01527875,
0.08885871,-0.018422851,-0.09122978,
0.10689068,0.0,-0.071023956,
0.034241326,-0.104348086,-0.041719828,
0.0,-0.12299112,0.058614697,
0.0,-0.061496977,0.023499241,
0.02633708,-0.016822824,0.012400744,
0.0,0.0,0.0,
-0.013181427,0.010999315,-0.026125131,
0.012942649,-0.015355804,-0.0131841535,
-0.04082027,-0.067876786,-0.028583001,
-0.033764813,-0.027243312,-0.04605113,
-0.05350359,-0.0800702,-0.04468695,
0.022772076,-0.055986207,-0.117029876,
0.03194378,-0.05771154,-0.042474996,
0.021909531,-0.04759329,-0.06346224,
0.056303278,-0.03103946,-0.050929297,
-0.011197655,0.0,-0.058165994,
0.0875618,0.0,-0.037466735,
-0.011437289,0.0,-0.05235564,
0.0,-0.047289416,0.0,
-0.10325546,-0.02151622,0.0,
-0.13878219,-0.096778885,-0.04809211,
-0.074785836,-0.04374287,-0.037790027,
-0.011810275,-0.037001017,-0.049544957,
0.0,0.0,0.0,
0.024165394,0.031198349,0.044633742,
-0.03729361,0.0,0.026689654,
-0.070801884,0.022193478,0.036095202,
-0.104260035,0.0,0.060337268,
-0.06488729,0.0,0.039612964,
-0.05456483,0.02451423,0.04328829,
-0.026256207,0.0221386,0.015481356,
0.020018382,0.067327395,-0.013327052,
0.051012028,0.08095292,0.032360695,
0.061543174,0.03490066,-0.022432305,
-0.017885217,0.07714634,-0.08733385,
0.028686715,0.05307425,-0.04276497,
0.050135028,0.0,-0.023171604,
0.0,-0.016648017,-0.059928812,
-0.043500394,-0.08069079,-0.0726696,
0.0,0.0,0.02073176,
-0.024907693,0.0,-0.016503654,
