layer1node1,layer1node2,layer1node3,layer2node1
-0.017488899,-0.04783117,0.06189474,1.7610853
-0.06300652,0.0,0.014742055,-1.4075637
-0.025474217,-0.028625887,0.0,1.444533
-0.022929888,0.048962817,-0.08723099,
0.0,0.08674845,-0.07219649,
0.017380206,0.07634892,-0.12379083,
0.0,0.0497344,-0.12515427,
0.03559743,0.0,-0.11044293,
0.018319136,0.034084387,-0.10532372,
0.0,-0.026151648,-0.019941757,
0.0,0.0,-0.01949908,
0.086937055,-0.02283182,-0.054850463,
0.04942674,-0.07054047,0.034666,
0.047303077,0.0,0.058596767,
0.04647738,-0.011385223,0.027687969,
0.0,0.02282011,-0.03226968,
0.06418863,0.14313044,0.0,
-0.030239161,0.0908141,-0.015180118,
-0.048681207,0.14627045,0.028330192,
0.0,0.0613151,0.021773696,
0.028832207,0.071352646,0.0,
0.03507195,0.037813477,-0.03044241,
0.05909947,0.010977279,0.04174932,
0.04554058,-0.016204553,0.021391306,
0.04639808,0.0,0.0,
-0.034012478,0.053524468,-0.022715319,
-0.06873739,0.02407879,-0.03992232,
-0.052967366,0.043006416,0.0,
-0.055419173,0.06551123,0.0,
-0.032991104,0.0,0.0,
-0.014612709,-0.050781414,-0.038989797,
0.012451006,-0.024603883,-0.037357006,
0.023257002,-0.034419667,0.051725857,
0.081403375,0.047149297,0.085350685,
-0.05008642,0.054165233,0.022781767,
-0.040378377,0.031159267,0.0,
0.017325489,0.0,0.0,
-0.05255232,-0.02792701,0.0,
-0.05936905,-0.013490399,-0.013765402,
-0.11911485,-0.012753116,-0.056836996,
-0.08892883,0.0,-0.027952159,
-0.046697542,0.03956398,-0.070325725,
-0.038019713,0.0,-0.09074934,
-0.030721974,0.020483326,-0.05956844,
-0.018695233,0.0,0.016776487,
0.0,0.050733972,0.0,
0.049761042,0.061496086,0.02260033,
0.068371326,-0.0102728335,0.04873292,
-0.013724558,-0.049327902,0.021563642,
-0.033471197,0.0,0.017931722,
-0.081797525,0.0,0.0,
-0.09847304,0.0,0.035365302,
-0.03393234,0.0,0.017526185,
0.09265066,0.011283752,-0.0120655345,
0.107233435,0.0,0.0,
0.12954243,-0.03682841,0.015525041,
-0.017886575,-0.06838854,0.036385458,
0.0,-0.03959206,0.0,
0.0,-0.02543678,0.038390487,
0.018289778,0.0,-0.03862381,
-0.0367358,0.09055116,-0.09611305,
-0.012972834,0.082322896,-0.123307124,
0.0,0.09933946,-0.091057576,
0.018222287,0.012074995,-0.09760863,
0.0,0.017767394,-0.09201326,
-0.016239598,0.013096553,-0.050730992,
0.036184307,0.010240618,0.0,
0.08427968,-0.010835443,0.0,
0.047573153,-0.06751,0.02681052,
0.055104617,-0.02677413,0.026942072,
0.0,0.0,0.03457614,
-0.021015078,0.081877135,-0.047981784,
-0.03286069,0.07905375,-0.026356513,
-0.02493873,0.04967677,-0.015996806,
0.0,0.108427346,0.03441105,
-0.030871678,0.05135018,0.0,
0.011687839,0.068305686,0.0,
-0.03207564,0.07259105,-0.041386273,
0.06280633,0.044587117,0.024083873,
0.0,0.0703403,0.037500232,
0.010957148,0.026238881,0.01518222,
-0.023810994,0.05161794,0.07324085,
-0.020779798,0.10955737,-0.047087204,
-0.03819171,0.047034312,-0.03569623,
-0.0364398,-0.020608759,-0.013539852,
-0.036719598,-0.028859677,-0.021293914,
0.047481056,-0.033772245,0.012165446,
0.0,-0.017455248,0.0,
0.083566286,0.0152553795,-0.012357032,
0.057178114,0.0,0.02303746,
-0.054520193,0.057645757,0.033396322,
-0.054636866,0.05076483,0.042434376,
-0.08627936,0.0,0.0,
-0.050997224,0.01275005,-0.020189827,
-0.031450797,-0.03934442,-0.036573187,
-0.092505224,-0.095053904,-0.024816263,
-0.07902993,-0.03296633,0.0,
-0.07414866,0.0,-0.028419128,
0.0,0.0,-0.093348056,
-0.042355288,0.013519173,0.014082842,
0.0,-0.028528357,-0.061385985,
-0.035084777,0.059451606,-0.04135283,
0.0,-0.013303053,-0.015034339,
0.055003945,-0.07672638,0.052933037,
0.018431583,-0.016908543,0.017076273,
-0.05773341,-0.0145962,-0.019192329,
-0.08170194,0.017631834,0.05092362,
-0.1154315,0.025001995,0.036498655,
-0.022100892,0.018083934,0.0,
0.04222627,0.0,0.018278815,
0.01316597,0.018543852,0.0,
0.06891971,-0.043165777,-0.06549644,
0.0,0.015070165,0.032599136,
-0.060162384,-0.023415247,0.017397743,
0.02103901,-0.042369537,0.0,
-0.027568894,0.0,-0.035611764,
0.0,0.13200589,-0.04913999,
0.0,0.06413241,-0.13596788,
0.013580285,0.02930824,-0.115619145,
0.029410085,0.020371573,-0.13120359,
0.015994402,0.0,-0.0806739,
0.01667367,-0.07208571,-0.049132947,
0.0,-0.07149915,0.010045361,
0.07855745,0.0,-0.020513454,
0.076520324,-0.045028828,-0.028966986,
0.056073643,-0.012168608,0.048120555,
0.07092861,-0.017699694,0.0,
0.0,0.01705491,-0.05495428,
-0.079119325,0.04315967,-0.063929774,
-0.030173285,0.07722183,-0.032126024,
0.0,0.08520332,0.02871266,
-0.06341174,0.087672055,0.015659371,
-0.024087118,0.05111069,-0.041585144,
0.042157143,0.028347135,-0.045319963,
0.013403088,0.07411389,-0.040409546,
0.063680135,0.066775635,0.0668316,
0.05566654,0.01996744,0.062594935,
0.070452884,0.013197105,0.014418924,
0.017867498,0.04990111,-0.012683162,
0.038899373,0.0890348,0.05969966,
-0.03860013,0.059855357,0.010356024,
-0.049793653,0.05349719,0.0,
-0.01157266,0.021090169,0.0,
0.078442514,0.0,0.035933074,
0.0,-0.022651214,0.01566834,
0.058759738,0.0,0.025171986,
0.0,0.037948314,0.024066254,
-0.06485453,0.0,0.098050736,
0.0115138395,0.03385507,0.024221389,
0.018163487,-0.010444119,0.05205542,
-0.034031104,-0.080139115,0.033983167,
0.0,-0.05338444,-0.023780176,
-0.033713937,-0.04441725,-0.023896703,
0.0,0.023389425,-0.016049227,
0.017776012,-0.04737137,-0.018895471,
-0.05062798,-0.022362676,-0.01654669,
-0.010434256,-0.040217087,-0.056350145,
0.034406785,-0.016991582,0.031619914,
0.06365647,-0.028395314,0.017697,
-0.020521846,0.0,0.0,
0.0,-0.028183412,0.051901255,
-0.025291782,-0.013243554,-0.027446521,
-0.0980389,0.0,-0.016006878,
-0.063521236,0.016555274,0.025077593,
-0.025558718,-0.024119942,0.07226631,
0.0,0.05863097,0.011756789,
0.04654268,0.047668044,0.0,
0.105904,-0.015339036,0.0,
-0.025397,-0.015301385,0.04070014,
-0.029903857,0.0,0.031180458,
0.0,-0.025254464,-0.039069008,
0.045393914,0.071441926,0.0,
0.0,0.042647135,-0.030320548,
0.0,0.0580788,-0.06431184,
0.028867066,0.032909703,-0.039783463,
0.013873463,-0.017589012,-0.10289277,
0.07394794,-0.010208533,0.0,
0.0,-0.051604267,0.0,
0.024716897,-0.11352718,0.0,
-0.049182512,-0.07858016,0.025589975,
0.057189453,0.0,-0.031772457,
0.0,0.0,0.034528106,
0.010810826,0.0,-0.025418436,
0.0,0.018494997,-0.016231619,
-0.024920808,0.07067124,-0.038962796,
-0.058279727,0.09522858,-0.036214855,
0.01448981,0.050138846,0.03773724,
-0.02993096,0.07550034,-0.043636497,
-0.022279214,0.04692573,-0.06961967,
0.03536933,0.08703201,-0.04574211,
0.054872595,0.043429617,-0.03375635,
0.1171067,0.033950157,0.053408273,
0.06204677,0.010158183,0.0,
0.026719254,0.045117,-0.08161311,
0.020157794,0.015332008,0.0,
0.03879656,0.02362546,-0.019736577,
-0.029077644,0.011530001,0.032569304,
0.012388022,0.041063216,0.0,
0.029958786,0.0293363,0.016175311,
0.058649253,0.022170559,0.018882468,
0.08884066,0.01413254,-0.015368431,
0.0,0.0,-0.0497382,
0.03814094,0.056912903,0.04287095,
0.054019425,-0.014201382,0.030455923,
-0.053584274,-0.016544936,-0.027211158,
-0.027142245,-0.02109677,-0.020524148,
0.027943822,-0.027842738,0.024302956,
0.0,-0.015252249,0.0,
-0.010728453,-0.050444547,-0.01626016,
0.0,0.0,-0.010641362,
0.03429688,0.026476279,-0.027806772,
0.029981807,-0.014592712,-0.019913679,
0.039625153,0.0,0.0,
0.027022744,-0.029107736,0.0,
0.0,0.0,0.0,
0.06467658,0.04401965,0.0,
0.0,-0.060527015,-0.050995357,
0.0,0.0,-0.0239262,
-0.03413634,0.0,-0.020384917,
-0.035536148,0.034866348,0.04860508,
0.0,0.03448927,-0.029801691,
0.019697519,0.04336929,-0.027626935,
0.041481763,0.012425706,0.0,
0.115156524,0.024107685,-0.02367956,
0.0,-0.025713587,0.0,
-0.01352263,0.013762989,0.033295985,
0.0197654,0.012487532,-0.045042746,
0.040425494,0.03052809,0.0,
0.03413955,0.014496337,-0.050768074,
0.08514208,0.0,-0.059295755,
-0.012879464,0.03350536,-0.07140133,
0.012348859,-0.025484595,-0.041961614,
0.04016629,0.048936322,-0.045702152,
-0.018004455,-0.06337655,-0.035543784,
0.0,-0.041654766,-0.014406736,
0.0,-0.04494015,0.0,
-0.033142753,-0.0187392,0.0102165295,
0.022483993,0.0,0.020258918,
0.0,-0.022335008,0.02784703,
0.0504864,0.015932878,0.0,
0.0,0.015013377,-0.04841142,
-0.03400652,0.036405515,-0.021260224,
0.0,0.046182193,-0.02046338,
0.0,0.04724106,0.0,
0.0,0.013982301,-0.019091336,
0.041724324,0.02639684,-0.049764313,
0.08482103,0.016190404,-0.012744692,
0.05069785,0.040045124,-0.01366128,
0.023828845,-0.029901529,0.057471134,
0.028708981,0.07783967,0.0,
0.042060245,0.027363865,0.0,
0.041857857,0.019827189,0.0,
-0.016893746,0.03459898,-0.011529411,
-0.019396503,0.015185386,0.037657987,
0.04073932,0.025878275,-0.038060755,
0.06323142,0.031137023,-0.04949743,
0.107521124,0.0,0.03803932,
0.0,-0.01148307,0.010598922,
0.027621282,0.053555727,0.0,
-0.021097973,0.031282846,0.053524356,
-0.03544979,0.04507636,0.0,
0.0,-0.013930037,0.029135523,
0.013990877,-0.04133111,0.019416993,
0.0,-0.033000782,0.0,
-0.028692769,-0.017619155,0.042760435,
0.029359905,0.025154967,-0.027370548,
0.011417204,0.0,-0.036966264,
0.05657214,-0.040612362,0.0,
0.06534645,0.011589777,0.0,
0.043392483,0.010078785,0.033347007,
0.03402085,-0.010133574,-0.014822583,
0.04799573,0.0,0.0,
-0.027669746,0.0,0.012285117,
-0.03927277,0.03970784,-0.045144636,
-0.059803516,0.028232887,0.0,
-0.030174673,0.025046207,0.014336723,
0.0,0.0,0.046702106,
0.04354006,0.041831788,-0.019611806,
0.038493663,0.054300394,-0.03052622,
0.1725245,0.041859668,-0.011771725,
-0.022670403,0.09592374,0.021411443,
0.030033672,0.062452048,0.012228944,
0.011726355,0.020275565,-0.011873217,
0.07013267,0.0,0.0,
0.027998593,0.024855485,-0.021821119,
-0.013360331,0.052458297,-0.016709723,
0.035283327,0.0125684375,-0.045704715,
-0.019583838,0.0,-0.029584423,
-0.023749037,0.07516713,-0.05374678,
-0.020370025,-0.07513073,-0.027224274,
0.027627327,-0.044989742,0.0,
0.0,-0.028829752,-0.06824099,
0.0,-0.07452356,-0.011046543,
0.019449944,0.0,0.0,
0.054837864,0.0,0.03174722,
0.0,0.0,-0.027412828,
-0.023858499,0.015238101,0.0,
-0.057978287,0.0,0.020760475,
-0.017856032,-0.038250867,0.045431353,
0.0,0.07744172,0.04656465,
0.06814021,0.0513228,0.02398394,
0.04943857,0.06356554,-0.016720064,
0.0259367,0.0,0.050409507,
0.035971276,0.032226965,0.0,
0.0,0.024704447,0.026067147,
0.035754416,0.056296103,-0.047667284,
0.03379843,0.11121622,-0.020631487,
0.0,0.11257962,0.0,
0.019174548,0.025801582,-0.061244044,
0.0,-0.020541573,0.02433713,
0.058774002,0.025590807,0.0,
0.050588243,0.039992053,0.025845319,
0.04553878,0.0,0.030035233,
0.01383462,0.0,0.01926099,
-0.055626918,0.018385451,0.07529773,
-0.020487191,0.03758773,0.04097969,
-0.02576414,0.019228406,-0.03247599,
-0.056702383,0.010705546,-0.043393835,
-0.020077031,-0.017664453,-0.013029869,
-0.05377306,-0.012997903,0.05048475,
-0.06291443,0.030784544,0.043026563,
-0.021310037,0.0,0.040546,
0.038035437,0.0,0.0,
0.027963337,0.010765556,-0.016516281,
0.05492392,0.011836207,0.0,
0.04665714,0.05776865,0.02428172,
0.0105733005,0.09428783,-0.038278807,
0.0,0.0,0.0,
-0.02535323,0.0,-0.036000036,
0.0,0.0,-0.057826426,
-0.038355116,0.0,-0.05288551,
-0.014410719,0.0,0.0,
0.017898884,0.0115374,0.0,
-0.020937348,0.017934743,0.018694641,
0.065875776,0.0659333,-0.011767419,
0.08371714,0.0,0.07607326,
-0.020167315,0.11296705,0.0100174965,
0.0,0.050667148,0.0,
0.029799812,0.025346898,-0.04859859,
0.08071996,-0.011562148,-0.043636713,
0.07923925,-0.02675613,0.0,
0.017713988,-0.02454014,0.0,
-0.010356746,0.0,0.027143678,
-0.034180883,0.0,0.0,
-0.03414886,0.0,0.0,
0.03362068,0.0,0.024494488,
0.0,-0.058410563,-0.023884268,
0.02313566,-0.057727434,-0.028629165,
0.0,0.026486007,-0.0110472245,
0.0,-0.029252486,0.0,
0.021433888,-0.0794514,0.07754151,
0.066739805,0.0515609,0.08957054,
-0.049469,0.020722862,0.04090605,
-0.061034992,0.0,0.07934917,
-0.015445115,0.011121191,0.07655199,
0.0,0.027180873,0.097515285,
0.07229016,0.0,0.014390037,
0.060370665,0.022012105,-0.03232773,
0.02223818,-0.020350693,0.0,
-0.017749999,0.0,-0.011615877,
0.0,0.027113162,0.031089759,
0.010324868,0.036787707,-0.037431344,
0.012624032,0.08018711,-0.06005269,
0.0,0.0,-0.023842959,
0.05521426,0.0,-0.05797094,
0.050134804,0.0,-0.015796734,
0.0,0.023491077,-0.026344152,
0.04419313,0.0,-0.03850882,
0.026544617,0.08024488,0.030154752,
0.028630503,0.037404887,0.039051887,
-0.0320798,0.028480968,0.016438702,
0.0,0.029912861,0.03737434,
-0.062963605,0.06629857,0.026377557,
-0.053190514,0.0,0.015063271,
-0.038574047,0.0,0.016565738,
-0.065362185,-0.028054321,0.0,
-0.040060006,0.08191828,0.03019016,
-0.043622747,0.0,0.022017257,
0.012263189,0.052879743,0.03748724,
0.0,0.021660162,-0.027760567,
-0.015284901,0.07272634,0.016784284,
0.0,0.04585935,-0.034683987,
0.014476536,0.060841586,-0.037546888,
-0.03583238,0.012740221,0.0,
-0.025534803,0.038469248,-0.011108749,
0.0,-0.015077468,-0.047760695,
0.014335083,0.0,-0.039740693,
0.0348054,0.038438346,0.0,
0.010148822,0.057926897,-0.026720049,
0.0,0.028402807,-0.03787195,
0.036219608,0.02186163,0.0,
0.11550387,0.0,0.0,
-0.041776784,0.118048616,0.0616349,
0.0,0.11034016,0.0,
0.08025672,0.04856088,0.033282865,
0.06666668,-0.028586457,-0.042401966,
0.043591004,0.0,-0.045631412,
-0.012068732,0.0,-0.031304922,
-0.04894826,0.036302563,-0.025521995,
-0.050963752,-0.020905659,0.03297969,
0.0,-0.028623156,0.024396187,
-0.010160258,-0.04703825,0.014174272,
0.0,-0.055952862,-0.04309063,
0.035848692,-0.021311792,0.018527659,
0.039945398,-0.018583873,-0.037670866,
0.033471577,-0.039643597,0.053532507,
0.04867155,-0.047135558,0.08300737,
-0.015656449,0.0,0.01997011,
-0.08949937,0.02558288,-0.014273995,
-0.12034742,0.017931009,-0.012249347,
-0.08515694,0.016506933,0.045936905,
-0.017853087,0.0,0.056235205,
0.025097964,-0.025836613,0.0,
0.0,0.021827385,0.023282597,
0.023377188,-0.019670866,0.07067443,
0.0,0.026034664,0.0,
-0.012032044,0.0,-0.026363729,
-0.035468265,0.06449807,0.017854348,
-0.016311057,0.05305847,-0.08769753,
0.0,-0.0217276,-0.03998743,
0.021671422,-0.053889804,-0.05962493,
0.03460364,0.0,-0.045398336,
0.065668195,-0.04413076,-0.07768194,
0.030264722,0.0,0.0,
0.048227936,-0.02067366,0.0,
0.0,0.031083744,0.04890271,
0.03523504,0.05251053,0.0,
-0.100938916,0.0,0.013022194,
-0.05698599,0.059300948,-0.04156687,
0.0,0.010833976,0.0,
-0.026957128,-0.024783004,0.0,
-0.044758264,0.03058712,0.022712447,
-0.049547777,0.08003309,0.08490676,
0.0,0.018040005,0.018171683,
0.05266146,0.0,0.019561177,
0.051834144,0.0,-0.020749688,
0.036190048,0.05212218,0.0,
0.0,0.038530573,-0.04315883,
-0.045413643,0.013588116,0.019747404,
0.0,0.028375622,0.0,
0.0,-0.010664335,-0.0228978,
0.018402187,-0.043741126,-0.080133416,
0.028859518,0.030007334,0.0,
0.0,0.021335747,-0.049994178,
0.017154073,0.02691697,0.0,
-0.03071353,0.013790063,-0.045858495,
0.06731127,0.0,0.020627314,
0.08620934,-0.03153814,0.036745846,
-0.019783016,0.0717736,0.074162275,
-0.024838397,0.06527212,0.0100385295,
0.017894935,0.051842008,-0.029624986,
0.027065065,-0.013545952,-0.016158594,
0.01113953,-0.032889143,-0.030848837,
-0.039618753,0.038701642,0.0,
-0.033370398,0.0105740735,0.02386115,
-0.039054703,0.0,0.0,
-0.016644903,0.029822346,-0.0641887,
0.036397588,-0.025001593,-0.024353493,
0.0,-0.022729479,0.035965163,
0.012096037,-0.039221834,-0.016276779,
-0.024886098,-0.055978984,0.022854785,
0.0,0.0,0.030400386,
0.01760464,0.0,-0.021077387,
-0.046913385,0.0127579775,-0.013955761,
-0.086675905,0.0,0.0,
-0.08385018,0.022751331,0.03792283,
-0.016685022,0.03992292,0.021250883,
-0.075736985,0.0,0.03583432,
0.051100526,-0.04711717,0.015641531,
-0.028948769,0.0,0.05816388,
-0.019448224,-0.012878997,0.060424235,
-0.042534344,0.033444606,0.050267607,
-0.013656948,-0.024498986,0.035629794,
0.017901806,0.0,0.043709137,
-0.01401226,0.0,-0.054408547,
0.0,0.0,0.028521245,
0.028840465,0.0,0.0,
0.012033194,0.010144625,-0.035566088,
0.06398176,0.0,-0.061460134,
0.029482624,0.015656216,0.017881747,
0.081146955,0.04181245,0.029782714,
0.0,0.05310477,0.03705367,
0.0,0.049006544,0.023500815,
0.0,-0.013773396,0.032721475,
-0.03244678,0.013087012,-0.028401107,
0.019858882,0.050481442,0.010409195,
-0.02644076,0.04812716,0.0,
0.0,-0.012136082,0.0,
0.0,0.0,0.0,
0.0,0.0,-0.028354459,
0.0756202,0.02363155,0.035984874,
0.024147155,0.021355212,-0.049962163,
0.0,0.06392681,0.0,
-0.029606892,0.08651631,0.0,
-0.023963246,-0.016272688,-0.0207814,
-0.0453054,0.031087365,0.0,
0.037815936,0.0,0.014788214,
0.017751258,-0.03689834,-0.035452843,
0.044637892,0.0,-0.060980674,
0.0,0.05308137,-0.033673037,
0.014935271,0.0,0.014774978,
-0.010181831,0.059585243,0.0,
0.011983733,0.019700317,0.023912225,
0.09184594,-0.01880174,0.013766281,
-0.028760865,0.091895364,0.035268135,
-0.037205633,0.04629749,0.016837234,
0.029723858,0.04893153,0.028901743,
0.011956069,0.0,-0.03208469,
-0.030696226,-0.010644183,0.0,
-0.01229337,0.050017156,-0.068831906,
-0.036761552,0.051091533,0.0,
0.0,-0.017891394,0.07975207,
0.0,-0.021773037,0.047729928,
0.081627145,-0.017812166,-0.028281195,
0.026282638,0.0,0.0,
0.06663042,-0.05241221,0.0,
0.015987467,0.0,-0.011210399,
0.056081824,0.0,0.053844184,
0.051407706,0.013414767,0.05009719,
0.0,0.020696942,0.0,
-0.015066058,0.041670352,-0.011405691,
-0.013712688,0.0,-0.032338917,
-0.034512166,0.03406135,0.029426249,
-0.016625525,0.03340843,-0.023266979,
0.01068873,0.023598906,-0.011040286,
0.0,0.024213169,-0.019606922,
-0.06589839,0.025303453,0.052590776,
-0.02472017,0.058952495,0.05608585,
0.045524973,-0.039223555,0.052959796,
-0.01434909,0.012860082,0.0655282,
-0.061237015,-0.019362291,0.019412518,
-0.016059764,-0.04539583,0.0,
0.0,-0.04098947,-0.016093735,
0.0,-0.096619554,-0.056635566,
0.0,-0.03258287,0.0,
-0.021805294,-0.027738674,0.0,
0.016269015,0.023324154,0.07971806,
0.03611834,0.0,0.096876584,
0.02696777,0.0,0.03144197,
0.028956907,0.03242477,0.030297942,
0.024589665,0.039833456,0.0,
-0.014063143,0.0,-0.030791827,
0.0,0.02304048,-0.040083125,
-0.02378371,-0.020380458,0.027215255,
0.0,0.0,0.0,
0.044615958,0.05531922,0.012805082,
0.106899574,0.044786897,0.036565557,
0.049292002,0.07920371,0.0,
0.0190251,0.052987527,0.0,
0.03498737,0.06144411,-0.05082973,
0.0,0.040895976,-0.039384156,
-0.021047296,0.0,0.0,
0.012113503,0.018969204,0.0,
0.071460895,0.046806287,-0.03173157,
0.039155193,0.039464474,0.013292125,
0.010609871,0.014139156,0.012055409,
0.03620744,0.070983134,0.06249978,
0.0,0.01360048,-0.013378463,
0.058709383,0.01597133,-0.019339368,
0.024084432,-0.06545258,0.0,
-0.04811287,0.05574128,0.06966793,
0.0,0.0723791,0.028043205,
-0.051443636,0.046303365,0.0,
0.0,0.029615313,0.012037821,
-0.0172203,0.0,-0.060598403,
-0.029313175,0.0,-0.014797803,
0.0,0.05354809,-0.027071692,
-0.026424127,-0.018484153,0.010712585,
0.0,0.01195329,0.02297384,
-0.025948064,0.019843,0.0,
0.0,0.03795534,-0.073901914,
0.0,0.0,-0.022353018,
0.017850546,-0.021634867,0.03789214,
0.034818072,0.056485936,0.043812145,
0.037783545,0.024666484,0.031192916,
0.010227691,0.034707505,0.011864883,
0.04366763,-0.019960098,0.0,
0.0,0.024068642,-0.012740662,
0.0,0.0,0.010614822,
0.014228428,0.0,-0.031141171,
0.0,0.016786635,0.0,
-0.013185884,0.0,-0.04710376,
-0.035157226,0.02735339,0.042266127,
-0.01186209,-0.0214956,0.08705654,
0.0,-0.024495125,0.101501115,
-0.012673281,-0.030932084,0.051363047,
-0.025885602,-0.025083136,0.033490743,
-0.014699883,-0.026635438,0.06475329,
0.0,0.0,0.013769987,
0.0,-0.03314206,0.0,
-0.043277606,-0.047598716,0.011424427,
0.013474887,0.012042457,-0.037415165,
-0.046810597,0.064975604,0.048257113,
-0.01387322,0.040644974,0.01886948,
0.0,-0.053667873,0.058410995,
0.034501076,-0.035880823,0.05884141,
0.02446171,0.0,0.0,
0.0,0.0,0.0,
-0.04427358,0.015840631,-0.035323083,
-0.023457037,0.06593341,0.0,
0.046704214,0.0,-0.025264785,
0.09278743,0.0,0.0,
0.075758755,0.032861594,0.03535801,
0.07188115,0.061539765,0.038584657,
0.019307649,0.053790033,0.0,
0.034745064,0.08128564,-0.026521832,
-0.042476248,0.036579825,-0.04693772,
0.057841696,0.0,-0.026101414,
0.050603904,-0.019529792,-0.025493817,
0.068135165,0.015395124,0.017938035,
0.074259564,0.114289545,-0.014157994,
0.037600663,0.075762235,0.0,
0.04276586,0.051803313,0.035106193,
0.046588957,0.0,0.01724582,
0.026021063,0.0374546,-0.013132658,
0.01452017,0.017808551,0.0,
-0.024338022,0.10665622,0.025633175,
-0.034309197,0.0718218,0.0,
0.0,0.05852252,0.07536825,
-0.0464373,0.042224076,0.0,
-0.024822485,0.022948703,-0.053711705,
-0.011178313,-0.016907962,0.024154762,
-0.039461724,-0.031908162,0.0315036,
-0.028149813,0.0,0.035462014,
-0.020829646,0.08488721,0.047418218,
0.0,0.03693786,0.0,
0.042538833,0.033098027,-0.06697291,
0.08368569,0.0,0.0,
0.050788365,0.049935736,-0.029014217,
0.051074777,0.11871717,-0.05227464,
0.04876505,0.010534322,-0.010395321,
0.021375233,-0.035881046,-0.022701781,
0.0,0.0,-0.033607464,
0.016490806,-0.045291163,-0.059261948,
0.020079521,-0.055777464,0.012489076,
0.07392651,0.0,-0.021479834,
0.0,0.028075634,-0.03324222,
0.0,0.052116226,-0.013491559,
-0.048336186,0.053715773,0.0,
-0.011241511,-0.015296749,0.047445096,
0.011711881,-0.030665034,0.124500975,
0.0,-0.027290532,0.091958,
0.017868455,0.0,0.06360268,
-0.033961494,-0.036051933,0.05204062,
0.0,-0.038758464,0.055001155,
-0.041294564,-0.040293884,0.0380323,
0.038053773,-0.031900186,-0.0183542,
-0.039579842,0.0,0.0,
-0.034695532,0.045725945,0.06511018,
0.014779574,-0.011686471,0.022009362,
0.03281656,0.0,0.07402509,
0.022459833,-0.017032938,0.0662522,
0.076011665,-0.03114707,0.0240874,
0.010065797,-0.019395784,0.01420961,
0.025934923,0.0,0.0,
-0.045540042,0.023908854,-0.07678653,
0.04342331,0.0,0.013983911,
0.031818483,0.0,-0.028003875,
0.056416728,-0.010031322,0.025882822,
0.04874455,0.06642092,0.034924142,
0.0,0.044920277,0.0,
0.0,0.0,-0.05828122,
0.0,-0.01938939,-0.036758743,
0.0161578,-0.029338673,0.0,
0.0,0.013042315,0.0,
0.023469053,0.029051477,0.0,
0.0,0.08929267,0.017971233,
0.037239503,0.079746485,0.015806306,
0.0,0.035402667,-0.031023681,
0.01705012,0.0,-0.0318446,
0.024835626,0.0,0.0,
0.0,-0.0317635,0.017366739,
0.03853856,0.07451001,0.044672646,
0.03472199,0.055758875,0.0,
0.018222805,0.01858849,0.0,
-0.032469705,0.0,0.0,
-0.024666961,0.029695028,0.027028272,
-0.018412089,-0.018835265,0.0,
-0.018055486,-0.026965115,0.0,
0.0,0.016101161,0.028315248,
-0.030427137,0.013212644,-0.013424252,
-0.050518584,-0.031628925,0.0159881,
0.0,-0.016537584,0.053788286,
0.0,-0.019593755,0.0,
-0.03677078,0.03289407,0.012798387,
0.03479194,0.08447556,0.0,
0.05840369,0.06755881,-0.010279747,
0.0,0.041273568,-0.010147882,
0.052992128,-0.012479796,-0.025919443,
0.036525764,-0.06633143,-0.02112986,
0.044840366,-0.04839541,-0.0103855645,
0.044019684,-0.018791638,0.032198694,
-0.035060998,-0.018195901,-0.025428668,
-0.021729307,0.046512723,0.0,
0.0,0.026696142,0.06720357,
0.0,-0.032335863,0.06221449,
-0.044691715,-0.059327643,0.04439442,
0.050996386,0.025347225,0.06847648,
0.014910082,-0.04898686,0.068686105,
0.020763773,-0.06283176,0.03862856,
0.0,-0.022309184,0.037532568,
0.0,0.0,-0.021569947,
0.0,-0.025795875,-0.039889667,
-0.028566992,-0.027122542,0.0,
-0.02055267,0.018110255,0.049245454,
0.0,0.07181619,0.0,
0.07067379,0.0,0.043990735,
0.0,-0.018537689,0.06254744,
0.016915882,-0.045323607,0.07235871,
0.0,0.0,0.014671992,
-0.018439496,0.018411407,-0.016762402,
-0.016498158,0.0,-0.060320053,
0.052612096,0.0,0.0,
0.052558653,0.0,-0.022023864,
0.0,-0.06401491,0.0,
0.0,0.03267775,0.0,
-0.03244836,-0.012114737,0.039761387,
-0.011188052,0.0,0.0,
0.010652066,-0.026073439,-0.03119047,
0.0,-0.045287434,0.0,
-0.010847155,-0.026484165,-0.02394712,
0.0,0.0,0.04460637,
0.0,0.034003023,0.01897289,
0.010457292,0.0668108,0.026178056,
0.0,0.050450537,-0.011625654,
-0.011555276,0.029769098,0.03515516,
-0.04253247,0.02159368,0.0,
-0.031412322,0.030767072,-0.034421246,
0.0,0.07114671,0.014779332,
0.011006686,0.07151665,0.0,
0.0,0.0,0.018713707,
0.024528878,0.0,0.030513408,
-0.037247267,-0.022827812,-0.054509055,
-0.02448626,-0.021313956,0.0,
-0.02114436,0.0,0.04256501,
-0.039113835,0.0,0.03301945,
-0.025210127,0.019627249,0.037118133,
-0.013743282,0.0,0.052612536,
-0.01985958,0.032352563,-0.053772386,
0.0,0.014953949,-0.016274098,
0.041915648,0.01925615,-0.019021487,
0.0,0.11940397,-0.011999723,
0.08180226,0.037672494,-0.046378355,
0.038659282,0.0,-0.04233084,
0.061519485,-0.04214058,0.0,
0.058115613,-0.010534644,0.029601205,
0.047217127,-0.029814756,0.035102714,
0.036443096,-0.07047393,0.0,
-0.043339644,-0.013040558,0.013168388,
0.0,0.050602306,0.026443725,
0.021396661,-0.03666862,-0.022486793,
-0.017591748,0.0,0.028229587,
-0.021267543,-0.05916092,0.04679956,
0.015754072,-0.01008651,0.030042503,
0.021735933,-0.027288107,0.02072254,
-0.028333016,0.030643431,0.08113827,
0.020500652,0.076580845,0.04327856,
-0.020687854,0.020798316,0.016593406,
-0.033607945,0.028483178,0.037935268,
-0.028461054,0.04532079,0.029005932,
0.0,0.017083663,0.0,
-0.015949422,0.0,0.01355828,
-0.039960396,0.010951064,0.038435232,
0.019732662,-0.043629564,0.061130617,
0.0,-0.054939635,0.06359359,
-0.014540366,-0.087864056,0.042566225,
-0.017469535,-0.09600275,0.0,
-0.045205478,0.01155212,-0.0148439575,
0.011783491,-0.043068916,-0.056692917,
0.014854406,-0.06789203,0.0,
0.0,-0.0110117495,-0.016543461,
-0.024249027,0.0,-0.01755689,
-0.013251846,-0.025850927,-0.041355427,
0.022546731,0.0,-0.010945121,
0.04354822,-0.057917792,0.0,
0.018942213,-0.040621895,0.0,
0.038840517,0.0,0.0,
0.01783579,-0.017641041,0.024854742,
-0.015267553,0.03650077,0.01199895,
0.025459182,0.0,0.0,
0.018810479,-0.013352066,0.012824553,
0.0,-0.012174204,0.0437269,
-0.05085661,0.0,0.040763523,
-0.01649121,0.053305034,-0.03444165,
0.03124948,0.03370864,0.031202711,
0.032321326,0.07665366,0.0,
0.05350246,0.01672688,-0.07032836,
0.020064237,-0.02730464,0.0,
0.04395948,-0.033886235,-0.024070391,
0.031222088,-0.08488947,-0.0299043,
0.0,-0.030923743,0.033369754,
-0.03644941,-0.045847423,0.029224811,
0.017411109,-0.04527667,0.057653632,
0.0,-0.04431468,0.028027596,
-0.019618109,-0.02889439,-0.015909374,
0.016993992,0.0,0.0,
0.01534293,0.0,0.025243538,
0.032744247,0.033283688,0.060001638,
0.041046433,0.011203558,-0.019940361,
0.0,-0.047723375,-0.066625744,
0.11095619,-0.06268285,-0.045592025,
0.12610541,-0.023460088,-0.014196885,
0.0,-0.063597605,0.07143866,
-0.020787138,0.0,0.04355925,
-0.032308582,0.0,0.0,
0.031770322,-0.016630992,0.0,
-0.026454361,-0.03241514,0.0,
-0.05184602,-0.026957015,-0.0112399105,
-0.022971645,0.0,0.0,
0.03155786,0.022816945,0.047256812,
-0.034680907,-0.053865038,0.02769658,
0.0,-0.03365262,-0.01889833,
0.03033784,0.0,0.017353825,
0.0,0.035835944,0.017636305,
-0.010059689,0.0,0.0,
0.0256139,0.036970142,0.024426196,
-0.011362871,0.06825193,-0.02153452,
-0.08122734,0.022804525,0.03669244,
-0.04893719,0.0,0.016095463,
0.0,0.0,0.0,
-0.114709586,-0.051926866,0.027665658,
-0.076129116,-0.07669857,0.03176997,
-0.07108962,-0.08221279,-0.014371853,
-0.062185556,-0.011089327,-0.02017262,
-0.025435226,0.0,-0.011522186,
-0.04385898,-0.024045946,0.0,
-0.072858095,-0.052273043,-0.046538487,
-0.023347013,-0.0689466,-0.01329208,
-0.028402053,-0.08987815,-0.08763334,
0.0,-0.055593286,-0.050373252,
0.022249052,-0.02188067,-0.056300465,
0.010294339,-0.06300397,-0.027417155,
-0.014154359,0.0,0.01649757,
-0.057166524,0.0,0.011983536,
0.0,0.036009233,0.0,
0.0,0.026149714,-0.042343095,
0.025114821,0.061980188,0.017364657,
0.028546974,0.0,0.06589062,
0.039024614,0.047553048,-0.018428985,
-0.06870351,-0.019962767,0.0,
0.05158148,0.027833723,0.021712668,
-0.010451584,0.038253337,-0.064366646,
0.059329737,0.0,-0.020658255,
0.03968848,0.0,0.015946444,
0.0,0.015235432,-0.039483856,
0.0,-0.03556724,0.0,
-0.030830981,-0.04689644,-0.036948934,
-0.038889837,-0.038677488,0.053867422,
-0.05006191,-0.021118568,0.0,
0.027256511,-0.08251084,-0.01079021,
-0.022077503,0.030982884,-0.031216515,
-0.0140856095,0.012864899,0.012575945,
0.0,0.017431939,0.03486958,
-0.02232333,0.032022417,0.018007815,
0.04979712,0.0,-0.023628414,
0.1231117,0.0,0.018913535,
0.059231192,-0.04265395,-0.035408787,
0.04846452,-0.047643773,0.0,
0.0,-0.030009655,0.047733754,
0.020189662,-0.043149605,0.030135674,
-0.049583323,-0.022912892,0.02951526,
0.0,0.0,0.023952376,
-0.035476822,0.029375061,0.02133757,
0.0,-0.026689025,0.0,
-0.081730455,0.0,-0.017625572,
-0.021569274,-0.014596793,0.0,
0.0,-0.01616094,-0.044212487,
0.0,-0.023220824,-0.039282754,
0.039362457,0.020685071,0.0,
0.010223577,0.012225216,0.0,
0.07587659,0.0748934,-0.010177953,
-0.034327947,0.04984927,-0.03573065,
-0.04950161,0.044146307,-0.026766207,
-0.05870164,0.0,-0.031928487,
-0.052490953,0.0,0.031180507,
-0.104612835,0.01559334,-0.022000335,
-0.031479638,-0.07094374,-0.019547638,
-0.0148571385,-0.111648954,0.0,
0.0,-0.09251316,-0.06566446,
-0.0485446,-0.030815171,-0.02698328,
-0.02079271,0.010018292,-0.039366536,
-0.04943449,-0.051776573,-0.012314292,
-0.033210877,-0.0998994,-0.05555916,
-0.0466317,-0.026303895,-0.04870324,
0.0,-0.057041187,-0.059759777,
0.0,-0.06311068,-0.038319726,
0.020620564,-0.046901464,-0.044567656,
-0.010574828,0.014466466,-0.05007891,
-0.07892469,0.040588606,0.0,
-0.037194576,0.018888623,-0.054897316,
-0.038240008,0.04142717,0.0,
0.020810448,0.0,-0.029170329,
0.05613648,0.0,-0.019919416,
-0.037810225,0.07280358,-0.06417872,
0.0,0.019128123,-0.029561946,
0.012401769,0.0,0.0,
0.034741454,0.047516353,0.039478887,
0.0169087,0.019480854,0.0,
-0.022331549,0.0,-0.09336117,
0.030882496,0.01764007,-0.016052552,
0.053858314,-0.010582052,-0.058762874,
0.077580236,0.0,0.029267866,
-0.041324057,-0.018396512,0.027268905,
0.0,-0.09879677,0.015204038,
-0.016894827,-0.07654428,0.05160549,
-0.066241,-0.051030442,0.04191296,
0.031340484,0.0,-0.033811156,
-0.014740035,-0.06393368,0.024660856,
0.0,0.0,-0.012719751,
0.021745624,0.0,0.033632312,
0.021914583,0.029326616,0.0,
0.06298735,0.0,-0.039583646,
0.057693906,-0.039664432,-0.03164814,
0.013518381,-0.024836056,0.05911565,
-0.014171717,-0.06562746,0.013408406,
-0.03317758,-0.050997246,0.04600369,
-0.016763525,0.027941117,0.0,
-0.016208237,-0.01884695,-0.054149244,
-0.05875356,-0.039066937,-0.016652698,
-0.1236144,-0.019005615,0.0,
-0.02712598,-0.02736002,-0.030472923,
-0.04719573,-0.0447252,0.0,
-0.035411093,-0.012898498,-0.013009294,
0.025296591,0.012011778,0.03177593,
0.022886274,0.04033405,-0.023264864,
0.031704776,0.06193516,0.0,
0.03830158,0.034758903,0.0,
-0.024497699,0.084018506,0.0,
-0.04225929,0.015235264,-0.031487294,
-0.04875921,0.04541257,-0.027213594,
-0.08723358,0.0,0.0,
-0.08411148,-0.0201282,-0.017557975,
-0.10966316,-0.019404773,-0.060130313,
-0.032180622,-0.095368676,-0.07675068,
-0.011267749,-0.035574317,-0.01999343,
-0.012390988,-0.018610828,-0.03919578,
-0.026816387,-0.01061943,-0.09285413,
0.013903345,-0.025562711,-0.026288653,
-0.015426354,-0.030601297,-0.030981861,
-0.10973551,-0.03784725,-0.038021956,
-0.019339826,-0.11422149,-0.019890973,
-0.035109542,-0.025550764,-0.06426755,
-0.01767912,-0.023660693,-0.07560362,
-0.012216698,0.0,-0.010256394,
-0.010125993,-0.012438663,0.0,
-0.052242693,0.04978202,-0.016979853,
0.029320598,-0.040503897,0.015038473,
0.051046204,0.014313011,-0.015771462,
-0.017925002,-0.01543173,-0.021544484,
0.021793433,0.07386813,-0.023740154,
-0.035490833,0.0202473,-0.046095368,
0.040102053,0.04412681,0.045839015,
0.023559058,0.06108488,-0.059906587,
-0.019814728,0.02805605,-0.07104384,
0.03458785,0.042913713,-0.12889902,
0.082479134,0.0,-0.04576799,
0.04413725,0.061273918,0.0,
0.040162567,0.0,-0.010467716,
-0.0172545,-0.027483255,0.0,
0.011928418,-0.042165585,0.024593143,
-0.028253011,-0.011599161,0.09691216,
0.0,-0.035529107,0.03510232,
0.013078699,-0.05407253,-0.03316201,
-0.05302594,-0.040207937,-0.03140445,
-0.026736205,-0.012581968,0.03151537,
-0.014298195,0.0,-0.027817598,
-0.023162069,-0.030132478,-0.033941403,
0.0,-0.031829584,-0.07114135,
0.020556912,-0.024641283,-0.010536128,
0.0,-0.024009554,0.07570062,
0.0,0.014594267,0.03351119,
-0.017850092,0.02652567,0.050409228,
0.0,-0.0124103585,0.0,
-0.023226744,-0.021890197,-0.031392843,
0.017878413,-0.04089051,-0.055054285,
-0.070151515,0.0,0.012530129,
-0.1029814,0.0,0.0,
-0.036013514,0.016543947,0.0,
-0.027317015,-0.014290331,0.0,
0.0,0.02235883,-0.026604181,
0.03432002,0.05963311,-0.03876454,
-0.055895366,0.04601201,-0.058395572,
0.013916105,0.053663228,-0.012061279,
0.0,0.066272065,-0.068762,
0.013254224,0.03980259,-0.03478106,
0.0,0.02269197,0.03851369,
0.010395169,0.0,0.017083295,
-0.018937929,-0.01674217,-0.050784394,
-0.018536823,-0.05832947,-0.08783624,
-0.023268303,-0.030009001,0.0,
-0.03602893,-0.043783262,-0.05198534,
0.04934564,-0.04952049,-0.05018142,
0.04403868,0.015190748,0.014919186,
-0.034199275,0.015917122,-0.056974173,
-0.016432144,-0.037868388,-0.043568924,
-0.050522603,-0.062449954,-0.034738887,
0.0,-0.033985853,0.0,
-0.07166652,-0.051855776,0.0,
-0.03638079,-0.08379909,-0.026831862,
0.0,0.0,0.035945147,
-0.03972113,0.05741241,-0.034175232,
-0.026813181,0.0,0.026936471,
-0.018500794,0.014493106,-0.026821345,
0.012356426,-0.028080793,0.013346744,
0.058829054,-0.02402569,0.041002702,
0.011938509,0.056052275,-0.02603439,
0.0,0.015916936,0.0179105,
0.034402624,0.06937448,0.0,
0.014799878,0.0,0.0,
-0.014110024,0.0,0.0,
0.01752231,0.019176362,-0.038856614,
0.043468904,0.01686932,-0.0800312,
0.057045866,0.0,-0.05761037,
0.035169505,-0.019832006,-0.024173137,
0.035935998,-0.040441617,-0.0117756175,
0.021489864,-0.03882482,0.07284418,
-0.05588235,0.023223655,0.06254521,
-0.028140211,0.0,0.058839507,
0.0,0.0,0.0,
-0.066826515,0.011903305,0.047598485,
-0.027955746,0.025297455,0.029065453,
-0.048867896,-0.023995405,0.027591385,
0.011040312,0.0,0.0,
0.06461154,0.0,-0.03282294,
0.0,-0.022194555,-0.04009215,
-0.02534576,-0.06540075,0.05217787,
-0.053732295,0.0,-0.012229578,
0.019009018,0.0,-0.013016019,
-0.012910025,0.0,-0.05109632,
0.0,-0.04705006,0.0,
0.058910817,0.015599076,0.0,
-0.100534976,0.05129256,-0.018811539,
-0.08221477,-0.015535621,0.045690857,
0.0,0.0,0.0,
0.0,0.0,0.0,
0.0,0.0,-0.09593867,
-0.018781343,0.019895587,-0.030351475,
0.012374387,0.053857565,-0.026996236,
0.0,0.06104882,0.0168727,
-0.021437101,0.09448967,-0.016525796,
0.0,0.016803889,0.0,
0.051840182,0.0,0.0,
0.08348515,0.0,0.029401166,
-0.016193217,0.03250931,-0.045662824,
-0.035906207,-0.1026505,0.0,
-0.035752647,-0.08042914,-0.035701264,
0.0,-0.05850732,-0.019627035,
0.027997134,-0.03186478,-0.07569067,
0.033565834,-0.04265223,0.0,
0.014774938,-0.063658334,0.028308291,
-0.01696409,-0.05513646,-0.0114950985,
0.0,-0.068992145,0.04935689,
0.0,-0.03978101,0.023411013,
-0.03194321,-0.070879444,-0.035761822,
0.0,-0.057520777,0.0,
-0.028324623,-0.04572869,0.023214947,
-0.031496502,-0.018487263,0.0,
-0.013245768,0.015754178,0.016984956,
-0.030834509,0.0,0.03993965,
0.030570794,0.024333343,0.0,
0.0,0.0,-0.02565256,
0.02144468,0.045691676,-0.01938183,
-0.014117178,0.035831664,0.026467163,
0.047255058,0.048534434,-0.010694309,
0.048584737,-0.018874079,-0.015560469,
0.031528432,0.0,-0.06526667,
0.029728048,-0.03268758,-0.097601965,
0.050416972,0.0,-0.029358845,
0.06413283,-0.056354623,-0.062295087,
0.03277576,-0.02550138,0.0,
0.03636063,-0.026239565,0.0,
0.019351656,0.0,0.051280767,
-0.07295866,0.017588986,0.09405376,
0.022336802,0.028557234,0.023298461,
-0.03043131,0.0,0.034369797,
-0.023513861,-0.017352147,-0.029548261,
-0.058320314,0.010292605,0.0,
-0.060003493,0.0,0.0,
0.0,-0.031866323,-0.03316018,
0.0,-0.015822003,0.0,
-0.06566162,-0.047304302,-0.021077456,
-0.014700208,-0.042650405,0.0,
-0.05704885,-0.049358062,0.0,
-0.042714838,0.0,-0.017418085,
0.0,0.0,-0.023339717,
0.05051671,0.0,-0.011750526,
0.011937856,-0.038030677,0.0,
-0.03909767,-0.05061853,0.055175453,
-0.022333361,-0.010210207,0.021288218,
-0.06261117,-0.03613829,-0.057709105,
-0.026561588,-0.06871039,-0.019214304,
0.0,0.029010745,-0.06543725,
-0.015253093,0.09429754,0.0,
0.018851835,0.06511383,0.0,
0.023825374,0.049969897,0.0,
0.02292088,0.0,0.0,
0.07414476,-0.019557968,0.014831921,
0.025701273,-0.042230207,0.033041958,
0.09246311,-0.07105849,0.0,
0.011055752,0.0,-0.026548157,
-0.023061778,-0.075574756,-0.0267476,
0.027013915,-0.08427518,-0.0468691,
0.03147775,-0.029180534,0.013244727,
0.03823654,-0.06396755,0.023581771,
0.066825666,0.0,-0.027212098,
0.032931,-0.013190564,0.025287768,
-0.030620648,0.0,0.0,
-0.027547108,0.0,-0.027966844,
0.017673053,-0.016205708,0.035111535,
-0.028793097,-0.028923752,0.010764978,
0.030876148,-0.052257568,0.05624604,
-0.031913687,-0.015414762,0.0,
0.0,-0.017390367,0.017358048,
-0.03126596,-0.017063817,0.021221355,
-0.07524355,-0.014164631,0.034885623,
0.020746889,0.0,0.028676953,
0.010104177,0.0,0.031478684,
-0.028124155,0.0,0.01509734,
0.03553699,0.06138611,0.032758098,
0.06265293,0.042993415,-0.0110641215,
0.034742594,-0.06751536,0.012774346,
0.050895676,-0.050970532,-0.077241726,
0.05069609,0.019112566,-0.02939214,
0.042582862,-0.025959445,-0.012481545,
0.06171454,-0.058928695,-0.016718077,
0.08340472,-0.04882838,-0.013728687,
-0.037189573,0.025140671,0.0,
-0.03518693,0.028698355,0.0,
-0.031284712,0.049144678,0.022771746,
0.0,0.03984586,0.06777952,
0.035630345,0.0,0.033252615,
-0.03136086,-0.014339888,0.0,
-0.10621826,0.0,0.05955198,
-0.0711872,-0.044013772,0.0,
-0.027214196,-0.051780764,0.026820706,
-0.050879017,-0.01589279,0.0,
-0.023915296,0.0,-0.057236623,
0.02385891,-0.04654525,-0.05759466,
0.0,0.0,-0.08462512,
-0.03748728,-0.042264964,-0.052720506,
0.067076944,-0.015642148,0.0,
0.058970504,0.010981906,0.021942647,
0.034202684,-0.01528559,0.0645423,
0.0,0.0,0.04871981,
-0.051507246,-0.054121137,0.08815354,
-0.027230017,0.015284566,0.0,
0.0,0.014611637,-0.11002306,
-0.028592957,0.020399569,-0.024496704,
-0.019382123,0.01316603,-0.077589035,
0.0,0.026059967,-0.035909288,
0.10181167,-0.012206373,0.031036286,
0.0,0.053507634,0.023462264,
0.026260473,-0.047201052,0.04275552,
0.08911745,-0.09579072,0.02049838,
0.02349015,-0.048365545,0.0,
0.021460915,-0.09438105,0.0,
-0.027619794,-0.0577482,-0.026453376,
0.0,-0.042022113,0.0,
0.0,-0.031621277,-0.031177262,
0.0,0.0,-0.05437033,
0.04025724,0.0,0.0,
0.046947706,0.0,0.027234618,
-0.048561595,-0.022248961,0.036993813,
0.0,0.012259678,0.03092943,
0.020039078,-0.015491558,0.020106494,
-0.054946534,-0.013030656,0.032161407,
0.0,-0.0568863,0.07892697,
0.0,0.037284292,0.019826708,
-0.019448603,0.07644463,0.0,
0.03443873,0.0,0.0,
-0.021365926,0.0,0.029226659,
0.0,-0.02115567,0.053723935,
0.039548807,0.0,0.07164061,
0.010234951,0.0,0.0,
0.030381959,0.064247936,0.031542294,
0.022602027,0.0,0.060111526,
0.0,0.016675603,-0.046067387,
0.0,0.0,-0.03718878,
0.0,0.0,-0.030618798,
0.030130485,-0.045107886,-0.056703396,
0.1025764,-0.10986532,-0.038508054,
0.08043085,-0.010947037,-0.040694837,
0.0,0.05082814,0.0,
-0.04917468,0.0,0.06041444,
-0.05840362,0.046302572,0.07422597,
0.0,-0.03597744,0.07605236,
-0.018043844,-0.061293732,0.04063496,
-0.065481074,-0.04887517,0.014787597,
-0.080080256,-0.034526818,0.053720497,
-0.06814229,0.013640183,0.01382796,
0.012531266,-0.08174136,-0.041265197,
-0.091299415,0.048964176,-0.044126667,
-0.08451333,0.019239515,-0.10928385,
-0.033959515,-0.01853001,-0.030899372,
-0.076618545,0.013990474,-0.063835375,
-0.04865273,0.0,-0.044021156,
0.0,0.0,-0.05501065,
0.046615176,-0.0136540355,0.052313853,
0.027455375,-0.020105468,0.078769326,
0.0,0.015522509,0.0749733,
0.0,-0.019986749,0.06504506,
0.024805563,0.052083433,-0.027473392,
-0.03853124,0.02757166,-0.10117261,
-0.022870593,0.014721446,-0.08895477,
0.0,0.03897402,-0.019049602,
0.026080355,0.03204262,0.022372859,
0.052817255,0.03979886,0.1018343,
-0.013175838,-0.0358151,0.08394534,
-0.024266753,-0.03613143,0.04113449,
0.022696929,-0.07547511,0.024448387,
0.0,-0.0530433,0.07377074,
0.07178284,-0.08803069,0.035173174,
0.045895535,-0.045078732,-0.043330267,
-0.0672326,-0.015554291,-0.040294237,
0.015339546,0.0,0.0,
0.0,0.0,-0.01304796,
0.0,-0.02112091,-0.03894505,
0.06880614,0.03420967,-0.022993358,
0.03786371,0.0,0.0,
0.012060677,0.038030658,0.02927306,
0.024299903,0.0,0.04839355,
0.03399122,0.029725874,0.017115649,
0.029834876,0.037212186,0.015570129,
-0.04216536,0.08019451,0.02533006,
-0.037399393,0.024800418,-0.03804406,
-0.016200349,0.0,-0.028708663,
0.016259069,0.0382956,0.050695997,
0.0,-0.029286545,0.03233583,
0.037464667,0.012817033,0.051083848,
0.020803794,0.05069046,0.0,
0.0,0.042367473,0.04601213,
0.061488,0.07943609,0.08342359,
0.029865658,-0.050024953,0.024478529,
-0.03254198,-0.011224668,0.034904107,
-0.020576803,-0.016420305,0.0,
0.050808348,-0.12656343,-0.062297888,
0.062984385,-0.10237782,0.0,
-0.01535099,-0.04122252,-0.037521414,
-0.09639078,0.036078855,-0.017932508,
-0.046475053,-0.012888853,0.033406418,
-0.10536239,0.05986491,0.05043823,
0.0,0.0,0.025672833,
0.030323278,-0.060361076,0.029202752,
-0.018494261,-0.08298262,0.051850338,
-0.05533876,-0.061795194,0.08017443,
-0.06816478,-0.08897131,0.0,
-0.023362176,-0.096520774,-0.013385498,
-0.1058497,-0.029288266,0.0,
-0.08509279,0.052778613,-0.034535814,
-0.032550074,0.035857424,-0.04796747,
-0.039484628,-0.039004635,-0.023728399,
-0.027627198,0.02537152,-0.046154957,
0.03224668,0.047262993,-0.020844007,
0.0,0.027132843,-0.013625648,
-0.010034734,0.024844166,0.077932574,
-0.040840644,-0.01754094,0.046916086,
0.0,0.0,0.07750262,
-0.06408544,0.047556933,-0.047977857,
0.0,0.0657104,-0.012998451,
0.0,0.033237904,-0.06532762,
-0.03473727,0.023007553,0.0,
-0.022551151,0.02156334,0.072855726,
0.053507358,0.0,0.07805428,
-0.044343136,-0.032060098,0.04049201,
-0.026892977,-0.049629085,0.029051976,
-0.02676647,-0.088230334,0.058486048,
0.01870836,-0.06929087,0.12127704,
0.0,-0.049163423,0.017938042,
0.0,-0.029721746,0.0,
-0.025117267,0.0,-0.025215894,
0.020428851,0.018948464,0.0,
0.0,0.055605095,-0.039068416,
0.0,0.033836283,-0.026648054,
0.020919058,0.025199385,0.0,
0.018004455,0.030929338,-0.041204143,
0.0,0.016707908,-0.013665244,
0.07425642,0.028213419,-0.019586317,
0.026997207,0.027083585,-0.018459562,
-0.011738344,-0.021260956,0.0,
-0.06713419,0.05309054,-0.04080358,
0.0,0.042418398,-0.06206804,
-0.043812912,0.03129128,-0.051450048,
0.0,0.011647113,0.010413911,
0.0,0.028003337,0.025018914,
-0.036290146,0.021731207,0.0,
-0.032563582,-0.018009556,0.029221145,
0.048811864,0.031066755,0.07586564,
0.052794363,0.06116378,0.078962356,
0.018857256,-0.02041301,0.0,
-0.015627183,0.0,0.0,
0.0,-0.023004252,0.0,
0.0,-0.100388974,-0.03587185,
0.039945398,-0.09907467,0.0,
0.0,-0.015752388,-0.021838965,
0.034861308,0.0,-0.041985802,
-0.03636882,0.013781292,-0.032925703,
-0.038943816,-0.010107753,0.029350653,
-0.014324998,0.03993077,0.0,
0.025726637,-0.046825096,-0.021107402,
0.0,-0.09165344,0.010455008,
0.01813679,-0.10512469,0.033477914,
-0.03781901,-0.08170744,0.024115484,
-0.027741622,-0.09326138,0.024210066,
-0.044664457,-0.041705757,-0.021207817,
-0.051225707,0.056175277,-0.03653856,
0.020259492,0.04090802,-0.011864288,
0.0,0.0,0.0,
0.0,-0.015727617,-0.04319607,
0.07175823,0.014512755,-0.04905037,
0.09004163,0.06252039,0.0,
0.0,0.019781325,0.0,
0.0,0.0,0.03430446,
-0.029152364,0.027829885,0.057103828,
0.0,0.035414238,0.026241329,
-0.031320717,0.026644884,0.012296958,
0.060300533,0.03612158,0.0,
0.060000785,0.0,0.043729573,
-0.028063502,-0.014056489,0.03748265,
0.0,-0.014372109,0.07233976,
-0.04233544,-0.0794062,0.042276807,
-0.07054938,-0.02014901,0.05319806,
-0.0698775,-0.024407594,0.0,
0.0,-0.044290207,0.09321368,
0.027952388,-0.049590662,0.04361178,
0.0,0.0,-0.020084132,
-0.020956997,-0.012727848,0.0,
0.0,0.0,-0.031583745,
-0.03412024,0.04988289,0.0,
0.0,0.030551953,0.0,
0.0,0.048629638,-0.028269593,
-0.019811733,-0.015837608,0.028882742,
0.036208272,0.0,0.0,
0.03236767,0.07225954,-0.025282623,
0.03799933,0.07914038,-0.061813936,
0.046921402,0.02642395,-0.01283076,
-0.038240958,0.059971035,-0.045868933,
-0.05635176,0.052559674,-0.034602642,
0.04296226,0.0,-0.05023878,
0.0,-0.03249675,0.0,
0.022804627,0.0,0.0,
0.04832164,0.03199635,0.054534055,
0.0,0.021318106,0.028376907,
0.055788245,0.070265174,0.037061505,
0.058674548,0.03610891,0.051951878,
-0.04769815,-0.08045597,0.03919461,
-0.056441173,0.0,-0.011859166,
0.024359414,-0.02368949,0.02259752,
0.03670956,-0.07609216,0.016391287,
0.03491522,-0.05766533,0.0,
0.038412724,-0.029523186,-0.010429065,
0.013089283,-0.023384554,-0.03765556,
0.0,0.021220645,-0.037785485,
-0.027707238,0.02686386,-0.034415986,
-0.071894504,0.022411013,-0.08867721,
-0.034706943,0.0,-0.018250737,
-0.02560148,-0.09091011,-0.018943759,
0.0,-0.07821908,-0.031134974,
0.0489365,-0.1449225,0.02827921,
0.0,-0.16589774,0.0,
-0.014262005,0.0,0.046158053,
0.0,0.02153575,0.030658305,
0.041153885,-0.02402226,0.045914616,
0.08779474,-0.032945756,-0.012832986,
0.042413514,-0.022101363,-0.01532802,
0.11171853,0.01450522,-0.050831713,
0.052365296,-0.020629793,-0.051301535,
0.0,0.0,-0.04350213,
0.016318627,0.027281787,0.06179455,
0.019924732,0.022992149,0.09010224,
0.0,-0.012411013,-0.010764788,
0.044934485,0.057804033,0.03290113,
0.057592828,0.05195322,0.035556957,
0.055027194,0.010138142,0.029462561,
0.01444144,0.0,0.044124134,
0.025184447,0.0,0.091809064,
-0.08769991,-0.034265015,0.07116428,
-0.08692006,0.068783484,-0.027551528,
-0.10923023,-0.010609005,0.020131566,
-0.022430224,0.015105887,0.06831058,
0.023664782,-0.026343726,0.025808845,
-0.02591175,-0.010244905,0.0,
0.026179006,0.018393673,-0.036642533,
0.011036369,-0.0118019,0.011183249,
0.0,0.0,0.0,
-0.033028662,0.050631482,0.0,
0.01312051,0.034709934,0.012880843,
0.024739625,-0.03632853,-0.01593473,
-0.025827842,-0.017403666,-0.03457391,
-0.011517337,0.0,-0.039533265,
0.0,0.06713593,-0.022599839,
-0.017716406,0.018802015,0.027861482,
-0.047123227,0.01794987,0.026903361,
-0.08226365,0.07956565,-0.027064316,
0.0,0.0,-0.034071606,
0.02004079,-0.041536413,0.0,
0.039985787,0.020523008,-0.02861627,
0.0,0.0,0.02757308,
0.063526094,0.011320446,0.0,
0.0889365,0.069195345,0.05425822,
0.046249468,0.086465016,0.063378654,
-0.02366502,-0.054535717,0.0774942,
-0.048561163,-0.036435965,-0.026951278,
0.0,-0.034581393,-0.027376337,
-0.051387347,-0.062664516,-0.011363031,
0.020787537,-0.09428037,0.017010566,
0.0,0.0,-0.035250347,
0.038914867,-0.01794203,-0.07277521,
0.0,0.0,0.0,
-0.033040296,0.0,-0.06898741,
-0.04341688,0.04771336,0.0,
-0.04691096,0.0,-0.054273073,
-0.04672733,-0.08064191,-0.044857044,
-0.019024193,-0.065649934,0.0,
0.0225345,-0.1775014,0.031587537,
-0.0106246425,-0.11773501,0.06500561,
0.0,0.0,0.015509845,
0.038767952,0.036393005,0.019728044,
0.13210173,0.0,0.03166005,
0.10014382,0.0,0.055154096,
0.049617007,0.029231695,-0.014778377,
0.04094748,0.03324337,-0.12124135,
-0.010876585,0.016837584,-0.07078278,
0.0,0.0,0.015652314,
-0.057278946,0.066245034,0.037598748,
-0.023611011,0.066322215,0.07157099,
0.012300403,0.09289125,0.014501821,
0.0,0.0,-0.031292196,
0.0668441,0.0,0.01216437,
0.04998898,-0.01581939,0.042210564,
0.036064785,-0.04363952,0.023172,
0.039095275,-0.019807424,0.041618295,
-0.014518897,-0.06975132,-0.017443143,
-0.08772455,-0.019797359,-0.06460306,
-0.033542633,0.025334569,0.0,
-0.031531308,0.0,0.03858153,
0.0,0.04967483,0.10040771,
0.050758306,-0.022250298,0.0,
-0.049261183,0.010988987,0.037107654,
0.024156129,0.0,0.06586911,
0.0,0.030813094,0.032453313,
0.057203397,0.0,0.0,
-0.012110946,0.0,-0.016928596,
0.028350677,0.0,-0.017820932,
0.0,-0.030378532,0.018588005,
-0.038465023,-0.011439064,-0.054180745,
-0.037708763,0.02807214,-0.016128452,
-0.0778566,0.01313175,-0.015350191,
0.04126669,0.0,0.0,
-0.038746458,0.06970813,0.03545601,
0.030703375,-0.04159819,-0.011720261,
0.036171753,-0.01063583,0.0,
0.01709617,-0.07297961,0.03857208,
0.026717143,-0.022757463,0.035895903,
0.0,0.039060567,0.025728952,
-0.011494888,0.04962899,0.019559287,
0.054601364,0.06998779,0.08742223,
0.011521959,-0.042561,0.01800868,
-0.051570058,-0.020196037,0.0,
-0.03500147,-0.030017085,0.0,
-0.010344385,-0.056339532,-0.012410366,
0.0,-0.06907319,-0.040030807,
-0.018076543,-0.057624128,-0.041731507,
0.01848419,0.0,0.0,
-0.054408483,-0.014036594,-0.037515707,
-0.01572031,0.0,-0.055625156,
-0.016798412,0.0,-0.10345015,
-0.0389452,0.03450421,0.0,
0.011489362,-0.04293561,-0.073678516,
-0.04210809,-0.07436215,-0.03661825,
0.0,-0.053292703,0.026169775,
-0.020541932,-0.11987543,0.07394682,
0.0,-0.017217245,0.028136484,
0.031385746,0.0,0.025885802,
0.038589463,0.018126702,-0.032713916,
0.0,-0.02561544,0.0,
0.0,0.0102488855,-0.010869181,
0.015609883,-0.020721234,-0.07405428,
0.0,0.033199333,-0.07195482,
-0.017146248,0.06578563,-0.015669683,
-0.061241604,0.018894894,0.0,
0.030137768,0.07340882,0.06621963,
-0.048871372,0.028084846,0.0496696,
-0.032474097,-0.041905437,0.020358419,
0.0,-0.08922199,0.020367445,
0.014275538,-0.04372128,0.033964664,
0.05552926,-0.026288217,0.046081807,
-0.02297532,0.05872776,0.0,
-0.03901112,-0.016531648,-0.060108054,
-0.049896557,0.012765087,-0.07277097,
-0.0782103,0.011305105,-0.055472676,
-0.09840871,0.07446527,0.013234006,
-0.035135437,0.047920715,0.03803787,
0.0,0.019643325,0.047104456,
-0.0357562,0.010196126,0.020863803,
-0.041954998,0.0,0.08021429,
0.032059867,-0.0261224,0.021582222,
-0.014325103,0.0,0.0,
-0.021520942,0.014317513,-0.030228851,
-0.017718641,0.0,0.0,
-0.08931664,0.0,-0.023760684,
-0.086510345,0.014636966,-0.035649236,
0.0,0.021610985,-0.053397972,
0.01896811,0.0,-0.03182895,
-0.02374752,0.0,0.01662501,
0.0,0.011471482,0.027431067,
0.01641236,-0.023568546,0.047581162,
-0.015057991,-0.043277018,0.0,
0.0,-0.031210637,0.07162065,
-0.024156736,-0.030403912,0.028858976,
0.0,0.061788164,0.0,
0.020903798,0.08008468,0.013772804,
0.0,0.101637684,0.039762393,
-0.033297893,-0.023052095,0.016604932,
0.037305687,-0.07154921,0.0,
-0.045377083,-0.01128356,0.0,
-0.012616927,-0.054290377,0.0,
0.023928996,-0.054656565,0.0,
0.025105,0.014038389,-0.0151948705,
0.0,0.02981048,-0.041688036,
0.032498304,0.0386649,-0.029518785,
0.0,0.01718999,-0.038622897,
-0.059038267,-0.016944291,-0.017627088,
-0.051343735,0.024394948,-0.06622036,
-0.03713363,0.0,-0.05376365,
0.0,-0.0252434,-0.057314105,
0.026956942,-0.09735925,0.05483915,
0.018666955,-0.07582921,0.028081294,
0.03587566,-0.019024486,-0.042326324,
0.012182577,0.031302765,0.015694495,
0.023366306,0.0,-0.014353886,
0.0,0.0,-0.021336392,
-0.0113912085,0.031087065,-0.01805758,
-0.016798247,0.026751118,-0.07537386,
-0.0126158735,0.0,-0.014532443,
-0.037241843,0.036021505,-0.05167915,
-0.03391729,0.08931767,0.0,
-0.033977807,0.017494245,0.105674945,
-0.042976424,-0.024030747,-0.012096221,
0.0,-0.06394654,0.0,
0.018486125,-0.06891364,-0.05291484,
0.0,-0.045853354,0.015118845,
0.022281345,-0.06582874,-0.011251939,
0.028839583,-0.012179308,-0.023289973,
-0.018275445,-0.03208699,-0.044749647,
-0.07835562,-0.018296316,-0.07840991,
-0.04427556,0.06388245,-0.03481342,
-0.08192446,0.025618326,0.0,
-0.05773312,0.0,0.049473576,
-0.07726963,0.03156828,0.012571172,
-0.084009424,-0.02188761,0.020918177,
0.0,-0.0135557875,0.03460148,
-0.05174745,0.04571059,0.026975775,
0.035901718,0.026165025,0.031201929,
-0.013431483,0.0,-0.046785794,
0.0,-0.061623644,0.0,
-0.031131355,-0.010643297,0.02265719,
-0.03195114,-0.041410405,0.0,
0.0,0.09003254,-0.07242445,
0.017648086,0.021598356,-0.019101195,
0.06203754,0.038208038,0.02936371,
-0.03737368,-0.022630397,0.072560966,
0.015215015,0.0,0.090596564,
0.0,-0.011482075,0.050744813,
-0.010445239,0.032075237,0.046103925,
-0.03559184,0.0,0.036648896,
0.0,0.0,0.0,
-0.017930573,0.040251873,0.013211499,
0.0,0.06440435,0.034252875,
0.0,-0.044728823,0.0,
0.0,-0.080329716,0.033080567,
0.03933074,-0.05226553,0.02090326,
-0.075307466,-0.056312352,-0.015838718,
0.09525293,-0.059692986,0.012127004,
0.029909171,-0.021217575,-0.045920223,
0.030763827,0.0,-0.029395852,
0.0631076,-0.017037805,-0.046207808,
0.04241615,-0.014528816,0.0,
-0.06276863,-0.021629633,-0.018121667,
0.019607108,0.012824394,-0.054407112,
-0.038228568,0.07385296,-0.053023327,
0.0,0.035124406,0.0,
0.06465908,-0.05930062,0.0,
0.0,-0.07803012,-0.01369258,
-0.024510458,0.0,0.0,
-0.03257515,0.05093709,-0.026188424,
-0.054024037,0.037623234,-0.05491629,
-0.039353445,0.04367969,-0.040351048,
-0.0853526,0.0,-0.025859263,
-0.048260603,0.0,0.0,
-0.037571814,0.043580234,-0.04973746,
-0.14426334,0.0,-0.011844287,
-0.1373915,0.032429323,0.032853637,
-0.06133682,0.05454089,0.032991778,
-0.07885325,0.027477562,0.0,
0.02027246,0.0,-0.013771602,
-0.023277042,-0.02427639,-0.066011414,
-0.03819,0.0171463,-0.0404196,
0.0,-0.021337803,-0.015968192,
0.045430493,-0.0129226735,-0.087520085,
0.028382823,0.0,-0.059931055,
-0.03161201,-0.013294182,-0.07433224,
-0.060448263,0.014220356,-0.03235065,
-0.067381375,0.030975303,-0.0159589,
-0.087152936,-0.0141325565,-0.024289684,
-0.04918456,0.01675364,0.0,
-0.044678863,0.05812302,-0.057677828,
0.0,-0.019899383,-0.0340742,
-0.013844988,0.0140690245,-0.024537878,
0.0,-0.03363253,0.015480851,
0.0,-0.032235634,0.0,
0.0,-0.071725406,0.045978922,
-0.03600435,-0.04418626,-0.034825653,
-0.07912066,0.021201426,-0.03253871,
0.0,0.019836029,-0.037856497,
0.0307172,0.051954776,-0.019377029,
0.0,0.019213567,0.046595164,
0.0,0.065807074,0.09880164,
0.0,0.048080914,0.03431682,
0.017928198,0.07345371,0.040859472,
-0.013402939,0.026200186,0.031055793,
0.03183591,-0.011230567,0.029311448,
0.0,0.032813676,0.014578739,
0.011268787,0.08336277,0.028394898,
0.0,0.05369999,0.06324044,
-0.014137019,-0.023220439,0.0,
0.022695294,-0.038089808,0.04848315,
0.0,-0.025979795,-0.03035493,
-0.014563619,-0.025475178,0.016976068,
0.038702708,0.0,-0.028332831,
0.035842672,-0.040925853,-0.05414493,
0.07984621,0.0,-0.07299465,
0.05025747,0.04610042,0.011525923,
0.03326832,-0.01086496,0.0,
0.0,0.013453772,0.023831593,
0.018967684,0.028328722,-0.016411245,
-0.027909586,0.049988244,0.01503095,
-0.029253112,0.064552024,-0.023943167,
-0.018436097,0.011723058,-0.07409271,
0.028243965,0.0,0.0146501595,
-0.042598907,0.03275867,-0.066951714,
-0.058101293,-0.01912716,-0.094024785,
-0.029968807,0.031234406,-0.08655371,
-0.07414715,0.0,0.0,
-0.050219495,0.062377375,-0.011780943,
-0.024723489,0.0,0.013281786,
-0.05693187,0.0,0.013455564,
-0.15202077,0.047887076,-0.03925255,
-0.09558299,0.05180022,-0.015327619,
-0.016757177,0.044898827,0.035162453,
0.018729096,0.045796122,0.02061741,
-0.051552325,0.03498636,-0.056434352,
-0.040103238,-0.08766631,-0.06530323,
-0.012897206,-0.058033455,-0.11298815,
-0.022061381,-0.045697134,-0.05772823,
0.029726911,-0.045965105,-0.048751105,
-0.02138767,-0.038226057,0.013713766,
0.0,-0.03148977,-0.018008832,
-0.04330195,-0.03163481,-0.09323477,
-0.040084403,0.032926667,-0.05227794,
-0.09623175,0.013709644,0.046839144,
-0.031327497,-0.050873064,-0.042822145,
-0.046762023,0.035616215,0.012862865,
-0.035371594,0.0,0.038852777,
0.024385395,0.0,0.0,
0.026509827,0.0,-0.019266231,
0.02975536,0.0,0.036720645,
-0.019311413,0.0,0.0,
0.0,0.030090181,0.0,
-0.028285643,0.0,-0.013561917,
0.02030363,-0.014364425,-0.039469488,
0.045540396,-0.01607221,-0.043877184,
0.0,0.0142710395,0.0,
-0.024838185,-0.016511489,0.056472838,
0.015188379,0.014432103,0.03421425,
-0.030201243,0.08634607,0.02288964,
-0.035849623,0.03454927,0.0,
0.0,0.0,-0.014114238,
0.041058496,0.0,-0.07239288,
0.04483533,0.08591589,0.056994487,
-0.03212786,0.0511736,0.0,
0.0,-0.042779766,0.04125585,
-0.04136741,-0.04301002,0.016706232,
0.011154172,-0.03944761,0.0,
-0.06770318,-0.033855986,0.03824564,
-0.039494764,-0.039690644,-0.047444105,
0.02988663,0.0,-0.07126912,
0.016346017,0.027957037,-0.045160998,
0.027388819,0.0,0.015631657,
0.0,0.030709576,0.04376534,
0.025091587,-0.029903071,0.046754405,
0.019598871,0.026375314,0.0,
0.070127726,0.044556394,-0.015217851,
0.06741122,0.05232588,0.0,
0.0,-0.023618577,0.0,
0.012613512,0.0,-0.0108837215,
0.0,-0.03708243,-0.04300458,
0.0,0.059699442,-0.05317588,
0.02420353,0.052786708,-0.026525445,
0.0,0.02165631,-0.058265697,
0.013072306,-0.0122028375,0.0,
-0.091376364,0.0,0.04858608,
0.0,-0.016302884,0.0,
-0.07283863,0.011920474,-0.053279545,
-0.05026652,0.06296408,-0.017140053,
0.015532726,0.037237212,0.023077391,
0.023043273,0.046678137,-0.010073606,
0.014828316,0.0,-0.052586768,
-0.04321904,-0.06959087,-0.07720144,
0.0274543,-0.07267414,-0.056983214,
0.03406836,-0.05680534,-0.07844778,
0.08069968,0.0,-0.036812518,
0.039285902,-0.020802556,-0.010665558,
0.043625046,0.027861463,0.0,
0.025796663,0.029145507,0.032678578,
0.055664215,-0.067723066,0.0,
0.018805917,-0.043486267,0.04988136,
-0.0587239,0.07049297,0.018683402,
-0.041513566,0.029903522,-0.04572267,
-0.015260113,-0.049702752,0.0,
0.0,0.0,0.019787353,
0.0,0.0,0.020490294,
0.014419293,-0.044747487,-0.016369576,
0.02151272,-0.041541703,0.020353546,
0.0,-0.031270392,0.0,
-0.020986801,0.01308547,0.0,
0.03811676,0.0,-0.037891272,
0.12446035,0.0,-0.01268058,
0.015867576,-0.03453617,0.032550994,
-0.038623285,0.054870497,0.043448057,
0.0,0.09056814,0.05052675,
0.020639658,0.075701125,0.063431025,
0.0,0.1226961,-0.054835632,
0.0,0.01536287,0.0,
0.0,-0.011664502,-0.023018694,
0.0,0.025969474,0.0,
0.0108175045,0.12239921,0.0,
0.03463726,-0.051958226,0.04492164,
-0.026879866,-0.059672818,0.02557631,
0.0,-0.056827154,0.0,
-0.048942473,0.019848563,-0.03811677,
-0.04818719,-0.013450246,-0.050100464,
0.014670408,0.0,-0.0840921,
0.07865425,0.0,-0.08463994,
0.044966538,0.019899437,0.0,
0.02399378,0.0,0.018397482,
-0.022119489,0.0,0.059620336,
0.0,0.027133983,0.034919232,
0.08598276,0.047827434,0.03031511,
0.023103593,0.021057919,0.04434091,
0.04134204,-0.03751392,0.062140066,
0.048113387,0.0,0.0,
0.0,-0.018008208,-0.045427725,
0.020608028,-0.017334267,-0.025568549,
0.013852912,-0.018509116,0.019214444,
0.03258934,0.037401102,-0.011116469,
0.08112876,-0.057947237,0.01314368,
0.041840088,-0.037534427,-0.016408162,
0.036690943,-0.015043535,0.022221172,
-0.05650907,-0.013158402,-0.07512817,
0.0,0.035755,-0.076307096,
0.057986133,0.0,0.019676443,
0.086559825,0.0,0.0,
0.04038357,0.013540451,0.0,
0.07545155,-0.061826732,-0.06700664,
0.08950036,-0.117717184,-0.06074015,
0.10484478,-0.038522948,-0.058122084,
0.06726001,-0.019650389,0.0,
0.057635393,0.0,0.0,
-0.017917002,0.012491385,0.10321067,
0.019703833,-0.022183701,0.051213674,
-0.03187497,-0.05491996,0.0718633,
-0.01700804,0.0,0.0,
-0.03069342,0.0419233,0.0,
-0.054836325,0.0,-0.07120326,
0.030225735,0.02982124,0.0,
0.0,-0.053843707,0.013612254,
0.02590077,0.0,-0.043065347,
0.019208565,-0.037156895,0.019653484,
0.114058256,-0.024786185,0.0,
0.03188376,-0.036374237,0.0,
0.035843384,-0.03412154,-0.07455916,
0.058807444,0.0,-0.038761243,
0.08166139,-0.014925102,-0.029630268,
0.0,-0.03741793,-0.030689932,
-0.01744628,0.055310793,0.07496968,
0.0,0.018515585,0.03297362,
0.0,0.072175935,0.014182847,
0.0,0.06991955,-0.029003538,
0.031475414,0.034959115,0.0,
0.03734412,0.030614803,-0.058718905,
0.0,0.054488122,-0.018060932,
0.028021429,0.05868155,0.028493963,
0.0,-0.036922265,0.029950762,
-0.019165887,-0.04541472,-0.017679993,
-0.06853106,-0.011476093,0.0,
-0.054297857,0.02457146,0.024405204,
-0.0672027,-0.041491188,0.012984056,
-0.057755057,-0.055248544,-0.049090717,
0.0,0.026353775,-0.030698588,
0.01708171,0.023232106,-0.04884479,
-0.012142866,-0.023174265,0.05300125,
0.0,-0.032665662,0.0,
0.0231657,0.0,0.0,
0.040640004,0.0,0.013928012,
0.03985209,0.0,-0.03818145,
0.0,-0.01858225,-0.026960405,
0.0,-0.03439127,0.010420843,
0.0,-0.043122787,-0.017295763,
0.024711024,-0.029317824,-0.04743864,
0.03179324,0.0,-0.044867452,
0.0,0.0,0.0,
0.0,-0.053011477,-0.023056386,
0.079806566,-0.01354748,0.011926571,
0.06477563,0.055261716,-0.013330637,
-0.018404834,0.0,-0.03718253,
0.022328287,0.0,-0.0767391,
0.025098559,-0.018024636,0.0,
0.05560417,-0.05212623,0.05627448,
0.061131455,-0.070664756,0.05068525,
0.027923368,-0.03653366,-0.042907648,
0.05402953,-0.053843014,-0.023764031,
0.077974394,-0.057530288,0.0,
0.090039276,-0.01995418,-0.038416933,
0.03145105,0.025719948,0.08913649,
0.018547665,-0.016719237,0.051850162,
-0.027229685,0.04156686,0.13969319,
0.01663051,-0.010142989,0.024484491,
-0.011450437,-0.042924445,0.015800731,
0.0,0.036372956,-0.013370444,
0.0,0.03114151,0.0,
0.045114815,0.03360809,0.0,
0.0323232,0.0,0.030659901,
-0.021669108,0.0,-0.054128353,
0.050830055,-0.06819974,0.0,
0.0,-0.023759186,0.022060258,
0.08369842,-0.06304329,-0.013638654,
0.010240826,-0.019672876,-0.028425373,
0.111804694,0.02126914,-0.032398358,
0.06273806,-0.022694172,-0.0106952535,
0.014045061,0.040004,0.033592146,
-0.028805872,0.0,0.026784997,
-0.018504191,0.03592534,0.056376453,
0.0,0.015637407,0.046736173,
-0.07196878,-0.0239812,-0.010608299,
0.022319537,-0.031242838,0.07080624,
-0.035006873,0.014416783,0.0,
-0.03379902,0.032112647,-0.030191984,
0.041685935,0.1004232,-0.019468706,
-0.05716114,-0.018996224,0.0,
-0.05372101,-0.0262051,0.055183925,
-0.047362704,0.018843649,0.0,
-0.07673354,0.039135672,0.058150116,
-0.067534134,-0.04640325,-0.019584093,
-0.024177803,0.0,-0.015227803,
-0.036733292,0.0,-0.017147452,
-0.021449769,-0.013508107,-0.015177044,
-0.014073541,0.015718577,0.0,
0.03889737,-0.011053513,-0.037389874,
0.07931435,0.015858745,-0.015849326,
0.08926066,0.0,0.0,
0.053954206,-0.039178748,0.037955858,
0.0,0.0,-0.04408964,
0.0,-0.050203502,0.054467693,
-0.014625641,0.0,-0.040413078,
-0.041983936,0.021925505,-0.025658624,
-0.02858068,-0.06698425,-0.024751136,
0.023366177,-0.01087112,0.0,
0.05374347,-0.032503795,-0.029172627,
0.05252933,-0.04792186,-0.039133575,
0.0888193,-0.014853297,-0.024081016,
0.015094768,0.0,-0.0725321,
0.036894653,0.049056612,-0.051172007,
0.03651337,-0.030274998,0.015495524,
0.028369177,-0.016685931,0.016199898,
0.03778756,-0.03846718,0.0,
-0.028269505,-0.06452946,0.0,
0.03153351,-0.040655196,-0.011349461,
0.053087674,-0.03326486,-0.027817696,
0.011456233,0.0,0.030021023,
0.023520324,0.0145143,0.10522865,
-0.090755396,0.01672131,0.08614896,
-0.040869385,0.0,0.081009485,
0.023693744,-0.0764651,0.06530507,
0.0,-0.08109976,0.048535425,
0.0,-0.035954725,0.029311854,
0.021853162,-0.0131206205,0.012471314,
0.038395695,-0.011934181,0.026941646,
0.02157855,-0.024620598,0.0,
0.07470078,-0.06863351,0.0,
0.0,-0.047568507,-0.04233435,
0.0,-0.08198573,-0.04237221,
0.0,-0.042315207,-0.03381526,
0.018744987,0.0,0.011442153,
0.016412007,0.02131185,0.0,
0.03594965,0.018398171,-0.017784826,
-0.01747313,-0.022313498,0.023547236,
0.014013225,-0.05135244,0.06332606,
-0.018705843,0.020160178,0.049038745,
0.024174025,-0.013441713,0.013625476,
0.0,-0.020485088,0.018214,
-0.01790612,0.0,0.061357766,
-0.025330717,0.0165063,0.041619185,
0.0,-0.022199418,-0.043988317,
0.0,0.0,-0.021232052,
-0.07600118,0.015150154,0.013664216,
0.012608736,0.0,0.014340773,
-0.077217326,-0.07144869,0.050636925,
-0.028235579,-0.011512273,0.0,
-0.07068983,-0.032038324,0.0,
0.016552024,-0.05467134,-0.015272981,
-0.114441834,-0.035192553,-0.04786424,
-0.0771187,-0.03378605,-0.022232657,
0.01955871,-0.035576798,0.0,
-0.014908798,-0.016988376,-0.011062828,
0.089020886,-0.021300433,-0.019116433,
0.079477206,0.0,0.013123761,
0.05783652,0.0,0.05823242,
0.03605401,-0.01028373,0.0,
0.030702177,0.010311134,0.0,
-0.010015338,0.0,-0.015764296,
-0.048143018,0.0,-0.052816447,
-0.034520995,-0.021894937,-0.08197785,
0.0,-0.017778475,0.0,
0.0,0.0,-0.046715036,
0.0,-0.034350302,0.019438922,
0.0836882,-0.041213393,-0.024597758,
0.0,0.02363175,0.0,
0.018954197,0.0,0.0,
0.0,0.0,-0.058977153,
0.029146675,0.0,0.0,
0.028670948,-0.05839593,0.057411887,
0.0,-0.08718285,0.0,
0.03894244,-0.05833438,-0.03289084,
0.06970911,-0.04394047,-0.0109332185,
0.0,-0.083394036,0.03812004,
-0.036094703,0.06565228,0.05507975,
-0.034407917,0.08692166,0.07164227,
-0.0428551,0.040775213,0.106824,
0.023587931,-0.010203469,0.06673726,
-0.012247599,-0.07376263,0.0147487465,
-0.010742749,-0.057301752,0.019660253,
0.010840401,0.0,0.02707425,
-0.0114017,0.058260195,-0.02997422,
0.06871267,-0.041303754,-0.036892653,
0.094303034,-0.029849997,-0.020862103,
0.04049834,-0.02491513,-0.074593686,
0.0,-0.12310211,-0.024331411,
-0.01894984,-0.037602637,-0.059630066,
-0.08770003,-0.01669744,-0.0151537275,
0.013522217,0.0,-0.012032852,
0.052514404,0.0,-0.05674636,
-0.0167481,-0.029750094,0.015386266,
-0.0125868805,-0.025272131,0.06245727,
0.0,0.0,0.053655356,
-0.07111331,-0.027268473,0.030198371,
-0.0627737,-0.031357955,0.0,
-0.0506349,-0.066738285,0.0,
-0.061552566,0.028809518,0.033732504,
0.064871386,0.0,0.044378307,
0.05713688,0.0,0.0,
-0.052435577,0.023195356,0.023239344,
-0.019658653,0.0,0.070335194,
0.015446128,-0.01975211,0.04992841,
-0.024331413,0.0,0.09032675,
0.0,-0.073221944,-0.030128336,
-0.021070542,0.02260643,0.036967427,
0.028481584,0.028999316,-0.027240552,
-0.02738297,0.0,-0.071351305,
0.07257912,0.0,0.011016429,
0.01564919,0.0132446885,0.038728107,
0.07667766,0.0,0.02004477,
0.0997081,0.0,0.03076579,
0.081888124,0.0,-0.011313149,
0.026309978,0.02739753,-0.010383259,
0.0,0.028107135,0.0,
-0.053687476,0.0,-0.013804137,
-0.03368036,0.025055561,-0.025344195,
-0.027737783,0.0,-0.056398943,
-0.07372,0.0,-0.042296335,
0.0,-0.01738459,-0.06959169,
-0.028730083,0.038059954,-0.03987171,
-0.03219002,0.0,0.0,
0.0,0.011106987,0.029722346,
-0.013698151,0.030225402,0.0151744215,
-0.048958503,0.0,-0.018358488,
0.0,-0.036776856,0.0,
-0.014319611,-0.045647956,0.010684666,
0.043711815,-0.09399677,0.0,
0.08949653,-0.058929473,-0.04141479,
0.1110388,-0.03053421,-0.025305336,
0.011409327,0.0,0.010023496,
0.031257886,0.02992513,0.041246183,
-0.046370286,0.061645076,0.0670192,
-0.07024317,0.025601508,0.05772108,
-0.052307285,-0.06671845,0.0512155,
-0.05429382,-0.016388385,0.0,
-0.0108459545,-0.08391669,0.0,
-0.06230017,-0.015172305,-0.076193266,
0.020302674,0.041468192,0.0,
0.030648623,-0.040373642,-0.011517278,
0.03532043,-0.05345035,-0.053877518,
0.017083222,-0.085102916,-0.09526625,
-0.037572976,-0.046322793,-0.0874533,
-0.065944545,-0.025304597,-0.04098356,
0.027906107,-0.015150142,-0.011522842,
0.0,0.0,0.0,
0.0,-0.03095823,0.0,
-0.026287887,-0.0126867,-0.0114223715,
-0.016466746,-0.026167387,0.043416876,
0.013850394,-0.043162536,0.08241763,
-0.05767992,-0.030134011,0.0110919345,
-0.076212294,-0.043388408,0.0,
-0.13916367,-0.06411683,0.0,
-0.050251804,-0.037694667,0.01750969,
-0.021376077,-0.07191806,0.018350523,
0.042194195,-0.022950636,0.0,
0.029489448,0.030065903,0.031220514,
0.023529558,0.03567557,0.0,
-0.031690292,-0.058854,0.053551614,
0.0,-0.06622248,-0.025461389,
-0.04666855,-0.014435848,0.0,
0.0,-0.022941744,0.0,
-0.015822614,-0.040865943,-0.027214516,
-0.012039812,-0.03247696,-0.04275078,
0.026656087,0.037498187,0.0,
0.037177064,0.043104548,-0.018551053,
0.10209684,0.0602589,0.015446046,
0.10635591,0.03567318,0.05140035,
0.06924494,0.09173871,-0.05027291,
0.04202602,0.09410054,0.0,
0.01651793,0.06584794,-0.039786413,
0.040249582,0.0,-0.02966242,
0.0,0.056064118,-0.035067372,
0.01567704,0.0,-0.048624907,
0.0,0.0,-0.051121455,
-0.07634685,0.024290811,0.01251836,
-0.034627892,0.0,0.0,
-0.04555243,-0.0116874,0.046785574,
-0.037556272,0.011700887,0.03175793,
-0.054003924,-0.045201633,0.04310374,
-0.05647338,0.012590133,0.0,
-0.06220628,-0.032692354,0.033711337,
-0.014728845,-0.042756855,-0.027988648,
0.071767345,-0.05292646,-0.0397352,
0.13454036,0.0,-0.058186635,
0.13445093,-0.06034379,-0.011064047,
0.03915162,0.0,0.014732269,
-0.077507675,0.01792671,0.0,
-0.046462763,0.084424414,0.07993995,
-0.049019903,0.032678466,-0.010162296,
-0.06197504,0.0,0.022623781,
-0.022343522,-0.026734786,0.014709984,
-0.056281693,-0.049486276,-0.031224191,
-0.06772422,-0.03458418,0.010450593,
0.0,0.044697646,-0.035642687,
0.0,-0.05079322,-0.07113827,
0.04202257,-0.08459486,-0.085107714,
0.0,-0.053930763,-0.030030428,
-0.054691408,-0.052287802,-0.03576182,
-0.03433285,-0.013937724,-0.04187491,
-0.017210081,0.02519737,0.0,
-0.018736206,0.0,-0.044681367,
0.0,0.016970634,0.0,
-0.03931904,-0.02176567,0.0239545,
-0.04277828,-0.050440412,0.08530378,
-0.0548079,0.0,0.07659114,
-0.07312152,-0.03918564,0.0,
-0.11836336,-0.07306489,-0.025661433,
-0.077378735,-0.053096022,0.043533616,
-0.07511451,-0.012127048,0.013112927,
0.0,0.0348233,0.027417311,
0.10346659,-0.015851554,0.0,
0.04571179,0.056576412,0.017150799,
0.0130991405,0.0,0.029977733,
-0.02095614,-0.07790546,0.010728178,
-0.031054374,-0.040264256,0.0,
-0.04795034,-0.083551005,-0.039709076,
-0.0459905,-0.09870102,0.037008155,
-0.035524473,-0.077711105,-0.015880497,
-0.022585617,-0.029058246,-0.041138325,
0.0,0.0,0.0,
0.0,0.03593542,-0.030741569,
0.0642525,0.07726389,0.0,
0.056177255,0.060319625,0.024480652,
0.0,0.048759207,0.025859429,
0.025924293,0.06824645,-0.03395691,
0.032863542,0.09885985,-0.05300769,
0.02772426,0.044748396,-0.02204251,
0.055146758,0.02333329,0.014893534,
0.06314229,0.012099782,0.011147072,
0.0,0.0,0.0,
-0.05161572,0.0,0.021438656,
-0.06417775,0.0,0.0,
-0.055437207,-0.014210114,0.06000165,
-0.08702483,0.0,0.027913783,
-0.050834436,0.035968293,0.0,
-0.018924884,0.0299945,0.01611853,
0.0,0.03118987,0.0,
-0.019710984,0.016571084,-0.020611836,
0.018425917,-0.056846462,0.0,
0.078603454,-0.012611608,-0.021406561,
0.12122286,0.0,0.08023279,
-0.03709392,0.019257022,0.03800633,
0.0,0.041249588,0.02763467,
-0.05344211,0.014415833,0.05574414,
-0.04640019,0.011315477,0.01794831,
-0.06566549,0.011705568,0.020484176,
-0.06868435,0.0,0.0,
-0.037078403,0.030317172,0.045461413,
-0.051463634,0.012109398,0.011592216,
-0.018574372,0.0,-0.030728333,
0.019240791,-0.04046456,-0.08882072,
0.046386935,-0.062152583,-0.0723219,
-0.012325808,-0.056819145,-0.030350268,
-0.062100537,-0.057979677,-0.054871503,
-0.04593313,-0.019471036,-0.06520466,
-0.029272411,-0.021322109,0.0,
-0.037598837,-0.043519303,-0.021861978,
-0.02476104,-0.023117106,0.049225107,
-0.044014618,-0.03383782,0.042291522,
-0.011282478,-0.06318187,0.06816341,
-0.0440538,-0.02067963,0.025110688,
-0.06861671,0.0,0.022699451,
-0.047582112,-0.04808173,0.013178639,
-0.08410865,-0.06365053,0.0,
-0.025732312,-0.018632209,0.0,
0.031856064,-0.01919424,-0.025649147,
0.064220585,0.0154278455,0.01498201,
0.050231617,0.023465833,0.026881091,
0.042199515,0.0,0.020880347,
-0.04808266,-0.05139136,-0.04130854,
0.0,0.010773918,-0.029220052,
0.015767733,-0.03481116,0.0,
-0.014508459,-0.06517922,0.039866474,
-0.01096691,-0.04920303,-0.022011451,
-0.023369545,0.019494712,-0.034686647,
-0.03620662,0.025813438,0.0,
-0.011417648,0.057273578,0.017227927,
0.0,0.1204676,-0.018084355,
0.028050628,0.029809358,-0.011323163,
0.014528598,0.07656609,0.0,
-0.012828148,0.11322007,-0.041934572,
0.0,0.06422608,-0.06437174,
0.010631575,0.1004054,-0.023897555,
0.023609247,0.019012151,0.012497986,
0.06125317,-0.025939146,0.031457193,
0.0,-0.031107826,0.03637049,
-0.03918031,-0.0750505,0.03275343,
-0.04122192,0.02886994,0.021395689,
-0.08025422,-0.045694586,0.07139944,
-0.10275255,0.05074554,0.06684833,
0.0,0.034511335,0.018755829,
-0.057392847,0.049924847,-0.012855382,
-0.040705014,0.04914527,-0.03328404,
0.0,-0.021012336,0.032899685,
-0.06750376,-0.07383376,0.023800433,
0.0113763865,0.0,0.041116767,
0.043248124,0.011346165,0.0,
0.0,0.07038696,0.033364076,
-0.035786074,0.0,0.018689092,
-0.06598508,0.03300757,0.03338362,
-0.042924393,-0.021345424,0.05220506,
-0.0760334,-0.028150616,0.0,
-0.09350433,0.05601939,0.049311154,
-0.08915279,0.031345744,0.02892987,
-0.05238226,0.04945435,0.043109443,
-0.034881905,0.0,-0.05055085,
0.0,-0.032910183,-0.06567034,
0.059536796,-0.12208343,-0.10977489,
-0.028851762,-0.034332097,-0.037419766,
-0.021675395,-0.03903968,-0.037461225,
-0.012469643,0.0,-0.02247116,
-0.02840052,-0.015258627,0.0,
-0.022876682,-0.041296836,-0.01999442,
-0.043562837,0.0,0.10585934,
-0.030896192,-0.086871125,0.0,
-0.026297135,0.0,0.0380696,
-0.021225419,-0.026170887,0.026633061,
-0.02156521,-0.062356986,-0.07226075,
0.0,0.0,-0.057829358,
-0.040624425,-0.03730871,-0.03527566,
-0.04175946,-0.042048365,-0.039497193,
0.024246274,-0.02494963,-0.041727476,
0.038807463,0.026778964,-0.033666346,
0.020798748,0.0,0.0,
0.0,0.01459722,-0.018121865,
-0.03720196,0.017766044,-0.025611177,
-0.06337329,-0.05305246,0.0,
0.014090433,-0.049614392,0.039899867,
-0.038137924,-0.015767489,0.017072314,
0.010137446,-0.03808541,-0.033545434,
-0.070961766,0.015880154,0.0107558705,
-0.028265037,0.050001863,-0.07821178,
-0.020213753,0.030874819,0.022312826,
0.044835903,0.10866397,0.030114606,
-0.033066295,0.1268941,0.01315242,
0.0,0.088892184,0.0,
-0.046374664,0.10374953,-0.038753074,
0.013040274,0.041541316,-0.010896627,
0.046718013,0.08800347,0.0,
0.0532763,0.020695295,0.010240718,
0.074714825,0.0,-0.023040032,
0.0,-0.05385792,0.0755478,
0.0,-0.015295646,0.08618617,
-0.071207,-0.04313091,0.07871688,
-0.07111928,-0.016897863,0.10438307,
-0.060960654,0.010186731,0.05176753,
0.0,0.014665198,0.0,
0.0,0.022361392,0.017897744,
-0.11371501,0.017225819,0.010420538,
-0.03053556,-0.02810668,0.01616478,
-0.053968396,0.036561467,0.06637909,
0.0,0.05731768,-0.010337096,
0.010029851,0.07083841,-0.020214109,
0.0,0.035915524,0.048507355,
-0.056824744,0.0,0.08066024,
-0.018636335,-0.023759563,0.12556459,
-0.06267389,0.0,0.04956139,
-0.10811731,0.01251382,-0.013895714,
-0.047473192,0.020723991,0.107049696,
-0.05695247,0.061849706,0.05292672,
-0.033768363,-0.010294275,0.0,
0.034653645,0.0,-0.020593047,
0.0,-0.07687406,-0.017008116,
0.0318218,-0.046883315,-0.021095462,
0.0,-0.06525676,-0.09637502,
-0.03200067,-0.031522285,-0.02143047,
0.02070455,0.0,-0.010703034,
0.0,0.0,0.020948708,
0.02337674,0.015298897,0.0,
0.0,-0.012976792,0.0295792,
-0.050898805,-0.039594535,0.0,
-0.032105006,0.0,0.02498318,
-0.052074373,0.011972465,0.0,
0.0,-0.062079772,0.029960323,
0.012400712,0.0,0.0,
0.016099678,-0.08170249,-0.0502054,
-0.04752989,-0.039033424,-0.024589477,
0.03281436,0.022281216,-0.037662067,
0.04034587,0.014753265,-0.039757557,
0.02605602,-0.0398364,0.015453973,
-0.03601113,-0.042017944,-0.027605178,
-0.03239848,-0.03749626,-0.03312245,
-0.01660056,-0.021762155,-0.012655319,
-0.08365077,-0.056142606,-0.01938752,
-0.07152946,-0.088184796,-0.02256782,
-0.059688933,0.0146232685,0.015234571,
-0.052949607,0.021463944,-0.05103222,
-0.052161314,0.013628645,0.022595307,
-0.0792898,0.08417236,0.031327303,
0.0,0.07523131,0.01366398,
0.0,0.06719698,0.026140613,
-0.013645123,0.05903362,-0.047848947,
-0.012979306,0.07437991,-0.020236531,
0.0,0.07269803,0.03731331,
0.019249411,0.121033505,0.03529754,
0.07933839,0.027518883,0.0,
0.07121992,0.0,0.013090283,
0.0,-0.06421001,0.052810054,
0.0,-0.037634324,0.04117462,
-0.030249743,-0.08727479,0.1095751,
-0.09710449,-0.048099212,0.067922525,
-0.060958847,-0.030519253,0.085179105,
0.023902461,0.022509841,0.061939254,
0.02067081,0.04101933,-0.014013073,
-0.09194446,0.10048783,0.015741985,
-0.031563833,0.040771715,0.013416825,
-0.048526913,0.017954644,0.0,
0.0115577085,-0.039018378,-0.0198715,
-0.028294275,0.07472108,0.013251442,
-0.028168181,0.05004378,0.06420187,
-0.12630154,-0.010526692,0.049534537,
-0.054732323,0.0,0.027284125,
-0.051593017,0.050567694,0.037658565,
-0.018870287,0.0,0.05742206,
-0.053770527,0.07325429,0.04633232,
-0.011460352,0.0781892,0.053426627,
0.0,0.02884133,0.010908518,
0.060395658,0.0419963,-0.016166825,
0.024908658,-0.027742654,-0.048445083,
0.030634617,-0.032654293,-0.050342444,
0.015514049,-0.04971671,-0.05511555,
0.017664367,0.027986525,-0.012846859,
0.0,0.0,-0.030797863,
-0.051022336,0.0,0.0,
0.0,0.025445485,0.020116266,
0.0640701,-0.02542537,0.0,
0.02966186,-0.088684775,0.03466656,
0.03606613,-0.052891936,0.016057206,
0.0,0.050765675,0.044335037,
0.0,0.0,0.0,
-0.020491878,-0.020772178,0.0,
0.06465814,-0.042040497,0.03185254,
-0.030513972,0.0,-0.027976757,
0.0,-0.027717939,-0.070410855,
0.0,-0.012318379,-0.049551286,
0.046339445,0.023836626,-0.039427534,
-0.0304352,0.0,-0.05596654,
-0.018860266,0.0,-0.07454663,
-0.07411457,-0.056440298,-0.05180779,
-0.02990039,-0.025271913,-0.037959523,
-0.07238898,-0.052975986,-0.043529395,
-0.03502142,0.0,-0.025537042,
-0.100868,0.09879059,0.0,
-0.0958195,0.032447986,0.0,
-0.053810194,0.027015364,0.013767142,
-0.020905694,0.048840605,0.021777185,
-0.032614615,0.0,0.0,
-0.06500723,0.033837628,0.0,
-0.034054235,0.08807995,0.0,
-0.022761464,0.08940513,0.04305806,
0.044722013,0.022601098,0.049842328,
0.10988103,0.038151354,0.0,
0.05866009,0.0,-0.018252144,
0.012395493,-0.032177866,0.0,
-0.033697374,-0.058061756,0.0,
-0.10045797,-0.045979913,0.0,
-0.0781733,-0.03245301,0.018948302,
-0.09174011,-0.05050432,0.065680556,
0.033499952,-0.012501901,0.0,
0.014631028,0.06720235,-0.023021031,
-0.04483198,-0.010833253,-0.029534351,
-0.030478388,-0.010089369,0.0,
0.0,-0.018058013,0.021822562,
0.014964325,0.01595995,-0.013204363,
-0.023543442,0.02125636,0.0,
0.0,0.06294201,0.09094799,
-0.0894804,0.010748454,0.06215236,
-0.039083786,-0.045757227,0.0,
0.03472298,-0.019051777,-0.018158562,
-0.07773953,0.0,0.013003067,
0.0,0.04184032,0.07184259,
0.0,0.051812682,0.017875394,
0.043689422,0.059760727,0.05273309,
0.06540196,0.0,-0.014988353,
0.05732542,0.032279763,-0.03723513,
0.030618181,0.015361275,-0.06232259,
0.03501187,-0.05473132,0.0,
0.026988756,0.0,0.0,
-0.065761745,0.02443617,-0.014893278,
-0.017961191,0.07594833,0.014593765,
0.029735496,0.04490103,0.0,
0.06758376,0.0,0.034540147,
0.068377905,-0.0771009,-0.017113684,
0.012869539,-0.042900383,0.035510063,
0.0,0.0,0.027296359,
0.04887772,0.0,0.02806865,
0.044495884,-0.02814155,-0.026417216,
0.016729448,-0.06642965,0.020557836,
0.02336567,0.02032309,-0.011503272,
0.011185421,0.017043682,0.0,
-0.056554712,0.0,-0.052589078,
0.0,0.010311383,-0.04167833,
0.014085989,0.0,-0.057629716,
-0.0487574,0.03974854,-0.09303262,
-0.051369157,-0.028602604,-0.014083073,
-0.036861736,0.0,-0.05737451,
-0.028832864,0.014831463,-0.023683026,
-0.0744588,0.017572498,-0.054258488,
-0.089094006,0.0831475,0.0,
-0.054543998,0.012972989,0.014330591,
-0.05519867,0.026561558,0.07443785,
-0.018521914,0.062328633,0.05465669,
-0.024617733,0.015896155,-0.029401967,
-0.03258695,0.0,-0.014446117,
-0.05816565,0.049516823,0.0,
0.0,0.038846374,0.0,
0.026019568,0.029365065,0.07362441,
0.010990984,0.02890041,-0.015064474,
0.034303237,0.0,0.063606426,
0.081040345,-0.035110895,0.029662024,
0.06372001,-0.047237538,0.0,
-0.029200647,-0.015825842,0.053640917,
-0.024717253,0.0,0.041170236,
-0.04467409,0.02076807,0.031864136,
0.060604915,0.020627517,0.043257624,
-0.020583473,0.021305623,0.07380057,
0.016580379,0.030112587,0.019528516,
0.032131135,-0.011150957,0.0,
-0.011590343,0.049952906,0.03758667,
0.024022225,0.010554457,0.027009739,
-0.039497245,-0.019893423,0.1061546,
0.0,-0.018329402,0.08238232,
-0.0345941,0.01296257,0.023740971,
-0.026228456,0.011417077,-0.023173787,
-0.030265344,0.0,-0.024914583,
-0.020270186,-0.076845,0.0,
0.037020598,0.06272117,-0.06749491,
0.0,0.0,0.011705735,
0.02547841,0.050387375,-0.017698133,
0.038072865,0.049857948,0.0,
0.077985644,0.010355432,-0.02582685,
0.054459486,-0.030797616,-0.051044673,
-0.03252709,-0.035202507,-0.047549356,
-0.022218784,0.0,0.01832968,
-0.054349095,0.02022157,0.054991804,
-0.051693007,0.047280874,0.01332625,
0.06693587,0.014765121,-0.024201093,
0.06157032,0.07724337,-0.020446053,
0.093120374,-0.026280247,0.0,
-0.030411117,0.017007818,0.060578354,
0.0,0.02973059,0.0,
0.019886296,0.0,0.022394435,
0.041970555,-0.0329741,0.0,
0.0,-0.06205552,-0.027566366,
0.0,-0.011075318,-0.04680866,
-0.07435603,0.0,-0.044120107,
-0.10771018,0.089225344,-0.08020131,
0.011425421,0.018768879,-0.06852679,
-0.010350833,0.016528789,-0.1078903,
-0.03794386,0.026170751,-0.07612111,
-0.05931597,-0.012690401,-0.115038686,
-0.04335502,0.0,-0.05156639,
-0.0727971,0.030500168,0.0,
-0.05542683,-0.012241534,-0.011946088,
-0.08155323,0.018689437,-0.04030852,
-0.07126543,0.0,0.0,
0.016241733,0.0,0.0,
0.0,-0.013733371,0.0,
-0.014585564,0.0,0.037093252,
-0.063026294,0.0,-0.030431945,
-0.07222174,0.0,0.025092611,
0.0,0.050811816,0.09691701,
-0.012166886,0.07108704,0.07151283,
-0.020127067,0.040029507,0.07143199,
0.041115917,0.013398834,0.0,
0.034121897,-0.03834693,0.066703804,
0.012013407,0.0,-0.027321814,
0.017375031,-0.037136696,-0.022204174,
-0.02069671,0.0,0.017934449,
-0.054232765,-0.021449167,0.085663624,
0.0,0.0,0.04777161,
0.046981003,0.030895235,0.05467278,
0.0,0.0,0.0,
-0.028978962,0.0,0.013577895,
0.0,0.0,0.027428458,
-0.03204375,0.0,0.0700264,
0.0,0.019690473,0.11028117,
0.01784496,0.023430644,0.048277594,
-0.039047822,0.04172812,-0.011315836,
-0.052261796,0.0,-0.01146065,
-0.03810195,0.0,0.0,
0.028990801,0.07197855,-0.031581737,
0.020923313,0.042977504,-0.050261736,
0.011114751,0.01762594,0.025466068,
0.032418247,0.09180532,-0.029495362,
0.03250176,0.07289646,-0.036382906,
0.0,0.014194436,-0.066538714,
0.021655578,-0.014378231,0.0,
-0.05187401,0.04228733,0.02725796,
-0.042693444,0.043448154,0.0,
0.0,0.023710266,0.047937665,
0.0,0.07292229,0.06129854,
0.035613507,0.026614308,0.0,
0.052330025,0.01278239,0.031393506,
0.03827969,0.0,-0.014963732,
0.04171058,0.011341158,0.026648946,
-0.030156657,-0.015315771,0.030033793,
0.048525475,-0.02672048,0.05102769,
0.0,-0.038595594,0.019350745,
-0.01635739,-0.027348407,-0.011402603,
-0.060435146,0.031022009,-0.07052628,
-0.06532753,0.07007707,-0.1369433,
-0.12546755,0.056570757,-0.1257328,
0.020020235,0.05537506,0.03287599,
-0.017311053,0.0,-0.09324602,
0.022663407,0.0,-0.0444015,
-0.03791294,0.015445815,-0.04538455,
-0.025022319,0.026978748,-0.03150433,
-0.037141528,0.0,0.010002611,
-0.05031082,0.026769223,0.014312468,
-0.11595996,0.067807704,0.0,
-0.022264326,-0.025635738,0.013576895,
-0.027847225,-0.021311196,0.027550291,
-0.045684505,0.0,0.0,
-0.012794375,0.0,0.0,
-0.021959448,-0.036469694,-0.026457904,
-0.044024125,0.0,0.04448605,
-0.067470334,0.027419867,0.07094747,
0.020718912,0.02744252,0.08449976,
0.0,0.025975907,0.08505189,
0.054814048,-0.018513938,0.09187757,
0.024005225,0.0,0.051915698,
-0.011439809,0.046369422,0.0,
-0.016957998,0.0,0.022946907,
-0.020032879,0.012624705,0.0,
0.010414309,-0.012980936,-0.010854,
0.0627115,-0.035354413,0.05216432,
0.09460331,0.0,0.021180348,
0.0,0.049498342,-0.011067634,
0.02634223,0.020806618,0.012632633,
-0.038593844,0.030038953,0.014290408,
-0.03189386,0.029738765,0.0,
0.0,-0.013926253,0.063731074,
0.0,0.069718674,0.05902972,
-0.02521754,0.029240828,0.05041188,
0.029187059,0.051627968,0.04591078,
0.020368248,0.09206944,-0.06236413,
0.061220426,0.03361151,0.051754933,
0.053246316,0.0,-0.01839029,
0.038062017,0.0,-0.024238084,
-0.026396561,0.052512426,0.0,
0.0,0.05506798,0.0,
0.017103797,-0.017734947,0.07583168,
0.026836947,0.0,0.041425053,
-0.018131953,0.043701474,0.05656663,
-0.042586103,0.07388544,0.06656743,
-0.07113657,0.033578195,0.016974865,
-0.029917309,0.059600346,0.018044969,
-0.0119384825,0.04933075,0.059429817,
0.030832557,-0.0174081,-0.041243352,
0.0,0.0,0.01558784,
-0.019266859,0.03702597,0.019190226,
-0.055132385,0.0,0.016389415,
-0.03662267,0.0,0.0,
0.0,-0.0339777,0.033114143,
0.016610079,0.01382204,-0.040969994,
-0.032975353,0.042395517,-0.039120357,
-0.086215414,0.04792285,-0.10071889,
-0.09691521,0.027254606,-0.15884586,
0.06289049,0.052253794,-0.022264965,
0.01162106,0.019034425,-0.010408193,
-0.018256161,0.032866262,0.0,
-0.055289127,0.058911495,0.0,
-0.020627348,0.034677003,-0.034398615,
-0.049438775,-0.053866405,-0.022327218,
-0.04305079,0.03595025,0.031132376,
-0.08940919,-0.01534455,0.0,
-0.03177911,0.0,0.027217753,
0.016719945,-0.021898821,0.012436638,
0.042183626,-0.033697568,0.031033268,
0.0,-0.032796256,0.04060447,
-0.046512958,-0.025791978,0.02033449,
-0.08370279,0.0,0.03439193,
-0.060987096,0.030983962,0.077857815,
-0.015220866,0.07208128,0.06379554,
0.019720493,0.010808853,0.07595198,
0.0,0.011391769,0.07335208,
0.013672859,0.0,0.039385516,
-0.0663962,-0.01664806,-0.017586779,
-0.017446756,-0.010741283,0.05554977,
0.014915346,-0.017645393,0.05218721,
-0.013453623,-0.05749245,0.017485786,
0.03280789,-0.030537272,0.0,
0.035980888,0.02769758,0.028575392,
0.0,0.0,0.0,
-0.021510672,-0.02004894,0.0,
-0.031093618,0.032675307,-0.035054643,
-0.0145489415,0.015485669,0.0,
0.0,0.06657413,0.0,
0.0,0.05064535,0.057674907,
-0.027295077,0.0,0.027609503,
0.019121803,0.075236045,0.032129817,
0.0122737,0.065098606,0.060493972,
0.07572582,0.04275603,0.0,
0.031844154,0.039587166,-0.017947508,
0.06540888,-0.010618889,0.010943216,
0.016912952,0.0,0.010938472,
-0.025138192,0.023023702,0.011422512,
-0.025687668,-0.014386353,0.06095216,
-0.010905516,-0.017469766,0.030777812,
-0.042124122,0.090413645,0.1202932,
-0.05527617,0.025614653,0.08803818,
-0.06497327,0.051339626,0.0705103,
0.015766332,0.0,-0.020310683,
0.02942561,0.05029748,-0.013285267,
0.0499502,0.014640665,-0.026321888,
0.062591955,0.0,-0.059351128,
0.021230599,0.031160349,0.0,
-0.06763898,0.06811739,0.010970175,
0.0,0.0,0.032350387,
-0.023962535,-0.030467154,0.03224001,
0.051682007,-0.05528162,-0.0134762265,
0.0,0.036802,-0.048150286,
-0.0549824,0.06252712,-0.05706883,
-0.048965804,0.044679303,-0.06674545,
0.060077608,0.048709843,0.0,
0.022015892,0.03749144,-0.014076142,
0.024243455,0.0,0.0,
0.016154347,-0.018225718,-0.041978657,
0.015814401,0.0,0.028090354,
0.017343732,0.0,-0.030761233,
-0.02168696,0.0,0.0,
-0.026174476,0.0,-0.033511538,
0.0,0.032721266,0.015876915,
0.0,-0.06508478,0.04201795,
0.04635734,-0.080206424,0.014824065,
0.05511321,-0.040753376,0.03662259,
0.0,-0.042922698,-0.016426446,
0.0,-0.02948034,0.04427315,
0.0,0.017901324,0.03324302,
0.018405207,-0.01673671,0.119289555,
0.0,0.0,0.046239693,
-0.01229905,0.026060263,0.044767696,
0.0,0.0,0.036087148,
-0.055262756,0.0,-0.024343284,
-0.027186027,0.015113262,-0.03272689,
-0.060261,0.07064251,0.03906803,
0.0,0.0,0.0,
0.052851416,0.0,0.0,
0.019897912,0.0,0.0,
0.0,-0.01870667,0.034393836,
-0.049738165,0.018565461,0.0,
-0.013905508,0.0,0.02054249,
-0.03962684,0.05496424,-0.042191476,
0.019572923,0.073846005,-0.0335886,
-0.019240947,0.079039104,0.0,
0.037443288,0.08005014,-0.012580677,
-0.046983823,0.054923706,0.02232526,
0.038948305,0.05859546,-0.018834246,
0.0981837,0.015688514,-0.016495854,
0.028780721,0.030729719,0.0,
0.0,-0.033844132,0.0,
-0.012803105,0.03906733,0.02543231,
-0.049068887,0.0,0.04079124,
-0.015844114,0.03843197,0.020693064,
0.0,0.018178375,0.081264496,
0.0,0.038433883,0.049234923,
-0.039906587,0.059545137,0.06779192,
-0.02774021,0.018397477,0.02779592,
0.019861799,-0.024424516,0.021197958,
0.030011965,0.0105526075,0.0,
0.0,0.047552228,-0.076548055,
0.0,0.05182392,-0.089233845,
0.0,0.02972666,-0.03002325,
0.0,0.045913596,0.0,
0.0,0.0,0.0,
0.019571306,0.021579556,-0.011068834,
0.050994553,0.0693372,0.012812052,
-0.046611466,0.015918093,-0.038485233,
-0.03385445,0.029929372,-0.030118808,
-0.032319788,0.0,-0.07871685,
0.0781039,0.06064175,-0.04933044,
0.05642823,0.04799163,0.0,
0.016071333,0.021122938,0.0,
0.050057728,0.0,0.04979146,
-0.045611784,0.018938333,0.011843117,
0.026520725,0.0,0.031089474,
-0.019239822,-0.038955543,0.027528314,
-0.017677518,0.0,-0.024683949,
0.012055746,0.0,0.026945654,
-0.042592302,0.0,0.027416239,
0.01283195,-0.07304534,0.0,
0.05420904,-0.057146177,0.0,
0.0155298235,0.012110422,0.0,
-0.011144459,-0.014131987,0.0,
0.0,-0.026404873,0.0,
0.0,0.0135034,0.071282156,
0.015966374,0.018855942,0.049409077,
-0.014574307,-0.038180348,0.036392514,
0.014765215,0.01875269,-0.04518498,
-0.04422956,0.045274995,-0.04343153,
-0.032187656,0.047817193,-0.022556366,
-0.050518654,0.05327314,0.013400369,
0.028217763,0.02384502,0.033514548,
0.022941759,0.0,0.0,
0.02793677,-0.018978007,0.020927126,
0.0,0.034554195,0.024921041,
0.0,0.019343603,-0.021497237,
0.0,0.069289654,-0.043730598,
-0.056200594,0.018655572,-0.045237176,
-0.011023875,0.0,0.0,
-0.022185089,0.043321576,-0.040120605,
-0.05157993,0.07253797,-0.012247667,
-0.037011072,0.047061194,0.0,
0.01697586,0.110320285,-0.017573431,
0.02913206,0.05726176,0.033826694,
0.05391055,0.016795486,0.04813134,
0.053371537,0.026536874,0.0,
-0.024108503,0.016800022,0.019131258,
-0.052442808,0.016430516,-0.030732663,
0.0,0.025582204,0.05356233,
0.0,0.0,0.02895208,
-0.014977027,0.03897406,0.034811486,
0.0,0.064286575,0.011044231,
-0.018637618,0.04163242,0.025254166,
0.030683683,0.028216299,0.03437799,
0.049757056,0.0,0.032790694,
0.019489221,-0.045316245,-0.025568936,
0.0462183,-0.01889448,-0.089736514,
0.023836803,0.018235186,-0.079582796,
-0.014046134,0.032274883,-0.054174565,
-0.044177502,0.020431427,-0.015018635,
0.057285827,0.0,0.07657194,
0.05671553,0.0,0.040453367,
-0.01776199,0.06555868,0.0191214,
0.020787649,0.04092142,-0.07608669,
0.0,0.010534854,0.023264457,
0.042536855,0.034101665,-0.012060589,
0.0,0.039253946,0.067728885,
0.010125993,0.0,0.054753937,
0.0,0.011872622,0.08151189,
-0.017534249,0.0,0.06373539,
0.03587892,-0.061544664,0.023840318,
0.0,0.0,0.013509946,
0.01915103,0.0,0.0,
0.03187444,-0.04277433,0.010335694,
0.0,0.0154431285,-0.011155514,
0.029360397,-0.033997316,-0.087523125,
0.010789019,-0.029259492,-0.026421329,
0.07697005,-0.01675288,-0.03479366,
0.02811137,0.03096861,-0.05219684,
-0.010084402,0.02826828,-0.02334082,
0.055541366,0.0,0.0,
0.08008462,0.0,0.0,
0.012341266,0.0,0.0,
-0.012067994,0.025069429,-0.09053524,
0.0,0.054253843,-0.049252555,
-0.097999066,0.101034656,-0.022914387,
-0.020477954,0.03907996,0.013554969,
-0.019876713,0.047458235,0.0,
0.086246185,0.0,0.055797033,
0.03182809,0.032379072,-0.041167114,
0.016807623,0.034526788,-0.016731296,
0.0,0.0,-0.017277114,
0.043311566,-0.013737861,0.0,
0.034772865,0.0,-0.01753377,
0.060496125,0.024040382,-0.050363183,
0.025449527,0.0,-0.037611485,
0.0,0.13195597,-0.05882857,
0.018496864,0.06190361,0.0,
0.02982719,0.0,0.029898178,
0.0,0.0,0.057448342,
0.0,0.073050916,0.01962301,
0.0134652015,0.0,0.010513079,
-0.042126507,0.042532828,0.0,
0.030723978,-0.031034673,0.0152202835,
-0.033052076,0.04554789,0.0,
0.0,-0.05191799,0.021260928,
-0.052180033,0.0,0.060442157,
-0.043668214,-0.012608001,0.06424403,
0.054222096,0.04906804,0.05469307,
-0.012752194,0.024601793,-0.042105317,
0.04928901,0.032281883,0.017657157,
-0.032156732,0.05680876,-0.013124926,
0.013078636,0.01688695,-0.09994522,
0.0,0.03495155,-0.03019524,
-0.049119644,0.062417652,-0.04279572,
0.0,0.017724412,0.025369925,
0.028420098,0.0,0.019502291,
0.061007757,0.011934023,-0.017116683,
0.0150250895,0.08755018,0.011168097,
-0.031305354,-0.014030157,0.0,
-0.06401783,0.0,-0.012327189,
-0.011409971,0.06846127,-0.032216508,
0.0,0.014333493,0.038604937,
0.035283778,0.022679213,0.025629403,
0.0,0.0,0.080346115,
-0.06312757,-0.020795586,0.060289983,
-0.042327862,0.0,0.021219902,
-0.031428307,-0.018760525,0.04759966,
0.0,0.0,0.023737535,
0.06430984,0.0,0.027711794,
0.025014114,-0.044854656,-0.019894538,
0.026370954,0.014315441,-0.011020142,
-0.030723076,0.02064237,-0.0340333,
0.032860972,0.022931319,-0.01202974,
0.0,0.0,-0.025138557,
0.06686403,-0.05168379,0.0,
0.051401626,0.04408775,0.0,
0.07491432,0.016812347,0.06532153,
0.09276185,-0.039769325,0.013612222,
-0.02986495,-0.01758349,-0.06564049,
0.04606774,0.0,-0.016776556,
-0.015829472,0.047295094,-0.034519486,
0.016341375,0.09684985,0.0,
0.0,0.03986571,0.027788091,
0.059602484,0.03241757,-0.04578085,
0.043995712,0.026997749,-0.054001726,
0.016116831,0.02358188,0.0,
0.014791176,-0.04958031,0.026550721,
0.030816684,0.0,0.0,
0.06348771,-0.016090594,0.0,
0.079626754,0.039250143,-0.034658525,
0.06859316,-0.018705618,0.024548592,
0.019123632,0.015391824,0.0,
0.06369341,0.067327686,0.0,
0.06810938,0.016068328,0.0,
0.0,0.067859314,0.04061668,
0.026683241,0.023108143,0.038883418,
0.050892565,-0.015244603,0.0,
-0.03565737,0.018665712,-0.01923826,
-0.065720916,0.0,-0.014382867,
-0.032101784,-0.020956006,-0.018371738,
0.066103615,-0.053963523,0.04764997,
0.028343225,0.016371096,0.0379169,
0.025406254,-0.03945486,-0.029930716,
0.0,0.0,-0.063422814,
0.028262137,0.017360566,-0.022780279,
-0.030862477,0.028813615,0.0,
-0.012530237,0.0,-0.035680465,
-0.028145086,0.04128784,-0.035674162,
-0.013622217,0.08314075,-0.057769943,
-0.03019724,0.014823354,0.025238987,
0.02527298,0.03931195,0.013908374,
0.090924054,-0.011313122,0.0,
0.059881266,0.023235315,0.0,
0.0,0.0,0.053339098,
0.03126663,0.023047395,-0.013380621,
0.0,0.032627292,-0.013283976,
-0.016221076,0.034884125,0.0,
-0.03960172,0.0,0.017565114,
-0.016781861,0.0,0.062120873,
-0.04276835,0.0,0.04693796,
-0.022492792,0.04566399,0.03919875,
-0.023625914,0.028648011,0.0,
-0.02408289,0.017066682,0.0,
0.017143188,0.03577586,-0.021937335,
0.021149218,-0.029674865,-0.011423613,
0.013664346,0.01844277,-0.03800594,
0.03993791,0.035271034,-0.04342076,
-0.015388218,0.0,-0.04907199,
0.0,0.0242508,0.0,
0.011724114,0.019540118,-0.019586092,
0.021635976,0.017523734,0.0,
0.04894964,0.068491414,0.065034315,
0.07400507,0.031216381,0.050895415,
0.0468741,0.021015402,0.02289054,
0.05875734,-0.039088603,-0.025941232,
0.019900873,0.0,-0.043628927,
0.06583072,0.043622304,-0.041164543,
0.036181588,0.01776945,0.0,
0.058102697,0.0,-0.015037382,
0.0,0.0,-0.026754064,
0.026806472,0.075417705,-0.039215583,
0.022336496,-0.04540838,0.0,
0.053764284,0.019395798,-0.048471127,
0.05103498,-0.02715233,0.0,
0.053178765,0.014283897,0.0,
0.04996475,0.0,0.0,
0.08782807,0.0,-0.02601298,
0.0137171345,0.065875374,-0.045096494,
0.06099336,0.0,-0.026654083,
0.014378942,0.0,0.029531002,
-0.042042725,0.031511117,0.025327373,
0.018788917,0.02265944,-0.019116698,
0.01042378,0.011279377,0.05966015,
0.0,-0.031293057,0.0,
-0.019727819,0.0,-0.029621001,
0.038717605,-0.024135958,-0.071604185,
0.01770694,-0.035595927,0.017513687,
0.0,-0.045403216,0.029486973,
0.0,-0.03817108,-0.019362995,
0.0,-0.011381748,-0.03598491,
-0.018282464,0.0,-0.07268684,
-0.012772397,-0.050473925,-0.08014091,
-0.0578173,0.05909794,-0.089709975,
-0.045843314,-0.01848065,-0.075935245,
-0.034551155,0.024682913,-0.07877644,
-0.035907853,0.06466064,-0.039832227,
0.027003555,0.093997516,0.017162986,
0.030169286,0.0,0.050994568,
0.076725185,0.027776036,0.015847204,
-0.014794561,0.04701682,0.03254361,
0.0,0.1053151,0.0,
-0.020637423,0.035610188,-0.03312111,
-0.019399047,0.07254824,0.0,
-0.048066303,0.021027293,0.0,
-0.041970603,0.0,0.058691192,
0.041025545,0.0,0.03349647,
-0.028365696,-0.016939761,0.023040663,
-0.032064483,0.0,0.0,
-0.016309422,0.0,-0.026341887,
0.07753799,0.0,0.03390433,
0.04633942,0.0,0.0,
0.07401654,-0.033138927,-0.025300115,
0.07857179,-0.03742566,-0.046577375,
0.035358895,0.03668422,-0.029707767,
0.046190165,0.033166017,0.028286494,
0.0,0.031469613,-0.04936248,
0.018909749,-0.014516112,0.021819286,
0.056790914,0.050262198,0.048703812,
0.109829925,0.015565029,0.06879053,
0.07660184,0.0,0.0,
0.029463949,-0.03419205,-0.057716433,
0.0,0.016873538,-0.045602422,
0.01534234,-0.034821097,0.031088052,
0.06317028,0.02311846,0.0,
0.066732936,0.09411779,0.012410168,
0.011822945,0.0,0.03354847,
0.0,0.11448593,-0.027345074,
-0.02325513,0.0,-0.02755472,
-0.042799823,-0.0100289835,-0.053945698,
0.0,0.0,-0.047238287,
0.025794001,-0.012110186,-0.032000463,
0.072620265,-0.023701916,-0.042023893,
0.030993346,0.053480897,-0.04764992,
-0.028801426,0.03297708,-0.011491228,
-0.04096908,0.06618298,-0.046145145,
-0.04603346,0.020174377,0.0,
-0.022479884,0.021659575,-0.015301967,
-0.025643436,0.038419876,-0.012115878,
-0.023808468,-0.029501688,0.0,
-0.05401287,0.0,-0.036687713,
-0.027122011,-0.024813011,-0.07756562,
0.0,0.0,0.0,
0.035531677,-0.043571547,-0.03089483,
0.016979193,-0.018238917,0.0,
-0.02736194,0.0164958,0.0,
-0.0766824,-0.023836771,-0.033773594,
-0.052545663,-0.042828783,-0.023552014,
-0.08468251,0.0,-0.056939896,
-0.05026849,0.012993388,-0.043371752,
-0.06972178,0.0,-0.07145283,
-0.056590773,0.016897844,-0.054327767,
-0.03181428,0.06297966,-0.04078989,
0.0,0.07044857,-0.03259479,
0.0,0.033821933,-0.046109777,
0.041683156,0.0,0.071775906,
0.0656494,0.0,0.050354257,
0.062583126,0.010524103,0.0,
0.033677503,-0.013879431,-0.042712588,
-0.032675274,0.04252671,0.0,
0.016919563,-0.017911598,0.014012661,
0.0,0.011091795,0.048611563,
-0.025184287,0.039471317,0.057221305,
0.0,0.012751278,0.046672154,
0.0,-0.027044283,0.01842714,
0.039995886,0.024670262,0.08762802,
0.0352618,0.0,0.019250782,
0.11821898,-0.015353571,0.01664467,
0.12339435,0.010615661,-0.054328553,
0.10913311,0.0,-0.04891304,
0.02771495,0.023034511,0.0,
0.028870223,0.021798357,-0.021148887,
0.04165207,0.026836084,-0.09333415,
0.010203619,-0.028537536,0.021886226,
0.02944963,0.0,0.05852597,
0.039253023,-0.03131277,0.041307632,
0.096034795,0.03677598,0.01118641,
-0.054220255,-0.036208306,-0.053436156,
-0.06905217,0.0,-0.015263788,
-0.050764356,0.012355364,-0.028953673,
0.02132009,0.023715463,0.030017016,
0.061892178,0.015928501,0.054820556,
0.072981,0.023046164,0.02636317,
-0.050762076,0.034716073,-0.03549742,
-0.03982075,-0.0549288,-0.051065613,
-0.029655505,0.04006944,-0.0651255,
-0.038780287,0.033325877,0.0,
0.0,0.011870941,-0.035459366,
-0.021485906,0.022736074,-0.04043752,
-0.034471948,0.031630635,0.019664135,
-0.10052514,0.06311697,0.015175906,
-0.08398227,0.021281177,0.027005896,
-0.03994137,0.029385112,-0.03295295,
-0.037461642,0.029814944,-0.033320066,
0.0,0.010274413,0.0152157685,
-0.028704958,-0.030416206,-0.011141041,
-0.05819175,0.04960728,-0.045542285,
-0.025631819,0.035866562,-0.06289661,
0.0,0.0,-0.029616661,
0.04838909,-0.029221468,-0.025887057,
0.03774679,0.021127127,0.025725136,
0.014757098,-0.01780081,-0.049677644,
-0.04533235,-0.03341059,-0.041118674,
-0.11881361,-0.060106456,-0.06132315,
-0.09384334,-0.028716398,-0.062897354,
-0.14250633,-0.04311987,-0.06537174,
-0.028320508,0.0,0.011885889,
-0.055390436,0.03614009,-0.091418654,
-0.03534121,0.07015335,-0.07291635,
-0.043063905,0.08210605,-0.032606058,
0.029303212,0.05154397,0.026669834,
0.077647924,0.0,0.025261471,
0.10955123,0.02947215,0.014950924,
0.11326119,0.0,-0.054679953,
0.08711916,-0.02308808,-0.03257908,
-0.09106646,0.05142121,0.054328635,
-0.018928166,0.0,0.058088675,
0.0,0.030655278,0.07411443,
-0.023606827,0.026327843,0.0,
0.010809729,0.058883563,0.011993751,
-0.016243346,0.025291385,0.06492423,
0.040898006,0.022353837,0.07930257,
0.06988748,0.053585812,0.026975846,
0.04451225,-0.017377013,0.039922807,
0.07769887,-0.028458007,-0.02818377,
0.024230614,0.0119079985,-0.04090555,
0.03590308,0.0525432,0.010084725,
0.032349557,0.01601453,-0.055928208,
0.0,0.017687287,-0.024956405,
0.066183396,-0.04203618,0.039334774,
0.015346957,0.03629936,-0.014847268,
0.0,0.05629987,0.0,
0.026203128,-0.045773987,0.0,
-0.07129298,0.0,-0.04515786,
-0.08248608,0.011955088,-0.036461726,
-0.0839999,0.014901583,0.011856418,
-0.011055525,0.035308238,0.015292403,
0.11635722,0.04148934,0.016676767,
0.0,-0.01716947,-0.016492855,
-0.02293641,0.060703926,-0.07871495,
-0.03301593,0.012808339,-0.061153177,
0.0,-0.041676298,-0.0131752975,
0.0,-0.01990751,-0.04736329,
0.019710183,0.03545186,-0.026420664,
-0.06640978,0.010482326,-0.024156822,
-0.07111431,0.011362198,-0.024364993,
-0.10134591,0.016141426,0.031420276,
-0.027755653,0.0,0.012979539,
-0.048879832,-0.019475343,0.012235948,
-0.011139823,-0.03956849,0.0,
-0.0111528365,-0.04950996,0.028085476,
0.0,-0.029721757,0.0,
0.0,-0.022810748,-0.08687063,
-0.034650464,-0.034364797,-0.06560827,
0.0357387,0.0,-0.025159366,
0.056320496,-0.012227252,0.0,
0.0,-0.053983685,0.05411884,
-0.010520289,-0.06589436,-0.03965774,
0.0,-0.056140587,0.0,
-0.064333275,-0.03238647,-0.011518965,
-0.084552355,-0.015239116,-0.057149015,
-0.10599999,-0.058869302,-0.021999642,
0.0,-0.016274584,-0.0643757,
-0.043222632,0.025860671,-0.06570679,
0.024665905,0.078269355,-0.055747673,
-0.049870487,0.02506414,-0.06441537,
0.04222088,-0.033768505,0.01636686,
0.1310003,-0.014230444,0.08556938,
0.045101065,0.047089424,0.041862443,
0.051995087,-0.027245767,-0.04113439,
0.1358879,-0.020708974,-0.09334467,
-0.09579636,0.092556074,0.049071316,
-0.07894627,-0.023151558,0.09588068,
-0.06796467,0.0,0.04970392,
-0.037983824,0.033136263,0.065472454,
-0.019254252,0.06339963,0.06535025,
-0.022318797,0.10650057,0.07696227,
0.036614362,0.036164016,0.054279186,
0.06437678,0.0,0.052308805,
0.11896763,0.031457342,0.0,
0.08279175,0.026905399,-0.060109742,
0.06013273,0.0,-0.0152082825,
0.0,0.06903444,-0.04564414,
0.0,0.08455624,-0.03727136,
0.058100153,0.029087761,-0.040918566,
0.0,-0.02442823,0.0,
0.0,0.0,0.044542763,
0.026297329,0.016595235,0.039591353,
0.012081383,-0.030797612,-0.011833323,
-0.048751917,0.018539805,0.01263784,
-0.10545729,-0.018224023,-0.020033302,
-0.11161829,0.0,0.0,
-0.09403037,-0.01406294,0.038038123,
0.03178304,0.0,-0.03865959,
0.07593585,0.029458184,-0.012813351,
0.0,-0.010017424,-0.027814927,
-0.058783144,-0.014451618,-0.01493934,
0.0404691,-0.031159392,-0.058351096,
0.014993934,-0.049345344,-0.046967447,
0.026376259,0.0,-0.010034628,
0.0,0.024834871,-0.020232296,
-0.039435636,0.038548857,0.0,
-0.08483104,0.041377135,0.024311896,
-0.09514535,-0.05963089,0.061529674,
-0.039033193,-0.059446074,0.01327171,
0.030592361,-0.07166344,0.046755124,
0.040006377,0.0,0.015435648,
0.0,-0.04038682,0.0,
-0.020803748,-0.039994366,-0.032644134,
0.0,-0.028025214,-0.056238007,
-0.02140021,-0.014280621,-0.033169255,
0.087992884,-0.016846118,0.05153291,
